svm_type one_class
kernel_type rbf
gamma 0.10000000000000001
nr_class 2
total_sv 2252
rho 0.17752561976868861
SV
0.14901596888486413 1:8286 2:154.32751 3:69.083529 4:0.89421269 5:8522 6:102.7135 7:0.6620326 8:366.956 9:0.77326225 10:2.2339263 
0.17751616258499722 1:8539 2:155.61985 3:70.148588 4:0.89264069 5:8671 6:104.26981 7:0.60074574 8:366.447 9:0.79908787 10:2.2184316 
0.17784066601075352 1:8196 2:152.50401 3:68.929983 4:0.89202401 5:8361 6:102.15415 7:0.58744266 8:363.33 9:0.78020602 10:2.212448 
0.17752215266658405 1:8845 2:158.31827 3:72.198065 4:0.88996381 5:9070 6:106.12165 7:0.64524365 8:378.121 9:0.77740281 10:2.1928326 
0.15854344538817594 1:8009 2:150.79393 3:68.426078 4:0.89111777 5:8171 6:100.98206 7:0.60218045 8:361.979 9:0.76810644 10:2.2037494 
0.1777900783310839 1:8498 2:159.41309 3:69.230395 4:0.90077648 5:8763 6:104.01918 7:0.55217674 8:378.348 9:0.74600838 10:2.3026459 
0.17557880869202824 1:9087 2:165.58365 3:70.765081 4:0.90407797 5:9230 6:107.5636 7:0.82309783 8:386.497 9:0.76443073 10:2.3399062 
0.17752263983791705 1:8744 2:160.96267 3:69.951021 4:0.90063365 5:8972 6:105.51401 7:0.57431855 8:380.108 9:0.76051186 10:2.3010768 
0.17454680820042923 1:7888 2:150.43105 3:67.692609 4:0.89303312 5:8085 6:100.21633 7:0.5804695 8:356.549 9:0.77971937 10:2.2222669 
0.17752168748587216 1:8282 2:151.49326 3:70.447035 4:0.88530143 5:8420 6:102.6887 7:0.64905956 8:361.78 9:0.79516267 10:2.1504562 
0.17747200854304268 1:8827 2:155.32562 3:73.087909 4:0.88237526 5:9068 6:106.01361 7:0.62350781 8:377.221 9:0.77952719 10:2.125189 
0.17713655655633795 1:7248 2:149.26963 3:62.710594 4:0.90747031 5:7583 6:96.064771 7:0.66648276 8:352.112 9:0.73462617 10:2.3802937 
0.16429119812665699 1:8940 2:158.33044 3:72.856584 4:0.88783846 5:9133 6:106.69003 7:0.61015561 8:376.419 9:0.79287424 10:2.1731796 
0.17714806719798198 1:9704 2:166.96549 3:74.874428 4:0.89381167 5:9992 6:111.15537 7:0.77316548 8:401.219 9:0.75752622 10:2.2299402 
0.17784258193012314 1:8674 2:153.80384 3:72.324629 4:0.88253888 5:8837 6:105.09082 7:0.80906632 8:370.52 9:0.79397343 10:2.1265762 
0.17708160808562845 1:8275 2:150.50366 3:70.720165 4:0.88272497 5:8502 6:102.6453 7:0.57972537 8:363.405 9:0.7874012 10:2.1281576 
0.17754660792313723 1:7744 2:150.08392 3:66.661182 4:0.89594779 5:7956 6:99.297367 7:0.58844985 8:357.563 9:0.76114967 10:2.2514441 
0.1776700154224784 1:6577 2:133.01644 3:64.031371 4:0.87651236 5:6708 6:91.51009 7:0.59103163 8:323.26 9:0.79092221 10:2.0773637 
0.17508557988760157 1:6211 2:137.36133 3:58.716134 4:0.90403544 5:6370 6:88.927447 7:0.75734667 8:323 9:0.74811153 10:2.3394138 
0.17713769965951037 1:8313 2:155.96054 3:68.747035 4:0.89760652 5:8602 6:102.88071 7:0.6064342 8:372.35 9:0.7534682 10:2.2686149 
0.17453491561594953 1:6204 2:138.93814 3:57.862721 4:0.90915224 5:6407 6:88.877321 7:0.58396084 8:327.417 9:0.72724242 10:2.4011684 
0.17751068714349119 1:9142 2:160.76591 3:73.295131 4:0.89002478 5:9361 6:107.88863 7:0.70215054 8:388.037 9:0.76296533 10:2.193405 
0.14489293803931272 1:9201 2:166.8241 3:71.110194 4:0.90460139 5:9439 6:108.23621 7:0.64882589 8:393.983 9:0.7448862 10:2.3459942 
0.17751940799231367 1:7686 2:146.12995 3:67.796424 4:0.88586342 5:7887 6:98.924816 7:0.71664336 8:350.167 9:0.78769813 10:2.1554227 
0.17751672179078642 1:8401 2:153.90829 3:70.035892 4:0.89046614 5:8578 6:103.42381 7:0.59033097 8:370.829 9:0.76770341 10:2.1975631 
0.17748608450887493 1:9621 2:168.02752 3:73.824278 4:0.89831193 5:9895 6:110.67898 7:0.56912156 8:398.951 9:0.75961051 10:2.2760469 
0.17468883648562641 1:8960 2:160.63961 3:71.934703 4:0.89413285 5:9157 6:106.8093 7:0.58295381 8:381.133 9:0.77511255 10:2.2331309 
0.17715145773536142 1:6608 2:146.73073 3:58.625877 4:0.91671255 5:6854 6:91.725498 7:0.67093106 8:345.552 9:0.69542945 10:2.5028321 
0.17753848614215503 1:8913 2:163.68559 3:70.687556 4:0.90194564 5:9121 6:106.52879 7:0.56014329 8:390.837 9:0.73323372 10:2.315621 
0.17688826597105084 1:7066 2:134.46468 3:68.037301 4:0.86254146 5:7287 6:94.850992 7:0.69905026 8:331.138 9:0.80977703 10:1.9763377 
0.17714212497805804 1:9229 2:164.09969 3:72.392195 4:0.89743453 5:9462 6:108.40077 7:0.59137511 8:391.389 9:0.7570896 10:2.2668147 
0.17715614881718755 1:6857 2:132.25647 3:68.326952 4:0.85621199 5:7289 6:93.437699 7:0.58883641 8:359.935 9:0.66511364 10:1.9356413 
0.17746380841079087 1:6924 2:144.69926 3:61.883119 4:0.90393629 5:7056 6:93.893081 7:0.577 8:339.586 9:0.75451411 10:2.3382671 
0.17691014029455987 1:8406 2:154.89141 3:69.975954 4:0.89213228 5:8623 6:103.45459 7:0.59982874 8:368.446 9:0.77812892 10:2.2134948 
0.1772181773656728 1:6303 2:137.44257 3:58.920177 4:0.90345191 5:6410 6:89.583642 7:0.57092391 8:320.96 9:0.76887431 10:2.332691 
0.17772967026148756 1:8342 2:146.61317 3:73.024783 4:0.86713229 5:8545 6:103.06 7:0.60819481 8:361.337 9:0.80288839 10:2.0077181 
0.17129300829535504 1:8705 2:157.15196 3:71.543346 4:0.89036393 5:8949 6:105.27844 7:0.56795198 8:378.234 9:0.76464087 10:2.1965979 
0.17753134231107076 1:9293 2:160.0279 3:74.752415 4:0.88419332 5:9527 6:108.77599 7:0.59896874 8:384.731 9:0.78895356 10:2.1407723 
0.17725898371124593 1:9667 2:170.47781 3:73.075586 4:0.90346987 5:9988 6:110.94326 7:0.61412871 8:409.16 9:0.72563002 10:2.332897 
0.17729579687338984 1:10054 2:162.90073 3:79.538365 4:0.87269666 5:10359 6:113.14217 7:0.61567667 8:422.087 9:0.70916092 10:2.0480775 
0.17752232411666868 1:6694 2:133.81947 3:65.009266 4:0.87407096 5:6828 6:92.32045 7:0.5912383 8:327.999 9:0.78189878 10:2.0584676 
0.15390940323284374 1:8234 2:152.93238 3:69.461898 4:0.89089971 5:8490 6:102.39069 7:0.70376068 8:366.923 9:0.76854775 10:2.2016729 
0.1776304399156925 1:8915 2:162.54238 3:70.654936 4:0.90058196 5:9135 6:106.54075 7:0.55907438 8:386.058 9:0.75166806 10:2.3005099 
0.17760281122321844 1:9521 2:161.72811 3:75.748384 4:0.88353312 5:9764 6:110.10229 7:0.58143511 8:394.361 9:0.76931555 10:2.1350701 
0.17712078248143898 1:8333 2:152.13339 3:70.406624 4:0.88646516 5:8494 6:103.00439 7:0.79361905 8:363.507 9:0.79247522 10:2.1607824 
0.17724014933383353 1:9084 2:157.73285 3:73.90823 4:0.88342857 5:9253 6:107.54584 7:0.76118653 8:378.617 9:0.79631843 10:2.1341717 
0.17753811062757782 1:8453 2:153.38424 3:71.531183 4:0.88459877 5:8763 6:103.7434 7:0.62931805 8:372.043 9:0.76742238 10:2.1442989 
0.17705705338028363 1:6653 2:126.16056 3:68.497521 4:0.83977196 5:6785 6:92.03729 7:0.63885155 8:318.171 9:0.82585956 10:1.8418266 
0.17744067419419901 1:8151 2:151.55669 3:69.09092 4:0.89004376 5:8358 6:101.87333 7:0.57127839 8:362.355 9:0.78010353 10:2.1935833 
0.17779475153123592 1:9092 2:162.12806 3:72.080261 4:0.89573496 5:9221 6:107.59319 7:0.59038961 8:380.011 9:0.79118301 10:2.2492712 
0.17716630874558262 1:8216 2:155.11572 3:68.199563 4:0.89815991 5:8474 6:102.27872 7:0.56877812 8:369.044 9:0.75807818 10:2.2744386 
0.17790176930802654 1:6841 2:130.29186 3:67.537335 4:0.85516602 5:6983 6:93.328622 7:0.62326895 8:322.209 9:0.82804535 10:1.9291828 
0.17559076927601336 1:8662 2:158.23465 3:70.673153 4:0.89471619 5:8874 6:105.0181 7:0.56349206 8:377.242 9:0.7648706 10:2.238964 
0.17721512860711119 1:8333 2:158.53016 3:67.44725 4:0.90498017 5:8476 6:103.00439 7:0.59099291 8:367.437 9:0.7756137 10:2.3504317 
0.10949972120752936 1:8543 2:156.17917 3:70.46061 4:0.89244691 5:8787 6:104.29423 7:0.78737327 8:372.844 9:0.77226429 10:2.2165458 
0.17753931406603829 1:9521 2:162.42339 3:75.434125 4:0.88561038 5:9723 6:110.10229 7:0.69704956 8:388.334 9:0.79338064 10:2.1531819 
0.17761993444648141 1:7332 2:138.77241 3:67.791478 4:0.87255923 5:7455 6:96.619834 7:0.76446669 8:338.051 9:0.80624655 10:2.047048 
0.1773329720326402 1:9969 2:162.60407 3:78.796321 4:0.87474136 5:10195 6:112.66288 7:0.6265083 8:394.457 9:0.8051228 10:2.0635998 
0.17760952101369729 1:9476 2:164.25369 3:74.109265 4:0.89242901 5:9755 6:109.84179 7:0.61588457 8:398.153 9:0.75116429 10:2.2163718 
0.17752712373366664 1:6460 2:126.7309 3:66.57552 4:0.8508987 5:6612 6:90.692488 7:0.62271062 8:314.715 9:0.81961047 10:1.9035661 
0.17705991794203269 1:9067 2:160.80933 3:72.944762 4:0.89120016 5:9347 6:107.44516 7:0.61057239 8:384.118 9:0.77222554 10:2.2045356 
0.17752363087254622 1:7192 2:143.14795 3:64.315666 4:0.89338343 5:7295 6:95.69294 7:0.57892619 8:335.244 9:0.80415083 10:2.2257089 
0.17742549495635918 1:7720 2:152.16001 3:65.45884 4:0.90273484 5:8034 6:99.143377 7:0.64835811 8:363.747 9:0.73320991 10:2.3245143 
0.17747229471076431 1:7113 2:146.27863 3:62.833912 4:0.90304332 5:7271 6:95.165923 7:0.76123716 8:344.031 9:0.75520963 10:2.3280204 
0.17747878923880278 1:6744 2:148.16385 3:58.646877 4:0.9183262 5:6897 6:92.664597 7:0.55717118 8:348.781 9:0.69666146 10:2.5263725 
0.17792316739552766 1:9943 2:164.1951 3:77.979913 4:0.88002774 5:10203 6:112.51587 7:0.59857925 8:397.519 9:0.7906996 10:2.1056077 
0.12743865862634457 1:8264 2:155.80111 3:68.076882 4:0.89948708 5:8430 6:102.57705 7:0.70164714 8:368.916 9:0.76303628 10:2.2886052 
0.17643851189604451 1:8456 2:151.0788 3:71.998878 4:0.87913921 5:8679 6:103.76181 7:0.73212121 8:364.4 9:0.80023603 10:2.0983494 
0.1767463739176314 1:8616 2:152.36588 3:72.556702 4:0.87933676 5:8803 6:104.73887 7:0.65243071 8:369.148 9:0.79453771 10:2.099956 
0.17752440233235683 1:8123 2:148.78586 3:70.399611 4:0.88097617 5:8369 6:101.6982 7:0.60946879 8:359.441 9:0.79008004 10:2.1134472 
0.17716893106928389 1:9762 2:169.4692 3:74.127471 4:0.89926235 5:10028 6:111.48706 7:0.58860416 8:403.471 9:0.75357072 10:2.2861862 
0.17754773247394678 1:8821 2:152.11361 3:74.350215 4:0.87240662 5:9019 6:105.97757 7:0.67885178 8:377.121 9:0.7794105 10:2.0459068 
0.17733311484641678 1:9468 2:165.84172 3:73.301579 4:0.89701642 5:9724 6:109.79541 7:0.61777372 8:392.463 9:0.77245053 10:2.2624577 
0.1762430383902201 1:8112 2:154.48013 3:67.749127 4:0.8987009 5:8325 6:101.62932 7:0.57352941 8:365.933 9:0.76126288 10:2.280179 
0.17709711438293016 1:6819 2:143.23492 3:61.491747 4:0.90315865 5:7000 6:93.178433 7:0.67202129 8:340.475 9:0.73919683 10:2.3293357 
0.17753028476596339 1:9505 2:164.20005 3:74.545052 4:0.89100718 5:9698 6:110.00974 7:0.58934772 8:391.291 9:0.78012154 10:2.2026955 
0.17760114471265731 1:9208 2:159.54008 3:74.229021 4:0.88516945 5:9359 6:108.27737 7:0.7976438 8:379.46 9:0.803606 10:2.1492952 
0.16318444887919709 1:7981 2:148.97735 3:69.153132 4:0.88573798 5:8241 6:100.80538 7:0.73375011 8:360.34 9:0.77239993 10:2.1543109 
0.17753556586642835 1:9567 2:166.73063 3:73.967144 4:0.89620874 5:9850 6:110.36794 7:0.64589522 8:398.565 9:0.7568108 10:2.2541174 
0.16296330378861434 1:8525 2:155.88252 3:70.405885 4:0.89219019 5:8709 6:104.18429 7:0.58699993 8:370.258 9:0.78143948 10:2.2140553 
0.17749634947993481 1:6751 2:139.88864 3:62.591648 4:0.8943144 5:6885 6:92.712675 7:0.56314648 8:331.284 9:0.77299565 10:2.234941 
0.1231039026521865 1:9019 2:161.54444 3:71.628586 4:0.89632452 5:9259 6:107.16038 7:0.57010114 8:387.866 9:0.75336394 10:2.2553069 
0.17792848582609419 1:7743 2:146.78687 3:68.121854 4:0.88578971 5:7940 6:99.290955 7:0.58909008 8:351.974 9:0.78541277 10:2.1547691 
0.14106289402023167 1:8875 2:156.76311 3:73.016979 4:0.88490104 5:9140 6:106.30146 7:0.7250817 8:377.64 9:0.7820279 10:2.1469406 
0.17727585712506938 1:9468 2:159.8967 3:75.847471 4:0.88033475 5:9627 6:109.79541 7:0.79349648 8:381.792 9:0.81623359 10:2.1081348 
0.1772558063327152 1:8440 2:154.46936 3:70.182869 4:0.8908242 5:8628 6:103.6636 7:0.73111573 8:365.558 9:0.79366956 10:2.2009554 
0.17692497550764091 1:8454 2:153.5967 3:71.237101 4:0.8859435 5:8678 6:103.74954 7:0.56116827 8:371.072 9:0.77153519 10:2.1561335 
0.17288168515529886 1:9420 2:162.89559 3:74.126885 4:0.89046197 5:9717 6:109.51674 7:0.68965517 8:388.641 9:0.7837247 10:2.1975237 
0.17744314222751123 1:8570 2:160.7098 3:68.34721 4:0.90506023 5:8728 6:104.45891 7:0.55133814 8:376.174 9:0.7610499 10:2.3513732 
0.1767256118446125 1:9106 2:158.61418 3:74.002108 4:0.88449263 5:9320 6:107.67599 7:0.58915631 8:386.592 9:0.76565264 10:2.1433739 
0.17742630694082473 1:8576 2:159.46553 3:69.584383 4:0.89977215 5:8775 6:104.49547 7:0.56975817 8:378.191 9:0.75348092 10:2.2916856 
0.17751242661666397 1:8894 2:157.27558 3:72.835697 4:0.88630146 5:9153 6:106.41519 7:0.64022459 8:383.208 9:0.76109322 10:2.15932 
0.17754380035020656 1:8399 2:152.52562 3:70.665614 4:0.88619981 5:8567 6:103.4115 7:0.59575826 8:366.818 9:0.78439744 10:2.1584136 
0.17742405628272148 1:7334 2:135.19722 3:69.998961 4:0.85552928 5:7485 6:96.633011 7:0.72434568 8:335.191 9:0.82028746 10:1.9314176 
0.17760477641787337 1:10087 2:169.07841 3:77.181822 4:0.88973091 5:10363 6:113.3277 7:0.69051205 8:407.662 9:0.76273104 10:2.1906506 
0.1775441466847075 1:8862 2:162.33548 3:70.364909 4:0.90117586 5:9147 6:106.22358 7:0.63737054 8:386.184 9:0.74671187 10:2.3070517 
0.17751988462900092 1:9161 2:158.63543 3:74.332534 4:0.88342393 5:9376 6:108.00068 7:0.60241994 8:381.384 9:0.79145788 10:2.1341318 
0.17752733520022143 1:8356 2:155.33244 3:69.192827 4:0.89530684 5:8645 6:103.14645 7:0.5884507 8:390.852 9:0.68735899 10:2.2449211 
0.17760945739129819 1:8103 2:150.74995 3:69.406973 4:0.88770574 5:8366 6:101.57293 7:0.56751646 8:364.183 9:0.76774388 10:2.1719712 
0.17763944548829963 1:8386 2:151.5979 3:71.218071 4:0.88278209 5:8609 6:103.33144 7:0.62395833 8:363.996 9:0.7953742 10:2.1286438 
0.17761726206681822 1:10112 2:169.68694 3:77.079732 4:0.89087594 5:10465 6:113.46805 7:0.55898286 8:418.74 9:0.72469961 10:2.2014469 
0.17759715919206054 1:8515 2:152.88099 3:71.703888 4:0.88318877 5:8710 6:104.12317 7:0.59762774 8:370.409 9:0.77988659 10:2.1321157 
0.13911793975645464 1:8333 2:154.67289 3:69.595638 4:0.89305189 5:8556 6:103.00439 7:0.57306925 8:368.732 9:0.7701753 10:2.222451 
0.17769715389701421 1:7577 2:146.6654 3:67.100816 4:0.88920473 5:7850 6:98.220853 7:0.59708432 8:353.047 9:0.76390983 10:2.1857469 
0.17751722248017149 1:8131 2:147.53296 3:71.249046 4:0.87565541 5:8392 6:101.74827 7:0.59804354 8:360.79 9:0.78495515 10:2.0706658 
0.14342462954739826 1:8542 2:154.90801 3:71.200594 4:0.88810974 5:8789 6:104.28812 7:0.78633895 8:370.611 9:0.78150691 10:2.1756561 
0.17752586683991178 1:9460 2:167.77654 3:72.297591 4:0.90239206 5:9630 6:109.74901 7:0.80115176 8:390.831 9:0.77825692 10:2.320638 
0.16202220106929982 1:8747 2:158.23469 3:71.420467 4:0.89234304 5:8959 6:105.53211 7:0.78972553 8:376.739 9:0.77444009 10:2.2155371 
0.17745710900663464 1:8644 2:154.42613 3:72.088637 4:0.88435431 5:8911 6:104.90893 7:0.71556291 8:375.375 9:0.7708927 10:2.1421703 
0.17752233276753032 1:8662 2:158.54672 3:70.153958 4:0.89677774 5:8843 6:105.0181 7:0.65935906 8:373.912 9:0.77855489 10:2.2599826 
0.17751765778707748 1:9550 2:167.98279 3:73.276152 4:0.8998438 5:9835 6:110.26984 7:0.69733479 8:398.366 9:0.75622095 10:2.2924619 
0.17710667355272908 1:8133 2:150.13348 3:69.76565 4:0.88547301 5:8359 6:101.76078 7:0.62036613 8:359.489 9:0.79084145 10:2.1519685 
0.17645079590779481 1:9041 2:159.33733 3:73.123119 4:0.8884775 5:9198 6:107.291 7:0.75291472 8:379.303 9:0.7896848 10:2.1790282 
0.17736972608335216 1:8568 2:153.36179 3:71.807188 4:0.88361148 5:8716 6:104.44672 7:0.80450704 8:366.459 9:0.8017492 10:2.1357443 
0.17762509430369655 1:9808 2:165.88262 3:76.022015 4:0.88880375 5:9962 6:111.74942 7:0.68448601 8:393.644 9:0.79539535 10:2.182034 
0.17754757351484959 1:8359 2:156.95834 3:68.644386 4:0.89929553 5:8500 6:103.16496 7:0.81013762 8:368.692 9:0.77274599 10:2.2865429 
0.17759494343813542 1:8493 2:152.53571 3:71.798737 4:0.8822927 5:8707 6:103.98857 7:0.60046663 8:368.538 9:0.78578989 10:2.1244901 
0.17749861963002472 1:8687 2:161.3205 3:69.088325 4:0.90365201 5:8861 6:105.16954 7:0.6796276 8:379.039 9:0.75982205 10:2.3349893 
0.16802245925651749 1:8807 2:155.22874 3:73.369274 4:0.88124881 5:9102 6:105.89344 7:0.62616424 8:376.096 9:0.78242088 10:2.1157186 
0.17750937960697488 1:6148 2:132.90674 3:59.977082 4:0.89238648 5:6265 6:88.475289 7:0.78348413 8:318.683 9:0.76072192 10:2.2159587 
0.17677646799688396 1:8922 2:161.61002 3:70.90498 4:0.89861345 5:9136 6:106.58257 7:0.7735391 8:381.064 9:0.77210478 10:2.2792478 
0.17752193454027076 1:8023 2:153.00355 3:67.358945 4:0.89787802 5:8161 6:101.07028 7:0.61197559 8:359.489 9:0.78014521 10:2.271466 
0.17676938732357583 1:8309 2:156.04418 3:68.652626 4:0.89801917 5:8533 6:102.85595 7:0.65944444 8:369.917 9:0.76304481 10:2.2729529 
0.17716069231981224 1:8898 2:158.24273 3:72.666049 4:0.88832968 5:9164 6:106.43912 7:0.63493649 8:381.331 9:0.76894989 10:2.1776707 
0.17769340125221394 1:10109 2:170.18651 3:76.120267 4:0.89439621 5:10312 6:113.45122 7:0.58725456 8:405.928 9:0.77093905 10:2.2357582 
0.17749463357526962 1:9260 2:162.21245 3:73.66866 4:0.89092563 5:9563 6:108.58268 7:0.77166667 8:389.987 9:0.76510421 10:2.2019194 
0.17562185739703495 1:9641 2:166.77828 3:74.635652 4:0.89427681 5:9901 6:110.79396 7:0.55987224 8:404.044 9:0.74212083 10:2.2345658 
0.17766480958435102 1:7957 2:135.23931 3:76.513768 4:0.82456604 5:8191 6:100.6537 7:0.65978441 8:350.707 9:0.8129622 10:1.7675161 
0.17568503280281883 1:9000 2:158.37398 3:73.709843 4:0.88509187 5:9282 6:107.04745 7:0.77539416 8:384.191 9:0.76622797 10:2.1486138 
0.1772400216019947 1:9341 2:161.54736 3:74.529719 4:0.88721873 5:9622 6:109.05655 7:0.5804387 8:393.019 9:0.75993447 10:2.1675563 
0.1747725343674269 1:9180 2:155.50442 3:75.948716 4:0.87261858 5:9434 6:108.11262 7:0.59843546 8:382.293 9:0.78933226 10:2.0474924 
0.17589308049652591 1:9119 2:156.95767 3:75.346259 4:0.87724556 5:9301 6:107.75283 7:0.77410866 8:378.559 9:0.79963156 10:2.0831515 
0.17716081367272768 1:8632 2:158.36956 3:70.325207 4:0.89599824 5:8913 6:104.83608 7:0.74839605 8:385.225 9:0.73095791 10:2.2519601 
0.17780752854749285 1:7389 2:140.25102 3:67.881051 4:0.87506974 5:7560 6:96.994675 7:0.64207508 8:340.484 9:0.80094393 10:2.0661292 
0.17754641984261751 1:9575 2:167.99739 3:73.723636 4:0.8985662 5:9864 6:110.41408 7:0.54577063 8:399.912 9:0.75234974 10:2.2787453 
0.17753276051555283 1:8803 2:161.36088 3:70.200682 4:0.9004044 5:9042 6:105.86939 7:0.58313461 8:381.869 9:0.75859811 10:2.2985656 
0.17756346295279041 1:9117 2:163.90381 3:71.937676 4:0.89853504 5:9414 6:107.74101 7:0.55584685 8:392.896 9:0.74217548 10:2.2784141 
0.17718308106143671 1:8526 2:156.41336 3:70.631808 4:0.89223496 5:8813 6:104.1904 7:0.69204545 8:375.987 9:0.75789586 10:2.2144889 
0.1775166256610195 1:8089 2:149.19369 3:69.997391 4:0.88310721 5:8315 6:101.48515 7:0.58433865 8:359.69 9:0.78568411 10:2.1314179 
0.17724542080054764 1:9448 2:157.97151 3:76.956497 4:0.87331594 5:9665 6:109.67938 7:0.6036675 8:394.666 9:0.76223752 10:2.0527379 
0.17171801715842078 1:8258 2:156.10406 3:68.102048 4:0.89982037 5:8467 6:102.53981 7:0.55437701 8:371.641 9:0.75134172 10:2.292208 
0.1776319117577104 1:7763 2:148.35499 3:67.591269 4:0.89018207 5:7961 6:99.419106 7:0.58998328 8:352.502 9:0.78508428 10:2.1948839 
0.17752637002637658 1:8062 2:151.24236 3:68.721402 4:0.8908083 5:8286 6:101.31563 7:0.56894848 8:368.349 9:0.74667854 10:2.2008044 
0.17751056184665689 1:8486 2:151.45945 3:72.520564 4:0.8779176 5:8742 6:103.94571 7:0.76963541 8:366.5 9:0.79389841 10:2.0885035 
0.16610431960480393 1:9363 2:164.82283 3:73.182075 4:0.89602457 5:9564 6:109.1849 7:0.75060125 8:390.476 9:0.77167814 10:2.2522295 
0.17715246183613592 1:8162 2:149.94993 3:70.21839 4:0.8835807 5:8345 6:101.94205 7:0.59794872 8:358.771 9:0.79684122 10:2.1354795 
0.17752226768562968 1:9381 2:164.00142 3:73.657279 4:0.8934685 5:9559 6:109.2898 7:0.72839506 8:390.269 9:0.77398205 10:2.2265474 
0.17772508273389842 1:6298 2:113.18786 3:72.71446 4:0.76635042 5:6458 6:89.548102 7:0.76173198 8:306.037 9:0.84501545 10:1.5566073 
0.17755415844103117 1:8092 2:150.27302 3:69.309189 4:0.88728489 5:8293 6:101.50396 7:0.64145858 8:361.432 9:0.7784174 10:2.1681544 
0.1755318194549039 1:9427 2:162.68853 3:75.189753 4:0.88679137 5:9752 6:109.55742 7:0.5804803 8:395.833 9:0.75606542 10:2.1637062 
0.16576357759590252 1:9152 2:161.10756 3:73.102396 4:0.89112953 5:9348 6:107.94762 7:0.58893179 8:386.57 9:0.76960801 10:2.2038615 
0.17773309306772217 1:8249 2:142.93687 3:73.811638 4:0.85635156 5:8404 6:102.48392 7:0.65286901 8:351.608 9:0.83848186 10:1.9365086 
0.17773345257510903 1:6724 2:140.66593 3:61.633846 4:0.89889817 5:6848 6:92.527092 7:0.721769 8:331.129 9:0.77062507 10:2.2822838 
0.1777292027434918 1:7759 2:146.36992 3:68.663161 4:0.88314131 5:8058 6:99.393489 7:0.6459374 8:354.998 9:0.77368433 10:2.1317096 
0.17774041368813914 1:9061 2:157.38859 3:73.98081 4:0.88263876 5:9179 6:107.40961 7:0.58933333 8:374.885 9:0.81019558 10:2.1274245 
0.17774219767227784 1:7286 2:142.90755 3:67.304269 4:0.88215259 5:8186 6:96.316267 7:0.64137324 8:389.45 9:0.60366447 10:2.1233059 
0.17774750441771556 1:8294 2:148.76722 3:71.479272 4:0.87700717 5:8606 6:102.76307 7:0.63062652 8:391.24 9:0.68090637 10:2.0812638 
0.17751995066129561 1:7736 2:149.87169 3:66.477411 4:0.89624361 5:7899 6:99.246063 7:0.57303704 8:356.605 9:0.7644542 10:2.2544755 
0.17752383414338913 1:7998 2:147.44974 3:69.991459 4:0.88015839 5:8213 6:100.91268 7:0.64458414 8:356.065 9:0.7927435 10:2.1066819 
0.17754969296763001 1:6436 2:129.81973 3:63.825069 4:0.87079638 5:6588 6:90.523863 7:0.60059724 8:315.064 9:0.81475744 10:2.0339928 
0.17757717951930696 1:7915 2:148.8732 3:68.656772 4:0.88730859 5:8115 6:100.3877 7:0.79284784 8:356.105 9:0.7843405 10:2.1683687 
0.17710958053247472 1:8862 2:163.19902 3:70.359891 4:0.90229013 5:9119 6:106.22358 7:0.54142229 8:389.085 9:0.73561848 10:2.3194894 
0.17164059966004858 1:9147 2:159.94253 3:73.543025 4:0.8880178 5:9372 6:107.91813 7:0.59284464 8:386.957 9:0.76764978 10:2.1748157 
0.1777119152188012 1:8726 2:157.40851 3:71.374525 4:0.89128936 5:8899 6:105.40535 7:0.58689804 8:374.173 9:0.78321353 10:2.2053879 
0.17750988092717696 1:8363 2:144.7604 3:74.321702 4:0.85814235 5:8506 6:103.18964 7:0.80801932 8:355.236 9:0.83279483 10:1.9477541 
0.17752087052526158 1:7327 2:148.80125 3:63.396801 4:0.90469953 5:7483 6:96.586884 7:0.67817475 8:350.342 9:0.7501561 10:2.3471413 
0.15856769372178697 1:8008 2:151.39996 3:68.012326 4:0.89341973 5:8175 6:100.97575 7:0.56513761 8:360.062 9:0.77621021 10:2.2260666 
0.17795685087717783 1:8373 2:157.25478 3:68.669365 4:0.89961892 5:8591 6:103.25132 7:0.56070448 8:370.201 9:0.76774285 10:2.2900282 
0.17755489953249057 1:8686 2:157.23054 3:71.62479 4:0.89021535 5:8920 6:105.16349 7:0.60954386 8:376.377 9:0.77051933 10:2.1951973 
0.17730264416374647 1:9763 2:170.11455 3:73.943406 4:0.90059061 5:10017 6:111.49277 7:0.60198545 8:403.826 9:0.75232345 10:2.3006048 
0.1777964449791542 1:6222 2:128.32476 3:63.200061 4:0.87031192 5:6395 6:89.00616 7:0.68358602 8:314.159 9:0.79221098 10:2.030453 
0.17736103354581784 1:7880 2:151.61592 3:67.127138 4:0.89664774 5:8077 6:100.1655 7:0.57518248 8:359.3 9:0.76704642 10:2.2586382 
0.17760977080908366 1:8212 2:153.57845 3:69.129865 4:0.89296436 5:8457 6:102.25382 7:0.7893118 8:365.524 9:0.77237287 10:2.2215934 
0.17780368331568408 1:5885 2:129.46713 3:59.44233 4:0.88836875 5:6088 6:86.562201 7:0.56026276 8:314.279 9:0.74873064 10:2.1780292 
0.17700858353187005 1:8055 2:152.13513 3:68.197009 4:0.8939002 5:8267 6:101.27164 7:0.60346119 8:362.971 9:0.76830127 10:2.2308182 
0.17784375031442523 1:8506 2:152.26935 3:71.476184 4:0.88298232 5:8618 6:104.06813 7:0.59770923 8:360.93 9:0.8205202 10:2.1303509 
0.17167637322428403 1:8725 2:161.08039 3:69.813189 4:0.90119883 5:8938 6:105.39931 7:0.76696554 8:380.072 9:0.7590031 10:2.3073059 
0.17749883416344064 1:9620 2:164.36709 3:75.239119 4:0.88908068 5:9845 6:110.67323 7:0.61044483 8:395.746 9:0.7718837 10:2.1845961 
0.1771456453315377 1:9035 2:161.04042 3:72.138968 4:0.89405577 5:9196 6:107.25539 7:0.66570881 8:384.324 9:0.76867545 10:2.2323638 
0.1773634450006506 1:9525 2:158.56177 3:77.4727 4:0.87250995 5:9762 6:110.12541 7:0.66228619 8:386.747 9:0.80024126 10:2.0466793 
0.17711459594276424 1:9133 2:162.68645 3:72.103447 4:0.89642028 5:9266 6:107.83551 7:0.8377362 8:385.133 9:0.77375213 10:2.2562922 
0.17597404834816471 1:8836 2:158.71002 3:71.988859 4:0.89121182 5:9033 6:106.06764 7:0.56554019 8:380.334 9:0.76760054 10:2.204647 
0.17746990583380665 1:8934 2:161.93543 3:71.213913 4:0.89811174 5:9202 6:106.65422 7:0.57582984 8:384.691 9:0.75863305 10:2.2739297 
0.17789538146268485 1:7519 2:150.81017 3:64.355646 4:0.90437775 5:7696 6:97.844203 7:0.65979291 8:356.006 9:0.74551316 10:2.3433867 
0.17732898340098341 1:9021 2:158.06168 3:73.389821 4:0.88567208 5:9209 6:107.17226 7:0.79726027 8:376.656 9:0.79905149 10:2.1537275 
0.17752808597682854 1:9231 2:157.9867 3:75.024574 4:0.88005106 5:9424 6:108.41252 7:0.62413793 8:381.605 9:0.79658202 10:2.1057993 
0.17730405222704637 1:8822 2:154.16303 3:74.25571 4:0.87635267 5:8958 6:105.98358 7:0.63595732 8:373.49 9:0.79472882 10:2.0761101 
0.17782665737525488 1:7819 2:139.39525 3:72.828869 4:0.85266192 5:7948 6:99.777051 7:0.6512577 8:346.738 9:0.81725615 10:1.9140109 
0.17800263604308872 1:7489 2:142.4087 3:67.509221 4:0.8804965 5:7590 6:97.648814 7:0.61501191 8:341.215 9:0.80830909 10:2.1094704 
0.17736041884135709 1:9476 2:159.33218 3:76.11014 4:0.87853273 5:9629 6:109.84179 7:0.59691339 8:381.6 9:0.81774554 10:2.0934422 
0.11559868719267184 1:9210 2:158.71739 3:74.625265 4:0.88257215 5:9386 6:108.28913 7:0.73798077 8:383.86 9:0.78545946 10:2.1268587 
0.176512942097651 1:7762 2:149.36914 3:67.222961 4:0.89300546 5:7984 6:99.412702 7:0.5866969 8:358.127 9:0.76051778 10:2.2219959 
0.17749856814904111 1:9041 2:164.94305 3:70.589787 4:0.9037955 5:9223 6:107.291 7:0.67656963 8:388.913 9:0.7511409 10:2.3366419 
0.17751924928624513 1:9104 2:160.10141 3:73.202128 4:0.88935182 5:9280 6:107.66417 7:0.61100671 8:381.008 9:0.78808656 10:2.1871141 
0.17701452297382575 1:8975 2:158.2745 3:73.224979 4:0.88654338 5:9240 6:106.89867 7:0.5723852 8:382.35 9:0.77147549 10:2.1614823 
0.16108990825207195 1:9590 2:162.10925 3:76.142072 4:0.88282821 5:9846 6:110.50053 7:0.68539165 8:392.222 9:0.78336574 10:2.1290365 
0.17754674891736461 1:7533 2:145.2519 3:66.707803 4:0.88830397 5:7668 6:97.935252 7:0.72670268 8:348.083 9:0.78128989 10:2.1774349 
0.17751662596216189 1:7142 2:141.30852 3:65.180188 4:0.88726421 5:7287 6:95.359723 7:0.59422581 8:340.595 9:0.7736654 10:2.1679674 
0.15329131560275697 1:7148 2:142.51423 3:65.119141 4:0.88950225 5:7302 6:95.399771 7:0.56613338 8:341.438 9:0.77049655 10:2.1885153 
0.17795884497429063 1:7094 2:150.31402 3:60.662921 4:0.91494675 5:7219 6:95.038736 7:0.62795432 8:346.24 9:0.74361231 10:2.4778567 
0.16476919662877501 1:9267 2:164.23476 3:72.580697 4:0.89704826 5:9552 6:108.62371 7:0.59771672 8:390.519 9:0.76359784 10:2.2627885 
0.17761664675098682 1:8889 2:167.51879 3:68.788184 4:0.91180222 5:9177 6:106.38527 7:0.59850525 8:392.032 9:0.72680806 10:2.4352844 
0.17752047733434667 1:9480 2:161.37966 3:75.875382 4:0.88257749 5:9865 6:109.86497 7:0.6116129 8:397.219 9:0.75501951 10:2.126904 
0.17755069347840946 1:9744 2:160.12203 3:78.527808 4:0.87148354 5:10063 6:111.38423 7:0.61866667 8:398.426 9:0.77135056 10:2.0390488 
0.17754762117844419 1:7508 2:143.08699 3:67.830568 4:0.88049724 5:7669 6:97.772606 7:0.78998316 8:345.66 9:0.78965225 10:2.1094764 
0.17756295104565453 1:8196 2:151.98053 3:69.755458 4:0.88844852 5:8506 6:102.15415 7:0.56920619 8:373.098 9:0.73988798 10:2.1787619 
0.1775109329135221 1:9361 2:158.35579 3:75.998057 4:0.87731244 5:9601 6:109.17324 7:0.71436203 8:382.975 9:0.80203119 10:2.0836821 
0.17738047020650499 1:7704 2:147.63809 3:67.686849 4:0.88871263 5:7897 6:99.040585 7:0.56295214 8:353.365 9:0.77531659 10:2.1811931 
0.13322227210228665 1:8760 2:158.99663 3:70.958691 4:0.89488813 5:9007 6:105.6105 7:0.56589147 8:377.399 9:0.77288073 10:2.2406929 
0.17751779785002131 1:9377 2:160.08598 3:75.472954 4:0.88189139 5:9627 6:109.2665 7:0.58852696 8:387.422 9:0.78506429 10:2.1211039 
0.17369425685845691 1:9074 2:159.82395 3:73.267308 4:0.88873305 5:9318 6:107.48663 7:0.64464336 8:381.636 9:0.78290663 10:2.1813815 
0.17751953617997052 1:8611 2:154.33266 3:71.526308 4:0.88612024 5:8770 6:104.70848 7:0.58379661 8:367.582 9:0.80085701 10:2.1577048 
0.17754717111893203 1:10045 2:168.74434 3:76.433499 4:0.89153366 5:10181 6:113.09152 7:0.56902509 8:399.686 9:0.79017254 10:2.2077275 
0.17784347494620972 1:9236 2:164.50217 3:72.754699 4:0.89688099 5:9510 6:108.44188 7:0.6506058 8:394.537 9:0.74562131 10:2.2610522 
0.1778336636539849 1:9253 2:159.83527 3:74.670708 4:0.88416597 5:9542 6:108.54163 7:0.71396605 8:388.55 9:0.77019128 10:2.140535 
0.17753438435603131 1:9057 2:155.73432 3:75.034115 4:0.87627654 5:9315 6:107.3859 7:0.7688455 8:379.559 9:0.79001556 10:2.0755135 
0.17776997103220568 1:8200 2:152.12346 3:70.290628 4:0.88684708 5:8480 6:102.17908 7:0.61432424 8:369.173 9:0.75607322 10:2.1642068 
0.17753856251076716 1:8619 2:161.68568 3:69.337123 4:0.90338094 5:8852 6:104.75711 7:0.54051173 8:380.739 9:0.74715725 10:2.3318775 
0.17703317055847487 1:7313 2:149.12157 3:63.279494 4:0.90549901 5:7517 6:96.494564 7:0.78113651 8:350.275 9:0.7490092 10:2.3565544 
0.17744261190538541 1:8448 2:156.76245 3:69.640053 4:0.89590812 5:8626 6:103.71272 7:0.7032967 8:374.349 9:0.75754845 10:2.2510386 
0.17793952880308497 1:7580 2:139.02764 3:71.032227 4:0.8596273 5:7850 6:98.240296 7:0.64919493 8:352.782 9:0.76536083 10:1.9572474 
0.17755035969744595 1:9533 2:163.48784 3:74.936753 4:0.88876516 5:9778 6:110.17165 7:0.76897637 8:395.769 9:0.76481414 10:2.1816777 
0.17781022312541817 1:9188 2:164.06349 3:72.029962 4:0.89846893 5:9390 6:108.15972 7:0.58814492 8:387.362 9:0.76947909 10:2.2777118 
0.17709772604958718 1:9089 2:162.08672 3:72.012582 4:0.89588586 5:9267 6:107.57543 7:0.61 8:381.993 9:0.78273573 10:2.2508111 
0.177528352077514 1:8614 2:162.58835 3:67.96364 4:0.90844219 5:8744 6:104.72672 7:0.80859852 8:375.912 9:0.76602396 10:2.3922843 
0.13711992923761937 1:8876 2:159.46232 3:71.786037 4:0.89294008 5:9126 6:106.30745 7:0.63057687 8:381.074 9:0.76808365 10:2.2213557 
0.17118452539182827 1:9030 2:161.67519 3:72.139672 4:0.89493265 5:9231 6:107.22571 7:0.81132075 8:382.015 9:0.77756514 10:2.2411412 
0.17752557766230234 1:6470 2:135.03868 3:62.229249 4:0.88749083 5:6686 6:90.762657 7:0.72081105 8:325.34 9:0.76813795 10:2.1700194 
0.17754940028118615 1:8895 2:159.17058 3:72.474034 4:0.8903263 5:9244 6:106.42117 7:0.6596218 8:385.828 9:0.75087619 10:2.1962429 
0.17767718020591877 1:8284 2:151.64019 3:70.41631 4:0.88564421 5:8479 6:102.7011 7:0.62061732 8:363.07 9:0.78971288 10:2.153481 
0.17752193547432316 1:7026 2:143.96457 3:63.434076 4:0.89769234 5:7179 6:94.582139 7:0.5617205 8:341.339 9:0.75778532 10:2.2695148 
0.17640369983764689 1:8226 2:151.81667 3:69.644141 4:0.88857135 5:8401 6:102.34094 7:0.61269179 8:362.144 9:0.78819918 10:2.1798914 
0.17752836638688077 1:8143 2:150.62502 3:69.390488 4:0.88756439 5:8283 6:101.82333 7:0.76417042 8:359.703 9:0.79087196 10:2.1706868 
0.16548202659245276 1:8582 2:157.52266 3:70.551843 4:0.89409178 5:8863 6:104.53201 7:0.57053583 8:377.58 9:0.75645032 10:2.232722 
0.17778236874250064 1:7689 2:147.39518 3:67.311669 4:0.88963369 5:7820 6:98.94412 7:0.69520796 8:354.047 9:0.77082872 10:2.1897419 
0.17750990470695216 1:6925 2:140.41455 3:63.904178 4:0.89043481 5:7088 6:93.899861 7:0.60798946 8:334.621 9:0.77718294 10:2.1972671 
0.17705222781238333 1:9532 2:161.90185 3:75.627536 4:0.88419412 5:9718 6:110.16587 7:0.82045102 8:386.2 9:0.80309951 10:2.1407792 
0.17748687793730228 1:9936 2:160.94298 3:79.503118 4:0.86947148 5:10208 6:112.47626 7:0.60504202 8:397.254 9:0.79119747 10:2.0243606 
0.17795517721887522 1:8546 2:147.69289 3:74.469348 4:0.86357668 5:8711 6:104.31254 7:0.62484463 8:365.652 9:0.80322431 10:1.983271 
0.17760910713663275 1:5823 2:126.21485 3:59.411482 4:0.88228422 5:5939 6:86.105017 7:0.75741415 8:300.604 9:0.80978018 10:2.1244184 
0.17752585121232711 1:9942 2:162.69697 3:78.564394 4:0.87568219 5:10143 6:112.51021 7:0.6329259 8:397.987 9:0.78876176 10:2.0708741 
0.17767935636123322 1:8958 2:155.94142 3:74.015028 4:0.88018351 5:9265 6:106.79738 7:0.58289953 8:380.497 9:0.77753232 10:2.1068886 
0.17751991473147702 1:8403 2:155.55238 3:69.423503 4:0.89488188 5:8517 6:103.43612 7:0.59047151 8:364.943 9:0.7928557 10:2.2406299 
0.1775439758577122 1:9003 2:162.16168 3:71.389804 4:0.89788091 5:9188 6:107.06529 7:0.58173947 8:387.749 9:0.75248135 10:2.2714964 
0.17730242414286945 1:9283 2:165.75631 3:72.162465 4:0.90025995 5:9510 6:108.71744 7:0.63985387 8:398.483 9:0.73464684 10:2.2969879 
0.15659588713281902 1:8826 2:157.53506 3:72.000315 4:0.88944453 5:9001 6:106.0076 7:0.68312693 8:375.35 9:0.78722875 10:2.1879773 
0.17752848674219388 1:7594 2:143.96372 3:68.052957 4:0.88121855 5:7846 6:98.330977 7:0.61143317 8:348.218 9:0.78700596 10:2.115466 
0.1775060796675654 1:8310 2:161.54535 3:65.927254 4:0.91293558 5:8463 6:102.86214 7:0.71074239 8:373.654 9:0.74794836 10:2.4503576 
0.16961777428535824 1:8872 2:158.91495 3:71.902408 4:0.8917855 5:9108 6:106.28349 7:0.57983138 8:379.604 9:0.77369508 10:2.2101479 
0.17710573074389446 1:9036 2:161.63485 3:72.041044 4:0.89518119 5:9241 6:107.26133 7:0.72888602 8:385.34 9:0.76471199 10:2.2436495 
0.17771192713303044 1:8144 2:151.54035 3:69.064287 4:0.89010859 5:8270 6:101.82958 7:0.58022229 8:361.27 9:0.78412235 10:2.1941926 
0.1775476306435998 1:9530 2:165.80736 3:74.240593 4:0.89415774 5:9912 6:110.15431 7:0.7639891 8:399.713 9:0.74955968 10:2.2333787 
0.17754751681816694 1:9214 2:170.92213 3:69.851312 4:0.91268074 5:9571 6:108.31265 7:0.77886729 8:410.39 9:0.68748707 10:2.4469423 
0.17714247834924851 1:7305 2:143.9536 3:65.693112 4:0.88980076 5:7547 6:96.441769 7:0.69977967 8:351.805 9:0.74169623 10:2.1913043 
0.17753186106927865 1:6869 2:150.21278 3:59.386052 4:0.91853219 5:7095 6:93.519423 7:0.55709651 8:351.996 9:0.69667131 10:2.5294286 
0.17748316526301278 1:6349 2:140.81737 3:58.278858 4:0.91033996 5:6466 6:89.909943 7:0.58656689 8:326.036 9:0.75055769 10:2.4162686 
0.14634474304719153 1:9186 2:160.72963 3:73.547042 4:0.88916724 5:9347 6:108.14795 7:0.8126327 8:381.668 9:0.79243711 10:2.1853989 
0.17553147912029063 1:9085 2:163.45063 3:71.346312 4:0.89970392 5:9226 6:107.55176 7:0.81780538 8:382.015 9:0.78230114 10:2.2909471 
0.17754019510914537 1:8659 2:148.89501 3:74.715585 4:0.86498341 5:8838 6:104.99991 7:0.7960103 8:367.188 9:0.80705038 10:1.992824 
0.17752391734756867 1:7870 2:144.50126 3:70.202323 4:0.87405611 5:8036 6:100.10192 7:0.60362019 8:350.338 9:0.80576816 10:2.0583544 
0.17753869017339982 1:8519 2:156.83321 3:70.195084 4:0.89424493 5:8752 6:104.14762 7:0.58541781 8:373.95 9:0.7655462 10:2.2342477 
0.17788796421244701 1:8328 2:154.32384 3:70.158698 4:0.89068551 5:8639 6:102.97349 7:0.77868163 8:372.223 9:0.75534293 10:2.1996394 
0.1774450824963037 1:8068 2:146.14002 3:71.531629 4:0.87201833 5:8331 6:101.35333 7:0.79487685 8:356.138 9:0.79935395 10:2.0430127 
0.11797965953328764 1:8878 2:156.50893 3:73.408036 4:0.88318003 5:9064 6:106.31943 7:0.7853857 8:379.775 9:0.77352127 10:2.1320409 
0.17706462342016765 1:9122 2:159.0701 3:74.021827 4:0.88513153 5:9403 6:107.77055 7:0.61427609 8:386.186 9:0.7686115 10:2.1489621 
0.17729428544074477 1:7914 2:145.91317 3:70.015218 4:0.87735511 5:8150 6:100.38136 7:0.77970443 8:354.426 9:0.79168928 10:2.0840208 
0.17752070205504941 1:6424 2:129.41868 3:64.950247 4:0.86494802 5:6626 6:90.439432 7:0.5886018 8:320.06 9:0.78804786 10:1.9925818 
0.14124982286272664 1:6546 2:134.86139 3:62.026192 4:0.88795752 5:6658 6:91.294173 7:0.74016282 8:321.131 9:0.79766659 10:2.1742653 
0.17752744926950081 1:8373 2:158.13044 3:68.610567 4:0.90096783 5:8574 6:103.25132 7:0.82048016 8:375.68 9:0.74551229 10:2.3047534 
0.17751376536474955 1:7931 2:147.02026 3:69.841964 4:0.87995884 5:8185 6:100.48912 7:0.61811238 8:357.654 9:0.77913307 10:2.1050418 
0.17762533137895581 1:7647 2:145.51747 3:67.719347 4:0.88511667 5:7855 6:98.673516 7:0.76431784 8:351.391 9:0.778251 10:2.1488316 
0.17752585614137972 1:9494 2:159.65345 3:76.754604 4:0.87685356 5:9818 6:109.94606 7:0.58302628 8:396.882 9:0.75741916 10:2.0800504 
0.17752264388027289 1:9776 2:167.7787 3:74.993144 4:0.89454568 5:9944 6:111.56697 7:0.67804134 8:398.954 9:0.77183667 10:2.2372539 
0.17741325356992699 1:8629 2:149.48564 3:74.93731 4:0.86527292 5:8914 6:104.81786 7:0.5903804 8:377.495 9:0.76093564 10:1.9948092 
0.17182545009798328 1:8643 2:155.15007 3:71.987219 4:0.88584334 5:8853 6:104.90286 7:0.80176252 8:371.016 9:0.78902198 10:2.1552446 
0.17802192791702376 1:7855 2:150.59982 3:67.849718 4:0.89276135 5:8131 6:100.00648 7:0.73267419 8:360.861 9:0.75801213 10:2.2196087 
0.1779568820158948 1:6376 2:133.42259 3:62.308837 4:0.88425539 5:6538 6:90.100918 7:0.63734506 8:322.71 9:0.76936659 10:2.1413109 
0.17795390399214306 1:5813 2:128.64822 3:58.461784 4:0.89078176 5:5985 6:86.031049 7:0.58316613 8:310.242 9:0.75894273 10:2.2005524 
0.17727738821165606 1:8554 2:158.22304 3:69.667852 4:0.89784375 5:8760 6:104.36135 7:0.71671554 8:374.821 9:0.76512304 10:2.2711055 
0.10550343474089005 1:7762 2:150.22432 3:66.946086 4:0.89521186 5:7966 6:99.412702 7:0.65635041 8:360.026 9:0.75251606 10:2.2439597 
0.17681038833009027 1:9024 2:158.01758 3:73.663254 4:0.8846945 5:9293 6:107.19008 7:0.63977313 8:381.827 9:0.77781386 10:2.1451344 
0.16091440621288955 1:8377 2:156.04622 3:68.842799 4:0.89742391 5:8498 6:103.27598 7:0.81718857 8:365.707 9:0.78710348 10:2.2667036 
0.17729342042909246 1:6907 2:136.56818 3:65.411548 4:0.87783331 5:7033 6:93.777745 7:0.59837131 8:329.073 9:0.80152084 10:2.0878297 
0.11463159622681569 1:8576 2:151.31728 3:72.797546 4:0.87667007 5:8797 6:104.49547 7:0.68302007 8:368.602 9:0.79319371 10:2.0786042 
0.17771193236867666 1:8526 2:157.56151 3:70.498332 4:0.89431709 5:8850 6:104.1904 7:0.74868282 8:380.253 9:0.74098581 10:2.2349679 
0.14957423193153788 1:8950 2:163.31606 3:70.703116 4:0.90143138 5:9131 6:106.74968 7:0.58542648 8:384.45 9:0.76094483 10:2.3098848 
0.17752734927466166 1:9249 2:161.80773 3:73.661563 4:0.89036809 5:9433 6:108.51817 7:0.59095265 8:385.577 9:0.78177613 10:2.1966372 
0.1065310995360592 1:9074 2:159.94207 3:73.011869 4:0.88972882 5:9312 6:107.48663 7:0.62142172 8:381.868 9:0.78195562 10:2.1906311 
0.17611888503473233 1:9276 2:164.72822 3:72.702935 4:0.89733463 5:9549 6:108.67645 7:0.55751893 8:394.061 9:0.75066072 10:2.2657712 
0.17761333127325168 1:6930 2:121.95631 3:74.313974 4:0.79290201 5:7149 6:93.933753 7:0.61062649 8:323.684 9:0.83119062 10:1.6410952 
0.17795275089168344 1:9133 2:163.42146 3:72.577717 4:0.89597041 5:9433 6:107.83551 7:0.72726549 8:391.451 9:0.74897705 10:2.2516754 
0.17753852137845494 1:9513 2:164.7768 3:74.316784 4:0.89251644 5:9772 6:110.05602 7:0.77341463 8:393.908 9:0.77043811 10:2.2172219 
0.17708496290248818 1:9072 2:163.49291 3:71.458524 4:0.89942548 5:9304 6:107.47478 7:0.7 8:389.658 9:0.75083708 10:2.2879414 
0.17759604881188751 1:9264 2:163.50694 3:73.342068 4:0.89375457 5:9524 6:108.60613 7:0.67052693 8:391.014 9:0.76141915 10:2.2293745 
0.17711478754943169 1:8619 2:153.68821 3:72.347992 4:0.88226919 5:8796 6:104.75711 7:0.78712329 8:367.997 9:0.79979409 10:2.1242913 
0.1775601918224235 1:9060 2:160.14603 3:73.105592 4:0.88972684 5:9345 6:107.40368 7:0.58222479 8:392.442 9:0.7392428 10:2.1906125 
0.17751708805965896 1:7632 2:145.58737 3:67.578542 4:0.88574163 5:7800 6:98.576692 7:0.74647887 8:349.63 9:0.78456846 10:2.1543432 
0.17750422842127306 1:9890 2:167.51097 3:76.405633 4:0.88991666 5:10268 6:112.21559 7:0.57293477 8:405.334 9:0.75644976 10:2.1923903 
0.1775478975982806 1:9964 2:162.39733 3:79.020252 4:0.87363274 5:10217 6:112.63463 7:0.65354847 8:400.121 9:0.78209749 10:2.0551356 
0.13298711797074667 1:8953 2:161.77802 3:71.212344 4:0.89790684 5:9129 6:106.76757 7:0.74089705 8:384.447 9:0.76121177 10:2.2717693 
0.17752287751629148 1:7357 2:151.54793 3:63.321136 4:0.90852564 5:7601 6:96.784417 7:0.62988014 8:356.18 9:0.72873824 10:2.393323 
0.17794827183786247 1:9272 2:161.49487 3:74.163905 4:0.88831543 5:9544 6:108.65301 7:0.69111509 8:387.35 9:0.77656206 10:2.17754 
0.1777320906459251 1:6843 2:142.01916 3:62.892814 4:0.89659701 5:7069 6:93.342264 7:0.69826531 8:339.176 9:0.74749136 10:2.2581143 
0.17755012588815444 1:8165 2:155.49439 3:67.623642 4:0.90048146 5:8440 6:101.96078 7:0.56638457 8:382.805 9:0.70018185 10:2.2994087 
0.17746545393567309 1:8556 2:153.48622 3:71.719551 4:0.88411452 5:8765 6:104.37355 7:0.75549669 8:368.527 9:0.79166604 10:2.140089 
0.17754160306856542 1:7301 2:141.61131 3:67.271861 4:0.87996105 5:7546 6:96.415361 7:0.79100758 8:343.633 9:0.77696684 10:2.10506 
0.177549450428059 1:9482 2:167.99035 3:73.076395 4:0.90042875 5:9786 6:109.87656 7:0.55987246 8:397.981 9:0.75228974 10:2.298832 
0.17781353594201188 1:8793 2:160.68202 3:71.175791 4:0.89654113 5:9062 6:105.80924 7:0.80147662 8:381.452 9:0.75939397 10:2.2575376 
0.17582895736661019 1:8336 2:150.1051 3:71.866667 4:0.87793728 5:8588 6:103.02293 7:0.71726037 8:363.739 9:0.79174956 10:2.0886609 
0.17729495530906031 1:7527 2:149.13665 3:65.394842 4:0.89873636 5:7772 6:97.896241 7:0.70676056 8:354.915 9:0.75090167 10:2.2805568 
0.17751989939123852 1:8562 2:157.41404 3:70.055487 4:0.89551088 5:8998 6:104.41014 7:0.56833721 8:382.592 9:0.73504397 10:2.2469909 
0.17751863444631227 1:6497 2:142.42994 3:58.584928 4:0.91148896 5:6641 6:90.951841 7:0.58112701 8:335.631 9:0.72476731 10:2.4311703 
0.17724811591845963 1:8901 2:155.19032 3:73.787677 4:0.87973426 5:9131 6:106.45706 7:0.61133242 8:378.875 9:0.77921403 10:2.1032011 
0.17779390824635155 1:7598 2:152.2532 3:64.299089 4:0.90644829 5:7771 6:98.356871 7:0.59452269 8:356.207 9:0.7524961 10:2.3678905 
0.17508686522974265 1:6206 2:139.50513 3:57.212007 4:0.91203748 5:6368 6:88.891645 7:0.68635258 8:325.622 9:0.73551944 10:2.4383889 
0.177760416875233 1:6033 2:105.74787 3:74.757781 4:0.70726994 5:6167 6:87.643906 7:0.77346154 8:294.822 9:0.87221472 10:1.41454 
0.17752733514815908 1:8744 2:157.28937 3:71.649257 4:0.89022294 5:8999 6:105.51401 7:0.57549033 8:385.41 9:0.7397314 10:2.1952687 
0.17773082575747887 1:9265 2:157.31776 3:75.647869 4:0.87679722 5:9504 6:108.61199 7:0.64844625 8:385.806 9:0.78219914 10:2.079606 
0.17754546211258737 1:8965 2:162.68044 3:71.546503 4:0.8980968 5:9287 6:106.8391 7:0.5481169 8:389.265 9:0.74348026 10:2.273772 
0.17724637531661769 1:8732 2:161.87943 3:69.932566 4:0.90187167 5:9072 6:105.44158 7:0.68680195 8:386.829 9:0.73330651 10:2.3147932 
0.15549527142941871 1:8359 2:153.5908 3:70.245933 4:0.88928283 5:8589 6:103.16496 7:0.79082308 8:366.368 9:0.78258068 10:2.1864725 
0.17413711601627546 1:8726 2:156.26739 3:71.769683 4:0.88829421 5:8930 6:105.40535 7:0.56296774 8:374.653 9:0.78120793 10:2.1773454 
0.17748663621161043 1:8210 2:152.81732 3:69.552886 4:0.8904212 5:8466 6:102.24136 7:0.78911957 8:366.161 9:0.7695004 10:2.1971385 
0.17225215125679327 1:8501 2:155.64957 3:70.112647 4:0.89280068 5:8684 6:104.03754 7:0.72633288 8:369.064 9:0.7842897 10:2.2199927 
0.12309248558385624 1:8202 2:150.2756 3:69.871488 4:0.88533397 5:8314 6:102.19154 7:0.74890431 8:357.023 9:0.80860652 10:2.1507428 
0.17543184436520398 1:8794 2:155.73015 3:72.748947 4:0.88417941 5:8983 6:105.81526 7:0.79396894 8:373.862 9:0.7906307 10:2.1406516 
0.1775213356419523 1:8744 2:159.48194 3:70.887911 4:0.89578449 5:9030 6:105.51401 7:0.65690031 8:381.032 9:0.75682786 10:2.2497763 
0.17764072095891092 1:8720 2:151.30481 3:74.099176 4:0.87187166 5:8884 6:105.36911 7:0.74529915 8:365.79 9:0.81896 10:2.041923 
0.17752190322028058 1:9146 2:158.14415 3:74.619419 4:0.88168188 5:9303 6:107.91223 7:0.59637454 8:377.487 9:0.80656071 10:2.1193431 
0.17751680021320382 1:7730 2:147.05489 3:67.744942 4:0.88756737 5:7890 6:99.207569 7:0.58863844 8:358.541 9:0.75563438 10:2.1707139 
0.17685557249646033 1:8380 2:151.69392 3:71.42674 4:0.88220745 5:8621 6:103.29447 7:0.59230987 8:366.68 9:0.78321219 10:2.1237693 
0.17716952592626439 1:9388 2:167.76741 3:72.036558 4:0.90312225 5:9644 6:109.33057 7:0.59968061 8:395.837 9:0.75292232 10:2.3289204 
0.17751024858305053 1:8941 2:157.25695 3:73.348159 4:0.88456213 5:9210 6:106.69599 7:0.67509816 8:380.023 9:0.77799391 10:2.1439795 
0.17750591265776233 1:8310 2:153.80232 3:69.581637 4:0.8918103 5:8468 6:102.86214 7:0.64239332 8:364.79 9:0.78473864 10:2.2103866 
0.17167893937121714 1:9148 2:160.55837 3:73.369143 4:0.889486 5:9376 6:107.92403 7:0.78814508 8:382.925 9:0.78398649 10:2.1883637 
0.17741309949377099 1:9278 2:161.24712 3:74.425017 4:0.88710965 5:9556 6:108.68816 7:0.66825122 8:388.185 9:0.77372518 10:2.1665715 
0.17370026040800074 1:8481 2:156.69408 3:69.811983 4:0.89526679 5:8687 6:103.91508 7:0.79298738 8:370.95 9:0.77450848 10:2.2445156 
0.1774518251011605 1:8189 2:154.73105 3:68.381383 4:0.89704607 5:8403 6:102.11052 7:0.61386807 8:365.857 9:0.76880818 10:2.2627658 
0.16587950078069785 1:8821 2:158.98666 3:71.355541 4:0.89362488 5:8996 6:105.97757 7:0.57064303 8:375.471 9:0.78627576 10:2.2280913 
0.17740720281727079 1:7389 2:145.88345 3:65.137718 4:0.89478105 5:7509 6:96.994675 7:0.58181102 8:345.689 9:0.77700607 10:2.2396157 
0.17751959650185847 1:6918 2:141.29604 3:63.966551 4:0.8916563 5:7182 6:93.85239 7:0.58232323 8:342.85 9:0.73957482 10:2.208905 
0.10665714096327072 1:9100 2:160.31495 3:73.068083 4:0.8900933 5:9331 6:107.64051 7:0.70237728 8:382.694 9:0.78081464 10:2.1940489 
0.17792535500283341 1:10039 2:171.10229 3:75.284421 4:0.89799945 5:10288 6:113.05774 7:0.73772781 8:409.356 9:0.75283187 10:2.272745 
0.13775283967993623 1:8934 2:159.42269 3:72.291362 4:0.89127806 5:9166 6:106.65422 7:0.66354724 8:381.156 9:0.77277007 10:2.2052799 
0.17732618508375186 1:8534 2:156.56614 3:70.328561 4:0.89343427 5:8806 6:104.23927 7:0.79282794 8:378.526 9:0.74846427 10:2.2262099 
0.17728967154647735 1:8258 2:149.79399 3:71.129604 4:0.88006701 5:8498 6:102.53981 7:0.58056805 8:362.172 9:0.79114302 10:2.1059303 
0.17787944138754597 1:9013 2:165.34411 3:70.190711 4:0.90542188 5:9244 6:107.12473 7:0.54171174 8:389.282 9:0.74739569 10:2.3556409 
0.17751959750328727 1:9226 2:157.86034 3:75.666955 4:0.87763558 5:9573 6:108.38315 7:0.61774356 8:402.123 9:0.71697743 10:2.086252 
0.1766641872271256 1:9108 2:162.80652 3:71.995716 4:0.89690838 5:9333 6:107.68782 7:0.57674772 8:385.809 9:0.76893243 10:2.2613362 
0.17751795046322211 1:7170 2:129.99054 3:71.596437 4:0.8346492 5:7284 6:95.546468 7:0.63227513 8:326.146 9:0.84704193 10:1.8156006 
0.17752003028927255 1:6497 2:121.65385 3:70.971721 4:0.81219167 5:6795 6:90.951841 7:0.67967361 8:321.089 9:0.79190279 10:1.7141172 
0.17751550111773615 1:7976 2:151.47368 3:68.250434 4:0.89273797 5:8219 6:100.7738 7:0.64270749 8:364.823 9:0.75306175 10:2.2193804 
0.17752108603822764 1:9345 2:161.03502 3:74.913289 4:0.88520626 5:9518 6:109.0799 7:0.76310632 8:385.878 9:0.78865876 10:2.1496189 
0.17742601272010161 1:9089 2:163.87987 3:71.51764 4:0.89975139 5:9379 6:107.57543 7:0.59596092 8:389.196 9:0.75403105 10:2.2914608 
0.17749870007358187 1:8815 2:166.73905 3:68.098747 4:0.91279631 5:8999 6:105.94152 7:0.55524061 8:385.384 9:0.74583854 10:2.4484893 
0.17753225915813697 1:9337 2:162.51814 3:74.067743 4:0.8901075 5:9566 6:109.0332 7:0.78297694 8:388.458 9:0.77755136 10:2.1941824 
0.17759786428354526 1:7061 2:145.35569 3:63.014332 4:0.90114483 5:7226 6:94.817427 7:0.8116092 8:341.426 9:0.76117216 10:2.3067084 
0.17754970557535535 1:6958 2:134.48211 3:66.799466 4:0.86791293 5:7165 6:94.123327 7:0.61325577 8:330.089 9:0.80247624 10:2.0132214 
0.17752263928152356 1:8895 2:163.91402 3:69.98914 4:0.90425781 5:9098 6:106.42117 7:0.76155822 8:381.717 9:0.76713679 10:2.3419922 
0.17411418470400758 1:9096 2:162.06133 3:72.460524 4:0.89447502 5:9409 6:107.61685 7:0.80709849 8:388.416 9:0.75764558 10:2.2365464 
0.17748660678644856 1:9265 2:164.36733 3:72.576941 4:0.89723501 5:9533 6:108.61199 7:0.56938299 8:389.652 9:0.76683419 10:2.2647321 
0.16760961487866644 1:7810 2:148.04894 3:67.848411 4:0.88880599 5:7922 6:99.719611 7:0.75327932 8:349.828 9:0.80195826 10:2.1820547 
0.17729428711373824 1:9498 2:169.98456 3:71.901064 4:0.90613629 5:9755 6:109.96922 7:0.60075901 8:400.097 9:0.74560951 10:2.3641453 
0.12309248558385621 1:8200 2:150.35995 3:70.171697 4:0.88442023 5:8312 6:102.17908 7:0.58958873 8:357.086 9:0.80812412 10:2.1427436 
0.16887275303215224 1:8107 2:156.35912 3:66.556611 4:0.90488081 5:8252 6:101.598 7:0.73062365 8:364.326 9:0.76752001 10:2.349265 
0.17754435412988878 1:9990 2:170.50169 3:75.925328 4:0.89537874 5:10264 6:112.78148 7:0.555 8:411.999 9:0.73957637 10:2.2456497 
0.17714721046995655 1:9389 2:162.89675 3:74.033996 4:0.89075481 5:9530 6:109.33639 7:0.66348668 8:387.359 9:0.78632467 10:2.2002966 
0.17752864201255331 1:7355 2:150.60707 3:62.619924 4:0.90946365 5:7487 6:96.77126 7:0.60316549 8:351.517 9:0.74799703 10:2.4050983 
0.1771507862125577 1:8194 2:154.4147 3:68.443037 4:0.89640214 5:8421 6:102.14169 7:0.66176708 8:367.907 9:0.76072856 10:2.2561054 
0.17042684202465519 1:9048 2:159.63348 3:73.013001 4:0.88927186 5:9193 6:107.33253 7:0.56995276 8:380.814 9:0.78403715 10:2.1863706 
0.17752608607530487 1:9578 2:163.49082 3:75.257109 4:0.88775619 5:9783 6:110.43137 7:0.58473748 8:395.932 9:0.76779184 10:2.1724302 
0.17753291793767476 1:8099 2:150.94874 3:68.956192 4:0.88955987 5:8273 6:101.54786 7:0.73460317 8:359.595 9:0.78707111 10:2.1890527 
0.1772755086942055 1:9274 2:159.08527 3:75.274861 4:0.8809695 5:9535 6:108.66473 7:0.6107745 8:388.038 9:0.77397769 10:2.1133917 
0.17751851914040204 1:8216 2:156.28902 3:67.717396 4:0.90125785 5:8398 6:102.27872 7:0.5922722 8:367.231 9:0.76558184 10:2.3079596 
0.17729306949966367 1:7426 2:148.08146 3:64.586863 4:0.89987027 5:7582 6:97.23722 7:0.57561429 8:349.518 9:0.76388101 10:2.2927489 
0.16273825175637982 1:9105 2:153.98209 3:76.38085 4:0.86830125 5:9370 6:107.67008 7:0.6031399 8:380.498 9:0.7902874 10:2.0159777 
0.17752231903344801 1:8855 2:161.65332 3:70.61224 4:0.89955243 5:9194 6:106.18162 7:0.57336182 8:384.452 9:0.75285993 10:2.2893102 
0.16219413901769114 1:7060 2:139.79936 3:65.293535 4:0.88422999 5:7176 6:94.810712 7:0.58941393 8:334.193 9:0.79436457 10:2.1410904 
0.17752264589826072 1:6723 2:138.84874 3:62.501491 4:0.89295757 5:7014 6:92.520211 7:0.58932328 8:336.342 9:0.74681111 10:2.2215269 
0.17690147318455113 1:7065 2:136.97976 3:66.722956 4:0.87334573 5:7281 6:94.84428 7:0.6250553 8:334.456 9:0.79367746 10:2.0529629 
0.17708959944318112 1:9605 2:165.35861 3:74.87813 4:0.89160059 5:9847 6:110.58692 7:0.62031775 8:394.845 9:0.77420139 10:2.2083699 
0.17731293522318686 1:8954 2:163.15278 3:71.003091 4:0.90033676 5:9189 6:106.77353 7:0.54734397 8:385.983 9:0.75524977 10:2.2978264 
0.17779419327617207 1:9922 2:170.15797 3:75.000645 4:0.89761974 5:10119 6:112.39699 7:0.65560988 8:403.379 9:0.76627122 10:2.2687534 
0.17752292037219025 1:6946 2:141.26191 3:63.305185 4:0.89396313 5:7127 6:94.042128 7:0.56416504 8:336.659 9:0.77013025 10:2.231443 
0.17752210803802398 1:8144 2:151.81197 3:69.177351 4:0.89014476 5:8323 6:101.82958 7:0.7868599 8:361.059 9:0.78503908 10:2.1945328 
0.17754804597117624 1:8032 2:148.1149 3:69.559252 4:0.88286315 5:8161 6:101.12695 7:0.7020979 8:353.161 9:0.80926002 10:2.1293343 
0.17617810578491758 1:9049 2:157.49903 3:73.980316 4:0.88281588 5:9265 6:107.33846 7:0.71612852 8:379.477 9:0.7896589 10:2.1289315 
0.177922963626747 1:7185 2:141.04814 3:66.146118 4:0.88321872 5:7455 6:95.64636 7:0.57934204 8:344.705 9:0.7598738 10:2.1323721 
0.17730610539301342 1:8556 2:158.47092 3:69.249791 4:0.89946765 5:8744 6:104.37355 7:0.69448052 8:374.093 9:0.76828345 10:2.2883957 
0.17733470741531226 1:8350 2:157.64155 3:68.108988 4:0.90184979 5:8540 6:103.10941 7:0.77964519 8:369.933 9:0.76674365 10:2.3145485 
0.17752122188107305 1:8575 2:163.92821 3:67.189769 4:0.91214254 5:8764 6:104.48937 7:0.70483314 8:380.916 9:0.74265235 10:2.4397793 
0.17747095138034163 1:8535 2:150.59739 3:72.644499 4:0.87596452 5:8690 6:104.24538 7:0.77930972 8:362.035 9:0.81829948 10:2.0730736 
0.17789553427725957 1:7958 2:150.46438 3:68.096014 4:0.89172769 5:8247 6:100.66002 7:0.58223588 8:359.359 9:0.77438467 10:2.2095915 
0.17751988782688805 1:9014 2:161.28311 3:72.205152 4:0.89418785 5:9419 6:107.13067 7:0.56798992 8:389.388 9:0.74707171 10:2.2336787 
0.17789560054438164 1:6548 2:136.26414 3:61.821875 4:0.89115884 5:6685 6:91.308119 7:0.7708971 8:327.483 9:0.76725727 10:2.2041412 
0.17748463073203619 1:7826 2:155.13876 3:65.233711 4:0.90729893 5:7967 6:99.821704 7:0.80663781 8:360.662 9:0.75604724 10:2.3781993 
0.17754579700016487 1:9108 2:160.77412 3:72.705254 4:0.89190649 5:9291 6:107.68782 7:0.58317326 8:381.846 9:0.78497603 10:2.2113137 
0.1775328601513271 1:8027 2:153.87675 3:67.901759 4:0.89737258 5:8300 6:101.09547 7:0.54486831 8:369.657 9:0.73818507 10:2.2661674 
0.14489293748817564 1:9201 2:164.17118 3:72.322939 4:0.89773607 5:9438 6:108.23621 7:0.74219569 8:391.683 9:0.75365997 10:2.2699738 
0.17748910962323336 1:8180 2:155.75443 3:67.858436 4:0.90010365 5:8435 6:102.05439 7:0.76484338 8:369.486 9:0.75295183 10:2.2952847 
0.15805176715374775 1:8623 2:158.82332 3:70.008567 4:0.89760767 5:8811 6:104.78141 7:0.6181362 8:376.145 9:0.76587459 10:2.2686269 
0.17747855323437531 1:8289 2:151.18004 3:70.767206 4:0.8836761 5:8492 6:102.73209 7:0.58870739 8:368.391 9:0.76752756 10:2.1363009 
0.17754437937593648 1:6193 2:133.65059 3:59.77212 4:0.89442061 5:6379 6:88.798494 7:0.72179487 8:319.998 9:0.76000494 10:2.2360022 
0.17754965895921968 1:8796 2:160.31516 3:70.250099 4:0.89887752 5:8936 6:105.82729 7:0.75308219 8:376.334 9:0.78045555 10:2.2820632 
0.17746444544375134 1:9247 2:163.74842 3:72.523593 4:0.89657278 5:9483 6:108.50643 7:0.75572082 8:390.476 9:0.76211767 10:2.2578642 
0.16676312254160036 1:8540 2:158.65234 3:69.492675 4:0.89896592 5:8783 6:104.27591 7:0.56066176 8:375.222 9:0.76223897 10:2.2830082 
0.17715614881718755 1:7835 2:138.22443 3:73.615581 4:0.8463796 5:8020 6:99.879086 7:0.81742306 8:345.295 9:0.82578746 10:1.8776518 
0.17764277061125683 1:9322 2:164.98481 3:73.087883 4:0.89652278 5:9608 6:108.94558 7:0.61849788 8:392.264 9:0.76131092 10:2.2573484 
0.1775206734821424 1:9028 2:150.5421 3:77.597438 4:0.85691761 5:9261 6:107.21384 7:0.62564103 8:376.584 9:0.79997734 10:1.9400396 
0.17766324087784272 1:8583 2:153.88079 3:71.886995 4:0.88417264 5:8857 6:104.5381 7:0.68483204 8:371.141 9:0.78301685 10:2.1405928 
0.17753594837386411 1:9884 2:167.82435 3:75.973359 4:0.89166508 5:10127 6:112.18155 7:0.67717183 8:399.805 9:0.77704498 10:2.2089895 
0.17752712222683598 1:8794 2:159.91369 3:70.441317 4:0.89775464 5:9049 6:105.81526 7:0.55856199 8:390.826 9:0.72348483 10:2.2701689 
0.1775174345085086 1:7220 2:144.4664 3:64.970735 4:0.89316504 5:7493 6:95.879036 7:0.5704804 8:351.469 9:0.73446822 10:2.2235611 
0.17706049200938911 1:7960 2:144.57888 3:70.987304 4:0.87116317 5:8180 6:100.67267 7:0.74741784 8:353.31 9:0.80132939 10:2.0366864 
0.17789559081149944 1:6646 2:143.19989 3:59.903572 4:0.90829909 5:6941 6:91.988858 7:0.56269579 8:340.774 9:0.7191795 10:2.3905067 
0.17726617711096476 1:7831 2:152.24926 3:66.611314 4:0.89921118 5:7974 6:99.853587 7:0.58462113 8:360.036 9:0.75916335 10:2.2856367 
0.17704955440604414 1:9098 2:157.4379 3:74.290076 4:0.88166863 5:9349 6:107.62868 7:0.66813542 8:379.469 9:0.79396835 10:2.1192319 
0.17752387653618984 1:9349 2:164.30732 3:73.350505 4:0.89482224 5:9556 6:109.10324 7:0.80152606 8:394.363 9:0.75540995 10:2.2400298 
0.17752384818217984 1:9051 2:166.15982 3:70.2009 4:0.90636748 5:9308 6:107.35032 7:0.76534754 8:389.988 9:0.74783182 10:2.3669187 
0.17752048534963952 1:8800 2:152.59243 3:73.871852 4:0.87500595 5:8964 6:105.85135 7:0.63309353 8:371.357 9:0.80187986 10:2.065637 
0.17793332455106195 1:6706 2:134.95711 3:64.06752 4:0.88013415 5:6822 6:92.403162 7:0.62271334 8:323.565 9:0.80491559 10:2.1064825 
0.1774237828280229 1:7709 2:147.95292 3:66.820441 4:0.89220374 5:7828 6:99.072719 7:0.593 8:353.728 9:0.77422828 10:2.2141866 
0.17794942613924278 1:7645 2:150.74518 3:65.690799 4:0.90005622 5:7861 6:98.660612 7:0.56781046 8:357.053 9:0.75356719 10:2.2947685 
0.17731840901879511 1:8303 2:147.21712 3:72.476826 4:0.87041852 5:8461 6:102.81881 7:0.61299372 8:357.368 9:0.81698405 10:2.0312302 
0.17777347358105056 1:9967 2:166.29676 3:77.580791 4:0.88451056 5:10263 6:112.65158 7:0.56837363 8:404.277 9:0.76633075 10:2.1435301 
0.17736964899265029 1:7224 2:142.64486 3:65.41174 4:0.8886616 5:7335 6:95.905591 7:0.57593877 8:340.487 9:0.78304466 10:2.1807227 
0.17752607530297898 1:8184 2:153.2224 3:68.549499 4:0.89434116 5:8343 6:102.07934 7:0.61775362 8:362.508 9:0.78260081 10:2.2352082 
0.17782331995336426 1:7803 2:145.50894 3:68.916583 4:0.88072695 5:7995 6:99.674912 7:0.66228145 8:351.93 9:0.7916968 10:2.1113778 
0.17754971281511583 1:8793 2:159.08493 3:71.076163 4:0.89464324 5:8962 6:105.80924 7:0.59283981 8:377.255 9:0.77638463 10:2.2382318 
0.17752223295308373 1:8418 2:163.18733 3:66.794479 4:0.91239462 5:8645 6:103.5284 7:0.62680566 8:380.966 9:0.72886375 10:2.443126 
0.17753216848211789 1:9903 2:172.84591 3:73.853576 4:0.90411941 5:10163 6:112.28932 7:0.55016667 8:406.864 9:0.7517581 10:2.3403864 
0.16887334399885862 1:9396 2:164.64971 3:73.458445 4:0.89495827 5:9661 6:109.37714 7:0.57345133 8:395.035 9:0.7566268 10:2.2413993 
0.17739460964786871 1:8725 2:153.74613 3:73.337013 4:0.87890291 5:8965 6:105.39931 7:0.65150836 8:371.662 9:0.7937413 10:2.0964329 
0.17715132269977552 1:6653 2:136.34341 3:62.715847 4:0.88792697 5:6775 6:92.03729 7:0.58114955 8:325.692 9:0.78815785 10:2.1739866 
0.1773891755941483 1:7436 2:142.24325 3:67.263698 4:0.88112794 5:7575 6:97.302668 7:0.64801743 8:342.047 9:0.79868895 10:2.1147106 
0.177889320198023 1:10021 2:177.3597 3:72.701352 4:0.91212639 5:10305 6:112.95633 7:0.71101178 8:438.386 9:0.65525082 10:2.4395654 
0.17751620090585329 1:7736 2:143.56996 3:70.090126 4:0.87273462 5:7931 6:99.246063 7:0.6858156 8:352.757 9:0.78122304 10:2.0483622 
0.17717772123275288 1:9046 2:163.90163 3:70.821231 4:0.90182764 5:9263 6:107.32066 7:0.56679198 8:392.449 9:0.73807415 10:2.3143008 
0.17750055376252186 1:9081 2:163.22394 3:71.763084 4:0.89816415 5:9314 6:107.52808 7:0.63860759 8:391.924 9:0.74291619 10:2.2744833 
0.17512392130794219 1:8932 2:158.75711 3:72.436103 4:0.88984139 5:9148 6:106.64228 7:0.79622036 8:380.808 9:0.77400979 10:2.1916848 
0.17754019582629404 1:6186 2:135.35714 3:58.80651 4:0.90069381 5:6281 6:88.748295 7:0.6035122 8:316.518 9:0.77593073 10:2.3017374 
0.17752143037688639 1:8081 2:146.76188 3:71.177223 4:0.87452281 5:8301 6:101.43495 7:0.5910188 8:357.095 9:0.79635632 10:2.061922 
0.17752438491989225 1:7960 2:153.53614 3:67.474576 4:0.89825711 5:8267 6:100.67267 7:0.71789322 8:368.245 9:0.73764808 10:2.2754665 
0.17788925874954004 1:7674 2:153.16353 3:64.110981 4:0.90818056 5:7761 6:98.847561 7:0.8143039 8:353.169 9:0.77315489 10:2.3890374 
0.17766449680894683 1:7696 2:147.64598 3:67.325655 4:0.88998294 5:7857 6:98.989149 7:0.57210824 8:351.289 9:0.78369274 10:2.1930121 
0.1770377932329863 1:8918 2:159.02983 3:72.165094 4:0.89111203 5:9209 6:106.55867 7:0.692714 8:383.223 9:0.76308725 10:2.2036947 
0.17752548178072089 1:9137 2:162.75473 3:72.968973 4:0.89386458 5:9448 6:107.85912 7:0.61565932 8:391.081 9:0.75072358 10:2.2304648 
0.17664154857055109 1:8409 2:152.21746 3:71.115056 4:0.88415493 5:8643 6:103.47305 7:0.71847232 8:368.734 9:0.77719115 10:2.1404393 
0.17726563572863355 1:8344 2:152.14867 3:71.007997 4:0.88441495 5:8539 6:103.07236 7:0.58529742 8:366.068 9:0.78245726 10:2.1426977 
0.17738412442209042 1:7449 2:152.61991 3:63.037813 4:0.91071382 5:7694 6:97.387686 7:0.60723893 8:356.412 9:0.73689092 10:2.4210851 
0.17751663265252055 1:9478 2:159.46536 3:76.572476 4:0.8771686 5:9713 6:109.85338 7:0.59911504 8:386.14 9:0.79879803 10:2.0825415 
0.1774934981818454 1:8794 2:162.43673 3:69.896916 4:0.90268479 5:8994 6:105.81526 7:0.78517857 8:383.107 9:0.75293269 10:2.323947 
0.1778523704006259 1:8810 2:162.76591 3:70.017908 4:0.90274527 5:9184 6:105.91147 7:0.78815531 8:399.002 9:0.69540151 10:2.3246325 
0.17706097574861088 1:7860 2:140.20459 3:72.398861 4:0.85635949 5:8090 6:100.03831 7:0.72623117 8:349.448 9:0.8088487 10:1.9365579 
0.17750322635497945 1:6181 2:131.74149 3:60.876307 4:0.88683351 5:6353 6:88.712421 7:0.70462836 8:317.029 9:0.77280625 10:2.1640848 
0.17795255369850219 1:9189 2:162.74689 3:72.414658 4:0.8955541 5:9336 6:108.16561 7:0.66611091 8:382.264 9:0.790226 10:2.2474302 
0.17712961387628107 1:7332 2:136.56542 3:69.425692 4:0.86113906 5:7490 6:96.619834 7:0.69274376 8:340.657 9:0.79395829 10:1.9670733 
0.17709451681513122 1:8720 2:157.93521 3:71.758302 4:0.89082184 5:9015 6:105.36911 7:0.59134681 8:380.638 9:0.75631387 10:2.2009329 
0.17468387499769727 1:8776 2:157.85473 3:71.593064 4:0.89123711 5:9002 6:105.70691 7:0.75537958 8:378.071 9:0.77154231 10:2.2048885 
0.17354389207723606 1:8325 2:154.95872 3:69.049294 4:0.89523317 5:8548 6:102.95494 7:0.76636288 8:370.363 9:0.76267396 10:2.2441753 
0.17538299320335754 1:8163 2:149.56896 3:70.433049 4:0.88218294 5:8377 6:101.94829 7:0.70291914 8:361.159 9:0.7864349 10:2.1235622 
0.16907223695592682 1:8929 2:160.57676 3:71.857165 4:0.89428685 5:9167 6:106.62437 7:0.60127946 8:382.1 9:0.76852608 10:2.234666 
0.14251230980515051 1:7961 2:149.20621 3:68.442566 4:0.88858539 5:8186 6:100.67899 7:0.76843629 8:361.15 9:0.76701216 10:2.1800207 
0.17133010619018668 1:8838 2:158.07687 3:72.16728 4:0.88970657 5:9039 6:106.07965 7:0.58452381 8:377.762 9:0.77826468 10:2.190423 
0.17753571412756125 1:8958 2:162.49791 3:71.141431 4:0.89907285 5:9227 6:106.79738 7:0.69995312 8:386.523 9:0.75347741 10:2.2841529 
0.17751784617154293 1:5701 2:126.97648 3:57.736617 4:0.890643 5:5792 6:85.198231 7:0.58007733 8:302.75 9:0.78161449 10:2.1992366 
0.17755098359998223 1:7661 2:145.85605 3:67.474369 4:0.88656224 5:7781 6:98.7638 7:0.7200188 8:347.215 9:0.79854311 10:2.1616512 
0.17767050130638912 1:7635 2:146.40886 3:67.616626 4:0.88696625 5:7764 6:98.596064 7:0.58862077 8:350.09 9:0.78281564 10:2.165279 
0.17785167092183188 1:6783 2:140.47853 3:62.096049 4:0.89699912 5:6892 6:92.932146 7:0.58393595 8:329.387 9:0.78563129 10:2.262278 
0.17760942417943454 1:6440 2:130.36965 3:63.840566 4:0.87189725 5:6576 6:90.551989 7:0.6838696 8:317.137 9:0.80464053 10:2.042113 
0.17784318222583995 1:7883 2:146.52525 3:69.159464 4:0.88160021 5:8144 6:100.18457 7:0.62563492 8:354.436 9:0.78854365 10:2.118658 
0.17751312394130209 1:8269 2:149.3268 3:71.753387 4:0.8769879 5:8470 6:102.60808 7:0.58396893 8:363.255 9:0.78748022 10:2.0811115 
0.15164646200220658 1:8514 2:158.58112 3:69.363036 4:0.89926812 5:8791 6:104.11706 7:0.60554765 8:376.616 9:0.75430325 10:2.2862483 
0.16968336303355622 1:9045 2:156.91022 3:73.900284 4:0.88214829 5:9193 6:107.31473 7:0.59311475 8:376.918 9:0.80006391 10:2.1232696 
0.17752234645209519 1:9422 2:164.96222 3:73.295292 4:0.89587032 5:9630 6:109.52837 7:0.61779555 8:394.637 9:0.76025163 10:2.2506524 
0.1775214950484392 1:6613 2:145.51993 3:58.757351 4:0.91485819 5:6808 6:91.760193 7:0.74253312 8:339.432 9:0.72127822 10:2.4766251 
0.17784067800964065 1:8863 2:158.66935 3:72.199149 4:0.89047664 5:9223 6:106.22957 7:0.72838593 8:390.525 9:0.73028593 10:2.1976623 
0.17754594286397407 1:8764 2:155.84687 3:72.5015 4:0.88520043 5:9080 6:105.63461 7:0.56549232 8:379.698 9:0.76389842 10:2.1495676 
0.17774750441771556 1:5852 2:128.86263 3:58.839551 4:0.88966861 5:6050 6:86.319163 7:0.59471545 8:310.009 9:0.76518347 10:2.1900682 
0.17752715941714009 1:8181 2:152.03983 3:69.269676 4:0.89018349 5:8317 6:102.06063 7:0.57824427 8:360.335 9:0.79177787 10:2.1948973 
0.16818326674257222 1:8733 2:157.7227 3:71.52794 4:0.89125403 5:9006 6:105.44762 7:0.70861733 8:378.418 9:0.76635457 10:2.2050502 
0.17753973118891941 1:8044 2:151.35067 3:68.728738 4:0.89094938 5:8250 6:101.20246 7:0.56904358 8:361.519 9:0.77342761 10:2.2021453 
0.17751940045181738 1:7771 2:150.51715 3:66.691683 4:0.89648029 5:7918 6:99.47032 7:0.5636878 8:355.532 9:0.77255495 10:2.2569103 
0.177740473759847 1:6982 2:136.7654 3:65.569522 4:0.87757978 5:7073 6:94.285516 7:0.59869662 8:327.867 9:0.81619569 10:2.0858075 
0.17745418641642402 1:6514 2:143.96288 3:58.102197 4:0.91493928 5:6700 6:91.070755 7:0.60764925 8:332.388 9:0.74091254 10:2.4777527 
0.17751780211074702 1:8796 2:157.12625 3:72.205058 4:0.8881595 5:9153 6:105.82729 7:0.59144701 8:384.606 9:0.74724493 10:2.1761114 
0.17751991537929224 1:8721 2:157.35865 3:70.94575 4:0.8925978 5:8871 6:105.37515 7:0.74032258 8:375.491 9:0.77727927 10:2.2180138 
0.17752054783255339 1:7170 2:145.18359 3:63.726136 4:0.89851889 5:7334 6:95.546468 7:0.64368435 8:343.61 9:0.76312807 10:2.2782424 
0.17760937433305091 1:7744 2:148.52659 3:67.271735 4:0.8915475 5:8010 6:99.297367 7:0.61710096 8:355.569 9:0.76971053 10:2.2078603 
0.17710907263381365 1:9009 2:163.64294 3:71.254921 4:0.90022295 5:9309 6:107.10096 7:0.68239661 8:388.781 9:0.74899063 10:2.2965843 
0.17772801677518413 1:8137 2:153.13107 3:68.698446 4:0.89372003 5:8503 6:101.78581 7:0.60579214 8:370.845 9:0.7435143 10:2.2290325 
0.17761806354642479 1:7858 2:147.45709 3:68.874412 4:0.8842145 5:8093 6:100.02558 7:0.78002779 8:359.644 9:0.76344235 10:2.140956 
0.17635460712991313 1:8329 2:150.22222 3:71.610788 4:0.87906656 5:8587 6:102.97967 7:0.64266975 8:363.93 9:0.79025456 10:2.0977596 
0.1775000418831009 1:9410 2:168.82948 3:71.712582 4:0.9053044 5:9641 6:109.4586 7:0.59936306 8:395.738 9:0.75506437 10:2.3542518 
0.1777476143856237 1:8740 2:161.22136 3:70.223743 4:0.9001532 5:8921 6:105.48987 7:0.5427223 8:381.583 9:0.75429853 10:2.2958241 
0.17751473340073376 1:8553 2:156.9022 3:70.001795 4:0.89495859 5:8727 6:104.35525 7:0.56627383 8:371.914 9:0.77703983 10:2.2414025 
0.17751295280517654 1:9615 2:168.61822 3:74.17446 4:0.89804879 5:9915 6:110.64447 7:0.55568399 8:400.818 9:0.75208118 10:2.2732653 
0.1775028986916134 1:9666 2:163.73017 3:75.917886 4:0.8860044 5:9944 6:110.93752 7:0.68306127 8:395.248 9:0.77753025 10:2.1566746 
0.17750569399040478 1:9641 2:162.16644 3:76.227303 4:0.8826366 5:9853 6:110.79396 7:0.78305718 8:392.204 9:0.78760399 10:2.1274062 
0.1774995307792448 1:7266 2:138.73524 3:67.874874 4:0.87214902 5:7583 6:96.183983 7:0.63525092 8:340.046 9:0.78964141 10:2.0439853 
0.17639746835819362 1:8996 2:158.63397 3:73.175589 4:0.88725164 5:9198 6:107.02366 7:0.80703328 8:379.559 9:0.78469471 10:2.1678537 
0.1774907678298755 1:8878 2:160.56422 3:71.27111 4:0.89608665 5:9087 6:106.31943 7:0.66953243 8:380.734 9:0.76962946 10:2.2528654 
0.17590291201237757 1:9605 2:161.27732 3:76.991275 4:0.87869456 5:9899 6:110.58692 7:0.60580259 8:392.514 9:0.7834241 10:2.0947479 
0.17365291853607218 1:8935 2:161.36566 3:71.638579 4:0.89605066 5:9192 6:106.66019 7:0.55815842 8:387.081 9:0.74937761 10:2.2524967 
0.17751662594641959 1:7597 2:148.77117 3:65.989579 4:0.89624255 5:7822 6:98.350398 7:0.7127979 8:354.178 9:0.76104236 10:2.2544646 
0.17749981799598744 1:9252 2:159.56091 3:74.575549 4:0.88405662 5:9411 6:108.53576 7:0.58854962 8:383.757 9:0.78946498 10:2.1395875 
0.17751963410751809 1:7846 2:157.82506 3:64.312223 4:0.91320941 5:8011 6:99.949174 7:0.52292722 8:368.466 9:0.72621185 10:2.4540445 
0.17738834912168461 1:8359 2:153.00185 3:70.673145 4:0.88692659 5:8597 6:103.16496 7:0.57096995 8:368.351 9:0.77417739 10:2.164922 
0.17748588905581933 1:6461 2:132.1223 3:63.124255 4:0.8784842 5:6624 6:90.699508 7:0.78353141 8:321.122 9:0.787353 10:2.0930512 
0.17760912087599834 1:8504 2:164.73605 3:67.20731 4:0.91299549 5:8780 6:104.05589 7:0.52545724 8:385.619 9:0.71864808 10:2.4511628 
0.17764086813821983 1:8516 2:158.59734 3:69.481244 4:0.89892702 5:8909 6:104.12928 7:0.64824541 8:381.611 9:0.73485854 10:2.2825922 
0.17556723640507843 1:9430 2:162.48143 3:75.150319 4:0.88661075 5:9695 6:109.57486 7:0.72310406 8:393.743 9:0.76435633 10:2.1620857 
0.17746580960621516 1:6811 2:146.77177 3:59.593038 4:0.91386188 5:6952 6:93.123759 7:0.77222222 8:341.674 9:0.73315682 10:2.4629013 
0.17751129072726679 1:9605 2:166.16294 3:74.551864 4:0.89369891 5:9919 6:110.58692 7:0.6150349 8:401.692 9:0.74803319 10:2.2288235 
0.17752560040795945 1:9695 2:172.24607 3:72.240099 4:0.90780128 5:9890 6:111.10381 7:0.619568 8:401.551 9:0.75557269 10:2.3843554 
0.17760944638371642 1:9880 2:168.74407 3:75.378642 4:0.89468183 5:10016 6:112.15885 7:0.57099925 8:398.826 9:0.78054848 10:2.2386191 
0.17760929485185933 1:9861 2:168.47863 3:75.02039 4:0.89539072 5:10046 6:112.05095 7:0.58696429 8:398.8 9:0.77914901 10:2.2457712 
0.177147534424304 1:8358 2:148.50954 3:72.398904 4:0.8731211 5:8535 6:103.15879 7:0.63003166 8:359.572 9:0.81234498 10:2.0512678 
0.17751702615631121 1:8528 2:161.96828 3:67.960714 4:0.90771247 5:8702 6:104.20262 7:0.63651291 8:378.924 9:0.74636769 10:2.3832634 
0.17753734514970199 1:8887 2:159.43568 3:71.733749 4:0.89306745 5:9088 6:106.3733 7:0.64840216 8:382.389 9:0.76375535 10:2.2226035 
0.15765877992866614 1:8260 2:154.5057 3:69.172388 4:0.89418321 5:8471 6:102.55222 7:0.56467049 8:367.572 9:0.76825442 10:2.2336325 
0.17756924115215056 1:8558 2:161.05387 3:68.504439 4:0.90502843 5:8719 6:104.38575 7:0.72648557 8:376.963 9:0.75680623 10:2.3509991 
0.17729579686284755 1:8062 2:155.31168 3:67.213446 4:0.90150682 5:8223 6:101.31563 7:0.76272469 8:365.359 9:0.75894978 10:2.3107234 
0.1590410792434 1:8983 2:155.48325 3:74.187566 4:0.87882629 5:9154 6:106.9463 7:0.70737853 8:375.061 9:0.80246749 10:2.0958128 
0.17760560474218823 1:6639 2:138.47353 3:62.044185 4:0.89400445 5:6819 6:91.940401 7:0.57040983 8:332.921 9:0.75271427 10:2.2318535 
0.16163971231056917 1:9289 2:165.16509 3:72.334861 4:0.89899694 5:9515 6:108.75257 7:0.62942133 8:389.344 9:0.77003746 10:2.2833401 
0.17753514420474487 1:7662 2:153.1804 3:64.27897 4:0.90769562 5:7903 6:98.770245 7:0.77393939 8:371.083 9:0.69921364 10:2.3830563 
0.17760893390242199 1:9656 2:160.23116 3:77.819891 4:0.87414077 5:9926 6:110.88012 7:0.59975155 8:389.316 9:0.80057609 10:2.0590001 
0.1775075810310392 1:7221 2:140.92099 3:66.021327 4:0.88346409 5:7367 6:95.885675 7:0.58822092 8:336.592 9:0.80093935 10:2.1344768 
0.17709435548497948 1:6355 2:142.82859 3:57.739423 4:0.91464554 5:6534 6:89.952417 7:0.55126648 8:337.698 9:0.70027471 10:2.4736753 
0.17762158935487124 1:9119 2:165.50698 3:71.138978 4:0.90291239 5:9385 6:107.75283 7:0.81079399 8:391.071 9:0.74928296 10:2.3265303 
0.17736499166637038 1:7932 2:154.88185 3:66.284675 4:0.90379328 5:8078 6:100.49545 7:0.56917336 8:361.964 9:0.76078477 10:2.3366163 
0.16103845689955959 1:9039 2:163.10164 3:71.802591 4:0.89788397 5:9331 6:107.27913 7:0.77019427 8:388.64 9:0.75203016 10:2.2715286 
0.17789072973340075 1:8366 2:156.99971 3:68.932914 4:0.8984558 5:8662 6:103.20815 7:0.56911565 8:374.312 9:0.75034367 10:2.2775725 
0.17765815440267968 1:7730 2:148.44514 3:67.0358 4:0.89222741 5:7962 6:99.207569 7:0.56572014 8:354.332 9:0.77369289 10:2.2144158 
0.17760400655848971 1:9265 2:161.49692 3:74.271963 4:0.88797222 5:9620 6:108.61199 7:0.63181942 8:389.799 9:0.76625593 10:2.1743995 
0.17750657655991164 1:9730 2:161.33636 3:77.448422 4:0.87724485 5:10008 6:111.30418 7:0.61068223 8:409.624 9:0.72870528 10:2.0831459 
0.17762614380752345 1:7510 2:145.25672 3:66.941151 4:0.8874795 5:7721 6:97.785628 7:0.5680357 8:348.791 9:0.77574549 10:2.1699166 
0.17760193346551348 1:7473 2:157.04575 3:61.988497 4:0.91880311 5:7658 6:97.544447 7:0.66908407 8:365.178 9:0.70419937 10:2.5334661 
0.17751864366489123 1:8949 2:162.92195 3:71.016785 4:0.89999776 5:9235 6:106.74371 7:0.57586873 8:386.054 9:0.75455041 10:2.2941329 
0.17754596943024104 1:8673 2:158.47782 3:70.26852 4:0.89632555 5:8957 6:105.08476 7:0.63538462 8:376.881 9:0.76730976 10:2.2553175 
0.17752350411855319 1:8009 2:154.02908 3:66.625377 4:0.90160965 5:8150 6:100.98206 7:0.66897761 8:361.837 9:0.76870943 10:2.3118681 
0.17710530408952863 1:6503 2:142.4449 3:58.807441 4:0.91080201 5:6633 6:90.993828 7:0.78170453 8:330.782 9:0.74686117 10:2.4222257 
0.17760013829779259 1:6110 2:138.20023 3:56.685387 4:0.91200974 5:6227 6:88.201438 7:0.6856694 8:318.923 9:0.75488256 10:2.4380222 
0.17753561426385295 1:8296 2:152.72778 3:69.754037 4:0.8896098 5:8506 6:102.77546 7:0.63751633 8:364.98 9:0.78260114 10:2.1895188 
0.17719177045495918 1:7815 2:142.97702 3:70.968807 4:0.86811386 5:7955 6:99.751527 7:0.59110506 8:349.394 9:0.80446649 10:2.014646 
0.17713758005229457 1:8213 2:154.91473 3:68.798384 4:0.89597482 5:8441 6:102.26004 7:0.56750967 8:368.259 9:0.76103556 10:2.2517205 
0.17747347065893099 1:8980 2:161.11595 3:72.080346 4:0.89434306 5:9221 6:106.92844 7:0.5774177 8:383.846 9:0.76590016 10:2.2352272 
0.16278147251577729 1:9407 2:167.30631 3:72.620403 4:0.90088561 5:9676 6:109.44115 7:0.65244833 8:397.746 9:0.74722151 10:2.3038471 
0.17758200765632604 1:7759 2:146.11543 3:68.781877 4:0.88227381 5:8023 6:99.393489 7:0.72799775 8:353.112 9:0.78197103 10:2.1243304 
0.1773891755977218 1:9813 2:163.33982 3:77.147101 4:0.88143227 5:10033 6:111.7779 7:0.61243213 8:393.78 9:0.79525124 10:2.1172516 
0.17792535500296777 1:6653 2:133.10348 3:64.440238 4:0.87499256 5:6747 6:92.03729 7:0.61092746 8:319.869 9:0.81711481 10:2.0655337 
0.14500063531946139 1:8183 2:150.88591 3:70.284357 4:0.8848841 5:8452 6:102.07311 7:0.56574945 8:364.727 9:0.77301262 10:2.1467922 
0.17782817076496482 1:7465 2:143.51175 3:66.690731 4:0.88546518 5:7594 6:97.492221 7:0.78463317 8:342.162 9:0.80126491 10:2.1518995 
0.17752036052660702 1:8003 2:154.70684 3:66.943941 4:0.90153085 5:8211 6:100.94422 7:0.62289851 8:364.401 9:0.75736209 10:2.3109908 
0.17721512375770282 1:7385 2:143.36757 3:66.630615 4:0.88543999 5:7526 6:96.968418 7:0.67628205 8:345.074 9:0.77935601 10:2.1516772 
0.1661103543036192 1:8722 2:155.97669 3:71.666824 4:0.88819257 5:8937 6:105.38119 7:0.66519219 8:373.143 9:0.78718235 10:2.1764141 
0.17737897575456221 1:8153 2:153.84171 3:68.142258 4:0.89655251 5:8369 6:101.88583 7:0.63457347 8:367.296 9:0.75944252 10:2.2576551 
0.17755274658412312 1:9890 2:171.34076 3:74.056437 4:0.90176949 5:10048 6:112.21559 7:0.82252162 8:403.518 9:0.76327376 10:2.3136511 
0.17780370319362604 1:7766 2:146.91886 3:68.204242 4:0.88571433 5:7933 6:99.438314 7:0.80045351 8:352.07 9:0.78731624 10:2.1541014 
0.17755164138543991 1:7954 2:155.93232 3:66.021578 4:0.90594335 5:8285 6:100.63472 7:0.53569504 8:371.197 9:0.72541501 10:2.3618388 
0.17753796316191736 1:9384 2:163.79675 3:73.91149 4:0.89240311 5:9700 6:109.30727 7:0.65384615 8:393.346 9:0.76216392 10:2.2161202 
0.17753544739653443 1:7978 2:156.83393 3:65.374284 4:0.90898096 5:8137 6:100.78643 7:0.55642349 8:363.072 9:0.76053356 10:2.3990156 
0.17750478220465277 1:9359 2:164.64272 3:73.64521 4:0.8943824 5:9692 6:109.16157 7:0.54616013 8:406.708 9:0.71100701 10:2.2356202 
0.17748588238419849 1:6700 2:138.05887 3:63.217019 4:0.88900422 5:6942 6:92.361815 7:0.56142115 8:335.153 9:0.74954626 10:2.1838877 
0.17752414566958269 1:8138 2:155.45343 3:67.760495 4:0.90000026 5:8392 6:101.79206 7:0.55625427 8:370.659 9:0.74435216 10:2.2941602 
0.1775267164343802 1:8728 2:163.76292 3:69.052966 4:0.90675204 5:8988 6:105.41743 7:0.53697551 8:385.603 9:0.73763887 10:2.3715552 
0.17746002937938096 1:9504 2:164.42515 3:74.359746 4:0.89189593 5:9651 6:110.00395 7:0.78708075 8:392.519 9:0.77516637 10:2.2112118 
0.17727474903842411 1:7648 2:147.51497 3:66.954028 4:0.89106304 5:7876 6:98.679968 7:0.57262653 8:352.635 9:0.77287082 10:2.2032277 
0.17750222667093496 1:9096 2:157.84491 3:73.966823 4:0.88340812 5:9240 6:107.61685 7:0.8212351 8:382.95 9:0.7794283 10:2.1339961 
0.15674848681228679 1:8761 2:158.37642 3:71.191635 4:0.89327577 5:8991 6:105.61653 7:0.75892238 8:376.69 9:0.77588144 10:2.2246492 
0.17729341731589726 1:8193 2:149.58176 3:70.949038 4:0.88035461 5:8379 6:102.13546 7:0.58521429 8:362.619 9:0.78298187 10:2.1082987 
0.17474270731603025 1:8775 2:161.69302 3:70.061362 4:0.90125042 5:9005 6:105.70088 7:0.68597561 8:381.842 9:0.75629216 10:2.3078772 
0.17752077021531965 1:8520 2:149.16474 3:73.706225 4:0.86939011 5:8817 6:104.15374 7:0.76241611 8:376.848 9:0.7539057 10:2.0237739 
0.17748457158800468 1:8637 2:159.1079 3:70.326166 4:0.89701359 5:8895 6:104.86644 7:0.61913978 8:381.198 9:0.74691565 10:2.2624282 
0.17741965952708763 1:8360 2:145.07522 3:75.083381 4:0.85565422 5:8682 6:103.17113 7:0.75342466 8:365.715 9:0.78547179 10:1.9321882 
0.17740073948689095 1:6287 2:135.60921 3:60.371113 4:0.89543889 5:6471 6:89.469867 7:0.55149123 8:325.361 9:0.74631528 10:2.2462599 
0.17767608669519558 1:6831 2:139.58471 3:63.00113 4:0.89234855 5:6964 6:93.260385 7:0.7998829 8:331.195 9:0.78257615 10:2.2155905 
0.17738356950439108 1:9238 2:163.00566 3:73.278467 4:0.89325742 5:9609 6:108.45362 7:0.64660181 8:393.289 9:0.75052337 10:2.2244688 
0.17710520036532607 1:9581 2:163.92103 3:75.406377 4:0.88791037 5:9826 6:110.44867 7:0.58671157 8:393.84 9:0.77621326 10:2.1738351 
0.1776680633384245 1:8815 2:154.97303 3:73.611865 4:0.87998693 5:9033 6:105.94152 7:0.58825492 8:374.792 9:0.78859053 10:2.1052725 
0.17754831569128937 1:6384 2:134.23776 3:60.963563 4:0.89092719 5:6486 6:90.157425 7:0.58947368 8:319.944 9:0.78370894 10:2.2019342 
0.1775011167058255 1:8982 2:159.37388 3:72.784311 4:0.88962637 5:9266 6:106.94035 7:0.5911544 8:384.349 9:0.76406693 10:2.1896735 
0.16332948799505323 1:7960 2:153.72446 3:67.155389 4:0.89953166 5:8204 6:100.67267 7:0.71737563 8:365.45 9:0.74897444 10:2.289086 
0.1775166310164123 1:8415 2:152.65793 3:71.096562 4:0.88492968 5:8617 6:103.50995 7:0.60815206 8:366.147 9:0.78877479 10:2.1471915 
0.17387332673714082 1:8518 2:157.38893 3:69.597719 4:0.89691542 5:8702 6:104.14151 7:0.57616342 8:373.478 9:0.76739232 10:2.2614093 
0.17748159213279846 1:8456 2:146.57378 3:74.247597 4:0.86220799 5:8671 6:103.76181 7:0.61382114 8:363.784 9:0.80294842 10:1.9741216 
0.17746216892899508 1:8743 2:160.15779 3:70.779068 4:0.89704789 5:9016 6:105.50798 7:0.61849179 8:384.589 9:0.74280809 10:2.2627846 
0.17752427439161145 1:8652 2:157.59747 3:70.673176 4:0.89381241 5:8797 6:104.95746 7:0.80897616 8:371.512 9:0.78773598 10:2.2299475 
0.17697600669912961 1:8411 2:159.23322 3:68.001781 4:0.90422436 5:8638 6:103.48535 7:0.57664884 8:373.676 9:0.75694981 10:2.3416037 
0.17751936146583125 1:7389 2:145.88457 3:65.312898 4:0.89418253 5:7548 6:96.994675 7:0.65627498 8:347.017 9:0.77107039 10:2.2336257 
0.1483923225420741 1:6811 2:139.62042 3:62.728797 4:0.89339051 5:6953 6:93.123759 7:0.58030161 8:337.815 9:0.7500028 10:2.2257786 
0.17239119882735954 1:7300 2:149.95584 3:62.456669 4:0.90913553 5:7444 6:96.408758 7:0.57776019 8:347.532 9:0.75952684 10:2.400958 
0.17159470352511291 1:8707 2:158.43008 3:70.751652 4:0.89474387 5:8944 6:105.29053 7:0.69801186 8:379.774 9:0.7586264 10:2.2392421 
0.17752912116442679 1:6984 2:144.75848 3:62.106182 4:0.90328876 5:7108 6:94.299019 7:0.79508197 8:336.886 9:0.77330028 10:2.3308224 
0.17734995916314583 1:9733 2:166.19505 3:75.338946 4:0.89134966 5:10015 6:111.32134 7:0.59682364 8:400.751 9:0.76156567 10:2.2059647 
0.17532459147188459 1:7598 2:139.4146 3:70.141148 4:0.86422127 5:7759 6:98.356871 7:0.70001843 8:341.533 9:0.81854735 10:1.9876294 
0.17325225445716341 1:9643 2:163.59173 3:76.174413 4:0.88497565 5:9888 6:110.80546 7:0.57508349 8:394.312 9:0.77936705 10:2.1475942 
0.17751726331021606 1:8892 2:156.07407 3:73.12855 4:0.88343682 5:9105 6:106.40322 7:0.80718954 8:397.621 9:0.70675793 10:2.1342426 
0.17449489672085011 1:8557 2:155.04977 3:70.993363 4:0.88901676 5:8788 6:104.37965 7:0.77173521 8:371.827 9:0.77776707 10:2.1840038 
0.17754626305626733 1:7652 2:148.65455 3:65.944064 4:0.89622187 5:7766 6:98.70577 7:0.57838246 8:351.66 9:0.7775689 10:2.2542522 
0.17784283734312184 1:6838 2:133.81699 3:65.985226 4:0.86997235 5:7016 6:93.308156 7:0.76788321 8:329.856 9:0.789751 10:2.0279841 
0.1773331148938124 1:6142 2:106.0766 3:76.155463 4:0.69611636 5:6246 6:88.432106 7:0.62667075 8:296.654 9:0.87703971 10:1.3928954 
0.17775810428353683 1:9403 2:162.49581 3:74.424997 4:0.88894612 5:9667 6:109.41788 7:0.57195864 8:393.806 9:0.76192398 10:2.1833499 
0.17755061423949622 1:6231 2:130.84622 3:61.293412 4:0.88349609 5:6369 6:89.070509 7:0.58733151 8:315.371 9:0.78727073 10:2.1347518 
0.17772695304333674 1:9325 2:164.1736 3:73.017904 4:0.89564963 5:9578 6:108.96311 7:0.74255455 8:389.74 9:0.7714517 10:2.248402 
0.17749960276983501 1:7418 2:140.2059 3:68.255043 4:0.87350229 5:7600 6:97.184829 7:0.62704987 8:339.55 9:0.80851713 10:2.0541472 
0.17759786431872304 1:8327 2:152.97996 3:71.030341 4:0.88567202 5:8701 6:102.9673 7:0.55900913 8:371.477 9:0.75828867 10:2.153727 
0.17300730220552279 1:8326 2:155.21583 3:69.123937 4:0.89536115 5:8554 6:102.96112 7:0.65414833 8:371.339 9:0.75876125 10:2.2454715 
0.17729989756301612 1:7151 2:144.6918 3:63.625254 4:0.89813026 5:7426 6:95.419788 7:0.61561639 8:347.094 9:0.74590313 10:2.2741253 
0.1779276505091115 1:8098 2:155.26312 3:67.438549 4:0.90074414 5:8259 6:101.54159 7:0.81963563 8:366.169 9:0.75896979 10:2.3022904 
0.17724388842418459 1:6903 2:134.48269 3:66.438323 4:0.86944553 5:7102 6:93.750587 7:0.69203008 8:329.815 9:0.79745637 10:2.0241734 
0.17650898656888153 1:7969 2:152.22054 3:67.196906 4:0.89728861 5:8187 6:100.72957 7:0.64657201 8:364.252 9:0.75476161 10:2.2652909 
0.17747646581877338 1:8602 2:158.7449 3:69.972274 4:0.89761302 5:8845 6:104.65375 7:0.56808876 8:376.332 9:0.76325034 10:2.2686829 
0.17752802219316044 1:9657 2:168.51163 3:74.308704 4:0.89752147 5:9981 6:110.88586 7:0.77678571 8:401.814 9:0.7516263 10:2.267724 
0.17752751410721396 1:9219 2:162.07426 3:73.470151 4:0.89135209 5:9506 6:108.34203 7:0.60651316 8:387.138 9:0.772969 10:2.2059879 
0.17753854411131842 1:8591 2:150.48766 3:73.852708 4:0.8712971 5:8845 6:104.58681 7:0.66721031 8:367.643 9:0.79873181 10:2.0376729 
0.17730348559627751 1:7467 2:148.41117 3:65.075202 4:0.89874137 5:7708 6:97.50528 7:0.6958345 8:364.408 9:0.7066107 10:2.2806102 
0.17760907621198768 1:6548 2:128.18623 3:66.669664 4:0.85410534 5:6763 6:91.308119 7:0.74038896 8:323.513 9:0.78620366 10:1.922707 
0.17752279339488275 1:8549 2:160.99876 3:68.757136 4:0.90422034 5:8691 6:104.33084 7:0.59343329 8:378.42 9:0.75019993 10:2.3415572 
0.17779390824635155 1:8409 2:152.09422 3:70.77294 4:0.88514094 5:8536 6:103.47305 7:0.78361756 8:362.415 9:0.80452934 10:2.1490447 
0.17709769955630078 1:7818 2:142.66076 3:70.55511 4:0.86914028 5:7986 6:99.770671 7:0.63977087 8:350.657 9:0.79898846 10:2.0219763 
0.17747922312021441 1:8159 2:152.23019 3:69.043262 4:0.89123331 5:8353 6:101.92331 7:0.58546211 8:362.569 9:0.77994766 10:2.2048522 
0.17752333129378514 1:8244 2:157.86951 3:67.434478 4:0.90417923 5:8417 6:102.45285 7:0.60958296 8:368.958 9:0.76101634 10:2.34108 
0.17729349981083847 1:7714 2:157.6652 3:63.282777 4:0.91591406 5:7868 6:99.104843 7:0.79247997 8:370.702 9:0.7054068 10:2.4914392 
0.13896753295725367 1:8559 2:157.92371 3:70.16743 4:0.89587202 5:8840 6:104.39184 7:0.58272059 8:378.406 9:0.75113303 10:2.2506697 
0.1772959947628574 1:7103 2:146.80193 3:62.468476 4:0.90494479 5:7407 6:95.099004 7:0.57245326 8:351.94 9:0.72063345 10:2.3500161 
0.17731066089081687 1:8967 2:149.72705 3:77.101872 4:0.85722051 5:9198 6:106.85101 7:0.77301724 8:382.107 9:0.7717685 10:1.9419379 
0.17458088855357171 1:7286 2:140.78565 3:66.509234 4:0.88137631 5:7383 6:96.316267 7:0.59034192 8:337.163 9:0.80541407 10:2.1167835 
0.17706111392851351 1:8535 2:156.19192 3:70.764138 4:0.8914806 5:8729 6:104.24538 7:0.76416868 8:372 9:0.77504605 10:2.2072186 
0.17749450334197686 1:8109 2:152.37832 3:68.841423 4:0.89212955 5:8333 6:101.61053 7:0.75138992 8:363.863 9:0.76966435 10:2.2134684 
0.17760193345684833 1:9428 2:163.95801 3:73.924101 4:0.89258854 5:9713 6:109.56323 7:0.66413074 8:412.369 9:0.69671862 10:2.2179236 
0.17788427172582533 1:6536 2:129.14405 3:65.336137 4:0.8625823 5:6662 6:91.224414 7:0.62390225 8:315.825 9:0.82343419 10:1.9766097 
0.17752559477858426 1:7567 2:147.08751 3:65.954972 4:0.89382982 5:7734 6:98.156017 7:0.62516523 8:349.375 9:0.7790224 10:2.2301201 
0.17756327995396404 1:8372 2:143.80206 3:75.282276 4:0.85201757 5:8619 6:103.24515 7:0.74470735 8:359.439 9:0.81430798 10:1.9101715 
0.17711368010640602 1:8316 2:153.32126 3:70.033623 4:0.88958124 5:8532 6:102.89927 7:0.68784119 8:368.867 9:0.76804159 10:2.1892522 
0.14150783225817776 1:7964 2:150.81912 3:68.21581 4:0.89186477 5:8186 6:100.69796 7:0.79775619 8:359.586 9:0.77399039 10:2.2109115 
0.17753598820127187 1:8554 2:146.96409 3:75.1099 4:0.85953521 5:8684 6:104.36135 7:0.58911846 8:362.428 9:0.81834348 10:1.9566541 
0.17741965551107414 1:9304 2:156.35171 3:76.245373 4:0.87303758 5:9530 6:108.84035 7:0.60376379 8:390.231 9:0.76777865 10:2.0506387 
0.17753166679975002 1:8779 2:155.23383 3:72.975198 4:0.88261394 5:9053 6:105.72497 7:0.72195724 8:378.145 9:0.77150401 10:2.1272136 
0.17754475966307959 1:8379 2:157.48289 3:68.497918 4:0.90045236 5:8536 6:103.28831 7:0.76062091 8:376.532 9:0.74267409 10:2.2990902 
0.17754601880740212 1:7097 2:142.0338 3:64.418724 4:0.89123337 5:7207 6:95.058829 7:0.71904762 8:337.341 9:0.7836938 10:2.2048528 
0.17731311463452124 1:8498 2:152.00223 3:72.318411 4:0.87956862 5:8807 6:104.01918 7:0.65248772 8:370.902 9:0.77626185 10:2.1018469 
0.17752014377789799 1:6918 2:133.4087 3:66.842103 4:0.86542843 5:7026 6:93.85239 7:0.61707252 8:326.362 9:0.81618996 10:1.9958782 
0.17752859743415933 1:9483 2:164.53353 3:74.47793 4:0.89168263 5:9774 6:109.88235 7:0.57724617 8:394.605 9:0.76529777 10:2.2091582 
0.15928737016259092 1:8748 2:157.79073 3:71.677707 4:0.89087015 5:9043 6:105.53814 7:0.71441405 8:382.346 9:0.75197869 10:2.2013919 
0.17780367746350959 1:9171 2:165.31294 3:71.465631 4:0.90172739 5:9362 6:108.05961 7:0.54686941 8:390.573 9:0.75547852 10:2.313181 
0.17729357046824623 1:9635 2:164.7737 3:75.668567 4:0.88831885 5:9986 6:110.75948 7:0.60761809 8:427.447 9:0.66266958 10:2.1775713 
0.17564585249924219 1:9639 2:168.00053 3:73.846305 4:0.89821325 5:9905 6:110.78247 7:0.57891892 8:408.856 9:0.72460461 10:2.2750025 
0.17752909712443254 1:8065 2:152.10559 3:68.41134 4:0.89314836 5:8314 6:101.33448 7:0.63364236 8:363.508 9:0.76698397 10:2.2233973 
0.094660761398449894 1:8693 2:159.11546 3:70.198119 4:0.89741999 5:8927 6:105.20585 7:0.68009701 8:377.575 9:0.76625458 10:2.2666627 
0.17764282991131883 1:7210 2:139.55467 3:66.73477 4:0.87825203 5:7448 6:95.812615 7:0.70047605 8:343.733 9:0.76683632 10:2.0911838 
0.17752883732700203 1:7814 2:143.38564 3:70.430626 4:0.87104839 5:8012 6:99.745144 7:0.67246127 8:349.928 9:0.80191047 10:2.0358422 
0.16087873674736353 1:8161 2:152.15005 3:69.34816 4:0.8900884 5:8430 6:101.9358 7:0.58130921 8:365.868 9:0.76613339 10:2.1940028 
0.17702859618845557 1:8055 2:145.87132 3:71.266116 4:0.87253327 5:8306 6:101.27164 7:0.72216245 8:356.039 9:0.79850982 10:2.0468537 
0.17749488753374043 1:10193 2:171.53118 3:76.431003 4:0.89524172 5:10402 6:113.9216 7:0.66525258 8:406.72 9:0.77432063 10:2.2442618 
0.1382495552798137 1:7842 2:146.78901 3:68.754343 4:0.8835224 5:7997 6:99.923693 7:0.60253554 8:353.478 9:0.78870015 10:2.134978 
0.17714815860803934 1:7923 2:150.24597 3:67.963167 4:0.89184252 5:8206 6:100.43842 7:0.68172432 8:362.805 9:0.75640256 10:2.210697 
0.17721678254904827 1:7454 2:144.69714 3:66.470495 4:0.88824155 5:7672 6:97.420365 7:0.60675621 8:348.483 9:0.7713226 10:2.1768627 
0.17761726203481421 1:8307 2:156.87861 3:68.363233 4:0.90005731 5:8615 6:102.84357 7:0.67029775 8:376.641 9:0.73586625 10:2.2947804 
0.17400055068006154 1:8820 2:158.114 3:71.891488 4:0.89065418 5:9064 6:105.97157 7:0.79032258 8:379.89 9:0.76800266 10:2.1993425 
0.17745068556976179 1:8335 2:154.83344 3:69.310941 4:0.89420966 5:8591 6:103.01675 7:0.55752508 8:369.797 9:0.76592933 10:2.2338961 
0.17721498477387043 1:8973 2:162.47092 3:71.253371 4:0.89870154 5:9187 6:106.88676 7:0.67608499 8:383.595 9:0.76630499 10:2.2801857 
0.17724015156173978 1:6663 2:136.89116 3:62.939702 4:0.8880333 5:6839 6:92.106433 7:0.58447368 8:328.312 9:0.77679454 10:2.1749573 
0.17595057079521925 1:8520 2:157.46436 3:69.951054 4:0.89591069 5:8737 6:104.15374 7:0.56498674 8:375.405 9:0.75971264 10:2.2510648 
0.17718598390944745 1:6718 2:138.87601 3:62.451737 4:0.89318258 5:6913 6:92.4858 7:0.80978785 8:335.231 9:0.75121027 10:2.2237333 
0.17715532979948592 1:8138 2:148.94466 3:70.291612 4:0.88163545 5:8241 6:101.79206 7:0.57962963 8:357.69 9:0.79930762 10:2.1189535 
0.1523389986416982 1:8514 2:159.7 3:69.118798 4:0.90148805 5:8791 6:104.11706 7:0.60788234 8:380.676 9:0.7382994 10:2.3105148 
0.17760923689460217 1:7973 2:155.63057 3:66.358393 4:0.90454222 5:8102 6:100.75485 7:0.81125356 8:364.599 9:0.75370376 10:2.3453034 
0.17763688593060992 1:8632 2:151.92 3:73.3922 4:0.87556646 5:8813 6:104.83608 7:0.75719298 8:367.94 9:0.80124861 10:2.0699747 
0.16876760553771758 1:8106 2:154.58392 3:67.331478 4:0.90015687 5:8247 6:101.59173 7:0.56610098 8:363.952 9:0.76900337 10:2.2958641 
0.17382206393759797 1:7285 2:145.12211 3:64.508291 4:0.89577368 5:7424 6:96.309657 7:0.56060023 8:344.085 9:0.77322865 10:2.2496661 
0.17724007450567991 1:8854 2:160.83539 3:70.772702 4:0.89798214 5:9079 6:106.17562 7:0.55399825 8:379.846 9:0.77114184 10:2.2725624 
0.17754674922336738 1:8913 2:157.07544 3:73.474099 4:0.88385386 5:9220 6:106.52879 7:0.77768083 8:379.774 9:0.77657483 10:2.1378341 
0.17711187080134932 1:7224 2:146.97845 3:63.224179 4:0.9027529 5:7414 6:95.905591 7:0.64766003 8:348.258 9:0.74848896 10:2.324719 
0.17780896461781209 1:9536 2:165.28323 3:74.847561 4:0.89158964 5:9816 6:110.18898 7:0.61506708 8:396.928 9:0.76059354 10:2.2082648 
0.17569699237784717 1:8415 2:154.65202 3:70.54639 4:0.8898967 5:8641 6:103.50995 7:0.58396947 8:371.327 9:0.76692152 10:2.1922032 
0.1771051720011606 1:9166 2:152.28333 3:76.971449 4:0.86285651 5:9286 6:108.03015 7:0.6260929 8:370.93 9:0.83715485 10:1.9784392 
0.1774352891328087 1:6803 2:134.89502 3:65.073709 4:0.87594962 5:6954 6:93.069053 7:0.60054732 8:327.974 9:0.79475177 10:2.0729573 
0.12735049685118816 1:8263 2:156.24434 3:68.094685 4:0.900033 5:8430 6:102.57085 7:0.55971009 8:366.067 9:0.77486573 10:2.294516 
0.17751911420893202 1:9845 2:165.37888 3:76.772418 4:0.88571919 5:10124 6:111.96001 7:0.58000471 8:399.199 9:0.77633058 10:2.1541445 
0.17748238379041509 1:9287 2:167.41101 3:71.689233 4:0.90367313 5:9580 6:108.74086 7:0.68645133 8:396.902 9:0.7408303 10:2.3352323 
0.1756746058289318 1:6903 2:135.67855 3:65.623929 4:0.87524929 5:7066 6:93.750587 7:0.64202009 8:327.806 9:0.80726094 10:2.0675165 
0.17752234275693679 1:9088 2:165.81642 3:71.03039 4:0.90360454 5:9462 6:107.56952 7:0.73438384 8:395.041 9:0.73180242 10:2.3344434 
0.17716411789687114 1:8246 2:157.15436 3:68.307277 4:0.90059904 5:8496 6:102.46528 7:0.72409554 8:373.96 9:0.74097387 10:2.3006971 
0.16482685135887989 1:8941 2:159.66228 3:71.931746 4:0.89276413 5:9129 6:106.69599 7:0.63519466 8:378.783 9:0.78309599 10:2.2196358 
0.10933798078975908 1:9930 2:165.55489 3:76.80015 4:0.88588999 5:10138 6:112.44229 7:0.73883929 8:400.037 9:0.77975611 10:2.1556584 
0.17784330542532081 1:8750 2:156.79169 3:72.408833 4:0.88697601 5:9060 6:105.55021 7:0.77406228 8:377.144 9:0.77304275 10:2.1653669 
0.17766860230366111 1:9097 2:158.15588 3:74.266043 4:0.88289261 5:9364 6:107.62277 7:0.59504186 8:383.044 9:0.77913144 10:2.1295855 
0.1778956360375315 1:6621 2:139.77698 3:61.15796 4:0.89919916 5:6742 6:91.81568 7:0.80157385 8:329.707 9:0.76538001 10:2.2855076 
0.17750937757018104 1:6205 2:132.57599 3:60.683622 4:0.88909276 5:6328 6:88.884483 7:0.78484695 8:316.442 9:0.77868787 10:2.184708 
0.17751979864632028 1:8371 2:154.01427 3:69.488162 4:0.89243295 5:8486 6:103.23899 7:0.60201366 8:361.335 9:0.80568846 10:2.2164101 
0.16735834421511947 1:8630 2:156.16741 3:71.33794 4:0.88956722 5:8834 6:104.82393 7:0.57857334 8:372.544 9:0.7813858 10:2.1891213 
0.17753115054623753 1:9034 2:160.89415 3:72.149331 4:0.8938193 5:9187 6:107.24946 7:0.60018602 8:381.003 9:0.78204755 10:2.2300158 
0.17752317694356953 1:10068 2:167.20142 3:77.664405 4:0.88557518 5:10408 6:113.22092 7:0.61073703 8:405.63 9:0.76894085 10:2.1528707 
0.17792322523782539 1:9756 2:165.63384 3:76.046533 4:0.888372 5:10075 6:111.45279 7:0.62318748 8:398.855 9:0.77064005 10:2.1780591 
0.17717994806597093 1:8245 2:149.58492 3:70.822589 4:0.88081492 5:8452 6:102.45907 7:0.70200085 8:371.481 9:0.75080527 10:2.1121075 
0.17753734959354489 1:9711 2:160.11891 3:78.101052 4:0.8729727 5:10047 6:111.19545 7:0.61060111 8:396.792 9:0.77508263 10:2.0501505 
0.17519837607248184 1:8166 2:156.01405 3:67.394747 4:0.90188381 5:8388 6:101.96702 7:0.58462199 8:367.52 9:0.75972652 10:2.3149289 
0.17709772604517723 1:9313 2:168.01172 3:71.112263 4:0.90600931 5:9451 6:108.89297 7:0.61310072 8:391.048 9:0.76531342 10:2.3626265 
0.17752549696694131 1:8489 2:154.39445 3:70.690437 4:0.88902633 5:8641 6:103.96408 7:0.60385546 8:368.472 9:0.7857012 10:2.1840925 
0.17733752188105861 1:8354 2:154.93713 3:69.619695 4:0.89336003 5:8642 6:103.1341 7:0.58661611 8:371.863 9:0.75916888 10:2.2254784 
0.17751963410787691 1:9034 2:159.86967 3:73.391243 4:0.88840051 5:9357 6:107.24946 7:0.65606391 8:385.895 9:0.76234516 10:2.1783208 
0.17752822163899401 1:6785 2:120.1823 3:73.413783 4:0.79174361 5:6930 6:92.945846 7:0.70259915 8:316.036 9:0.85366328 10:1.6370536 
0.17752651874968001 1:7533 2:142.61891 3:67.609412 4:0.88049446 5:7623 6:97.935252 7:0.7746812 8:341.683 9:0.81083239 10:2.1094535 
0.17747783142792811 1:8806 2:159.50426 3:70.808446 4:0.89606233 5:8967 6:105.88743 7:0.68010504 8:376.433 9:0.78093191 10:2.2526162 
0.1604925599236548 1:9043 2:162.02797 3:72.274404 4:0.89500242 5:9329 6:107.30287 7:0.70659478 8:387.457 9:0.75696425 10:2.2418444 
0.17710324813516243 1:8711 2:150.31544 3:74.795056 4:0.86741389 5:9011 6:105.31472 7:0.59371592 8:370.135 9:0.79901985 10:2.0096975 
0.17752230752369322 1:10154 2:173.06128 3:75.472121 4:0.89989794 5:10408 6:113.70345 7:0.76128355 8:408.356 9:0.76518974 10:2.2930492 
0.17751754367828293 1:7474 2:140.07805 3:68.991126 4:0.87030159 5:7697 6:97.550973 7:0.67351536 8:341.319 9:0.80619858 10:2.0303778 
0.17751779787599145 1:7514 2:138.66394 3:69.861454 4:0.86380956 5:7803 6:97.811666 7:0.63959823 8:344.132 9:0.79731684 10:1.9848419 
0.17753358492194832 1:9950 2:167.54306 3:76.440763 4:0.88985397 5:10180 6:112.55547 7:0.56252827 8:400.316 9:0.78023791 10:2.1918026 
0.17751966643742162 1:9177 2:161.51206 3:73.945413 4:0.88903865 5:9562 6:108.09495 7:0.76551552 8:409.515 9:0.68765557 10:2.1842066 
0.17759473966736691 1:6483 2:144.33672 3:57.601789 4:0.91691644 5:6649 6:90.853794 7:0.5891494 8:329.717 9:0.74938191 10:2.505768 
0.17752215019686579 1:5581 2:105.06901 3:69.844349 4:0.7470682 5:5657 6:84.296796 7:0.60127128 8:283.747 9:0.87108258 10:1.5043308 
0.17780273679799768 1:8364 2:157.99044 3:68.13112 4:0.9022393 5:8705 6:103.19581 7:0.72403047 8:373.299 9:0.75424117 10:2.3189174 
0.17752318611668419 1:6320 2:129.89171 3:62.914776 4:0.87486695 5:6493 6:89.70437 7:0.60921535 8:320.016 9:0.77550313 10:2.064566 
0.17755789269090405 1:8261 2:153.09862 3:69.707283 4:0.89033315 5:8457 6:102.55843 7:0.62998551 8:364.972 9:0.77933358 10:2.1963074 
0.17748440377269309 1:8096 2:154.04401 3:67.947736 4:0.8974614 5:8298 6:101.52905 7:0.6786822 8:366.923 9:0.75566706 10:2.2670956 
0.17752205426822387 1:7707 2:138.43252 3:72.954625 4:0.8498622 5:7843 6:99.059867 7:0.81092172 8:344.558 9:0.81577529 10:1.8975153 
0.17754902268459863 1:9763 2:168.69773 3:74.186457 4:0.89811549 5:9985 6:111.49277 7:0.69611408 8:399.648 9:0.76813555 10:2.2739693 
0.17716202934056252 1:6911 2:143.41305 3:62.706603 4:0.89934256 5:7060 6:93.804896 7:0.60943563 8:339.235 9:0.75465673 10:2.2870486 
0.17752721050259537 1:7575 2:143.59404 3:68.354724 4:0.87943035 5:7826 6:98.207889 7:0.59004518 8:349.607 9:0.77881133 10:2.1007186 
0.17751197679739911 1:8633 2:154.25377 3:71.75262 4:0.88522685 5:8777 6:104.84215 7:0.7522656 8:368.229 9:0.80008408 10:2.1497999 
0.17710879341492788 1:8452 2:152.62163 3:71.262688 4:0.8842975 5:8629 6:103.73727 7:0.61567599 8:366.065 9:0.79259794 10:2.1416766 
0.17714762937495382 1:9646 2:165.4623 3:75.074964 4:0.89113996 5:9909 6:110.82269 7:0.79482531 8:395.264 9:0.77585864 10:2.2039611 
0.16957450887554168 1:8868 2:157.26427 3:72.441351 4:0.88758991 5:9107 6:106.25953 7:0.621923 8:376.27 9:0.78711169 10:2.1709185 
0.17505679469620453 1:8668 2:160.26433 3:69.397216 4:0.90138565 5:8874 6:105.05446 7:0.77172365 8:375.118 9:0.77409268 10:2.309377 
0.17749141839945326 1:8232 2:147.79707 3:71.967369 4:0.87343896 5:8494 6:102.37826 7:0.67725216 8:359.728 9:0.79940478 10:2.0536679 
0.17749762988008469 1:9250 2:163.95711 3:72.778151 4:0.89608361 5:9534 6:108.52403 7:0.64640112 8:390.75 9:0.76129613 10:2.2528342 
0.17752912162674939 1:7542 2:131.55384 3:74.125023 4:0.82614491 5:7697 6:97.993738 7:0.80714897 8:334.949 9:0.84477105 10:1.7747561 
0.17749855839694495 1:8360 2:153.66107 3:70.757101 4:0.88767261 5:8671 6:103.17113 7:0.59654631 8:387.335 9:0.70023313 10:2.17167 
0.17753114836530354 1:7143 2:140.97079 3:65.511966 4:0.88545761 5:7393 6:95.366399 7:0.57034494 8:343.324 9:0.76152153 10:2.1518327 
0.17753963804584538 1:7437 2:141.78523 3:68.220853 4:0.87663483 5:7768 6:97.309211 7:0.70909611 8:373.308 9:0.67061467 10:2.0783268 
0.17709235305363194 1:8903 2:160.0678 3:72.278144 4:0.8922473 5:9251 6:106.46902 7:0.72241155 8:386.903 9:0.74738098 10:2.2146086 
0.17376840299146434 1:8930 2:161.33311 3:71.898813 4:0.89520509 5:9194 6:106.63034 7:0.72483766 8:384.017 9:0.76095754 10:2.2438912 
0.17745224306007956 1:9244 2:165.17989 3:72.193994 4:0.89943097 5:9496 6:108.48883 7:0.56517486 8:392.185 9:0.75524497 10:2.2880005 
0.17712662165029325 1:8827 2:162.3275 3:70.156337 4:0.90178253 5:9083 6:106.01361 7:0.79458097 8:384.587 9:0.74995256 10:2.3137967 
0.17752720711297443 1:9072 2:159.75911 3:72.940056 4:0.88969122 5:9316 6:107.47478 7:0.59849584 8:392.803 9:0.73886197 10:2.1902795 
0.17729577281160633 1:9875 2:167.71813 3:75.901417 4:0.89173728 5:10137 6:112.13046 7:0.55838281 8:400.249 9:0.77461599 10:2.2096838 
0.17751940037080102 1:8120 2:150.22901 3:70.298453 4:0.88375922 5:8401 6:101.67942 7:0.58968773 8:362.998 9:0.77438589 10:2.1370173 
0.17705225995125923 1:9224 2:165.16212 3:71.968362 4:0.90007076 5:9493 6:108.37141 7:0.56658477 8:397.327 9:0.73423148 10:2.2949267 
0.12449595313552034 1:8262 2:156.03314 3:68.154263 4:0.89956179 5:8466 6:102.56464 7:0.75452055 8:366.682 9:0.77217524 10:2.2894113 
0.17703635166264639 1:8480 2:162.07642 3:67.578126 4:0.90892839 5:8696 6:103.90896 7:0.58281787 8:380.066 9:0.73771341 10:2.3983562 
0.17760886454244174 1:9040 2:166.53684 3:70.147135 4:0.90696271 5:9311 6:107.28507 7:0.5308903 8:394.139 9:0.73127289 10:2.3741075 
0.17752258229960091 1:9441 2:167.14226 3:72.755126 4:0.90029096 5:9775 6:109.63875 7:0.57891832 8:395.831 9:0.7571959 10:2.2973263 
0.1778957288790253 1:9884 2:167.09317 3:76.209574 4:0.8899335 5:10166 6:112.18155 7:0.60209552 8:400.17 9:0.77562812 10:2.1925482 
0.17751721781796748 1:7996 2:156.16331 3:65.872436 4:0.9066807 5:8160 6:100.90007 7:0.73129687 8:363.78 9:0.75928534 10:2.3706928 
0.17753863037218742 1:5892 2:129.66296 3:58.838275 4:0.89111446 5:6026 6:86.613668 7:0.58221344 8:308.522 9:0.77785801 10:2.2037178 
0.17752163417937594 1:8639 2:156.05155 3:71.877952 4:0.8876058 5:8923 6:104.87858 7:0.60378809 8:377.313 9:0.76255259 10:2.1710628 
0.17716742753430584 1:7696 2:141.83574 3:69.787159 4:0.87057936 5:7887 6:98.989149 7:0.74285714 8:345.454 9:0.81039074 10:2.0324046 
0.17759036155715446 1:9513 2:163.56197 3:74.496168 4:0.89025551 5:9703 6:110.05602 7:0.80941036 8:389.889 9:0.78640342 10:2.1955756 
0.17752082878421796 1:7235 2:146.18921 3:63.469829 4:0.90083471 5:7345 6:95.978582 7:0.57543943 8:341.083 9:0.78149868 10:2.3032866 
0.17784260155209713 1:7631 2:148.15486 3:66.28361 4:0.89433692 5:7853 6:98.570234 7:0.66617198 8:358.041 9:0.74804168 10:2.2351659 
0.1775204474327044 1:8444 2:159.43065 3:68.084265 4:0.90422977 5:8718 6:103.68816 7:0.68135238 8:377.427 9:0.74489002 10:2.3416666 
0.15451466379805601 1:8388 2:150.89839 3:71.361631 4:0.88110977 5:8552 6:103.34376 7:0.64912552 8:361.416 9:0.80696284 10:2.1145592 
