svm_type one_class
kernel_type rbf
gamma 0.10000000000000001
nr_class 2
total_sv 2816
rho 0.17985246341989655
SV
0.12407112264143109 1:6745 2:163.07726 3:53.856915 4:0.94389211 5:6917 6:92.671467 7:0.76171654 8:362.737 9:0.64418129 10:3.0279726 
0.17996820094986193 1:6505 2:144.29487 3:58.14618 4:0.91521418 5:6619 6:91.00782 7:0.77838937 8:330.607 9:0.74788199 10:2.4815882 
0.17987075986114565 1:6204 2:162.0415 3:49.439082 4:0.95231988 5:6359 6:88.877321 7:0.66042155 8:352.796 9:0.6263749 10:3.2775993 
0.17996558725280876 1:2805 2:77.047682 3:49.242678 4:0.76910743 5:2950 6:59.7615 7:0.60322581 8:209.823 9:0.80063864 10:1.5646526 
0.18002837898279839 1:6634 2:155.19678 3:55.687595 4:0.93340706 5:6843 6:91.905773 7:0.49544436 8:354.953 9:0.66167333 10:2.7869184 
0.17977440633077882 1:6433 2:155.58677 3:54.178219 4:0.93741333 5:6571 6:90.502762 7:0.68377976 8:346.942 9:0.67159841 10:2.8717586 
0.17981573198426837 1:6526 2:154.04834 3:55.55154 4:0.93271627 5:6756 6:91.154601 7:0.49816794 8:351.708 9:0.66296781 10:2.7730705 
0.17996595107405261 1:3379 2:99.014789 3:44.631551 4:0.89264699 5:3491 6:65.591741 7:0.65357834 8:237.593 9:0.75219557 10:2.2184931 
0.17452194353484962 1:5869 2:149.42495 3:50.798681 4:0.94043948 5:6004 6:86.44445 7:0.59936683 8:329.442 9:0.67954159 10:2.9415125 
0.11846304697859945 1:6297 2:155.38562 3:52.620996 4:0.94091322 5:6461 6:89.540993 7:0.52676928 8:348.589 9:0.65120271 10:2.9529206 
0.18001314159487503 1:6093 2:151.72668 3:52.121205 4:0.93914523 5:6233 6:88.07865 7:0.72717508 8:338.588 9:0.6678792 10:2.9110356 
0.18000940311462366 1:6084 2:149.18283 3:53.147087 4:0.93438888 5:6281 6:88.013575 7:0.79591837 8:338.117 9:0.66875194 10:2.8069803 
0.17537591335909328 1:5914 2:146.32635 3:52.171352 4:0.93427965 5:6052 6:86.775219 7:0.53308094 8:329.452 9:0.68471034 10:2.804726 
0.17996791420384323 1:4404 2:102.86347 3:55.967979 4:0.83902061 5:4535 6:74.882221 7:0.61354138 8:260.512 9:0.81545821 10:1.8378987 
0.17996713828574484 1:5990 2:154.83467 3:50.626862 4:0.94503345 5:6285 6:87.331008 7:0.45791606 8:360.5 9:0.57919679 10:3.0583502 
0.17988875102462129 1:6095 2:139.57538 3:57.064217 4:0.91260538 5:6250 6:88.093104 7:0.53747795 8:323.807 9:0.73048467 10:2.4459353 
0.1799669769912923 1:5922 2:161.03567 3:48.342781 4:0.95387653 5:6135 6:86.833891 7:0.59160839 8:353.318 9:0.59613791 10:3.3311214 
0.1798295535096508 1:6010 2:156.15254 3:49.816669 4:0.94774608 5:6134 6:87.476681 7:0.59252687 8:342.294 9:0.64459326 10:3.134544 
0.18003460848548902 1:6853 2:162.79229 3:54.673291 4:0.94191658 5:7109 6:93.410442 7:0.49093775 8:371.251 9:0.62482059 10:2.9775469 
0.17320632565114316 1:6253 2:160.889 3:50.52645 4:0.94940797 5:6400 6:89.227613 7:0.44206433 8:355.765 9:0.6208288 10:3.184253 
0.17410286531301045 1:6673 2:166.52552 3:52.288276 4:0.94942445 5:6911 6:92.175525 7:0.47643867 8:366.561 9:0.62407743 10:3.1847583 
0.17992206154891216 1:6107 2:156.34456 3:50.619625 4:0.94613593 5:6270 6:88.179782 7:0.45469436 8:351.752 9:0.62024694 10:3.0886155 
0.17996719324811705 1:6462 2:165.49227 3:50.579443 4:0.95215028 5:6584 6:90.706526 7:0.4457474 8:358.28 9:0.63260364 10:3.2719275 
0.17846483910368516 1:7180 2:164.96928 3:56.473754 4:0.93958018 5:7357 6:95.613074 7:0.77756119 8:372.033 9:0.65188559 10:2.9211672 
0.17999009587950165 1:4401 2:123.82823 3:45.983477 4:0.9284934 5:4526 6:74.856711 7:0.61192992 8:281.814 9:0.69636367 10:2.6928853 
0.17875935369278001 1:5400 2:141.10687 3:49.522871 4:0.93639045 5:5518 6:82.918596 7:0.5 8:320.647 9:0.66000809 10:2.8493274 
0.17998532907589623 1:6627 2:161.69414 3:53.39043 4:0.9439131 5:6824 6:91.857272 7:0.46024029 8:363.596 9:0.6299247 10:3.0285229 
0.17962154792339002 1:6325 2:144.68055 3:56.967625 4:0.91921858 5:6509 6:89.739847 7:0.79260652 8:343.799 9:0.67245182 10:2.5396978 
0.18000612928595533 1:5222 2:132.84176 3:50.905167 4:0.92366476 5:5332 6:81.540523 7:0.53263974 8:300.788 9:0.72531343 10:2.6095929 
0.17901376632981661 1:6329 2:158.40078 3:52.087312 4:0.94438829 5:6506 6:89.768219 7:0.77542269 8:349.984 9:0.64930475 10:3.0410626 
0.16720131034202645 1:5901 2:156.46738 3:48.553826 4:0.95063452 5:6048 6:86.679793 7:0.4519761 8:345.417 9:0.62150992 10:3.2225552 
0.17991609023908176 1:6285 2:154.23879 3:52.775974 4:0.93963786 5:6436 6:89.455634 7:0.62338822 8:340.028 9:0.68310236 10:2.922519 
0.17167914190890776 1:6265 2:147.4833 3:55.016301 4:0.92781763 5:6454 6:89.313189 7:0.50914262 8:342.754 9:0.67014052 10:2.68072 
0.17901947809358496 1:5703 2:148.97767 3:49.496188 4:0.94319524 5:5823 6:85.213175 7:0.59037267 8:331.651 9:0.6515543 10:3.0098817 
0.15848097269323755 1:6095 2:145.93989 3:54.29674 4:0.92821323 5:6278 6:88.093104 7:0.5187234 8:335.442 9:0.68068894 10:2.6878205 
0.17996832290684056 1:6080 2:153.29794 3:51.728403 4:0.9413481 5:6275 6:87.984637 7:0.51832907 8:342.501 9:0.65131301 10:2.9635157 
0.17979164339460707 1:4777 2:131.18024 3:47.407261 4:0.93241465 5:4913 6:77.988879 7:0.49146091 8:299.227 9:0.67044561 10:2.7670916 
0.18003464232013433 1:5353 2:151.1772 3:45.855051 4:0.95288879 5:5495 6:82.556958 7:0.59836799 8:331.923 9:0.61056571 10:3.2968495 
0.17629467569183291 1:6534 2:152.18988 3:55.508597 4:0.93111234 5:6677 6:91.210455 7:0.81369863 8:341.11 9:0.70566746 10:2.7417353 
0.17996775445622765 1:6890 2:173.49927 3:51.467643 4:0.95498791 5:7124 6:93.662268 7:0.487615 8:396.069 9:0.5519343 10:3.3710358 
0.15256979214642549 1:5265 2:141.69021 3:47.713285 4:0.94159635 5:5393 6:81.875553 7:0.71467354 8:316.689 9:0.65969362 10:2.9696175 
0.18001189199283685 1:5480 2:136.76093 3:51.713334 4:0.92575274 5:5600 6:83.53055 7:0.54365079 8:307.603 9:0.72779537 10:2.6445971 
0.17985615449763193 1:5835 2:149.12213 3:50.68503 4:0.94046542 5:5992 6:86.193693 7:0.46957991 8:334.037 9:0.65714556 10:2.9421336 
0.1799672337571476 1:4853 2:129.51199 3:48.648854 4:0.92676888 5:4945 6:78.606816 7:0.82421875 8:295.021 9:0.70067124 10:2.6621796 
0.17996681002155956 1:5124 2:146.12117 3:45.436306 4:0.95042643 5:5281 6:80.771774 7:0.69771242 8:323.545 9:0.61510548 10:3.2159562 
0.17577856926189073 1:5892 2:152.34346 3:50.5802 4:0.94327437 5:6068 6:86.613668 7:0.56453004 8:343.758 9:0.62656622 10:3.011919 
0.17997500940737238 1:7179 2:168.80984 3:55.163961 4:0.94509986 5:7391 6:95.606416 7:0.50717061 8:373.408 9:0.64700343 10:3.0601471 
0.17978290966586363 1:5814 2:156.97636 3:48.088979 4:0.95192044 5:6005 6:86.038449 7:0.46015038 8:344.497 9:0.61562182 10:3.2642897 
0.17850827005427072 1:5999 2:145.61581 3:53.128311 4:0.93106528 5:6131 6:87.39659 7:0.5387033 8:327.981 9:0.70079558 10:2.7408326 
0.17997851726475061 1:5508 2:147.77057 3:48.998662 4:0.94342497 5:5764 6:83.743677 7:0.54491492 8:328.607 9:0.64098841 10:3.0158083 
0.18003352019941971 1:6923 2:161.87536 3:55.907519 4:0.93846518 5:7140 6:93.8863 7:0.48043026 8:365.01 9:0.65297217 10:2.895413 
0.090203332736380287 1:6075 2:149.06146 3:53.107675 4:0.93437909 5:6236 6:87.948452 7:0.63479624 8:336.166 9:0.67553612 10:2.806778 
0.17930842905237704 1:6759 2:161.44524 3:54.298019 4:0.9417461 5:6929 6:92.767592 7:0.48017903 8:358.425 9:0.66114348 10:2.9733174 
0.17969805019427654 1:6330 2:164.00711 3:50.080455 4:0.95223846 5:6484 6:89.77531 7:0.69844422 8:361.389 9:0.6090651 10:3.2748725 
0.17973023483700512 1:4654 2:135.98543 3:43.890418 4:0.94648144 5:4813 6:76.978288 7:0.5060896 8:302.276 9:0.64007212 10:3.0982942 
0.17995320741966844 1:6334 2:152.29711 3:53.973572 4:0.93509522 5:6501 6:89.803671 7:0.53142042 8:341.742 9:0.68153978 10:2.8216978 
0.18001181028884095 1:6005 2:151.25878 3:51.318508 4:0.94068679 5:6142 6:87.440285 7:0.59150906 8:341.145 9:0.64840276 10:2.9474508 
0.18001950973472647 1:5933 2:148.08093 3:52.317788 4:0.93550805 5:6130 6:86.914499 7:0.5843593 8:337.101 9:0.65609108 10:2.8304126 
0.17978265520152742 1:6575 2:157.2682 3:54.063409 4:0.93905546 5:6696 6:91.496175 7:0.82642031 8:351.961 9:0.66698572 10:2.9089583 
0.17999056288722137 1:6540 2:151.12333 3:56.41298 4:0.9277143 5:6776 6:91.252324 7:0.60555556 8:350.482 9:0.6690463 10:2.6788751 
0.17997947659847408 1:4108 2:106.33016 3:50.514911 4:0.87994475 5:4244 6:72.321975 7:0.61644658 8:261.701 9:0.75375383 10:2.1049262 
0.17984363347819762 1:2990 2:77.417073 3:50.954344 4:0.75286089 5:3080 6:61.70078 7:0.58489828 8:216.93 9:0.79843914 10:1.519342 
0.17942270135288096 1:6910 2:160.84594 3:55.970139 4:0.93750434 5:7105 6:93.798109 7:0.49480845 8:358.011 9:0.67747796 10:2.8737813 
0.17225217349448996 1:5945 2:147.67444 3:51.870198 4:0.93628285 5:6091 6:87.002351 7:0.64866339 8:331.096 9:0.68148116 10:2.8469998 
0.15198748545990981 1:5753 2:146.06072 3:51.419209 4:0.93598498 5:5919 6:85.585905 7:0.66416532 8:330.426 9:0.66214913 10:2.8405868 
0.17998991481364371 1:7161 2:171.82488 3:54.405517 4:0.94854795 5:7360 6:95.486483 7:0.46081081 8:385.484 9:0.60557902 10:3.1582253 
0.16395997991264338 1:5709 2:148.87278 3:49.880156 4:0.94219955 5:5826 6:85.257988 7:0.78205479 8:329.061 9:0.66254759 10:2.9846092 
0.17998010674831838 1:5718 2:137.83503 3:54.027122 4:0.91997823 5:5874 6:85.325165 7:0.84937611 8:317.606 9:0.71232243 10:2.5512191 
0.15631204643683622 1:6354 2:160.64957 3:51.14601 4:0.94796652 5:6544 6:89.945339 7:0.50023618 8:359.456 9:0.61796745 10:3.140999 
0.17998491641088418 1:5219 2:136.6635 3:49.486608 4:0.93213711 5:5400 6:81.517097 7:0.63375835 8:315.449 9:0.65908109 10:2.761626 
0.1789115014632548 1:5433 2:140.14251 3:50.744557 4:0.93214215 5:5560 6:83.171572 7:0.50770956 8:316.486 9:0.68161723 10:2.761725 
0.17999502749608176 1:4506 2:111.70588 3:51.973549 4:0.88516808 5:4593 6:75.744422 7:0.77263374 8:263.959 9:0.81269596 10:2.1492833 
0.1796695194228487 1:6832 2:166.10434 3:53.46374 4:0.94678442 5:7038 6:93.267211 7:0.55617063 8:366.41 9:0.63947429 10:3.1068598 
0.18001832971510959 1:6152 2:159.57662 3:50.122575 4:0.94939082 5:6405 6:88.504066 7:0.45023419 8:356.246 9:0.60915273 10:3.1837276 
0.18002736449939399 1:6125 2:137.42441 3:57.431659 4:0.90848635 5:6288 6:88.309638 7:0.67724458 8:323.587 9:0.73507868 10:2.3928337 
0.18000173189025392 1:5487 2:139.82651 3:50.816286 4:0.93162392 5:5598 6:83.583882 7:0.62042062 8:312.745 9:0.70495935 10:2.7516082 
0.17999345065579253 1:6165 2:153.20003 3:52.296357 4:0.93993264 5:6321 6:88.597527 7:0.47883495 8:342.432 9:0.66068472 10:2.9294589 
0.1799970454904945 1:4098 2:104.33787 3:51.016985 4:0.87230653 5:4223 6:72.233895 7:0.6271809 8:252.837 9:0.80556495 10:2.0451595 
0.17996728060542205 1:6334 2:141.14349 3:58.361849 4:0.91050728 5:6511 6:89.803671 7:0.7120054 8:329.128 9:0.73478158 10:2.4184204 
0.17345222332748572 1:6244 2:155.43274 3:51.910955 4:0.94258123 5:6397 6:89.163377 7:0.4811219 8:342.365 9:0.66941284 10:2.9942184 
0.17999999536416633 1:5721 2:158.69254 3:46.996986 4:0.95514107 5:5924 6:85.347545 7:0.52606897 8:346.735 9:0.59797971 10:3.3766535 
0.18000318861930753 1:5899 2:155.72726 3:48.882754 4:0.94945612 5:5998 6:86.665103 7:0.47142971 8:342.042 9:0.63362074 10:3.1857302 
0.180016294220257 1:7057 2:159.10593 3:57.225431 4:0.93308006 5:7268 6:94.790566 7:0.49174274 8:364.827 9:0.66627887 10:2.7803361 
0.18000274954711754 1:7047 2:170.89234 3:53.075454 4:0.9505478 5:7218 6:94.723382 7:0.54375 8:376.02 9:0.62631418 10:3.2197999 
0.16729306877399025 1:6930 2:163.50253 3:55.051892 4:0.94161068 5:7113 6:93.933753 7:0.47596154 8:366.877 9:0.64699679 10:2.969971 
0.17972427697293802 1:6277 2:162.26984 3:50.626603 4:0.95008532 5:6456 6:89.398684 7:0.77407818 8:356.865 9:0.61937558 10:3.2052288 
0.17591223567487441 1:6532 2:163.15948 3:51.669174 4:0.94853278 5:6706 6:91.196495 7:0.4544 8:366.697 9:0.61043767 10:3.1577722 
0.18000306936366961 1:5116 2:155.37587 3:42.915908 4:0.96109816 5:5323 6:80.708695 7:0.50039124 8:334.454 9:0.57473495 10:3.6204725 
0.15298681391563407 1:5073 2:141.26605 3:46.770014 4:0.94360356 5:5206 6:80.368801 7:0.67103175 8:312.604 9:0.65235751 10:3.0204407 
0.17895829057951812 1:5837 2:154.22919 3:49.308647 4:0.94751537 5:6046 6:86.208464 7:0.49132997 8:344.024 9:0.61975791 10:3.1278326 
0.18003355100544521 1:6142 2:153.57642 3:51.723893 4:0.94157772 5:6248 6:88.432106 7:0.47293447 8:340.929 9:0.66403625 10:2.9691583 
0.18000360482088962 1:3659 2:119.03525 3:40.632531 4:0.93993672 5:3795 6:68.255282 7:0.48056212 8:272.653 9:0.6185171 10:2.9295553 
0.1699754641399065 1:6701 2:162.83385 3:53.74433 4:0.94396126 5:6880 6:92.368708 7:0.77602779 8:359.403 9:0.65190766 10:3.0297865 
0.15692297172088826 1:5742 2:153.18108 3:48.871578 4:0.94773974 5:5929 6:85.504044 7:0.68815916 8:338.059 9:0.63137597 10:3.1343592 
0.18002451938072339 1:5843 2:144.0954 3:53.103078 4:0.92961695 5:6036 6:86.25276 7:0.48289256 8:334.691 9:0.65547734 10:2.7135037 
0.17998910039809654 1:6793 2:169.80243 3:52.04425 4:0.95187103 5:6999 6:93.000625 7:0.51559772 8:369.562 9:0.62502424 10:3.2626549 
0.18001461206908745 1:6732 2:161.22702 3:55.302325 4:0.93933211 5:7032 6:92.582118 7:0.77557604 8:362.142 9:0.64505416 10:2.9153751 
0.17998101205095149 1:5415 2:141.39139 3:50.040488 4:0.93527772 5:5585 6:83.033681 7:0.70830608 8:317.301 9:0.67587354 10:2.8255398 
0.17965240100490687 1:6278 2:141.06518 3:57.733508 4:0.91241408 5:6426 6:89.405804 7:0.525092 8:333.722 9:0.70837219 10:2.4433849 
0.17998453912364967 1:5524 2:147.06334 3:48.59712 4:0.94382341 5:5725 6:83.865221 7:0.54834227 8:328.897 9:0.64171724 10:3.026174 
0.18001487630877161 1:7293 2:169.0542 3:56.169971 4:0.94318779 5:7577 6:96.362524 7:0.74115854 8:380.253 9:0.63382706 10:3.0096901 
0.16790507719025644 1:5673 2:140.86022 3:52.264312 4:0.9286182 5:5798 6:84.988752 7:0.67391304 8:320.295 9:0.69490003 10:2.6951511 
0.17959610729320147 1:6344 2:149.7382 3:55.051913 4:0.92996248 5:6545 6:89.874533 7:0.57359855 8:340.277 9:0.68850619 10:2.7199455 
0.18002819367037737 1:5834 2:137.02384 3:55.269448 4:0.91504295 5:6000 6:86.186307 7:0.53700295 8:314.336 9:0.7419729 10:2.4791969 
0.1799754447045363 1:5762 2:164.94216 3:45.407083 4:0.96136096 5:5925 6:85.652824 7:0.53189329 8:357.122 9:0.56774054 10:3.6325204 
0.17934629871728269 1:5119 2:131.86584 3:50.129993 4:0.92492113 5:5237 6:80.732356 7:0.51236112 8:300.436 9:0.71267422 10:2.630478 
0.18001558317270544 1:4793 2:142.5592 3:43.945666 4:0.95130131 5:4919 6:78.119377 7:0.54194934 8:311.745 9:0.61975252 10:3.2439878 
0.17543701027235586 1:6603 2:161.2974 3:52.897945 4:0.94469408 5:6772 6:91.690789 7:0.47380884 8:356.738 9:0.65200724 10:3.0492186 
0.17996694845695238 1:5572 2:134.12519 3:53.26446 4:0.91776455 5:5686 6:84.2288 7:0.76749311 8:308.6 9:0.73524 10:2.518099 
0.180002132293693 1:6240 2:162.38441 3:49.867012 4:0.95167972 5:6423 6:89.134812 7:0.74047704 8:355.889 9:0.61910644 10:3.2563493 
0.18002753185791937 1:7142 2:162.88009 3:56.50974 4:0.93788705 5:7405 6:95.359723 7:0.52599794 8:384.961 9:0.60561447 10:2.8823366 
0.18003323601724749 1:6243 2:154.59599 3:51.974322 4:0.94179258 5:6369 6:89.156236 7:0.49359583 8:343.695 9:0.66413562 10:2.9744687 
0.16951036522630622 1:5773 2:143.80324 3:51.87364 4:0.93267164 5:5903 6:85.734543 7:0.67120102 8:325.555 9:0.68448302 10:2.7721832 
0.17923743387321733 1:6821 2:164.23068 3:54.034542 4:0.94432431 5:7090 6:93.192097 7:0.4659153 8:378.065 9:0.59968746 10:3.0393648 
0.17918870288853439 1:6408 2:155.39072 3:53.670461 4:0.9384591 5:6581 6:90.326735 7:0.79023307 8:348.479 9:0.66310018 10:2.8952746 
0.17996665059598524 1:6063 2:156.22094 3:50.594837 4:0.94610256 5:6231 6:87.861547 7:0.75721244 8:350.142 9:0.62145404 10:3.0876855 
0.17701656149566494 1:6541 2:158.55083 3:53.577031 4:0.94117589 5:6724 6:91.2593 7:0.47553617 8:358.021 9:0.64126422 10:2.9593061 
0.1800058048435153 1:6790 2:173.13601 3:50.877629 4:0.95584868 5:6950 6:92.980087 7:0.42485296 8:373.877 9:0.6104107 10:3.4029889 
0.1542159683696363 1:6359 2:157.9604 3:52.215982 4:0.94378367 5:6565 6:89.980722 7:0.66600335 8:358.139 9:0.62301063 10:3.0251351 
0.17988555988481109 1:6043 2:143.79879 3:54.878365 4:0.92431393 5:6219 6:87.716513 7:0.80864445 8:332.758 9:0.68581258 10:2.6203184 
0.18001392627337928 1:6873 2:159.36468 3:56.145589 4:0.93588379 5:7015 6:93.546648 7:0.82598245 8:359.52 9:0.66820558 10:2.8384186 
0.17974995780284483 1:6142 2:155.148 3:51.393151 4:0.94354217 5:6271 6:88.432106 7:0.4912814 8:340.792 9:0.66457025 10:3.0188459 
0.18002743797384591 1:6159 2:157.92103 3:50.436193 4:0.94762806 5:6266 6:88.554403 7:0.85092567 8:347.503 9:0.64091871 10:3.1311053 
0.18003488436206644 1:4566 2:107.3323 3:56.111906 4:0.85246349 5:4735 6:76.247044 7:0.55379018 8:272.888 9:0.77050754 10:1.9128258 
0.17915177305283575 1:5846 2:153.07718 3:50.163195 4:0.94478228 5:6034 6:86.2749 7:0.6992823 8:344.006 9:0.62077846 10:3.0515836 
0.15666551123477068 1:6589 2:155.5158 3:54.985159 4:0.93540944 5:6731 6:91.593533 7:0.47735999 8:348.974 9:0.67989716 10:2.8283232 
0.16889280791191988 1:5982 2:152.24767 3:50.505626 4:0.94337321 5:6111 6:87.27267 7:0.54302832 8:336.34 9:0.6645065 10:3.0144696 
0.1800154771618665 1:7193 2:168.65885 3:54.969929 4:0.94539605 5:7399 6:95.699593 7:0.48017356 8:384.179 9:0.61242468 10:3.068202 
0.18003460361801776 1:4207 2:146.11414 3:37.836989 4:0.96588938 5:4442 6:73.188242 7:0.7004662 8:313.645 9:0.53740987 10:3.8616745 
0.17929216192237857 1:6250 2:156.48249 3:52.286453 4:0.94252482 5:6454 6:89.206206 7:0.63555013 8:347.611 9:0.64998429 10:2.9927921 
0.18003357529745045 1:7003 2:155.87898 3:58.24517 4:0.92756721 5:7283 6:94.427202 7:0.57790064 8:369.471 9:0.64466379 10:2.6762559 
0.17996695830261861 1:6638 2:154.49527 3:55.829869 4:0.93242272 5:6804 6:91.933476 7:0.80343742 8:349.331 9:0.68355405 10:2.7672512 
0.17996994465725757 1:5958 2:157.08779 3:48.885098 4:0.95034574 5:6148 6:87.097424 7:0.52447183 8:345.711 9:0.62644647 10:3.2134086 
0.18000903371716517 1:6134 2:144.85845 3:54.603272 4:0.92623676 5:6253 6:88.374495 7:0.52159864 8:329.363 9:0.71056533 10:2.6529262 
0.18002844197217974 1:6237 2:155.25806 3:53.353713 4:0.93909949 5:6657 6:89.113383 7:0.55827068 8:352.658 9:0.63019961 10:2.9099767 
0.17996894110207268 1:5410 2:149.6506 3:46.945865 4:0.94952111 5:5573 6:82.995337 7:0.73266522 8:333.46 9:0.61139184 10:3.187727 
0.16359561152837765 1:6397 2:157.37029 3:53.154023 4:0.94123082 5:6604 6:90.249174 7:0.51547139 8:354.469 9:0.63977858 10:2.9606468 
0.17986450802351672 1:6580 2:163.4259 3:52.231342 4:0.94755167 5:6765 6:91.530958 7:0.59343434 8:360.86 9:0.6349774 10:3.1288857 
0.17290076866681059 1:6612 2:152.99207 3:56.122301 4:0.93028742 5:6790 6:91.753255 7:0.50861538 8:349.352 9:0.68079482 10:2.7260476 
0.17999971950492535 1:6647 2:162.01769 3:53.19636 4:0.94456074 5:6847 6:91.995778 7:0.60301188 8:365.59 9:0.62495238 10:3.0456538 
0.17985682034069364 1:5403 2:137.95909 3:50.886525 4:0.92948803 5:5540 6:82.941626 7:0.55978036 8:313.589 9:0.69043562 10:2.7111124 
0.17963115391596068 1:5426 2:151.07393 3:46.470274 4:0.9515159 5:5548 6:83.117975 7:0.49255628 8:328.319 9:0.63255402 10:3.2509799 
0.17998254548117204 1:7051 2:166.969 3:54.773599 4:0.94466157 5:7226 6:94.750261 7:0.48005174 8:370.3 9:0.64617947 10:3.0483481 
0.17986894893370381 1:6832 2:158.37872 3:56.232759 4:0.93484637 5:6981 6:93.267211 7:0.55328798 8:354.006 9:0.68507241 10:2.8164849 
0.17936898429721521 1:5602 2:144.7493 3:50.151322 4:0.93806097 5:5798 6:84.455242 7:0.5320038 8:331.363 9:0.64112829 10:2.886251 
0.18002589405167366 1:4043 2:124.92908 3:42.248028 4:0.94108285 5:4226 6:71.747526 7:0.49455657 8:281.239 9:0.64233637 10:2.9570393 
0.17985857002954705 1:6891 2:159.25206 3:56.139411 4:0.93580457 5:7093 6:93.669065 7:0.62081081 8:363.276 9:0.65617352 10:2.8367247 
0.18000119693100947 1:6194 2:151.66996 3:53.02491 4:0.93689637 5:6410 6:88.805663 7:0.51080323 8:348.515 9:0.64082304 10:2.860353 
0.17416383883331224 1:5360 2:145.47442 3:47.600938 4:0.94495105 5:5484 6:82.610919 7:0.66966517 8:322.023 9:0.64953248 10:3.0561251 
0.17996997800742209 1:6720 2:152.07861 3:57.594395 4:0.92551349 5:6961 6:92.499566 7:0.48745104 8:359.048 9:0.65504949 10:2.6405106 
0.179965937741834 1:5866 2:155.32591 3:49.059262 4:0.94881005 5:6126 6:86.422353 7:0.70632149 8:343.773 9:0.62374689 10:3.1660874 
0.18003358827276561 1:6589 2:150.56578 3:57.223624 4:0.92496294 5:6858 6:91.593533 7:0.61833709 8:351.665 9:0.6695316 10:2.6311821 
0.17965224888478221 1:4645 2:131.08503 3:45.645144 4:0.93741648 5:4729 6:76.903821 7:0.47876726 8:293.423 9:0.677965 10:2.8718285 
0.17996716701555612 1:5312 2:143.16538 3:48.135969 4:0.94178121 5:5416 6:82.240188 7:0.50188964 8:316.328 9:0.66710264 10:2.9741871 
0.17996821613221189 1:6115 2:164.06793 3:47.922806 4:0.95639045 5:6236 6:88.237519 7:0.61088911 8:356.395 9:0.60498293 10:3.4235877 
0.17903344529382348 1:5389 2:137.42026 3:51.016548 4:0.92853505 5:5562 6:82.834099 7:0.64771635 8:311.81 9:0.69652702 10:2.6936408 
0.17949650211075618 1:6156 2:157.16064 3:50.972384 4:0.94594296 5:6424 6:88.532834 7:0.666378 8:347.38 9:0.64106026 10:3.0832507 
0.17991902491764283 1:6489 2:159.90747 3:52.265287 4:0.94507724 5:6651 6:90.895827 7:0.48563089 8:361.345 9:0.62451596 10:3.0595348 
0.17996525950618791 1:5307 2:137.81754 3:50.345892 4:0.93088658 5:5485 6:82.201474 7:0.49691011 8:316.677 9:0.66500653 10:2.7374137 
0.17997889749457602 1:5817 2:149.30155 3:50.174002 4:0.94184124 5:5946 6:86.060644 7:0.77684295 8:328.44 9:0.67763658 10:2.9756756 
0.17708518053129946 1:5912 2:141.93127 3:53.887968 4:0.92511931 5:6027 6:86.760545 7:0.51655745 8:324.882 9:0.70387087 10:2.6338211 
0.17996866904061962 1:6512 2:154.71872 3:54.91929 4:0.93488068 5:6781 6:91.056773 7:0.50200432 8:355.272 9:0.64833922 10:2.8172018 
0.16613970101299824 1:6600 2:165.75446 3:51.44165 4:0.95062285 5:6778 6:91.669957 7:0.81987578 8:362.869 9:0.62987455 10:3.2221839 
0.18003315336574693 1:4623 2:106.85615 3:56.293844 4:0.84997753 5:4720 6:76.721486 7:0.78917719 8:264.644 9:0.82948713 10:1.8981854 
0.1791824451637965 1:6607 2:165.22422 3:51.775724 4:0.94963229 5:6746 6:91.718557 7:0.46202797 8:366.77 9:0.61720091 10:3.1911523 
0.17983652100870848 1:6059 2:154.13632 3:50.863645 4:0.94398397 5:6256 6:87.832559 7:0.45873713 8:345.301 9:0.63857975 10:3.0303828 
0.17992242803764466 1:6410 2:151.0557 3:54.891405 4:0.93163899 5:6522 6:90.34083 7:0.79135802 8:341.458 9:0.69086519 10:2.7519008 
0.17996548449885214 1:5390 2:142.15147 3:49.229937 4:0.93811634 5:5571 6:82.841784 7:0.51299134 8:322.646 9:0.65064794 10:2.8875006 
0.16625111110836058 1:6751 2:160.48085 3:54.61594 4:0.94030721 5:6921 6:92.712675 7:0.81652153 8:355.939 9:0.66961754 10:2.9383519 
0.17996552193521392 1:4552 2:128.79559 3:46.354799 4:0.9329871 5:4732 6:76.130062 7:0.63762432 8:290.134 9:0.67953975 10:2.7784738 
0.1799393968037471 1:6350 2:165.65445 3:49.748893 4:0.95383937 5:6575 6:89.917023 7:0.53904924 8:363.987 9:0.60229859 10:3.3298118 
0.15070421622297092 1:6028 2:146.98319 3:53.04952 4:0.93259587 5:6184 6:87.607579 7:0.49735974 8:331.712 9:0.68843151 10:2.770679 
0.17910881527323147 1:6289 2:162.81129 3:49.967477 4:0.95174039 5:6451 6:89.484096 7:0.7752712 8:353.524 9:0.63234437 10:3.2583452 
0.17769751094133271 1:5455 2:137.46407 3:51.466371 4:0.92726782 5:5584 6:83.339797 7:0.75858712 8:314.746 9:0.69196508 10:2.6709494 
0.18001727374048468 1:3764 2:96.235479 3:51.91358 4:0.84202196 5:3864 6:69.227694 7:0.55762963 8:245.108 9:0.78730771 10:1.8537631 
0.1800013835627812 1:3744 2:100.41675 3:48.126229 4:0.87767028 5:3846 6:69.043529 7:0.72 8:242.167 9:0.80226118 10:2.0865286 
0.17983445284119612 1:6372 2:150.26992 3:54.863616 4:0.93096813 5:6557 6:90.072651 7:0.66044776 8:341.525 9:0.68650014 10:2.7389721 
0.15147772315047869 1:6608 2:156.2258 3:54.894819 4:0.93623245 5:6804 6:91.725498 7:0.62046948 8:352.376 9:0.66875533 10:2.8459115 
0.17976458584479232 1:4425 2:115.51832 3:49.0625 4:0.90532656 5:4514 6:75.060542 7:0.60950413 8:270.072 9:0.76236688 10:2.3545136 
0.17983327569961013 1:5943 2:145.71594 3:52.806006 4:0.93202653 5:6058 6:86.987715 7:0.51949301 8:326.955 9:0.69861777 10:2.7594577 
0.17970448867616662 1:5626 2:138.96989 3:53.24464 4:0.92369114 5:5888 6:84.63596 7:0.52955572 8:337.416 9:0.62098091 10:2.610026 
0.17994700575133279 1:5577 2:148.14621 3:48.571367 4:0.94472597 5:5709 6:84.266583 7:0.74479167 8:325.348 9:0.66208573 10:3.0500728 
0.18001907387320609 1:6200 2:152.49397 3:52.45787 4:0.93896978 5:6342 6:88.848664 7:0.7654321 8:340.424 9:0.67229706 10:2.9069797 
0.17818671202959807 1:5082 2:138.39075 3:47.935812 4:0.93809423 5:5220 6:80.440061 7:0.55059588 8:312.621 9:0.65344378 10:2.8870013 
0.17970133967044849 1:4173 2:105.91278 3:51.190046 4:0.8754423 5:4293 6:72.891897 7:0.73584906 8:257.666 9:0.7898489 10:2.0690113 
0.17996040278849973 1:5259 2:135.22175 3:50.441633 4:0.92781969 5:5405 6:81.828887 7:0.51518417 8:308.316 9:0.69521784 10:2.6807568 
0.17262747350040364 1:5340 2:143.99208 3:47.762715 4:0.9433836 5:5473 6:82.45665 7:0.74633124 8:317.615 9:0.66519521 10:3.0147382 
0.17951905892384487 1:5402 2:149.23585 3:46.854171 4:0.94943602 5:5538 6:82.93395 7:0.5158518 8:326.209 9:0.63792932 10:3.1851134 
0.17997864390638582 1:6775 2:153.85495 3:57.340154 4:0.92795603 5:6981 6:92.877327 7:0.58005137 8:353.633 9:0.68079067 10:2.6831973 
0.1799892707666858 1:4706 2:135.6315 3:44.574868 4:0.94445287 5:4820 6:77.40714 7:0.49851695 8:298.902 9:0.66191793 10:3.0427795 
0.17997571161416637 1:4876 2:137.09096 3:46.15715 4:0.94161556 5:4994 6:78.792868 7:0.46979478 8:307.026 9:0.65001481 10:2.9700915 
0.17995421951366358 1:5530 2:146.23982 3:48.943194 4:0.94233269 5:5698 6:83.910754 7:0.76275862 8:326.845 9:0.650506 10:2.98795 
0.17919834761880438 1:6814 2:165.66966 3:53.325927 4:0.94678011 5:6932 6:93.144266 7:0.45627427 8:364.367 9:0.64496169 10:3.1067375 
0.17745472543463114 1:6467 2:159.42747 3:52.432054 4:0.94437271 5:6649 6:90.741612 7:0.51981352 8:353.609 9:0.64992928 10:3.040649 
0.17978221171209088 1:6259 2:153.19806 3:52.917818 4:0.93844786 5:6389 6:89.270411 7:0.48220339 8:343.938 9:0.66489718 10:2.8950185 
0.18003539026529647 1:5138 2:131.84042 3:50.269154 4:0.92445636 5:5262 6:80.882042 7:0.68143236 8:301.58 9:0.7099028 10:2.6226902 
0.17998852005312765 1:6346 2:156.45749 3:52.511327 4:0.94199504 5:6454 6:89.888699 7:0.82954248 8:342.524 9:0.67971666 10:2.9794998 
0.17943635643424627 1:5295 2:133.5408 3:51.712979 4:0.92197693 5:5397 6:82.108485 7:0.77730476 8:306.822 9:0.70681024 10:2.5823458 
0.17995719489137346 1:6917 2:162.97747 3:55.327336 4:0.94061384 5:7079 6:93.845607 7:0.55190298 8:363.888 9:0.65643567 10:2.9456953 
0.10035682145722589 1:6119 2:159.63087 3:50.095723 4:0.94948174 5:6250 6:88.266374 7:0.44100901 8:350.019 9:0.62763489 10:3.1865168 
0.17954985704870638 1:6510 2:150.56583 3:56.133769 4:0.92790418 5:6736 6:91.042789 7:0.74053009 8:348.331 9:0.67422771 10:2.6822684 
0.17924752029267371 1:4453 2:127.84841 3:44.979206 4:0.93606891 5:4603 6:75.297647 7:0.48576415 8:296.431 9:0.63681799 10:2.8423892 
0.17989447872668882 1:6781 2:158.76789 3:55.397708 4:0.93715154 5:7002 6:92.918445 7:0.58699792 8:359.926 9:0.65777471 10:2.8659649 
0.1792715446999138 1:6527 2:148.96087 3:56.599867 4:0.925001 5:6643 6:91.161585 7:0.49193548 8:341.332 9:0.70399482 10:2.6318237 
0.18001708343774825 1:5698 2:145.97668 3:50.606953 4:0.93798408 5:5849 6:85.175812 7:0.71944444 8:331.311 9:0.65231986 10:2.8845183 
0.17795296340461739 1:6166 2:155.922 3:51.495815 4:0.94388772 5:6337 6:88.604712 7:0.48029288 8:348.476 9:0.63806899 10:3.0278577 
0.17955730365988126 1:6743 2:155.92297 3:55.870054 4:0.93359949 5:6877 6:92.657726 7:0.50126375 8:351.729 9:0.68493076 10:2.7908148 
0.17974693585857404 1:5187 2:149.10658 3:44.724823 4:0.95395428 5:5311 6:81.266805 7:0.62194245 8:322.61 9:0.62628277 10:3.3338663 
0.17578294310761813 1:5995 2:153.30854 3:50.381414 4:0.94445959 5:6127 6:87.367449 7:0.51592083 8:338.318 9:0.65818631 10:3.0429582 
0.17999506417575284 1:6725 2:150.37442 3:57.982704 4:0.92267069 5:6913 6:92.533972 7:0.55781354 8:361.351 9:0.64720763 10:2.5934357 
0.17160962574217037 1:5352 2:136.11094 3:51.190839 4:0.92658053 5:5516 6:82.549246 7:0.59665552 8:311.455 9:0.6933226 10:2.6588926 
0.17928661794027492 1:4077 2:130.72776 3:40.643669 4:0.9504416 5:4240 6:72.048578 7:0.57911932 8:293.947 9:0.59294241 10:3.2164359 
0.16610795488122543 1:5902 2:156.45879 3:48.645401 4:0.95043769 5:6044 6:86.687137 7:0.47291667 8:342.413 9:0.63256998 10:3.216312 
0.17807951060801236 1:6798 2:162.71156 3:54.021362 4:0.94327695 5:6982 6:93.034845 7:0.5138322 8:363.104 9:0.6479313 10:3.0119854 
0.17928363001913028 1:6884 2:150.57051 3:59.054832 4:0.91987692 5:7002 6:93.621477 7:0.80195713 8:344.973 9:0.72690978 10:2.549673 
0.17996418984309892 1:6774 2:160.45384 3:54.910709 4:0.93961941 5:6979 6:92.870473 7:0.64810563 8:361.638 9:0.65088901 10:2.9220865 
0.17931408644460403 1:4720 2:153.47072 3:40.162261 4:0.96515108 5:4825 6:77.522195 7:0.75933076 8:324.868 9:0.56200217 10:3.821267 
0.1784843272335615 1:5702 2:143.25221 3:51.738957 4:0.93249849 5:5889 6:85.205703 7:0.68541892 8:327.043 9:0.66992681 10:2.7687495 
0.17934237755653798 1:4621 2:107.51586 3:56.390835 4:0.85141751 5:4798 6:76.704889 7:0.65826211 8:277.531 9:0.75391578 10:1.9066194 
0.17935133697926162 1:5825 2:159.6162 3:47.032544 4:0.95560209 5:5931 6:86.119802 7:0.79641783 8:347.933 9:0.60466461 10:3.3937394 
0.15026235343326835 1:5602 2:140.98571 3:51.66186 4:0.93044432 5:5748 6:84.455242 7:0.48857492 8:320.665 9:0.68462042 10:2.7290095 
0.17999383299590982 1:5221 2:133.08863 3:51.168662 4:0.92313725 5:5341 6:81.532715 7:0.49069549 8:304.911 9:0.70569554 10:2.6009793 
0.18001112894244842 1:6641 2:157.99424 3:55.39679 4:0.9365158 5:6962 6:91.954249 7:0.49936085 8:370.787 9:0.6070079 10:2.8520469 
0.18003426550470275 1:6375 2:165.5049 3:49.797832 4:0.95366064 5:6506 6:90.093852 7:0.58304372 8:360.894 9:0.61507876 10:3.3235363 
0.17998858741033086 1:7096 2:157.65396 3:58.721809 4:0.92804312 5:7297 6:95.052132 7:0.50166136 8:363.379 9:0.67531099 10:2.6847599 
0.18003350188908868 1:6938 2:164.22989 3:54.194127 4:0.94398463 5:7133 6:93.987956 7:0.64045048 8:370.569 9:0.63490097 10:3.0304001 
0.18000277761680594 1:5746 2:141.99186 3:52.086861 4:0.93028803 5:5892 6:85.53382 7:0.60085747 8:321.942 9:0.69665893 10:2.726059 
0.17464973611888038 1:5830 2:154.74785 3:48.49875 4:0.94961956 5:5948 6:86.156756 7:0.80972222 8:334.618 9:0.65430437 10:3.1907595 
0.17959231321408592 1:5662 2:160.38272 3:45.807481 4:0.95834487 5:5792 6:84.906315 7:0.52050009 8:343.899 9:0.60161396 10:3.5012341 
0.17922451997708327 1:6344 2:156.13311 3:52.560349 4:0.94163411 5:6501 6:89.874533 7:0.55707763 8:348.018 9:0.6582178 10:2.9705493 
0.1799649015642372 1:6137 2:140.55232 3:56.883591 4:0.91444301 5:6291 6:88.396103 7:0.78841213 8:331.509 9:0.70173856 10:2.4708764 
0.17934274807552014 1:6467 2:159.9104 3:52.258271 4:0.94509448 5:6629 6:90.741612 7:0.46153297 8:359.386 9:0.62920246 10:3.0600016 
0.17938945952498975 1:5892 2:144.83719 3:52.767543 4:0.93127259 5:6104 6:86.613668 7:0.49608487 8:322.055 9:0.71385912 10:2.7448159 
0.17997424321500716 1:6137 2:154.86239 3:51.565673 4:0.94293481 5:6322 6:88.396103 7:0.47751323 8:345.788 9:0.64497986 10:3.0032069 
0.17937258864888478 1:5651 2:158.19109 3:46.315032 4:0.95618013 5:5859 6:84.823798 7:0.72916129 8:346.362 9:0.59193592 10:3.4155453 
0.18002322944033544 1:5844 2:135.81565 3:55.44461 4:0.91287718 5:5971 6:86.260141 7:0.65150502 8:317.21 9:0.72983776 10:2.4495736 
0.17988332490508785 1:6901 2:161.67179 3:55.67908 4:0.93882456 5:7119 6:93.737005 7:0.60952129 8:364.251 9:0.65361256 10:2.9036362 
0.17937253159301514 1:4213 2:120.81022 3:45.171519 4:0.9274671 5:4322 6:73.240414 7:0.55216252 8:274.819 9:0.70098353 10:2.6744778 
0.17924439329368302 1:5715 2:140.47826 3:52.82059 4:0.92661746 5:5837 6:85.302778 7:0.5088141 8:316.28 9:0.71793089 10:2.659536 
0.17996490385517577 1:4721 2:140.69055 3:43.930481 4:0.9500003 5:4877 6:77.530406 7:0.4944491 8:306.361 9:0.63208707 10:3.2025724 
0.17994689669994995 1:6478 2:150.17632 3:55.702015 4:0.92866851 5:6661 6:90.818752 7:0.52606789 8:343.388 9:0.69036788 10:2.6960662 
0.15618759876956767 1:6123 2:148.00141 3:53.80582 4:0.93157493 5:6270 6:88.295219 7:0.48984 8:338.344 9:0.67213601 10:2.750658 
0.18000635769541132 1:6417 2:143.82884 3:57.365286 4:0.91701874 5:6590 6:90.390144 7:0.56418147 8:336.391 9:0.71261206 10:2.5072452 
0.18000925591200451 1:5411 2:140.99564 3:49.796196 4:0.93555711 5:5538 6:83.003007 7:0.49012681 8:319.845 9:0.66467335 10:2.831454 
0.17948279481686533 1:6648 2:152.04777 3:56.790102 4:0.92762949 5:6853 6:92.002698 7:0.52989 8:342.131 9:0.71370053 10:2.6773638 
0.17997018904960932 1:5829 2:144.49329 3:52.858549 4:0.93068558 5:6011 6:86.149366 7:0.64139525 8:329.682 9:0.67392792 10:2.7335841 
0.17948804717719885 1:6097 2:145.07772 3:54.432472 4:0.92694581 5:6263 6:88.107556 7:0.67088468 8:334.33 9:0.68544934 10:2.665279 
0.17959845721578077 1:5673 2:151.63359 3:48.284609 4:0.94794654 5:5778 6:84.988752 7:0.80468085 8:332.386 9:0.64526365 10:3.1404125 
0.17969748564511873 1:6188 2:155.91518 3:51.17295 4:0.94460472 5:6305 6:88.76264 7:0.70655401 8:343.228 9:0.66007723 10:3.046828 
0.17917136044350984 1:5711 2:148.11336 3:50.111236 4:0.94102743 5:5862 6:85.272921 7:0.66983345 8:332.998 9:0.6472004 10:2.9556917 
0.17967622399522093 1:6383 2:156.02077 3:53.112948 4:0.94027266 5:6571 6:90.150363 7:0.49746707 8:359.548 9:0.62047024 10:2.937528 
0.17938689553824033 1:4148 2:106.96939 3:50.40675 4:0.88201255 5:4232 6:72.673225 7:0.81333333 8:255.109 9:0.80093459 10:2.1221244 
0.17880636882428338 1:6013 2:151.80696 3:51.322099 4:0.94111926 5:6123 6:87.498511 7:0.47123824 8:334.561 9:0.67507254 10:2.9579258 
0.1598542760386486 1:5777 2:147.68464 3:51.078564 4:0.93828524 5:5936 6:85.76424 7:0.7705749 8:329.491 9:0.66869045 10:2.8913232 
0.17575029704193679 1:5743 2:146.28049 3:50.545665 4:0.93840426 5:5888 6:85.511489 7:0.60363675 8:328.4 9:0.66917912 10:2.8940264 
0.17939294506355882 1:3477 2:128.29943 3:34.815555 4:0.96247744 5:3585 6:66.53611 7:0.61813333 8:277.298 9:0.56822597 10:3.6851182 
0.17944212659088199 1:4417 2:113.71994 3:51.082604 4:0.89343297 5:4601 6:74.99266 7:0.52885536 8:281.478 9:0.70056486 10:2.226197 
0.17997844108587024 1:5965 2:148.88446 3:52.355069 4:0.93613193 5:6163 6:87.148574 7:0.80067114 8:339.201 9:0.65148747 10:2.8437448 
0.17817774003915676 1:5403 2:145.3793 3:47.983381 4:0.94396118 5:5542 6:82.941626 7:0.59295435 8:321.04 9:0.65875896 10:3.0297843 
0.18003472111461263 1:5320 2:135.86999 3:50.536288 4:0.9282544 5:5437 6:82.302092 7:0.63942308 8:308.188 9:0.7038661 10:2.6885628 
0.17658711044976638 1:5933 2:155.63868 3:49.180477 4:0.94876207 5:6069 6:86.914499 7:0.83598704 8:343.153 9:0.63315292 10:3.1646437 
0.17936997484395761 1:6291 2:152.69792 3:54.126035 4:0.93506937 5:6524 6:89.498324 7:0.67018217 8:347.545 9:0.6544967 10:2.8211547 
0.17944549079650968 1:6356 2:164.57918 3:50.277982 4:0.95219394 5:6490 6:89.959494 7:0.43943584 8:358.006 9:0.62317948 10:3.2733847 
0.18000168942222569 1:6682 2:158.01182 3:54.832361 4:0.93785984 5:6837 6:92.237664 7:0.69778613 8:352.292 9:0.67656694 10:2.8817256 
0.17954884689458647 1:6890 2:168.91793 3:52.506507 4:0.95046214 5:7027 6:93.662268 7:0.43751587 8:370.998 9:0.62905113 10:3.2170856 
0.17997571247190136 1:6429 2:150.98252 3:55.202695 4:0.930763 5:6643 6:90.474621 7:0.58798244 8:345.867 9:0.67535954 10:2.735057 
0.17923468792756742 1:5452 2:157.30246 3:44.607917 4:0.95894842 5:5589 6:83.316877 7:0.50877193 8:338.954 9:0.5963266 10:3.5263349 
0.17961919203252574 1:6098 2:143.42484 3:55.541083 4:0.9219753 5:6349 6:88.114782 7:0.67575355 8:332.998 9:0.69105726 10:2.5823199 
0.17996984360335627 1:4775 2:131.26703 3:46.84658 4:0.93415023 5:4928 6:77.972552 7:0.52106067 8:297.066 9:0.67995057 10:2.8020622 
0.17711569141452416 1:5686 2:146.01984 3:50.120251 4:0.93924673 5:5831 6:85.086074 7:0.50663815 8:329.205 9:0.65930121 10:2.9133901 
0.18000139737442064 1:5785 2:138.58772 3:54.214164 4:0.92030983 5:5946 6:85.823603 7:0.52117117 8:316.959 9:0.72361415 10:2.5563009 
0.17996576160976147 1:5920 2:149.99714 3:51.324343 4:0.9396385 5:6110 6:86.819227 7:0.49668596 8:340.188 9:0.64282623 10:2.9225341 
0.17946525950549935 1:4996 2:134.77557 3:48.676841 4:0.93250014 5:5183 6:79.756534 7:0.67788331 8:307.782 9:0.66274408 10:2.7687822 
0.17996750953077378 1:5995 2:153.30279 3:51.11558 4:0.94277525 5:6222 6:87.367449 7:0.47398798 8:349.484 9:0.61680013 10:2.9991403 
0.17967710317115818 1:4648 2:132.10497 3:45.913165 4:0.93766122 5:4815 6:76.928651 7:0.50335716 8:299.779 9:0.64994046 10:2.8772787 
0.17862656632460722 1:6280 2:157.78922 3:51.399337 4:0.94545704 5:6403 6:89.420044 7:0.46041056 8:348.908 9:0.64825765 10:3.0698689 
0.13543068661734989 1:6885 2:164.28624 3:54.11127 4:0.94420027 5:7041 6:93.628277 7:0.50513573 8:364.344 9:0.65176429 10:3.0360817 
0.1800169799023526 1:5695 2:137.90763 3:53.450433 4:0.92183548 5:5811 6:85.153386 7:0.51824552 8:316.826 9:0.71295475 10:2.5801032 
0.17972006370460109 1:6225 2:152.93025 3:52.68141 4:0.93879366 5:6397 6:89.027615 7:0.60144928 8:344.949 9:0.65741474 10:2.9029263 
0.17909502034880809 1:6322 2:163.77319 3:50.278462 4:0.95170933 5:6478 6:89.718562 7:0.47533835 8:356.365 9:0.62556763 10:3.2573229 
0.17996214489317558 1:5824 2:160.32199 3:46.961691 4:0.95613662 5:5992 6:86.11241 7:0.4325609 8:350.504 9:0.59572424 10:3.4138888 
0.17998330026347942 1:5699 2:145.88196 3:50.336757 4:0.93858384 5:5820 6:85.183286 7:0.65793119 8:324.554 9:0.67988364 10:2.89812 
0.18000780586186754 1:5908 2:153.12529 3:49.646737 4:0.94598069 5:6039 6:86.731189 7:0.53655435 8:337.606 9:0.65137343 10:3.0842972 
0.13550471227068134 1:6435 2:157.70953 3:52.556698 4:0.9428385 5:6586 6:90.51683 7:0.46228448 8:353.987 9:0.64533287 10:3.0007503 
0.17946489127178694 1:3602 2:107.78057 3:44.123138 4:0.91236428 5:3737 6:67.721554 7:0.55509323 8:255.912 9:0.69114993 10:2.4427223 
0.17997148633995669 1:5426 2:143.30799 3:49.547158 4:0.93833073 5:5594 6:83.117975 7:0.55131071 8:320.701 9:0.66296259 10:2.8923555 
0.17931137215502357 1:4914 2:134.63666 3:47.129741 4:0.93673053 5:5044 6:79.099299 7:0.66315789 8:303.366 9:0.67098252 10:2.856724 
0.17949869162842036 1:6995 2:163.06236 3:55.50963 4:0.94027361 5:7248 6:94.373252 7:0.47152005 8:380.442 9:0.60732432 10:2.9375508 
0.17579924600811336 1:6838 2:161.86213 3:54.295271 4:0.94206105 5:7005 6:93.308156 7:0.48127815 8:359.585 9:0.66456249 10:2.9811459 
0.17434770013410034 1:6612 2:152.50174 3:55.917115 4:0.93035288 5:6802 6:91.753255 7:0.58122363 8:352.476 9:0.66878051 10:2.727282 
0.17594956678954976 1:6600 2:159.551 3:53.441461 4:0.94223623 5:6767 6:91.669957 7:0.49158349 8:357.232 9:0.64990981 10:2.9855285 
0.1161211849052762 1:6064 2:145.67464 3:54.090109 4:0.9285099 5:6204 6:87.868792 7:0.82570806 8:335.107 9:0.67858156 10:2.6931845 
0.17748092465527146 1:6757 2:167.90502 3:51.925716 4:0.95097867 5:6955 6:92.753866 7:0.5101933 8:371.53 9:0.61514289 10:3.233562 
0.17402426592965517 1:6630 2:161.19249 3:53.242835 4:0.94387393 5:6795 6:91.878061 7:0.52320076 8:354.213 9:0.66404024 10:3.0274963 
0.18002676897426478 1:5284 2:137.22088 3:49.596616 4:0.93239678 5:5404 6:82.023154 7:0.59827899 8:310.132 9:0.69036619 10:2.7667388 
0.17933564190920753 1:6124 2:155.85062 3:51.086956 4:0.94474909 5:6296 6:88.302429 7:0.47340754 8:347.598 9:0.63692824 10:3.0506929 
0.17992240887802718 1:4984 2:127.21007 3:50.963563 4:0.91624201 5:5094 6:79.660692 7:0.58989229 8:294.096 9:0.72411853 10:2.4960984 
0.17999144431420228 1:5872 2:151.07422 3:50.703208 4:0.94199822 5:6086 6:86.46654 7:0.51726568 8:338.202 9:0.64512455 10:2.9795791 
0.1799429025076163 1:4947 2:140.89515 3:46.018183 4:0.94515817 5:5088 6:79.364451 7:0.59631148 8:311.951 9:0.63882074 10:3.0617277 
0.17984618937542446 1:6071 2:149.3108 3:52.590435 4:0.93591677 5:6195 6:87.919493 7:0.48912343 8:334.368 9:0.68237119 10:2.8391247 
0.17922978845756665 1:5551 2:133.19947 3:54.929368 4:0.91100999 5:5669 6:84.069928 7:0.52501655 8:311.51 9:0.71884806 10:2.4249226 
0.17998106641830486 1:5574 2:142.176 3:51.015809 4:0.93340619 5:5733 6:84.243915 7:0.51851163 8:317.75 9:0.69375434 10:2.7869008 
0.17988202213936699 1:5332 2:159.05928 3:43.268609 4:0.96228928 5:5451 6:82.394862 7:0.40671243 8:339.547 9:0.58116601 10:3.6760895 
0.18001728395009842 1:6629 2:163.17379 3:53.325309 4:0.94509328 5:6846 6:91.871132 7:0.47468672 8:363.038 9:0.63205331 10:3.059969 
0.17949883271873854 1:5774 2:146.01025 3:51.236639 4:0.93640873 5:6009 6:85.741968 7:0.68918596 8:330.923 9:0.66257148 10:2.8497235 
0.17668372305951602 1:6079 2:157.93429 3:49.492006 4:0.94963082 5:6288 6:87.977402 7:0.50721735 8:356.132 9:0.60230991 10:3.191107 
0.17996503620897075 1:5625 2:151.60091 3:48.153419 4:0.9482138 5:5804 6:84.628438 7:0.53884472 8:337.06 9:0.62218274 10:3.1482897 
0.17996642688465206 1:6425 2:165.0339 3:50.339192 4:0.95234487 5:6534 6:90.446471 7:0.82626029 8:358.444 9:0.62840606 10:3.2784376 
0.17995765432608074 1:6028 2:158.14272 3:49.504636 4:0.94974069 5:6222 6:87.607579 7:0.52572824 8:349.994 9:0.61838922 10:3.1945032 
0.17950326030196895 1:3994 2:131.13825 3:39.284859 4:0.95407487 5:4116 6:71.311421 7:0.81277981 8:286.121 9:0.61308185 10:3.3381373 
0.18000398941273532 1:6034 2:158.3533 3:49.225986 4:0.95045513 5:6169 6:87.651169 7:0.46422527 8:347.062 9:0.62950769 10:3.2168639 
0.17973901082833468 1:6213 2:161.33869 3:50.258135 4:0.95024385 5:6464 6:88.941763 7:0.49029356 8:363.889 9:0.58962157 10:3.2102006 
0.17953693773518509 1:5764 2:154.46523 3:48.047369 4:0.95039152 5:6077 6:85.667688 7:0.44996097 8:356.588 9:0.56963988 10:3.214853 
0.17893982878784048 1:5395 2:141.7947 3:49.370745 4:0.93742595 5:5526 6:82.880199 7:0.78358751 8:315.216 9:0.68231482 10:2.8720389 
0.18003504802577269 1:5816 2:150.34593 3:50.12216 4:0.94279293 5:5929 6:86.053246 7:0.4720013 8:329.125 9:0.67470281 10:2.9995901 
0.15257049245270615 1:5382 2:139.31495 3:50.006016 4:0.93335979 5:5537 6:82.780283 7:0.73584906 8:314.291 9:0.68468319 10:2.7859638 
0.17896352762040554 1:6409 2:158.04258 3:52.661078 4:0.94285328 5:6564 6:90.333782 7:0.59342593 8:351.201 9:0.65296311 10:3.0011269 
0.17977965572422219 1:5294 2:135.48906 3:51.195825 4:0.92586296 5:5450 6:82.100732 7:0.73712058 8:309.412 9:0.69489549 10:2.6464865 
0.17952228568806763 1:7186 2:168.88275 3:54.77547 4:0.94594049 5:7369 6:95.653015 7:0.59883333 8:375.392 9:0.64080671 10:3.0831822 
0.17996873476619368 1:5882 2:157.71277 3:48.747582 4:0.9510325 5:6044 6:86.540135 7:0.43403188 8:348.546 9:0.60843569 10:3.2352943 
0.17944501625957082 1:6408 2:155.88644 3:53.038896 4:0.94033842 5:6570 6:90.326735 7:0.63672496 8:347.107 9:0.66835257 10:2.9390967 
0.17953953994606492 1:6626 2:164.88766 3:52.417264 4:0.94812531 5:6743 6:91.850341 7:0.44517603 8:362.672 9:0.63304304 10:3.1456746 
0.17997194355679594 1:5854 2:137.84044 3:55.010236 4:0.91691336 5:6065 6:86.333912 7:0.5322786 8:341.106 9:0.63224276 10:2.5057235 
0.17965713259824501 1:6016 2:156.2163 3:50.293745 4:0.94675688 5:6264 6:87.520335 7:0.62007833 8:344.32 9:0.6376659 10:3.1060782 
0.17961673327467639 1:6995 2:170.70049 3:53.298699 4:0.95000484 5:7154 6:94.373252 7:0.44071321 8:374.945 9:0.6252626 10:3.202714 
0.17999971607091825 1:5930 2:137.80661 3:55.708288 4:0.91464864 5:6068 6:86.892523 7:0.6129199 8:316.748 9:0.74273997 10:2.4737183 
0.17996519283888418 1:4956 2:131.54058 3:49.045201 4:0.92789073 5:5102 6:79.436611 7:0.53393665 8:299.332 9:0.69508012 10:2.6820276 
0.17976671768723684 1:6937 2:162.70879 3:55.021592 4:0.94108866 5:7188 6:93.981183 7:0.56398374 8:371.588 9:0.63133257 10:2.9571807 
0.1799611307025151 1:5471 2:138.34698 3:52.600914 4:0.92490016 5:5675 6:83.461929 7:0.57210081 8:318.493 9:0.67776134 10:2.630125 
0.17956389572220766 1:4319 2:105.33736 3:53.283239 4:0.86263072 5:4394 6:74.156062 7:0.79510309 8:256.647 9:0.82398761 10:1.9769323 
0.17954272423883871 1:5298 2:149.396 3:45.744494 4:0.95196841 5:5535 6:82.131742 7:0.61928697 8:332.403 9:0.60254842 10:3.2658794 
0.17999964391024173 1:7304 2:160.59735 3:58.821095 4:0.93051081 5:7459 6:96.435168 7:0.52026498 8:362.576 9:0.69818823 10:2.7302679 
0.18002446361441476 1:5674 2:154.0704 3:47.324863 4:0.95165663 5:5830 6:84.996242 7:0.57151491 8:338.672 9:0.62164237 10:3.255591 
0.17861717987987485 1:6462 2:156.96303 3:53.129421 4:0.94097227 5:6636 6:90.706526 7:0.70392157 8:351.622 9:0.65678729 10:2.9543524 
0.17962564099191819 1:5606 2:139.4221 3:52.05523 4:0.92768482 5:5731 6:84.485389 7:0.79653311 8:315.597 9:0.70728952 10:2.6783496 
0.17956396555095067 1:5652 2:139.82565 3:52.642752 4:0.92642128 5:5785 6:84.831303 7:0.62301587 8:319.311 9:0.69660126 10:2.6561235 
0.1713709136963435 1:6549 2:155.08331 3:54.444642 4:0.93635032 5:6713 6:91.315091 7:0.67620031 8:351.548 9:0.66591008 10:2.8484586 
0.17986871361168949 1:6053 2:152.02201 3:52.0427 4:0.93957738 5:6291 6:87.789059 7:0.74728395 8:341.144 9:0.65358949 10:2.9211016 
0.18002750116058358 1:5876 2:161.85966 3:46.622484 4:0.95761758 5:6030 6:86.495986 7:0.42719011 8:349.437 9:0.60471936 10:3.4717082 
0.17929691279099208 1:6063 2:153.81274 3:50.643219 4:0.94424194 5:6176 6:87.861547 7:0.49925889 8:339.859 9:0.65962921 10:3.0371833 
0.17992378238926329 1:6610 2:167.75743 3:51.604784 4:0.95151075 5:6845 6:91.739378 7:0.47268307 8:367.686 9:0.61440839 10:3.2508116 
0.17931104277081031 1:6331 2:148.62237 3:56.210688 4:0.92571921 5:6549 6:89.782401 7:0.73275463 8:340.342 9:0.68683289 10:2.6440233 
0.1781891635980844 1:6624 2:167.19469 3:51.985901 4:0.9504327 5:6806 6:91.836478 7:0.43550296 8:367.642 9:0.61585709 10:3.2161545 
0.17618835148535272 1:6082 2:152.4655 3:51.573586 4:0.94105126 5:6224 6:87.999107 7:0.47257187 8:340.745 9:0.65825974 10:2.956271 
0.16341887731447083 1:6522 2:158.17284 3:53.174952 4:0.94179683 5:6654 6:91.126661 7:0.50636646 8:351.17 9:0.66459312 10:2.9745741 
0.17851009436687376 1:6279 2:161.52426 3:50.465204 4:0.94994042 5:6442 6:89.412925 7:0.44779632 8:355.377 9:0.62477222 10:3.2007057 
0.18002709641154319 1:7231 2:168.41046 3:55.601843 4:0.94392613 5:7421 6:95.952046 7:0.57207278 8:375.16 9:0.64561732 10:3.0288647 
0.17968177249924744 1:5744 2:156.82301 3:47.597204 4:0.95282855 5:5902 6:85.518933 7:0.7138951 8:341.317 9:0.61959579 10:3.2947946 
0.18003327839578059 1:6022 2:151.78575 3:51.435452 4:0.94083364 5:6145 6:87.563968 7:0.48385023 8:339.231 9:0.65759659 10:2.9509947 
0.1742811626507591 1:6127 2:157.90934 3:50.492103 4:0.94750068 5:6262 6:88.324055 7:0.50171962 8:346.654 9:0.64071562 10:3.1274067 
0.17679529899830976 1:6223 2:157.48567 3:50.897142 4:0.94633551 5:6337 6:89.013312 7:0.73592715 8:344.526 9:0.65881831 10:3.0941948 
0.17944698266708994 1:6370 2:149.65505 3:54.782446 4:0.93059199 5:6516 6:90.058514 7:0.75002944 8:341.062 9:0.68814923 10:2.7318066 
0.17960218321976978 1:6238 2:158.88829 3:51.050286 4:0.94697857 5:6406 6:89.120527 7:0.52389351 8:349.689 9:0.6410491 10:3.1123878 
0.1800249609627913 1:6196 2:143.45204 3:56.189443 4:0.92009513 5:6335 6:88.819999 7:0.69028521 8:329.036 9:0.71917476 10:2.553007 
0.16160420825131555 1:5458 2:139.58221 3:50.814919 4:0.93137936 5:5605 6:83.36271 7:0.49065085 8:317.216 9:0.68160572 10:2.7468745 
0.1797046225628437 1:4721 2:129.99401 3:46.875764 4:0.93272079 5:4834 6:77.530406 7:0.54527605 8:292.162 9:0.69501857 10:2.7731605 
0.17963141338371319 1:6829 2:161.08838 3:54.862421 4:0.94021793 5:7016 6:93.246731 7:0.49745047 8:359.078 9:0.66556332 10:2.9362245 
0.17957539035172079 1:6540 2:168.77629 3:51.00791 4:0.95323756 5:6820 6:91.252324 7:0.49703602 8:369.52 9:0.6018825 10:3.3088258 
0.17982514301060909 1:5457 2:141.74279 3:50.051397 4:0.93558022 5:5619 6:83.355073 7:0.48584402 8:319.548 9:0.6715705 10:2.8319448 
0.1795684744358797 1:5696 2:142.82507 3:51.459648 4:0.93283709 5:5783 6:85.160862 7:0.50229277 8:319.722 9:0.70022047 10:2.775477 
0.17955264406929555 1:6655 2:156.20225 3:55.351228 4:0.93511054 5:6832 6:92.051123 7:0.5039376 8:351.783 9:0.6757845 10:2.8220196 
0.15864007408859057 1:5465 2:132.783 3:53.176495 4:0.91630695 5:5575 6:83.41615 7:0.60661561 8:301.762 9:0.75417292 10:2.4970243 
0.1800246283498847 1:5322 2:138.93419 3:49.872617 4:0.93335073 5:5502 6:82.317561 7:0.48206522 8:317.076 9:0.66520881 10:2.7857811 
0.17996879783226127 1:4904 2:134.28001 3:47.303224 4:0.93589728 5:5075 6:79.018775 7:0.54434454 8:297.901 9:0.6944107 10:2.8387073 
0.17969855839573418 1:5221 2:131.24665 3:51.781667 4:0.91888004 5:5373 6:81.532715 7:0.5175456 8:304.29 9:0.70857887 10:2.5346162 
0.15762983380274187 1:5738 2:151.50597 3:48.953197 4:0.94636118 5:5929 6:85.474256 7:0.55730381 8:337.002 9:0.63490018 10:3.0949146 
0.17974962333217467 1:6795 2:158.49778 3:55.513093 4:0.93665803 5:6965 6:93.014315 7:0.49714662 8:362.427 9:0.65006717 10:2.8551423 
0.1687224602176926 1:5547 2:145.41009 3:49.82234 4:0.93946922 5:5714 6:84.039632 7:0.54164632 8:328.467 9:0.64607739 10:2.9185721 
0.14311801246293149 1:5789 2:155.02327 3:48.723301 4:0.94932481 5:5931 6:85.853269 7:0.44575345 8:337.423 9:0.63894584 10:3.1817071 
0.17819131887372774 1:5600 2:153.38919 3:47.304695 4:0.95125789 5:5749 6:84.440165 7:0.52190121 8:341.054 9:0.60499474 10:3.2425786 
0.16770583200823053 1:6248 2:151.86048 3:53.149725 4:0.93675325 5:6391 6:89.191932 7:0.5035461 8:339.999 9:0.67919676 10:2.8572205 
0.17996689191764187 1:6486 2:164.35025 3:51.405366 4:0.94982581 5:6694 6:90.874813 7:0.52382491 8:360.886 9:0.62581611 10:3.1971419 
0.17959538202085473 1:6456 2:165.34517 3:50.403181 4:0.95240482 5:6709 6:90.664406 7:0.50139795 8:361.632 9:0.62035413 10:3.280451 
0.18001663116777417 1:6111 2:142.19249 3:55.284573 4:0.92132179 5:6232 6:88.208655 7:0.55093761 8:322.341 9:0.73907932 10:2.5720103 
0.17992426415968435 1:5815 2:146.73888 3:51.630881 4:0.93605433 5:5959 6:86.045848 7:0.70110924 8:329.74 9:0.6720728 10:2.8420759 
0.17996940072245721 1:5102 2:130.65813 3:50.719835 4:0.92158048 5:5214 6:80.59819 7:0.74623373 8:299.231 9:0.71603978 10:2.5760757 
0.1557721300363866 1:6354 2:158.85479 3:52.560509 4:0.94367585 5:6569 6:89.945339 7:0.71137483 8:352.49 9:0.64263367 10:3.0223222 
0.16130068163895556 1:6004 2:144.50166 3:54.131491 4:0.92718324 5:6171 6:87.433004 7:0.64978355 8:330.608 9:0.69027768 10:2.6694564 
0.17961112147078684 1:5656 2:145.97682 3:50.756549 4:0.9376048 5:5868 6:84.861315 7:0.61172399 8:328.011 9:0.6606059 10:2.8760194 
0.18003541438604589 1:5731 2:150.57319 3:50.114623 4:0.94298838 5:5909 6:85.422104 7:0.78506849 8:335.156 9:0.64113026 10:3.0045761 
0.15789625523478673 1:6310 2:160.261 3:51.774013 4:0.94637829 5:6504 6:89.633373 7:0.45000713 8:355.369 9:0.62788505 10:3.0953946 
0.17963391711710336 1:6930 2:171.51674 3:52.489445 4:0.95202154 5:7087 6:93.933753 7:0.47779923 8:372.599 9:0.62727753 10:3.2676425 
0.17966336944159766 1:4487 2:136.959 3:42.366535 4:0.95095236 5:4586 6:75.584561 7:0.46603656 8:299.648 9:0.62797617 10:3.2327165 
0.17999735438764158 1:6141 2:150.18869 3:53.135173 4:0.9353251 5:6296 6:88.424906 7:0.56329114 8:337.2 9:0.67869372 10:2.82654 
0.17996675950525332 1:5938 2:165.08191 3:46.562501 4:0.95939766 5:6137 6:86.951115 7:0.56942846 8:359.363 9:0.57780772 10:3.5453833 
0.17993950991781255 1:5286 2:133.89542 3:51.334338 4:0.92358601 5:5440 6:82.038675 7:0.5683871 8:308.164 9:0.69947664 10:2.6083013 
0.1796767944189735 1:5358 2:119.24905 3:57.708661 4:0.87510454 5:5447 6:82.595505 7:0.60013441 8:287.087 9:0.81693127 10:2.0663978 
0.17980189289436199 1:6956 2:166.22991 3:54.507664 4:0.94471061 5:7136 6:94.109799 7:0.46497326 8:370.626 9:0.63635238 10:3.0496612 
0.17937733197140754 1:5789 2:147.38143 3:50.733308 4:0.93888486 5:5920 6:85.853269 7:0.47906322 8:331.813 9:0.66073395 10:2.905023 
0.1698292745458268 1:6135 2:154.71107 3:51.431282 4:0.94312638 5:6313 6:88.381698 7:0.63345379 8:344.824 9:0.64837978 10:3.0081123 
0.17980390436001448 1:5317 2:145.43484 3:47.401272 4:0.94539463 5:5469 6:82.278883 7:0.44767197 8:335.063 9:0.59514608 10:3.0681633 
0.18001839339732101 1:7128 2:160.41317 3:57.346214 4:0.93391671 5:7327 6:95.266214 7:0.64355363 8:364.309 9:0.6748974 10:2.7972757 
0.17971929434279604 1:5547 2:141.8754 3:51.81515 4:0.93092285 5:5798 6:84.039632 7:0.65220459 8:321.279 9:0.67531026 10:2.7381065 
0.17285823761493879 1:4791 2:128.74694 3:48.167836 4:0.92737707 5:4913 6:78.103077 7:0.73122711 8:293.169 9:0.70048678 10:2.6728819 
0.14453094235879277 1:6321 2:154.84163 3:53.100766 4:0.93935877 5:6493 6:89.711466 7:0.5622665 8:348.671 9:0.65337724 10:2.9159961 
0.17996391249860014 1:6461 2:152.09921 3:54.750778 4:0.93296483 5:6616 6:90.699508 7:0.72546598 8:343.865 9:0.68664721 10:2.7780283 
0.14379561924622658 1:6297 2:161.13124 3:51.429324 4:0.94769525 5:6493 6:89.540993 7:0.48201163 8:357.414 9:0.6194417 10:3.1330616 
0.17961782683544505 1:6602 2:161.88318 3:52.646411 4:0.94564101 5:6748 6:91.683845 7:0.80867222 8:355.376 9:0.65691502 10:3.0749139 
0.1799656278395606 1:5444 2:147.91084 3:47.49598 4:0.94704115 5:5620 6:83.255727 7:0.46529915 8:330.323 9:0.62697519 10:3.1141761 
0.17996633499613507 1:6878 2:154.42354 3:57.790526 4:0.92733433 5:7093 6:93.580669 7:0.59949447 8:358.48 9:0.67257725 10:2.6721255 
0.18000045985517144 1:5880 2:142.9872 3:53.355181 4:0.92777241 5:6072 6:86.525421 7:0.49932065 8:340.304 9:0.6380476 10:2.6799122 
0.17619592517078542 1:6208 2:155.18519 3:51.670787 4:0.94294021 5:6357 6:88.905968 7:0.51433306 8:344.793 9:0.65621279 10:3.0033449 
0.15679593920172674 1:5988 2:156.18926 3:49.795954 4:0.94781594 5:6142 6:87.316427 7:0.53945946 8:344.718 9:0.63323328 10:3.1365853 
0.13613933611312884 1:6553 2:163.52905 3:51.727119 4:0.94865335 5:6683 6:91.342973 7:0.45544899 8:359.304 9:0.63786082 10:3.1613795 
0.18001065061782895 1:5722 2:155.36664 3:47.591339 4:0.95192978 5:5887 6:85.355004 7:0.49956347 8:338.822 9:0.6263463 10:3.264599 
0.1799223071983185 1:6468 2:142.9495 3:58.906877 4:0.91114689 5:6721 6:90.748627 7:0.60335821 8:340.6 9:0.700633 10:2.4267031 
0.17997853355939114 1:6737 2:156.92077 3:55.865232 4:0.93448247 5:6950 6:92.616493 7:0.66152789 8:360.886 9:0.6500344 10:2.8089165 
0.1799215444775496 1:6532 2:158.6234 3:53.39533 4:0.94164166 5:6732 6:91.196495 7:0.51907184 8:354.37 9:0.6536453 10:2.9707355 
0.17972288414564225 1:6896 2:168.44429 3:53.39316 4:0.94843284 5:7171 6:93.703041 7:0.44547804 8:377.613 9:0.60773359 10:3.1547916 
0.15503207241928157 1:6029 2:149.74411 3:52.271879 4:0.9370949 5:6217 6:87.614846 7:0.64412393 8:341.98 9:0.64781908 10:2.8647163 
0.1798722507122561 1:6078 2:151.31978 3:52.286093 4:0.93840632 5:6199 6:87.970165 7:0.69036801 8:335.884 9:0.67700508 10:2.8940732 
0.17137065991232842 1:6130 2:153.24886 3:51.775672 4:0.94119869 5:6314 6:88.345676 7:0.77106918 8:346.164 9:0.6428454 10:2.9598623 
0.13589050600463859 1:6883 2:165.15701 3:54.209739 4:0.9445973 5:7041 6:93.614677 7:0.53908208 8:366.898 9:0.64253523 10:3.0466298 
0.17922857616420856 1:6509 2:160.15594 3:52.582583 4:0.94456615 5:6676 6:91.035796 7:0.5271299 8:354.295 9:0.65161952 10:3.0457982 
0.17827811433175222 1:6609 2:164.26546 3:52.459035 4:0.94763507 5:6802 6:91.732438 7:0.53995098 8:362.738 9:0.63118913 10:3.1313091 
0.17963025465762886 1:6787 2:166.39463 3:52.508187 4:0.94890423 5:6908 6:92.959544 7:0.46390977 8:363.861 9:0.64419403 10:3.1689273 
0.17977519887832955 1:5822 2:151.12883 3:50.358491 4:0.94285064 5:5992 6:86.097623 7:0.47042663 8:337.487 9:0.64234444 10:3.0010595 
0.16702784937462453 1:5967 2:151.86947 3:50.671775 4:0.94269579 5:6120 6:87.163182 7:0.78061224 8:336.438 9:0.66245414 10:2.9971215 
0.17932402674315528 1:4886 2:133.55673 3:47.272913 4:0.93526291 5:5013 6:78.873623 7:0.50747819 8:297.126 9:0.69547579 10:2.8252274 
0.17981958780928037 1:5204 2:125.58645 3:53.409827 4:0.90506026 5:5302 6:81.399868 7:0.57566372 8:292.196 9:0.76594682 10:2.3513735 
0.17995470684704387 1:4555 2:131.06835 3:45.066724 4:0.93902774 5:4660 6:76.155145 7:0.77268872 8:293.723 9:0.6634716 10:2.9083177 
0.17996740064360034 1:5607 2:148.44074 3:48.463357 4:0.94520313 5:5722 6:84.492924 7:0.46079882 8:329.34 9:0.64960814 10:3.062948 
0.17916710354254806 1:5531 2:151.6212 3:47.795076 4:0.94901635 5:5743 6:83.918341 7:0.51614408 8:336.605 9:0.61344043 10:3.1723185 
0.17999715441604291 1:6222 2:152.79577 3:53.023302 4:0.93785745 5:6388 6:89.00616 7:0.65247483 8:345.155 9:0.65631379 10:2.8816721 
0.15858670216522128 1:5805 2:141.58251 3:53.526305 4:0.92578219 5:5961 6:85.97183 7:0.50707547 8:326.892 9:0.6826585 10:2.6451015 
0.17993727740136678 1:6002 2:151.04102 3:51.371695 4:0.94038295 5:6162 6:87.418441 7:0.48158549 8:337.511 9:0.66210976 10:2.9401604 
0.17915864494040734 1:6223 2:158.89445 3:51.311367 4:0.94642375 5:6359 6:89.013312 7:0.81935484 8:348.041 9:0.64557819 10:3.0966716 
0.18002225572692862 1:6528 2:158.74951 3:53.750481 4:0.94093518 5:6720 6:91.168568 7:0.60422066 8:352.846 9:0.65890016 10:2.9534529 
0.17979860184970672 1:4554 2:145.18718 3:40.963947 4:0.95937155 5:4712 6:76.146785 7:0.68255396 8:311.594 9:0.5894198 10:3.5442675 
0.16992338216506339 1:6996 2:162.22675 3:56.399519 4:0.9376212 5:7226 6:94.379997 7:0.75763483 8:368.865 9:0.64613723 10:2.8763853 
0.17932501576366605 1:6187 2:145.84091 3:55.332027 4:0.92523279 5:6322 6:88.755468 7:0.74078065 8:333.552 9:0.69881607 10:2.6357414 
0.1618258443742544 1:5435 2:134.39541 3:52.68193 4:0.91996861 5:5607 6:83.18688 7:0.52496861 8:311.995 9:0.70163968 10:2.5510722 
0.17984652308421317 1:6388 2:152.91987 3:54.042834 4:0.93546996 5:6538 6:90.185665 7:0.65842094 8:346.842 9:0.66728507 10:2.8296049 
0.17733596946500355 1:6012 2:155.49211 3:50.346133 4:0.94613042 5:6195 6:87.491235 7:0.50884469 8:342.874 9:0.64262812 10:3.0884618 
0.17978315805441569 1:5847 2:165.38588 3:46.700824 4:0.95930412 5:6181 6:86.282279 7:0.46032121 8:356.603 9:0.57779393 10:3.541391 
0.17420323256474451 1:7127 2:162.44438 3:56.903332 4:0.9366397 5:7340 6:95.259531 7:0.78267077 8:366.509 9:0.66672591 10:2.8547428 
0.17809092187091541 1:6818 2:160.64892 3:54.969451 4:0.93963759 5:7028 6:93.171601 7:0.53348983 8:362.657 9:0.65144046 10:2.9225128 
0.17999790759348919 1:5976 2:151.33509 3:51.877639 4:0.93940848 5:6163 6:87.228892 7:0.46433566 8:343.409 9:0.63679128 10:2.9171545 
0.17996545972782407 1:6183 2:157.98933 3:50.919545 4:0.94663848 5:6384 6:88.726772 7:0.64145658 8:351.969 9:0.62719167 10:3.1027246 
0.16857954241259132 1:5588 2:141.12664 3:51.309459 4:0.93156676 5:5707 6:84.349645 7:0.50094128 8:318.134 9:0.69381884 10:2.7504996 
0.17608489304208269 1:5726 2:143.79978 3:52.050764 4:0.93219094 5:5903 6:85.384833 7:0.60573363 8:326.283 9:0.67588423 10:2.7626834 
0.17708612203294832 1:6140 2:152.50495 3:52.094054 4:0.93984933 5:6304 6:88.417706 7:0.68010634 8:342.864 9:0.65634844 10:2.9274924 
0.17935683791178225 1:6198 2:156.20642 3:51.721574 4:0.94359201 5:6380 6:88.834333 7:0.6984449 8:348.678 9:0.64063748 10:3.0201404 
0.1769017248275212 1:5610 2:152.82379 3:47.435741 4:0.95060767 5:5760 6:84.515524 7:0.53428571 8:332.594 9:0.63729998 10:3.2217014 
0.1799661634328551 1:5563 2:144.7619 3:50.072038 4:0.93827419 5:5655 6:84.160748 7:0.82770421 8:322.238 9:0.67323303 10:2.8910727 
0.1797814138266032 1:4972 2:132.80017 3:50.244262 4:0.92566471 5:5247 6:79.564735 7:0.63184649 8:306.55 9:0.66487246 10:2.6430912 
0.17962674169502454 1:4812 2:132.06215 3:47.086599 4:0.93427671 5:4973 6:78.274061 7:0.51410256 8:295.794 9:0.69112525 10:2.8046654 
0.17987153633292891 1:5530 2:140.25732 3:51.748044 4:0.92944894 5:5763 6:83.910754 7:0.51633987 8:317.785 9:0.68812638 10:2.7103888 
0.11150558714114772 1:6217 2:157.95983 3:51.298152 4:0.94579838 5:6375 6:88.97039 7:0.77634865 8:351.49 9:0.63236057 10:3.0792499 
0.17735087380594955 1:5583 2:143.33056 3:50.744267 4:0.93523156 5:5730 6:84.311899 7:0.49193762 8:324.145 9:0.66772685 10:2.8245666 
0.1795704721884776 1:4379 2:144.77016 3:39.17269 4:0.96269598 5:4522 6:74.669378 7:0.47080959 8:309.215 9:0.57552435 10:3.6956911 
0.1793270078771933 1:6569 2:153.26572 3:55.506227 4:0.93211717 5:6734 6:91.454418 7:0.52691105 8:347.391 9:0.68402504 10:2.7612346 
0.17909377999834541 1:6003 2:142.11595 3:54.519321 4:0.9234887 5:6132 6:87.425723 7:0.56271091 8:323.292 9:0.72175249 10:2.606708 
0.17996865101134737 1:6962 2:158.24474 3:56.58373 4:0.93388596 5:7102 6:94.150378 7:0.55438764 8:355.619 9:0.69178951 10:2.7966474 
0.18001308727303844 1:5632 2:154.77415 3:47.342407 4:0.95206989 5:5854 6:84.681079 7:0.56728445 8:339.193 9:0.61514677 10:3.2692497 
0.17998856764809998 1:6464 2:162.37349 3:51.761386 4:0.94782881 5:6596 6:90.720562 7:0.8244898 8:356.178 9:0.64029046 10:3.1369617 
0.17884914734894652 1:6444 2:163.94088 3:51.015129 4:0.95035098 5:6665 6:90.580106 7:0.71552298 8:365.185 9:0.60721087 10:3.2135737 
0.17317300678877201 1:6316 2:167.37377 3:48.902182 4:0.95636533 5:6470 6:89.675978 7:0.76921203 8:359.42 9:0.61439476 10:3.4226238 
0.17719329941972803 1:6075 2:158.41927 3:50.500001 4:0.94783063 5:6292 6:87.948452 7:0.4506008 8:353.267 9:0.61171623 10:3.1370152 
0.1798599709017632 1:6129 2:147.82218 3:53.552636 4:0.93207032 5:6276 6:88.338469 7:0.80729715 8:336.834 9:0.67884034 10:2.7603156 
0.17504290464939129 1:6162 2:157.20575 3:51.352109 4:0.94514351 5:6371 6:88.575968 7:0.49878582 8:348.697 9:0.63684704 10:3.0613301 
0.17998798745740924 1:5330 2:141.0191 3:49.429355 4:0.936557 5:5450 6:82.379407 7:0.49215143 8:317.124 9:0.66600709 10:2.8529424 
0.16719057535555698 1:5668 2:141.70275 3:51.589773 4:0.93137144 5:5798 6:84.95129 7:0.62685247 8:319.948 9:0.69579436 10:2.7467217 
0.17996563225936518 1:4555 2:118.09771 3:50.909152 4:0.90231536 5:4731 6:76.155145 7:0.70729814 8:283.186 9:0.71376408 10:2.3197736 
0.17912456388846004 1:5751 2:146.00162 3:51.137998 4:0.93665387 5:5911 6:85.571027 7:0.50008696 8:327.675 9:0.67307989 10:2.8550515 
0.17996693730762237 1:6279 2:165.51806 3:49.654799 4:0.95394038 5:6486 6:89.412925 7:0.44121987 8:360.586 9:0.60685177 10:3.3333749 
0.1520951188442069 1:5992 2:145.2747 3:53.594981 4:0.9294605 5:6134 6:87.345586 7:0.77057613 8:330.327 9:0.6900706 10:2.7106027 
0.17922823510838792 1:6792 2:159.64233 3:55.556853 4:0.93749146 5:7014 6:92.993779 7:0.60384068 8:363.416 9:0.64624836 10:2.8734948 
0.17995819341753583 1:5791 2:131.62905 3:56.842088 4:0.90195241 5:5938 6:85.868098 7:0.8037474 8:316.987 9:0.7242367 10:2.3156969 
0.18003386769338431 1:6036 2:153.80741 3:51.133803 4:0.94311967 5:6236 6:87.665694 7:0.4772296 8:349.236 9:0.62190076 10:3.0079399 
0.17940517770837933 1:6205 2:161.66614 3:49.39429 4:0.95218159 5:6336 6:88.884483 7:0.4476912 8:353.795 9:0.62294294 10:3.2729723 
0.17940205863309502 1:6189 2:143.11514 3:55.850397 4:0.92070978 5:6353 6:88.769812 7:0.5410438 8:330.678 9:0.71124584 10:2.5624731 
0.17964633108214445 1:5873 2:150.02617 3:50.583504 4:0.94144574 5:5989 6:86.473903 7:0.47516181 8:336.312 9:0.65250694 10:2.965911 
0.17998106368981512 1:5884 2:151.14875 3:51.137759 4:0.94102848 5:6108 6:86.554847 7:0.57550861 8:344.511 9:0.62298321 10:2.9557172 
0.17658371640506948 1:5934 2:152.21365 3:50.765552 4:0.94274476 5:6099 6:86.921824 7:0.57650831 8:339.118 9:0.64841898 10:2.998365 
0.14728663225039079 1:6160 2:155.8178 3:51.123905 4:0.94464281 5:6298 6:88.561592 7:0.58278146 8:345.462 9:0.64861951 10:3.0478463 
0.17996490570325752 1:5211 2:147.08296 3:45.843855 4:0.95018481 5:5388 6:81.454596 7:0.5003841 8:328.683 9:0.6061449 10:3.2083462 
0.17888830413591439 1:6686 2:164.29713 3:53.064418 4:0.94640635 5:6857 6:92.265268 7:0.46225111 8:361.338 9:0.64350061 10:3.0961827 
0.17155906112376387 1:6302 2:156.63738 3:51.554339 4:0.944284 5:6441 6:89.576535 7:0.48746906 8:346.54 9:0.65944947 10:3.0382968 
0.16787219088192473 1:7076 2:165.52165 3:54.960717 4:0.94326338 5:7235 6:94.918086 7:0.49482517 8:367.167 9:0.65958445 10:3.0116356 
0.17654683533660803 1:5642 2:139.89425 3:52.611214 4:0.92658782 5:5781 6:84.756224 7:0.57105263 8:320.329 9:0.69095606 10:2.6590196 
0.17727890814048458 1:5842 2:151.10777 3:49.829495 4:0.94406434 5:5986 6:86.245379 7:0.64099188 8:336.612 9:0.64790634 10:3.0324965 
0.17996203918919546 1:5431 2:140.59363 3:50.356741 4:0.93365551 5:5545 6:83.156262 7:0.53708465 8:315.814 9:0.68426907 10:2.7919525 
0.17992230102810697 1:5079 2:151.92686 3:43.38666 4:0.95835608 5:5204 6:80.416315 7:0.63551051 8:329.797 9:0.58680617 10:3.5016953 
0.16904737239313766 1:5969 2:158.58001 3:48.576917 4:0.9519272 5:6142 6:87.177789 7:0.71872366 8:345.485 9:0.62842442 10:3.2645136 
0.17122186539582873 1:5829 2:150.66177 3:50.237984 4:0.94276822 5:5998 6:86.149366 7:0.56221065 8:338.78 9:0.63821704 10:2.9989613 
0.17731076875398014 1:6096 2:142.21785 3:54.978221 4:0.92225693 5:6202 6:88.100331 7:0.67396352 8:325.497 9:0.72303753 10:2.5868035 
0.17871181754790422 1:6670 2:172.33491 3:49.843137 4:0.95726189 5:6824 6:92.154803 7:0.6334283 8:371.115 9:0.60858141 10:3.4575453 
0.18001473371663074 1:6238 2:148.41781 3:54.453958 4:0.93026182 5:6454 6:89.120527 7:0.49405988 8:344.755 9:0.65952929 10:2.7255652 
0.17913507001051104 1:6085 2:150.96196 3:52.14209 4:0.93845598 5:6210 6:88.020808 7:0.72622031 8:337.555 9:0.67109091 10:2.8952035 
0.17993337885966543 1:3449 2:120.71862 3:37.773298 4:0.94978487 5:3571 6:66.267663 7:0.46778787 8:263.911 9:0.6222832 10:3.1958719 
0.1794778634428108 1:5987 2:142.11991 3:54.250482 4:0.92427665 5:6131 6:87.309136 7:0.5381573 8:326.219 9:0.7069694 10:2.6196986 
0.17696857080958212 1:6493 2:158.97334 3:53.234022 4:0.94226743 5:6643 6:90.923838 7:0.57338396 8:354.633 9:0.64877929 10:2.9863109 
0.17992237890803242 1:5419 2:157.40298 3:44.083629 4:0.95998 5:5537 6:83.064343 7:0.63380117 8:337.381 9:0.59825698 10:3.5705541 
0.17944713286911135 1:7191 2:165.56271 3:56.059402 4:0.94093069 5:7339 6:95.686287 7:0.54477273 8:368.297 9:0.66619718 10:2.9533441 
0.17996628098226175 1:5030 2:136.12175 3:48.083284 4:0.93553374 5:5149 6:80.027463 7:0.51357974 8:304.311 9:0.68256269 10:2.8309578 
0.17994715242490716 1:5230 2:127.01599 3:53.862768 4:0.90563274 5:5412 6:81.602958 7:0.74121315 8:297.081 9:0.74466647 10:2.3581408 
0.1799698444518244 1:7048 2:163.41522 3:55.827991 4:0.93983353 5:7203 6:94.730102 7:0.49584916 8:362.89 9:0.67255183 10:2.9271199 
0.17957500849645236 1:6309 2:157.85841 3:51.993238 4:0.94420223 5:6477 6:89.62627 7:0.70350134 8:353.524 9:0.63435532 10:3.0361335 
0.17901741499493798 1:5866 2:153.61059 3:49.820302 4:0.94594449 5:6019 6:86.422353 7:0.74281373 8:338.05 9:0.64504504 10:3.0832931 
0.14298235875428089 1:6150 2:152.84852 3:52.171876 4:0.93994331 5:6296 6:88.489678 7:0.51224388 8:341.229 9:0.66373254 10:2.929711 
0.15092165918528727 1:6700 2:160.68433 3:53.900778 4:0.94205974 5:6884 6:92.361815 7:0.49185142 8:356.92 9:0.66091088 10:2.9811134 
0.17994960292395379 1:6932 2:161.72768 3:55.722667 4:0.93876934 5:7069 6:93.947307 7:0.48411202 8:360.768 9:0.66928702 10:2.9023678 
0.17920365060645058 1:5004 2:129.03421 3:49.878046 4:0.92226887 5:5169 6:79.820365 7:0.66693323 8:299.578 9:0.70066001 10:2.5869941 
0.17733483165050645 1:5582 2:146.52707 3:49.500534 4:0.94120888 5:5735 6:84.304348 7:0.55814419 8:326.217 9:0.65915343 10:2.9601109 
0.18000194494958835 1:6369 2:145.45247 3:57.266277 4:0.91923415 5:6530 6:90.051445 7:0.81905864 8:334.908 9:0.7135593 10:2.5399323 
0.16442201653061267 1:5069 2:139.43992 3:47.615595 4:0.93988995 5:5230 6:80.33711 7:0.49657132 8:312.606 9:0.65183479 10:2.9284507 
0.1799699461870265 1:6320 2:150.38227 3:55.559614 4:0.92924827 5:6609 6:89.70437 7:0.56257789 8:344.163 9:0.6704997 10:2.7066831 
0.17991876360620973 1:6341 2:158.62567 3:52.168014 4:0.94437347 5:6478 6:89.85328 7:0.46325248 8:353.44 9:0.63787594 10:3.0406692 
0.17943998334795735 1:5895 2:155.21261 3:49.463389 4:0.94786185 5:6034 6:86.635715 7:0.45832685 8:342.011 9:0.63330589 10:3.1379292 
0.1796079273808574 1:6498 2:154.39693 3:54.862252 4:0.93473996 5:6686 6:90.95884 7:0.76844844 8:355.145 9:0.64740815 10:2.8142652 
0.1792398533045321 1:5686 2:139.96375 3:52.235634 4:0.92774758 5:5799 6:85.086074 7:0.52270638 8:317.506 9:0.70878227 10:2.6794688 
0.17998140307682875 1:2872 2:74.691881 3:51.400454 4:0.72555275 5:3015 6:60.471018 7:0.71300894 8:208.317 9:0.8316582 10:1.4531366 
0.1065526502616712 1:5936 2:150.08411 3:51.522087 4:0.93923016 5:6100 6:86.936471 7:0.48747639 8:333.979 9:0.66875253 10:2.9130053 
0.17973278167436985 1:5451 2:148.2835 3:47.855524 4:0.94649109 5:5610 6:83.309236 7:0.49161255 8:325.417 9:0.64685296 10:3.098566 
0.18000329624387471 1:6553 2:146.19405 3:57.951579 4:0.91807715 5:6758 6:91.342973 7:0.55327592 8:342.064 9:0.70377736 10:2.5226932 
0.17090771856571724 1:6284 2:160.67094 3:50.897632 4:0.94849843 5:6449 6:89.448518 7:0.83231788 8:347.345 9:0.65452153 10:3.1567468 
0.17996608142372661 1:4270 2:130.94495 3:41.979872 4:0.94721747 5:4414 6:73.734204 7:0.70427181 8:289.233 9:0.64141935 10:3.1192319 
0.17985143547966964 1:5885 2:145.344 3:52.820928 4:0.93162537 5:6070 6:86.562201 7:0.6005102 8:332.734 9:0.66797771 10:2.7516365 
0.18001106054805555 1:5165 2:147.73938 3:45.89775 4:0.95051882 5:5398 6:81.09428 7:0.51270598 8:324.944 9:0.6146999 10:3.2188808 
0.17996525955470882 1:4678 2:128.3679 3:46.905788 4:0.93085012 5:4761 6:77.176516 7:0.77347884 8:287.214 9:0.71262142 10:2.7367178 
0.15791737377388232 1:6209 2:150.91234 3:53.239437 4:0.93570484 5:6370 6:88.913128 7:0.49411109 8:342.794 9:0.66399545 10:2.8345969 
0.16805363905360682 1:6443 2:156.41328 3:53.094331 4:0.94062446 5:6629 6:90.573078 7:0.60041003 8:349.977 9:0.66102668 10:2.9459507 
0.1799676070661208 1:5294 2:139.58598 3:49.566908 4:0.93482852 5:5429 6:82.100732 7:0.5129845 8:315.592 9:0.66794673 10:2.8161124 
0.17968614279720091 1:6120 2:150.61333 3:52.895257 4:0.93630083 5:6261 6:88.273586 7:0.75555556 8:338.572 9:0.67090219 10:2.8473882 
0.18000300035217753 1:6175 2:143.97651 3:55.673424 4:0.92221225 5:6331 6:88.669353 7:0.79329394 8:329.573 9:0.7144035 10:2.5860905 
0.1799670792905752 1:3536 2:95.695488 3:48.621331 4:0.86130762 5:3621 6:67.098249 7:0.71578947 8:237.568 9:0.78731085 10:1.9681791 
0.17996696871450629 1:5420 2:154.44311 3:47.155526 4:0.95224782 5:5740 6:83.072007 7:0.42012247 8:342.282 9:0.58135449 10:3.2751858 
0.17996492093518823 1:5000 2:133.92629 3:48.75553 4:0.93138039 5:5129 6:79.788456 7:0.49382716 8:303.312 9:0.68296851 10:2.7468944 
0.17234153481200765 1:6306 2:162.67557 3:49.858846 4:0.95187307 5:6433 6:89.604958 7:0.47751022 8:352.345 9:0.63830406 10:3.2627224 
0.17884366290159043 1:5400 2:153.543 3:45.305591 4:0.95547633 5:5526 6:82.918596 7:0.54727881 8:333.47 9:0.61022512 10:3.3890519 
0.17997942933027825 1:5295 2:143.73029 3:47.725518 4:0.94326209 5:5454 6:82.108485 7:0.58135705 8:323.513 9:0.63575876 10:3.0116025 
0.17873284481773899 1:6416 2:163.06708 3:50.859248 4:0.9501177 5:6565 6:90.383101 7:0.59517625 8:358.818 9:0.62621833 10:3.2062424 
0.17994246938534064 1:5107 2:146.51983 3:44.861566 4:0.95197337 5:5242 6:80.637673 7:0.51414477 8:318.088 9:0.63428019 10:3.2660437 
0.17924570229287642 1:4749 2:130.10947 3:47.339728 4:0.93145936 5:4867 6:77.759981 7:0.65090461 8:296.056 9:0.68087016 10:2.7484203 
0.17996266942191816 1:4296 2:129.48341 3:43.360501 4:0.94226327 5:4425 6:73.958347 7:0.71008264 8:286.436 9:0.65798946 10:2.9862066 
0.17869333244274282 1:6190 2:146.76047 3:55.017199 4:0.92707435 5:6346 6:88.776983 7:0.57187731 8:340.624 9:0.67042473 10:2.667538 
0.17605728266615622 1:5918 2:145.49886 3:52.969186 4:0.93137853 5:6043 6:86.80456 7:0.73901099 8:328.962 9:0.68721615 10:2.7468584 
0.17995186487725662 1:6033 2:147.29069 3:53.367801 4:0.93204997 5:6192 6:87.643906 7:0.74813988 8:331.732 9:0.68891946 10:2.7599168 
0.17996437605200127 1:5187 2:139.78098 3:48.225409 4:0.93860014 5:5300 6:81.266805 7:0.50604878 8:313.227 9:0.66436651 10:2.8984925 
0.18003551719484545 1:6858 2:163.94918 3:53.962278 4:0.94428104 5:7022 6:93.444512 7:0.7744777 8:362.836 9:0.65461598 10:3.0382183 
0.17976404738342244 1:6692 2:168.70433 3:51.520758 4:0.95222709 5:6943 6:92.306658 7:0.55766667 8:377.971 9:0.58863873 10:3.2744924 
0.17853852667956094 1:6414 2:158.0882 3:52.933749 4:0.94227614 5:6608 6:90.369013 7:0.79578164 8:351.936 9:0.65074589 10:2.9865295 
0.17953931912303167 1:6063 2:145.65378 3:53.969163 4:0.92882031 5:6181 6:87.861547 7:0.83719967 8:329.268 9:0.702746 10:2.6988334 
0.18000773784097376 1:5240 2:137.06032 3:49.947038 4:0.93123608 5:5401 6:81.680935 7:0.66922095 8:313.531 9:0.66985403 10:2.7441131 
0.178519635163431 1:6623 2:158.28989 3:54.625101 4:0.93856765 5:6841 6:91.829546 7:0.5300096 8:354.014 9:0.66408511 10:2.8977502 
0.17998699663135054 1:5339 2:138.31327 3:50.291274 4:0.93155356 5:5508 6:82.448929 7:0.73783858 8:313.827 9:0.6812228 10:2.7502438 
0.17954047391644135 1:5621 2:147.01495 3:49.367015 4:0.94193477 5:5844 6:84.598342 7:0.61270983 8:341.319 9:0.60632087 10:2.9779995 
0.17936466781223454 1:6159 2:150.67718 3:52.87345 4:0.93641088 5:6294 6:88.554403 7:0.48234004 8:342.16 9:0.66109153 10:2.8497701 
0.17760804038362304 1:6331 2:145.91252 3:56.202364 4:0.9228421 5:6462 6:89.782401 7:0.50949622 8:331.21 9:0.72522922 10:2.596199 
0.17926192908125599 1:6668 2:155.82676 3:55.355372 4:0.93477641 5:6862 6:92.140986 7:0.49891508 8:355.563 9:0.66278448 10:2.8150251 
0.17981431932811018 1:5939 2:145.32915 3:52.598409 4:0.9322068 5:6065 6:86.958436 7:0.5417807 8:329.046 9:0.68930267 10:2.7629953 
0.17981272840758233 1:5606 2:138.74941 3:52.714727 4:0.92501624 5:5786 6:84.485389 7:0.50255491 8:323.83 9:0.67178267 10:2.6320807 
0.17931404124159256 1:5838 2:144.13413 3:52.682479 4:0.93080737 5:6034 6:86.215848 7:0.65025618 8:323.669 9:0.70028003 10:2.7359025 
0.17806856632254425 1:5928 2:150.677 3:51.130269 4:0.9406649 5:6091 6:86.877868 7:0.7862069 8:332.848 9:0.6723976 10:2.9469236 
0.17994206225346676 1:6440 2:159.25953 3:53.016131 4:0.94296517 5:6653 6:90.551989 7:0.46666667 8:362.692 9:0.61520489 10:3.0039825 
0.17978502906675081 1:6158 2:168.15423 3:47.107571 4:0.95995769 5:6304 6:88.547214 7:0.83668478 8:366.194 9:0.57706814 10:3.5695798 
0.17995803994765058 1:6362 2:150.33295 3:55.207633 4:0.9301279 5:6545 6:90.001944 7:0.50205177 8:341.224 9:0.68663255 10:2.7230465 
0.18001487707452579 1:6973 2:157.80329 3:57.764695 4:0.93059319 5:7302 6:94.224728 7:0.60814582 8:361.34 9:0.67111578 10:2.7318294 
0.17953947535625919 1:4432 2:129.13026 3:43.963075 4:0.94026072 5:4552 6:75.119889 7:0.57394457 8:285.065 9:0.68536484 10:2.9372435 
0.17732729449359275 1:6179 2:152.74911 3:52.580247 4:0.93888675 5:6346 6:88.698067 7:0.7772327 8:343.748 9:0.65712456 10:2.9050665 
0.17242456857032881 1:6071 2:146.16965 3:54.058604 4:0.92909758 5:6235 6:87.919493 7:0.75603985 8:334.015 9:0.68381426 10:2.7039109 
0.17172290971500453 1:5994 2:143.03279 3:54.324684 4:0.92506625 5:6136 6:87.360162 7:0.52276295 8:326.154 9:0.70807814 10:2.6329245 
0.10044741453307583 1:6413 2:159.81779 3:52.572467 4:0.94434646 5:6624 6:90.361968 7:0.58986387 8:355.758 9:0.63673944 10:3.0399523 
0.17969332227298246 1:5722 2:143.83933 3:51.689248 4:0.93320129 5:5827 6:85.355004 7:0.50157784 8:322.549 9:0.69114046 10:2.7827708 
0.1799702193983117 1:6746 2:163.3016 3:53.453526 4:0.94491006 5:6901 6:92.678336 7:0.64131571 8:362.68 9:0.64447932 10:3.0550201 
0.1764621201081592 1:6624 2:158.82635 3:53.866943 4:0.94073007 5:6791 6:91.836478 7:0.6366782 8:357.983 9:0.64953922 10:2.9484939 
0.18001027372031275 1:6424 2:156.90711 3:52.727399 4:0.94184695 5:6560 6:90.439432 7:0.50842897 8:346.349 9:0.67295732 10:2.9758173 
0.17998234586415787 1:6867 2:164.63194 3:53.923099 4:0.94483826 5:7011 6:93.505807 7:0.56813105 8:364.773 9:0.6485322 10:3.0530876 
0.13432650378837274 1:6435 2:158.6834 3:52.810174 4:0.94299668 5:6584 6:90.51683 7:0.69642857 8:351.54 9:0.65434821 10:3.0047885 
0.1746097667859754 1:6689 2:160.53553 3:54.015609 4:0.9416937 5:6815 6:92.285965 7:0.7392794 8:355.302 9:0.66584901 10:2.9720211 
0.18002210319889983 1:5251 2:148.34322 3:46.543311 4:0.94950423 5:5476 6:81.766624 7:0.47520362 8:332.545 9:0.59669313 10:3.1872082 
0.16561954857260736 1:5713 2:147.14872 3:50.243005 4:0.93990223 5:5825 6:85.287851 7:0.48089226 8:326.993 9:0.67142449 10:2.9287405 
0.18001990552416439 1:6230 2:151.14928 3:53.896249 4:0.93426621 5:6422 6:89.063362 7:0.58088578 8:343.741 9:0.66257529 10:2.8044489 
0.18003487737876595 1:5210 2:148.31756 3:45.362575 4:0.95208047 5:5350 6:81.44678 7:0.48285449 8:325.433 9:0.61819346 10:3.2696019 
0.17931408570748505 1:5224 2:130.66157 3:51.685785 4:0.91843587 5:5433 6:81.556136 7:0.56757931 8:307.611 9:0.69376008 10:2.5279982 
0.17949875410834701 1:6542 2:159.14909 3:53.866211 4:0.9409794 5:6849 6:91.266276 7:0.55577266 8:370.438 9:0.59908624 10:2.9545255 
0.17821854175596025 1:5998 2:149.49756 3:52.129495 4:0.93723515 5:6125 6:87.389306 7:0.49244663 8:334.277 9:0.67453321 10:2.8678114 
0.18000446141445939 1:6173 2:156.4143 3:51.441981 4:0.94437073 5:6391 6:88.654993 7:0.47598119 8:346.854 9:0.64478173 10:3.0405964 
0.18001878497521567 1:4094 2:128.71836 3:41.207771 4:0.94737058 5:4212 6:72.198634 7:0.46218108 8:282.455 9:0.64485069 10:3.123643 
0.18001913013004395 1:5730 2:142.26297 3:53.01124 4:0.92798059 5:5959 6:85.414651 7:0.62911726 8:324.414 9:0.68417202 10:2.6836378 
0.17960264474794368 1:6604 2:169.57573 3:50.536595 4:0.95456029 5:6753 6:91.697731 7:0.4331628 8:368.444 9:0.61132753 10:3.3555036 
0.17936891600780797 1:6329 2:154.78382 3:53.65852 4:0.93798809 5:6530 6:89.768219 7:0.56650555 8:348.927 9:0.65324457 10:2.8846085 
0.17851508290748452 1:5702 2:148.34557 3:49.734391 4:0.94212552 5:5886 6:85.205703 7:0.51001789 8:330.246 9:0.65699482 10:2.9827564 
0.18002210307411878 1:5431 2:144.49909 3:48.654925 4:0.94160682 5:5611 6:83.156262 7:0.50947467 8:323.159 9:0.6535174 10:2.9698759 
0.17996953426827994 1:7301 2:166.6479 3:56.552499 4:0.94065902 5:7462 6:96.415361 7:0.69765886 8:373.496 9:0.65768858 10:2.9467822 
0.17994642203284689 1:6338 2:151.79135 3:54.034545 4:0.93449392 5:6459 6:89.832022 7:0.82849673 8:341.631 9:0.68241341 10:2.8091538 
0.17996555414502621 1:6114 2:160.25919 3:50.050459 4:0.94998042 5:6344 6:88.230304 7:0.46850575 8:359.49 9:0.59451343 10:3.2019524 
0.17786081928775638 1:5774 2:142.81407 3:52.594699 4:0.92971733 5:5953 6:85.741968 7:0.67484806 8:328.474 9:0.67248816 10:2.71537 
0.17837879281874197 1:5351 2:149.45575 3:46.768468 4:0.94977778 5:5523 6:82.541534 7:0.49712003 8:328.658 9:0.62252443 10:3.1956521 
0.17982493859973403 1:6311 2:146.31477 3:55.799209 4:0.92442489 5:6523 6:89.640475 7:0.60450192 8:344.164 9:0.66954098 10:2.6221657 
0.18001592050271131 1:4714 2:133.05874 3:46.255666 4:0.93763053 5:4865 6:77.472906 7:0.64931129 8:300.265 9:0.65703729 10:2.8765934 
0.16182415750425577 1:5437 2:137.28262 3:52.043943 4:0.92535541 5:5610 6:83.202184 7:0.52198541 8:312.697 9:0.69874991 10:2.6378213 
0.14193408714253619 1:5479 2:140.96984 3:50.768078 4:0.93290046 5:5692 6:83.522928 7:0.63020474 8:325.499 9:0.64984809 10:2.7767418 
0.17103959009497605 1:5544 2:144.48204 3:49.728525 4:0.93890192 5:5654 6:84.016903 7:0.78638298 8:320.717 9:0.67731255 10:2.9054159 
0.18003504100523443 1:4819 2:114.64026 3:54.573284 4:0.87942393 5:4919 6:78.330973 7:0.56507974 8:276.798 9:0.79038901 10:2.1006663 
0.1799563700333543 1:6446 2:162.78883 3:51.284691 4:0.94907901 5:6564 6:90.594162 7:0.46927781 8:353.76 9:0.64726588 10:3.1742188 
0.18003399837225562 1:6853 2:172.40055 3:51.818129 4:0.95376031 5:7043 6:93.410442 7:0.48901099 8:375.252 9:0.61156773 10:3.3270315 
0.17931405815905027 1:5702 2:140.48656 3:52.749553 4:0.92683148 5:5851 6:85.205703 7:0.56099961 8:319.833 9:0.7004716 10:2.6632748 
0.1654678832052689 1:5959 2:144.58629 3:53.091188 4:0.93014446 5:6125 6:87.104733 7:0.78625148 8:330.897 9:0.68390785 10:2.7233576 
0.17315745395268861 1:6275 2:158.26328 3:51.018183 4:0.94661622 5:6447 6:89.38444 7:0.46058426 8:352.347 9:0.63515897 10:3.1020956 
0.16851676501363821 1:5685 2:155.52039 3:47.431406 4:0.95235712 5:5887 6:85.078592 7:0.48047667 8:344.702 9:0.60124673 10:3.2788485 
0.1613427358241179 1:6149 2:153.42996 3:51.695203 4:0.94152959 5:6334 6:88.482484 7:0.71633271 8:350.101 9:0.63041662 10:2.9679729 
0.18002988697733274 1:4419 2:126.9039 3:45.11861 4:0.93466347 5:4549 6:75.009636 7:0.55570926 8:282.956 9:0.69357918 10:2.8126731 
0.17998454093747654 1:5900 2:148.23152 3:51.599284 4:0.93745768 5:6148 6:86.672448 7:0.63921993 8:341.277 9:0.63657244 10:2.8727438 
0.18000332237677252 1:6722 2:162.23334 3:54.040043 4:0.94289125 5:6933 6:92.51333 7:0.81301403 8:361.943 9:0.64480442 10:3.002095 
0.16677037465396452 1:4684 2:132.19864 3:45.959598 4:0.9376223 5:4809 6:77.225993 7:0.47747197 8:297.755 9:0.6639091 10:2.8764099 
0.18001834277879936 1:3028 2:81.277552 3:49.167362 4:0.79627742 5:3114 6:62.091621 7:0.75360876 8:211.667 9:0.84929668 10:1.6530794 
0.17572890134398994 1:5993 2:151.9659 3:50.773796 4:0.94253299 5:6131 6:87.352874 7:0.73299902 8:333.816 9:0.6758337 10:2.9929986 
0.17940757194224616 1:3821 2:100.54805 3:48.735524 4:0.8746811 5:3898 6:69.749898 7:0.82066151 8:240.926 9:0.82721721 10:2.0631367 
0.13811449937279435 1:6031 2:145.13681 3:54.189246 4:0.92768386 5:6180 6:87.629377 7:0.55564769 8:331.66 9:0.68899013 10:2.6783324 
0.17996824743362447 1:5587 2:148.48687 3:48.705267 4:0.94467404 5:5723 6:84.342097 7:0.46207923 8:338.486 9:0.61278357 10:3.048682 
0.17959838176488779 1:6114 2:150.86942 3:52.958848 4:0.93636631 5:6273 6:88.230304 7:0.82621622 8:337.042 9:0.67634339 10:2.8488047 
0.17980435325056002 1:3938 2:94.269398 3:54.302169 4:0.8174273 5:4009 6:70.809726 7:0.84145299 8:238.395 9:0.8707456 10:1.7360153 
0.17938869272194935 1:5404 2:153.71304 3:45.737961 4:0.95470492 5:5602 6:82.949301 7:0.79529065 8:334.42 9:0.60721252 10:3.3607321 
0.17919355764432882 1:6145 2:158.37863 3:50.33606 4:0.94815072 5:6270 6:88.4537 7:0.45518519 8:347.138 9:0.64080728 10:3.1464248 
0.15481161766257079 1:5591 2:155.60924 3:46.226656 4:0.95485606 5:5705 6:84.372284 7:0.45622195 8:334.955 9:0.62621927 10:3.3662231 
0.17978650948372632 1:5707 2:152.58247 3:48.665622 4:0.94777277 5:5887 6:85.243053 7:0.54696186 8:337.861 9:0.62826318 10:3.1353236 
0.17996521500242063 1:5616 2:148.8273 3:49.287444 4:0.94357038 5:5816 6:84.560708 7:0.58683386 8:335.604 9:0.62658891 10:3.0195784 
0.17995854080618148 1:6438 2:149.10481 3:56.091413 4:0.92654343 5:6608 6:90.537927 7:0.80555556 8:339.349 9:0.70253455 10:2.6582466 
0.18003430568345047 1:7097 2:167.06467 3:55.360027 4:0.94350129 5:7283 6:95.058829 7:0.46937831 8:372.221 9:0.64369914 10:3.0177851 
0.1799803005626133 1:4420 2:133.21878 3:42.820155 4:0.94693425 5:4531 6:75.018123 7:0.58465608 8:293.434 9:0.64507657 10:3.1111232 
0.17984420189833955 1:6786 2:162.92384 3:53.580329 4:0.94437613 5:6927 6:92.952695 7:0.78089758 8:360.38 9:0.65660224 10:3.0407398 
0.17849652698762009 1:6092 2:149.70183 3:53.091547 4:0.93499966 5:6212 6:88.071422 7:0.79633987 8:337.455 9:0.67226117 10:2.8196925 
0.17465047403682529 1:6684 2:160.28459 3:53.884996 4:0.94179659 5:6818 6:92.251467 7:0.59025079 8:356.205 9:0.66198216 10:2.9745682 
0.17977542500558436 1:6360 2:153.55312 3:53.727497 4:0.93678886 5:6575 6:89.987796 7:0.49298504 8:356.133 9:0.63014797 10:2.8579987 
0.17938373212844108 1:5385 2:137.4379 3:50.707343 4:0.92945031 5:5507 6:82.803351 7:0.52028986 8:311.625 9:0.69683666 10:2.7104142 
0.15510413374408755 1:6159 2:152.70398 3:52.21018 4:0.9397347 5:6314 6:88.554403 7:0.49878523 8:338.461 9:0.67562047 10:2.9247931 
0.17996536690720966 1:4742 2:126.08953 3:48.542906 4:0.92292174 5:4850 6:77.702651 7:0.57215251 8:285.223 9:0.73249106 10:2.5974862 
0.17377124988080003 1:6011 2:147.86009 3:52.916809 4:0.93376593 5:6130 6:87.483958 7:0.48981421 8:330.631 9:0.69098632 10:2.7941989 
0.13422682226769328 1:6065 2:150.6212 3:52.124078 4:0.93821212 5:6257 6:87.876037 7:0.72879116 8:340.491 9:0.65739954 10:2.8896664 
0.1797657100008897 1:5997 2:152.89612 3:50.771528 4:0.94325632 5:6201 6:87.382021 7:0.69393659 8:341.632 9:0.64569411 10:3.0114539 
0.17996488300444263 1:6602 2:153.17673 3:56.144637 4:0.93040425 5:6779 6:91.683845 7:0.50870704 8:348.607 9:0.68267371 10:2.7282522 
0.17996987789835731 1:5577 2:138.56629 3:52.560806 4:0.92526602 5:5830 6:84.266583 7:0.5095943 8:323.027 9:0.67163429 10:2.6363045 
0.16024753062451869 1:6488 2:147.43713 3:56.674748 4:0.92316687 5:6632 6:90.888823 7:0.56540305 8:336.514 9:0.71997005 10:2.6014607 
0.1800343074232017 1:7148 2:159.00133 3:58.219373 4:0.93055328 5:7298 6:95.399771 7:0.73200205 8:358.801 9:0.69772955 10:2.7310725 
0.17109560111467756 1:6363 2:156.6707 3:52.633323 4:0.94188028 5:6605 6:90.009017 7:0.71898305 8:352.235 9:0.64447603 10:2.9766447 
0.16973032910511465 1:7001 2:159.75875 3:56.925689 4:0.93436291 5:7162 6:94.413718 7:0.50035735 8:360.071 9:0.67856843 10:2.8064439 
0.17975247053767418 1:4899 2:155.30253 3:40.328768 4:0.96569506 5:5066 6:78.978481 7:0.6621165 8:338.778 9:0.5363977 10:3.8509119 
0.18001221924206026 1:5474 2:141.95085 3:50.387777 4:0.93487908 5:5667 6:83.484809 7:0.645595 8:322.38 9:0.66187881 10:2.8171684 
0.17998855942345854 1:5861 2:148.5058 3:51.679582 4:0.93749562 5:6119 6:86.385514 7:0.54648019 8:340.624 9:0.63479149 10:2.8735874 
0.17152643467419296 1:5832 2:151.95021 3:50.157116 4:0.94394976 5:6002 6:86.171533 7:0.52554745 8:336.919 9:0.6456191 10:3.0294845 
0.17995495247488158 1:6199 2:163.42932 3:49.370203 4:0.95327972 5:6399 6:88.841499 7:0.52276944 8:360.373 9:0.59982838 10:3.3102826 
0.17977627898721837 1:5352 2:139.82594 3:50.026372 4:0.93380742 5:5522 6:82.549246 7:0.75126334 8:316.556 9:0.67115815 10:2.7950445 
0.17996534970654629 1:5156 2:145.39504 3:46.255909 4:0.9480439 5:5357 6:81.023596 7:0.47878169 8:323.697 9:0.61836575 10:3.143275 
0.17900428791065442 1:5657 2:139.05468 3:52.783188 4:0.92515652 5:5792 6:84.868817 7:0.55943434 8:316.542 9:0.70946889 10:2.6344502 
0.15984810760153881 1:6484 2:147.33734 3:56.960547 4:0.92224769 5:6634 6:90.860801 7:0.52180911 8:337.627 9:0.7147901 10:2.5866561 
0.17872017691004996 1:5471 2:135.96718 3:52.765596 4:0.92162738 5:5640 6:83.461929 7:0.51419173 8:314.297 9:0.69597895 10:2.5768149 
0.17997189955755089 1:5321 2:145.04494 3:47.1205 4:0.94575927 5:5556 6:82.309827 7:0.61742864 8:342.361 9:0.57047229 10:3.0781706 
0.1769518247433787 1:6518 2:156.13888 3:54.368885 4:0.93741711 5:6664 6:91.098712 7:0.53000488 8:349.342 9:0.67115467 10:2.8718426 
0.17853615208001511 1:6284 2:158.48606 3:51.426775 4:0.94588992 5:6477 6:89.448518 7:0.4603663 8:356.367 9:0.62180052 10:3.081781 
0.17895810909124735 1:6180 2:162.97036 3:49.430972 4:0.95289109 5:6345 6:88.705244 7:0.46835923 8:356.058 9:0.61257158 10:3.2969281 
0.18003460361818935 1:6022 2:164.36746 3:47.043691 4:0.95816677 5:6127 6:87.563968 7:0.48195278 8:355.066 9:0.60025037 10:3.4939321 
0.17980219113056098 1:4915 2:131.14309 3:48.142947 4:0.93018053 5:5008 6:79.107347 7:0.81916667 8:291.324 9:0.72774773 10:2.7240355 
0.17934878417298333 1:3467 2:97.973806 3:47.133155 4:0.87667717 5:3598 6:66.44036 7:0.61471631 8:240.017 9:0.75627492 10:2.07866 
0.18001914713946043 1:6035 2:160.38065 3:49.006061 4:0.95217253 5:6201 6:87.658432 7:0.57095553 8:350.44 9:0.61753247 10:3.2726698 
0.17894456004371354 1:5929 2:145.58686 3:53.032748 4:0.93129386 5:6070 6:86.885196 7:0.52045295 8:328.03 9:0.69241136 10:2.7452257 
0.17998346684888827 1:6190 2:147.27227 3:55.844464 4:0.92531802 5:6412 6:88.776983 7:0.65676393 8:341.591 9:0.66663433 10:2.6371866 
0.17996995003302235 1:5755 2:145.65397 3:51.070664 4:0.93651404 5:5988 6:85.60078 7:0.69630974 8:332.634 9:0.65361486 10:2.8520085 
0.16700126001628782 1:6840 2:165.95308 3:53.619517 4:0.94636467 5:7012 6:93.321801 7:0.83823529 8:368.277 9:0.63374825 10:3.0950127 
0.17996792284493546 1:5869 2:141.67789 3:53.744682 4:0.92525563 5:5984 6:86.44445 7:0.57202729 8:322.281 9:0.71007557 10:2.6361284 
0.1798296755053479 1:6449 2:153.2261 3:54.526027 4:0.9345418 5:6569 6:90.615241 7:0.50382812 8:343.813 9:0.68557923 10:2.8101462 
0.1761900490156415 1:6619 2:161.82257 3:53.173296 4:0.94447263 5:6791 6:91.801811 7:0.54174169 8:355.692 9:0.65743686 10:3.0433053 
0.17938412229866998 1:6401 2:151.29742 3:55.219115 4:0.93101903 5:6618 6:90.277385 7:0.57151786 8:345.28 9:0.67470642 10:2.7399465 
0.17986113636249276 1:6797 2:157.94848 3:56.065515 4:0.9348812 5:7012 6:93.028002 7:0.52960885 8:355.379 9:0.67630658 10:2.8172127 
0.1800284532755847 1:4394 2:116.29375 3:49.333119 4:0.90556325 5:4511 6:74.797156 7:0.53221899 8:274.946 9:0.73042412 10:2.3573159 
0.1767728656960163 1:5983 2:157.40847 3:49.125407 4:0.95005296 5:6127 6:87.279964 7:0.66037528 8:345.486 9:0.62989471 10:3.2042171 
0.17994597145467203 1:6351 2:153.27343 3:54.128985 4:0.93556555 5:6584 6:89.924103 7:0.5312866 8:349.895 9:0.65189328 10:2.8316333 
0.17939469304944489 1:6821 2:164.50898 3:54.100912 4:0.94437765 5:6998 6:93.192097 7:0.49001437 8:368.132 9:0.63248579 10:3.0407801 
0.17932357818524053 1:5570 2:153.68501 3:46.856625 4:0.9523884 5:5709 6:84.213682 7:0.4510852 8:334.524 9:0.62547578 10:3.2798992 
0.17985059891953567 1:5784 2:158.59094 3:47.717854 4:0.95365999 5:5967 6:85.816185 7:0.70847624 8:356.072 9:0.57327434 10:3.3235136 
0.1771527023036979 1:5904 2:144.93535 3:52.661784 4:0.93165399 5:6059 6:86.701824 7:0.59099099 8:327.615 9:0.69123967 10:2.7521921 
0.1309868593947616 1:5861 2:157.46197 3:48.155932 4:0.95208749 5:6012 6:86.385514 7:0.50956355 8:343.983 9:0.62245452 10:3.2698354 
0.17949014359426302 1:4320 2:133.81034 3:41.921512 4:0.94965733 5:4421 6:74.164647 7:0.45037531 8:294.828 9:0.6245341 10:3.1919253 
0.1800166088928587 1:5766 2:153.16091 3:48.459579 4:0.94862703 5:5898 6:85.682549 7:0.57191034 8:334.578 9:0.64727635 10:3.160591 
0.18003300626433821 1:6464 2:168.78619 3:49.216738 4:0.95654272 5:6572 6:90.720562 7:0.42498356 8:362.449 9:0.61832585 10:3.4294468 
0.1303655271188838 1:6245 2:156.53976 3:51.676197 4:0.94394055 5:6386 6:89.170516 7:0.49211978 8:346.307 9:0.65436455 10:3.029243 
0.17660651866646765 1:6629 2:157.59204 3:54.818971 4:0.93754883 5:6827 6:91.871132 7:0.54925843 8:356.098 9:0.65692957 10:2.8747719 
0.17989706669163347 1:5184 2:141.80727 3:48.051391 4:0.94084041 5:5376 6:81.2433 7:0.69565217 8:315.945 9:0.65260723 10:2.9511584 
0.14443171493132834 1:6529 2:165.16461 3:51.473868 4:0.95019634 5:6709 6:91.17555 7:0.47072819 8:362.732 9:0.62356939 10:3.208708 
0.17804779531887643 1:5741 2:151.7236 3:49.588718 4:0.94508111 5:5922 6:85.496598 7:0.56561576 8:338.68 9:0.62895317 10:3.0596395 
0.17167949198084761 1:6261 2:149.52571 3:54.615682 4:0.93090575 5:6457 6:89.284673 7:0.78873772 8:341.805 9:0.67343665 10:2.7377797 
0.17949383765260399 1:6413 2:159.19182 3:52.211783 4:0.94468456 5:6591 6:90.361968 7:0.54532313 8:353.757 9:0.64396315 10:3.0489636 
0.17996291552255567 1:6673 2:151.72091 3:56.891269 4:0.92703566 5:6864 6:92.175525 7:0.64373915 8:348.298 9:0.69124026 10:2.6668575 
0.17874869833783003 1:6561 2:158.89816 3:53.220744 4:0.94224081 5:6754 6:91.398713 7:0.69649682 8:359.694 9:0.63725539 10:2.9856434 
0.17994281122379974 1:6160 2:151.73882 3:53.105185 4:0.93675808 5:6405 6:88.561592 7:0.56255708 8:359.374 9:0.59937313 10:2.8573259 
0.17612008782096633 1:5244 2:143.11768 3:47.413318 4:0.94352932 5:5358 6:81.712105 7:0.8028169 8:316.391 9:0.65830068 10:3.0185122 
0.16433259635746372 1:6597 2:162.7623 3:53.069942 4:0.94534978 5:6734 6:91.64912 7:0.79290865 8:359.04 9:0.6430884 10:3.0669394 
0.17479153784223495 1:6402 2:155.86368 3:53.387168 4:0.93950881 5:6562 6:90.284437 7:0.79945055 8:350.15 9:0.65617136 10:2.9194971 
0.15802025106020512 1:5844 2:141.16934 3:53.295316 4:0.92599835 5:5963 6:86.260141 7:0.53555718 8:323.624 9:0.70119471 10:2.6488132 
0.17750496784832553 1:6472 2:150.51992 3:55.423676 4:0.92974072 5:6644 6:90.776684 7:0.79158513 8:346.776 9:0.676317 10:2.7158055 
0.17937777630215768 1:5322 2:143.36674 3:48.256145 4:0.94165046 5:5446 6:82.317561 7:0.49571535 8:317.8 9:0.66218136 10:2.9709529 
0.17996953725418774 1:6705 2:165.79769 3:52.725366 4:0.94808727 5:6959 6:92.396272 7:0.63099944 8:366.145 9:0.62849587 10:3.1445527 
0.17996690157030643 1:6441 2:157.23193 3:54.773501 4:0.93736038 5:6735 6:90.559019 7:0.48552691 8:355.637 9:0.63995478 10:2.8705839 
0.17570696229039381 1:6500 2:158.34254 3:53.477225 4:0.94124258 5:6660 6:90.972837 7:0.47183508 8:354.037 9:0.65166728 10:2.9609341 
0.17297997652270983 1:5612 2:140.67634 3:51.972405 4:0.92925193 5:5760 6:84.530588 7:0.49951046 8:319.855 9:0.68932057 10:2.7067506 
0.15249817954571679 1:5618 2:144.43643 3:50.515732 4:0.93684542 5:5732 6:84.575763 7:0.48231456 8:322.932 9:0.67697002 10:2.8592366 
0.1800292526818672 1:6585 2:165.84583 3:51.112625 4:0.95132366 5:6724 6:91.565727 7:0.80197296 8:360.71 9:0.63598852 10:3.2447136 
0.17978805150212207 1:6367 2:159.80884 3:52.318905 4:0.94489127 5:6596 6:90.037304 7:0.48588217 8:357.53 9:0.62592131 10:3.0545142 
0.17718178549209751 1:6538 2:156.20057 3:54.340571 4:0.93753547 5:6663 6:91.23837 7:0.47760976 8:350.678 9:0.66809426 10:2.8744743 
0.18000784935700909 1:5486 2:141.3392 3:50.323989 4:0.93446646 5:5644 6:83.576265 7:0.54947917 8:317.17 9:0.68530115 10:2.808585 
0.17988030759688478 1:6380 2:162.31592 3:51.078956 4:0.949195 5:6517 6:90.129176 7:0.82932536 8:352.622 9:0.64478026 10:3.1777455 
0.17998300774645648 1:4807 2:150.58601 3:41.352126 4:0.96155626 5:4916 6:78.233385 7:0.48190476 8:320.065 9:0.58966807 10:3.6415542 
0.16897588874406033 1:6029 2:150.71787 3:51.809908 4:0.93905965 5:6161 6:87.614846 7:0.48124202 8:337.346 9:0.66573903 10:2.9090551 
0.17959399157766104 1:5839 2:154.16601 3:48.606633 4:0.94899617 5:5965 6:86.223232 7:0.60595683 8:339.209 9:0.63769587 10:3.1717073 
0.17998887063640104 1:6151 2:168.07524 3:47.542298 4:0.95916027 5:6293 6:88.496872 7:0.59361127 8:361.53 9:0.59138038 10:3.535278 
0.17944207089752201 1:6409 2:148.06385 3:56.005509 4:0.92570249 5:6609 6:90.333782 7:0.59975669 8:347.422 9:0.66724527 10:2.6437372 
0.17995108559347053 1:5752 2:151.47479 3:49.213968 4:0.94574881 5:5910 6:85.578466 7:0.45477546 8:342.498 9:0.61618718 10:3.0778822 
0.17812764620444455 1:6565 2:160.09114 3:53.134904 4:0.94331314 5:6748 6:91.426569 7:0.47366522 8:355.648 9:0.65223463 10:3.0129187 
0.1798240427747736 1:5442 2:140.34284 3:50.30553 4:0.93354991 5:5601 6:83.240432 7:0.70174081 8:320.717 9:0.66485117 10:2.7898094 
0.17996715995602697 1:5838 2:149.53721 3:50.675031 4:0.94082994 5:6017 6:86.215848 7:0.48972402 8:339.253 9:0.63742128 10:2.9509051 
0.17996990814298067 1:5383 2:143.61012 3:48.830201 4:0.94041848 5:5501 6:82.787973 7:0.74330295 8:321.883 9:0.65288721 10:2.9410101 
0.14905997770946305 1:6456 2:157.75848 3:52.93634 4:0.94202131 5:6634 6:90.664406 7:0.64238806 8:356.171 9:0.63952316 10:2.9801546 
0.163643160165511 1:6399 2:158.74643 3:52.330662 4:0.94410343 5:6604 6:90.263281 7:0.45707143 8:358.567 9:0.62543379 10:3.0335261 
0.17978182561714287 1:5679 2:150.68395 3:48.82303 4:0.94605383 5:5841 6:85.033684 7:0.46972705 8:336.881 9:0.6288234 10:3.0863292 
0.17955002266538234 1:4347 2:140.54872 3:41.001603 4:0.95650217 5:4511 6:74.39605 7:0.6333042 8:303.878 9:0.59156298 10:3.4278834 
0.091703481167467876 1:5142 2:139.86969 3:47.579779 4:0.94036316 5:5255 6:80.91352 7:0.47558269 8:309.277 9:0.67553319 10:2.9396877 
0.18003464091472396 1:4498 2:125.57311 3:46.449824 4:0.92907053 5:4639 6:75.677153 7:0.67174433 8:286.669 9:0.687809 10:2.7034142 
0.17882862002284694 1:6214 2:159.07823 3:51.367676 4:0.94643026 5:6412 6:88.948921 7:0.4514676 8:352.332 9:0.62903808 10:3.0968547 
0.18001701103086126 1:5499 2:146.44825 3:48.426402 4:0.94374559 5:5596 6:83.675231 7:0.46140292 8:326.438 9:0.6484734 10:3.0241408 
0.17992282972529655 1:6163 2:158.26338 3:51.003781 4:0.94664727 5:6382 6:88.583155 7:0.47701238 8:346.871 9:0.64367412 10:3.1029735 
0.17193376059102128 1:6536 2:163.95789 3:51.603385 4:0.94917938 5:6740 6:91.224414 7:0.71666667 8:363.109 9:0.62294238 10:3.1772701 
0.14388544956116922 1:5374 2:141.132 3:48.783363 4:0.93836067 5:5545 6:82.718736 7:0.52893701 8:325.598 9:0.6370068 10:2.8930355 
0.1799799527460279 1:6798 2:167.24704 3:52.939421 4:0.94858107 5:7011 6:93.034845 7:0.47356322 8:369.796 9:0.62469295 10:3.1592155 
0.16715594820615295 1:6754 2:158.42297 3:54.909463 4:0.93801288 5:6923 6:92.733273 7:0.48167166 8:353.084 9:0.68079263 10:2.8851669 
0.17998496222505783 1:6122 2:148.89755 3:53.175769 4:0.93405473 5:6304 6:88.288009 7:0.63400994 8:343.369 9:0.65250076 10:2.8001016 
0.17085983641502028 1:6577 2:161.93295 3:52.358293 4:0.94628519 5:6728 6:91.51009 7:0.5550211 8:356.453 9:0.65047882 10:3.0927851 
0.17996893717916559 1:5825 2:148.34922 3:51.909149 4:0.93678263 5:6131 6:86.119802 7:0.64657565 8:338.945 9:0.63715828 10:2.8578626 
0.16735179598254341 1:6521 2:155.85972 3:53.789641 4:0.93856014 5:6656 6:91.119674 7:0.49559204 8:347.287 9:0.67943359 10:2.8975787 
0.17996824038171266 1:6103 2:149.7687 3:52.395689 4:0.93680795 5:6203 6:88.150899 7:0.49313187 8:334.716 9:0.6845423 10:2.8584164 
0.17998896168484801 1:5832 2:144.42998 3:52.103211 4:0.9326623 5:5948 6:86.171533 7:0.73395419 8:323.545 9:0.70009664 10:2.7719978 
0.17978136031237502 1:5310 2:141.21575 3:48.723315 4:0.93859258 5:5447 6:82.224704 7:0.66341829 8:317.549 9:0.66173314 10:2.8983198 
0.18001557560060288 1:6000 2:157.55374 3:49.563893 4:0.94922962 5:6171 6:87.403874 7:0.46382189 8:345.524 9:0.63154555 10:3.1788007 
0.17931406206941314 1:5155 2:135.08671 3:49.11033 4:0.93157597 5:5292 6:81.015738 7:0.52007667 8:303.592 9:0.70284229 10:2.7506781 
0.18003366415025612 1:5333 2:145.57244 3:47.389482 4:0.94552867 5:5514 6:82.402588 7:0.47261609 8:323.995 9:0.63841757 10:3.0718301 
0.17962655605437991 1:6515 2:162.25269 3:52.099215 4:0.94704556 5:6722 6:91.077745 7:0.68027566 8:361.787 9:0.62548712 10:3.1143021 
0.17957601894343139 1:4538 2:121.54364 3:47.947932 4:0.91889959 5:4632 6:76.012901 7:0.61657609 8:277.126 9:0.74253992 10:2.5349089 
0.17958164688706213 1:5715 2:145.90948 3:50.486308 4:0.93823039 5:5807 6:85.302778 7:0.49034749 8:325.974 9:0.67586534 10:2.8900801 
0.17997047040274969 1:6585 2:158.81413 3:53.790475 4:0.94089413 5:6744 6:91.565727 7:0.80158247 8:356.178 9:0.65227609 10:2.9524583 
0.17998996645186546 1:6257 2:164.72482 3:49.198047 4:0.95435705 5:6424 6:89.256147 7:0.60771173 8:358.933 9:0.61030825 10:3.3481983 
0.17996748417964503 1:5556 2:153.18295 3:47.006547 4:0.95175292 5:5654 6:84.107782 7:0.47293156 8:330.437 9:0.63943258 10:3.2587577 
0.17949873645760012 1:6103 2:148.79739 3:53.956219 4:0.93193889 5:6338 6:88.150899 7:0.54066265 8:340.145 9:0.66286494 10:2.7577431 
0.17536255105466142 1:5987 2:157.86239 3:49.413029 4:0.94974874 5:6112 6:87.309136 7:0.45249792 8:345.119 9:0.6316571 10:3.1947523 
0.17972348536299582 1:4970 2:136.90738 3:46.860574 4:0.93959822 5:5088 6:79.548731 7:0.49110672 8:303.494 9:0.67805673 10:2.9215899 
0.17952614667490502 1:6100 2:155.57531 3:51.126186 4:0.94445993 5:6287 6:88.12923 7:0.46550672 8:344.766 9:0.64489772 10:3.0429673 
0.17352644492734887 1:6677 2:165.38639 3:52.66311 4:0.94794816 5:6908 6:92.203148 7:0.58324598 8:369.304 9:0.61520976 10:3.1404599 
0.17935586030880191 1:5927 2:157.73766 3:48.872002 4:0.95079167 5:6074 6:86.87054 7:0.46074316 8:343.183 9:0.63240203 10:3.2275669 
0.17484139248191538 1:6675 2:157.46321 3:55.135429 4:0.93669439 5:6851 6:92.189338 7:0.7829912 8:353.086 9:0.67282193 10:2.8559352 
0.18000042073145006 1:6173 2:154.97764 3:51.660159 4:0.94280688 5:6309 6:88.654993 7:0.49702093 8:345.166 9:0.65110364 10:2.999945 
0.17943752289549064 1:5973 2:159.41126 3:48.590835 4:0.9524118 5:6108 6:87.206994 7:0.59291245 8:347.355 9:0.62209294 10:3.2806857 
0.17647777910579562 1:5748 2:147.05561 3:50.67285 4:0.93875589 5:5890 6:85.548705 7:0.50844759 8:331.471 9:0.65740885 10:2.9020592 
0.17996807954055755 1:6121 2:158.03548 3:50.677623 4:0.94719015 5:6281 6:88.280798 7:0.77974522 8:352.449 9:0.61921245 10:3.1184469 
0.17995238917360878 1:5160 2:137.40355 3:49.129615 4:0.93389128 5:5307 6:81.055019 7:0.4937799 8:307.042 9:0.68780288 10:2.7967561 
0.17948591067388303 1:5451 2:144.03785 3:48.854702 4:0.94072163 5:5583 6:83.309236 7:0.79460641 8:324.744 9:0.64953682 10:2.9482904 
0.1799645966544749 1:3761 2:115.32937 3:41.921419 4:0.93159693 5:3840 6:69.200101 7:0.49794784 8:257.769 9:0.71129839 10:2.7510846 
0.17994166521904292 1:6338 2:148.70902 3:55.424039 4:0.92795138 5:6551 6:89.832022 7:0.54426793 8:347.812 9:0.65837446 10:2.6831141 
