svm_type one_class
kernel_type rbf
gamma 0.10000000000000001
nr_class 2
total_sv 3518
rho 0.2072371793005196
SV
0.20489536982348475 1:6316 2:150.52707 3:54.586302 4:0.93193146 5:6488 6:89.675978 7:0.62208214 8:340.88 9:0.68304441 10:2.7575978 
0.14931338831598501 1:5623 2:151.2157 3:48.305252 4:0.94760448 5:5806 6:84.613391 7:0.47149086 8:338.211 9:0.6177354 10:3.1304194 
0.20718864686513117 1:5296 2:129.18125 3:53.314295 4:0.91086282 5:5506 6:82.116239 7:0.57254054 8:311.647 9:0.68522301 10:2.4230133 
0.20692565596109155 1:6615 2:158.45042 3:54.662617 4:0.93860913 5:6843 6:91.774068 7:0.80523433 8:353.061 9:0.66686852 10:2.8986981 
0.20718609036501184 1:5175 2:144.73057 3:46.714488 4:0.9464779 5:5446 6:81.172746 7:0.5919698 8:323.272 9:0.62227741 10:3.0981945 
0.20454799836466364 1:6604 2:158.48758 3:54.142013 4:0.93983934 5:6780 6:91.697731 7:0.67733333 8:352.581 9:0.66757355 10:2.9272568 
0.20341936199909355 1:5546 2:145.52061 3:49.498266 4:0.94037261 5:5691 6:84.032056 7:0.59531988 8:327.118 9:0.65129965 10:2.9399133 
0.18217073191067701 1:6863 2:161.26393 3:55.724288 4:0.9384014 5:7086 6:93.47857 7:0.6230029 8:362.614 9:0.65589562 10:2.8939613 
0.20700030481375353 1:4940 2:128.22213 3:51.074638 4:0.91724246 5:5154 6:79.30828 7:0.4992925 8:295.416 9:0.71132617 10:2.5104854 
0.20753079907803201 1:6678 2:160.56388 3:53.759094 4:0.94228411 5:6795 6:92.210052 7:0.76935484 8:354.392 9:0.66817229 10:2.9867297 
0.20643088058352455 1:5888 2:147.34123 3:52.002263 4:0.93564685 5:6110 6:86.584262 7:0.52463691 8:340.559 9:0.63795925 10:2.8333618 
0.20686272510174702 1:5195 2:155.67501 3:42.941025 4:0.96120425 5:5303 6:81.32945 7:0.74791247 8:334.296 9:0.58416167 10:3.6253212 
0.19260757514287349 1:5837 2:154.26018 3:49.650879 4:0.94678574 5:6068 6:86.208464 7:0.69027909 8:342.872 9:0.62392949 10:3.1068974 
0.20735304572007754 1:6918 2:159.82455 3:55.802983 4:0.93706629 5:7096 6:93.85239 7:0.7343949 8:358.073 9:0.67802744 10:2.8640862 
0.19518842186414742 1:6002 2:154.08168 3:50.73258 4:0.9442401 5:6169 6:87.418441 7:0.51817318 8:343.048 9:0.64090856 10:3.0371347 
0.20463763684608549 1:5592 2:147.64281 3:49.266775 4:0.94268324 5:5736 6:84.379829 7:0.48770277 8:327.096 9:0.65679004 10:2.9968029 
0.20720540635949231 1:5211 2:131.30293 3:51.692198 4:0.91924474 5:5336 6:81.454596 7:0.57592838 8:302.97 9:0.71339766 10:2.5400918 
0.19286129249928177 1:5566 2:149.17821 3:48.325357 4:0.94607633 5:5746 6:84.183438 7:0.74213333 8:333.32 9:0.62955013 10:3.0869552 
0.20642814009436625 1:6764 2:158.77876 3:55.831867 4:0.93613789 5:6984 6:92.801898 7:0.49035813 8:355.888 9:0.67109928 10:2.8438733 
0.20614255710773494 1:6579 2:164.42876 3:51.564002 4:0.9495569 5:6711 6:91.524002 7:0.46966019 8:359.99 9:0.63795328 10:3.1888285 
0.2072938159986325 1:5529 2:141.64817 3:50.410478 4:0.93452971 5:5622 6:83.903167 7:0.76494189 8:317.309 9:0.69006766 10:2.8098955 
0.20741599220237594 1:6536 2:150.21145 3:56.642021 4:0.92617991 5:6751 6:91.224414 7:0.64879889 8:348.29 9:0.67707986 10:2.6519437 
0.20714778640754278 1:6699 2:148.7288 3:58.564945 4:0.91920898 5:7033 6:92.354923 7:0.51582352 8:374.186 9:0.60123572 10:2.5395532 
0.20289719433526837 1:5666 2:154.60106 3:46.806614 4:0.95306766 5:5803 6:84.936301 7:0.68223961 8:340.639 9:0.61361744 10:3.3029747 
0.20740158587399543 1:5966 2:151.88382 3:51.043706 4:0.94183675 5:6208 6:87.155878 7:0.53106641 8:344.206 9:0.63278509 10:2.9755641 
0.20660434574059178 1:6613 2:159.92411 3:53.567794 4:0.94223321 5:6750 6:91.760193 7:0.47771437 8:357.69 9:0.64952338 10:2.9854526 
0.20723989847592766 1:5631 2:153.47284 3:48.105508 4:0.9496059 5:5828 6:84.673561 7:0.63412162 8:337.108 9:0.62266904 10:3.1903383 
0.2071446092524519 1:6378 2:165.21233 3:49.801931 4:0.95348452 5:6586 6:90.115048 7:0.66855346 8:359.04 9:0.62173986 10:3.3173879 
0.20524923650561808 1:5489 2:143.87429 3:49.550966 4:0.93882132 5:5625 6:83.599114 7:0.62602646 8:321.71 9:0.66645982 10:2.9035617 
0.18105294976884584 1:6061 2:146.8129 3:53.253999 4:0.9318928 5:6200 6:87.847054 7:0.49868356 8:334.915 9:0.67902373 10:2.7568427 
0.20722615961990781 1:5841 2:142.62967 3:53.693826 4:0.92643441 5:6024 6:86.237997 7:0.49744507 8:325.272 9:0.69375114 10:2.6563514 
0.2076742330853425 1:5944 2:140.34829 3:55.418193 4:0.91874048 5:6107 6:86.995034 7:0.56192097 8:325.929 9:0.70314138 10:2.532531 
0.20624856999224561 1:5789 2:156.71568 3:47.692692 4:0.95256787 5:5939 6:85.853269 7:0.50330377 8:343.188 9:0.61765964 10:3.2859476 
0.20714016761959739 1:5760 2:157.73417 3:47.26793 4:0.95404346 5:5919 6:85.637958 7:0.78367347 8:340.175 9:0.62550036 10:3.3370231 
0.20725428100479759 1:4983 2:132.86033 3:48.336575 4:0.93147125 5:5069 6:79.6527 7:0.51744548 8:295.604 9:0.7166055 10:2.7486501 
0.20691617682676919 1:6469 2:169.70988 3:49.590653 4:0.95635467 5:6602 6:90.755642 7:0.42497701 8:363.466 9:0.61534607 10:3.4222151 
0.11805339675050588 1:4654 2:127.52129 3:47.631558 4:0.92762274 5:4809 6:76.978288 7:0.53298213 8:291.004 9:0.69061869 10:2.6772437 
0.20421825225627438 1:4023 2:109.41976 3:48.034065 4:0.89849247 5:4120 6:71.569845 7:0.84092809 8:262.097 9:0.7359288 10:2.2779617 
0.203576389525571 1:6305 2:156.00731 3:52.553423 4:0.94155291 5:6502 6:89.597853 7:0.55702801 8:349.134 9:0.64999597 10:2.9685471 
0.18197825860943895 1:5714 2:143.73375 3:51.677339 4:0.93313153 5:5856 6:85.295315 7:0.52552194 8:324.283 9:0.68281293 10:2.781369 
0.2069420559874792 1:5249 2:138.87045 3:48.965211 4:0.93577553 5:5434 6:81.751051 7:0.48155963 8:318.572 9:0.64993696 10:2.8361045 
0.20705535256560101 1:6052 2:157.27184 3:50.288621 4:0.94749991 5:6256 6:87.781807 7:0.44949495 8:349.503 9:0.62259692 10:3.1273843 
0.2069064243661646 1:5976 2:144.72341 3:53.497945 4:0.92916849 5:6183 6:87.228892 7:0.52037618 8:337.128 9:0.66074031 10:2.7052143 
0.20705915949825252 1:5190 2:156.96298 3:43.08037 4:0.96159795 5:5379 6:81.290302 7:0.82735533 8:335.883 9:0.57809761 10:3.6434918 
0.20709355618384556 1:6218 2:146.55642 3:54.642745 4:0.92789387 5:6334 6:88.977545 7:0.6832967 8:330.939 9:0.71345187 10:2.6820838 
0.20713318311423035 1:5549 2:143.07954 3:50.333641 4:0.93607977 5:5728 6:84.054781 7:0.71059034 8:323.04 9:0.66820848 10:2.8426225 
0.20686062260144311 1:5854 2:152.18441 3:49.475866 4:0.94567803 5:5979 6:86.333912 7:0.79108108 8:332.6 9:0.66499456 10:3.0759321 
0.20677752891850559 1:5309 2:139.27868 3:49.644905 4:0.93431709 5:5494 6:82.216961 7:0.60056561 8:317.665 9:0.66112542 10:2.8054981 
0.16866582122163898 1:5853 2:146.47701 3:51.578083 4:0.93595332 5:6022 6:86.326537 7:0.6386252 8:329.765 9:0.67636211 10:2.8399079 
0.20763360617555329 1:6187 2:153.53632 3:52.202979 4:0.94042395 5:6364 6:88.755468 7:0.50178427 8:346.382 9:0.64800648 10:2.9411409 
0.20706110537004316 1:5075 2:150.51268 3:43.482895 4:0.95735972 5:5187 6:80.384642 7:0.46296296 8:322.01 9:0.61504543 10:3.4614227 
0.20743142481503793 1:6770 2:167.71807 3:52.617875 4:0.94951286 5:6987 6:92.843049 7:0.77869795 8:368.384 9:0.62689819 10:3.1874732 
0.20692822047623621 1:4659 2:134.2026 3:44.723098 4:0.94283829 5:4789 6:77.019628 7:0.85314045 8:297.973 9:0.6593997 10:3.0007448 
0.20283096549318613 1:6200 2:155.00516 3:52.171566 4:0.94165504 5:6336 6:88.848664 7:0.53246307 8:341.774 9:0.66699643 10:2.9710659 
0.20709160226468037 1:5555 2:129.08079 3:56.881867 4:0.8976698 5:5787 6:84.100212 7:0.52604167 8:321.58 9:0.6750188 10:2.2692784 
0.20757948927529651 1:5437 2:137.85415 3:51.059133 4:0.92887826 5:5588 6:83.202184 7:0.52516179 8:318.338 9:0.67420541 10:2.6998921 
0.19011458069584719 1:6211 2:156.32376 3:51.865572 4:0.94335572 5:6364 6:88.927447 7:0.76171204 8:348.024 9:0.64439625 10:3.0140178 
0.20691941093578303 1:2880 2:98.986536 3:37.774859 4:0.9243209 5:3003 6:60.555181 7:0.60721063 8:229.58 9:0.68664814 10:2.6204343 
0.18773792352883226 1:6462 2:158.16769 3:53.07929 4:0.94200861 5:6609 6:90.706526 7:0.5158046 8:349.036 9:0.66655559 10:2.9798381 
0.20704603585381595 1:6045 2:151.33053 3:51.582885 4:0.94011321 5:6182 6:87.731027 7:0.59970238 8:336.265 9:0.67180439 10:2.9337354 
0.2070288466099946 1:6023 2:153.38068 3:51.285811 4:0.94244208 5:6232 6:87.571238 7:0.6373545 8:344.544 9:0.63757803 10:2.990704 
0.19506614061066363 1:6145 2:157.69006 3:50.803964 4:0.94667976 5:6342 6:88.4537 7:0.65205857 8:351.713 9:0.62424477 10:3.1038928 
0.20476791999095317 1:6176 2:154.68475 3:52.020602 4:0.94175463 5:6382 6:88.676533 7:0.56775142 8:345.561 9:0.64993168 10:2.9735286 
0.20713042736444964 1:6482 2:168.52311 3:49.827734 4:0.95528921 5:6631 6:90.846787 7:0.42532808 8:366.467 9:0.60652561 10:3.3821147 
0.20527585731954648 1:5711 2:150.57137 3:48.886374 4:0.94582652 5:5841 6:85.272921 7:0.79829466 8:331.186 9:0.65430175 10:3.0800274 
0.20711623926925804 1:5626 2:149.22209 3:49.764123 4:0.94275352 5:5820 6:84.63596 7:0.45276034 8:334.18 9:0.63306555 10:2.9985878 
0.19873740125570247 1:5453 2:145.05071 3:48.847824 4:0.94158917 5:5588 6:83.324518 7:0.49259259 8:322.533 9:0.65871424 10:2.9694406 
0.19998787255978689 1:6521 2:158.57176 3:53.097522 4:0.94227196 5:6696 6:91.119674 7:0.52126299 8:350.658 9:0.6664331 10:2.9864248 
0.20710896826611178 1:5180 2:130.40696 3:51.235858 4:0.91958459 5:5319 6:81.21195 7:0.79083969 8:302.027 9:0.7135889 10:2.5452283 
0.20456304635295358 1:5668 2:148.39905 3:49.416938 4:0.9429267 5:5822 6:84.95129 7:0.50453979 8:330.388 9:0.65251602 10:3.0029998 
0.20713122964815178 1:6060 2:148.84308 3:53.147961 4:0.93407618 5:6234 6:87.839807 7:0.49076774 8:339.818 9:0.65946193 10:2.8005416 
0.20711444856269329 1:6378 2:158.46825 3:52.001999 4:0.94462422 5:6535 6:90.115048 7:0.653149 8:352.284 9:0.64581561 10:3.0473492 
0.19993435754066483 1:6078 2:147.44339 3:53.438532 4:0.93200935 5:6232 6:87.970165 7:0.81737493 8:334.553 9:0.68240265 10:2.7591213 
0.20692294277709086 1:7204 2:166.58574 3:56.681799 4:0.94033284 5:7499 6:95.77274 7:0.62146308 8:386.506 9:0.60599786 10:2.9389636 
0.20735460883769194 1:4945 2:143.2973 3:44.495477 4:0.95056958 5:5061 6:79.348406 7:0.54677134 8:313.076 9:0.63398153 10:3.2204913 
0.20719059654953786 1:6562 2:152.45077 3:55.873165 4:0.93041816 5:6806 6:91.405678 7:0.50091603 8:367.233 9:0.61145245 10:2.7285151 
0.090762220946401073 1:6439 2:157.026 3:53.627815 4:0.93987382 5:6608 6:90.544958 7:0.4802715 8:351.365 9:0.65540733 10:2.92807 
0.20713627763153564 1:6518 2:153.94374 3:55.124854 4:0.93368921 5:6701 6:91.098712 7:0.53286462 8:348.473 9:0.67450621 10:2.7926376 
0.19866457199600107 1:6564 2:155.45029 3:54.444695 4:0.93666051 5:6757 6:91.419606 7:0.48435655 8:359.939 9:0.63667915 10:2.8551962 
0.19667828836254012 1:6210 2:157.23141 3:51.202125 4:0.94549101 5:6379 6:88.920288 7:0.47102549 8:345.763 9:0.65274632 10:3.0707986 
0.19929438291467158 1:6391 2:158.96878 3:51.899947 4:0.9452045 5:6560 6:90.20684 7:0.68994926 8:353.979 9:0.64094931 10:3.0629854 
0.14950386463436433 1:6662 2:161.42888 3:53.650205 4:0.94315762 5:6841 6:92.099521 7:0.80062492 8:357.949 9:0.65338955 10:3.0089145 
0.20696848494935149 1:6663 2:166.24797 3:51.980552 4:0.94986221 5:6817 6:92.106433 7:0.73445767 8:363.804 9:0.63262265 10:3.1982724 
0.20689100869314983 1:4563 2:144.3009 3:40.838534 4:0.95911709 5:4666 6:76.221992 7:0.41108108 8:311.833 9:0.58967971 10:3.5334495 
0.20667193686512886 1:6140 2:150.72344 3:52.676378 4:0.93693999 5:6280 6:88.417706 7:0.82460381 8:340.349 9:0.66608442 10:2.8613098 
0.20214557956669213 1:6456 2:159.12615 3:52.681176 4:0.94360778 5:6612 6:90.664406 7:0.46580087 8:353.772 9:0.64822604 10:3.0205504 
0.20727452468548913 1:7369 2:168.76866 3:56.555467 4:0.94218028 5:7561 6:96.863317 7:0.52011575 8:379.859 9:0.64176138 10:2.9841264 
0.17066568721789083 1:6142 2:153.45666 3:51.78688 4:0.94133661 5:6302 6:88.432106 7:0.56749515 8:340.59 9:0.66535878 10:2.9632342 
0.20729344045482379 1:6171 2:135.85974 3:58.810142 4:0.90145447 5:6380 6:88.64063 7:0.73727599 8:321.246 9:0.75143246 10:2.3101414 
0.19290747713564471 1:6328 2:158.43556 3:52.059267 4:0.94447502 5:6483 6:89.761127 7:0.53809524 8:350.697 9:0.64656506 10:3.0433691 
0.20697520631058211 1:5205 2:146.11489 3:46.416205 4:0.94820159 5:5365 6:81.407689 7:0.45498252 8:323.105 9:0.62653198 10:3.1479284 
0.20699960853093863 1:6793 2:165.30255 3:53.736546 4:0.94568653 5:6935 6:93.000625 7:0.44948058 8:368.387 9:0.62901773 10:3.0761662 
0.20747224995951061 1:6493 2:154.66149 3:54.629342 4:0.93554075 5:6704 6:90.923838 7:0.54434943 8:351.988 9:0.65856637 10:2.8311067 
0.20697162393952384 1:6695 2:169.08004 3:50.860787 4:0.95368443 5:6851 6:92.327346 7:0.5121634 8:369.703 9:0.61553747 10:3.3243693 
0.20746027923672217 1:5928 2:151.65832 3:50.982336 4:0.94180283 5:6156 6:86.877868 7:0.4875 8:339.998 9:0.64441454 10:2.9747229 
0.20767810073736701 1:5798 2:142.85088 3:52.142239 4:0.93100294 5:5919 6:85.91998 7:0.57622739 8:322.157 9:0.70202557 10:2.7396383 
0.20697649242751273 1:6212 2:161.14508 3:50.190653 4:0.95025844 5:6355 6:88.934605 7:0.51186552 8:355.263 9:0.61850235 10:3.2106591 
0.20691251238548061 1:5998 2:148.4771 3:52.427225 4:0.93558569 5:6141 6:87.389306 7:0.48696923 8:335.684 9:0.66889052 10:2.8320611 
0.20726808106988825 1:6790 2:152.27318 3:57.83787 4:0.92505644 5:7016 6:92.980087 7:0.54107897 8:357.629 9:0.6671357 10:2.6327591 
0.20762490051549454 1:6636 2:161.63077 3:53.229592 4:0.94421547 5:6757 6:91.919626 7:0.4783737 8:357.176 9:0.65365969 10:3.0364833 
0.20727489604078841 1:6250 2:159.16898 3:51.622417 4:0.94594585 5:6627 6:89.206206 7:0.5603371 8:358.652 9:0.61058111 10:3.0833306 
0.20726888929696863 1:7022 2:147.42931 3:62.30497 4:0.90631206 5:7257 6:94.555212 7:0.5806665 8:362.021 9:0.67329155 10:2.3662528 
0.20528974017046836 1:5215 2:134.97372 3:49.759727 4:0.92956339 5:5352 6:81.485853 7:0.5829421 8:309.321 9:0.6849287 10:2.7125093 
0.20681852213099888 1:5420 2:147.29701 3:47.928339 4:0.94558139 5:5624 6:83.072007 7:0.61872146 8:332.345 9:0.61663881 10:3.073276 
0.20729910966717913 1:6494 2:165.17829 3:50.588379 4:0.9519462 5:6636 6:90.93084 7:0.70864251 8:363.482 9:0.61766975 10:3.2651431 
0.1765840715230001 1:5762 2:146.82434 3:51.303357 4:0.93696621 5:5961 6:85.652824 7:0.49706694 8:326.65 9:0.67860615 10:2.8618856 
0.20705998273290294 1:6533 2:156.68944 3:54.499279 4:0.93756238 5:6709 6:91.203476 7:0.48608631 8:350.454 9:0.668437 10:2.8750736 
0.19666750202387245 1:5808 2:148.54851 3:50.894357 4:0.93947735 5:5973 6:85.994042 7:0.66582598 8:333.784 9:0.65509675 10:2.9187619 
0.20666779767110049 1:6083 2:157.71081 3:50.267089 4:0.94784571 5:6243 6:88.006342 7:0.45186451 8:346.602 9:0.63630532 10:3.1374565 
0.20604692475676942 1:6019 2:156.8597 3:50.075558 4:0.94767462 5:6174 6:87.542155 7:0.4491791 8:348.51 9:0.62273564 10:3.1324604 
0.20733606279321287 1:6097 2:161.43316 3:49.332124 4:0.95216367 5:6296 6:88.107556 7:0.79887317 8:352.614 9:0.61620747 10:3.2723741 
0.20675739958655767 1:5710 2:140.40285 3:52.486422 4:0.92749832 5:5851 6:85.265455 7:0.7925052 8:317.59 9:0.7113975 10:2.6750319 
0.20762820247368402 1:6400 2:157.53989 3:53.170959 4:0.94132269 5:6641 6:90.270333 7:0.47058824 8:355.854 9:0.63510588 10:2.9628936 
0.20730511770602636 1:7195 2:160.7687 3:58.009086 4:0.93263421 5:7398 6:95.712896 7:0.69881507 8:367.981 9:0.66771306 10:2.77144 
0.20730183672320363 1:6691 2:159.25755 3:54.464023 4:0.93970466 5:6857 6:92.299761 7:0.48842981 8:355.861 9:0.66395723 10:2.9240872 
0.19089710015290415 1:6154 2:151.6704 3:52.377052 4:0.93847959 5:6340 6:88.518451 7:0.5935571 8:343.403 9:0.65578154 10:2.8957415 
0.10915458703460565 1:5360 2:145.6261 3:47.317882 4:0.94573902 5:5484 6:82.610919 7:0.63215002 8:321.37 9:0.65217476 10:3.0776123 
0.19229465365110227 1:5809 2:146.02762 3:51.796051 4:0.93498002 5:5975 6:86.001445 7:0.48151525 8:329.58 9:0.67203136 10:2.8192809 
0.20532938249318033 1:5657 2:141.57561 3:51.609282 4:0.93118964 5:5781 6:84.868817 7:0.53127348 8:318.793 9:0.69948513 10:2.74322 
0.20376157543507706 1:5999 2:153.19433 3:50.784668 4:0.9434535 5:6217 6:87.39659 7:0.64339339 8:349.696 9:0.61646354 10:3.0165468 
0.2040978190588707 1:6315 2:153.88043 3:53.106948 4:0.9385592 5:6467 6:89.668878 7:0.51404151 8:343.289 9:0.67338501 10:2.8975574 
0.20706304249947394 1:5797 2:153.95953 3:49.108308 4:0.94776517 5:5920 6:85.91257 7:0.45147975 8:338.497 9:0.6357751 10:3.1351015 
0.20714125516178933 1:6480 2:174.869 3:48.321301 4:0.96106323 5:6754 6:90.832771 7:0.43059339 8:377.428 9:0.57163214 10:3.6188803 
0.20714328003717278 1:4715 2:110.6895 3:55.036984 4:0.86762475 5:4832 6:77.481123 7:0.79430593 8:269.449 9:0.81609066 10:2.011184 
0.20709196690776363 1:6227 2:148.81202 3:54.325369 4:0.93098386 5:6359 6:89.041915 7:0.49209736 8:336.048 9:0.69292479 10:2.7392731 
0.20670757182460239 1:6399 2:160.35341 3:51.54229 4:0.94693357 5:6544 6:90.263281 7:0.81 8:352.647 9:0.64660876 10:3.1111037 
0.20726250020602355 1:7106 2:169.38381 3:54.315235 4:0.94719312 5:7337 6:95.119084 7:0.6625641 8:375.647 9:0.63281275 10:3.1185323 
0.16775382378188775 1:6279 2:163.0376 3:50.385295 4:0.95104874 5:6471 6:89.412925 7:0.43573907 8:357.955 9:0.61580538 10:3.2358172 
0.20705430271325184 1:5738 2:150.56554 3:49.527985 4:0.94434861 5:5842 6:85.474256 7:0.47156476 8:333.65 9:0.64772126 10:3.0400095 
0.17963292816153886 1:6215 2:158.4698 3:50.912158 4:0.94698643 5:6363 6:88.956078 7:0.51131222 8:349.135 9:0.64071401 10:3.1126121 
0.20713635367163341 1:4876 2:138.53454 3:45.508127 4:0.94450515 5:5053 6:78.792868 7:0.51434599 8:306.485 9:0.65231162 10:3.0441713 
0.207313569747612 1:4697 2:131.23881 3:46.108922 4:0.93624943 5:4815 6:77.333086 7:0.78283333 8:292.01 9:0.69220539 10:2.846278 
0.20718199512035348 1:6018 2:141.4121 3:54.986346 4:0.9213063 5:6172 6:87.534882 7:0.66556072 8:322.975 9:0.72497701 10:2.5717676 
0.20592584342345371 1:5374 2:126.47766 3:55.085895 4:0.90017008 5:5526 6:82.718736 7:0.53793794 8:300.022 9:0.75024191 10:2.296008 
0.20747750687338645 1:5288 2:159.01745 3:42.974141 4:0.96279076 5:5395 6:82.054194 7:0.40992248 8:337.395 9:0.58374615 10:3.7003055 
0.20717060935940251 1:5272 2:134.78485 3:50.849149 4:0.92610673 5:5414 6:81.929963 7:0.67485919 8:304.714 9:0.71351063 10:2.6506805 
0.20698882723397707 1:7112 2:147.89055 3:62.466066 4:0.90641867 5:7276 6:95.159233 7:0.53813559 8:352.718 9:0.71836699 10:2.3675342 
0.20156166363144462 1:4458 2:138.89189 3:41.779302 4:0.95368583 5:4562 6:75.339909 7:0.43450292 8:301.717 9:0.6153899 10:3.3244186 
0.20754496894627245 1:5715 2:147.13045 3:50.354401 4:0.93961139 5:5883 6:85.302778 7:0.71661442 8:332.882 9:0.64810515 10:2.9218985 
0.20728034318551308 1:5876 2:145.6506 3:52.529436 4:0.93269978 5:6020 6:86.495986 7:0.81713253 8:327.299 9:0.6892905 10:2.7727426 
0.20710434089796759 1:5477 2:151.00211 3:47.345925 4:0.94957341 5:5696 6:83.507682 7:0.44856675 8:341.281 9:0.59091958 10:3.189337 
0.20689846469049883 1:5290 2:137.48676 3:50.043317 4:0.93140425 5:5419 6:82.069709 7:0.50699636 8:310.236 9:0.69068679 10:2.7473551 
0.20511788282099053 1:6248 2:159.32016 3:51.148835 4:0.94706417 5:6447 6:89.191932 7:0.51768995 8:356.016 9:0.61945798 10:3.1148346 
0.2071408205002776 1:6684 2:163.04225 3:53.349444 4:0.94495082 5:6867 6:92.251467 7:0.70506329 8:360.752 9:0.64539978 10:3.0561191 
0.20681422295705798 1:6185 2:154.87032 3:51.72372 4:0.94257986 5:6379 6:88.741121 7:0.53494205 8:345.884 9:0.64966373 10:2.9941837 
0.2069743004428013 1:4245 2:105.61879 3:52.601824 4:0.86715709 5:4365 6:73.518038 7:0.56269883 8:260.959 9:0.78332683 10:2.0078922 
0.20698509458647496 1:5399 2:139.46443 3:50.150391 4:0.93310937 5:5562 6:82.910918 7:0.48517254 8:336.923 9:0.59767057 10:2.7809241 
0.19980963987247852 1:6633 2:158.8945 3:54.745435 4:0.93877181 5:6806 6:91.898846 7:0.48051289 8:354.02 9:0.66506526 10:2.9024246 
0.20697145071900439 1:4528 2:130.84934 3:45.192836 4:0.93846266 5:4689 6:75.929103 7:0.65509259 8:294.104 9:0.65783113 10:2.8953557 
0.20739619217231531 1:4901 2:138.76029 3:45.149989 4:0.94558293 5:5057 6:78.994601 7:0.58491467 8:318.568 9:0.60686245 10:3.0733184 
0.20622155761713218 1:5998 2:140.60347 3:55.256501 4:0.91954048 5:6140 6:87.389306 7:0.55696908 8:322.976 9:0.72256317 10:2.5445598 
0.20761262725987867 1:5766 2:161.38502 3:46.317353 4:0.95793086 5:5942 6:85.682549 7:0.45761905 8:344.389 9:0.61092227 10:3.4843316 
0.19131228414543355 1:6084 2:146.52274 3:53.587201 4:0.93072249 5:6240 6:88.013575 7:0.4982801 8:333.922 9:0.6856603 10:2.7342861 
0.20698767282210684 1:4676 2:106.80648 3:57.619522 4:0.84200103 5:4814 6:77.160016 7:0.66609687 8:274.007 9:0.78263822 10:1.8536509 
0.20712747066009116 1:5124 2:135.96794 3:48.941462 4:0.93297216 5:5289 6:80.771774 7:0.52732325 8:311.465 9:0.66374381 10:2.7781749 
0.20758760465594062 1:5656 2:150.83244 3:48.928963 4:0.94592245 5:5789 6:84.861315 7:0.5071736 8:335.456 9:0.63160875 10:3.0826821 
0.20697487181639312 1:4760 2:128.06764 3:48.145059 4:0.92664619 5:4916 6:77.849985 7:0.60722031 8:292.252 9:0.70032855 10:2.6600369 
0.20713478311898859 1:5479 2:144.89739 3:48.845211 4:0.9414681 5:5628 6:83.522928 7:0.46977622 8:325.13 9:0.65132399 10:2.9664605 
0.14410554481546467 1:5932 2:145.58286 3:53.171054 4:0.93091779 5:6091 6:86.907174 7:0.49028845 8:330.342 9:0.68309864 10:2.7380097 
0.20744066616156923 1:6584 2:163.23358 3:52.579226 4:0.94670213 5:6754 6:91.558774 7:0.4882462 8:360.913 9:0.63517681 10:3.1045261 
0.18905057253481505 1:5962 2:145.2516 3:52.902978 4:0.93131445 5:6137 6:87.126656 7:0.79218708 8:332.865 9:0.67618506 10:2.7456223 
0.20727455316883564 1:6050 2:152.50561 3:52.254115 4:0.93946776 5:6329 6:87.767302 7:0.60019841 8:343.352 9:0.64489064 10:2.9185379 
0.20281646822798555 1:5285 2:140.06176 3:48.75325 4:0.93746337 5:5399 6:82.030915 7:0.49671053 8:312.775 9:0.67887652 10:2.8728702 
0.20698345440278693 1:6486 2:160.25401 3:52.164557 4:0.94553801 5:6622 6:90.874813 7:0.81523379 8:349.926 9:0.66563229 10:3.072086 
0.20700029283220178 1:3972 2:99.936027 3:52.074624 4:0.85350809 5:4153 6:71.114749 7:0.61107692 8:253.449 9:0.77703027 10:1.9190926 
0.20762303150335026 1:5096 2:148.115 3:45.322813 4:0.95203233 5:5285 6:80.550783 7:0.77037037 8:326.91 9:0.59921527 10:3.2680009 
0.20648641276426954 1:4395 2:145.56705 3:38.800029 4:0.96382274 5:4509 6:74.805667 7:0.81449222 8:310.378 9:0.57330652 10:3.7517252 
0.20582941192988885 1:6111 2:153.91255 3:51.619093 4:0.94208316 5:6240 6:88.208655 7:0.45414685 8:339.218 9:0.66736645 10:2.9816981 
0.20746520388908662 1:6135 2:155.31359 3:51.59579 4:0.94320758 5:6279 6:88.381698 7:0.64106583 8:344.385 9:0.65003386 10:3.010199 
0.20719107475449333 1:6685 2:157.14364 3:54.752327 4:0.93733772 5:6826 6:92.258367 7:0.62313572 8:352.003 9:0.6779826 10:2.8700815 
0.20710904308924966 1:5519 2:141.56847 3:50.108791 4:0.93526266 5:5727 6:83.827257 7:0.70162726 8:321.213 9:0.67217759 10:2.8252222 
0.20691223954157226 1:6195 2:156.35144 3:51.471365 4:0.94425917 5:6357 6:88.812831 7:0.46042363 8:349.373 9:0.63778235 10:3.0376393 
0.20538295111889049 1:5736 2:152.48688 3:48.765547 4:0.94748453 5:5872 6:85.459359 7:0.49718298 8:335.068 9:0.64202672 10:3.1269387 
0.20490661453826159 1:6340 2:156.42305 3:52.825287 4:0.94125099 5:6506 6:89.846195 7:0.45928716 8:350.06 9:0.65015087 10:2.9611395 
0.20216074343490237 1:5145 2:133.21901 3:49.985808 4:0.9269377 5:5269 6:80.93712 7:0.52532163 8:304.097 9:0.69915098 10:2.6651367 
0.20462680371096159 1:6389 2:154.00254 3:53.5321 4:0.93764095 5:6581 6:90.192724 7:0.56489832 8:347.737 9:0.66395852 10:2.876826 
0.19636372142502415 1:6968 2:166.45892 3:54.216945 4:0.94547053 5:7177 6:94.19094 7:0.80722892 8:369.758 9:0.64044649 10:3.070238 
0.206997686230803 1:5371 2:153.15816 3:45.093465 4:0.95567484 5:5550 6:82.695644 7:0.45730098 8:345.092 9:0.56675483 10:3.3964602 
0.20759582454454401 1:5862 2:160.17404 3:46.896899 4:0.95617765 5:6040 6:86.392883 7:0.53888582 8:352.641 9:0.59236593 10:3.4154507 
0.19755714649515688 1:6053 2:150.72462 3:51.651216 4:0.93945 5:6187 6:87.789059 7:0.78763826 8:336.272 9:0.67266545 10:2.9181233 
0.20261621047135597 1:6870 2:166.18861 3:53.352928 4:0.94706617 5:7031 6:93.52623 7:0.47642164 8:370.501 9:0.62890903 10:3.114892 
0.20750338342815033 1:6061 2:161.42256 3:48.224582 4:0.9543322 5:6204 6:87.847054 7:0.69379579 8:354.326 9:0.60666383 10:3.3473086 
0.20652888755945845 1:6062 2:151.50663 3:52.090672 4:0.93903639 5:6205 6:87.854301 7:0.75850851 8:339.556 9:0.66069798 10:2.9085175 
0.20697767157448083 1:5968 2:160.06496 3:48.070868 4:0.95383819 5:6168 6:87.170486 7:0.50700875 8:351.393 9:0.60736878 10:3.3297706 
0.20352857395747148 1:5463 2:133.00153 3:52.998869 4:0.91717566 5:5622 6:83.400885 7:0.52690972 8:311.79 9:0.70618209 10:2.5095165 
0.2071146423176822 1:5786 2:151.83512 3:49.702091 4:0.94490575 5:5967 6:85.83102 7:0.74638803 8:340.036 9:0.62883759 10:3.0549041 
0.20707039867232516 1:5324 2:140.32329 3:49.277523 4:0.9363112 5:5432 6:82.333027 7:0.8208449 8:312.438 9:0.6853623 10:2.8476124 
0.20772080420233513 1:6364 2:149.51708 3:54.867894 4:0.93023381 5:6488 6:90.01609 7:0.55243056 8:336.481 9:0.70634836 10:2.7250378 
0.20659259611630154 1:5561 2:141.93926 3:50.719753 4:0.93397659 5:5703 6:84.145618 7:0.6484375 8:320.849 9:0.67883055 10:2.7985007 
0.20713787061018579 1:6981 2:162.18441 3:55.765125 4:0.93902907 5:7169 6:94.278764 7:0.80798611 8:363.663 9:0.66332943 10:2.9083484 
0.20709144203379665 1:5199 2:144.90159 3:46.700824 4:0.94663983 5:5369 6:81.360755 7:0.50110843 8:320.181 9:0.63729215 10:3.102763 
0.20693653919767352 1:5340 2:134.58291 3:51.705332 4:0.92325429 5:5504 6:82.45665 7:0.72791712 8:307.509 9:0.70963571 10:2.6028827 
0.2068733594294124 1:6746 2:168.89764 3:51.516924 4:0.95234639 5:6936 6:92.678336 7:0.52294574 8:374.16 9:0.60553812 10:3.2784885 
0.20723914077768688 1:6711 2:165.1435 3:52.686766 4:0.94774251 5:6839 6:92.437604 7:0.6765121 8:363.424 9:0.63851322 10:3.1344399 
0.20674581530467592 1:5737 2:149.25256 3:49.595761 4:0.94317579 5:5935 6:85.466808 7:0.74817423 8:327.861 9:0.67067975 10:3.0093815 
0.20708005801829912 1:7169 2:162.30465 3:57.389612 4:0.93539978 5:7395 6:95.539805 7:0.67907549 8:368.667 9:0.66282658 10:2.8281189 
0.2067993078698469 1:5418 2:144.37812 3:48.729642 4:0.9413205 5:5588 6:83.056679 7:0.46458583 8:322.98 9:0.65267594 10:2.9628398 
0.20691493658724733 1:6111 2:143.11415 3:55.513399 4:0.92170316 5:6309 6:88.208655 7:0.78245839 8:332.759 9:0.69352565 10:2.5780109 
0.20697225867073066 1:7154 2:167.05777 3:55.185926 4:0.94386188 5:7351 6:95.439801 7:0.51041667 8:368.578 9:0.66175919 10:3.0271807 
0.20380962793959714 1:6036 2:147.41049 3:52.830214 4:0.93357257 5:6178 6:87.665694 7:0.54027927 8:330.42 9:0.69474662 10:2.7902687 
0.14601234158865517 1:5829 2:147.56852 3:51.480287 4:0.93717603 5:5968 6:86.149366 7:0.48022739 8:332.921 9:0.66087837 10:2.8665053 
0.20685521945534299 1:6129 2:150.75756 3:52.943258 4:0.93630743 5:6328 6:88.338469 7:0.67093596 8:338.853 9:0.67077492 10:2.8475309 
0.19337776538272522 1:6235 2:157.38454 3:51.314703 4:0.94535368 5:6385 6:89.099094 7:0.62979798 8:349.778 9:0.64041477 10:3.0670457 
0.20738273415734043 1:6257 2:165.52032 3:48.968814 4:0.95523511 5:6487 6:89.256147 7:0.5243882 8:368.627 9:0.57863105 10:3.3801171 
0.20710735639826405 1:5283 2:140.57916 3:48.901279 4:0.93754804 5:5487 6:82.015392 7:0.48916667 8:323.276 9:0.63524835 10:2.8747543 
0.20710153601557441 1:5577 2:163.41377 3:44.304984 4:0.96254514 5:5729 6:84.266583 7:0.56821192 8:348.992 9:0.57541286 10:3.6883834 
0.20753949105116495 1:6112 2:144.69199 3:54.644304 4:0.92594455 5:6222 6:88.215872 7:0.55312217 8:330.139 9:0.70469233 10:2.6478879 
0.20700132739761781 1:7114 2:157.31705 3:58.362982 4:0.92863704 5:7274 6:95.172612 7:0.5073456 8:359.345 9:0.69230985 10:2.6954937 
0.16130396910035188 1:6697 2:159.59028 3:54.459127 4:0.93997498 5:6869 6:92.341135 7:0.5333705 8:356.81 9:0.66102233 10:2.9304598 
0.20758840376447441 1:6118 2:141.88791 3:56.066474 4:0.91861823 5:6266 6:88.259161 7:0.78891038 8:328.424 9:0.71277025 10:2.5307086 
0.20694860182979052 1:6326 2:158.28122 3:52.162318 4:0.94413649 5:6531 6:89.746941 7:0.45642136 8:355.317 9:0.62966141 10:3.0343978 
0.20663887036714784 1:6347 2:153.8377 3:54.057247 4:0.93622864 5:6513 6:89.895781 7:0.71717514 8:348.562 9:0.65647514 10:2.8458293 
0.16030779176480392 1:6225 2:154.94252 3:52.163691 4:0.94162456 5:6399 6:89.027615 7:0.52083333 8:346.927 9:0.64993963 10:2.9703135 
0.20148439401882942 1:6403 2:155.25969 3:53.809487 4:0.93802141 5:6553 6:90.291488 7:0.79049383 8:344.352 9:0.67855983 10:2.8853591 
0.20677404038479902 1:5195 2:139.14756 3:48.323485 4:0.93776063 5:5305 6:81.32945 7:0.48316592 8:307.251 9:0.69152647 10:2.8795018 
0.16346611507910799 1:6497 2:151.97135 3:55.870085 4:0.92996991 5:6688 6:90.951841 7:0.77345238 8:353.971 9:0.65160944 10:2.7200845 
0.20701385229309388 1:5800 2:160.9416 3:46.680358 4:0.95701291 5:5943 6:85.934797 7:0.46948357 8:348.689 9:0.59946159 10:3.4477371 
0.20702234043357115 1:6138 2:164.04491 3:49.323304 4:0.95372839 5:6422 6:88.403305 7:0.45255474 8:354.091 9:0.61518675 10:3.3259108 
0.18374534377889529 1:5939 2:150.84431 3:51.152122 4:0.94074838 5:6058 6:86.958436 7:0.81345021 8:335.371 9:0.66354775 10:2.9489355 
0.20402306421410404 1:6732 2:164.47061 3:53.290835 4:0.94605217 5:6861 6:92.582118 7:0.44509091 8:365.796 9:0.63223141 10:3.0862832 
0.20731636522197794 1:6068 2:147.55961 3:53.62155 4:0.93163748 5:6271 6:87.897768 7:0.65156233 8:332.932 9:0.68793017 10:2.7518715 
0.20695072924136981 1:4545 2:140.13544 3:41.632437 4:0.95485037 5:4662 6:76.071504 7:0.56876486 8:303.722 9:0.6191434 10:3.3660159 
0.20709248022915525 1:3797 2:96.142112 3:51.055189 4:0.84734752 5:3872 6:69.530501 7:0.71158171 8:237.412 9:0.84653541 10:1.8831017 
0.20698510646572094 1:7201 2:161.28094 3:58.414675 4:0.93210349 5:7420 6:95.752796 7:0.48800488 8:369.467 9:0.66290511 10:2.7609661 
0.20694463413399444 1:6207 2:158.29648 3:50.886852 4:0.9469213 5:6376 6:88.898807 7:0.45896185 8:354.373 9:0.62111263 10:3.1107541 
0.20701839751536505 1:5742 2:138.85557 3:53.647442 4:0.92235047 5:5903 6:85.504044 7:0.58442748 8:320.139 9:0.70403765 10:2.5882981 
0.207219365471289 1:5494 2:141.39976 3:50.358045 4:0.93443278 5:5649 6:83.637181 7:0.79623188 8:317.615 9:0.68437874 10:2.8078881 
0.2077719791396363 1:4590 2:129.99199 3:45.792359 4:0.93589819 5:4740 6:76.447168 7:0.65948276 8:288.827 9:0.69142801 10:2.8387267 
0.20374063322122915 1:6271 2:156.02815 3:52.396404 4:0.94192839 5:6446 6:89.355947 7:0.49580961 8:348.259 9:0.64974354 10:2.9778408 
0.2070085029702709 1:6951 2:163.34045 3:55.024209 4:0.9415518 5:7154 6:94.07597 7:0.50811404 8:364.791 9:0.65640053 10:2.9685197 
0.20701678491695452 1:5272 2:147.13587 3:46.296195 4:0.94920801 5:5425 6:81.929963 7:0.59773243 8:326.845 9:0.62015689 10:3.1781418 
0.20721610833471832 1:5479 2:143.42094 3:49.234503 4:0.93923066 5:5616 6:83.522928 7:0.47709857 8:322.144 9:0.66345439 10:2.9130168 
0.20708731493717916 1:3956 2:113.66213 3:45.049879 4:0.9180999 5:4019 6:70.971372 7:0.80701754 8:260.684 9:0.73153885 10:2.5230286 
0.20707375966857372 1:6736 2:167.38463 3:52.181719 4:0.95016502 5:6940 6:92.609619 7:0.67481467 8:372.008 9:0.6116562 10:3.2077254 
0.20367448474118499 1:6262 2:151.43743 3:53.962275 4:0.93435872 5:6463 6:89.291803 7:0.53316305 8:341.708 9:0.67392666 10:2.8063574 
0.20706167628384933 1:4826 2:150.41604 3:41.629477 4:0.96093843 5:4985 6:78.387844 7:0.56411455 8:324.769 9:0.57497379 10:3.6132099 
0.20719213673478024 1:5139 2:143.20836 3:46.941133 4:0.94475336 5:5308 6:80.889913 7:0.45838908 8:322.401 9:0.62129194 10:3.0508076 
0.19342431067485075 1:6602 2:152.37472 3:56.306315 4:0.92922067 5:6774 6:91.683845 7:0.77216374 8:349.158 9:0.68052078 10:2.7061746 
0.20730095617993166 1:6715 2:159.60801 3:54.935595 4:0.93889975 5:6934 6:92.465148 7:0.72815008 8:363.837 9:0.63744417 10:2.9053659 
0.19587162466852284 1:6402 2:154.99165 3:53.428782 4:0.93870541 5:6574 6:90.284437 7:0.49246154 8:344.962 9:0.67605654 10:2.9009018 
0.20762484721676056 1:5712 2:150.82743 3:49.125478 4:0.94547092 5:5909 6:85.280386 7:0.77714286 8:340.442 9:0.61931528 10:3.0702486 
0.20698293253344355 1:6447 2:152.22681 3:54.672154 4:0.93328011 5:6683 6:90.601188 7:0.48929872 8:360.757 9:0.62249806 10:2.7843572 
0.13464685279651906 1:5150 2:137.05635 3:48.355548 4:0.93569306 5:5267 6:80.976439 7:0.67780995 8:304.755 9:0.69681167 10:2.8343458 
0.20643907266072892 1:6079 2:157.70077 3:49.725184 4:0.94898756 5:6219 6:87.977402 7:0.68689266 8:343.409 9:0.64776676 10:3.1714466 
0.20735554903446976 1:6800 2:164.64173 3:54.050703 4:0.94457599 5:6994 6:93.04853 7:0.74496056 8:368.327 9:0.62987108 10:3.0460607 
0.20613696296786274 1:5748 2:146.17219 3:51.145084 4:0.9367885 5:5896 6:85.548705 7:0.7584114 8:326.82 9:0.67625326 10:2.857991 
0.20706455503690879 1:4683 2:145.86171 3:42.994817 4:0.95557001 5:5003 6:77.217749 7:0.67781155 8:315.126 9:0.59260532 10:3.3925417 
0.1373756871539468 1:5640 2:143.50198 3:50.933628 4:0.93489164 5:5809 6:84.7412 7:0.49586777 8:327.429 9:0.66108101 10:2.817431 
0.20707750854658297 1:4460 2:125.98032 3:46.246016 4:0.93018574 5:4587 6:75.356807 7:0.50681818 8:289.392 9:0.66922427 10:2.7241335 
0.20705468268119959 1:6757 2:167.11673 3:52.943597 4:0.94849033 5:6974 6:92.753866 7:0.44852307 8:370.03 9:0.62014024 10:3.1565049 
0.20704941037166186 1:6610 2:146.68815 3:58.742195 4:0.91631586 5:6777 6:91.739378 7:0.5425593 8:341.561 9:0.71199144 10:2.4971513 
0.20717315235563782 1:6684 2:169.18612 3:51.01025 4:0.95346499 5:6847 6:92.251467 7:0.55662891 8:369.768 9:0.6143101 10:3.3167084 
0.20654439174047107 1:6648 2:165.62217 3:51.851906 4:0.94972891 5:6841 6:92.002698 7:0.45101764 8:363.281 9:0.63301719 10:3.1941386 
0.20723444567943222 1:4842 2:155.78313 3:39.823444 4:0.96677367 5:4958 6:78.517679 7:0.40905635 8:332.994 9:0.54873395 10:3.9118447 
0.20768974996930223 1:6184 2:159.55708 3:50.17433 4:0.9492707 5:6373 6:88.733947 7:0.46742252 8:351.825 9:0.62780671 10:3.180054 
0.20375486811054677 1:5949 2:153.64252 3:50.440402 4:0.9445745 5:6122 6:87.031615 7:0.66543624 8:342.798 9:0.63617599 10:3.046021 
0.20690927786014909 1:6561 2:158.34021 3:53.532123 4:0.94111632 5:6787 6:91.398713 7:0.51869713 8:358.142 9:0.64279042 10:2.9578541 
0.20704130578783225 1:5711 2:157.90553 3:46.809845 4:0.95505083 5:5840 6:85.272921 7:0.46164417 8:342.305 9:0.61248511 10:3.3733402 
0.17282174498113245 1:4609 2:123.06958 3:48.543577 4:0.91892165 5:4709 6:76.605229 7:0.527587 8:281.711 9:0.72980857 10:2.5352391 
0.20735758336020005 1:7283 2:164.30038 3:57.148755 4:0.93755727 5:7436 6:96.296436 7:0.47813813 8:378.119 9:0.64012262 10:2.8749599 
0.20750271415086602 1:4938 2:130.6797 3:49.14711 4:0.92658382 5:5101 6:79.292225 7:0.75969231 8:298.61 9:0.69590868 10:2.6589499 
0.20740328079672024 1:6026 2:150.24042 3:52.4801 4:0.93700817 5:6171 6:87.593045 7:0.48285256 8:340.415 9:0.65346392 10:2.8628075 
0.14863959762650086 1:6202 2:154.11251 3:52.779997 4:0.9395262 5:6396 6:88.862994 7:0.7708178 8:344.947 9:0.65499334 10:2.9199037 
0.20727928248173261 1:5729 2:147.25154 3:50.919829 4:0.93830762 5:5858 6:85.407197 7:0.82313218 8:328.035 9:0.6690342 10:2.8918309 
0.20724862377486808 1:5816 2:162.25613 3:46.348198 4:0.9583345 5:5986 6:86.053246 7:0.51697778 8:351.474 9:0.59162682 10:3.5008077 
0.20704717245489002 1:5808 2:153.13331 3:49.097672 4:0.94720775 5:5929 6:85.994042 7:0.4683871 8:333.93 9:0.65452403 10:3.1189526 
0.20386727658120435 1:6375 2:164.96972 3:49.947896 4:0.95306363 5:6551 6:90.093852 7:0.53089607 8:361.944 9:0.61151525 10:3.3028362 
0.13179963739387979 1:5591 2:144.03177 3:50.75257 4:0.93586052 5:5781 6:84.372284 7:0.47253212 8:326.735 9:0.65812447 10:2.8379207 
0.207144533721205 1:4997 2:126.77864 3:50.777924 4:0.91628615 5:5148 6:79.764516 7:0.58010216 8:296.694 9:0.71334839 10:2.4967275 
0.20710869468262885 1:4864 2:137.63367 3:46.205222 4:0.94196481 5:5024 6:78.695852 7:0.46306169 8:305.597 9:0.65449338 10:2.9787471 
0.20735584268289253 1:7009 2:164.32758 3:56.156365 4:0.93979662 5:7300 6:94.467645 7:0.46525058 8:372.527 9:0.63467357 10:2.9262503 
0.20735246622409625 1:5128 2:138.87428 3:48.481496 4:0.93708417 5:5333 6:80.803294 7:0.56302152 8:318.485 9:0.63530155 10:2.86448 
0.20139946173332945 1:5737 2:144.51249 3:51.622319 4:0.93402142 5:5920 6:85.466808 7:0.53919173 8:327.575 9:0.67185138 10:2.7994188 
0.19256524927056878 1:5842 2:154.23142 3:49.756391 4:0.94653244 5:6068 6:86.245379 7:0.54092593 8:341.93 9:0.62790943 10:3.0997309 
0.17623065383114109 1:6288 2:157.22844 3:51.512886 4:0.94480582 5:6454 6:89.476982 7:0.57034014 8:352.657 9:0.63535636 10:3.0522158 
0.19628634592245642 1:6499 2:153.78665 3:54.482327 4:0.93514236 5:6671 6:90.965839 7:0.49380746 8:345.318 9:0.68488549 10:2.8226887 
0.20731992455882084 1:5544 2:143.19183 3:50.387523 4:0.93604202 5:5668 6:84.016903 7:0.47567568 8:318.119 9:0.68842062 10:2.8418112 
0.15241277068908721 1:6605 2:160.11983 3:53.840364 4:0.94177261 5:6788 6:91.704674 7:0.48113345 8:356.738 9:0.65220472 10:2.9739738 
0.20710878302536306 1:5667 2:152.31531 3:48.301653 4:0.94838669 5:5841 6:84.943796 7:0.49837305 8:339.798 9:0.61676744 10:3.1534181 
0.20526879643669815 1:6136 2:148.19856 3:54.146156 4:0.93086542 5:6314 6:88.388901 7:0.51450612 8:336.731 9:0.68003148 10:2.7370098 
0.20756357540583303 1:5652 2:144.96937 3:51.386544 4:0.93506935 5:5884 6:84.831303 7:0.785 8:327.754 9:0.66117438 10:2.8211544 
0.20752988202334721 1:7045 2:166.26986 3:54.868004 4:0.94398314 5:7236 6:94.709939 7:0.67403368 8:372.438 9:0.63823834 10:3.030361 
0.20703880338542349 1:6963 2:172.30723 3:52.365643 4:0.9527012 5:7180 6:94.15714 7:0.80311419 8:380.129 9:0.60554197 10:3.2904633 
0.20692689877986423 1:5869 2:157.8548 3:48.107959 4:0.95242892 5:6029 6:86.44445 7:0.65211111 8:345.329 9:0.61845467 10:3.2812617 
0.20744218975063608 1:6401 2:158.75845 3:52.035475 4:0.94475926 5:6521 6:90.277385 7:0.47038507 8:350.231 9:0.65576544 10:3.0509658 
0.20689857850440413 1:5756 2:151.35019 3:49.530774 4:0.94493454 5:5940 6:85.608217 7:0.47041517 8:338.113 9:0.63271322 10:3.0556799 
0.20735093408252153 1:5941 2:151.01904 3:51.246793 4:0.94066381 5:6222 6:86.973077 7:0.50211291 8:346.092 9:0.62328445 10:2.9468973 
0.20539695702678445 1:6082 2:156.83595 3:50.304747 4:0.94716472 5:6263 6:87.999107 7:0.64359788 8:346.081 9:0.63811766 10:3.1177167 
0.20709748291909869 1:6258 2:155.93199 3:51.928077 4:0.94292066 5:6354 6:89.26328 7:0.81272727 8:346.321 9:0.65567371 10:3.0028455 
0.20606487498492332 1:5417 2:151.4432 3:46.276017 4:0.95217063 5:5619 6:83.049013 7:0.44518409 8:332.392 9:0.61612322 10:3.2726066 
0.20711225981519865 1:6553 2:154.95329 3:54.779067 4:0.93542702 5:6667 6:91.342973 7:0.81343098 8:345.304 9:0.69063218 10:2.8286953 
0.20698597170502425 1:3931 2:97.080816 3:52.432441 4:0.84160685 5:4003 6:70.746764 7:0.57757861 8:242.064 9:0.84304838 10:1.851541 
0.20678893797213482 1:6536 2:167.17695 3:51.239084 4:0.95187191 5:6747 6:91.224414 7:0.44586943 8:365.339 9:0.61536081 10:3.2626842 
0.20712488569345669 1:4739 2:149.59412 3:41.238801 4:0.96125197 5:4915 6:77.678068 7:0.5713769 8:327.068 9:0.55669903 10:3.6275089 
0.20676704706619983 1:6574 2:161.07159 3:53.532491 4:0.94315536 5:6761 6:91.489217 7:0.78504896 8:358.883 9:0.64140714 10:3.0088565 
0.1449193911961339 1:5961 2:147.0157 3:53.086607 4:0.93252911 5:6142 6:87.119349 7:0.59993961 8:333.792 9:0.67232171 10:2.7693558 
0.20712700215941304 1:4664 2:115.85978 3:52.49344 4:0.89147122 5:4826 6:77.060945 7:0.7121698 8:282.98 9:0.73190872 10:2.2071288 
0.20699906379557997 1:6795 2:160.46737 3:54.868069 4:0.93972665 5:6938 6:93.014315 7:0.81660858 8:358.792 9:0.66330584 10:2.924604 
0.20697598967660441 1:6684 2:166.14003 3:51.991394 4:0.94977382 5:6836 6:92.251467 7:0.53583454 8:366.625 9:0.62488795 10:3.1955295 
0.20040395186197474 1:4609 2:127.21835 3:46.725513 4:0.93010807 5:4707 6:76.605229 7:0.73744 8:286.081 9:0.70768264 10:2.7226742 
0.18806841532038432 1:4915 2:141.98148 3:45.006296 4:0.94842985 5:5059 6:79.107347 7:0.64064129 8:313.05 9:0.63024001 10:3.1547027 
0.20709323895968765 1:6409 2:150.84169 3:55.449849 4:0.92998284 5:6622 6:90.333782 7:0.51815021 8:347.921 9:0.66533267 10:2.7203265 
0.2071649001586468 1:5443 2:123.6655 3:56.662735 4:0.88885244 5:5545 6:83.24808 7:0.6749752 8:291.54 9:0.80473316 10:2.1824838 
0.15092802818062126 1:6138 2:154.96442 3:51.254123 4:0.94371922 5:6304 6:88.403305 7:0.65766635 8:345.932 9:0.64454801 10:3.0234528 
0.18982291304057292 1:6638 2:161.44593 3:53.101398 4:0.9443608 5:6789 6:91.933476 7:0.46126051 8:361.834 9:0.63713046 10:3.0403329 
0.20723561938173363 1:5430 2:137.12759 3:51.145832 4:0.92783943 5:5550 6:83.148606 7:0.61425339 8:310.71 9:0.70680438 10:2.6811097 
0.20700008394987163 1:5086 2:124.6261 3:53.367258 4:0.903675 5:5205 6:80.471711 7:0.63543228 8:293.409 9:0.74240238 10:2.3352539 
0.20217611807369287 1:6688 2:157.55515 3:54.555861 4:0.93813668 5:6837 6:92.279066 7:0.48512984 8:353.102 9:0.6740712 10:2.8879601 
0.20680715848450948 1:6679 2:159.36553 3:54.719957 4:0.93920339 5:6948 6:92.216956 7:0.52474859 8:362.632 9:0.6382474 10:2.912384 
0.20671293836984289 1:5988 2:162.26618 3:48.272369 4:0.95472531 5:6152 6:87.316427 7:0.46160962 8:353.205 9:0.60316755 10:3.3614713 
0.20721409425713444 1:4955 2:114.94223 3:56.807134 4:0.86933497 5:5185 6:79.428597 7:0.59256159 8:290.011 9:0.74032869 10:2.0233767 
0.20069485014783001 1:5322 2:139.20588 3:49.378597 4:0.93497398 5:5448 6:82.317561 7:0.55651992 8:313.54 9:0.68029742 10:2.8191542 
0.20750576994674538 1:5004 2:138.9986 3:46.344036 4:0.94278063 5:5141 6:79.820365 7:0.73469388 8:311.735 9:0.64707711 10:2.999277 
0.20774345922594972 1:5153 2:141.97109 3:47.106127 4:0.94334946 5:5323 6:81.000021 7:0.46675725 8:318.736 9:0.63739371 10:3.0138562 
0.20485329027650853 1:6236 2:160.54172 3:50.105386 4:0.95004861 5:6405 6:89.106239 7:0.74468593 8:355.7 9:0.61936725 10:3.2040811 
0.20692745975892346 1:5937 2:151.33829 3:50.491114 4:0.94270382 5:6072 6:86.943793 7:0.57679977 8:335.72 9:0.66194588 10:2.9973252 
0.2069870398497648 1:6129 2:159.12683 3:50.964871 4:0.94732349 5:6380 6:88.338469 7:0.49611462 8:350.64 9:0.6264358 10:3.1222845 
0.20704168372514964 1:6700 2:149.70219 3:57.85317 4:0.92230824 5:6832 6:92.361815 7:0.51809465 8:343.589 9:0.71319151 10:2.587623 
0.20705362613169831 1:4975 2:142.10643 3:45.24229 4:0.94796685 5:5134 6:79.588735 7:0.68337912 8:315.622 9:0.62757902 10:3.1410088 
0.20662218050849154 1:6560 2:161.61457 3:52.366883 4:0.94604911 5:6740 6:91.391747 7:0.46944325 8:360.064 9:0.63584945 10:3.0861979 
0.20716484337592372 1:5921 2:136.77645 3:55.660364 4:0.91345308 5:6085 6:86.826559 7:0.53380815 8:326.626 9:0.69743449 10:2.4573402 
0.20713635061581517 1:5033 2:148.33967 3:43.731309 4:0.95555737 5:5183 6:80.051325 7:0.53276172 8:324.034 9:0.60235931 10:3.3920703 
0.20253747857405802 1:5299 2:141.58843 3:48.755281 4:0.93884315 5:5431 6:82.139493 7:0.50712987 8:317.46 9:0.66073264 10:2.9040635 
0.19985395473440121 1:5968 2:154.98515 3:49.868933 4:0.94681926 5:6144 6:87.170486 7:0.75069182 8:341.863 9:0.64170361 10:3.1078497 
0.20697093175414971 1:6740 2:165.77982 3:53.020772 4:0.94747614 5:6895 6:92.637112 7:0.48776958 8:364.989 9:0.6357849 10:3.1266957 
0.20683245381339677 1:6313 2:162.74588 3:50.50958 4:0.95061956 5:6512 6:89.654678 7:0.49136052 8:357.884 9:0.61938558 10:3.2220794 
0.19960768753421598 1:5758 2:144.52233 3:52.079749 4:0.93281416 5:5962 6:85.623089 7:0.65865935 8:330.104 9:0.66401815 10:2.7750197 
0.20707226980955706 1:4626 2:108.14938 3:55.77865 4:0.85673575 5:4781 6:76.746375 7:0.58944954 8:272.761 9:0.78135959 10:1.9389028 
0.18374541454597812 1:6563 2:168.27614 3:50.475802 4:0.95395236 5:6733 6:91.412642 7:0.46085247 8:366.189 9:0.61503762 10:3.3337982 
0.1850321451088863 1:6642 2:165.40341 3:51.812169 4:0.94967159 5:6794 6:91.961171 7:0.48067738 8:361.096 9:0.64012292 10:3.1923661 
0.20365171899419215 1:5449 2:152.82045 3:46.347788 4:0.95290065 5:5591 6:83.293951 7:0.44232486 8:337.172 9:0.60231498 10:3.2972545 
0.20721475794859937 1:4794 2:153.46071 3:41.195307 4:0.96329584 5:4964 6:78.127526 7:0.39443805 8:327.29 9:0.56239626 10:3.7251989 
0.20768060167012048 1:5556 2:136.95619 3:52.911319 4:0.92235746 5:5654 6:84.107782 7:0.80944056 8:311.644 9:0.71887695 10:2.58841 
0.20054808170957705 1:5076 2:135.69133 3:48.669536 4:0.93346123 5:5214 6:80.392561 7:0.49618768 8:305.595 9:0.68302876 10:2.7880137 
0.20687651548135089 1:5753 2:153.87819 3:48.066046 4:0.94996241 5:5888 6:85.585905 7:0.68815789 8:339.581 9:0.62692772 10:3.2013907 
0.20713906684457112 1:5030 2:138.8119 3:47.205103 4:0.94040184 5:5167 6:80.027463 7:0.47132684 8:310.583 9:0.65527332 10:2.9406121 
0.2022680450557999 1:5624 2:152.55812 3:47.866974 4:0.94950159 5:5782 6:84.620915 7:0.51053014 8:334.504 9:0.63161516 10:3.1871268 
0.2072275309064413 1:5879 2:142.53123 3:53.240453 4:0.92761595 5:6101 6:86.518063 7:0.5105958 8:335.268 9:0.65724776 10:2.6771228 
0.20176758456307292 1:5624 2:144.59457 3:50.422622 4:0.93722797 5:5840 6:84.620915 7:0.51724455 8:333.803 9:0.63427078 10:2.8676527 
0.20511761039373935 1:6011 2:147.93436 3:52.829504 4:0.93406062 5:6224 6:87.483958 7:0.54864914 8:339.318 9:0.65605884 10:2.8002225 
0.20722704373097073 1:4649 2:122.27514 3:49.567785 4:0.91414867 5:4797 6:76.936926 7:0.58699495 8:287.802 9:0.70531285 10:2.4668268 
0.20537386163093174 1:5739 2:141.86051 3:51.759059 4:0.93106286 5:5890 6:85.481704 7:0.76164565 8:321.7 9:0.69685748 10:2.7407861 
0.20716610931165491 1:5282 2:141.68991 3:48.602 4:0.93932932 5:5413 6:82.007629 7:0.47448796 8:316.264 9:0.66360361 10:2.9153103 
0.20654909573622784 1:6381 2:161.2007 3:51.045477 4:0.94853981 5:6560 6:90.136239 7:0.50355114 8:353.502 9:0.64167461 10:3.1579821 
0.20713352196981485 1:4889 2:122.82115 3:51.463349 4:0.90798139 5:5059 6:78.897834 7:0.57187975 8:291.359 9:0.72372408 10:2.3865751 
0.18773233240612475 1:5894 2:151.54672 3:51.244055 4:0.94109571 5:6080 6:86.628366 7:0.66636518 8:338.29 9:0.64720472 10:2.9573523 
0.20570412585424153 1:6156 2:146.93599 3:53.935873 4:0.93019311 5:6303 6:88.532834 7:0.53400416 8:336.334 9:0.68385957 10:2.724272 
0.18705737620066248 1:5154 2:134.06653 3:49.556221 4:0.92917543 5:5310 6:81.00788 7:0.53470277 8:307.793 9:0.6836547 10:2.705342 
0.20724166345599257 1:4076 2:104.17444 3:50.80784 4:0.87300076 5:4182 6:72.039742 7:0.61757576 8:255.914 9:0.78208859 10:2.0503616 
0.19830202120932311 1:5339 2:139.945 3:49.335872 4:0.93579766 5:5472 6:82.448929 7:0.49577491 8:314.246 9:0.67940739 10:2.836577 
0.19729588211469573 1:6252 2:158.2933 3:51.239081 4:0.94616076 5:6453 6:89.220478 7:0.5051713 8:352.493 9:0.63230678 10:3.0893079 
0.20699133556014565 1:5674 2:153.36542 3:48.081344 4:0.94958544 5:5814 6:84.996242 7:0.44425305 8:336.783 9:0.62863546 10:3.1897076 
0.20717713429258339 1:6513 2:166.40649 3:50.778366 4:0.9523054 5:6625 6:91.063764 7:0.43402639 8:362.308 9:0.62349804 10:3.2771138 
0.20514464504223595 1:5795 2:153.67569 3:49.263229 4:0.94722612 5:5970 6:85.897748 7:0.6315388 8:343.195 9:0.61827459 10:3.1194807 
0.20696180946127019 1:6233 2:158.55615 3:51.329466 4:0.94614932 5:6451 6:89.084803 7:0.46549664 8:348.294 9:0.64567654 10:3.0889889 
0.20691409488596074 1:6605 2:165.00084 3:52.01401 4:0.9490137 5:6828 6:91.704674 7:0.79944323 8:366.979 9:0.61631148 10:3.1722383 
0.20593270057406909 1:5843 2:154.68631 3:48.77175 4:0.94899386 5:5959 6:86.25276 7:0.46695437 8:338.651 9:0.64023738 10:3.1716376 
0.20740932307793389 1:3987 2:94.176206 3:54.948028 4:0.81214204 5:4043 6:71.248902 7:0.59436494 8:240.915 9:0.86323376 10:1.7139142 
0.18622584855164848 1:5864 2:155.92992 3:48.853381 4:0.94965307 5:6019 6:86.407619 7:0.46028257 8:341.545 9:0.63169576 10:3.1917939 
0.20697775790105832 1:4837 2:153.20729 3:40.671159 4:0.96412052 5:4946 6:78.477128 7:0.7478355 8:325.066 9:0.57523176 10:3.7669763 
0.20697481565309356 1:6219 2:147.48143 3:54.838295 4:0.9283001 5:6412 6:88.984699 7:0.58625566 8:337.572 9:0.68580017 10:2.6893876 
0.2076697549599846 1:5368 2:137.33645 3:51.048808 4:0.92835043 5:5582 6:82.672546 7:0.68741196 8:315.573 9:0.67736491 10:2.690297 
0.19772284288381475 1:6155 2:153.75101 3:51.403249 4:0.94245683 5:6282 6:88.525643 7:0.49188844 8:338.005 9:0.67700468 10:2.9910758 
0.20760003607529154 1:7017 2:157.15796 3:58.306376 4:0.9286309 5:7275 6:94.521542 7:0.60753247 8:363.069 9:0.66893359 10:2.6953821 
0.2036859279807946 1:6141 2:145.58146 3:54.875055 4:0.92623886 5:6315 6:88.424906 7:0.54557569 8:332.95 9:0.69613092 10:2.6529625 
0.20727385868858372 1:3746 2:126.34837 3:38.010127 4:0.95367592 5:3827 6:69.061967 7:0.52085651 8:273.231 9:0.63054733 10:3.3240712 
0.20699226419980404 1:6092 2:160.81444 3:49.072159 4:0.95230503 5:6219 6:88.071422 7:0.58085431 8:350.143 9:0.62442296 10:3.2771013 
0.20729911541079668 1:6517 2:156.09473 3:54.409558 4:0.93728366 5:6820 6:91.091724 7:0.4867065 8:363.99 9:0.61812838 10:2.8688844 
0.20710012329343744 1:6019 2:150.31581 3:52.039141 4:0.93816121 5:6218 6:87.542155 7:0.69980235 8:334.892 9:0.67441102 10:2.8885144 
0.20707123368181385 1:4258 2:125.55295 3:43.877763 4:0.93694526 5:4359 6:73.630523 7:0.4823836 8:282.844 9:0.66883899 10:2.8614256 
0.20634722762859292 1:6059 2:159.88027 3:48.627482 4:0.95262436 5:6186 6:87.832559 7:0.49847799 8:346.092 9:0.63566412 10:3.2878583 
0.20375032519463593 1:5619 2:148.9491 3:48.913448 4:0.94454209 5:5762 6:84.58329 7:0.47202621 8:331.374 9:0.64303119 10:3.0451563 
0.20736552491451699 1:4218 2:121.4373 3:45.162675 4:0.92827232 5:4303 6:73.283862 7:0.61666667 8:273.784 9:0.70713171 10:2.6888863 
0.20718043606722136 1:5181 2:146.92524 3:46.292871 4:0.94906587 5:5332 6:81.219789 7:0.5647482 8:324.894 9:0.61679391 10:3.17382 
0.20698251780048477 1:6875 2:165.23805 3:53.887077 4:0.94532912 5:7027 6:93.560258 7:0.68633323 8:366.674 9:0.64257279 10:3.0663761 
0.20751514807063057 1:5000 2:125.91891 3:51.510428 4:0.91250024 5:5117 6:79.788456 7:0.66640011 8:293.922 9:0.7273035 10:2.4445325 
0.15270969385413302 1:4859 2:140.19365 3:44.858031 4:0.94742703 5:4967 6:78.655394 7:0.46793143 8:309.73 9:0.636488 10:3.1252743 
0.20724192805733976 1:4720 2:143.75344 3:42.298097 4:0.95573138 5:4844 6:77.522195 7:0.4643841 8:308.348 9:0.62383479 10:3.3985793 
0.20702814807405412 1:5695 2:140.63821 3:52.879156 4:0.92662201 5:5823 6:85.153386 7:0.81942446 8:318.558 9:0.70522315 10:2.6596154 
0.20696756092064994 1:6212 2:145.50976 3:55.166167 4:0.92534608 5:6345 6:88.934605 7:0.52201681 8:330.282 9:0.71560192 10:2.637663 
0.20212661111529559 1:6084 2:157.33973 3:50.393725 4:0.94732087 5:6225 6:88.013575 7:0.82305195 8:343.649 9:0.64739434 10:3.1222088 
0.20586476340640511 1:5889 2:150.25774 3:50.520512 4:0.94178144 5:6029 6:86.591614 7:0.65057446 8:337.622 9:0.64921709 10:2.9741927 
0.2062188643896552 1:6145 2:144.19892 3:55.363826 4:0.92335778 5:6317 6:88.4537 7:0.56345131 8:338.607 9:0.67350355 10:2.6045693 
0.20721559310545745 1:6564 2:167.75315 3:50.912913 4:0.95283176 5:6692 6:91.419606 7:0.43432806 8:365.839 9:0.61630889 10:3.2949038 
0.20706828033937835 1:5516 2:149.05085 3:48.212494 4:0.94624069 5:5648 6:83.804471 7:0.80478553 8:332.195 9:0.62812769 10:3.09154 
0.20725583772700445 1:6058 2:156.09661 3:50.846713 4:0.94545982 5:6273 6:87.82531 7:0.45235962 8:346.28 9:0.63486928 10:3.0699449 
0.19617119420337065 1:5018 2:139.11674 3:46.692402 4:0.94199223 5:5131 6:79.931946 7:0.79048519 8:306.972 9:0.66918006 10:2.9794298 
0.20699786929723729 1:5512 2:148.64436 3:47.698339 4:0.94711681 5:5633 6:83.774079 7:0.52736318 8:324.498 9:0.65780175 10:3.1163426 
0.20709991307386455 1:6340 2:146.65509 3:56.274265 4:0.92345013 5:6507 6:89.846195 7:0.51725545 8:343.397 9:0.67562565 10:2.6060773 
0.20714984635943129 1:5991 2:157.28646 3:49.522421 4:0.9491398 5:6160 6:87.338297 7:0.43768264 8:348.976 9:0.61818443 10:3.1760655 
0.20722454672670707 1:6051 2:150.64424 3:52.30937 4:0.93777712 5:6254 6:87.774555 7:0.8068 8:339.903 9:0.65815324 10:2.8798711 
0.14573313920777939 1:6645 2:158.66109 3:54.341738 4:0.93951711 5:6823 6:91.981937 7:0.48141708 8:360.791 9:0.64149527 10:2.9196912 
0.20705154022079769 1:6465 2:158.42413 3:53.009213 4:0.94235913 5:6664 6:90.727579 7:0.67273673 8:354.368 9:0.64694804 10:2.988615 
0.19576659138675617 1:6616 2:166.47274 3:52.040116 4:0.9498834 5:6790 6:91.781005 7:0.81177914 8:365.507 9:0.62232029 10:3.1989311 
0.20729805290417214 1:7376 2:161.8451 3:59.978047 4:0.92879688 5:7648 6:96.909313 7:0.53546279 8:371.439 9:0.67182439 10:2.6984057 
0.20750237475663619 1:6951 2:164.81238 3:54.445751 4:0.94385855 5:7127 6:94.07597 7:0.47674897 8:367.448 9:0.64694204 10:3.0270936 
0.20730509487854126 1:5720 2:141.06158 3:52.672903 4:0.92766898 5:5952 6:85.340086 7:0.58914409 8:327.5 9:0.67016738 10:2.6780673 
0.20703244959199543 1:6766 2:161.96906 3:54.570845 4:0.94153277 5:6983 6:92.815617 7:0.47510709 8:362.354 9:0.64755362 10:2.9680512 
0.2068072136638216 1:6185 2:166.20169 3:48.184791 4:0.95705161 5:6337 6:88.741121 7:0.48035104 8:360.689 9:0.59742552 10:3.4492561 
0.20734113735117149 1:5391 2:142.01558 3:49.389703 4:0.93757741 5:5505 6:82.849468 7:0.47099423 8:319.574 9:0.6633402 10:2.8754087 
0.20735280712295884 1:5187 2:136.86481 3:49.048643 4:0.93357852 5:5282 6:81.266805 7:0.4989899 8:304.844 9:0.70140815 10:2.7903894 
0.16093891080338285 1:6399 2:155.60892 3:53.465352 4:0.9391205 5:6584 6:90.263281 7:0.62319829 8:352.946 9:0.64551367 10:2.9104629 
0.20674585679215637 1:6481 2:154.76141 3:54.32168 4:0.93637443 5:6687 6:90.839779 7:0.58779249 8:359.414 9:0.63046634 10:2.8489805 
0.20750873700700539 1:6221 2:163.45726 3:49.170191 4:0.95368291 5:6351 6:88.999007 7:0.7720278 8:355.566 9:0.61834323 10:3.3243161 
0.20735758579790023 1:6588 2:172.77096 3:49.623976 4:0.95786343 5:6795 6:91.586583 7:0.43160377 8:382.144 9:0.56690379 10:3.4816026 
0.20747024225188404 1:5556 2:149.43877 3:47.556397 4:0.94801242 5:5676 6:84.107782 7:0.79280822 8:325.496 9:0.65899298 10:3.1423484 
0.20717497102155069 1:5796 2:153.92883 3:48.484671 4:0.94909795 5:5946 6:85.905159 7:0.45062976 8:341.489 9:0.6245753 10:3.1747937 
0.20698043118553161 1:6385 2:161.40701 3:51.477837 4:0.94777765 5:6574 6:90.164486 7:0.48007519 8:354.157 9:0.63970406 10:3.1354661 
0.20739996741462041 1:5283 2:132.48018 3:51.29221 4:0.9220088 5:5349 6:82.015392 7:0.80928309 8:299.396 9:0.7406252 10:2.5828519 
0.20702139433758382 1:6192 2:157.64647 3:51.823538 4:0.94442303 5:6414 6:88.791324 7:0.44859813 8:352.887 9:0.62484096 10:3.0419859 
0.2071932586807351 1:5665 2:139.31084 3:52.786017 4:0.92543427 5:5827 6:84.928806 7:0.57912492 8:321.157 9:0.69020006 10:2.6391618 
0.20767062784993734 1:6328 2:141.35836 3:58.211636 4:0.91127341 5:6474 6:89.761127 7:0.54693172 8:331.893 9:0.72190516 10:2.4283523 
0.20743369384369281 1:6381 2:139.09224 3:59.901571 4:0.90251388 5:6651 6:90.136239 7:0.5382085 8:339.413 9:0.69605196 10:2.3220132 
0.14548149458624965 1:6647 2:160.19633 3:54.299506 4:0.94080223 5:6823 6:91.995778 7:0.46908963 8:359.288 9:0.64706829 10:2.9502355 
0.20743698056851287 1:6632 2:150.8633 3:56.956601 4:0.92599417 5:6723 6:91.891918 7:0.8242605 8:342.5 9:0.71044953 10:2.6487413 
0.20766327473495325 1:6180 2:150.39453 3:53.162756 4:0.93543883 5:6376 6:88.705244 7:0.52452894 8:339.881 9:0.67227129 10:2.8289454 
0.19845806459470963 1:5956 2:147.19708 3:51.991491 4:0.93554403 5:6084 6:87.082804 7:0.65652557 8:331.816 9:0.67978238 10:2.8311763 
0.20703220827836216 1:6359 2:147.67707 3:56.167132 4:0.92484776 5:6597 6:89.980722 7:0.51023028 8:345.316 9:0.67013961 10:2.6292436 
0.20746675359946481 1:7022 2:167.97865 3:54.069059 4:0.94678029 5:7160 6:94.555212 7:0.82340525 8:374.547 9:0.62901071 10:3.1067426 
0.20318032736654953 1:6183 2:169.21772 3:47.363914 4:0.96002938 5:6365 6:88.726772 7:0.44418103 8:361.541 9:0.5944208 10:3.5727139 
0.20752079293555903 1:5295 2:134.2661 3:50.881144 4:0.92541408 5:5436 6:82.108485 7:0.68891491 8:306.525 9:0.7081806 10:2.6388183 
0.19653069271385437 1:5664 2:143.14892 3:50.930095 4:0.93456822 5:5794 6:84.921309 7:0.53545094 8:317.534 9:0.70591537 10:2.8106942 
0.20703710110859369 1:6536 2:161.319 3:52.471438 4:0.94562288 5:6664 6:91.224414 7:0.46685714 8:357.972 9:0.64094947 10:3.0744155 
0.20700843738140784 1:6275 2:151.78083 3:54.331208 4:0.93373757 5:6551 6:89.38444 7:0.49134758 8:348.201 9:0.65037459 10:2.7936215 
0.20719967197179429 1:6178 2:151.4674 3:53.039635 4:0.93668544 5:6298 6:88.69089 7:0.47669753 8:338.794 9:0.67637313 10:2.8557399 
0.20695449760316362 1:4542 2:128.71157 3:46.441521 4:0.93263604 5:4662 6:76.046394 7:0.79475066 8:288.62 9:0.68517917 10:2.7714762 
0.20760299650078337 1:5199 2:136.91053 3:49.362024 4:0.9327429 5:5354 6:81.360755 7:0.68264181 8:312.778 9:0.66781671 10:2.7736004 
0.20546836556571163 1:6128 2:152.17168 3:51.956284 4:0.93990647 5:6304 6:88.331262 7:0.65281773 8:342.749 9:0.65550533 10:2.9288407 
0.20686326924919207 1:5724 2:141.27016 3:52.2656 4:0.92904404 5:5834 6:85.369919 7:0.50210526 8:320.045 9:0.70224296 10:2.7029281 
0.2072585952423317 1:5101 2:148.44998 3:44.570979 4:0.95386293 5:5277 6:80.59029 7:0.44191285 8:328.785 9:0.59298157 10:3.330642 
0.20497861533738443 1:5349 2:145.76377 3:47.33697 4:0.94579946 5:5490 6:82.526107 7:0.4941796 8:318.958 9:0.66071697 10:3.0792798 
0.20739061711096635 1:6644 2:174.59561 3:49.636956 4:0.95873635 5:6855 6:91.975016 7:0.48030073 8:377.195 9:0.58682368 10:3.5174521 
0.20746778746786843 1:5764 2:160.96404 3:46.526534 4:0.95731423 5:5957 6:85.667688 7:0.74125514 8:365.078 9:0.54345365 10:3.4596181 
0.20593245365173402 1:6571 2:163.44023 3:52.134906 4:0.94775992 5:6741 6:91.468339 7:0.686123 8:360.57 9:0.6351293 10:3.1349482 
0.20747704603010725 1:4984 2:138.70837 3:46.388862 4:0.94241901 5:5098 6:79.660692 7:0.46148148 8:312.261 9:0.64232142 10:2.9901224 
0.20748096975428632 1:3554 2:94.599434 3:49.348379 4:0.85315581 5:3659 6:67.268814 7:0.81308625 8:235.807 9:0.80318188 10:1.9169715 
0.20707187707172781 1:6357 2:158.00588 3:51.828127 4:0.94467289 5:6475 6:89.96657 7:0.64768212 8:348.951 9:0.65604432 10:3.0486512 
0.20680780884258951 1:7242 2:168.49301 3:55.9352 4:0.94328874 5:7420 6:96.025001 7:0.63354037 8:376.879 9:0.64071443 10:3.0122894 
0.20658421935892091 1:6294 2:159.42611 3:51.310192 4:0.94679302 5:6447 6:89.519661 7:0.52502503 8:351.012 9:0.64193739 10:3.1071041 
0.20741315892043 1:5456 2:148.4133 3:47.776577 4:0.94676833 5:5618 6:83.347435 7:0.53574234 8:323.091 9:0.65680206 10:3.106403 
0.20733375800409926 1:4593 2:133.63396 3:44.56945 4:0.94274341 5:4721 6:76.472147 7:0.54471063 8:298.859 9:0.64620994 10:2.9983308 
0.20752852564468033 1:3992 2:136.39045 3:37.332708 4:0.9618096 5:4079 6:71.293564 7:0.4133789 8:293.298 9:0.58315257 10:3.6533768 
0.20698000198951932 1:5001 2:142.08709 3:45.491351 4:0.94736171 5:5151 6:79.796435 7:0.63400101 8:317.252 9:0.62439294 10:3.1233869 
0.20703066613767843 1:6774 2:166.50278 3:52.745076 4:0.94849839 5:6935 6:92.870473 7:0.68548877 8:367.956 9:0.62872869 10:3.1567454 
0.20692695184807189 1:6381 2:153.61939 3:53.865941 4:0.93650829 5:6577 6:90.136239 7:0.7447479 8:348.38 9:0.66068155 10:2.8518836 
0.20675408612591556 1:6555 2:155.6606 3:54.851328 4:0.93585786 5:6732 6:91.356911 7:0.48237545 8:355.358 9:0.65230449 10:2.8378638 
0.20656623796908299 1:6041 2:160.56954 3:48.704681 4:0.95288731 5:6170 6:87.701996 7:0.52991228 8:348.919 9:0.62354738 10:3.2967989 
0.19455363590467625 1:5017 2:138.47246 3:46.885773 4:0.94093301 5:5136 6:79.923981 7:0.6807327 8:308.443 9:0.6626804 10:2.9534003 
0.19883130029044796 1:5595 2:148.76178 3:48.788199 4:0.94469095 5:5726 6:84.40246 7:0.51935394 8:326.491 9:0.65958007 10:3.0491345 
0.20693939031360764 1:4924 2:135.51528 3:47.653412 4:0.93613303 5:5079 6:79.179742 7:0.73492537 8:305.64 9:0.66238048 10:2.8437686 
0.2067037298477119 1:5881 2:152.22318 3:49.659163 4:0.9452918 5:6053 6:86.532779 7:0.70812763 8:338.621 9:0.64451535 10:3.0653595 
0.18709860696234876 1:5456 2:140.18517 3:50.510334 4:0.93283204 5:5600 6:83.347435 7:0.5272007 8:318.271 9:0.67684635 10:2.7753761 
0.1968459642429638 1:6227 2:151.48769 3:53.566692 4:0.93539512 5:6368 6:89.041915 7:0.79304636 8:341.401 9:0.6713657 10:2.8280203 
0.20735481160297492 1:4357 2:104.1688 3:54.503692 4:0.85219475 5:4432 6:74.481573 7:0.53796765 8:260.732 9:0.80539467 10:1.9112247 
0.20753442112887838 1:4663 2:122.54121 3:48.982269 4:0.91663694 5:4748 6:77.052683 7:0.56214587 8:279.395 9:0.75065092 10:2.5017462 
0.20732737190789569 1:5040 2:125.26439 3:52.325014 4:0.90857737 5:5188 6:80.106974 7:0.57442444 8:291.302 9:0.74636878 10:2.3939676 
0.20697604732591002 1:6131 2:162.73097 3:48.415919 4:0.9547152 5:6255 6:88.352881 7:0.45801584 8:354.076 9:0.61453723 10:3.3611046 
0.20753981415172584 1:5463 2:159.60202 3:44.675883 4:0.96002317 5:5658 6:83.400885 7:0.43189185 8:349.574 9:0.56177553 10:3.5724425 
0.13623678291980529 1:6612 2:156.84803 3:54.853044 4:0.93685391 5:6795 6:91.753255 7:0.5917308 8:353.955 9:0.66320319 10:2.8594226 
0.2070264504357735 1:5681 2:143.54984 3:51.340918 4:0.93385485 5:5848 6:85.048656 7:0.68611111 8:322.859 9:0.68487113 10:2.7960123 
0.20731726753382551 1:5739 2:146.5922 3:51.382737 4:0.93655719 5:5973 6:85.481704 7:0.47571286 8:332.011 9:0.6542461 10:2.8529465 
0.20754476359058649 1:5784 2:122.1913 3:61.753627 4:0.86289408 5:5917 6:85.816185 7:0.75234131 8:301.985 9:0.79701667 10:1.9786902 
0.20745487409751265 1:7292 2:163.12791 3:58.005205 4:0.93464543 5:7526 6:96.355917 7:0.49005376 8:372.527 9:0.66029957 10:2.8122979 
0.16792463826967483 1:6442 2:157.29187 3:53.068215 4:0.94136607 5:6609 6:90.566049 7:0.5842554 8:351.962 9:0.65349013 10:2.9639562 
0.20627529585529003 1:6005 2:151.47642 3:51.497374 4:0.94043644 5:6121 6:87.440285 7:0.46622671 8:339.654 9:0.65410792 10:2.9414398 
0.2070177694615537 1:5800 2:148.75706 3:50.328854 4:0.94102782 5:5944 6:85.934797 7:0.85093897 8:325.62 9:0.68740979 10:2.9557013 
0.20558170356854538 1:5584 2:138.22144 3:52.273224 4:0.92573019 5:5731 6:84.31945 7:0.78043326 8:314.589 9:0.70903587 10:2.644211 
0.20701893468988786 1:6127 2:154.83482 3:51.040547 4:0.94410491 5:6370 6:88.324055 7:0.71186244 8:362.325 9:0.58649072 10:3.0335651 
0.20757697072680198 1:4019 2:99.88402 3:51.997388 4:0.85381434 5:4107 6:71.534256 7:0.82951496 8:252.331 9:0.79320721 10:1.920943 
0.19523395306214186 1:6601 2:160.62549 3:53.858726 4:0.9421092 5:6784 6:91.676901 7:0.4592 8:361.429 9:0.63499982 10:2.9823485 
0.20697480494983339 1:4935 2:136.3214 3:47.652915 4:0.93691286 5:5094 6:79.268135 7:0.66761364 8:308.576 9:0.65128748 10:2.8607147 
0.19449243498300006 1:6712 2:162.63721 3:53.735933 4:0.94383972 5:6912 6:92.444491 7:0.45872061 8:363.035 9:0.63997767 10:3.0266007 
0.14890243245152468 1:5985 2:152.09282 3:50.843344 4:0.94246971 5:6116 6:87.294551 7:0.67398649 8:338.018 9:0.6582553 10:2.9914008 
0.20710561965367749 1:5004 2:139.49631 3:46.251628 4:0.94343355 5:5125 6:79.820365 7:0.64551084 8:310.958 9:0.65031489 10:3.0160303 
0.20713341218982828 1:5811 2:149.46542 3:51.425945 4:0.93894553 5:6077 6:86.016248 7:0.5314615 8:343.245 9:0.61980104 10:2.9064205 
0.12675022515744314 1:6109 2:146.23627 3:54.24148 4:0.92866612 5:6249 6:88.19422 7:0.52618432 8:334.283 9:0.68699157 10:2.6960228 
0.18342479016984503 1:5350 2:152.54912 3:45.454058 4:0.95457729 5:5498 6:82.533821 7:0.43881234 8:332.283 9:0.608902 10:3.3561166 
0.19966256778764258 1:5742 2:144.55654 3:51.115272 4:0.93539652 5:5919 6:85.504044 7:0.5404744 8:324.697 9:0.68441024 10:2.8280499 
0.20759577793357964 1:6903 2:161.12502 3:55.869728 4:0.93795844 5:7164 6:93.750587 7:0.55817902 8:360.596 9:0.66712302 10:2.8839414 
0.20703877983082838 1:5379 2:143.62173 3:48.193074 4:0.9420204 5:5511 6:82.757208 7:0.50440735 8:316.989 9:0.67270247 10:2.9801321 
0.20747520791680901 1:5818 2:161.27561 3:47.593829 4:0.9554637 5:6076 6:86.068041 7:0.44102486 8:349.534 9:0.59841811 10:3.3885825 
0.16236908397185384 1:6584 2:155.72512 3:54.524353 4:0.93670035 5:6745 6:91.558774 7:0.48988095 8:355.34 9:0.65525673 10:2.8560654 
0.20697301630907461 1:6612 2:158.64452 3:54.278159 4:0.93965008 5:6817 6:91.753255 7:0.49108734 8:369.522 9:0.60850214 10:2.9228059 
0.18440744950360544 1:6107 2:154.61865 3:51.371627 4:0.94319231 5:6289 6:88.179782 7:0.49926423 8:346.448 9:0.63938386 10:3.0098064 
0.2076490197007459 1:6662 2:170.41413 3:50.371166 4:0.9553177 5:6840 6:92.099521 7:0.42812159 8:381.749 9:0.57445852 10:3.3831682 
0.20360180049965435 1:5848 2:150.14691 3:50.81978 4:0.94097825 5:6033 6:86.289657 7:0.46159918 8:338.81 9:0.64018396 10:2.9544974 
0.20767214559952429 1:4515 2:109.80557 3:53.238679 4:0.87460011 5:4629 6:75.820027 7:0.57729191 8:266.923 9:0.79633467 10:2.0625149 
0.20722631091689528 1:5667 2:129.0743 3:56.911979 4:0.89754436 5:5791 6:84.943796 7:0.64295439 8:305.872 9:0.76117345 10:2.2679636 
0.19545075292430128 1:5791 2:146.11857 3:51.540698 4:0.93572439 5:5916 6:85.868098 7:0.74993525 8:327.134 9:0.68000493 10:2.8350135 
0.202097509781164 1:5320 2:136.58352 3:50.46759 4:0.92923079 5:5443 6:82.302092 7:0.64034665 8:311.215 9:0.69024053 10:2.706361 
0.20699269651026286 1:5572 2:154.20155 3:46.752449 4:0.95292996 5:5682 6:84.2288 7:0.47640219 8:332.836 9:0.63206302 10:3.2982561 
0.20696883551785394 1:5317 2:142.53322 3:48.356153 4:0.94069181 5:5426 6:82.278883 7:0.49460465 8:317.33 9:0.66352037 10:2.9475716 
0.12597672358163547 1:5842 2:149.94176 3:50.440789 4:0.94171829 5:5986 6:86.245379 7:0.54582827 8:338.21 9:0.64179825 10:2.9726293 
0.20761771787462821 1:7012 2:168.01271 3:54.067306 4:0.94680602 5:7216 6:94.48786 7:0.51833235 8:373.837 9:0.63050307 10:3.1074733 
0.19369485428322647 1:5747 2:160.77357 3:46.349593 4:0.95754281 5:5887 6:85.541263 7:0.44214495 8:346.523 9:0.60143255 10:3.4687158 
0.20770668192563391 1:3915 2:133.00161 3:38.506122 4:0.95717311 5:4068 6:70.60264 7:0.51043025 8:284.453 9:0.60802382 10:3.4540379 
0.20715901017998184 1:4886 2:132.39989 3:48.480898 4:0.93054788 5:5032 6:78.873623 7:0.78301282 8:297.345 9:0.6944517 10:2.7309702 
0.20509447762107821 1:5693 2:150.38342 3:49.221299 4:0.94491862 5:5844 6:85.138433 7:0.75937041 8:333.832 9:0.64194101 10:3.055251 
0.207556688539485 1:5681 2:146.60191 3:50.2381 4:0.9394508 5:5812 6:85.048656 7:0.49016393 8:326.941 9:0.66787607 10:2.918142 
0.1946283446470925 1:6259 2:162.53512 3:50.101504 4:0.95130528 5:6445 6:89.270411 7:0.76684636 8:352.953 9:0.63136581 10:3.2441166 
0.17643630151700163 1:6431 2:162.76652 3:51.523045 4:0.94857725 5:6625 6:90.488693 7:0.51039683 8:359.001 9:0.62704261 10:3.1591013 
0.20733454398271023 1:3746 2:93.998885 3:51.715687 4:0.83505043 5:3847 6:69.061967 7:0.635346 8:239.34 9:0.82176391 10:1.8176088 
0.20761329200906231 1:6810 2:151.59144 3:58.350585 4:0.92294992 5:6968 6:93.116923 7:0.6833233 8:349.845 9:0.69920678 10:2.5979421 
0.20728353975224489 1:6298 2:176.92149 3:45.533306 4:0.9663144 5:6450 6:89.548102 7:0.67756859 8:377.697 9:0.55478594 10:3.8855401 
0.20462135710847823 1:5923 2:147.13396 3:51.954737 4:0.93558114 5:6054 6:86.841222 7:0.52490252 8:327.327 9:0.69468502 10:2.8319644 
0.20718562075782754 1:5868 2:148.76711 3:52.432073 4:0.93583291 5:6119 6:86.437085 7:0.47660819 8:337.478 9:0.64745418 10:2.8373302 
0.20705324035316186 1:6717 2:164.33503 3:52.54187 4:0.94751069 5:6922 6:92.478917 7:0.52773413 8:374.062 9:0.60325097 10:3.1276966 
0.2067014654258012 1:6228 2:149.27064 3:54.008489 4:0.93224957 5:6437 6:89.049064 7:0.56824818 8:337.547 9:0.68689438 10:2.7638366 
0.20710161063304822 1:6462 2:168.18499 3:49.98927 4:0.95480657 5:6625 6:90.706526 7:0.46911071 8:366.314 9:0.6051594 10:3.3644218 
0.20689597005266186 1:5972 2:143.40106 3:54.082931 4:0.9261544 5:6148 6:87.199694 7:0.50756417 8:338.991 9:0.65306037 10:2.6515032 
0.18517824620432474 1:6907 2:158.19403 3:56.195226 4:0.93477903 5:7022 6:93.777745 7:0.6682469 8:353.268 9:0.69548973 10:2.8150796 
0.20462781003157587 1:6250 2:159.54965 3:51.377308 4:0.94673472 5:6457 6:89.206206 7:0.45280012 8:357.316 9:0.61515556 10:3.1054498 
0.20729018305215663 1:4931 2:128.89985 3:49.265401 4:0.92408003 5:5067 6:79.236003 7:0.63217949 8:293.021 9:0.72168449 10:2.6164378 
0.20736665324391684 1:6596 2:155.30437 3:55.037838 4:0.93509887 5:6756 6:91.642174 7:0.5112782 8:351.766 9:0.66985806 10:2.8217745 
0.20478593285212104 1:6176 2:150.33891 3:53.78383 4:0.93381719 5:6381 6:88.676533 7:0.48054777 8:350.272 9:0.63256667 10:2.7952438 
0.20591903747071005 1:6507 2:158.32754 3:53.045213 4:0.94220581 5:6683 6:91.021809 7:0.48440408 8:354.978 9:0.64891497 10:2.9847659 
0.20722679222447871 1:6143 2:157.26154 3:50.14721 4:0.94779584 5:6498 6:88.439304 7:0.44878726 8:402.529 9:0.47642663 10:3.1359978 
0.20767471799544363 1:5777 2:149.22453 3:50.705095 4:0.94050111 5:5918 6:85.76424 7:0.68472206 8:332.072 9:0.65833617 10:2.9429888 
0.20609920586480596 1:5921 2:146.02198 3:53.309817 4:0.93097585 5:6083 6:86.826559 7:0.51210863 8:332.423 9:0.67332199 10:2.7391199 
0.20254646402803003 1:5858 2:151.65474 3:50.136393 4:0.9437725 5:6030 6:86.363402 7:0.66417234 8:338.175 9:0.64368922 10:3.0248434 
0.20713925766846075 1:6202 2:150.44992 3:54.312785 4:0.93256488 5:6486 6:88.862994 7:0.52034567 8:346.389 9:0.64955128 10:2.7700645 
0.20708547544206737 1:5678 2:142.53172 3:51.693747 4:0.93191281 5:5867 6:85.026197 7:0.55568604 8:330.725 9:0.65233578 10:2.7572334 
0.16540473433126596 1:6116 2:151.15832 3:52.431657 4:0.93791476 5:6261 6:88.244734 7:0.47931034 8:338.124 9:0.67224154 10:2.882959 
0.20744524154616895 1:6036 2:156.96382 3:50.289848 4:0.94728527 5:6268 6:87.665694 7:0.45078417 8:353.125 9:0.60827808 10:3.1211829 
0.20739891412188644 1:5960 2:144.46005 3:53.584315 4:0.92866152 5:6114 6:87.112041 7:0.52902539 8:328.485 9:0.69410479 10:2.6959391 
0.1776268576510065 1:6241 2:156.80503 3:51.322368 4:0.9449203 5:6395 6:89.141954 7:0.46882512 8:347.61 9:0.64905205 10:3.055296 
0.2071363361206664 1:4234 2:105.6401 3:52.432337 4:0.868134 5:4329 6:73.422723 7:0.67700672 8:259.741 9:0.78864164 10:2.014789 
0.20670541892984962 1:5568 2:149.43403 3:48.171304 4:0.94661772 5:5683 6:84.198562 7:0.46016529 8:328.272 9:0.64929403 10:3.1021379 
0.20523244643579464 1:5797 2:153.09381 3:49.271839 4:0.94679379 5:5967 6:85.91257 7:0.5188865 8:337.382 9:0.63998434 10:3.107126 
0.17158196533593337 1:6922 2:166.59031 3:54.292349 4:0.94540307 5:7120 6:93.879519 7:0.45653608 8:372.064 9:0.62835657 10:3.0683938 
0.20747346120583315 1:4557 2:124.11089 3:47.83611 4:0.92273691 5:4697 6:76.171862 7:0.61739602 8:286.561 9:0.69735629 10:2.5945022 
0.19959667922136792 1:5974 2:148.13368 3:52.323936 4:0.93553989 5:6141 6:87.214294 7:0.51239386 8:334.2 9:0.67214379 10:2.8310882 
0.20707876838632455 1:5666 2:147.42997 3:49.678393 4:0.94151802 5:5879 6:84.936301 7:0.58232271 8:331.32 9:0.64862118 10:2.967688 
0.16818058112620504 1:5586 2:137.25232 3:52.995445 4:0.92244984 5:5724 6:84.334549 7:0.82352941 8:313.074 9:0.7161711 10:2.589889 
0.20723869906762279 1:5852 2:142.67392 3:53.379275 4:0.92737434 5:5994 6:86.319163 7:0.49795779 8:329.274 9:0.67826484 10:2.6728336 
0.20690458921885355 1:5757 2:151.29102 3:49.355498 4:0.94529082 5:5935 6:85.615653 7:0.67761299 8:331.807 9:0.65710535 10:3.0653327 
0.20749059568756925 1:6321 2:164.36539 3:50.099047 4:0.95241545 5:6540 6:89.711466 7:0.58258065 8:361.704 9:0.60714026 10:3.2808088 
0.20686529502111295 1:6740 2:151.49769 3:57.706029 4:0.92461472 5:6908 6:92.637112 7:0.56096546 8:349.995 9:0.6914266 10:2.6253355 
0.20760675883968593 1:5630 2:144.74202 3:50.227464 4:0.93786006 5:5742 6:84.666042 7:0.67880395 8:323.471 9:0.67615701 10:2.8817306 
0.20721295879883522 1:5783 2:159.78616 3:46.693447 4:0.95634971 5:5919 6:85.808766 7:0.63410088 8:346.04 9:0.60689065 10:3.4220252 
0.20733328430187073 1:6748 2:165.01946 3:53.32001 4:0.94636023 5:6942 6:92.692073 7:0.46464229 8:367.009 9:0.62955186 10:3.0948881 
0.20701719941902913 1:5340 2:134.6233 3:51.901418 4:0.922695 5:5517 6:82.45665 7:0.716971 8:310.735 9:0.69497755 10:2.5938271 
0.20594317242344984 1:5877 2:147.68787 3:51.78269 4:0.93651688 5:6042 6:86.503346 7:0.47487072 8:335.517 9:0.65604933 10:2.8520703 
0.20743018302313071 1:5956 2:155.80744 3:49.564625 4:0.94805226 5:6157 6:87.082804 7:0.452034 8:346.517 9:0.62332631 10:3.1435211 
0.20773071960348016 1:6806 2:159.30756 3:55.286303 4:0.93784984 5:6975 6:93.089572 7:0.63135436 8:357.701 9:0.66843857 10:2.8815013 
0.20636106543086769 1:6287 2:160.16269 3:51.079544 4:0.94778067 5:6469 6:89.469867 7:0.62001972 8:357.147 9:0.61938304 10:3.1355544 
0.19930330830391135 1:6394 2:162.92829 3:50.977186 4:0.9497923 5:6562 6:90.228009 7:0.47766323 8:355.512 9:0.63573185 10:3.1961021 
0.19037546997151292 1:5926 2:159.85726 3:47.792334 4:0.95426288 5:6076 6:86.863212 7:0.48870196 8:346.878 9:0.61889646 10:3.3448305 
0.20709027230707749 1:6368 2:155.80001 3:53.211609 4:0.939868 5:6558 6:90.044375 7:0.57785844 8:349.348 9:0.65568673 10:2.9279327 
0.20703072470484962 1:6018 2:160.82537 3:48.891084 4:0.95267169 5:6232 6:87.534882 7:0.47929277 8:350.723 9:0.61479957 10:3.2894621 
0.20478554190104126 1:6364 2:163.66043 3:49.923745 4:0.95233804 5:6528 6:90.01609 7:0.65379084 8:356.816 9:0.62813269 10:3.2782082 
0.20704928393478317 1:6676 2:167.75332 3:51.468659 4:0.95177028 5:6888 6:92.196243 7:0.60471014 8:367.204 9:0.62217332 10:3.2593295 
0.20724893195137517 1:6098 2:145.02989 3:54.983357 4:0.92534857 5:6326 6:88.114782 7:0.57204503 8:332.793 9:0.6919089 10:2.6377052 
0.20045825292155178 1:5865 2:155.3604 3:48.993105 4:0.948975 5:6003 6:86.414987 7:0.47741148 8:342.074 9:0.62985089 10:3.1710666 
0.20701882974515559 1:4849 2:144.06638 3:43.853133 4:0.95254579 5:4965 6:78.574414 7:0.52083781 8:315.565 9:0.61190555 10:3.2852016 
0.20725545030529807 1:4592 2:123.76287 3:48.566553 4:0.91978777 5:4745 6:76.463821 7:0.76190476 8:284.948 9:0.71069051 10:2.5483149 
0.20731333428429646 1:6374 2:154.28943 3:53.520134 4:0.937909 5:6525 6:90.086785 7:0.5192245 8:340.617 9:0.69038172 10:2.8828297 
0.2070229398870721 1:5652 2:152.36392 3:48.217038 4:0.94860596 5:5824 6:84.831303 7:0.54911105 8:341.103 9:0.61043713 10:3.1599601 
0.20653320068352315 1:6260 2:156.0191 3:52.037339 4:0.94273883 5:6459 6:89.277542 7:0.5366941 8:351.177 9:0.63786984 10:2.9982145 
0.12616456300544987 1:6889 2:160.64226 3:55.474937 4:0.93848053 5:7026 6:93.655471 7:0.49330469 8:359.213 9:0.67090644 10:2.8957628 
0.20713170500757674 1:5411 2:150.41133 3:46.371378 4:0.95129012 5:5536 6:83.003007 7:0.43778317 8:331.598 9:0.61839162 10:3.2436243 
0.20605007062929998 1:6412 2:152.19927 3:54.643176 4:0.93332836 5:6563 6:90.354922 7:0.75827815 8:346.611 9:0.67068516 10:2.7853298 
0.20703384293742741 1:4913 2:135.32487 3:47.477911 4:0.93643395 5:5132 6:79.09125 7:0.75007634 8:323.528 9:0.58983818 10:2.8502702 
0.19925605327349724 1:5080 2:137.84889 3:47.934126 4:0.9375949 5:5215 6:80.424231 7:0.72364672 8:309.8 9:0.66513645 10:2.8757985 
0.20709476580907482 1:6512 2:158.57525 3:53.256619 4:0.94191746 5:6745 6:91.056773 7:0.49660642 8:359.871 9:0.6318741 10:2.9775688 
0.20678542443915204 1:6468 2:151.44427 3:55.09165 4:0.93148682 5:6618 6:90.748627 7:0.58428184 8:339.838 9:0.7037785 10:2.7489515 
0.20699237573302304 1:6253 2:154.37772 3:52.226582 4:0.94103692 5:6425 6:89.227613 7:0.48367884 8:354.432 9:0.62550739 10:2.9559223 
0.19662152452150328 1:6250 2:169.82961 3:48.585516 4:0.95820457 5:6470 6:89.206206 7:0.4384119 8:368.117 9:0.57958633 10:3.4954781 
0.20235845544883413 1:6336 2:160.41915 3:50.976374 4:0.94816787 5:6523 6:89.817848 7:0.79120879 8:360.612 9:0.6122724 10:3.1469314 
0.19848811150249351 1:5938 2:150.04995 3:51.391106 4:0.93952027 5:6103 6:86.951115 7:0.60790336 8:339.308 9:0.6481296 10:2.919765 
0.1861832428264513 1:5632 2:142.18902 3:51.210509 4:0.93289133 5:5751 6:84.681079 7:0.77003008 8:321.453 9:0.68491637 10:2.7765594 
0.20706824274979513 1:7268 2:162.71372 3:57.857077 4:0.93464741 5:7476 6:96.197219 7:0.56341085 8:367.999 9:0.67442165 10:2.8123392 
0.20709399578227414 1:6413 2:165.3726 3:50.489958 4:0.95225292 5:6635 6:90.361968 7:0.59198745 8:363.06 9:0.61138432 10:3.2753562 
0.20683949983976896 1:6157 2:160.66742 3:49.226686 4:0.95190648 5:6336 6:88.540024 7:0.5584074 8:357.388 9:0.6057579 10:3.2638276 
0.20728093710256354 1:6642 2:165.81543 3:52.551874 4:0.94844895 5:6912 6:91.961171 7:0.73214286 8:366.549 9:0.6212189 10:3.1552714 
0.20697838188127382 1:6585 2:154.10372 3:55.817779 4:0.93209684 5:6783 6:91.565727 7:0.65876351 8:352.458 9:0.66611758 10:2.7608358 
0.20542299311132178 1:5642 2:144.23066 3:50.615756 4:0.93639938 5:5812 6:84.756224 7:0.55264962 8:320.9 9:0.68849931 10:2.849521 
0.20703873546643026 1:5906 2:153.8887 3:50.477542 4:0.9446731 5:6105 6:86.716508 7:0.462454 8:344.332 9:0.62596282 10:3.0486567 
0.1784227445833656 1:5313 2:140.39484 3:49.440018 4:0.93594364 5:5449 6:82.247928 7:0.55985248 8:315.54 9:0.67056493 10:2.8397004 
0.20684319823287431 1:6782 2:160.71757 3:55.013175 4:0.93959173 5:6990 6:92.925296 7:0.46321973 8:363.183 9:0.64612512 10:2.9214378 
0.2071296745733669 1:3928 2:124.8997 3:41.414954 4:0.94342511 5:4051 6:70.719763 7:0.54314159 8:275.529 9:0.65019962 10:3.0158117 
0.20747953764164026 1:5489 2:158.40135 3:44.617029 4:0.95951112 5:5598 6:83.599114 7:0.82890365 8:337.016 9:0.60729829 10:3.5502442 
0.20746630772795063 1:6930 2:164.74772 3:54.5931 4:0.94349951 5:7094 6:93.933753 7:0.60917722 8:368.197 9:0.64236609 10:3.0177389 
0.20712070809476696 1:6283 2:143.39752 3:56.908499 4:0.91787988 5:6441 6:89.4414 7:0.54332411 8:332.719 9:0.71321705 10:2.5197909 
0.20721033186967663 1:6406 2:163.78505 3:50.735668 4:0.95081157 5:6619 6:90.312638 7:0.4589154 8:364.023 9:0.60749002 10:3.2282032 
0.20583865929904382 1:6282 2:158.26459 3:52.199219 4:0.94404297 5:6548 6:89.434282 7:0.52402402 8:355.842 9:0.62343816 10:3.0319341 
0.20757296818390072 1:4171 2:133.37762 3:41.167295 4:0.95117497 5:4346 6:72.874427 7:0.69331782 8:297.013 9:0.59415415 10:3.2398927 
0.20746803847885775 1:5484 2:149.73591 3:48.110819 4:0.94697594 5:5640 6:83.56103 7:0.4454191 8:334.469 9:0.61602107 10:3.1123126 
0.20679527315863608 1:6068 2:144.58515 3:55.115307 4:0.92449417 5:6228 6:87.897768 7:0.78034979 8:331.377 9:0.6944016 10:2.6233212 
0.20701837525430325 1:5702 2:149.71791 3:49.735809 4:0.9432101 5:5941 6:85.205703 7:0.47643717 8:345.076 9:0.60173818 10:3.0102638 
0.20711905864210756 1:6393 2:168.89173 3:49.135808 4:0.95674409 5:6545 6:90.220953 7:0.44575373 8:365.397 9:0.60170638 10:3.4372433 
0.20453549503348739 1:5810 2:153.8173 3:48.871577 4:0.94818296 5:5993 6:86.008847 7:0.60710554 8:345.197 9:0.61270577 10:3.1473775 
0.20739595448840692 1:6665 2:153.02687 3:56.400891 4:0.92960057 5:6814 6:92.120256 7:0.69282744 8:348.05 9:0.69139581 10:2.7131995 
0.20733843888380715 1:5009 2:152.63432 3:43.588139 4:0.95835716 5:5294 6:79.860233 7:0.42327193 8:328.511 9:0.58325848 10:3.5017399 
0.20699224073963823 1:7073 2:165.72019 3:55.034231 4:0.94324725 5:7261 6:94.897963 7:0.47910316 8:370.072 9:0.64899458 10:3.0112203 
0.20690373104895848 1:5329 2:158.8579 3:43.3892 4:0.96197652 5:5489 6:82.371679 7:0.58240437 8:339.895 9:0.57965026 10:3.6612313 
0.12116527223404527 1:6462 2:152.7502 3:54.832259 4:0.9333503 5:6615 6:90.706526 7:0.49163116 8:344.829 9:0.68291909 10:2.7857725 
0.20400993889430671 1:6527 2:158.85581 3:53.919222 4:0.94063405 5:6757 6:91.161585 7:0.76072261 8:355.451 9:0.6491783 10:2.9461814 
0.19984424017511687 1:6280 2:154.02596 3:52.867322 4:0.93924903 5:6462 6:89.420044 7:0.65280665 8:343.6 9:0.66844118 10:2.9134436 
0.20747408798624989 1:6019 2:151.25109 3:51.185833 4:0.9409965 5:6164 6:87.542155 7:0.47319182 8:339.544 9:0.65605777 10:2.9549406 
0.19647760034538486 1:6141 2:159.25605 3:50.329278 4:0.94875006 5:6343 6:88.424906 7:0.54253909 8:348.679 9:0.63474221 10:3.1642825 
0.20747357982121234 1:6679 2:153.44518 3:56.184421 4:0.93055464 5:6975 6:92.216956 7:0.50172776 8:375.965 9:0.59378124 10:2.7310983 
0.20710519743815869 1:6567 2:152.68019 3:55.875749 4:0.93062825 5:6799 6:91.440495 7:0.6667682 8:365.029 9:0.61933004 10:2.7324947 
0.20702967529491945 1:4390 2:110.62193 3:51.369225 4:0.88564263 5:4557 6:74.763103 7:0.73955526 8:276.911 9:0.71943899 10:2.1534671 
0.20759964215802248 1:5980 2:146.83033 3:54.16782 4:0.92946339 5:6298 6:87.25808 7:0.64259617 8:350.623 9:0.61126601 10:2.7106561 
0.20689985309825243 1:5155 2:136.51705 3:48.568104 4:0.93457513 5:5289 6:81.015738 7:0.65088384 8:311.231 9:0.66876392 10:2.8108376 
0.20605537792546552 1:6162 2:152.03648 3:52.56744 4:0.93832466 5:6295 6:88.575968 7:0.75598086 8:335.8 9:0.68670494 10:2.8922177 
0.20745154470647009 1:4259 2:127.75842 3:43.111019 4:0.94134643 5:4392 6:73.639169 7:0.60747397 8:285.362 9:0.65724187 10:2.9634749 
0.20623389322174601 1:4797 2:129.19193 3:47.844419 4:0.92889788 5:4909 6:78.151968 7:0.54166667 8:292.436 9:0.70488442 10:2.7002508 
0.19819072296893808 1:5822 2:154.22374 3:49.203211 4:0.94774198 5:5995 6:86.097623 7:0.53246753 8:342.245 9:0.62460843 10:3.1344244 
0.20699207769972033 1:5290 2:149.77746 3:45.376048 4:0.9530044 5:5455 6:82.069709 7:0.65357055 8:332.518 9:0.60122249 10:3.3008044 
0.20705716566917517 1:6638 2:156.56237 3:54.908759 4:0.93648228 5:6832 6:91.933476 7:0.7879867 8:353.557 9:0.66731092 10:2.8513188 
0.20677965088390826 1:6434 2:151.41489 3:55.40171 4:0.93065677 5:6631 6:90.509796 7:0.54158249 8:346.323 9:0.67410609 10:2.7330365 
0.20707744728666666 1:4872 2:128.83276 3:49.36898 4:0.92366454 5:5002 6:78.760543 7:0.51262626 8:296.739 9:0.69529305 10:2.6095893 
0.20772785312604986 1:6389 2:159.85445 3:51.92205 4:0.94577988 5:6534 6:90.192724 7:0.49960901 8:351.153 9:0.65110343 10:3.0787393 
0.20400201914794047 1:5919 2:156.93917 3:48.451533 4:0.95115033 5:6060 6:86.811894 7:0.54412576 8:346.248 9:0.62041695 10:3.2390961 
0.17056314350225177 1:6389 2:167.61003 3:49.340095 4:0.95569019 5:6575 6:90.192724 7:0.47761082 8:360.987 9:0.61611194 10:3.397035 
0.20687811407362905 1:6842 2:164.67328 3:53.501109 4:0.94575096 5:6999 6:93.335443 7:0.81724797 8:362.108 9:0.65571738 10:3.0779415 
0.20719859945853275 1:6441 2:161.18827 3:51.797715 4:0.94696078 5:6644 6:90.559019 7:0.57263514 8:358.198 9:0.63083655 10:3.1118798 
0.17652936045999529 1:6236 2:160.75442 3:50.555917 4:0.94926025 5:6397 6:89.106239 7:0.47386018 8:351.279 9:0.63505537 10:3.179735 
0.18598277107123701 1:6608 2:158.11093 3:54.285727 4:0.93921137 5:6786 6:91.725498 7:0.62046948 8:354.873 9:0.65937729 10:2.9125691 
0.1877707784356033 1:5151 2:137.28883 3:48.863126 4:0.93451841 5:5310 6:80.9843 7:0.53948471 8:309.397 9:0.67619074 10:2.8096612 
0.17301614411854163 1:6283 2:154.07961 3:52.961689 4:0.93906875 5:6449 6:89.4414 7:0.61525656 8:348.529 9:0.64997864 10:2.9092655 
0.12497183682832336 1:6600 2:161.96303 3:53.067823 4:0.94479781 5:6774 6:91.669957 7:0.56764428 8:361.067 9:0.63617735 10:3.0520006 
0.20000127532865009 1:5622 2:145.22272 3:50.664327 4:0.93716991 5:5784 6:84.605867 7:0.51940133 8:325.664 9:0.66613338 10:2.8663703 
0.20583406368309015 1:5105 2:146.3386 3:44.868637 4:0.95183576 5:5246 6:80.621882 7:0.44291168 8:323.559 9:0.61277162 10:3.2614898 
0.19740473145080301 1:5693 2:141.04861 3:51.843231 4:0.93000148 5:5787 6:85.138433 7:0.50193969 8:320.996 9:0.69430742 10:2.7206755 
0.20682185241018414 1:6357 2:152.64932 3:53.574802 4:0.93638801 5:6506 6:89.96657 7:0.83098039 8:347.47 9:0.66164867 10:2.8492746 
0.20747381157880659 1:6707 2:168.40841 3:51.268895 4:0.9525341 5:6833 6:92.410052 7:0.43631278 8:368.319 9:0.62128365 10:3.2848066 
0.20593327303945269 1:6980 2:165.01187 3:54.525292 4:0.94382961 5:7132 6:94.272011 7:0.47213203 8:366.49 9:0.65304187 10:3.0263362 
0.20727871636900594 1:6374 2:167.31937 3:49.611868 4:0.95502975 5:6536 6:90.086785 7:0.42476343 8:365.781 9:0.59865917 10:3.3725675 
0.20661192968406375 1:6129 2:145.87755 3:53.950645 4:0.92909739 5:6221 6:88.338469 7:0.51743352 8:326.935 9:0.72057079 10:2.7039075 
0.20737925376574348 1:5259 2:145.34011 3:47.010294 4:0.94624518 5:5368 6:81.828887 7:0.46738358 8:317.538 9:0.65542292 10:3.0916656 
0.20714579956979084 1:4623 2:134.0008 3:45.296325 4:0.94113524 5:4800 6:76.721486 7:0.85326689 8:300.627 9:0.64280285 10:2.958315 
0.20724793588290849 1:4855 2:135.32151 3:46.081782 4:0.94023165 5:4964 6:78.623012 7:0.51670924 8:301.342 9:0.67186152 10:2.9365512 
0.17812507304567682 1:6372 2:152.12241 3:54.678279 4:0.93316971 5:6510 6:90.072651 7:0.84419714 8:342.748 9:0.68160972 10:2.782136 
0.20764394898993394 1:6261 2:158.17422 3:51.719842 4:0.94503118 5:6433 6:89.284673 7:0.45587593 8:354.225 9:0.62703986 10:3.0582888 
0.20635065316788662 1:5657 2:157.59663 3:46.474319 4:0.95552993 5:5788 6:84.868817 7:0.69761993 8:340.92 9:0.61163325 10:3.3910475 
0.18480595133976324 1:6255 2:152.85414 3:53.13863 4:0.93762708 5:6411 6:89.241881 7:0.72868127 8:342.583 9:0.66973896 10:2.8765164 
0.20704381448963674 1:6785 2:144.35877 3:60.842333 4:0.90684415 5:6981 6:92.945846 7:0.53619409 8:342.257 9:0.72787204 10:2.3726699 
0.20701588522586695 1:2947 2:98.253577 3:39.843558 4:0.91408722 5:3096 6:61.255505 7:0.50170242 8:228.483 9:0.70938535 10:2.465984 
0.20697257720955076 1:4935 2:108.61734 3:60.156956 4:0.83262109 5:5193 6:79.268135 7:0.60182927 8:290.143 9:0.73666973 10:1.8055657 
0.19355701854502111 1:5992 2:148.92717 3:51.827689 4:0.93749195 5:6121 6:87.345586 7:0.72498488 8:333.279 9:0.67790021 10:2.8735059 
0.20761429672943016 1:5640 2:138.00012 3:52.566902 4:0.92460831 5:5748 6:84.7412 7:0.53755242 8:312.954 9:0.72364898 10:2.6252283 
0.20698953216403337 1:5037 2:113.66438 3:57.909223 4:0.86048514 5:5176 6:80.083129 7:0.72422717 8:284.386 9:0.78264603 10:1.9628027 
0.20709603225901335 1:5450 2:153.62944 3:45.672036 4:0.95478816 5:5580 6:83.301594 7:0.46942291 8:336.037 9:0.6065019 10:3.3637528 
0.20654448604851111 1:6712 2:169.93584 3:51.353772 4:0.95324611 5:6852 6:92.444491 7:0.43743483 8:370.305 9:0.61509566 10:3.3091209 
0.18013148499596099 1:6580 2:162.52763 3:52.106332 4:0.94721473 5:6725 6:91.530958 7:0.57719298 8:357.57 9:0.646716 10:3.1191531 
0.20704416832459854 1:4506 2:131.37845 3:44.364533 4:0.94125918 5:4591 6:75.744422 7:0.46539971 8:290.661 9:0.67023565 10:2.9613397 
0.20694953340923225 1:6499 2:159.10596 3:52.904323 4:0.94309973 5:6671 6:90.965839 7:0.56646039 8:354.567 9:0.64962058 10:3.0074284 
0.20701662587436515 1:6613 2:163.52997 3:52.449226 4:0.94717013 5:6770 6:91.760193 7:0.58824053 8:362.382 9:0.63281265 10:3.1178719 
0.20759605912921708 1:7202 2:168.91939 3:55.326179 4:0.94484075 5:7404 6:95.759444 7:0.83939394 8:375.068 9:0.64334356 10:3.0531547 
0.20731083023404345 1:4956 2:132.31374 3:48.527453 4:0.9303154 5:5084 6:79.436611 7:0.63973151 8:298.835 9:0.69739405 10:2.726575 
0.20697312768172668 1:5630 2:140.72662 3:52.162389 4:0.92876675 5:5901 6:84.666042 7:0.56834242 8:322.355 9:0.68084686 10:2.697856 
0.20509381133293889 1:5155 2:135.56009 3:48.820379 4:0.93289893 5:5259 6:81.015738 7:0.62942613 8:304.342 9:0.69938249 10:2.7767112 
0.2070726096402542 1:5262 2:141.91589 3:48.540187 4:0.93968725 5:5415 6:81.852223 7:0.51497358 8:317.89 9:0.65434528 10:2.9236783 
0.20755204356062937 1:6936 2:155.75724 3:57.620392 4:0.92905677 5:7075 6:93.974409 7:0.67464254 8:352.474 9:0.70155993 10:2.7031617 
0.20744312892157096 1:6066 2:145.39979 3:54.133465 4:0.92810934 5:6190 6:87.883281 7:0.53852983 8:328.385 9:0.70687992 10:2.6859502 
0.20697646511887491 1:6581 2:169.33612 3:50.161684 4:0.95511802 5:6691 6:91.537913 7:0.8486138 8:365.879 9:0.61776996 10:3.3758062 
0.20715169829945765 1:5880 2:171.38114 3:44.242966 4:0.9661034 5:6012 6:86.525421 7:0.65588399 8:361.612 9:0.56506905 10:3.8736358 
0.12815469486368805 1:5671 2:141.33554 3:52.235073 4:0.92919811 5:5841 6:84.973769 7:0.56972072 8:322.057 9:0.68707481 10:2.7057594 
0.2073352697489359 1:5288 2:147.65272 3:46.481408 4:0.94915728 5:5444 6:82.054194 7:0.82175602 8:320.874 9:0.64540489 10:3.1765974 
0.20747344147097696 1:4147 2:119.57819 3:44.647787 4:0.92767956 5:4239 6:72.664464 7:0.52520263 8:269.677 9:0.71656581 10:2.6782557 
0.2070183389038078 1:6443 2:163.58911 3:51.2017 4:0.94975654 5:6689 6:90.573078 7:0.66190672 8:361.637 9:0.61908785 10:3.1949938 
0.20726942099816051 1:6513 2:156.67952 3:54.0439 4:0.93862739 5:6693 6:91.063764 7:0.51690476 8:349.153 9:0.67136607 10:2.8991157 
0.18155314919409193 1:5717 2:142.83929 3:52.265664 4:0.93065206 5:5859 6:85.317703 7:0.66237979 8:323.529 9:0.68635946 10:2.732947 
0.1925627713160985 1:5517 2:143.79575 3:50.218559 4:0.93703504 5:5691 6:83.812067 7:0.63457557 8:323.223 9:0.66360299 10:2.8633985 
0.1829983079041613 1:5801 2:146.17425 3:52.053913 4:0.93444456 5:5945 6:85.942205 7:0.48381985 8:333.74 9:0.65447974 10:2.8081318 
0.20735288284891995 1:4988 2:131.38596 3:49.597898 4:0.92601053 5:5121 6:79.692652 7:0.73786982 8:300.422 9:0.69450095 10:2.6490229 
0.20344308118518703 1:5600 2:153.82137 3:47.083829 4:0.95200123 5:5754 6:84.440165 7:0.49487451 8:335.39 9:0.62560134 10:3.2669683 
0.20702197886265089 1:5040 2:132.95747 3:49.005762 4:0.92959514 5:5169 6:80.106974 7:0.5247267 8:301.533 9:0.69657952 10:2.7130987 
0.20713669550812944 1:5468 2:142.11505 3:49.731245 4:0.93677342 5:5590 6:83.439043 7:0.76582633 8:322.544 9:0.66048116 10:2.8576613 
0.20659277979900614 1:6273 2:151.63013 3:53.706321 4:0.93517237 5:6425 6:89.370194 7:0.63134058 8:338.365 9:0.68851639 10:2.82332 
0.20680287605461298 1:6800 2:171.45558 3:51.69029 4:0.95347276 5:6997 6:93.04853 7:0.71055381 8:372.901 9:0.61451386 10:3.3169786 
0.2070762905553869 1:6661 2:164.19467 3:52.677392 4:0.94713924 5:6850 6:92.092609 7:0.44782843 8:364.96 9:0.62843268 10:3.1169856 
0.20683679796532772 1:6893 2:161.9867 3:55.114532 4:0.94033823 5:7073 6:93.682657 7:0.76056493 8:362.332 9:0.65978853 10:2.9390923 
0.2070162472118553 1:5046 2:135.18143 3:48.524045 4:0.93335488 5:5178 6:80.154643 7:0.49306234 8:304.09 9:0.6857295 10:2.7858648 
0.20738290365637083 1:6115 2:152.48462 3:51.967572 4:0.94013389 5:6252 6:88.237519 7:0.76918239 8:340.788 9:0.66166435 10:2.9342265 
0.18182518111841689 1:5383 2:139.40176 3:50.718547 4:0.93146536 5:5534 6:82.787973 7:0.81858273 8:318.492 9:0.66686387 10:2.7485362 
0.12100963052078727 1:6326 2:159.42615 3:51.60556 4:0.94616124 5:6489 6:89.746941 7:0.70367075 8:355.228 9:0.62997697 10:3.0893211 
0.20716422152880498 1:5526 2:133.40507 3:53.710514 4:0.91537063 5:5698 6:83.880401 7:0.53391304 8:310.201 9:0.72166286 10:2.4837794 
0.20719334301555278 1:5794 2:141.1143 3:53.327708 4:0.92584464 5:5941 6:85.890337 7:0.53048892 8:323.077 9:0.69755149 10:2.6461722 
0.20683522661212078 1:7293 2:169.98306 3:55.226946 4:0.94574949 5:7524 6:96.362524 7:0.50840014 8:374.74 9:0.65261338 10:3.0779008 
0.19350898112309883 1:5748 2:158.2935 3:46.985201 4:0.95493241 5:5884 6:85.548705 7:0.44321073 8:343.34 9:0.61274224 10:3.3690075 
0.20762061348295599 1:6060 2:148.19494 3:52.566253 4:0.9349763 5:6167 6:87.839807 7:0.78854912 8:328.904 9:0.70395383 10:2.819203 
0.20665761356878837 1:6106 2:151.0114 3:52.461549 4:0.93771657 5:6252 6:88.172562 7:0.68560521 8:338.655 9:0.66903938 10:2.8785158 
0.20746277571880734 1:4395 2:140.15514 3:41.317328 4:0.95555988 5:4599 6:74.805667 7:0.53702346 8:304.813 9:0.59443144 10:3.3921637 
0.202610621968285 1:6729 2:160.69649 3:54.182205 4:0.9414434 5:6856 6:92.561487 7:0.49253404 8:358.102 9:0.6593969 10:2.9658536 
0.20463847245213765 1:5916 2:150.52015 3:51.161962 4:0.94046119 5:6091 6:86.789891 7:0.52925389 8:339.177 9:0.64622721 10:2.9420324 
0.20724216138819451 1:5241 2:139.96667 3:48.211409 4:0.93880495 5:5338 6:81.688729 7:0.47994505 8:312.725 9:0.67343986 10:2.9031856 
0.20495518136842811 1:6816 2:170.42038 3:51.610567 4:0.95304056 5:6956 6:93.157934 7:0.43331214 8:370.801 9:0.6229564 10:3.3020444 
0.1893242362417491 1:5068 2:124.23488 3:52.9986 4:0.9044404 5:5159 6:80.329185 7:0.53324916 8:288.12 9:0.76718421 10:2.3441163 
0.1886657530052557 1:6373 2:157.07862 3:53.076755 4:0.94118227 5:6477 6:90.079718 7:0.81705128 8:351.531 9:0.64807687 10:2.9594617 
0.20748124527837472 1:5021 2:138.63038 3:47.509495 4:0.93944263 5:5112 6:79.955836 7:0.80853462 8:308.055 9:0.66488045 10:2.9179511 
0.12833537160028713 1:6021 2:146.07521 3:54.134942 4:0.92879402 5:6177 6:87.556698 7:0.60573441 8:333.04 9:0.68215913 10:2.6983534 
0.12425903987898299 1:5193 2:141.9325 3:46.93393 4:0.9437437 5:5309 6:81.313793 7:0.60552705 8:312.811 9:0.66690528 10:3.0240915 
0.18851340337763423 1:5752 2:143.97748 3:51.453873 4:0.93396119 5:5903 6:85.578466 7:0.50567033 8:331.985 9:0.65583081 10:2.7981854 
0.20493407760005869 1:6651 2:164.34812 3:52.819677 4:0.94694726 5:6884 6:92.023455 7:0.51141869 8:364.236 9:0.62998626 10:3.1114943 
0.15614409765800005 1:6234 2:160.43501 3:50.636911 4:0.94888482 5:6373 6:89.091949 7:0.82199367 8:354.723 9:0.62258401 10:3.1683412 
0.12511161041242769 1:6039 2:152.14648 3:51.583949 4:0.94077147 5:6208 6:87.687477 7:0.51483376 8:340.162 9:0.65584815 10:2.9494927 
0.18932736754176199 1:4646 2:144.63315 3:41.145359 4:0.95868173 5:4747 6:76.912099 7:0.64153549 8:313.596 9:0.59367402 10:3.5151754 
0.18860533671984467 1:5155 2:142.52719 3:47.463373 4:0.94292232 5:5290 6:81.015738 7:0.458834 8:317.4 9:0.64302031 10:3.002888 
0.12519846150731284 1:6147 2:151.39269 3:52.711661 4:0.9374283 5:6335 6:88.468093 7:0.49389362 8:353.521 9:0.61807709 10:2.8720911 
0.15032454011140819 1:5848 2:149.46194 3:51.675695 4:0.93832857 5:6121 6:86.289657 7:0.53484544 8:339.268 9:0.63845667 10:2.8923064 
0.14301643097149069 1:6745 2:163.07726 3:53.856915 4:0.94389211 5:6917 6:92.671467 7:0.76171654 8:362.737 9:0.64418129 10:3.0279726 
0.20699214548682737 1:6505 2:144.29487 3:58.14618 4:0.91521418 5:6619 6:91.00782 7:0.77838937 8:330.607 9:0.74788199 10:2.4815882 
0.20733342701062304 1:6204 2:162.0415 3:49.439082 4:0.95231988 5:6359 6:88.877321 7:0.66042155 8:352.796 9:0.6263749 10:3.2775993 
0.20709630693573364 1:2805 2:77.047682 3:49.242678 4:0.76910743 5:2950 6:59.7615 7:0.60322581 8:209.823 9:0.80063864 10:1.5646526 
0.20778717880698133 1:6634 2:155.19678 3:55.687595 4:0.93340706 5:6843 6:91.905773 7:0.49544436 8:354.953 9:0.66167333 10:2.7869184 
0.20707033173178274 1:6433 2:155.58677 3:54.178219 4:0.93741333 5:6571 6:90.502762 7:0.68377976 8:346.942 9:0.67159841 10:2.8717586 
0.20420142821333465 1:6526 2:154.04834 3:55.55154 4:0.93271627 5:6756 6:91.154601 7:0.49816794 8:351.708 9:0.66296781 10:2.7730705 
0.20713469719040706 1:3379 2:99.014789 3:44.631551 4:0.89264699 5:3491 6:65.591741 7:0.65357834 8:237.593 9:0.75219557 10:2.2184931 
0.20088314131844331 1:5869 2:149.42495 3:50.798681 4:0.94043948 5:6004 6:86.44445 7:0.59936683 8:329.442 9:0.67954159 10:2.9415125 
0.1372265343121396 1:6297 2:155.38562 3:52.620996 4:0.94091322 5:6461 6:89.540993 7:0.52676928 8:348.589 9:0.65120271 10:2.9529206 
0.20746457539176424 1:6093 2:151.72668 3:52.121205 4:0.93914523 5:6233 6:88.07865 7:0.72717508 8:338.588 9:0.6678792 10:2.9110356 
0.20720257391886263 1:6084 2:149.18283 3:53.147087 4:0.93438888 5:6281 6:88.013575 7:0.79591837 8:338.117 9:0.66875194 10:2.8069803 
0.2023993946579295 1:5914 2:146.32635 3:52.171352 4:0.93427965 5:6052 6:86.775219 7:0.53308094 8:329.452 9:0.68471034 10:2.804726 
0.20701498607089547 1:4404 2:102.86347 3:55.967979 4:0.83902061 5:4535 6:74.882221 7:0.61354138 8:260.512 9:0.81545821 10:1.8378987 
0.20707423273070302 1:5990 2:154.83467 3:50.626862 4:0.94503345 5:6285 6:87.331008 7:0.45791606 8:360.5 9:0.57919679 10:3.0583502 
0.20700432144871572 1:6095 2:139.57538 3:57.064217 4:0.91260538 5:6250 6:88.093104 7:0.53747795 8:323.807 9:0.73048467 10:2.4459353 
0.20719533329852768 1:5922 2:161.03567 3:48.342781 4:0.95387653 5:6135 6:86.833891 7:0.59160839 8:353.318 9:0.59613791 10:3.3311214 
0.20688791822665067 1:6010 2:156.15254 3:49.816669 4:0.94774608 5:6134 6:87.476681 7:0.59252687 8:342.294 9:0.64459326 10:3.134544 
0.20701906154657984 1:6853 2:162.79229 3:54.673291 4:0.94191658 5:7109 6:93.410442 7:0.49093775 8:371.251 9:0.62482059 10:2.9775469 
0.20001753955357243 1:6253 2:160.889 3:50.52645 4:0.94940797 5:6400 6:89.227613 7:0.44206433 8:355.765 9:0.6208288 10:3.184253 
0.20032158879774509 1:6673 2:166.52552 3:52.288276 4:0.94942445 5:6911 6:92.175525 7:0.47643867 8:366.561 9:0.62407743 10:3.1847583 
0.20769379170726787 1:6107 2:156.34456 3:50.619625 4:0.94613593 5:6270 6:88.179782 7:0.45469436 8:351.752 9:0.62024694 10:3.0886155 
0.20738005235716225 1:6462 2:165.49227 3:50.579443 4:0.95215028 5:6584 6:90.706526 7:0.4457474 8:358.28 9:0.63260364 10:3.2719275 
0.20524545417633072 1:7180 2:164.96928 3:56.473754 4:0.93958018 5:7357 6:95.613074 7:0.77756119 8:372.033 9:0.65188559 10:2.9211672 
0.20718961948673448 1:4401 2:123.82823 3:45.983477 4:0.9284934 5:4526 6:74.856711 7:0.61192992 8:281.814 9:0.69636367 10:2.6928853 
0.205918983142761 1:5400 2:141.10687 3:49.522871 4:0.93639045 5:5518 6:82.918596 7:0.5 8:320.647 9:0.66000809 10:2.8493274 
0.20704261076905386 1:6627 2:161.69414 3:53.39043 4:0.9439131 5:6824 6:91.857272 7:0.46024029 8:363.596 9:0.6299247 10:3.0285229 
0.20723738717937329 1:6325 2:144.68055 3:56.967625 4:0.91921858 5:6509 6:89.739847 7:0.79260652 8:343.799 9:0.67245182 10:2.5396978 
0.20740189093252143 1:5222 2:132.84176 3:50.905167 4:0.92366476 5:5332 6:81.540523 7:0.53263974 8:300.788 9:0.72531343 10:2.6095929 
0.20640364798883792 1:6329 2:158.40078 3:52.087312 4:0.94438829 5:6506 6:89.768219 7:0.77542269 8:349.984 9:0.64930475 10:3.0410626 
0.19216604312470764 1:5901 2:156.46738 3:48.553826 4:0.95063452 5:6048 6:86.679793 7:0.4519761 8:345.417 9:0.62150992 10:3.2225552 
0.20743284845083021 1:6285 2:154.23879 3:52.775974 4:0.93963786 5:6436 6:89.455634 7:0.62338822 8:340.028 9:0.68310236 10:2.922519 
0.19789431058661794 1:6265 2:147.4833 3:55.016301 4:0.92781763 5:6454 6:89.313189 7:0.50914262 8:342.754 9:0.67014052 10:2.68072 
0.20610757573752211 1:5703 2:148.97767 3:49.496188 4:0.94319524 5:5823 6:85.213175 7:0.59037267 8:331.651 9:0.6515543 10:3.0098817 
0.18312774347791627 1:6095 2:145.93989 3:54.29674 4:0.92821323 5:6278 6:88.093104 7:0.5187234 8:335.442 9:0.68068894 10:2.6878205 
0.20726091910033068 1:6080 2:153.29794 3:51.728403 4:0.9413481 5:6275 6:87.984637 7:0.51832907 8:342.501 9:0.65131301 10:2.9635157 
0.20718648645462875 1:4777 2:131.18024 3:47.407261 4:0.93241465 5:4913 6:77.988879 7:0.49146091 8:299.227 9:0.67044561 10:2.7670916 
0.18310266172140316 1:5353 2:151.1772 3:45.855051 4:0.95288879 5:5495 6:82.556958 7:0.59836799 8:331.923 9:0.61056571 10:3.2968495 
0.20323481844639602 1:6534 2:152.18988 3:55.508597 4:0.93111234 5:6677 6:91.210455 7:0.81369863 8:341.11 9:0.70566746 10:2.7417353 
0.20728923372609495 1:6890 2:173.49927 3:51.467643 4:0.95498791 5:7124 6:93.662268 7:0.487615 8:396.069 9:0.5519343 10:3.3710358 
0.1757442855037657 1:5265 2:141.69021 3:47.713285 4:0.94159635 5:5393 6:81.875553 7:0.71467354 8:316.689 9:0.65969362 10:2.9696175 
0.20743330986725214 1:5480 2:136.76093 3:51.713334 4:0.92575274 5:5600 6:83.53055 7:0.54365079 8:307.603 9:0.72779537 10:2.6445971 
0.20743681051624041 1:5835 2:149.12213 3:50.68503 4:0.94046542 5:5992 6:86.193693 7:0.46957991 8:334.037 9:0.65714556 10:2.9421336 
0.20743899094232587 1:4853 2:129.51199 3:48.648854 4:0.92676888 5:4945 6:78.606816 7:0.82421875 8:295.021 9:0.70067124 10:2.6621796 
0.20746286476380665 1:5124 2:146.12117 3:45.436306 4:0.95042643 5:5281 6:80.771774 7:0.69771242 8:323.545 9:0.61510548 10:3.2159562 
0.20258731331896626 1:5892 2:152.34346 3:50.5802 4:0.94327437 5:6068 6:86.613668 7:0.56453004 8:343.758 9:0.62656622 10:3.011919 
0.20704354757961546 1:7179 2:168.80984 3:55.163961 4:0.94509986 5:7391 6:95.606416 7:0.50717061 8:373.408 9:0.64700343 10:3.0601471 
0.20694120368924812 1:5814 2:156.97636 3:48.088979 4:0.95192044 5:6005 6:86.038449 7:0.46015038 8:344.497 9:0.61562182 10:3.2642897 
0.20564018404739667 1:5999 2:145.61581 3:53.128311 4:0.93106528 5:6131 6:87.39659 7:0.5387033 8:327.981 9:0.70079558 10:2.7408326 
0.20732489707055529 1:5508 2:147.77057 3:48.998662 4:0.94342497 5:5764 6:83.743677 7:0.54491492 8:328.607 9:0.64098841 10:3.0158083 
0.20728872683806199 1:6923 2:161.87536 3:55.907519 4:0.93846518 5:7140 6:93.8863 7:0.48043026 8:365.01 9:0.65297217 10:2.895413 
0.085352299630951284 1:6075 2:149.06146 3:53.107675 4:0.93437909 5:6236 6:87.948452 7:0.63479624 8:336.166 9:0.67553612 10:2.806778 
