svm_type one_class
kernel_type rbf
gamma 0.10000000000000001
nr_class 2
total_sv 559
rho 0.10044763818735923
SV
0.10018674891030366 1:9508 2:165.33047 3:73.902263 4:0.89453534 5:9758 6:110.02709 7:0.79551539 8:392.576 9:0.77526744 10:2.2371503 
0.1006282095722399 1:8856 2:160.44511 3:70.745424 4:0.89754039 5:9013 6:106.18761 7:0.7008547 8:378.418 9:0.7771483 10:2.2679222 
0.1006513140575219 1:7014 2:140.67669 3:64.564927 4:0.8884571 5:7144 6:94.501334 7:0.63064197 8:338.599 9:0.76878391 10:2.1788406 
0.10064200091721415 1:9454 2:166.12216 3:73.441117 4:0.89697019 5:9922 6:109.7142 7:0.59797596 8:419.399 9:0.67541497 10:2.2619776 
0.10068717200749312 1:8664 2:154.30657 3:72.232698 4:0.88366934 5:8883 6:105.03022 7:0.64608501 8:372.383 9:0.78514273 10:2.1362426 
0.10070098743260023 1:10203 2:169.48562 3:77.318941 4:0.88987848 5:10399 6:113.97747 7:0.78273878 8:401.74 9:0.7944153 10:2.1920324 
0.10062056668097186 1:8604 2:159.02891 3:69.45025 4:0.89960009 5:8762 6:104.66591 7:0.56486345 8:373.08 9:0.77679484 10:2.2898248 
0.10000634443669437 1:9161 2:161.56476 3:72.871876 4:0.89250466 5:9388 6:108.00068 7:0.65797601 8:385.978 9:0.77272977 10:2.2171072 
0.10000806388463912 1:9547 2:164.98846 3:74.393403 4:0.89257414 5:9704 6:110.25252 7:0.57071975 8:391.631 9:0.78220874 10:2.2177834 
0.10066366388583023 1:8271 2:153.78872 3:69.491091 4:0.89208847 5:8528 6:102.62049 7:0.76139188 8:367.162 9:0.77099654 10:2.2130711 
0.10019896839025086 1:8329 2:151.38577 3:71.370087 4:0.88189539 5:8560 6:102.97967 7:0.66658663 8:364.616 9:0.78728374 10:2.1211375 
0.10062830879283544 1:9424 2:163.75242 3:73.978696 4:0.89213362 5:9695 6:109.53999 7:0.5843254 8:391.788 9:0.77151235 10:2.2135078 
0.10065698916712099 1:7650 2:151.19985 3:65.357946 4:0.90174807 5:7914 6:98.69287 7:0.73423553 8:359.049 9:0.74569951 10:2.3134119 
0.10064674580750199 1:8986 2:158.82035 3:73.079248 4:0.8878475 5:9131 6:106.96416 7:0.57996644 8:377.556 9:0.79216112 10:2.1732619 
0.099919941004870172 1:5681 2:128.82433 3:56.60596 4:0.89828942 5:5817 6:85.048656 7:0.60974563 8:305.328 9:0.76577536 10:2.2758085 
0.10065700488318852 1:8340 2:159.00713 3:67.783017 4:0.90458695 5:8587 6:103.04765 7:0.75297941 8:374.423 9:0.7475683 10:2.3458255 
0.10000395026544577 1:9062 2:160.39721 3:72.800187 4:0.89106567 5:9267 6:107.41553 7:0.58676509 8:381.036 9:0.78433556 10:2.2032527 
0.10001749977161248 1:8918 2:155.29758 3:74.20105 4:0.87846912 5:9238 6:106.55867 7:0.74721408 8:380.783 9:0.77289808 10:2.0929297 
0.10062820434671629 1:8998 2:160.77552 3:71.881102 4:0.89448905 5:9197 6:107.03555 7:0.79096343 8:385.829 9:0.75956705 10:2.2366868 
0.10070154693722783 1:6853 2:138.10956 3:64.272951 4:0.88511279 5:6984 6:93.410442 7:0.64504895 8:331.444 9:0.78391734 10:2.1487975 
0.10062261584712161 1:7899 2:148.73238 3:68.038626 4:0.88923189 5:8095 6:100.28619 7:0.62915173 8:362.624 9:0.75486431 10:2.1859991 
0.10062057446305206 1:8569 2:150.7565 3:72.900955 4:0.87530704 5:8767 6:104.45281 7:0.60549746 8:367.481 9:0.79738898 10:2.0679634 
0.10062825676735759 1:6687 2:133.07624 3:65.076463 4:0.87227459 5:6880 6:92.272167 7:0.58823012 8:325.742 9:0.79194254 10:2.0449212 
0.099970450715246989 1:8329 2:157.29272 3:67.966187 4:0.90182569 5:8508 6:102.97967 7:0.56095097 8:371.121 9:0.75992664 10:2.3142791 
0.10063171871544636 1:9449 2:162.11408 3:75.083786 4:0.88627782 5:9613 6:109.68519 7:0.6362963 8:388.377 9:0.78720657 10:2.159109 
0.1006793814447072 1:8437 2:158.93664 3:67.990606 4:0.90388083 5:8577 6:103.64517 7:0.67767068 8:374.399 9:0.75636 10:2.3376265 
0.10045319993213798 1:6207 2:136.76532 3:58.297468 4:0.90460109 5:6411 6:88.898807 7:0.77201493 8:324.125 9:0.74244887 10:2.3459907 
0.085065966220213021 1:7992 2:156.28594 3:66.301769 4:0.90555272 5:8201 6:100.87483 7:0.58635363 8:370.141 9:0.73304553 10:2.3571911 
0.10062763417767839 1:7459 2:145.54154 3:66.560504 4:0.8892971 5:7688 6:97.453034 7:0.59396401 8:348.954 9:0.76975782 10:2.1866052 
0.10065109588179327 1:6777 2:135.24511 3:64.559854 4:0.87871084 5:6930 6:92.891035 7:0.60878548 8:327.592 9:0.79356184 10:2.0948794 
0.10064696168288703 1:7882 2:145.27677 3:70.498859 4:0.87436282 5:8102 6:100.17821 7:0.58733234 8:354.052 9:0.79015481 10:2.0606967 
0.099896802784817135 1:9054 2:162.76357 3:71.456761 4:0.89847639 5:9234 6:107.36811 7:0.62047697 8:385.069 9:0.76731421 10:2.277791 
0.10067609243461176 1:8129 2:154.14699 3:68.767502 4:0.89497494 5:8264 6:101.73576 7:0.56100759 8:367.126 9:0.75790837 10:2.2415674 
0.097961657116017981 1:9144 2:158.50137 3:74.326521 4:0.88323376 5:9429 6:107.90043 7:0.58465473 8:382.21 9:0.78657835 10:2.1325009 
0.10071360103049545 1:9552 2:170.38632 3:72.73987 4:0.90429343 5:9915 6:110.28139 7:0.66103806 8:405.95 9:0.7283818 10:2.3424061 
0.10070784717668241 1:8952 2:156.49536 3:73.576486 4:0.88258587 5:9245 6:106.76161 7:0.70845204 8:380.155 9:0.77841021 10:2.1269752 
0.10070284864279588 1:8542 2:160.22108 3:68.724576 4:0.90333492 5:8853 6:104.28812 7:0.68875988 8:400.319 9:0.66981832 10:2.3313505 
0.1007015529096961 1:9684 2:161.99871 3:77.053151 4:0.87963976 5:10118 6:111.04077 7:0.57305166 8:411.314 9:0.71931259 10:2.1024281 
0.10070154893115819 1:8611 2:153.36607 3:72.383803 4:0.88161594 5:8826 6:104.70848 7:0.6030112 8:370.714 9:0.78738199 10:2.1187899 
0.10070153931323506 1:9418 2:163.9483 3:74.272492 4:0.89149839 5:9720 6:109.50511 7:0.77038855 8:393.337 9:0.76496039 10:2.2073892 
0.10070106796763269 1:8745 2:157.33117 3:72.284105 4:0.88820922 5:9040 6:105.52004 7:0.65212528 8:380.577 9:0.75872536 10:2.1765666 
0.10001759410184388 1:8989 2:157.91426 3:73.260563 4:0.88587386 5:9222 6:106.98201 7:0.64280606 8:382.306 9:0.77285677 10:2.1555153 
0.096640553498622855 1:8929 2:157.11825 3:72.913765 4:0.88579886 5:9151 6:106.62437 7:0.57277568 8:376.323 9:0.79230275 10:2.1548503 
0.10069821287395642 1:9748 2:161.80834 3:77.798738 4:0.87682593 5:10031 6:111.40709 7:0.76641245 8:396.24 9:0.78020505 10:2.0798325 
0.10069233739329489 1:9594 2:169.05257 3:73.266201 4:0.90120503 5:9793 6:110.52357 7:0.55909091 8:397.346 9:0.76361049 10:2.3073745 
0.10069246634855011 1:9299 2:163.43409 3:73.676237 4:0.89262453 5:9589 6:108.8111 7:0.55635994 8:393.122 9:0.7561212 10:2.2182742 
0.082851921885551738 1:7875 2:145.43181 3:69.73396 4:0.8775441 5:8080 6:100.13372 7:0.65592204 8:354.105 9:0.78921678 10:2.0855234 
0.10068836846863452 1:9579 2:166.71132 3:74.102821 4:0.89577993 5:9884 6:110.43714 7:0.58738043 8:399.799 9:0.75308957 10:2.2497298 
0.10069232686659774 1:9539 2:167.60346 3:73.389458 4:0.8990356 5:9806 6:110.20632 7:0.64400486 8:398.325 9:0.75550542 10:2.2837539 
0.10068836203809414 1:9356 2:169.60229 3:71.030259 4:0.90807628 5:9580 6:109.14408 7:0.79557823 8:396.347 9:0.7484261 10:2.3877471 
0.10068570748471112 1:8838 2:167.32373 3:68.448508 4:0.91249928 5:9099 6:106.07965 7:0.54785519 8:390.396 9:0.72870734 10:2.4445197 
0.10067746602953949 1:8817 2:161.20085 3:70.802624 4:0.89837958 5:9050 6:105.95354 7:0.62117796 8:382.554 9:0.75708599 10:2.2767638 
0.10068836091048632 1:8534 2:153.28838 3:71.562448 4:0.88433732 5:8784 6:104.23927 7:0.63285132 8:369.86 9:0.78394893 10:2.1420226 
0.10002705999682138 1:9749 2:169.81785 3:73.917964 4:0.90029613 5:10014 6:111.4128 7:0.76733569 8:405.899 9:0.74359074 10:2.2973827 
0.10068009568557872 1:8493 2:155.98828 3:70.070072 4:0.8934308 5:8684 6:103.98857 7:0.77675142 8:371.389 9:0.77377183 10:2.2261756 
0.10003317104426787 1:10124 2:171.40267 3:76.141159 4:0.89591581 5:10434 6:113.53536 7:0.69304491 8:412.226 9:0.7486714 10:2.2511171 
0.100669000024496 1:8423 2:157.20119 3:69.462173 4:0.89708009 5:8589 6:103.55915 7:0.57043207 8:371.276 9:0.76786153 10:2.2631194 
0.10067388184974302 1:9960 2:172.8068 3:74.049294 4:0.90353744 5:10142 6:112.61201 7:0.56979405 8:407.905 9:0.75223086 10:2.3336725 
0.10067622569550902 1:9041 2:159.31183 3:73.488331 4:0.88725145 5:9395 6:107.291 7:0.55719216 8:388.877 9:0.75127998 10:2.167852 
0.1006731541867471 1:9273 2:163.20434 3:73.098628 4:0.89408549 5:9505 6:108.65887 7:0.56611722 8:390.16 9:0.76549902 10:2.2326594 
0.10065868945493224 1:8859 2:167.90711 3:67.583451 4:0.91541778 5:9042 6:106.2056 7:0.69221753 8:390.443 9:0.73026298 10:2.4844411 
0.10000689370626789 1:8901 2:168.68826 3:68.033572 4:0.91506365 5:9045 6:106.45706 7:0.57410991 8:387.029 9:0.74672665 10:2.4794856 
0.10067315420396815 1:10020 2:170.43734 3:76.123162 4:0.8947166 5:10341 6:112.9507 7:0.73676471 8:408.736 9:0.75368835 10:2.2389682 
0.10066210090177605 1:7706 2:145.89857 3:68.43532 4:0.88316581 5:7923 6:99.05344 7:0.59276923 8:352.85 9:0.77778332 10:2.1319192 
0.10062134794886381 1:8643 2:157.48841 3:70.323128 4:0.89476921 5:8767 6:104.90286 7:0.62521701 8:369.819 9:0.79413793 10:2.2394966 
0.09991797395585994 1:8872 2:159.40782 3:71.874861 4:0.89258121 5:9170 6:106.28349 7:0.62619989 8:381.496 9:0.76603995 10:2.2178522 
0.10068009504579598 1:9377 2:165.72277 3:72.686287 4:0.89868157 5:9541 6:109.2665 7:0.56055715 8:390.921 9:0.7710735 10:2.279973 
0.10000634923771946 1:8811 2:155.27969 3:73.107605 4:0.88223335 5:9094 6:105.91748 7:0.66442953 8:376.5 9:0.78109724 10:2.1239882 
0.10065700492665397 1:5828 2:123.4277 3:60.851028 4:0.87002393 5:6026 6:86.141976 7:0.69679579 8:302.466 9:0.80052755 10:2.0283585 
0.10065868946724948 1:7932 2:151.77639 3:67.552144 4:0.89549243 5:8116 6:100.49545 7:0.6048959 8:361.3 9:0.7635837 10:2.2468035 
0.099803764293713931 1:8575 2:153.41302 3:72.376557 4:0.88171852 5:8867 6:104.48937 7:0.74760244 8:375.523 9:0.76413644 10:2.1196506 
0.098109226845198017 1:9081 2:158.16259 3:74.028423 4:0.88370057 5:9315 6:107.52808 7:0.58571981 8:382.964 9:0.77808607 10:2.1365117 
0.1006569845956958 1:7567 2:140.25967 3:69.530541 4:0.86847827 5:7776 6:98.156017 7:0.71212121 8:344.602 9:0.80075196 10:2.0172383 
0.1006561125104431 1:8996 2:155.21959 3:74.963287 4:0.87564798 5:9436 6:107.02366 7:0.67700181 8:400.541 9:0.70463686 10:2.0706081 
0.10068836203425777 1:8571 2:160.80646 3:68.616993 4:0.90439066 5:8805 6:104.465 7:0.7763587 8:378.914 9:0.75017063 10:2.343537 
0.10065548202337446 1:8865 2:160.68005 3:70.80124 4:0.8976864 5:9084 6:106.24156 7:0.71033654 8:381.024 9:0.76733311 10:2.2694524 
0.099771454346883365 1:8899 2:157.32402 3:72.787468 4:0.88653601 5:9114 6:106.4451 7:0.6396636 8:377.494 9:0.78474935 10:2.1614163 
0.10001730716653667 1:9184 2:157.65564 3:75.155189 4:0.87906348 5:9446 6:108.13617 7:0.61165501 8:382.472 9:0.78893722 10:2.0977346 
0.10058587176538039 1:8908 2:156.04753 3:73.412398 4:0.8824272 5:9111 6:106.49891 7:0.80339105 8:375.143 9:0.79541976 10:2.125629 
0.10066205524193655 1:9119 2:159.41287 3:73.705661 4:0.88669384 5:9306 6:107.75283 7:0.74471213 8:382.281 9:0.78413647 10:2.1628307 
0.10002788686308145 1:8442 2:156.48191 3:70.024193 4:0.89428861 5:8616 6:103.67588 7:0.62817174 8:370.819 9:0.77149169 10:2.2346835 
0.10063368977420811 1:9271 2:163.2207 3:74.204066 4:0.8906834 5:9553 6:108.64715 7:0.55725191 8:392.715 9:0.7554078 10:2.1996194 
0.10065416996043923 1:7490 2:146.86249 3:65.727104 4:0.89426301 5:7640 6:97.655334 7:0.67241225 8:348.588 9:0.77458096 10:2.2344281 
0.10070322167596692 1:8572 2:157.2759 3:70.22675 4:0.89477392 5:8837 6:104.47109 7:0.56368778 8:376.065 9:0.76166885 10:2.2395441 
0.10066275963119414 1:8817 2:156.42138 3:72.631956 4:0.88565954 5:9068 6:105.95354 7:0.5928192 8:383.119 9:0.75485463 10:2.1536166 
0.10066924912366633 1:8448 2:162.10101 3:67.311155 4:0.90971097 5:8634 6:103.71272 7:0.62647386 8:378.237 9:0.74205441 10:2.4082341 
0.10065133846084745 1:9155 2:159.00556 3:74.142367 4:0.88463303 5:9348 6:107.96531 7:0.74759105 8:382.669 9:0.7856365 10:2.1445978 
0.099742663670712814 1:8578 2:156.89196 3:70.513049 4:0.89331204 5:8861 6:104.50765 7:0.65621175 8:375.185 9:0.76578168 10:2.225006 
0.10065109923079613 1:9022 2:163.12824 3:71.400684 4:0.89912271 5:9295 6:107.1782 7:0.79559083 8:390.657 9:0.74288479 10:2.2846874 
0.10070021727511265 1:8804 2:160.46361 3:70.696783 4:0.8977142 5:9010 6:105.8754 7:0.66395173 8:379.328 9:0.76888271 10:2.2697442 
0.10065109088570061 1:8436 2:160.5999 3:67.900541 4:0.90622621 5:8657 6:103.63903 7:0.76760692 8:378.633 9:0.73945119 10:2.3652227 
0.1006513140575219 1:6685 2:142.07251 3:60.558213 4:0.90460605 5:6798 6:92.258367 7:0.5707821 8:331.787 9:0.76311949 10:2.3460486 
0.099883073930569943 1:8887 2:153.7398 3:74.244925 4:0.87566125 5:9046 6:106.3733 7:0.79009602 8:373.183 9:0.80190208 10:2.0707113 
0.10065109872969621 1:7021 2:151.66844 3:59.946694 4:0.91857432 5:7246 6:94.548479 7:0.58058381 8:350.747 9:0.71716801 10:2.5300552 
0.10068011638542099 1:8345 2:150.91426 3:71.08921 4:0.8821028 5:8581 6:103.07853 7:0.62518729 8:365.576 9:0.7846588 10:2.1228856 
0.10064701334085377 1:9402 2:161.67717 3:74.238817 4:0.88834359 5:9697 6:109.41206 7:0.63313131 8:416.952 9:0.67960723 10:2.1777984 
0.10019982098901423 1:9171 2:159.4134 3:73.954049 4:0.88588044 5:9309 6:108.05961 7:0.61078921 8:379.654 9:0.79955915 10:2.1555737 
0.10064326632814113 1:6359 2:141.07542 3:57.980811 4:0.91163913 5:6525 6:89.980722 7:0.75415085 8:326.341 9:0.75033535 10:2.4331397 
0.10064938312745343 1:7673 2:147.85065 3:67.136278 4:0.89096003 5:7930 6:98.84112 7:0.55657914 8:358.12 9:0.75182699 10:2.2022467 
0.10063308238252806 1:8384 2:157.96924 3:67.959332 4:0.90273069 5:8596 6:103.31912 7:0.78900809 8:367.286 9:0.78100243 10:2.3244672 
0.09991517531883029 1:8346 2:150.92763 3:71.315318 4:0.88132351 5:8561 6:103.08471 7:0.64959527 8:364.873 9:0.78777971 10:2.1163423 
0.10064699737320307 1:8759 2:157.13828 3:71.826908 4:0.88941858 5:8880 6:105.60448 7:0.58651399 8:372.511 9:0.79320636 10:2.1877355 
0.10027774393482294 1:8790 2:157.91166 3:72.396824 4:0.88871295 5:9084 6:105.79119 7:0.69120075 8:385.87 9:0.74185104 10:2.181196 
0.10068836193271717 1:7186 2:144.16467 3:64.236579 4:0.89524321 5:7365 6:95.653015 7:0.57359515 8:344.622 9:0.76034567 10:2.2442769 
0.10064593032015103 1:8181 2:150.38432 3:69.975816 4:0.88514608 5:8455 6:102.06063 7:0.61515903 8:363.493 9:0.77807982 10:2.1490899 
0.10063368521055732 1:8488 2:160.2438 3:68.27369 4:0.90469427 5:8620 6:103.95796 7:0.7113644 8:374.11 9:0.76210814 10:2.3470798 
0.10063895353522272 1:8311 2:155.63584 3:68.834164 4:0.89687847 5:8520 6:102.86833 7:0.55973869 8:369.41 9:0.76532491 10:2.2610261 
0.1006389113700705 1:8880 2:150.76145 3:76.122913 4:0.86316443 5:9221 6:106.3314 7:0.68045977 8:380.801 9:0.76953197 10:1.9805002 
0.10063368977556275 1:9658 2:158.94078 3:78.136635 4:0.87081634 5:9864 6:110.8916 7:0.66446508 8:386.127 9:0.81402309 10:2.034139 
0.10063172359067712 1:9434 2:164.20305 3:74.555066 4:0.89098032 5:9755 6:109.59809 7:0.75123427 8:396.058 9:0.7557674 10:2.2024398 
0.10062828481742545 1:9219 2:150.56031 3:80.084257 4:0.84680204 5:9604 6:108.34203 7:0.62446657 8:403.869 9:0.71025229 10:1.8800238 
0.10062830880493656 1:5626 2:108.26397 3:68.415042 4:0.77502704 5:5748 6:84.63596 7:0.78400223 8:287.892 9:0.85300269 10:1.5824586 
0.10065697730341563 1:8449 2:161.4182 3:67.554448 4:0.90821414 5:8606 6:103.71886 7:0.54198473 8:376.505 9:0.74898596 10:2.3894534 
0.10062810855028329 1:9068 2:165.35161 3:70.950749 4:0.90326167 5:9354 6:107.45109 7:0.74266994 8:403.609 9:0.69951928 10:2.3305126 
0.10062801531384148 1:5691 2:124.07556 3:59.247792 4:0.87862426 5:5792 6:85.123476 7:0.60056986 8:298.225 9:0.80410054 10:2.0941804 
0.090783263201606235 1:8416 2:155.36792 3:69.940905 4:0.89294635 5:8693 6:103.51611 7:0.70086609 8:372.348 9:0.76281204 10:2.2214171 
0.10062801012269043 1:7392 2:137.51944 3:69.640905 4:0.86229416 5:7642 6:97.014363 7:0.74396135 8:344.801 9:0.78133052 10:1.9746934 
0.097774340436244028 1:8647 2:160.25997 3:69.455865 4:0.90120408 5:8868 6:104.92713 7:0.73435244 8:377.235 9:0.76357441 10:2.3073641 
0.10062261081263735 1:9245 2:163.90867 3:72.869854 4:0.89574115 5:9589 6:108.4947 7:0.55565573 8:397.535 9:0.7351332 10:2.2493344 
0.10065109589901219 1:7322 2:151.69455 3:62.199458 4:0.91207161 5:7465 6:96.553922 7:0.54450807 8:356.391 9:0.72441283 10:2.4388403 
0.10065868945493246 1:9166 2:160.77319 3:73.788458 4:0.88845695 5:9417 6:108.03015 7:0.75908903 8:386.217 9:0.77219493 10:2.1788393 
0.10050349446071022 1:9321 2:161.73687 3:73.624079 4:0.89038462 5:9461 6:108.93973 7:0.76133301 8:385.44 9:0.78842213 10:2.1967932 
0.10039350749803319 1:6873 2:138.68953 3:63.948869 4:0.88735145 5:7086 6:93.546648 7:0.72714769 8:334.959 9:0.76979113 10:2.1687565 
0.10066445619265932 1:7285 2:145.2146 3:64.48467 4:0.89599474 5:7418 6:96.309657 7:0.66341863 8:342.518 9:0.78031979 10:2.2519243 
0.10069100263343689 1:8797 2:161.97905 3:70.158977 4:0.90132853 5:9016 6:105.8333 7:0.61277515 8:384.299 9:0.74852437 10:2.3087431 
0.10036857009230549 1:9517 2:166.03185 3:74.18377 4:0.89463164 5:9829 6:110.07916 7:0.59630326 8:395.556 9:0.76435301 10:2.2381155 
0.10022257129544043 1:8686 2:152.70254 3:73.390642 4:0.87693346 5:8933 6:105.16349 7:0.6056338 8:373.649 9:0.78181148 10:2.0806813 
0.099920381234314487 1:9393 2:168.37944 3:72.004169 4:0.90395367 5:9663 6:109.35968 7:0.56164793 8:396.119 9:0.75225111 10:2.338468 
0.10018674918171397 1:9484 2:166.9824 3:73.192179 4:0.89881766 5:9693 6:109.88814 7:0.55689959 8:404.035 9:0.7300682 10:2.2814241 
0.10015713191665268 1:9828 2:173.43858 3:73.153218 4:0.90669741 5:10121 6:111.8633 7:0.58899676 8:412.642 9:0.72531749 10:2.3708947 
0.10005010967152003 1:5714 2:134.06217 3:54.839657 4:0.91250687 5:5832 6:85.295315 7:0.72146465 8:310.785 9:0.74341274 10:2.444621 
0.10003780491800263 1:8013 2:146.46629 3:70.333947 4:0.87715591 5:8188 6:101.00727 7:0.58574561 8:354.457 9:0.80145269 10:2.0824409 
0.094801416387194887 1:6882 2:139.18694 3:65.123513 4:0.88378924 5:7095 6:93.607877 7:0.55679612 8:339.85 9:0.74877267 10:2.1372763 
0.10003486319073908 1:7685 2:145.7369 3:67.962693 4:0.88460648 5:7900 6:98.91838 7:0.74122299 8:351.838 9:0.78013228 10:2.1443662 
0.1007015529092207 1:9688 2:161.22898 3:77.951872 4:0.87535238 5:9990 6:111.0637 7:0.70792839 8:396.497 9:0.77439793 10:2.0683144 
0.099757204961712101 1:8423 2:157.14705 3:69.406327 4:0.89718012 5:8689 6:103.55915 7:0.60785163 8:376.617 9:0.74623708 10:2.2641603 
0.09998090899317949 1:8117 2:153.64024 3:68.356046 4:0.89557539 5:8321 6:101.66064 7:0.56762238 8:364.471 9:0.76785542 10:2.2476466 
0.10003607417498184 1:8856 2:159.71961 3:71.195236 4:0.89515681 5:9122 6:106.18761 7:0.58034076 8:388.331 9:0.73797789 10:2.243403 
0.1000348665353851 1:6577 2:138.56818 3:61.034247 4:0.89777044 5:6692 6:91.51009 7:0.62805577 8:328.013 9:0.76816691 10:2.2703349 
0.10070155291181307 1:8799 2:158.58025 3:71.136094 4:0.89374216 5:8982 6:105.84533 7:0.72312623 8:379.966 9:0.76586762 10:2.2292516 
0.10005060304696564 1:8643 2:159.9747 3:69.787369 4:0.89983034 5:8851 6:104.90286 7:0.5531874 8:380.095 9:0.75177878 10:2.292316 
0.10003287393276639 1:6732 2:132.18801 3:66.218383 4:0.86548149 5:6871 6:92.582118 7:0.65207284 8:323.422 9:0.80875104 10:1.9962434 
0.10002781928889967 1:6262 2:133.4534 3:60.666835 4:0.89069983 5:6437 6:89.291803 7:0.60385728 8:322.025 9:0.7588287 10:2.1997752 
0.1006437922357979 1:8888 2:156.6652 3:72.926404 4:0.88505207 5:9105 6:106.37929 7:0.59956827 8:375.554 9:0.79189778 10:2.1482645 
0.099123242708543113 1:8540 2:158.56282 3:69.494103 4:0.89884098 5:8772 6:104.27591 7:0.60813217 8:375.732 9:0.76017112 10:2.281673 
0.1006561125101334 1:8378 2:152.69002 3:71.142953 4:0.88482126 5:8657 6:103.28214 7:0.63058859 8:369.306 9:0.77192924 10:2.1462423 
0.1000267799269812 1:6275 2:124.63641 3:65.084993 4:0.85282375 5:6448 6:89.38444 7:0.61646527 8:310.821 9:0.81621183 10:1.9149793 
0.10002215031930195 1:8914 2:156.6622 3:73.648265 4:0.88260852 5:9195 6:106.53477 7:0.59111406 8:379.894 9:0.77617138 10:2.1271676 
0.10001807638462891 1:8264 2:155.33782 3:68.993222 4:0.89595267 5:8388 6:102.57705 7:0.56922441 8:365.92 9:0.77558228 10:2.2514939 
0.100655597717587 1:9673 2:160.66696 3:76.935836 4:0.87789517 5:9823 6:110.97768 7:0.59332638 8:387.925 9:0.8077473 10:2.0883241 
0.10001767640417161 1:6924 2:147.00059 3:60.827983 4:0.91037048 5:7112 6:93.893081 7:0.54229323 8:347.996 9:0.71848618 10:2.4166606 
0.10001759438312646 1:8675 2:159.99428 3:70.254187 4:0.89843606 5:8921 6:105.09687 7:0.56847969 8:384.683 9:0.73667064 10:2.2773629 
0.10000633473372782 1:8488 2:153.16389 3:71.482367 4:0.884413 5:8653 6:103.95796 7:0.58372877 8:368.144 9:0.78700915 10:2.1426807 
0.10000689370626811 1:7805 2:146.75371 3:68.265327 4:0.8852217 5:7923 6:99.687686 7:0.59466667 8:350.344 9:0.79908578 10:2.1497547 
0.10064068908164032 1:8271 2:154.12525 3:69.394525 4:0.89290374 5:8519 6:102.62049 7:0.5562954 8:367.813 9:0.76826975 10:2.2210001 
0.099680294523224966 1:8440 2:150.64257 3:71.912431 4:0.87870171 5:8658 6:103.6636 7:0.68629045 8:364.657 9:0.79759643 10:2.0948057 
0.10000378058423567 1:6454 2:136.25185 3:61.341198 4:0.89292548 5:6586 6:90.650361 7:0.5637666 8:324.733 9:0.7691056 10:2.2212128 
0.10070154892169697 1:7984 2:148.72899 3:69.107623 4:0.88549196 5:8219 6:100.82433 7:0.66466866 8:357.958 9:0.78300809 10:2.1521358 
0.099969579195963137 1:8389 2:157.58537 3:68.300133 4:0.90119363 5:8510 6:103.34992 7:0.81304516 8:367.955 9:0.77862912 10:2.3072484 
0.10002186016397982 1:7905 2:146.94926 3:69.540393 4:0.8809404 5:8150 6:100.32427 7:0.66484441 8:356.048 9:0.78360038 10:2.1131498 
0.099949424585995664 1:7113 2:139.30069 3:66.598397 4:0.87831035 5:7338 6:95.165923 7:0.60091239 8:338.848 9:0.77848961 10:2.0916524 
0.099904495082585532 1:8504 2:155.98834 3:70.797821 4:0.89106989 5:8805 6:104.05589 7:0.69070825 8:373.853 9:0.76459486 10:2.2032929 
0.099893375690107505 1:8262 2:153.61552 3:69.251254 4:0.89262045 5:8467 6:102.56464 7:0.59982576 8:366.933 9:0.77111919 10:2.2182344 
0.099875251612909111 1:9030 2:159.97896 3:72.744652 4:0.89063757 5:9276 6:107.22571 7:0.75659824 8:381.651 9:0.77904905 10:2.1991851 
0.099881928377419341 1:7406 2:142.21802 3:66.880996 4:0.88252211 5:7515 6:97.10619 7:0.59919094 8:339.569 9:0.80711887 10:2.1264339 
0.10070714729241523 1:7617 2:143.70967 3:68.397849 4:0.87947523 5:7837 6:98.479773 7:0.64376268 8:351.972 9:0.77264071 10:2.1010846 
0.10070155276613654 1:9008 2:152.72755 3:75.703819 4:0.86850588 5:9253 6:107.09501 7:0.63081232 8:390.239 9:0.74332185 10:2.0174352 
0.10070154893115819 1:6758 2:143.0355 3:61.288501 4:0.90354911 5:6923 6:92.760729 7:0.67505744 8:337.589 9:0.74516333 10:2.3338065 
0.10070155290969232 1:8918 2:157.73059 3:72.882131 4:0.88684491 5:9133 6:106.55867 7:0.57284173 8:378.331 9:0.782949 10:2.1641874 
0.10070037317632184 1:8756 2:156.3703 3:72.171541 4:0.88711809 5:9003 6:105.58639 7:0.65588015 8:375.111 9:0.78198067 10:2.1666476 
0.10068717194460056 1:8819 2:159.76286 3:71.03503 4:0.89571535 5:9036 6:105.96556 7:0.58887553 8:379.711 9:0.76863977 10:2.2490714 
0.10068570748471112 1:9012 2:148.86241 3:77.823385 4:0.85246314 5:9176 6:107.11879 7:0.62652948 8:370.358 9:0.82563403 10:1.9128237 
0.10062831432005365 1:8310 2:156.99601 3:68.444627 4:0.89996405 5:8548 6:102.86214 7:0.56400163 8:370.671 9:0.76003513 10:2.2937668 
0.10003613324447161 1:8785 2:157.95328 3:71.823134 4:0.89063892 5:9007 6:105.7611 7:0.79827351 8:375.176 9:0.78429877 10:2.1991979 
0.10067746610497522 1:8166 2:152.02031 3:69.164602 4:0.89050704 5:8334 6:101.96702 7:0.7170706 8:363.532 9:0.77648657 10:2.1979497 
0.1006731541867471 1:6871 2:134.80063 3:65.361419 4:0.87458362 5:7011 6:93.533036 7:0.68286623 8:327.037 9:0.80730201 10:2.0623884 
0.10067319493387554 1:6189 2:136.56004 3:58.767694 4:0.90266532 5:6297 6:88.769812 7:0.5471181 8:320.986 9:0.75484566 10:2.3237264 
0.10066276058146641 1:8565 2:154.93733 3:72.194578 4:0.88480585 5:8895 6:104.42843 7:0.7782826 8:378.343 9:0.75190994 10:2.1461075 
0.10065697869963729 1:8951 2:161.13597 3:71.416004 4:0.8964211 5:9115 6:106.75564 7:0.60709441 8:381.654 9:0.77222131 10:2.2563006 
0.10003085427023924 1:8635 2:154.66415 3:71.487767 4:0.88676899 5:8763 6:104.8543 7:0.73314654 8:367.279 9:0.80441472 10:2.1635052 
0.10070106796761599 1:9139 2:164.00396 3:72.121656 4:0.8981175 5:9321 6:107.87092 7:0.56887644 8:394.335 9:0.73854658 10:2.2739905 
0.10067914441598225 1:9150 2:164.7379 3:71.733903 4:0.90021648 5:9437 6:107.93582 7:0.63238648 8:391.378 9:0.75065112 10:2.2965138 
0.10065868945493246 1:8497 2:154.61558 3:70.938439 4:0.88853685 5:8768 6:104.01306 7:0.69391588 8:373.101 9:0.7670482 10:2.179574 
0.10065700492646321 1:6315 2:129.51063 3:63.184193 4:0.87291698 5:6479 6:89.668878 7:0.61513735 8:317.402 9:0.78770554 10:2.0497315 
0.099129530165888435 1:8536 2:159.82803 3:69.2017 4:0.90140546 5:8776 6:104.25149 7:0.59253089 8:378.502 9:0.74873462 10:2.3095969 
0.089920498119416908 1:8700 2:154.08227 3:72.59472 4:0.88205707 5:8916 6:105.2482 7:0.61702128 8:373.003 9:0.78578633 10:2.1224997 
0.10065416996043923 1:9249 2:164.53195 3:72.565418 4:0.89748671 5:9466 6:108.51817 7:0.62320598 8:390.154 9:0.76354127 10:2.2673604 
0.10068676498828989 1:9337 2:164.17871 3:73.347137 4:0.89465793 5:9577 6:109.0332 7:0.56553604 8:392.608 9:0.76120027 10:2.2383793 
0.10062830879283466 1:7607 2:146.05069 3:67.561537 4:0.8865725 5:7747 6:98.415107 7:0.58573959 8:350.097 9:0.77991361 10:2.1617431 
0.10002165996781323 1:8152 2:150.83551 3:70.099377 4:0.88544692 5:8423 6:101.87958 7:0.591582 8:364.893 9:0.76938368 10:2.1517383 
0.1006513147969707 1:6695 2:133.49235 3:64.484219 4:0.87558971 5:6788 6:92.327346 7:0.61625552 8:320.283 9:0.82014883 10:2.0701553 
0.10064982610831034 1:8893 2:158.71613 3:71.800308 4:0.89182431 5:9069 6:106.40921 7:0.66809406 8:375.698 9:0.791736 10:2.2105216 
0.10064593031869606 1:9449 2:169.83206 3:71.407975 4:0.90731002 5:9605 6:109.68519 7:0.58573023 8:398.982 9:0.7459146 10:2.3783346 
0.10064938312745343 1:9238 2:158.18535 3:75.028436 4:0.88035945 5:9444 6:108.45362 7:0.62033306 8:385.459 9:0.7813245 10:2.1083386 
0.094820073407550109 1:6884 2:140.66576 3:63.715408 4:0.89153284 5:7091 6:93.621477 7:0.69283414 8:337.811 9:0.75805925 10:2.2077196 
0.10003879782320438 1:7118 2:142.03893 3:64.156359 4:0.89217924 5:7228 6:95.199365 7:0.59624728 8:335.383 9:0.79521719 10:2.2139493 
0.090175606077536941 1:8696 2:154.48352 3:72.604606 4:0.88267554 5:8914 6:105.224 7:0.63179308 8:371.77 9:0.79064351 10:2.1277372 
0.10068836203203445 1:8748 2:162.19451 3:69.424637 4:0.90376301 5:8936 6:105.53814 7:0.76415094 8:379.402 9:0.76369405 10:2.3362673 
0.075860465425418105 1:9195 2:163.19136 3:72.669239 4:0.89538105 5:9415 6:108.20091 7:0.75214724 8:388.682 9:0.76484378 10:2.2456731 
0.10064701334085377 1:6889 2:125.60093 3:72.788966 4:0.81495397 5:7193 6:93.655471 7:0.72515789 8:330.227 9:0.79385446 10:1.7255491 
0.10003405959596787 1:9123 2:162.09389 3:72.35958 4:0.89483085 5:9323 6:107.77646 7:0.81455357 8:384.612 9:0.77500031 10:2.2401165 
0.10069760905175405 1:8674 2:159.46145 3:69.870224 4:0.89889519 5:8891 6:105.09082 7:0.55602564 8:378.142 9:0.76228864 10:2.2822519 
0.10064326999364143 1:7065 2:140.4583 3:64.884947 4:0.8869051 5:7208 6:94.84428 7:0.67965368 8:336.497 9:0.78407867 10:2.1647286 
0.10063172359067712 1:9568 2:164.5156 3:74.656825 4:0.89110466 5:9766 6:110.37371 7:0.64977929 8:390.791 9:0.78730303 10:2.2036244 
0.10062820963052307 1:7149 2:140.32046 3:65.569645 4:0.88410675 5:7264 6:95.406444 7:0.59794246 8:333.696 9:0.80677635 10:2.1400217 
0.1002348389373266 1:9266 2:165.56501 3:72.391546 4:0.89934515 5:9477 6:108.61785 7:0.73330168 8:391.75 9:0.75872457 10:2.2870766 
0.10062810855028329 1:6741 2:140.64034 3:61.540945 4:0.89918105 5:6887 6:92.643984 7:0.61065314 8:332.405 9:0.76665345 10:2.2853132 
0.1000192310605755 1:9985 2:162.70807 3:78.613915 4:0.87553247 5:10181 6:112.75326 7:0.62173101 8:396.433 9:0.79839597 10:2.0697108 
0.10062801531384148 1:8001 2:155.43021 3:66.625557 4:0.90346941 5:8237 6:100.93161 7:0.7770979 8:368.245 9:0.74144752 10:2.3328917 
0.10050349446069524 1:7865 2:156.13749 3:65.428295 4:0.90796647 5:8090 6:100.07012 7:0.5631937 8:367.371 9:0.73231655 10:2.3863909 
0.10005010967152003 1:6630 2:125.28155 3:68.959827 4:0.83487552 5:6809 6:91.878061 7:0.75204174 8:318.351 9:0.82207408 10:1.8167324 
0.10071246085830723 1:6538 2:145.2602 3:57.775143 4:0.91750011 5:6741 6:91.23837 7:0.58964646 8:338.284 9:0.71794614 10:2.5142336 
0.10002215031930195 1:9672 2:164.1851 3:76.135764 4:0.88598229 5:10007 6:110.97195 7:0.77061589 8:397.166 9:0.77051665 10:2.156478 
0.10064074536228754 1:9185 2:161.58289 3:73.038968 4:0.89200695 5:9415 6:108.14206 7:0.61851852 8:384.978 9:0.77878432 10:2.2122833 
0.10064641664275895 1:8784 2:155.07858 3:72.832378 4:0.88285365 5:8975 6:105.75508 7:0.7267312 8:372.472 9:0.79563692 10:2.1292533 
0.099904495082585532 1:7380 2:151.09749 3:62.735731 4:0.90972999 5:7492 6:96.935586 7:0.54849498 8:349.528 9:0.75910575 10:2.4084758 
0.10071878000482846 1:7735 2:145.86666 3:68.41943 4:0.88316916 5:7847 6:99.239649 7:0.59009765 8:348.982 9:0.79811253 10:2.1319479 
0.10068717138438686 1:9380 2:158.4511 3:76.191296 4:0.87680258 5:9538 6:109.28397 7:0.64049164 8:380.644 9:0.81353216 10:2.0796483 
0.10070714729320154 1:8647 2:149.37164 3:74.755321 4:0.86575661 5:9121 6:104.92713 7:0.58743207 8:391.92 9:0.70742511 10:1.9981406 
0.10070154728962635 1:9049 2:158.45263 3:73.57831 4:0.88564902 5:9212 6:107.33846 7:0.59236711 8:379.548 9:0.78936349 10:2.1535236 
0.10069233739283188 1:6885 2:137.27124 3:65.553652 4:0.87860548 5:7154 6:93.628277 7:0.58189655 8:344.414 9:0.72937725 10:2.0940289 
0.10068717201937886 1:6466 2:122.79788 3:69.075564 4:0.82678754 5:6624 6:90.734596 7:0.71250689 8:315.829 9:0.81459465 10:1.7777325 
0.10068836144773971 1:9513 2:166.25208 3:73.400471 4:0.89726072 5:9684 6:110.05602 7:0.57949561 8:390.429 9:0.78422959 10:2.2650002 
0.10025873520980613 1:6597 2:127.90535 3:67.049749 4:0.85158669 5:6738 6:91.64912 7:0.61683029 8:317.966 9:0.81996437 10:1.9076186 
0.1006510992006977 1:8999 2:159.39477 3:72.732208 4:0.88982479 5:9138 6:107.0415 7:0.8188353 8:378.021 9:0.79135666 10:2.1915293 
0.10003486319033444 1:9336 2:159.6834 3:74.997737 4:0.88284461 5:9533 6:109.02736 7:0.60623377 8:382.26 9:0.80288436 10:2.1291763 
0.1006731541867471 1:7904 2:149.10733 3:68.913895 4:0.88678799 5:8169 6:100.31792 7:0.69406393 8:359.521 9:0.768437 10:2.1636759 
0.10065109872968361 1:9196 2:164.33121 3:72.225605 4:0.89823652 5:9351 6:108.2068 7:0.56472611 8:385.618 9:0.777131 10:2.2752486 
0.099956535827149834 1:8876 2:162.79338 3:70.965339 4:0.89998408 5:9174 6:106.30745 7:0.75521144 8:386.903 9:0.74511441 10:2.2939844 
0.10002781928889967 1:9404 2:161.97052 3:74.77546 4:0.88705647 5:9638 6:109.42369 7:0.59245259 8:387.909 9:0.78534914 10:2.1660919 
0.10023483854559156 1:8636 2:156.68403 3:70.909335 4:0.89173262 5:8834 6:104.86037 7:0.71490066 8:372.985 9:0.78008112 10:2.2096389 
0.10066276058358803 1:9288 2:159.7305 3:74.439288 4:0.88476865 5:9448 6:108.74672 7:0.60093168 8:379.977 9:0.80838352 10:2.1457822 
0.1006569787066337 1:9312 2:156.32459 3:76.766005 4:0.87112125 5:9504 6:108.88713 7:0.61865533 8:379.026 9:0.81454452 10:2.0363779 
0.1006510987296961 1:9875 2:169.47442 3:74.983643 4:0.8967941 5:10198 6:112.13046 7:0.61069882 8:406.092 9:0.75248544 10:2.2601519 
0.10064699737320307 1:7953 2:151.63464 3:67.436671 4:0.89566404 5:8158 6:100.6284 7:0.66792643 8:364.484 9:0.75228761 10:2.2485487 
0.10064674583966897 1:6636 2:116.26136 3:74.341552 4:0.76884537 5:6850 6:91.919626 7:0.77960526 8:312.951 9:0.85145863 10:1.5638812 
0.10062801012194575 1:9854 2:172.74223 3:73.654515 4:0.90454227 5:10156 6:112.01117 7:0.57200906 8:407.723 9:0.74488975 10:2.345304 
0.10013486025103542 1:7189 2:142.49761 3:64.749592 4:0.89080248 5:7346 6:95.67298 7:0.7442029 8:339.028 9:0.78597225 10:2.2007491 
0.099969579195963137 1:6101 2:167.5725 3:47.390793 4:0.95917663 5:6371 6:88.136454 7:0.41214619 8:373.741 9:0.54886988 10:3.5359717 
0.10025871684504667 1:7316 2:142.52604 3:66.832586 4:0.88324334 5:7456 6:96.514354 7:0.57040387 8:344.632 9:0.77405596 10:2.1325831 
0.10063641929757863 1:6348 2:136.61235 3:59.833852 4:0.89898337 5:6521 6:89.902862 7:0.58463805 8:323.044 9:0.76440483 10:2.2831949 
0.099961545939220089 1:7489 2:145.87361 3:67.046198 4:0.8881165 5:7765 6:97.648814 7:0.68392694 8:354.03 9:0.75085066 10:2.1757179 
0.10055390862178881 1:8901 2:155.2696 3:73.862111 4:0.87960632 5:9106 6:106.45706 7:0.6055102 8:374.252 9:0.79858363 10:2.1021549 
0.083184648732368222 1:7876 2:148.25086 3:68.745353 4:0.88598722 5:8082 6:100.14008 7:0.61821036 8:355.478 9:0.78323145 10:2.1565219 
0.10064194655194836 1:8333 2:160.77513 3:67.07177 4:0.90882502 5:8565 6:103.00439 7:0.53498973 8:379.161 9:0.72838992 10:2.3970611 
0.10064593032014429 1:9315 2:162.96115 3:73.668387 4:0.89198701 5:9570 6:108.90467 7:0.65322581 8:389.137 9:0.77301455 10:2.2120907 
0.10026860469952226 1:9787 2:165.73159 3:75.492127 4:0.8902315 5:9993 6:111.62972 7:0.60525665 8:396.973 9:0.78043639 10:2.1953494 
0.10027778319549757 1:7328 2:144.84489 3:66.198941 4:0.88944957 5:7457 6:96.593475 7:0.57997626 8:346.746 9:0.76590059 10:2.1880242 
0.10065698916423207 1:9188 2:169.88289 3:69.381438 4:0.91279974 5:9341 6:108.15972 7:0.76874163 8:395.314 9:0.7388333 10:2.4485352 
0.10062264590156346 1:8330 2:158.21231 3:67.511962 4:0.90438497 5:8565 6:102.98585 7:0.74581431 8:370.015 9:0.76456815 10:2.3434708 
0.10017634555697441 1:8493 2:151.05849 3:72.493987 4:0.87731952 5:8750 6:103.98857 7:0.596 8:368.704 9:0.78508249 10:2.0837383 
0.10062819705672182 1:8724 2:163.54855 3:68.549842 4:0.90792133 5:8881 6:105.39327 7:0.56759922 8:379.562 9:0.76095692 10:2.3858341 
0.099961545932330545 1:9360 2:163.42747 3:73.641771 4:0.89272178 5:9555 6:109.1674 7:0.76973684 8:388.276 9:0.78019762 10:2.2192224 
0.099685274855724149 1:8439 2:153.90869 3:70.775098 4:0.88799598 5:8654 6:103.65746 7:0.59648007 8:368.794 9:0.7797101 10:2.1746164 
0.10051275722337495 1:6886 2:132.85646 3:66.795041 4:0.86442548 5:6999 6:93.635076 7:0.79652979 8:323.951 9:0.82455235 10:1.9890168 
0.10023483895307303 1:8560 2:149.08586 3:73.622093 4:0.86956218 5:8712 6:104.39794 7:0.62204782 8:363.312 9:0.8149372 10:2.0250152 
0.09996640158767274 1:9333 2:162.45748 3:74.078231 4:0.88998727 5:9547 6:109.00984 7:0.57089552 8:389.25 9:0.77405868 10:2.1930529 
0.10070155262800176 1:8558 2:157.45302 3:70.694131 4:0.89353901 5:8837 6:104.38575 7:0.6461794 8:376.897 9:0.7570713 10:2.2272431 
0.10018727096000213 1:7555 2:144.55926 3:67.350302 4:0.88483687 5:7742 6:98.078156 7:0.59535067 8:348.814 9:0.78029086 10:2.1463789 
0.10018674918171397 1:7508 2:143.16903 3:68.319975 4:0.87879581 5:7895 6:97.772606 7:0.68099773 8:363.393 9:0.71446509 10:2.0955663 
0.10064641643122507 1:9116 2:159.59085 3:73.618105 4:0.88724799 5:9361 6:107.7351 7:0.59620667 8:382.756 9:0.78193412 10:2.1678207 
0.10062810855028284 1:8704 2:155.91945 3:71.989022 4:0.88703276 5:9013 6:105.27239 7:0.68481511 8:377.782 9:0.76638364 10:2.1658781 
0.10063368966475469 1:7917 2:151.46368 3:67.355637 4:0.89568044 5:8141 6:100.40039 7:0.67782534 8:360.803 9:0.76424082 10:2.2487157 
0.099881928377419341 1:7919 2:154.06867 3:66.042812 4:0.9034667 5:8080 6:100.41307 7:0.60266362 8:363.194 9:0.75440208 10:2.3328606 
0.099908466916531088 1:8350 2:152.76839 3:70.73834 4:0.8863358 5:8621 6:103.10941 7:0.57945871 8:372.591 9:0.75584304 10:2.1596265 
0.10064641664139215 1:9256 2:159.50524 3:75.160533 4:0.88202083 5:9555 6:108.55922 7:0.59455293 8:390.168 9:0.76406431 10:2.1221941 
0.10050349446071022 1:6971 2:146.31719 3:61.414483 4:0.90764658 5:7094 6:94.211214 7:0.77010605 8:339.375 9:0.76058062 10:2.3824541 
0.10070037317485317 1:9343 2:167.61857 3:72.162883 4:0.90258178 5:9603 6:109.06822 7:0.76182322 8:398.341 9:0.73992243 10:2.3227809 
0.10027774395194514 1:7980 2:150.37545 3:68.306917 4:0.89087809 5:8237 6:100.79907 7:0.61323292 8:362.492 9:0.76316053 10:2.2014674 
0.10003780491800263 1:8067 2:157.94299 3:65.992365 4:0.90852801 5:8308 6:101.34704 7:0.56090947 8:370.367 9:0.73902198 10:2.3933525 
0.10002215031930195 1:7235 2:143.01074 3:66.598007 4:0.88495036 5:7529 6:95.978582 7:0.56745098 8:349.6 9:0.74388457 10:2.1473726 
0.10000690052115845 1:8384 2:159.01544 3:68.22058 4:0.90329566 5:8545 6:103.31912 7:0.54244306 8:375.885 9:0.74567768 10:2.3309013 
0.096685929499137596 1:8926 2:154.0517 3:74.63411 4:0.87480541 5:9154 6:106.60645 7:0.74333777 8:374.572 9:0.79945887 10:2.0640923 
0.10000395026544577 1:7375 2:149.21195 3:63.422869 4:0.90516883 5:7583 6:96.902743 7:0.60076572 8:349.682 9:0.75792343 10:2.3526521 
0.099980908993204748 1:8710 2:155.74926 3:72.206154 4:0.88604192 5:8936 6:105.30867 7:0.74905401 8:373.274 9:0.78554766 10:2.1570081 
0.099899164079322006 1:7248 2:132.69261 3:70.953555 4:0.84502852 5:7380 6:96.064771 7:0.83859771 8:335.362 9:0.80984209 10:1.8701333 
0.09991730322006763 1:9387 2:164.83665 3:73.78521 4:0.89422074 5:9665 6:109.32474 7:0.79375951 8:392.526 9:0.7655963 10:2.2340066 
0.099875251612909111 1:8628 2:152.18666 3:72.938343 4:0.87766807 5:8803 6:104.81179 7:0.70837438 8:366.302 9:0.80805593 10:2.086511 
0.10070154893115819 1:7057 2:141.15899 3:64.423184 4:0.88978117 5:7179 6:94.790566 7:0.62728889 8:332.463 9:0.8023121 10:2.1911209 
0.10001742964085014 1:9996 2:165.21155 3:77.660359 4:0.88263118 5:10180 6:112.81535 7:0.61867921 8:396.127 9:0.80051085 10:2.1273601 
0.100701548921697 1:6524 2:143.0888 3:58.886507 4:0.91139251 5:6656 6:91.140632 7:0.56280193 8:333.397 9:0.73756524 10:2.4299081 
0.10070106796761602 1:9180 2:159.47266 3:73.721288 4:0.88673314 5:9379 6:108.11262 7:0.61726735 8:385.103 9:0.77785517 10:2.1631833 
0.099899167941014166 1:7617 2:150.06583 3:65.537425 4:0.8995953 5:7761 6:98.479773 7:0.57774575 8:353.056 9:0.76790346 10:2.289773 
0.10013789672407539 1:8854 2:161.59179 3:70.841097 4:0.89878222 5:9109 6:106.17562 7:0.54925558 8:383.732 9:0.75560243 10:2.2810458 
0.10066205518991997 1:9062 2:159.29822 3:73.01851 4:0.88875828 5:9334 6:107.41553 7:0.6643695 8:385.085 9:0.76792838 10:2.1816142 
0.10069233739329489 1:8980 2:156.20615 3:73.98235 4:0.88072931 5:9157 6:106.92844 7:0.79314609 8:376.797 9:0.79482465 10:2.1113974 
0.10068836203325303 1:8389 2:161.35655 3:67.305144 4:0.90885113 5:8565 6:103.34992 7:0.54318829 8:376.224 9:0.74477839 10:2.397388 
0.10068009568557872 1:7962 2:151.17677 3:68.166481 4:0.89257155 5:8216 6:100.68532 7:0.60099638 8:361.888 9:0.76398296 10:2.2177582 
0.10066275950653729 1:9227 2:164.9277 3:72.016057 4:0.89963035 5:9410 6:108.38903 7:0.80719097 8:389.566 9:0.76402627 10:2.2901517 
0.096938647214804177 1:9098 2:158.42713 3:73.939903 4:0.88440916 5:9331 6:107.62868 7:0.58130471 8:379.571 9:0.79354169 10:2.1426473 
0.099248712295104319 1:9108 2:162.45305 3:72.257341 4:0.89563535 5:9343 6:107.68782 7:0.57268612 8:386.716 9:0.76532976 10:2.2482567 
0.09793965236041019 1:9147 2:160.98865 3:73.36357 4:0.89013011 5:9433 6:107.91813 7:0.64560982 8:384.886 9:0.77593316 10:2.194395 
0.10061413376981826 1:8899 2:158.82423 3:72.031454 4:0.89124134 5:9124 6:106.4451 7:0.67631859 8:378.609 9:0.780134 10:2.2049289 
0.1006513129465603 1:9679 2:167.32176 3:74.024633 4:0.89681345 5:9829 6:111.0121 7:0.7422546 8:395.232 9:0.778639 10:2.2603524 
0.10070717395122397 1:8395 2:153.84081 3:70.523472 4:0.88873646 5:8619 6:103.38688 7:0.5747638 8:368.192 9:0.77818323 10:2.1814129 
0.100676092434305 1:10200 2:173.30675 3:76.029017 4:0.89863542 5:10549 6:113.96071 7:0.56989608 8:415.827 9:0.74128407 10:2.2794817 
0.1007010679637952 1:8576 2:152.07662 3:72.955752 4:0.87741605 5:8799 6:104.49547 7:0.62703809 8:369.761 9:0.78822904 10:2.0845049 
0.10067315418711796 1:8121 2:148.00413 3:70.775023 4:0.87825299 5:8287 6:101.68568 7:0.72736229 8:359.298 9:0.79051438 10:2.0911915 
0.10063171418444421 1:8491 2:154.95348 3:70.203085 4:0.89148048 5:8628 6:103.97633 7:0.78164411 8:366.078 9:0.79619866 10:2.2072175 
0.10066240474028978 1:8235 2:153.21098 3:69.419151 4:0.89146216 5:8494 6:102.39691 7:0.58658024 8:365.652 9:0.77399394 10:2.207042 
0.10066205524148389 1:6727 2:136.19449 3:63.725637 4:0.88378051 5:6842 6:92.54773 7:0.59373345 8:326.006 9:0.79538996 10:2.137201 
0.10065868946724948 1:7415 2:144.60123 3:67.054389 4:0.88598215 5:7712 6:97.165175 7:0.74179672 8:353.326 9:0.7463969 10:2.1564768 
0.10065698894371945 1:9152 2:168.4796 3:70.281861 4:0.90883603 5:9373 6:107.94762 7:0.62564944 8:391.263 9:0.75125662 10:2.3971989 
0.10070145475680117 1:6850 2:146.31237 3:60.141214 4:0.91161429 5:6989 6:93.389993 7:0.6702544 8:340.177 9:0.74385886 10:2.4328136 
0.10062831963240726 1:8937 2:160.84863 3:71.993332 4:0.89424171 5:9167 6:106.67212 7:0.60845588 8:383.167 9:0.76493657 10:2.2342157 
0.10062820426967765 1:8702 2:156.56191 3:72.01538 4:0.88792917 5:9031 6:105.2603 7:0.64032377 8:379.138 9:0.7607366 10:2.1740066 
0.10065697870861556 1:8077 2:154.56561 3:67.246864 4:0.90039661 5:8197 6:101.40984 7:0.57659909 8:362.501 9:0.77239869 10:2.2984805 
0.10065611250885879 1:8964 2:163.27309 3:70.851763 4:0.90093871 5:9233 6:106.83314 7:0.53918797 8:394.551 9:0.72361142 10:2.3044323 
0.10065109923079613 1:9421 2:158.46997 3:76.40607 4:0.87608947 5:9618 6:109.52255 7:0.80521368 8:385.291 9:0.79749715 10:2.0740495 
0.10065131480132508 1:7884 2:152.04213 3:67.517761 4:0.89599075 5:8124 6:100.19092 7:0.53669163 8:364.473 9:0.7458058 10:2.2518835 
0.10064701334085377 1:8023 2:150.11197 3:68.597951 4:0.88947771 5:8171 6:101.07028 7:0.57619937 8:357.624 9:0.7883033 10:2.1882865 
0.10064327000089376 1:8822 2:157.70942 3:71.936161 4:0.88991263 5:9000 6:105.98358 7:0.74409582 8:378.212 9:0.77500822 10:2.1923525 
0.1006389113700705 1:8075 2:151.88959 3:68.839405 4:0.89139867 5:8278 6:101.39728 7:0.74273363 8:361.514 9:0.77642973 10:2.2064338 
0.10062830880493656 1:6490 2:136.21803 3:61.843569 4:0.89099951 5:6666 6:90.902831 7:0.77817746 8:328.806 9:0.75435382 10:2.2026225 
0.10062051075777984 1:8594 2:162.40571 3:68.256685 4:0.90739215 5:8760 6:104.60507 7:0.74984731 8:379.766 9:0.74881244 10:2.3793378 
0.10008789553534439 1:9368 2:157.80476 3:76.041291 4:0.87624302 5:9515 6:109.21405 7:0.75100208 8:379.229 9:0.81856593 10:2.0752509 
0.10062801531384148 1:6592 2:144.7609 3:58.44844 4:0.91486562 5:6713 6:91.614382 7:0.56593407 8:331.107 9:0.7555972 10:2.4767283 
0.10062057446305206 1:8548 2:156.48585 3:70.772669 4:0.89188492 5:8804 6:104.32474 7:0.58773377 8:371.838 9:0.77690307 10:2.2111057 
0.10066205524077328 1:8735 2:154.65419 3:72.90754 4:0.88190724 5:8936 6:105.4597 7:0.74144809 8:374.002 9:0.78473844 10:2.1212373 
0.10062261584711656 1:6832 2:138.75113 3:63.978336 4:0.88734747 5:7107 6:93.267211 7:0.67390018 8:337.365 9:0.75432356 10:2.1687205 
0.099961545939220089 1:8644 2:161.21586 3:69.62347 4:0.90193831 5:8969 6:104.90893 7:0.64363366 8:385.548 9:0.73074813 10:2.315539 
0.099949424585995664 1:8057 2:160.68883 3:64.591746 4:0.91565377 5:8228 6:101.28421 7:0.57525346 8:377.601 9:0.71009582 10:2.487761 
0.10003613172648559 1:7514 2:151.15214 3:64.058799 4:0.90575418 5:7763 6:97.811666 7:0.76924652 8:355.113 9:0.7487691 10:2.3595843 
0.1000348665353851 1:8026 2:150.4191 3:68.700008 4:0.88960846 5:8225 6:101.08917 7:0.64228553 8:365.692 9:0.75418536 10:2.1895063 
0.10069232711243253 1:9898 2:170.00784 3:75.105468 4:0.89712514 5:10155 6:112.26097 7:0.81191043 8:401.21 9:0.77270517 10:2.263588 
0.10070799052786078 1:9528 2:161.36829 3:76.04663 4:0.88199364 5:9786 6:110.14275 7:0.67863248 8:394.851 9:0.76797154 10:2.121965 
0.10065698916712057 1:9016 2:155.26466 3:74.867592 4:0.8760648 5:9262 6:107.14256 7:0.79632574 8:376.582 9:0.7989225 10:2.0738567 
0.10062260856671508 1:8712 2:163.57487 3:68.844253 4:0.90711955 5:8885 6:105.32076 7:0.78913043 8:381.652 9:0.75161017 10:2.3760134 
0.10063172355696498 1:9567 2:170.66198 3:72.264493 4:0.90592584 5:9735 6:110.36794 7:0.81352041 8:398.109 9:0.75854552 10:2.3616299 
0.10002781928889967 1:9448 2:160.55236 3:75.906185 4:0.8811797 5:9704 6:109.67938 7:0.64579631 8:386.904 9:0.79312805 10:2.1151421 
0.10065868837035159 1:9236 2:163.84656 3:72.472517 4:0.89685759 5:9420 6:108.44188 7:0.56180049 8:388.513 9:0.76892269 10:2.2608096 
0.10064600536576951 1:9010 2:162.66586 3:71.135807 4:0.89930964 5:9199 6:107.1069 7:0.61585783 8:381.827 9:0.77660715 10:2.2866946 
0.10070804245296466 1:9512 2:163.32301 3:75.208768 4:0.8876644 5:9787 6:110.05024 7:0.5950951 8:392.267 9:0.77681599 10:2.1715954 
0.10002706000768558 1:9772 2:174.30613 3:71.836021 4:0.91112704 5:10072 6:111.54415 7:0.54288889 8:409.108 9:0.73369807 10:2.4264447 
0.10001807638462891 1:9621 2:166.61066 3:74.082427 4:0.89570739 5:9865 6:110.67898 7:0.60281955 8:409.062 9:0.72252321 10:2.2489902 
0.1000218656089427 1:8336 2:150.96245 3:71.23321 4:0.88167324 5:8516 6:103.02293 7:0.61793921 8:362.782 9:0.79593226 10:2.1192706 
0.10001763258286289 1:9296 2:157.96767 3:75.669011 4:0.87780627 5:9634 6:108.79354 7:0.66196682 8:387.987 9:0.77601771 10:2.0876138 
0.10067938144469463 1:8528 2:151.05804 3:73.389853 4:0.87404844 5:8694 6:104.20262 7:0.61999273 8:365.75 9:0.80110305 10:2.0582959 
0.096564881771565456 1:9879 2:167.7829 3:76.144218 4:0.8910904 5:10224 6:112.15317 7:0.66525253 8:403.709 9:0.76170356 10:2.2034884 
0.10015713191665136 1:8754 2:162.2427 3:69.974716 4:0.90221022 5:9066 6:105.57433 7:0.60728408 8:386.152 9:0.73773405 10:2.3185903 
0.1004531999518205 1:6803 2:136.38405 3:64.43764 4:0.8813457 5:7004 6:93.069053 7:0.60958781 8:330.8 9:0.78123076 10:2.1165277 
0.10066205518213267 1:8496 2:151.94278 3:71.98213 4:0.88066207 5:8724 6:104.00694 7:0.71275168 8:369.876 9:0.78039066 10:2.1108402 
0.10013486025103542 1:8146 2:156.24236 3:67.522627 4:0.9017941 5:8373 6:101.84208 7:0.73413843 8:368.684 9:0.75308793 10:2.313926 
0.10062057635252214 1:7410 2:142.77835 3:66.951307 4:0.88324182 5:7552 6:97.13241 7:0.61442786 8:344.107 9:0.78639557 10:2.13257 
0.099899134215692409 1:8417 2:155.262 3:69.886048 4:0.89296964 5:8680 6:103.52225 7:0.66716867 8:370.603 9:0.77010391 10:2.2216451 
0.097722144071365591 1:8652 2:159.00554 3:70.290654 4:0.89698342 5:8865 6:104.95746 7:0.73948718 8:375.987 9:0.76909629 10:2.2621149 
0.10063892605153943 1:7816 2:145.81213 3:69.517526 4:0.87903301 5:8108 6:99.757908 7:0.70439798 8:360.423 9:0.75608291 10:2.0974874 
0.10068717202260397 1:7457 2:145.93048 3:65.786409 4:0.89262169 5:7672 6:97.439968 7:0.67204398 8:355.726 9:0.74053023 10:2.2182466 
0.10064641664275276 1:7266 2:143.43335 3:66.175205 4:0.88721015 5:7466 6:96.183983 7:0.59188661 8:346.033 9:0.76255333 10:2.1674788 
0.1006335822396465 1:9007 2:156.60876 3:73.828206 4:0.88190984 5:9195 6:107.08907 7:0.58888526 8:376.396 9:0.79891399 10:2.1212592 
0.096933587157431556 1:9098 2:161.42126 3:72.710871 4:0.89280584 5:9333 6:107.62868 7:0.56070504 8:384.031 9:0.7752169 10:2.2200431 
0.1006464724557759 1:7218 2:139.22744 3:66.401912 4:0.87894062 5:7358 6:95.865755 7:0.72791448 8:337.605 9:0.79580928 10:2.0967384 
0.099993580908300822 1:8890 2:159.87202 3:71.222411 4:0.89528373 5:9041 6:106.39126 7:0.62561576 8:376.477 9:0.78819691 10:2.244687 
0.10031993988749902 1:8343 2:151.48763 3:70.986028 4:0.88341423 5:8567 6:103.06618 7:0.76738411 8:369.702 9:0.76705854 10:2.1340486 
0.098148361690913538 1:9084 2:157.74851 3:74.601907 4:0.88110714 5:9320 6:107.54584 7:0.60079365 8:380.589 9:0.78808766 10:2.1145373 
0.1006561125104431 1:7183 2:147.17301 3:62.653215 4:0.90485904 5:7320 6:95.633047 7:0.58002261 8:345.605 9:0.75571092 10:2.3490097 
0.10065698458391227 1:6651 2:121.97256 3:71.827605 4:0.80821807 5:6970 6:92.023455 7:0.76783653 8:323.925 9:0.79654053 10:1.6981293 
0.10065109923256152 1:8511 2:152.18773 3:71.873477 4:0.88145471 5:8696 6:104.09871 7:0.64949634 8:366.444 9:0.79648064 10:2.1174393 
0.10065868947381093 1:10001 2:176.21823 3:73.60144 4:0.90859782 5:10305 6:112.84356 7:0.78735632 8:413.003 9:0.73679535 10:2.3942226 
0.10064200095543252 1:6212 2:131.21191 3:61.22838 4:0.88444874 5:6422 6:88.934605 7:0.7656847 8:317.947 9:0.77220365 10:2.1429917 
0.10067319493644097 1:9758 2:157.85486 3:79.075369 4:0.86548365 5:10043 6:111.46422 7:0.77722023 8:415.239 9:0.7111716 10:1.9962583 
0.10063885939376047 1:8311 2:150.39839 3:71.318628 4:0.88041818 5:8490 6:102.86833 7:0.663394 8:362.945 9:0.79283262 10:2.1088233 
0.1006761193794567 1:7652 2:149.15266 3:66.091126 4:0.89646694 5:7777 6:98.70577 7:0.77811674 8:351.16 9:0.77978476 10:2.2567728 
0.10068836144474246 1:6948 2:146.3581 3:61.487155 4:0.90747113 5:7163 6:94.055666 7:0.71130221 8:345.569 9:0.73113929 10:2.3803038 
0.1006919367897188 1:9302 2:168.85195 3:71.006488 4:0.90728089 5:9515 6:108.82865 7:0.56892966 8:395.515 9:0.74724029 10:2.3779792 
0.10070155291181318 1:7697 2:145.61227 3:68.098512 4:0.88390306 5:7882 6:98.99558 7:0.60918085 8:349.848 9:0.79026466 10:2.1382592 
0.10070717395547721 1:6851 2:136.69568 3:64.504132 4:0.8816621 5:6965 6:93.39681 7:0.69965278 8:329.823 9:0.79141077 10:2.1191771 
0.099875251612909111 1:6313 2:118.27425 3:69.097783 4:0.81159778 5:6524 6:89.654678 7:0.64234839 8:305.571 9:0.84961346 10:1.7116939 
0.10065868814372306 1:8447 2:165.44478 3:65.763808 4:0.91760346 5:8616 6:103.70658 7:0.77823844 8:384.116 9:0.71942838 10:2.5157421 
0.10012345214741951 1:8857 2:158.51663 3:72.174756 4:0.89033121 5:9104 6:106.19361 7:0.72325657 8:381.016 9:0.76667285 10:2.1962891 
0.099899167941014971 1:9730 2:167.02819 3:74.979724 4:0.89357969 5:9965 6:111.30418 7:0.58305369 8:398.337 9:0.77058652 10:2.2276448 
0.10065131265092811 1:6232 2:139.39181 3:57.673023 4:0.91039165 5:6352 6:89.077656 7:0.54551821 8:324.353 9:0.74439161 10:2.4169326 
0.10031604556276963 1:7941 2:154.08655 3:66.78898 4:0.90117711 5:8139 6:100.55245 7:0.56439232 8:364.05 9:0.75294454 10:2.3070655 
0.10062261081263735 1:6445 2:117.88103 3:71.807298 4:0.7930546 5:6552 6:90.587134 7:0.5850581 8:310.237 9:0.84148349 10:1.6416303 
0.10064641365056201 1:7214 2:145.95567 3:63.674905 4:0.89981971 5:7350 6:95.839189 7:0.56052836 8:343.979 9:0.76616471 10:2.2922009 
0.10062801012269043 1:6182 2:138.00791 3:58.325237 4:0.90630585 5:6366 6:88.719597 7:0.60042735 8:324.108 9:0.73953607 10:2.3661784 
0.10067319487459782 1:8505 2:151.20564 3:72.828658 4:0.87636199 5:8713 6:104.06201 7:0.61310554 8:366.834 9:0.79422768 10:2.0761833 
0.10063368970146322 1:7837 2:151.21156 3:66.985217 4:0.89652653 5:7983 6:99.891833 7:0.61514914 8:357.595 9:0.77015269 10:2.2573871 
0.10064200097490006 1:6190 2:139.03846 3:57.665358 4:0.90993817 5:6327 6:88.776983 7:0.65502646 8:323.405 9:0.74371588 10:2.4111263 
0.10064350855927966 1:7718 2:149.02474 3:66.499019 4:0.89491928 5:7822 6:99.130534 7:0.79995854 8:349.356 9:0.79465428 10:2.2410066 
0.099978939329241706 1:9674 2:166.30229 3:75.07252 4:0.89231056 5:9985 6:110.98342 7:0.58242023 8:398.873 9:0.76409379 10:2.2152219 
0.10065109923079613 1:8301 2:154.73047 3:68.876391 4:0.89546204 5:8469 6:102.80643 7:0.59719424 8:364.85 9:0.78363094 10:2.246495 
0.10070126419158322 1:8670 2:157.22957 3:71.174839 4:0.89167254 5:8904 6:105.06658 7:0.66666667 8:376.773 9:0.76748415 10:2.2090612 
0.10065109588179327 1:9115 2:159.22503 3:74.355846 4:0.88426476 5:9473 6:107.72919 7:0.63799258 8:388.625 9:0.75841177 10:2.1413923 
0.10001726393996174 1:9176 2:158.50359 3:74.752324 4:0.88180574 5:9453 6:108.08907 7:0.68395945 8:386.003 9:0.77389476 10:2.1203835 
0.10071877999522907 1:8904 2:157.78802 3:72.817248 4:0.88714655 5:9155 6:106.475 7:0.58215103 8:380.88 9:0.77129174 10:2.1669045 
0.10065308836150871 1:7411 2:124.47786 3:78.123727 4:0.77852675 5:7650 6:97.138964 7:0.6097581 8:337.362 9:0.81826571 10:1.5933426 
0.099424081203377521 1:7815 2:148.28143 3:68.403634 4:0.88723927 5:8032 6:99.751527 7:0.61671402 8:360.242 9:0.75674604 10:2.1677419 
0.10065611250885881 1:8840 2:162.68311 3:69.777425 4:0.90334427 5:8988 6:106.09165 7:0.62035088 8:379.594 9:0.7709451 10:2.3314576 
0.1000376946553712 1:8631 2:160.13081 3:69.461174 4:0.90101993 5:8850 6:104.83001 7:0.54419924 8:378.987 9:0.7551311 10:2.3053283 
0.10003787270707371 1:9748 2:167.96492 3:74.950318 4:0.8949203 5:10000 6:111.40709 7:0.67134986 8:400.608 9:0.76328398 10:2.2410168 
0.099893882946627058 1:9060 2:161.84007 3:72.120772 4:0.89521729 5:9229 6:107.40368 7:0.67966992 8:383.033 9:0.77600707 10:2.2440147 
0.10067611863025064 1:9079 2:158.76185 3:73.946167 4:0.88490695 5:9352 6:107.51624 7:0.74613741 8:381.891 9:0.78229226 10:2.1469924 
0.084489279037342893 1:7992 2:152.4557 3:67.691618 4:0.89602261 5:8201 6:100.87483 7:0.555 8:370.756 9:0.73061564 10:2.2522095 
0.090891243892855661 1:8416 2:152.42585 3:71.564509 4:0.88293047 5:8692 6:103.51611 7:0.58935574 8:369.075 9:0.77640144 10:2.1299083 
0.1006569845956958 1:8772 2:167.38958 3:67.514511 4:0.91505125 5:9044 6:105.68281 7:0.62301136 8:392.519 9:0.7154629 10:2.4793126 
0.1000348665351749 1:9555 2:168.95045 3:72.367109 4:0.90362081 5:9724 6:110.2987 7:0.80429293 8:397.109 9:0.76141442 10:2.3346304 
0.099714838284247265 1:8424 2:157.41838 3:69.358955 4:0.89770224 5:8695 6:103.56529 7:0.74449845 8:373.439 9:0.75908233 10:2.2696187 
0.099974936152088786 1:8263 2:153.66697 3:69.789088 4:0.89092115 5:8494 6:102.57085 7:0.56499145 8:369.285 9:0.76142 10:2.2018768 
0.10065697871948899 1:7589 2:146.9259 3:67.034275 4:0.88985397 5:7742 6:98.298601 7:0.74314532 8:354.7 9:0.75800495 10:2.1918026 
0.10066205524194002 1:9275 2:164.63295 3:72.382209 4:0.89816522 5:9433 6:108.67059 7:0.76754386 8:387.268 9:0.77714232 10:2.2744947 
0.10066900002449605 1:7632 2:142.07541 3:69.415901 4:0.87251636 5:7808 6:98.576692 7:0.71661972 8:345.611 9:0.80292155 10:2.0467272 
0.10067315420396815 1:8265 2:154.81728 3:69.048991 4:0.8950314 5:8639 6:102.58326 7:0.63033862 8:372.506 9:0.7484903 10:2.2421368 
0.10067388184974302 1:8040 2:156.59935 3:65.952253 4:0.90698971 5:8245 6:101.1773 7:0.76064333 8:371.579 9:0.73175145 10:2.3744352 
0.10067609243461176 1:6437 2:136.67342 3:61.071051 4:0.89461426 5:6559 6:90.530895 7:0.5870497 8:327.989 9:0.7519255 10:2.2379412 
0.1006510992339564 1:9369 2:163.45336 3:74.1143 4:0.891293 5:9663 6:109.21988 7:0.69709821 8:393.966 9:0.75855245 10:2.2054227 
0.10068009568557873 1:9531 2:160.437 3:76.211759 4:0.87997172 5:9734 6:110.16009 7:0.64407352 8:384.978 9:0.80812122 10:2.1051476 
0.075754876530777962 1:9193 2:165.32875 3:71.367074 4:0.90203272 5:9414 6:108.18915 7:0.73204332 8:388.756 9:0.76438633 10:2.316597 
0.10068836203809414 1:9402 2:160.55931 3:75.646616 4:0.88205611 5:9733 6:109.41206 7:0.60673722 8:391.165 9:0.77216504 10:2.1224917 
0.10070097700471375 1:8526 2:153.60205 3:72.113727 4:0.88294091 5:8772 6:104.1904 7:0.57298387 8:372.85 9:0.77070273 10:2.1299974 
0.10069760946074144 1:6467 2:140.57038 3:59.863912 4:0.90478702 5:6657 6:90.741612 7:0.61090119 8:332.18 9:0.73648815 10:2.3481656 
0.10070155290984251 1:8247 2:151.12878 3:70.099648 4:0.88591874 5:8435 6:102.47149 7:0.68417123 8:362.589 9:0.78827292 10:2.1559136 
0.10065697867317216 1:7294 2:151.7026 3:61.998926 4:0.91267448 5:7421 6:96.36913 7:0.54698163 8:351.282 9:0.74278621 10:2.4468586 
0.10070284864279588 1:6919 2:140.7272 3:64.000152 4:0.89060295 5:7131 6:93.859173 7:0.7165493 8:344.585 9:0.73225182 10:2.1988572 
0.10051198585243969 1:7678 2:148.16891 3:67.65633 4:0.88966376 5:7883 6:98.873319 7:0.6647619 8:359.075 9:0.74832048 10:2.1900229 
0.099890030302568017 1:9576 2:166.24333 3:74.175582 4:0.89493984 5:9935 6:110.41984 7:0.62482057 8:398.607 9:0.75736313 10:2.2412136 
0.10027038035834959 1:8160 2:154.79321 3:68.142528 4:0.89789165 5:8391 6:101.92956 7:0.57708628 8:367.298 9:0.76008628 10:2.2716094 
0.099911102248643857 1:8828 2:162.95669 3:69.761554 4:0.90373196 5:8966 6:106.01961 7:0.5984679 8:380.381 9:0.76671605 10:2.3359097 
0.099431458688339011 1:7813 2:150.65631 3:66.733835 4:0.89654428 5:8037 6:99.738762 7:0.78263047 8:357.767 9:0.7670561 10:2.2575701 
0.10070922887362248 1:9010 2:157.73795 3:73.355622 4:0.88528579 5:9240 6:107.1069 7:0.60126793 8:389.886 9:0.74483379 10:2.1503185 
0.10067372792566515 1:9024 2:158.18 3:73.419346 4:0.88575628 5:9235 6:107.19008 7:0.57991132 8:380.36 9:0.78382529 10:2.154473 
0.099949363265426069 1:7961 2:147.83903 3:70.095445 4:0.88045294 5:8110 6:100.67899 7:0.58224238 8:361.973 9:0.76352829 10:2.1091104 
0.099961545939220089 1:8156 2:149.36378 3:70.089316 4:0.88306408 5:8257 6:101.90457 7:0.59075764 8:357.094 9:0.80375183 10:2.1310492 
0.10069980077054325 1:9507 2:165.9913 3:73.802157 4:0.89572197 5:9783 6:110.02131 7:0.66347966 8:400.228 9:0.74582755 10:2.2491389 
0.099969570940564953 1:6339 2:134.20943 3:60.481908 4:0.8926991 5:6457 6:89.839109 7:0.58060084 8:317.727 9:0.78908243 10:2.2190012 
0.099978939329716437 1:8092 2:149.13962 3:69.637408 4:0.88429553 5:8220 6:101.50396 7:0.61164021 8:355.967 9:0.80250225 10:2.1416595 
0.099980908993204359 1:9568 2:164.9191 3:74.314901 4:0.89271876 5:9694 6:110.37371 7:0.81409002 8:389.194 9:0.79377745 10:2.2191929 
0.10000387240703162 1:8130 2:155.88069 3:66.762716 4:0.90363959 5:8311 6:101.74201 7:0.64005668 8:368.123 9:0.75390132 10:2.3348464 
0.099997717208313963 1:7421 2:142.70065 3:67.477701 4:0.88113655 5:7686 6:97.204479 7:0.58780198 8:350.097 9:0.76084382 10:2.1147824 
0.10000387240705727 1:8171 2:150.68665 3:69.727189 4:0.88649941 5:8364 6:101.99824 7:0.60373873 8:359.524 9:0.79438183 10:2.1610888 
0.10000806388463912 1:5775 2:126.12652 3:59.082419 4:0.88349653 5:5888 6:85.749393 7:0.63447594 8:304.509 9:0.78263918 10:2.1347556 
0.10001807638457504 1:8562 2:164.23018 3:66.892826 4:0.91328934 5:8962 6:104.41014 7:0.64511754 8:385.366 9:0.72449985 10:2.4551239 
0.10065109655982718 1:6230 2:132.95749 3:60.462091 4:0.89062039 5:6344 6:89.063362 7:0.73190789 8:316.649 9:0.78080335 10:2.1990223 
0.10062801010504013 1:8777 2:162.83551 3:69.964784 4:0.90298818 5:9079 6:105.71293 7:0.6128334 8:384.952 9:0.74429106 10:2.3273924 
0.10002215031930195 1:7831 2:151.67216 3:67.062668 4:0.89693845 5:8016 6:99.853587 7:0.55847953 8:358.766 9:0.7645476 10:2.2616481 
0.1006570049266223 1:9368 2:165.57915 3:72.734393 4:0.89835379 5:9525 6:109.21405 7:0.80453452 8:390.021 9:0.77389272 10:2.2764904 
0.10070714701541136 1:8984 2:158.18923 3:73.402183 4:0.88582732 5:9209 6:106.95225 7:0.57530738 8:380.59 9:0.779408 10:2.1551026 
0.10002414860978359 1:8448 2:156.67835 3:69.715582 4:0.89555049 5:8753 6:103.71272 7:0.67692308 8:375.582 9:0.7525827 10:2.2473935 
0.10002706000768558 1:7103 2:137.05577 3:67.338138 4:0.87097956 5:7365 6:95.099004 7:0.75164021 8:336.488 9:0.7883381 10:2.0353365 
0.10002781928889967 1:7687 2:150.67341 3:65.958491 4:0.89909283 5:7947 6:98.931251 7:0.59909594 8:358.298 9:0.75245057 10:2.2843671 
0.10051275720783437 1:9255 2:162.15419 3:73.338543 4:0.89187773 5:9486 6:108.55336 7:0.68191866 8:388.384 9:0.77101642 10:2.2110364 
0.10003317104426787 1:7901 2:143.84134 3:70.72332 4:0.87077827 5:8075 6:100.29888 7:0.79486922 8:348.786 9:0.81615724 10:2.0338601 
0.10069109432677692 1:9534 2:157.82835 3:77.995067 4:0.86936158 5:9792 6:110.17743 7:0.61605066 8:389.883 9:0.78816367 10:2.0235684 
0.10068011646465827 1:7262 2:142.13197 3:65.913255 4:0.88596775 5:7427 6:96.157504 7:0.72540206 8:340.814 9:0.78565387 10:2.1563488 
0.10065698313829317 1:6563 2:131.0699 3:64.604551 4:0.87008511 5:6712 6:91.412642 7:0.60600185 8:321.201 9:0.79938959 10:2.0288028 
0.10003486653538313 1:8198 2:150.72686 3:70.338828 4:0.88443458 5:8433 6:102.16662 7:0.62752603 8:369.405 9:0.75493966 10:2.1428685 
0.10064641641486213 1:7279 2:141.37787 3:66.718477 4:0.88164353 5:7431 6:96.269988 7:0.79421713 8:343.385 9:0.77574493 10:2.1190213 
0.10065697870663337 1:9137 2:160.67023 3:73.193988 4:0.89020809 5:9304 6:107.85912 7:0.5712053 8:384.155 9:0.77803746 10:2.1951289 
0.10003486319073589 1:5972 2:138.69657 3:56.63204 4:0.91284061 5:6160 6:87.199694 7:0.51482759 8:324.451 9:0.71290462 10:2.449083 
0.10005006178932727 1:7982 2:150.34047 3:68.455181 4:0.89032052 5:8166 6:100.8117 7:0.5847619 8:359.725 9:0.77514035 10:2.1961884 
0.10003613322765387 1:9049 2:163.81085 3:71.65165 4:0.89926472 5:9332 6:107.33846 7:0.68542645 8:390.559 9:0.74548198 10:2.2862118 
0.10065698778867857 1:9089 2:158.90705 3:73.813824 4:0.88556818 5:9343 6:107.57543 7:0.78801803 8:384.364 9:0.7731087 10:2.1528089 
0.10065611250885843 1:7087 2:148.46745 3:61.66884 4:0.90965281 5:7279 6:94.991835 7:0.57688238 8:346.05 9:0.74369453 10:2.4074954 
0.10015713191665136 1:7329 2:142.94138 3:66.325491 4:0.88583267 5:7564 6:96.600065 7:0.56394275 8:345.037 9:0.77361209 10:2.15515 
0.10070922784042474 1:6810 2:140.75721 3:62.455786 4:0.89616901 5:6955 6:93.116923 7:0.66634051 8:334.686 9:0.76397981 10:2.2537097 
0.10067609163550031 1:9057 2:160.2305 3:73.156249 4:0.8896881 5:9360 6:107.3859 7:0.59648314 8:383.87 9:0.77237087 10:2.1902503 
0.10064303269142244 1:8874 2:162.56768 3:70.124654 4:0.90218148 5:9036 6:106.29547 7:0.66144902 8:381.007 9:0.76818068 10:2.3182671 
0.096657823198654735 1:9875 2:168.24467 3:75.943364 4:0.89232858 5:10220 6:112.13046 7:0.67729767 8:404.56 9:0.7581953 10:2.2153967 
0.10018727096000213 1:6081 2:132.52384 3:58.884626 4:0.89586203 5:6171 6:87.991873 7:0.57454649 8:312.393 9:0.78303699 10:2.2505677 
0.10003498224311907 1:8851 2:156.90689 3:72.983928 4:0.88523627 5:9121 6:106.15763 7:0.59219858 8:378.006 9:0.77840357 10:2.1498828 
0.10062820420917352 1:8305 2:154.45545 3:69.987252 4:0.89144821 5:8559 6:102.83119 7:0.55831933 8:374.238 9:0.74516721 10:2.2069083 
0.10022707510636897 1:9492 2:156.93854 3:78.235592 4:0.86688337 5:9710 6:109.93448 7:0.60094967 8:387.107 9:0.79598621 10:2.0059737 
0.10059316466438514 1:8937 2:156.49889 3:73.236816 4:0.88374425 5:9154 6:106.67212 7:0.6476087 8:375.384 9:0.79698492 10:2.1368883 
0.10070922802570892 1:8395 2:153.5232 3:70.368051 4:0.88876946 5:8660 6:103.38688 7:0.56497745 8:368.69 9:0.77608242 10:2.1817174 
0.1006147021862645 1:8380 2:155.49578 3:69.638162 4:0.89411071 5:8604 6:103.29447 7:0.57193557 8:370.201 9:0.7683847 10:2.2329105 
0.10001947610452619 1:9371 2:165.18866 3:72.66812 4:0.89804194 5:9562 6:109.23153 7:0.63142645 8:396.026 9:0.75084173 10:2.273193 
0.10002706000768521 1:7094 2:144.43344 3:63.491585 4:0.89819825 5:7295 6:95.038736 7:0.57200452 8:343.201 9:0.75683979 10:2.2748439 
0.10067777781737536 1:9335 2:166.45602 3:72.250239 4:0.90088877 5:9587 6:109.02152 7:0.78577441 8:392.427 9:0.76173941 10:2.3038819 
0.10031604551834775 1:8690 2:161.76311 3:69.637059 4:0.90259635 5:8960 6:105.1877 7:0.65893236 8:383.356 9:0.7430621 10:2.3229457 
0.10001807638450483 1:8717 2:161.28072 3:69.922711 4:0.90113114 5:9030 6:105.35098 7:0.75101232 8:384.347 9:0.74153204 10:2.306557 
0.10050349446069524 1:7783 2:148.3809 3:67.927364 4:0.8890601 5:7955 6:99.547091 7:0.59412214 8:356.464 9:0.76970719 10:2.1844054 
0.10062062603215477 1:8959 2:154.95723 3:74.590217 4:0.87652298 5:9158 6:106.80334 7:0.59468968 8:380.805 9:0.77636173 10:2.0774471 
0.10065304270640964 1:8868 2:159.08956 3:71.883977 4:0.89209597 5:9029 6:106.25953 7:0.81208791 8:379.915 9:0.77208065 10:2.2131435 
0.1006276341776832 1:9478 2:160.31049 3:76.331428 4:0.87936547 5:9730 6:109.85338 7:0.58412425 8:388.818 9:0.78783241 10:2.1001899 
0.10062801531384148 1:6574 2:138.17353 3:62.301397 4:0.8925783 5:6739 6:91.489217 7:0.54098091 8:334.963 9:0.73628489 10:2.2178239 
0.10062810855028329 1:8225 2:156.75014 3:67.9632 4:0.90111669 5:8437 6:102.33472 7:0.56833886 8:370.11 9:0.75454324 10:2.3063973 
0.10064350491622627 1:8323 2:154.02958 3:69.885994 4:0.89114531 5:8491 6:102.94257 7:0.57858881 8:366.274 9:0.77961031 10:2.2040121 
0.10062828158238721 1:8449 2:154.44661 3:70.517203 4:0.88968246 5:8727 6:103.71886 7:0.60527258 8:370.191 9:0.77475335 10:2.1901976 
0.10070126456613727 1:8304 2:157.53832 3:68.202606 4:0.90142895 5:8497 6:102.825 7:0.58843537 8:370.985 9:0.75820126 10:2.3098578 
0.099798059569139397 1:8894 2:160.77045 3:71.198348 4:0.89659218 5:9116 6:106.41519 7:0.75118243 8:381.635 9:0.76738021 10:2.2580644 
0.10064200088957087 1:7329 2:147.50446 3:63.734493 4:0.90183279 5:7474 6:96.600065 7:0.7843536 8:348.009 9:0.7604552 10:2.3143584 
0.10002921149130278 1:9340 2:162.07391 3:74.244059 4:0.88890702 5:9553 6:109.05071 7:0.62479096 8:386.359 9:0.78627537 10:2.1829883 
0.1006317235571739 1:7353 2:145.88013 3:64.861512 4:0.89571832 5:7467 6:96.758102 7:0.57132867 8:345.359 9:0.77469878 10:2.2491016 
0.10063892605153943 1:8986 2:157.62087 3:73.651541 4:0.88411455 5:9283 6:106.96416 7:0.61547945 8:380.165 9:0.78132553 10:2.1400893 
0.10002706000777073 1:9345 2:167.79421 3:71.888865 4:0.90357274 5:9648 6:109.0799 7:0.66257799 8:397.2 9:0.74433886 10:2.3340779 
0.10064327000089376 1:9712 2:167.295 3:74.624803 4:0.89499949 5:9879 6:111.20118 7:0.77920411 8:395.033 9:0.78208109 10:2.2418149 
0.10064593032014429 1:9416 2:160.9926 3:75.423017 4:0.88347013 5:9667 6:109.49349 7:0.59320859 8:388.569 9:0.78368226 10:2.1345287 
0.099011521369506958 1:9379 2:162.27591 3:74.475978 4:0.88846385 5:9578 6:109.27815 7:0.58348886 8:388.273 9:0.78179343 10:2.1789027 
0.10065559955139305 1:8367 2:157.0518 3:69.13875 4:0.89788555 5:8622 6:103.21432 7:0.78232819 8:372.719 9:0.75686177 10:2.2715452 
0.10064676821333482 1:7383 2:143.29269 3:66.803442 4:0.88467793 5:7513 6:96.955286 7:0.57824248 8:342.366 9:0.79151924 10:2.1449897 
0.10064701334085377 1:8580 2:156.50692 3:70.481906 4:0.89285527 5:8730 6:104.51983 7:0.68388331 8:373.374 9:0.77340862 10:2.2205261 
0.10064982610831034 1:7770 2:151.13209 3:66.389074 4:0.89835095 5:8000 6:99.463919 7:0.62309543 8:359.737 9:0.75450247 10:2.2764603 
0.10065027276843022 1:8799 2:158.09551 3:71.658684 4:0.89137735 5:9033 6:105.84533 7:0.56811725 8:377.143 9:0.77737591 10:2.2062296 
0.10070155290940122 1:8737 2:159.77349 3:70.176134 4:0.89837825 5:8947 6:105.47177 7:0.77291224 8:385.216 9:0.73988388 10:2.2767497 
0.10065109923395674 1:7155 2:128.84772 3:72.695395 4:0.82564075 5:7306 6:95.446472 7:0.69010417 8:333.05 9:0.81058885 10:1.7724331 
0.10065611105022221 1:6550 2:132.33716 3:63.641672 4:0.87677242 5:6709 6:91.322062 7:0.58424761 8:321.407 9:0.79678381 10:2.0794105 
0.10065109923079613 1:8661 2:157.61574 3:70.722797 4:0.89368048 5:8950 6:105.01204 7:0.60950035 8:375.41 9:0.77226478 10:2.2286412 
0.10069193678719458 1:8406 2:154.80418 3:69.705239 4:0.89288736 5:8628 6:103.45459 7:0.59625479 8:374.131 9:0.75466092 10:2.2208399 
0.10065308836150871 1:8291 2:157.02689 3:68.702119 4:0.89920956 5:8580 6:102.74448 7:0.61579026 8:374.458 9:0.74303719 10:2.2856192 
0.100700408616177 1:6539 2:142.38825 3:59.594127 4:0.90820177 5:6751 6:91.245347 7:0.69217741 8:337.142 9:0.72292873 10:2.3893001 
0.10065432254072121 1:8657 2:158.10742 3:70.17269 4:0.89611139 5:8829 6:104.98778 7:0.57346317 8:375.13 9:0.77306086 10:2.2531189 
0.10068717143292634 1:9500 2:162.94507 3:74.76565 4:0.88851912 5:9682 6:109.9808 7:0.69040698 8:388.475 9:0.79105616 10:2.1794109 
0.10065611251014303 1:6132 2:133.03537 3:59.609865 4:0.89399582 5:6320 6:88.360087 7:0.59349593 8:318.842 9:0.75798561 10:2.2317677 
0.10065697869963729 1:7136 2:144.85164 3:63.503875 4:0.89877689 5:7330 6:95.319659 7:0.56419987 8:344.946 9:0.75363746 10:2.280989 
0.10065698894371945 1:8594 2:161.92698 3:68.792261 4:0.90527076 5:8876 6:104.60507 7:0.537125 8:380.352 9:0.74650686 10:2.3538545 
0.10065700697038481 1:9200 2:163.16852 3:72.976496 4:0.89441091 5:9477 6:108.23033 7:0.55784623 8:392.716 9:0.74961885 10:2.2359051 
0.10066205524193823 1:7527 2:148.28102 3:65.155758 4:0.89828796 5:7732 6:97.896241 7:0.78113325 8:350.15 9:0.77147795 10:2.275793 
0.10003486319045882 1:7296 2:143.52022 3:65.446297 4:0.88997593 5:7431 6:96.382341 7:0.68167803 8:342.096 9:0.78342729 10:2.1929464 
0.082665581484680742 1:9063 2:156.26446 3:74.615894 4:0.87863309 5:9291 6:107.42146 7:0.59038499 8:379.242 9:0.79186106 10:2.0942517 
0.10070037307665129 1:7194 2:141.63385 3:66.06231 4:0.884558 5:7375 6:95.706245 7:0.59161184 8:350.417 9:0.73622399 10:2.1439434 
0.10002022910362451 1:8158 2:151.11605 3:70.295131 4:0.8852197 5:8432 6:101.91707 7:0.77784134 8:368.643 9:0.75436509 10:2.149737 
0.10000039140478879 1:8237 2:152.41945 3:69.922633 4:0.88856467 5:8503 6:102.40935 7:0.6696748 8:367.386 9:0.76689115 10:2.1798299 
0.10068011567106061 1:9056 2:156.495 3:74.767539 4:0.8784887 5:9347 6:107.37997 7:0.71713652 8:383.686 9:0.77302648 10:2.0930874 
0.10066205524106574 1:7156 2:141.78608 3:65.445452 4:0.88709921 5:7353 6:95.453141 7:0.65911394 8:341.782 9:0.76980694 10:2.1664773 
0.1006731541867471 1:6904 2:138.37869 3:64.18287 4:0.88592921 5:7061 6:93.757377 7:0.7817029 8:330.973 9:0.79200061 10:2.1560066 
0.10067319493644097 1:9327 2:169.43057 3:70.905476 4:0.90822011 5:9551 6:108.97479 7:0.5277542 8:408.37 9:0.70282011 10:2.3895273 
0.10067315324316257 1:8804 2:156.70364 3:72.41145 4:0.88683215 5:9069 6:105.8754 7:0.58771696 8:379.283 9:0.76906517 10:2.1640726 
0.10067372792566803 1:10053 2:174.06456 3:74.603931 4:0.90349473 5:10410 6:113.13654 7:0.6083878 8:431.597 9:0.67818583 10:2.3331822 
0.10067820066823022 1:9591 2:163.63748 3:75.82321 4:0.88616966 5:9842 6:110.50629 7:0.57818905 8:394.047 9:0.77620727 10:2.1581449 
0.10067936751868839 1:8685 2:153.50479 3:72.680515 4:0.88080784 5:8838 6:105.15743 7:0.76184211 8:366.964 9:0.8104622 10:2.1120488 
0.098203418623976912 1:9376 2:160.77214 3:75.049605 4:0.88435907 5:9582 6:109.26067 7:0.57783804 8:384.676 9:0.7962277 10:2.1422117 
0.10000348086649097 1:8807 2:161.67154 3:70.584092 4:0.89966085 5:9095 6:105.89344 7:0.63028698 8:384.051 9:0.75034339 10:2.2904813 
0.10068494755516902 1:9234 2:159.54741 3:74.574573 4:0.88403894 5:9528 6:108.43013 7:0.78923077 8:385.736 9:0.77986493 10:2.1394344 
0.10068836203806289 1:9514 2:156.79721 3:78.42811 4:0.86591673 5:9792 6:110.06181 7:0.59836478 8:429.919 9:0.64684427 10:1.9992476 
0.1006919367897188 1:8465 2:156.69942 3:69.434963 4:0.89646763 5:8665 6:103.81702 7:0.60403882 8:370.101 9:0.77659807 10:2.2567799 
0.10069233739283188 1:9210 2:156.51647 3:76.135694 4:0.87371462 5:9437 6:108.28913 7:0.63958333 8:385.093 9:0.78043771 10:2.0557568 
0.10069233739325906 1:6351 2:137.45958 3:60.077209 4:0.89943545 5:6558 6:89.924103 7:0.54674587 8:327.586 9:0.74370604 10:2.2880487 
0.10070098743260023 1:8709 2:160.01342 3:70.205485 4:0.89861039 5:8961 6:105.30263 7:0.68922127 8:379.659 9:0.75926041 10:2.2792153 
0.083002369788293284 1:9060 2:154.96702 3:75.317542 4:0.873946 5:9290 6:107.40368 7:0.80021198 8:377.384 9:0.79941279 10:2.0575157 
0.10024602572284599 1:9012 2:163.85731 3:70.715195 4:0.90208151 5:9267 6:107.11879 7:0.60104042 8:390.925 9:0.74104428 10:2.3171443 
0.10070154893115819 1:7005 2:144.28038 3:62.945566 4:0.89981458 5:7175 6:94.440685 7:0.57682806 8:342.263 9:0.75144656 10:2.2921452 
0.099915098541673936 1:7119 2:142.60565 3:64.570484 4:0.89161693 5:7235 6:95.206052 7:0.67877574 8:339.664 9:0.77540718 10:2.2085269 
0.10070155290969232 1:7370 2:141.10369 3:67.324621 4:0.87883342 5:7545 6:96.869889 7:0.59225329 8:340.768 9:0.79755335 10:2.0958705 
0.10070155305328597 1:8948 2:160.62304 3:71.793612 4:0.89454916 5:9189 6:106.73775 7:0.80395328 8:381.114 9:0.77415163 10:2.2372888 
0.10063368966489679 1:9892 2:166.57523 3:76.500612 4:0.88830416 5:10138 6:112.22694 7:0.57858104 8:399.704 9:0.77806698 10:2.1774366 
0.1006801089355519 1:8241 2:150.73424 3:70.233406 4:0.88481529 5:8483 6:102.43421 7:0.58738418 8:366.141 9:0.77249033 10:2.1461901 
0.10070714729320154 1:8067 2:152.93122 3:67.374416 4:0.89772626 5:8242 6:101.34704 7:0.7466679 8:362.416 9:0.7718043 10:2.2698708 
0.10070923339150509 1:9210 2:159.81547 3:74.043572 4:0.88619802 5:9384 6:108.28913 7:0.8035948 8:384.622 9:0.78235029 10:2.1583976 
0.10062261584634356 1:6601 2:136.22429 3:62.267846 4:0.88941636 5:6748 6:91.676901 7:0.65304709 8:324.87 9:0.78595988 10:2.1877149 
0.099996434627261904 1:8169 2:152.17674 3:69.309829 4:0.89025823 5:8393 6:101.98575 7:0.778 8:365.946 9:0.76655752 10:2.1956011 
0.10042311760810263 1:8855 2:160.32254 3:71.260417 4:0.89578799 5:9049 6:106.18162 7:0.75683761 8:376.268 9:0.78596618 10:2.249812 
0.1000030101113677 1:8246 2:151.61752 3:70.602934 4:0.88496121 5:8499 6:102.46528 7:0.6292735 8:365.17 9:0.77707513 10:2.1474677 
0.10069193635869307 1:8246 2:150.50695 3:70.480441 4:0.88357645 5:8495 6:102.46528 7:0.74288288 8:378.411 9:0.72364521 10:2.1354428 
0.10001767640417161 1:9216 2:162.86933 3:73.062424 4:0.89373498 5:9547 6:108.3244 7:0.5987526 8:388.352 9:0.76789394 10:2.2291805 
0.10002706000768558 1:7937 2:149.73737 3:68.115733 4:0.89054183 5:8020 6:100.52712 7:0.83635406 8:352.028 9:0.80484422 10:2.1982787 
0.10071877981576727 1:6823 2:137.81557 3:63.464794 4:0.88765697 5:6956 6:93.205758 7:0.72739872 8:330.046 9:0.78711155 10:2.1715278 
0.10002275945679434 1:8275 2:154.92104 3:68.4817 4:0.89699405 5:8485 6:102.6453 7:0.7454955 8:367.055 9:0.7718192 10:2.2622253 
0.10002788692721504 1:8991 2:158.11789 3:73.755855 4:0.88454168 5:9523 6:106.99391 7:0.53613596 8:405.559 9:0.68692572 10:2.1438012 
0.10070155291181213 1:9156 2:160.04243 3:73.374284 4:0.88871108 5:9318 6:107.97121 7:0.57730139 8:383.544 9:0.78214138 10:2.1811788 
0.10069233738901839 1:8904 2:167.11351 3:68.869584 4:0.91113292 5:9157 6:106.475 7:0.6252809 8:392.378 9:0.72675113 10:2.4265213 
0.10001947407029521 1:7145 2:144.5491 3:63.89718 4:0.89699297 5:7303 6:95.379749 7:0.61288386 8:343.081 9:0.76281419 10:2.2622141 
0.10002275946417241 1:7644 2:148.89127 3:65.948619 4:0.89655551 5:7745 6:98.654159 7:0.8 8:348.794 9:0.78957344 10:2.257686 
0.10018671606798676 1:9848 2:163.29556 3:77.623089 4:0.87979498 5:10080 6:111.97706 7:0.78948212 8:396.191 9:0.78840377 10:2.1036983 
0.10071878000482846 1:6356 2:117.75873 3:71.035455 4:0.79756821 5:6562 6:89.959494 7:0.63281561 8:308.446 9:0.83952855 10:1.6577459 
0.10071721547376086 1:9047 2:158.96692 3:73.816267 4:0.88565185 5:9459 6:107.3266 7:0.58015904 8:392.696 9:0.73722745 10:2.1535486 
0.10031603165495767 1:8812 2:155.51096 3:73.036454 4:0.88285019 5:9085 6:105.9235 7:0.7338441 8:385.39 9:0.74556149 10:2.1292238 
0.098415651635044621 1:9114 2:161.59061 3:72.684163 4:0.89312711 5:9342 6:107.72328 7:0.75422046 8:384.662 9:0.7740345 10:2.2231887 
0.10070155290950152 1:7441 2:146.00459 3:66.016647 4:0.89193957 5:7621 6:97.335376 7:0.62979264 8:347.1 9:0.77612548 10:2.2116329 
0.10008817512799499 1:9846 2:170.3075 3:74.451819 4:0.8993832 5:10073 6:111.96569 7:0.78516746 8:402.277 9:0.76457359 10:2.287486 
