svm_type one_class
kernel_type rbf
gamma 0.10000000000000001
nr_class 2
total_sv 708
rho 0.10086412036673049
SV
0.10098654912716655 1:5395 2:149.94025 3:46.869826 4:0.94988814 5:5517 6:82.880199 7:0.43915344 8:328.862 9:0.62686486 10:3.1990784 
0.10080440223523475 1:6354 2:157.2884 3:52.010286 4:0.94374705 5:6464 6:89.945339 7:0.83058824 8:345.378 9:0.6693723 10:3.0241788 
0.10080254240495481 1:5371 2:147.68527 3:47.381835 4:0.94713687 5:5536 6:82.695644 7:0.48654769 8:326.798 9:0.63198422 10:3.1169175 
0.10090891610402354 1:6115 2:156.49866 3:51.165602 4:0.94504525 5:6302 6:88.237519 7:0.71839756 8:345.676 9:0.64308424 10:3.0586694 
0.10084051303522368 1:5150 2:135.2529 3:48.896526 4:0.93236464 5:5267 6:80.976439 7:0.53312629 8:302.211 9:0.70859251 10:2.7661044 
0.10091808302653824 1:6332 2:158.02282 3:51.907012 4:0.94451164 5:6479 6:89.789492 7:0.74389098 8:350.208 9:0.64878178 10:3.0443444 
0.10059290946795854 1:6272 2:156.88812 3:52.628726 4:0.94205664 5:6514 6:89.363071 7:0.57268079 8:350.664 9:0.64096387 10:2.981036 
0.10081023005004836 1:5865 2:152.81546 3:49.913173 4:0.94515441 5:6237 6:86.414987 7:0.67166743 8:349.737 9:0.60255226 10:3.0616257 
0.10081153058159396 1:6458 2:157.61185 3:54.014308 4:0.93944321 5:6654 6:90.678448 7:0.57404444 8:354.675 9:0.64512927 10:2.9179647 
0.096982486879266028 1:6603 2:164.16246 3:51.624455 4:0.94926683 5:6756 6:91.690789 7:0.49158725 8:360.888 9:0.63709805 10:3.1799359 
0.10032580183650984 1:6477 2:159.88401 3:52.598126 4:0.94433801 5:6640 6:90.811742 7:0.49571407 8:353.767 9:0.65035296 10:3.0397282 
0.10098670027961337 1:5787 2:147.6217 3:50.857295 4:0.93878229 5:5913 6:85.838437 7:0.50182102 8:328.802 9:0.67265821 10:2.9026651 
0.10081358657234107 1:6134 2:148.58756 3:53.162314 4:0.93380421 5:6223 6:88.374495 7:0.79817827 8:331.79 9:0.70020797 10:2.7949792 
0.080416696350840394 1:5854 2:153.24714 3:49.767924 4:0.94579784 5:6019 6:86.333912 7:0.64083196 8:339.829 9:0.63700334 10:3.0792352 
0.1005928014322956 1:6500 2:157.72948 3:53.764949 4:0.94011113 5:6692 6:90.972837 7:0.54880108 8:352.136 9:0.6587223 10:2.933686 
0.10098106485790229 1:6723 2:160.10212 3:54.021732 4:0.94135404 5:6857 6:92.520211 7:0.51517241 8:356.505 9:0.66472456 10:2.9636614 
0.10087177655846935 1:6973 2:166.08043 3:54.34867 4:0.9449402 5:7132 6:94.224728 7:0.45808698 8:368.286 9:0.64603956 10:3.0558325 
0.10092998845716841 1:5257 2:136.21 3:50.184169 4:0.92965456 5:5392 6:81.813326 7:0.73473096 8:309.957 9:0.68761437 10:2.7142025 
0.10093003620473383 1:5371 2:123.94353 3:56.235398 4:0.89114537 5:5531 6:82.695644 7:0.73414434 8:297.114 9:0.76457269 10:2.2040127 
0.10092999582713272 1:6047 2:161.8127 3:48.245859 4:0.95451632 5:6185 6:87.745538 7:0.54858024 8:351.623 9:0.61460386 10:3.353919 
0.10081023737277763 1:6562 2:165.6173 3:51.188184 4:0.95103763 5:6706 6:91.405678 7:0.51555625 8:359.34 9:0.63860889 10:3.2354595 
0.10081004616593045 1:6328 2:163.35557 3:50.361357 4:0.95129149 5:6507 6:89.761127 7:0.43641379 8:371.288 9:0.57683886 10:3.2436689 
0.10081135577049243 1:5603 2:137.66711 3:52.666293 4:0.92392956 5:5759 6:84.46278 7:0.54229578 8:314.12 9:0.71357448 10:2.613951 
0.098819634711079046 1:6095 2:161.21029 3:49.131243 4:0.9524276 5:6268 6:88.093104 7:0.44816176 8:353.174 9:0.61405338 10:3.2812175 
0.10079230666834457 1:6546 2:162.56156 3:52.315929 4:0.9468001 5:6691 6:91.294173 7:0.46281109 8:357.376 9:0.64407301 10:3.1073052 
0.10061004440563394 1:6611 2:155.75546 3:55.195903 4:0.93510324 5:6794 6:91.746317 7:0.59174723 8:351.888 9:0.67091594 10:2.8218663 
0.10058253933627898 1:6604 2:150.46241 3:57.335444 4:0.92454966 5:6815 6:91.697731 7:0.57823308 8:345.992 9:0.69324192 10:2.6242478 
0.10095871308884402 1:4752 2:137.57457 3:44.869663 4:0.94531874 5:4940 6:77.784538 7:0.47912886 8:308.034 9:0.62934529 10:3.0660933 
0.10100515776640939 1:6484 2:166.09018 3:50.397029 4:0.95285318 5:6646 6:90.860801 7:0.43920612 8:366.011 9:0.60822546 10:3.2956343 
0.10098244619520913 1:6997 2:169.02255 3:53.551644 4:0.94848189 5:7138 6:94.386742 7:0.45147761 8:372.397 9:0.63402939 10:3.1562533 
0.10098106883054214 1:5056 2:143.01544 3:45.879107 4:0.94714754 5:5175 6:80.234027 7:0.5 8:314.905 9:0.64070456 10:3.1172237 
0.10098106900281986 1:7275 2:163.37988 3:57.758032 4:0.93542702 5:7473 6:96.243533 7:0.4861668 8:374.04 9:0.65344158 10:2.8286953 
0.1009865491317164 1:7241 2:168.82366 3:55.405906 4:0.94461241 5:7428 6:96.018371 7:0.61229494 8:375.771 9:0.64440944 10:3.0470337 
0.10081345691884722 1:6407 2:153.04093 3:54.074825 4:0.93549659 5:6598 6:90.319686 7:0.68253968 8:353.873 9:0.64293894 10:2.8301697 
0.1009912615945046 1:4816 2:135.27832 3:45.89482 4:0.94069186 5:4959 6:78.306588 7:0.54603175 8:304.674 9:0.65196691 10:2.9475728 
0.10098667316284968 1:6864 2:150.24488 3:58.917955 4:0.91990291 5:7026 6:93.48538 7:0.52404947 8:347.172 9:0.71564519 10:2.5500694 
0.10079500683882595 1:6220 2:159.01734 3:50.71301 4:0.94778333 5:6383 6:88.991853 7:0.47721344 8:350.617 9:0.63582018 10:3.135632 
0.10058202970773426 1:5131 2:130.41979 3:51.258342 4:0.91952744 5:5241 6:80.826927 7:0.81794994 8:301.033 9:0.71151435 10:2.5443622 
0.10098707137236901 1:6152 2:153.52313 3:51.974094 4:0.94095112 5:6315 6:88.504066 7:0.46744168 8:344.97 9:0.6496262 10:2.9538394 
0.10098654912716684 1:6294 2:166.00033 3:48.896841 4:0.95563339 5:6472 6:89.519661 7:0.43897336 8:364.992 9:0.59370391 10:3.3949091 
0.10091962151799536 1:6691 2:159.5254 3:54.842763 4:0.93904765 5:6882 6:92.299761 7:0.64311803 8:357.734 9:0.65702282 10:2.9087776 
0.10097713844014744 1:6290 2:148.74725 3:55.032691 4:0.92904191 5:6465 6:89.49121 7:0.52351228 8:339.352 9:0.6863722 10:2.702889 
0.10098658794238105 1:6369 2:143.25986 3:57.394264 4:0.91623973 5:6575 6:90.051445 7:0.59484449 8:333.462 9:0.71976117 10:2.4960658 
0.10080497040584455 1:6473 2:154.93757 3:54.339424 4:0.93648104 5:6668 6:90.783697 7:0.71699158 8:346.164 9:0.67881537 10:2.851292 
0.10045218463100816 1:6419 2:162.19663 3:50.801359 4:0.94968439 5:6547 6:90.404229 7:0.52254966 8:354.287 9:0.6426386 10:3.1927616 
0.10080983637767602 1:6484 2:155.82111 3:53.828988 4:0.93843577 5:6676 6:90.860801 7:0.57645804 8:351.64 9:0.65895586 10:2.8947434 
0.10080656037031027 1:6451 2:155.62365 3:53.215985 4:0.93971703 5:6607 6:90.629291 7:0.59709367 8:351.35 9:0.65668484 10:2.9243779 
0.10098352680119238 1:6110 2:144.34733 3:55.227136 4:0.92391452 5:6277 6:88.201438 7:0.54651163 8:327.269 9:0.71687153 10:2.6137029 
0.1009790084345917 1:6531 2:151.75769 3:55.247742 4:0.93137849 5:6723 6:91.189514 7:0.56915033 8:344.404 9:0.69191568 10:2.7468578 
0.10098352680116288 1:5638 2:143.64039 3:51.23331 4:0.93422754 5:5810 6:84.726174 7:0.48645384 8:326.154 9:0.66602345 10:2.8036524 
0.10079232107240289 1:5649 2:157.23765 3:46.341224 4:0.95558337 5:5773 6:84.808786 7:0.7335411 8:337.654 9:0.62264089 10:3.3930405 
0.10094721929263967 1:5196 2:140.79132 3:47.781138 4:0.94065095 5:5317 6:81.337277 7:0.48917341 8:313.303 9:0.66519641 10:2.9465879 
0.1007994486359782 1:6450 2:161.15764 3:51.98136 4:0.9465525 5:6615 6:90.622266 7:0.51620648 8:353.493 9:0.6486463 10:3.1002967 
0.10095786832983332 1:6149 2:153.14897 3:51.946215 4:0.94071879 5:6300 6:88.482484 7:0.47445988 8:343.391 9:0.65529453 10:2.9482219 
0.10094779207184651 1:6194 2:148.38681 3:54.0271 4:0.93136128 5:6370 6:88.805663 7:0.53130897 8:338.112 9:0.68086325 10:2.7465256 
0.10042081333291444 1:6472 2:159.4654 3:52.834827 4:0.9435168 5:6645 6:90.776684 7:0.49008027 8:354.743 9:0.64627998 10:3.0181873 
0.10094577097629068 1:5992 2:145.9962 3:52.995922 4:0.931791 5:6217 6:87.345586 7:0.49074529 8:349.013 9:0.61815653 10:2.7548572 
0.10053165042376416 1:5647 2:147.94085 3:49.448724 4:0.94248566 5:5763 6:84.793772 7:0.49929266 8:326.435 9:0.66593864 10:2.9918033 
0.10094041739265833 1:5522 2:156.85527 3:45.652187 4:0.95670889 5:5748 6:83.850037 7:0.58298142 8:344.692 9:0.5840417 10:3.4358764 
0.10055158329841345 1:5655 2:148.77401 3:49.750919 4:0.94242912 5:5819 6:84.853813 7:0.46658416 8:331.002 9:0.64860641 10:2.9903771 
0.10081322689120918 1:6366 2:162.17372 3:50.752577 4:0.94976897 5:6522 6:90.030233 7:0.49329717 8:356.934 9:0.62791471 10:3.195379 
0.10088931134822499 1:7060 2:163.21033 3:56.250453 4:0.93873123 5:7324 6:94.810712 7:0.47465376 8:378.233 9:0.62014855 10:2.9014937 
0.10088944891160545 1:5048 2:157.73537 3:40.796832 4:0.96597352 5:5161 6:80.170526 7:0.55169399 8:336.835 9:0.55910682 10:3.8663632 
0.10088752161350467 1:5611 2:154.67813 3:47.206902 4:0.95229006 5:5791 6:84.523057 7:0.49128798 8:340.55 9:0.6079787 10:3.2765999 
0.05316004785075349 1:5933 2:146.3909 3:52.379932 4:0.93379493 5:6100 6:86.914499 7:0.55521243 8:331.883 9:0.67688392 10:2.7947899 
0.10087180364053656 1:6503 2:162.30046 3:51.790028 4:0.94772116 5:6644 6:90.993828 7:0.60324675 8:357.999 9:0.63761715 10:3.1338169 
0.10086579877994908 1:4068 2:116.30114 3:45.503652 4:0.92028139 5:4166 6:71.96901 7:0.52776336 8:267.137 9:0.7163458 10:2.5558638 
0.10102698350921352 1:5271 2:142.94138 3:47.649607 4:0.94280291 5:5395 6:81.922193 7:0.48946049 8:318.082 9:0.6546734 10:2.999844 
0.1008551194382224 1:6805 2:165.95747 3:52.864078 4:0.94790945 5:6960 6:93.082733 7:0.46330338 8:367.929 9:0.63169866 10:3.139324 
0.10084623378828084 1:6251 2:149.42713 3:54.35248 4:0.93150089 5:6454 6:89.213342 7:0.5114966 8:348.4 9:0.64714719 10:2.7492237 
0.10079109455141594 1:4597 2:129.30861 3:46.01013 4:0.93455586 5:4694 6:76.505439 7:0.48420055 8:289.982 9:0.68697714 10:2.8104378 
0.10084627367208462 1:6308 2:147.85524 3:55.716439 4:0.92628202 5:6625 6:89.619167 7:0.56563845 8:364.41 9:0.59692666 10:2.6537094 
0.10098665833598208 1:4775 2:134.97707 3:46.942776 4:0.93757493 5:4941 6:77.972552 7:0.73269909 8:306.698 9:0.63791285 10:2.8753533 
0.100976560902478 1:5743 2:149.91728 3:49.136806 4:0.94476121 5:5863 6:85.511489 7:0.49636992 8:329.453 9:0.66490829 10:3.0510179 
0.10083706153066893 1:5344 2:155.71096 3:44.95501 4:0.95741718 5:5567 6:82.487527 7:0.60384181 8:341.624 9:0.57541286 10:3.4637066 
0.10080927309017196 1:5721 2:147.37242 3:50.660223 4:0.93905883 5:5857 6:85.347545 7:0.46878073 8:328.928 9:0.66447726 10:2.9090362 
0.10053178485113992 1:6504 2:159.51659 3:52.762502 4:0.94371316 5:6699 6:91.000824 7:0.47198839 8:353.663 9:0.65344817 10:3.0232947 
0.10065759974918725 1:6661 2:155.84004 3:55.106076 4:0.93539421 5:6799 6:92.092609 7:0.74011111 8:349.728 9:0.6843661 10:2.828001 
0.10083066498069682 1:6613 2:163.70343 3:52.906168 4:0.94633648 5:6899 6:91.760193 7:0.44460132 8:366.813 9:0.61761658 10:3.0942219 
0.10081304759105492 1:6709 2:159.35489 3:54.549442 4:0.93958554 5:6873 6:92.423829 7:0.477849 8:359.568 9:0.65208707 10:2.9212927 
0.10098667316284943 1:4162 2:119.52046 3:45.216865 4:0.92567527 5:4333 6:72.795762 7:0.72382609 8:280.103 9:0.66661705 10:2.6432716 
0.10083336725266892 1:6358 2:162.26083 3:50.606054 4:0.9501212 5:6514 6:89.973646 7:0.61111111 8:355.841 9:0.6309841 10:3.2063521 
0.085537405603499456 1:6216 2:157.36637 3:50.891551 4:0.94626394 5:6422 6:88.963234 7:0.61703395 8:350.44 9:0.63605332 10:3.0921904 
0.10072577223557941 1:5661 2:148.12415 3:49.7351 4:0.94194531 5:5825 6:84.898817 7:0.5695171 8:331.982 9:0.64546685 10:2.9782617 
0.10098661146608108 1:5045 2:152.78977 3:42.632371 4:0.96028345 5:5181 6:80.1467 7:0.43397849 8:327.394 9:0.59146575 10:3.5838911 
0.10061749658663417 1:5772 2:154.50152 3:48.721485 4:0.94897666 5:5920 6:85.727117 7:0.44168962 8:341.963 9:0.62026596 10:3.1711167 
0.10094832601547374 1:6503 2:166.06899 3:50.985092 4:0.9517058 5:6706 6:90.993828 7:0.47851361 8:370.01 9:0.59689329 10:3.2572068 
0.10092503558453764 1:6483 2:149.86223 3:56.502279 4:0.9262018 5:6700 6:90.853794 7:0.48182832 8:347.932 9:0.67297222 10:2.6523219 
0.10098633963961559 1:5243 2:139.6579 3:48.702907 4:0.93722321 5:5410 6:81.704314 7:0.55675905 8:312.927 9:0.67282737 10:2.8675476 
0.10080857035494947 1:6211 2:151.11095 3:53.841775 4:0.93436923 5:6382 6:88.927447 7:0.77608397 8:343.683 9:0.66077757 10:2.8065744 
0.10098235834017735 1:6599 2:157.34595 3:54.398959 4:0.93833464 5:6795 6:91.663012 7:0.61552094 8:354.592 9:0.65952327 10:2.8924442 
0.10081950391664758 1:5234 2:132.95836 3:51.186355 4:0.92292477 5:5444 6:81.634158 7:0.77748069 8:311.835 9:0.67638484 10:2.5975351 
0.10076789778586387 1:6080 2:160.94672 3:49.142743 4:0.95224485 5:6238 6:87.984637 7:0.57472351 8:350.34 9:0.62249231 10:3.2750863 
0.10093861476573622 1:5993 2:151.41079 3:51.441586 4:0.94051633 5:6178 6:87.352874 7:0.48020833 8:339.924 9:0.65176417 10:2.9433538 
0.084734322984983096 1:5935 2:146.0863 3:52.127218 4:0.93417131 5:6102 6:86.929148 7:0.58117901 8:334.687 9:0.66581396 10:2.8024955 
0.10079234855793859 1:5501 2:137.80767 3:51.027878 4:0.92891887 5:5660 6:83.690446 7:0.63142792 8:320.048 9:0.67487179 10:2.7006348 
0.10095914242091877 1:5825 2:152.80116 3:49.063635 4:0.94704711 5:5946 6:86.119802 7:0.46230159 8:334.393 9:0.65462327 10:3.1143466 
0.10098638543656541 1:5516 2:139.89833 3:50.645982 4:0.93217036 5:5617 6:83.804471 7:0.59007274 8:311.397 9:0.71483412 10:2.7622789 
0.10098188998366872 1:5785 2:144.33563 3:51.987425 4:0.93288117 5:5969 6:85.823603 7:0.52802118 8:328.824 9:0.67233576 10:2.7763566 
0.10083358236697856 1:6457 2:157.16982 3:53.552944 4:0.9401601 5:6642 6:90.671427 7:0.58561582 8:352.054 9:0.65466946 10:2.9348492 
0.10093980314868208 1:5435 2:153.50703 3:46.000399 4:0.95404507 5:5558 6:83.18688 7:0.54700081 8:333.47 9:0.61418029 10:3.3370803 
0.10097713879889861 1:7117 2:159.96003 3:57.379524 4:0.93344843 5:7337 6:95.192677 7:0.54398838 8:375.964 9:0.632724 10:2.7877546 
0.10081048264797535 1:6900 2:157.24132 3:57.229158 4:0.93141556 5:7113 6:93.730213 7:0.48946584 8:360.073 9:0.66877163 10:2.7475736 
0.10081815920316611 1:4911 2:141.72286 3:44.761372 4:0.94881335 5:5056 6:79.07515 7:0.47148618 8:313.062 9:0.62967882 10:3.1661867 
0.097322788731673077 1:6143 2:156.9106 3:51.246879 4:0.94516293 5:6379 6:88.439304 7:0.60833828 8:354.451 9:0.61443786 10:3.0618568 
0.10079121150998271 1:6317 2:162.64698 3:50.608801 4:0.95035841 5:6473 6:89.683076 7:0.51702406 8:357.603 9:0.62075244 10:3.2138083 
0.10080497095178158 1:6798 2:166.8998 3:52.957966 4:0.94832389 5:6981 6:93.034845 7:0.46138184 8:368.211 9:0.63008263 10:3.1515523 
0.1008134570426826 1:5717 2:144.01312 3:52.22042 4:0.93194146 5:5990 6:85.317703 7:0.60922847 8:335.811 9:0.63707156 10:2.7577932 
0.10081045932788296 1:5908 2:146.91166 3:52.37015 4:0.93430534 5:6079 6:86.731189 7:0.48505747 8:333.601 9:0.66710725 10:2.8052557 
0.10081753937852579 1:5704 2:147.14945 3:50.538666 4:0.9391705 5:5857 6:85.220645 7:0.7284802 8:329.392 9:0.6606376 10:2.9116211 
0.10093813703225282 1:6479 2:152.61565 3:55.155601 4:0.9324101 5:6707 6:90.825762 7:0.48677686 8:352.918 9:0.65368757 10:2.7670019 
0.10081009706504186 1:6511 2:153.87011 3:54.908008 4:0.93416304 5:6710 6:91.049781 7:0.71865342 8:352.887 9:0.65703157 10:2.8023254 
0.10094435196220411 1:6246 2:155.06527 3:52.052063 4:0.94197664 5:6445 6:89.177655 7:0.51602776 8:351.525 9:0.6351838 10:2.9790417 
0.10081238645142851 1:6426 2:155.08786 3:54.22391 4:0.93688656 5:6656 6:90.453509 7:0.52252399 8:351.31 9:0.65428891 10:2.8601379 
0.10079120115323148 1:6949 2:159.03909 3:56.730109 4:0.9342169 5:7121 6:94.062435 7:0.55614246 8:359.944 9:0.67400373 10:2.8034335 
0.061833214248455663 1:6771 2:164.73495 3:53.50604 4:0.94578245 5:6965 6:92.849906 7:0.53382214 8:364.98 9:0.63874063 10:3.0788103 
0.10092453161552042 1:6074 2:143.41913 3:54.44313 4:0.9251472 5:6215 6:87.941213 7:0.5361935 8:327.03 9:0.71368976 10:2.6342925 
0.10079129948652758 1:5932 2:146.53376 3:52.484217 4:0.93365581 5:6076 6:86.907174 7:0.49167012 8:332.697 9:0.67346222 10:2.7919585 
0.10098352690583309 1:6856 2:162.76312 3:54.622779 4:0.94200573 5:7002 6:93.430885 7:0.53730408 8:360.605 9:0.66254775 10:2.9797663 
0.098202511134405687 1:6534 2:165.32684 3:51.093753 4:0.95104679 5:6718 6:91.210455 7:0.81087118 8:362.72 9:0.62408823 10:3.2357544 
0.10056039634629667 1:6767 2:166.22616 3:52.92791 4:0.94795342 5:6972 6:92.822476 7:0.46034014 8:368.903 9:0.62485848 10:3.1406144 
0.10090623308984441 1:6326 2:147.9592 3:55.064512 4:0.92816854 5:6456 6:89.746941 7:0.52576463 8:338.816 9:0.69248637 10:2.6870155 
0.1008133980014719 1:6109 2:146.98897 3:54.041152 4:0.92996247 5:6247 6:88.19422 7:0.4873554 8:334.013 9:0.68810268 10:2.7199451 
0.080949644339152568 1:5857 2:152.88209 3:49.607476 4:0.94589189 5:6021 6:86.356031 7:0.68962675 8:338.944 9:0.64066233 10:3.0818357 
0.10094849075424073 1:5746 2:150.14526 3:50.12207 4:0.94263547 5:5943 6:85.53382 7:0.73253442 8:335.346 9:0.64208012 10:2.9955918 
0.10080310778589865 1:6038 2:149.76192 3:52.331486 4:0.93696203 5:6198 6:87.680217 7:0.51788318 8:337.433 9:0.66638907 10:2.8617938 
0.10080891386987344 1:5238 2:134.75397 3:49.897686 4:0.92891727 5:5323 6:81.665346 7:0.51347907 8:300.892 9:0.72703292 10:2.7006056 
0.10098356412852649 1:6033 2:160.19074 3:48.734359 4:0.95259955 5:6160 6:87.643906 7:0.76853503 8:348.768 9:0.62326096 10:3.2870186 
0.10080322866893611 1:4873 2:120.81719 3:52.105651 4:0.90221966 5:4974 6:78.768625 7:0.58710843 8:283.668 9:0.76100162 10:2.3186965 
0.10081048148043892 1:5984 2:155.79892 3:50.326907 4:0.94639052 5:6141 6:87.287258 7:0.45665446 8:346.244 9:0.62724461 10:3.0957381 
0.10075442772976345 1:5579 2:145.67816 3:50.085709 4:0.93903898 5:5744 6:84.281691 7:0.55512438 8:323.984 9:0.66791177 10:2.9085773 
0.10081012433067119 1:5374 2:144.64673 3:48.54805 4:0.94199324 5:5544 6:82.718736 7:0.47086656 8:326.396 9:0.63389579 10:2.979455 
0.10086037932221216 1:6388 2:152.26858 3:54.99392 4:0.93250234 5:6578 6:90.185665 7:0.77430303 8:342.368 9:0.68483893 10:2.7688257 
0.10081236053494481 1:4849 2:135.11184 3:46.635041 4:0.9385443 5:4978 6:78.574414 7:0.47938705 8:303.453 9:0.66172749 10:2.8972171 
0.10097900625995621 1:5931 2:136.61951 3:55.9234 4:0.91238333 5:6055 6:86.899849 7:0.55378151 8:314.352 9:0.75423266 10:2.4429757 
0.10079130234691772 1:6592 2:155.41807 3:54.491908 4:0.93651968 5:6728 6:91.614382 7:0.68523909 8:348.124 9:0.68353244 10:2.8521312 
0.10098352690583159 1:6086 2:153.50743 3:51.232956 4:0.94266197 5:6260 6:88.02804 7:0.67622222 8:342.682 9:0.65126723 10:2.9962634 
0.097758009812575791 1:6075 2:146.21009 3:54.45101 4:0.92806581 5:6221 6:87.948452 7:0.48023715 8:334.328 9:0.68298418 10:2.6851676 
0.10082788431625291 1:6513 2:151.87298 3:55.41932 4:0.93104447 5:6647 6:91.063764 7:0.71297209 8:343.062 9:0.69541765 10:2.7404338 
0.10081236054207317 1:7080 2:173.84 3:53.033733 4:0.95232926 5:7341 6:94.94491 7:0.6797235 8:382.188 9:0.6091006 10:3.2779137 
0.1009376364371328 1:6354 2:153.50919 3:53.435854 4:0.93745909 5:6584 6:89.945339 7:0.68610301 8:358.777 9:0.62030872 10:2.8727752 
0.10098106900281986 1:5326 2:146.00252 3:47.244392 4:0.94619872 5:5421 6:82.34849 7:0.86461039 8:314.836 9:0.67521527 10:3.0903672 
0.10083974423970749 1:5486 2:142.26135 3:49.923893 4:0.93640138 5:5621 6:83.576265 7:0.79507246 8:317.186 9:0.68523202 10:2.8495644 
0.071311145561550521 1:6868 2:163.76598 3:54.633323 4:0.94271258 5:7093 6:93.512615 7:0.57176157 8:367.113 9:0.64038422 10:2.9975475 
0.10081048118888375 1:6347 2:149.68213 3:54.534365 4:0.93126815 5:6549 6:89.895781 7:0.66321839 8:349.423 9:0.65324393 10:2.7447304 
0.10088964744594867 1:6768 2:159.8111 3:54.874114 4:0.93920072 5:6951 6:92.829334 7:0.564 8:358.786 9:0.66069229 10:2.9123221 
0.10079939147986575 1:6731 2:161.50451 3:53.854683 4:0.94276558 5:6895 6:92.575242 7:0.49268043 8:357.812 9:0.66066249 10:2.9988944 
0.10087610400418237 1:5603 2:156.74922 3:45.881356 4:0.95620265 5:5734 6:84.46278 7:0.48460474 8:343.587 9:0.59642665 10:3.4164034 
0.10081377991573981 1:6237 2:148.13563 3:53.878834 4:0.93151111 5:6354 6:89.113383 7:0.49724946 8:335.088 9:0.69801999 10:2.7494215 
0.099754738843134794 1:6612 2:158.70013 3:53.966371 4:0.94040646 5:6792 6:91.753255 7:0.64501024 8:358.611 9:0.64609368 10:2.9407226 
0.10087167094872312 1:6379 2:153.44217 3:53.970104 4:0.93610176 5:6538 6:90.122112 7:0.55072088 8:344.991 9:0.67351448 10:2.8430956 
0.10080869568650391 1:6581 2:158.60214 3:53.555692 4:0.94126341 5:6782 6:91.537913 7:0.61344146 8:360.919 9:0.63486628 10:2.9614433 
0.10063963567842349 1:6098 2:149.3597 3:53.164827 4:0.93450439 5:6285 6:88.114782 7:0.59643975 8:339.524 9:0.66474691 10:2.8093706 
0.10094829940291306 1:6109 2:148.09533 3:53.622694 4:0.93214614 5:6291 6:88.19422 7:0.73144157 8:335.487 9:0.68206945 10:2.7618032 
0.10081039217285807 1:6116 2:141.01624 3:56.995092 4:0.91468214 5:6334 6:88.244734 7:0.75320197 8:332.336 9:0.69586111 10:2.4741821 
0.10087042678614369 1:5734 2:147.24409 3:50.784924 4:0.93863835 5:5898 6:85.444459 7:0.50671615 8:328.452 9:0.6679189 10:2.8993662 
0.10080651364467097 1:5968 2:159.33721 3:49.175842 4:0.95118299 5:6143 6:87.170486 7:0.42873563 8:350.415 9:0.61076382 10:3.2401522 
0.10087610312840284 1:6207 2:150.06616 3:53.915469 4:0.93323059 5:6367 6:88.898807 7:0.79576923 8:340.3 9:0.6735467 10:2.78336 
0.1009771818215405 1:6403 2:154.85737 3:53.475241 4:0.93848525 5:6559 6:90.291488 7:0.50389549 8:345.166 9:0.67536313 10:2.8958705 
0.10053193268117216 1:6544 2:158.78482 3:53.652548 4:0.94118392 5:6717 6:91.280226 7:0.45472865 8:359.155 9:0.6375134 10:2.9595019 
0.10081167322894413 1:7439 2:163.6298 3:58.565811 4:0.93375359 5:7672 6:97.322294 7:0.50553857 8:381.513 9:0.64225241 10:2.7939476 
0.10080642281600358 1:5246 2:139.2788 3:49.046413 4:0.93594524 5:5355 6:81.727686 7:0.63052885 8:313.389 9:0.67122891 10:2.8397347 
0.10080416663659414 1:7289 2:163.54086 3:58.080767 4:0.93481112 5:7503 6:96.336094 7:0.48932599 8:373.222 9:0.65757205 10:2.815749 
0.10088996817856868 1:6733 2:164.3813 3:52.728465 4:0.94715737 5:6923 6:92.588994 7:0.53162258 8:368.032 9:0.6246652 10:3.1175058 
0.10094370353803298 1:6285 2:155.88828 3:52.144923 4:0.94239508 5:6447 6:89.455634 7:0.51972215 8:346.291 9:0.6586167 10:2.9895199 
0.10102616111994489 1:6476 2:158.47543 3:53.434225 4:0.94144138 5:6682 6:90.804732 7:0.47533764 8:362.263 9:0.62011002 10:2.9658039 
0.097863173421763358 1:6287 2:156.53434 3:51.675533 4:0.94393804 5:6459 6:89.469867 7:0.48109887 8:352.48 9:0.63589347 10:3.0291771 
0.1008134747360877 1:5838 2:142.65618 3:52.967558 4:0.92851487 5:5955 6:86.215848 7:0.50206398 8:326.19 9:0.68949746 10:2.6932747 
0.10094041531782819 1:6324 2:157.25875 3:51.678115 4:0.9444628 5:6506 6:89.732753 7:0.45499676 8:357.484 9:0.62185411 10:3.0430436 
0.1007923808111255 1:7033 2:169.58573 3:54.120842 4:0.94770907 5:7278 6:94.629243 7:0.51182592 8:381.447 9:0.60741019 10:3.1334644 
0.10089057091611617 1:6263 2:148.32473 3:54.346438 4:0.93045675 5:6416 6:89.298932 7:0.68433129 8:336.745 9:0.69404873 10:2.7292447 
0.1008127960515931 1:6165 2:149.15248 3:53.634937 4:0.93310732 5:6342 6:88.597527 7:0.4932 8:339.494 9:0.6721694 10:2.7808829 
0.10097538243791501 1:5334 2:139.81894 3:49.397708 4:0.93551096 5:5492 6:82.410313 7:0.76748201 8:316.383 9:0.66963261 10:2.8304743 
0.10061750089199757 1:3163 2:83.82327 3:50.024655 4:0.80239954 5:3232 6:63.46067 7:0.58444198 8:221.38 9:0.81102135 10:1.6756391 
0.10083922710294804 1:6961 2:161.21076 3:55.617527 4:0.9386031 5:7145 6:94.143616 7:0.81586967 8:361.232 9:0.6703615 10:2.8985603 
0.10098658794238105 1:6133 2:138.33249 3:57.402936 4:0.90983805 5:6293 6:88.367291 7:0.6278665 8:320.388 9:0.75081051 10:2.4098504 
0.10087944648665559 1:5875 2:152.84262 3:50.276624 4:0.94434951 5:6034 6:86.488625 7:0.55164319 8:339.3 9:0.64128343 10:3.0400334 
0.10098636979612315 1:6461 2:153.28214 3:55.101644 4:0.93315335 5:6605 6:90.699508 7:0.53379048 8:344.735 9:0.68318583 10:2.7818071 
0.10096919331141381 1:4199 2:103.95798 3:51.93962 4:0.86624395 5:4292 6:73.118622 7:0.71411565 8:254.771 9:0.81293487 10:2.001516 
0.10093505649735446 1:6363 2:145.59466 3:56.776734 4:0.92082993 5:6623 6:90.009017 7:0.55152986 8:346.506 9:0.66596326 10:2.5643366 
0.10102672142724775 1:5362 2:143.76366 3:48.310423 4:0.94184751 5:5498 6:82.62633 7:0.50872865 8:319.745 9:0.65906637 10:2.9758312 
0.10098667316268858 1:5944 2:140.05417 3:54.767237 4:0.92037231 5:6094 6:86.995034 7:0.6336887 8:323.852 9:0.71218939 10:2.5572619 
0.10097538251965046 1:6693 2:159.16953 3:54.144827 4:0.94036367 5:6849 6:92.313554 7:0.73187534 8:354.484 9:0.66932557 10:2.9396997 
0.10079130176922341 1:4280 2:115.39674 3:47.932594 4:0.90965157 5:4426 6:73.820493 7:0.62573099 8:274.231 9:0.71518853 10:2.4074796 
0.10080873378543601 1:6316 2:160.54427 3:50.932852 4:0.94834156 5:6551 6:89.675978 7:0.65791667 8:358.544 9:0.61740063 10:3.152077 
0.10096273678392054 1:5198 2:150.27505 3:45.159541 4:0.95377785 5:5375 6:81.35293 7:0.46681634 8:327.542 9:0.60885257 10:3.3276478 
0.1008102301127977 1:5206 2:147.65081 3:45.333445 4:0.95169936 5:5314 6:81.415509 7:0.43851078 8:323.998 9:0.62320276 10:3.2569952 
0.10094067642987301 1:6661 2:163.22694 3:52.912203 4:0.94600109 5:6843 6:92.092609 7:0.78070792 8:358.808 9:0.65016721 10:3.0848637 
0.10081345704716657 1:4324 2:145.70838 3:38.920378 4:0.96366564 5:4483 6:74.198974 7:0.51660693 8:310.495 9:0.56361991 10:3.7437555 
0.10096262000162684 1:5874 2:146.16089 3:52.447919 4:0.93340028 5:6077 6:86.481264 7:0.60832643 8:329.186 9:0.68117875 10:2.7867814 
0.10061558369978452 1:6157 2:159.60998 3:50.784835 4:0.94803004 5:6366 6:88.540024 7:0.49613215 8:354.865 9:0.61440209 10:3.1428669 
0.10081002184153061 1:6272 2:158.62296 3:50.974147 4:0.94695909 5:6436 6:89.363071 7:0.54653189 8:353.451 9:0.63089558 10:3.1118316 
0.10081155490456001 1:5338 2:134.21211 3:51.725784 4:0.92274825 5:5534 6:82.441207 7:0.80270677 8:316.177 9:0.67100829 10:2.5946849 
0.10098356412852647 1:7131 2:159.27495 3:58.342477 4:0.93049666 5:7341 6:95.286259 7:0.75700637 8:364.168 9:0.67570439 10:2.7299998 
0.10061555106607065 1:6128 2:147.41052 3:53.997318 4:0.93049455 5:6244 6:88.331262 7:0.49752375 8:335.997 9:0.68211535 10:2.7299599 
0.10080416663306266 1:6709 2:153.05135 3:57.150939 4:0.92766632 5:6910 6:92.423829 7:0.50641606 8:350.535 9:0.68612759 10:2.6780198 
0.10098519490874037 1:5821 2:150.70036 3:50.030108 4:0.94328502 5:5967 6:86.090228 7:0.66449772 8:336.629 9:0.64551213 10:3.0121933 
0.10102654478685871 1:6160 2:149.61072 3:53.928378 4:0.93277545 5:6328 6:88.561592 7:0.75675676 8:341.583 9:0.66343454 10:2.7742485 
0.10101725995739935 1:5541 2:141.86885 3:50.77312 4:0.93376462 5:5710 6:83.994168 7:0.57809077 8:325.978 9:0.65527173 10:2.7941723 
0.10083922130490111 1:4700 2:136.4102 3:44.497581 4:0.94529933 5:4811 6:77.357778 7:0.45622209 8:303.745 9:0.64016135 10:3.0655645 
0.10084471026256178 1:6378 2:165.83416 3:49.800043 4:0.95384472 5:6518 6:90.115048 7:0.53096903 8:361.035 9:0.61488765 10:3.3300004 
0.10080315223591373 1:6318 2:153.27743 3:53.341987 4:0.93749105 5:6485 6:89.690175 7:0.64246492 8:345.768 9:0.66407922 10:2.8734857 
0.10081246487295516 1:5975 2:145.40607 3:53.678965 4:0.92936351 5:6104 6:87.221593 7:0.77748861 8:330.211 9:0.68859633 10:2.7088092 
0.1009538231734403 1:6747 2:149.98941 3:58.468129 4:0.92089317 5:6916 6:92.685205 7:0.70135135 8:345.792 9:0.70907258 10:2.5653191 
0.10056467252970891 1:6276 2:152.07815 3:53.184971 4:0.93685377 5:6432 6:89.391562 7:0.55246479 8:340.418 9:0.68056211 10:2.8594196 
0.10081345585835499 1:5714 2:151.95905 3:48.622284 4:0.94742779 5:5847 6:85.295315 7:0.67255179 8:331.823 9:0.65213443 10:3.1252964 
0.10094830209038776 1:5751 2:166.35075 3:44.169939 4:0.96410455 5:5875 6:85.571027 7:0.53697479 8:355.427 9:0.57207425 10:3.7661531 
0.10081347654911008 1:6294 2:160.09492 3:51.406318 4:0.94704563 5:6451 6:89.519661 7:0.44474279 8:358.312 9:0.61604707 10:3.1143043 
0.1009350564977978 1:6186 2:159.14817 3:50.608713 4:0.94809156 5:6302 6:88.748295 7:0.46651584 8:349.513 9:0.6363457 10:3.1446791 
0.10091820232398836 1:6262 2:155.12539 3:52.101065 4:0.94191042 5:6398 6:89.291803 7:0.71029946 8:345.75 9:0.65826164 10:2.9773938 
0.09970261368077446 1:6593 2:157.96444 3:54.475438 4:0.93865455 5:6784 6:91.621331 7:0.61456003 8:354.575 9:0.6589868 10:2.899737 
0.10087590023088619 1:5924 2:150.16738 3:50.726914 4:0.94121702 5:6054 6:86.848552 7:0.47361689 8:334.029 9:0.66720081 10:2.9603097 
0.10079119740412745 1:6260 2:156.64867 3:52.58307 4:0.9419778 5:6488 6:89.277542 7:0.74390969 8:350.183 9:0.64149619 10:2.9790705 
0.100986716777625 1:6486 2:160.74309 3:52.549785 4:0.94505276 5:6630 6:90.874813 7:0.54104104 8:355.361 9:0.64542723 10:3.0588724 
0.10080909890627911 1:6154 2:150.67175 3:52.824033 4:0.93652898 5:6337 6:88.518451 7:0.70476409 8:339.564 9:0.67069346 10:2.8523332 
0.10089896610282963 1:6333 2:154.01283 3:53.203724 4:0.93843718 5:6477 6:89.796581 7:0.48914807 8:341.688 9:0.68164758 10:2.8947754 
0.091418565497513343 1:6148 2:156.60404 3:50.627988 4:0.9463011 5:6281 6:88.475289 7:0.48382781 8:345.011 9:0.64904953 10:3.0932306 
0.10098244601336058 1:7065 2:156.0736 3:58.318261 4:0.92756625 5:7186 6:94.84428 7:0.49978778 8:355.376 9:0.70298465 10:2.6762388 
0.10088931134821627 1:5713 2:152.67019 3:48.828611 4:0.94747471 5:5893 6:85.287851 7:0.45777244 8:341.569 9:0.6153429 10:3.1266543 
0.100811282923983 1:5475 2:140.2428 3:50.855276 4:0.93193589 5:5623 6:83.492434 7:0.50558685 8:316.372 9:0.68738161 10:2.7576844 
0.10097141955229769 1:6198 2:161.52562 3:49.967472 4:0.95094922 5:6372 6:88.834333 7:0.55463087 8:352.814 9:0.62570527 10:3.2326155 
0.10094830189667114 1:6891 2:163.69159 3:54.667949 4:0.94258399 5:7099 6:93.669065 7:0.57737746 8:367.336 9:0.64174889 10:2.9942881 
0.10094653231817863 1:5589 2:141.96637 3:51.168122 4:0.93278849 5:5689 6:84.357192 7:0.47477064 8:321.956 9:0.67756494 10:2.7745082 
0.098025648265405732 1:6540 2:165.27501 3:51.433616 4:0.95034438 5:6718 6:91.252324 7:0.6217321 8:362.811 9:0.62434799 10:3.2133655 
0.10077422291874914 1:5624 2:143.1394 3:51.11588 4:0.93406402 5:5779 6:84.620915 7:0.48904348 8:325.923 9:0.66531169 10:2.8002922 
0.10044669721756989 1:6271 2:147.70493 3:55.337412 4:0.92716697 5:6434 6:89.355947 7:0.49833121 8:338.702 9:0.68692788 10:2.6691694 
0.10092538821846929 1:6821 2:167.7174 3:52.436251 4:0.94986956 5:6986 6:93.192097 7:0.46636127 8:370.013 9:0.62607152 10:3.1985009 
0.10080440223523475 1:5463 2:151.78602 3:47.525562 4:0.94971721 5:5689 6:83.400885 7:0.69178169 8:336.926 9:0.60474462 10:3.1937764 
0.10094472619011846 1:5383 2:137.73617 3:50.758597 4:0.92961964 5:5514 6:82.787973 7:0.49471556 8:313.609 9:0.68779214 10:2.7135535 
0.10080641531903686 1:6557 2:161.74964 3:52.919838 4:0.94496505 5:6760 6:91.370847 7:0.47514493 8:360.07 9:0.63553748 10:3.0565029 
0.10058253933651837 1:6099 2:145.70174 3:54.36358 4:0.9277849 5:6228 6:88.122006 7:0.74052938 8:332.766 9:0.69213467 10:2.6801351 
0.10094067643002189 1:4709 2:135.1875 3:45.187593 4:0.94248138 5:4832 6:77.431809 7:0.64190294 8:302.556 9:0.6464382 10:2.9916951 
0.097020656461126231 1:6607 2:163.35846 3:52.439943 4:0.9470753 5:6753 6:91.718557 7:0.47748789 8:358.498 9:0.64601217 10:3.1151533 
0.10072325907952731 1:6278 2:160.31418 3:51.324423 4:0.94736721 5:6516 6:89.405804 7:0.45704718 8:355.143 9:0.62549617 10:3.1235458 
0.10094068416632394 1:5457 2:137.64053 3:51.71308 4:0.92673683 5:5602 6:83.355073 7:0.76045151 8:314.523 9:0.69320071 10:2.6616193 
0.1009350564977978 1:4451 2:131.59937 3:43.735972 4:0.94315901 5:4558 6:75.280736 7:0.46519649 8:291.495 9:0.65827178 10:3.0089504 
0.1009299914961021 1:5590 2:147.89416 3:49.50041 4:0.94232417 5:5803 6:84.364738 7:0.46583333 8:331.141 9:0.64061302 10:2.987736 
0.10097470934481692 1:6671 2:166.70201 3:52.213205 4:0.94968296 5:6895 6:92.161711 7:0.60425725 8:371.116 9:0.60866937 10:3.1927174 
0.10093505648682266 1:6358 2:151.02031 3:54.344042 4:0.93301174 5:6518 6:89.973646 7:0.5004329 8:347.277 9:0.6624885 10:2.7789672 
0.10087615575364531 1:5105 2:142.31195 3:47.030843 4:0.943814 5:5308 6:80.621882 7:0.45743728 8:326.31 9:0.60248306 10:3.025928 
0.10092981995679133 1:5220 2:142.16973 3:47.983081 4:0.94132352 5:5352 6:81.524907 7:0.48949737 8:317.744 9:0.64971912 10:2.9629138 
0.10081948483886741 1:6398 2:161.28798 3:51.325056 4:0.9480169 5:6580 6:90.256228 7:0.59738562 8:356.792 9:0.63157348 10:3.1424803 
0.10098649083971026 1:5705 2:145.19629 3:50.850795 4:0.93666708 5:5833 6:85.228115 7:0.54297135 8:324.788 9:0.67961908 10:2.8553395 
0.060929260207379578 1:6771 2:164.82416 3:53.275002 4:0.94632274 5:6967 6:92.849906 7:0.49154265 8:365.576 9:0.63665965 10:3.0938368 
0.097721286406198718 1:6202 2:151.28121 3:53.321585 4:0.93582437 5:6330 6:88.862994 7:0.49564453 8:340.115 9:0.67373647 10:2.8371477 
0.10058202325045205 1:7090 2:168.44893 3:54.543295 4:0.9461265 5:7269 6:95.011938 7:0.45612455 8:377.467 9:0.62531395 10:3.0883527 
0.10082895532957892 1:6379 2:165.72653 3:49.763178 4:0.95385335 5:6542 6:90.122112 7:0.44409635 8:358.442 9:0.62391393 10:3.3303043 
0.10093746999734769 1:5746 2:152.00232 3:48.825936 4:0.94700515 5:5872 6:85.53382 7:0.52997602 8:334.496 9:0.64534749 10:3.113147 
0.10098629420989655 1:6970 2:176.82667 3:51.1953 4:0.95717121 5:7158 6:94.204457 7:0.50972649 8:379.808 9:0.60717576 10:3.4539629 
0.1008466370288828 1:6129 2:156.06748 3:50.600538 4:0.94598096 5:6269 6:88.338469 7:0.53876582 8:345.156 9:0.64650015 10:3.0843047 
0.10064263669874521 1:5671 2:145.33714 3:50.875663 4:0.93672999 5:5833 6:84.973769 7:0.51325912 8:333.413 9:0.64106852 10:2.8567124 
0.10083922157515736 1:2656 2:86.567816 3:39.906517 4:0.88740761 5:2721 6:58.152594 7:0.69565217 8:207.697 9:0.77370871 10:2.1692651 
0.10083338943402043 1:5013 2:137.70141 3:46.872847 4:0.9402826 5:5122 6:79.892114 7:0.52768421 8:305.039 9:0.67701272 10:2.9377651 
0.10094472606821722 1:7347 2:166.6707 3:57.770512 4:0.9380076 5:7562 6:96.718617 7:0.80958678 8:373.679 9:0.66118428 10:2.885048 
0.10092982967465036 1:5746 2:159.66812 3:46.70805 4:0.95625571 5:5915 6:85.53382 7:0.49697284 8:346.43 9:0.6016508 10:3.4184284 
0.10084387095345734 1:6240 2:154.02488 3:52.376781 4:0.9404059 5:6408 6:89.134812 7:0.52578362 8:344.289 9:0.66152789 10:2.9407093 
0.10094306630488686 1:6862 2:161.97868 3:55.535122 4:0.93938852 5:7186 6:93.471759 7:0.47586685 8:364.703 9:0.64830878 10:2.9166891 
0.10098710792081053 1:6808 2:161.63438 3:55.177078 4:0.93992911 5:7044 6:93.103248 7:0.56357616 8:363.689 9:0.64679861 10:2.9293755 
0.10100291890355262 1:5294 2:132.83142 3:51.710776 4:0.92111259 5:5420 6:82.100732 7:0.62282353 8:302.738 9:0.7258718 10:2.5687376 
0.071151105107824381 1:6870 2:164.8815 3:54.54379 4:0.94369878 5:7092 6:93.52623 7:0.46964725 8:368.688 9:0.63510948 10:3.0229197 
0.10077692435455074 1:4596 2:122.2726 3:49.208184 4:0.91544349 5:4722 6:76.497117 7:0.54480797 8:284.908 9:0.71150932 10:2.4848021 
0.10084008418922966 1:5854 2:146.06894 3:52.462786 4:0.93327425 5:6057 6:86.333912 7:0.54203704 8:331.32 9:0.67014268 10:2.7842391 
0.1009871079208392 1:6468 2:166.91724 3:50.785522 4:0.9525904 5:6656 6:90.748627 7:0.42777778 8:367.335 9:0.60235879 10:3.2867091 
0.10081177245839687 1:5585 2:148.37147 3:48.945107 4:0.9440221 5:5768 6:84.327 7:0.51885916 8:335.696 9:0.62278868 10:3.0313851 
0.10083920112599914 1:6244 2:163.73317 3:49.044433 4:0.95408413 5:6390 6:89.163377 7:0.43728552 8:355.946 9:0.61930491 10:3.338466 
0.10083051719796471 1:5549 2:143.0919 3:50.652279 4:0.93525139 5:5695 6:84.054781 7:0.48484054 8:322.288 9:0.67133041 10:2.8249845 
0.096694483972679615 1:5244 2:135.89279 3:49.620619 4:0.93095053 5:5369 6:81.712105 7:0.76733977 8:307.468 9:0.69706408 10:2.7386356 
0.10092980566493194 1:4655 2:127.06651 3:47.60778 4:0.92715897 5:4808 6:76.986558 7:0.66395664 8:290.233 9:0.69444198 10:2.6690284 
0.10095872662499032 1:6086 2:149.79769 3:52.718638 4:0.93602548 5:6182 6:88.02804 7:0.49917979 8:333.688 9:0.68684799 10:2.8414561 
0.10087785094398638 1:4444 2:109.33203 3:53.090127 4:0.87418877 5:4539 6:75.221516 7:0.74165554 8:265.364 9:0.79304879 10:2.0593665 
0.10079112446330529 1:5895 2:151.66322 3:50.564579 4:0.94278533 5:6066 6:86.635715 7:0.65572859 8:336.339 9:0.65484606 10:2.9993966 
0.100808908770617 1:5490 2:131.63029 3:53.976757 4:0.91205704 5:5623 6:83.606729 7:0.53290623 8:312.898 9:0.70465516 10:2.4386476 
0.10098659287610956 1:5860 2:152.05619 3:50.044856 4:0.94428782 5:6009 6:86.378144 7:0.49243697 8:340.402 9:0.6355113 10:3.0383979 
0.10079120501534786 1:7084 2:171.05377 3:54.053941 4:0.94875734 5:7280 6:94.971727 7:0.67083333 8:378.682 9:0.62078197 10:3.1645013 
0.10100314543018811 1:6449 2:151.34335 3:55.48664 4:0.9303678 5:6620 6:90.615241 7:0.61772031 8:345.073 9:0.68058172 10:2.7275638 
0.10093812443836665 1:6612 2:157.20584 3:54.553703 4:0.93785742 5:6765 6:91.753255 7:0.47489765 8:354.97 9:0.65941589 10:2.8816713 
0.10086334997649626 1:5581 2:156.29281 3:46.230776 4:0.95525116 5:5838 6:84.296796 7:0.74912752 8:340.961 9:0.60327104 10:3.3807092 
0.10084663704257171 1:4964 2:134.25676 3:48.209341 4:0.93330557 5:5099 6:79.500699 7:0.69117238 8:305.707 9:0.66746865 10:2.7848703 
0.10094653263849314 1:6277 2:156.67823 3:51.430895 4:0.94458807 5:6419 6:89.398684 7:0.7889643 8:344.898 9:0.66310246 10:3.0463834 
0.10094068407302845 1:6801 2:176.4219 3:49.83435 4:0.95927537 5:7041 6:93.055371 7:0.68975659 8:383.413 9:0.58136512 10:3.5401665 
0.10087621656945046 1:6668 2:157.455 3:54.806871 4:0.93746499 5:6815 6:92.140986 7:0.50263832 8:354.876 9:0.66535312 10:2.8729062 
0.10082026014012585 1:5750 2:143.84109 3:51.701345 4:0.9331706 5:5880 6:85.563587 7:0.50723359 8:325.51 9:0.68194451 10:2.7821538 
0.10083043420190022 1:5589 2:152.4993 3:47.37163 4:0.95052925 5:5759 6:84.357192 7:0.62939189 8:339.317 9:0.61000408 10:3.2192116 
0.10101859233555333 1:7195 2:161.55878 3:57.513538 4:0.93448923 5:7327 6:95.712896 7:0.79388723 8:363.903 9:0.68276208 10:2.8090566 
0.10097535322379109 1:5852 2:144.64565 3:52.490613 4:0.93183157 5:5980 6:86.319163 7:0.49259259 8:330.316 9:0.67399234 10:2.7556479 
0.092919370754048755 1:5855 2:148.7202 3:51.514459 4:0.93809242 5:6019 6:86.341285 7:0.56017987 8:332.262 9:0.66646203 10:2.8869604 
0.10081004312239268 1:6575 2:158.35676 3:53.766284 4:0.94059656 5:6725 6:91.496175 7:0.48105063 8:354.595 9:0.65711353 10:2.9452799 
0.10091828808852786 1:5768 2:162.67902 3:45.734191 4:0.95966927 5:5890 6:85.697408 7:0.43368421 8:348.75 9:0.59594569 10:3.5570547 
0.10091561746564878 1:6246 2:167.90355 3:48.483813 4:0.95740154 5:6467 6:89.177655 7:0.70993408 8:368.344 9:0.57850171 10:3.4630847 
0.10089853597953705 1:6750 2:158.02294 3:55.146869 4:0.93713012 5:7020 6:92.705808 7:0.62615955 8:371.009 9:0.61623271 10:2.8654926 
0.10087176726455613 1:6651 2:148.80018 3:58.838562 4:0.91850044 5:6973 6:92.023455 7:0.51446473 8:367.687 9:0.61821603 10:2.5289569 
0.10097863615779418 1:6508 2:161.50375 3:52.128323 4:0.94647794 5:6689 6:91.028803 7:0.46353276 8:357.451 9:0.64006544 10:3.0981957 
0.10088902105593543 1:6320 2:156.2977 3:52.78873 4:0.94123773 5:6495 6:89.70437 7:0.61472619 8:351.06 9:0.64441293 10:2.9608156 
0.080971415345504436 1:6400 2:152.15788 3:54.36985 4:0.93398002 5:6578 6:90.270333 7:0.58447489 8:348.414 9:0.66251947 10:2.7985709 
0.10073475030208426 1:5633 2:149.36993 3:49.019291 4:0.94461738 5:5788 6:84.688596 7:0.62422429 8:332.261 9:0.64119611 10:3.0471663 
0.10088519248640207 1:6287 2:156.0933 3:52.746736 4:0.94117555 5:6544 6:89.469867 7:0.47882711 8:358.01 9:0.61640054 10:2.9592977 
0.10098616591195771 1:5831 2:152.20833 3:49.068566 4:0.94661114 5:5965 6:86.164144 7:0.50393224 8:334.622 9:0.65440095 10:3.1019519 
0.10061123629971921 1:6192 2:163.45892 3:48.791471 4:0.95441158 5:6337 6:88.791324 7:0.42732919 8:363.034 9:0.59039981 10:3.3501536 
0.1008778383531439 1:5611 2:140.38961 3:51.882603 4:0.92920626 5:5796 6:84.523057 7:0.7235332 8:324.595 9:0.66921625 10:2.7059092 
0.10093601008601354 1:5146 2:138.70585 3:48.268559 4:0.93749742 5:5303 6:80.944986 7:0.49705399 8:306.256 9:0.68946216 10:2.8736273 
0.1008577016232701 1:6114 2:145.51845 3:54.580438 4:0.92699417 5:6257 6:88.230304 7:0.51664695 8:332.737 9:0.69395787 10:2.6661283 
0.10087785094398638 1:5463 2:129.18624 3:54.302902 4:0.90736395 5:5576 6:83.400885 7:0.73486683 8:300.885 9:0.75829814 10:2.3789932 
0.10098484747778874 1:6156 2:152.36005 3:52.606988 4:0.93849946 5:6307 6:88.532834 7:0.69598643 8:339.184 9:0.67241557 10:2.8961942 
0.1008086962961475 1:5689 2:150.51809 3:49.004759 4:0.9455166 5:5839 6:85.108518 7:0.80081644 8:336.19 9:0.63252284 10:3.0714995 
0.10087606696552517 1:5533 2:165.75099 3:42.889067 4:0.96594271 5:5674 6:83.933512 7:0.7285056 8:347.138 9:0.57698726 10:3.8646442 
0.10098661139614366 1:6660 2:153.30887 3:57.304556 4:0.92751537 5:6861 6:92.085696 7:0.61643836 8:355.965 9:0.66049494 10:2.6753347 
0.10075075243426052 1:5586 2:144.7528 3:50.046208 4:0.93833194 5:5749 6:84.334549 7:0.51770158 8:324.887 9:0.66503749 10:2.892383 
0.10096262000162678 1:5412 2:154.87841 3:45.171847 4:0.95652204 5:5562 6:83.010677 7:0.42383899 8:338.362 9:0.59402467 10:3.4286491 
0.10082026899311761 1:6504 2:152.7221 3:55.090116 4:0.93267365 5:6645 6:91.000824 7:0.86259947 8:342.979 9:0.69479284 10:2.7722232 
0.10083066498069584 1:6588 2:162.76321 3:52.568931 4:0.94640648 5:6766 6:91.586583 7:0.57038961 8:358.752 9:0.64324259 10:3.0961863 
0.10087613943513671 1:6631 2:162.60903 3:53.968611 4:0.94331745 5:6971 6:91.88499 7:0.49235224 8:369.861 9:0.60913256 10:3.0130298 
0.096347997313722067 1:6007 2:152.76854 3:50.528585 4:0.94371751 5:6128 6:87.454845 7:0.71511905 8:338.911 9:0.6571979 10:3.0234082 
0.10087167310568548 1:6397 2:157.65113 3:52.595547 4:0.94270769 5:6675 6:90.249174 7:0.70250384 8:362.903 9:0.61038675 10:2.9974236 
0.10020207071606063 1:6612 2:164.40195 3:52.282598 4:0.94808504 5:6792 6:91.753255 7:0.45974134 8:363.585 9:0.62853692 10:3.1444869 
0.10092539079947654 1:5863 2:152.30581 3:50.136678 4:0.9442657 5:6057 6:86.400251 7:0.48124436 8:343.669 9:0.62380527 10:3.0378121 
0.10094849412445685 1:5888 2:155.6229 3:49.625877 4:0.94779327 5:6070 6:86.584262 7:0.67515193 8:346.958 9:0.61464429 10:3.1359224 
0.10076727898276147 1:6168 2:158.15736 3:50.645921 4:0.94734156 5:6376 6:88.619081 7:0.57478334 8:350.705 9:0.63018827 10:3.1228056 
0.10097952976068264 1:6600 2:148.20956 3:58.118244 4:0.91990742 5:6850 6:91.669957 7:0.62352385 8:358.182 9:0.64646689 10:2.5501382 
0.10087169814172481 1:6106 2:161.70351 3:48.873189 4:0.95323202 5:6219 6:88.172562 7:0.43880704 8:349.745 9:0.62728317 10:3.3086344 
0.10080322133807522 1:5988 2:147.63339 3:52.725983 4:0.93405036 5:6122 6:87.316427 7:0.79967949 8:330.459 9:0.68905912 10:2.800012 
0.10081040693612925 1:6304 2:156.24375 3:52.147229 4:0.94265964 5:6430 6:89.590748 7:0.82405229 8:345.171 9:0.66490174 10:2.9962043 
0.10087180372571308 1:4788 2:150.40321 3:41.135825 4:0.96187097 5:4926 6:78.07862 7:0.4141152 8:323.682 9:0.57428425 10:3.6562586 
0.10079761563462881 1:5579 2:149.0392 3:48.793227 4:0.94489097 5:5784 6:84.281691 7:0.52125572 8:330.039 9:0.64362914 10:3.054506 
0.10097895449414637 1:5821 2:143.92542 3:52.484238 4:0.93113967 5:5940 6:86.090228 7:0.49060261 8:326.132 9:0.68773422 10:2.7422599 
0.1008718037420714 1:4892 2:153.22168 3:43.064495 4:0.95969018 5:5291 6:78.922037 7:0.67013699 8:334.95 9:0.54794422 10:3.5579584 
0.100863324269948 1:5035 2:141.83791 3:45.589775 4:0.94693618 5:5143 6:80.067229 7:0.6495098 8:313.63 9:0.64324163 10:3.1111781 
0.10085550611215917 1:5959 2:147.95726 3:52.381049 4:0.93523473 5:6140 6:87.104733 7:0.76104725 8:333.287 9:0.67413442 10:2.8246334 
0.10085130475438731 1:6715 2:151.09932 3:57.502851 4:0.92475489 5:6924 6:92.465148 7:0.76384939 8:352.73 9:0.67822077 10:2.627684 
0.096641413197659981 1:5239 2:137.92416 3:49.451511 4:0.93351386 5:5370 6:81.673141 7:0.49611742 8:308.416 9:0.69212488 10:2.7890789 
0.1008304184881873 1:6472 2:140.42759 3:59.23182 4:0.90669067 5:6709 6:90.776684 7:0.7321267 8:348.085 9:0.67123989 10:2.3708133 
0.10098660062935161 1:6737 2:160.05576 3:54.412695 4:0.94043958 5:6884 6:92.616493 7:0.47544107 8:356.774 9:0.6651047 10:2.941515 
0.10085432986586451 1:5940 2:154.71543 3:49.774768 4:0.94683547 5:6145 6:86.965757 7:0.46676096 8:341.719 9:0.63923133 10:3.1083105 
0.10080452208047322 1:6682 2:163.10835 3:53.089384 4:0.94554707 5:6850 6:92.237664 7:0.47848192 8:363.493 9:0.6355127 10:3.0723346 
0.10102640677562687 1:6782 2:160.33652 3:54.944236 4:0.93945192 5:6950 6:92.925296 7:0.59491228 8:357.784 9:0.66577245 10:2.9181682 
0.10084623396418264 1:3733 2:94.539738 3:51.364645 4:0.83953038 5:3802 6:68.942028 7:0.61907131 8:234.817 9:0.85076337 10:1.8405605 
0.10084191227449807 1:4562 2:111.75692 3:53.449225 4:0.87821655 5:4695 6:76.213639 7:0.54621648 8:278.618 9:0.73849372 10:2.0908989 
0.10081753696365046 1:5896 2:147.86068 3:51.886212 4:0.93640813 5:6032 6:86.643063 7:0.47096413 8:333.475 9:0.66625545 10:2.8497105 
0.10084020580831 1:5038 2:143.95676 3:46.062093 4:0.9474271 5:5306 6:80.091078 7:0.48173647 8:319.619 9:0.61973047 10:3.1252762 
0.10083804377500849 1:4999 2:126.9098 3:50.706875 4:0.91671118 5:5101 6:79.780477 7:0.78415686 8:289.183 9:0.751186 10:2.5028125 
0.10080927425779498 1:5843 2:147.9493 3:51.470042 4:0.93753546 5:5994 6:86.25276 7:0.49374683 8:331.547 9:0.66796783 10:2.8744741 
0.10083545205736807 1:5530 2:135.73922 3:52.296725 4:0.92280243 5:5675 6:83.910754 7:0.79045169 8:316.739 9:0.69267883 10:2.5955587 
0.10083028946760519 1:6993 2:172.01413 3:52.329169 4:0.9526036 5:7214 6:94.359759 7:0.58333333 8:385.621 9:0.59095177 10:3.2871558 
0.10097701384699519 1:5734 2:144.83166 3:51.686812 4:0.93415211 5:5888 6:85.444459 7:0.53092593 8:325.954 9:0.67819553 10:2.8021008 
0.10094469237694859 1:6950 2:161.80577 3:55.510722 4:0.9393098 5:7141 6:94.069202 7:0.52891933 8:364.642 9:0.65684257 10:2.9148562 
0.10090146793826546 1:6144 2:155.35016 3:51.687903 4:0.94302612 5:6329 6:88.446502 7:0.64864865 8:346.23 9:0.64406794 10:3.0055419 
0.10091962236128039 1:4857 2:141.68052 3:44.639943 4:0.94906688 5:4969 6:78.639204 7:0.47589653 8:309.902 9:0.63551998 10:3.1738508 
0.10098629137033396 1:5818 2:153.61641 3:48.954171 4:0.94786303 5:6011 6:86.068041 7:0.5321017 8:342.956 9:0.62159394 10:3.1379637 
0.10094608516529148 1:6337 2:161.69126 3:50.605943 4:0.9497601 5:6501 6:89.824935 7:0.52027915 8:353.601 9:0.63689319 10:3.1951043 
0.10084084330738857 1:6311 2:155.94618 3:52.752836 4:0.94104697 5:6503 6:89.640475 7:0.48337929 8:347.367 9:0.6572505 10:2.9561667 
0.1008306649806968 1:6677 2:161.90835 3:54.210337 4:0.94228171 5:6955 6:92.203148 7:0.47692857 8:363.063 9:0.63654228 10:2.9866694 
0.10098302736170015 1:5871 2:155.65316 3:49.398681 4:0.94830386 5:6069 6:86.459177 7:0.8046875 8:343.956 9:0.62361444 10:3.1509578 
0.10082355418408143 1:5586 2:134.30491 3:54.268633 4:0.91472791 5:5726 6:84.334549 7:0.5586 8:313.655 9:0.71352035 10:2.4748165 
0.10094830188626377 1:6262 2:158.59614 3:51.756759 4:0.94525138 5:6377 6:89.291803 7:0.8192046 8:349.406 9:0.64455831 10:3.0642594 
0.088165467782733181 1:5857 2:145.4792 3:52.178681 4:0.93346533 5:6022 6:86.356031 7:0.70865094 8:331.642 9:0.66918475 10:2.7880965 
0.10080466831253224 1:5410 2:152.64889 3:45.648324 4:0.95424017 5:5527 6:82.995337 7:0.83077396 8:330.011 9:0.62423814 10:3.3440197 
0.10083922154416811 1:6157 2:160.29326 3:49.78866 4:0.9505375 5:6326 6:88.540024 7:0.45526471 8:356.101 9:0.6101444 10:3.2194733 
0.10066683956082982 1:6930 2:162.54433 3:55.666581 4:0.93952871 5:7115 6:93.933753 7:0.52969502 8:361.408 9:0.66672628 10:2.9199626 
0.1008305187525026 1:4182 2:119.30843 3:45.17378 4:0.92554803 5:4335 6:72.970458 7:0.49461857 8:278.038 9:0.67980692 10:2.6410992 
0.10082355418408299 1:7036 2:157.54509 3:57.682778 4:0.93056173 5:7193 6:94.649424 7:0.78772951 8:357.998 9:0.68988149 10:2.7312327 
0.10058566357974036 1:5071 2:136.33859 3:48.162349 4:0.9355269 5:5217 6:80.352957 7:0.54691544 8:303.053 9:0.69385113 10:2.8308127 
0.10087177632858527 1:6361 2:162.30716 3:50.98279 4:0.9493856 5:6535 6:89.994871 7:0.71891953 8:359.14 9:0.6197374 10:3.1835676 
0.10065519195713306 1:5599 2:153.02161 3:47.249785 4:0.95113397 5:5699 6:84.432625 7:0.47177283 8:332.316 9:0.637115 10:3.2385673 
0.10081945281001936 1:7256 2:161.2495 3:58.005885 4:0.93305739 5:7430 6:96.117772 7:0.61995899 8:365.98 9:0.6807575 10:2.7798817 
0.10081765770875083 1:6778 2:158.31547 3:55.598752 4:0.93630435 5:6914 6:92.897888 7:0.48727534 8:353.348 9:0.68219126 10:2.8474645 
0.1008067819116913 1:6646 2:159.80668 3:53.883851 4:0.94143967 5:6789 6:91.988858 7:0.51072005 8:353.345 9:0.6689171 10:2.965762 
0.10081377991573981 1:6299 2:163.59733 3:50.512459 4:0.95113969 5:6497 6:89.555211 7:0.50327581 8:361.292 9:0.6064078 10:3.2387521 
0.10073178634733466 1:6285 2:165.74411 3:49.962908 4:0.95348323 5:6517 6:89.455634 7:0.48585343 8:359.721 9:0.61035648 10:3.3173431 
0.10081347473620519 1:6775 2:158.9934 3:55.664864 4:0.93670934 5:7008 6:92.877327 7:0.54356547 8:362.4 9:0.64825039 10:2.8562614 
0.10081226187343661 1:5345 2:155.20502 3:44.134286 4:0.95871722 5:5485 6:82.495245 7:0.49385568 8:333.827 9:0.60271868 10:3.5166542 
0.10131602922530297 1:6090 2:146.7083 3:53.408079 4:0.93138228 5:6244 6:88.056964 7:0.65980498 8:333.403 9:0.68847496 10:2.7469309 
0.10098260120929051 1:6783 2:162.83287 3:53.858671 4:0.94371475 5:6940 6:92.932146 7:0.53476821 8:360.474 9:0.65596972 10:3.0233362 
0.10081167322894413 1:5571 2:157.4179 3:46.059917 4:0.95623602 5:5766 6:84.221241 7:0.71423077 8:348.686 9:0.5758031 10:3.4176767 
0.10083066498066114 1:6344 2:148.761 3:55.624408 4:0.92746179 5:6515 6:89.874533 7:0.52603648 8:338.616 9:0.69527736 10:2.6743835 
0.100810064870343 1:6683 2:167.41094 3:52.03858 4:0.95046115 5:6860 6:92.244566 7:0.43978679 8:367.037 9:0.62339258 10:3.2170543 
0.10081020752255215 1:4985 2:137.38808 3:46.931938 4:0.93984499 5:5076 6:79.668684 7:0.47458111 8:305.68 9:0.67041076 10:2.92739 
0.09914257696280418 1:5916 2:157.03818 3:49.141572 4:0.949777 5:6075 6:86.789891 7:0.47041985 8:344.05 9:0.62805099 10:3.1956279 
0.10101561415593979 1:6554 2:159.39341 3:53.152887 4:0.94276078 5:6777 6:91.349942 7:0.50049637 8:360.452 9:0.63390098 10:2.9987723 
0.10097945684601954 1:6842 2:162.89095 3:54.783946 4:0.94174676 5:7072 6:93.335443 7:0.72632696 8:367.344 9:0.63715784 10:2.9733337 
0.10081135577052039 1:4038 2:95.247094 3:55.219372 4:0.81479539 5:4126 6:71.703147 7:0.63610586 8:244.287 9:0.85030644 10:1.7248855 
0.10101563382026801 1:5792 2:144.77751 3:51.533007 4:0.93450644 5:5930 6:85.875511 7:0.51233967 8:323.665 9:0.69477941 10:2.8094132 
0.10080901822777408 1:5866 2:144.71067 3:52.696128 4:0.93134102 5:5998 6:86.422353 7:0.50326012 8:329.356 9:0.67954898 10:2.7461347 
0.10066733065259423 1:5596 2:143.56604 3:50.257522 4:0.93672521 5:5711 6:84.410002 7:0.49728961 8:322.292 9:0.67699977 10:2.856608 
0.10093142948671657 1:6192 2:150.0621 3:53.839294 4:0.93342212 5:6380 6:88.791324 7:0.53731343 8:334.282 9:0.69632955 10:2.7872227 
0.10098002939850158 1:5739 2:147.36367 3:51.011849 4:0.93817438 5:5928 6:85.481704 7:0.56968434 8:331.295 9:0.65707709 10:2.8888125 
0.10087293550595944 1:6382 2:153.69701 3:53.927864 4:0.93642371 5:6523 6:90.143301 7:0.49859375 8:346.639 9:0.66743937 10:2.8500482 
0.10094067628287387 1:6675 2:160.68308 3:54.526409 4:0.94066331 5:6872 6:92.189338 7:0.50737306 8:359.82 9:0.64787398 10:2.9468853 
0.1008100459631098 1:7069 2:164.00015 3:56.235849 4:0.93937147 5:7291 6:94.871125 7:0.62618478 8:369.825 9:0.64949425 10:2.9162919 
0.10084423053095523 1:5638 2:144.95492 3:50.537475 4:0.93725571 5:5793 6:84.726174 7:0.59648752 8:326.482 9:0.66468588 10:2.868266 
0.10087606695787381 1:6886 2:156.60538 3:56.812143 4:0.93187769 5:7119 6:93.635076 7:0.53881064 8:357.943 9:0.67538146 10:2.7565476 
0.10092497471600462 1:5385 2:135.43921 3:51.452997 4:0.92502865 5:5537 6:82.803351 7:0.79777778 8:314.002 9:0.68632646 10:2.6322901 
0.10076807066924165 1:6078 2:157.6271 3:49.793143 4:0.94879515 5:6231 6:87.970165 7:0.55496713 8:346.686 9:0.63547424 10:3.1656388 
0.10081039217285807 1:6187 2:147.52493 3:54.362566 4:0.92962874 5:6352 6:88.755468 7:0.49515806 8:342.44 9:0.66301141 10:2.7137227 
0.10067888526946819 1:6427 2:162.51676 3:51.154648 4:0.94916951 5:6548 6:90.460547 7:0.81872611 8:353.854 9:0.64501519 10:3.1769695 
0.1008104825091852 1:7149 2:160.45694 3:57.257797 4:0.9341647 5:7326 6:95.406444 7:0.5914619 8:361.953 9:0.68572629 10:2.8023596 
0.093463043181247582 1:6259 2:148.09294 3:54.565832 4:0.92964493 5:6410 6:89.270411 7:0.77414966 8:340.839 9:0.677043 10:2.7140234 
0.10081033116796244 1:6625 2:152.59114 3:56.610074 4:0.92863611 5:6853 6:91.84341 7:0.80713938 8:354.823 9:0.66125995 10:2.6954768 
0.10061597591795718 1:6823 2:162.15522 3:54.612682 4:0.94157885 5:7050 6:93.205758 7:0.50250405 8:372.895 9:0.6166122 10:2.9691862 
0.1005822504613985 1:6480 2:156.99647 3:53.958892 4:0.93908135 5:6657 6:90.832771 7:0.4860486 8:350.246 9:0.66380192 10:2.909557 
0.1009214860967366 1:5583 2:141.65599 3:50.899047 4:0.93321654 5:5711 6:84.311899 7:0.54272383 8:317.948 9:0.69400931 10:2.7830774 
0.10088751011527355 1:5750 2:157.90259 3:47.764397 4:0.95315167 5:5926 6:85.563587 7:0.62875888 8:350.737 9:0.58737376 10:3.3058637 
0.10064311964171158 1:6126 2:147.46138 3:53.545972 4:0.93174292 5:6251 6:88.316847 7:0.59498834 8:332.982 9:0.69429708 10:2.753921 
0.081562473980007599 1:6402 2:151.36016 3:54.43422 4:0.93309355 5:6578 6:90.284437 7:0.74381318 8:345.312 9:0.67468677 10:2.7806067 
0.10097951471558519 1:5495 2:154.94487 3:45.793287 4:0.95532861 5:5629 6:83.644792 7:0.52293491 8:334.016 9:0.61893212 10:3.3835717 
0.10083331773099244 1:6644 2:160.69783 3:53.649774 4:0.94262444 5:6839 6:91.975016 7:0.52554975 8:359.133 9:0.64733466 10:2.9953123 
0.10097539069636827 1:5323 2:142.06927 3:48.067473 4:0.94102455 5:5463 6:82.325294 7:0.6698968 8:317.872 9:0.66200578 10:2.9556218 
0.10076697710867272 1:6165 2:153.18534 3:52.837891 4:0.9386292 5:6372 6:88.597527 7:0.47591478 8:345.904 9:0.64748808 10:2.8991569 
0.10061740014190705 1:5695 2:144.66868 3:50.897551 4:0.93606711 5:5839 6:85.153386 7:0.81275867 8:323.305 9:0.68466598 10:2.8423505 
0.10100162087503756 1:5884 2:147.59254 3:51.539107 4:0.93704874 5:6042 6:86.554847 7:0.79299191 8:332.551 9:0.66859945 10:2.8637 
0.10080983644752672 1:4205 2:114.45437 3:47.139683 4:0.91124513 5:4307 6:73.170843 7:0.54781136 8:267.246 9:0.73986662 10:2.4279833 
0.10098004477335987 1:6182 2:149.46883 3:54.23692 4:0.93184195 5:6320 6:88.719597 7:0.47722711 8:338.297 9:0.67880115 10:2.7558503 
0.10080891632733871 1:4481 2:125.65352 3:46.859249 4:0.92786178 5:4865 6:75.534008 7:0.51959647 8:300.49 9:0.62362679 10:2.6815095 
0.090665294239667765 1:6522 2:161.24439 3:52.560137 4:0.9453816 5:6693 6:91.126661 7:0.50324074 8:361.219 9:0.62812993 10:3.0678075 
0.10098651734216699 1:6148 2:147.03986 3:54.702105 4:0.9282238 5:6331 6:88.475289 7:0.67081288 8:333.924 9:0.69286473 10:2.6880111 
0.10083040310657279 1:5745 2:140.26102 3:53.250916 4:0.9251278 5:5923 6:85.526377 7:0.63989753 8:324.935 9:0.68376507 10:2.6339645 
0.098363211542033119 1:5464 2:138.52223 3:51.224438 4:0.92911449 5:5627 6:83.408518 7:0.49582577 8:318.182 9:0.67821804 10:2.7042216 
0.10080903358698065 1:6774 2:148.31403 3:59.307716 4:0.91656779 5:6948 6:92.870473 7:0.53557875 8:342.663 9:0.72497099 10:2.5007543 
0.10091505264258607 1:5286 2:146.57157 3:46.377603 4:0.9486205 5:5402 6:82.038675 7:0.4767316 8:321.885 9:0.64111442 10:3.1603956 
0.10085322989098383 1:6108 2:151.68743 3:51.598104 4:0.94036732 5:6264 6:88.187001 7:0.63751174 8:341.111 9:0.65965589 10:2.939787 
0.10095910757856519 1:6331 2:157.57988 3:51.332653 4:0.94545374 5:6494 6:89.782401 7:0.56315602 8:351.971 9:0.64219721 10:3.0697787 
0.10095871080401583 1:6539 2:161.66326 3:52.416657 4:0.94597706 5:6728 6:91.245347 7:0.68114583 8:354.26 9:0.6547522 10:3.0841963 
0.10080873378543601 1:4879 2:123.9306 3:51.416783 4:0.90987446 5:5012 6:78.817103 7:0.66598417 8:291.224 9:0.72291354 10:2.4103142 
0.10097713840331604 1:6654 2:163.36021 3:53.266275 4:0.94534687 5:6861 6:92.044206 7:0.63256964 8:364.061 9:0.63087649 10:3.0668601 
0.10080649258295632 1:4922 2:131.60644 3:47.85381 4:0.93155011 5:5035 6:79.16366 7:0.63509677 8:296.585 9:0.7031583 10:2.7501768 
0.10081016678140622 1:5129 2:140.27786 3:47.192857 4:0.94171058 5:5259 6:80.811173 7:0.5301292 8:311.2 9:0.66552349 10:2.9724384 
0.10080869626973411 1:5786 2:154.31207 3:48.449412 4:0.9494328 5:5933 6:85.83102 7:0.62349138 8:337.149 9:0.63965315 10:3.1850144 
0.10100290625996537 1:6574 2:151.47372 3:56.003698 4:0.92914103 5:6715 6:91.489217 7:0.50183206 8:342.474 9:0.70434324 10:2.7047092 
0.10079143018117785 1:6103 2:152.70374 3:51.567843 4:0.94125429 5:6313 6:88.150899 7:0.66510462 8:343.344 9:0.65057041 10:2.9612202 
0.10098244601336058 1:6052 2:158.50734 3:49.709307 4:0.94955225 5:6157 6:87.781807 7:0.44591807 8:347.463 9:0.62992907 10:3.1886854 
0.101003148311879 1:6241 2:148.7846 3:54.782556 4:0.92974643 5:6427 6:89.141954 7:0.5756318 8:338.647 9:0.68386375 10:2.715912 
0.10050367390745657 1:6319 2:156.14347 3:52.866039 4:0.94093996 5:6517 6:89.697272 7:0.49270955 8:351.071 9:0.64427059 10:2.9535686 
0.10080501356478594 1:4390 2:142.2347 3:40.019082 4:0.95960244 5:4511 6:74.763103 7:0.62375675 8:306.037 9:0.58901521 10:3.554172 
0.10082395794795068 1:6395 2:150.01254 3:55.692851 4:0.92853109 5:6584 6:90.235065 7:0.6344246 8:342.898 9:0.68347166 10:2.693569 
0.1009398033609416 1:6087 2:155.50111 3:51.278127 4:0.94406461 5:6299 6:88.035272 7:0.55972414 8:347.653 9:0.63287975 10:3.0325036 
0.10081155514629905 1:5930 2:158.72763 3:48.593276 4:0.95198569 5:6054 6:86.892523 7:0.45267176 8:345.475 9:0.62435459 10:3.2664526 
0.10061077809684615 1:6540 2:161.54835 3:52.808014 4:0.94506352 5:6762 6:91.252324 7:0.53889255 8:358.876 9:0.63811475 10:3.0591636 
0.10080510571578283 1:5194 2:139.79022 3:48.741252 4:0.93724397 5:5392 6:81.321622 7:0.52978376 8:314.557 9:0.65964929 10:2.8680064 
0.10080501578244774 1:6006 2:147.85347 3:52.825894 4:0.93399524 5:6149 6:87.447565 7:0.62686567 8:334.744 9:0.67354961 10:2.7988825 
0.10080311028540734 1:5216 2:134.22213 3:49.94956 4:0.9281762 5:5312 6:81.493665 7:0.51177394 8:300.403 9:0.72633825 10:2.6871533 
0.10079761585682701 1:5046 2:134.28589 3:48.278969 4:0.93313593 5:5151 6:80.154643 7:0.77297794 8:299.999 9:0.70455921 10:2.7814573 
0.10083922130490069 1:5760 2:149.15869 3:50.257076 4:0.94152721 5:5911 6:85.637958 7:0.54878049 8:333.313 9:0.65152014 10:2.9679142 
0.10081133615068676 1:6585 2:161.15489 3:53.356775 4:0.94359917 5:6708 6:91.565727 7:0.81801242 8:358.073 9:0.64539039 10:3.0203266 
0.10081950902217943 1:6212 2:157.8187 3:50.890561 4:0.94658235 5:6382 6:88.934605 7:0.70311262 8:349.91 9:0.63757107 10:3.1011389 
0.10079130176922341 1:6142 2:167.5239 3:47.353328 4:0.95921837 5:6278 6:88.432106 7:0.43526327 8:360.387 9:0.59426677 10:3.537743 
0.10100328348099326 1:6617 2:167.3919 3:51.124196 4:0.95221897 5:6805 6:91.787941 7:0.5508658 8:364.839 9:0.62469566 10:3.2742208 
0.10079130231393116 1:5085 2:126.60107 3:51.666111 4:0.91293647 5:5213 6:80.4638 7:0.5418798 8:296.2 9:0.72833422 10:2.4503696 
0.098672971207040536 1:6092 2:160.92579 3:49.184613 4:0.95214864 5:6265 6:88.071422 7:0.54189646 8:357.66 9:0.59845158 10:3.2718727 
0.1007911005343147 1:6797 2:160.18586 3:55.219919 4:0.93870406 5:6998 6:93.028002 7:0.67902098 8:358.296 9:0.66533936 10:2.9008709 
0.10094540514224037 1:6315 2:150.58014 3:54.630619 4:0.93186665 5:6472 6:89.668878 7:0.53449006 8:341.617 9:0.67999273 10:2.7563323 
0.10096897585430645 1:6662 2:166.14754 3:52.350482 4:0.94906369 5:6890 6:92.099521 7:0.47389387 8:371.077 9:0.60797598 10:3.1737538 
0.10079121123079363 1:4958 2:126.22331 3:50.629734 4:0.91602885 5:5138 6:79.452638 7:0.55551821 8:308.106 9:0.65632066 10:2.4930669 
0.10053795849719681 1:6379 2:157.90583 3:52.662134 4:0.94274889 5:6546 6:90.122112 7:0.46024531 8:354.598 9:0.63751426 10:2.99847 
0.10079121119592432 1:4073 2:117.70105 3:45.660041 4:0.92168786 5:4224 6:72.013226 7:0.65126319 8:273.42 9:0.68464228 10:2.5777692 
0.10053075826866505 1:6280 2:159.65525 3:50.446463 4:0.94876878 5:6422 6:89.420044 7:0.69117323 8:351.49 9:0.6387686 10:3.1648453 
0.10079768567178474 1:6503 2:161.40893 3:52.846641 4:0.94488292 5:6721 6:90.993828 7:0.82316456 8:361.463 9:0.62545479 10:3.0542893 
0.10090576897530937 1:6362 2:148.73566 3:55.032033 4:0.92903218 5:6586 6:90.001944 7:0.51723577 8:353.354 9:0.6403 10:2.7027106 
0.10076348484805608 1:4896 2:113.09826 3:56.192234 4:0.86783966 5:5066 6:78.954296 7:0.59926561 8:289.962 9:0.73176073 10:2.0127027 
0.10061668914195887 1:6555 2:158.5292 3:54.333689 4:0.9394317 5:6813 6:91.356911 7:0.52106518 8:356.181 9:0.64929351 10:2.9176962 
0.10094555410929021 1:6065 2:145.53107 3:53.821486 4:0.92910017 5:6219 6:87.876037 7:0.58250096 8:333.892 9:0.68364185 10:2.7039585 
0.10061597754339457 1:4757 2:137.30552 3:44.787923 4:0.94530364 5:4892 6:77.825449 7:0.54804147 8:309.892 9:0.62247553 10:3.0656818 
0.10102696670755482 1:6254 2:147.89246 3:54.711109 4:0.92905626 5:6466 6:89.234747 7:0.50435484 8:347.632 9:0.6503217 10:2.7031523 
0.10098679451393625 1:5142 2:139.74641 3:47.492684 4:0.94048 5:5254 6:80.91352 7:0.73593817 8:309.304 9:0.67541525 10:2.9424829 
0.10080903350144635 1:5403 2:141.5659 3:49.603314 4:0.93660379 5:5548 6:82.941626 7:0.66539409 8:319.162 9:0.66653426 10:2.8539605 
0.10061597591688715 1:6629 2:158.285 3:54.273371 4:0.9393778 5:6799 6:91.871132 7:0.47639238 8:357.037 9:0.6534787 10:2.9164394 
0.10020066083809039 1:6259 2:152.6586 3:52.866743 4:0.93812123 5:6412 6:89.270411 7:0.50935872 8:345.572 9:0.65862426 10:2.8876111 
0.10092999149610177 1:6146 2:143.32094 3:55.653657 4:0.92152674 5:6313 6:88.460897 7:0.73879072 8:328.871 9:0.71408722 10:2.5752294 
0.10085069691588636 1:6209 2:152.56 3:53.507284 4:0.93647683 5:6421 6:88.913128 7:0.67211518 8:346.114 9:0.65131817 10:2.8512006 
0.099587488628526954 1:5913 2:153.89949 3:49.969248 4:0.94582134 5:6073 6:86.767882 7:0.60349051 8:339.68 9:0.64398802 10:3.0798841 
0.10081020751616199 1:5968 2:155.59434 3:49.639011 4:0.94774516 5:6105 6:87.170486 7:0.66988439 8:344.552 9:0.63172655 10:3.1345172 
0.10084008164025832 1:6164 2:153.86464 3:51.634614 4:0.94201005 5:6354 6:88.590341 7:0.54947406 8:344.635 9:0.65215936 10:2.9798739 
0.10073377780825785 1:6288 2:165.01188 3:49.847612 4:0.953281 5:6512 6:89.476982 7:0.55626327 8:366.063 9:0.5896723 10:3.3103266 
0.10088930761898948 1:6562 2:158.08982 3:53.649982 4:0.94065516 5:6723 6:91.405678 7:0.48632624 8:354.68 9:0.65549999 10:2.9466891 
0.10102670594904012 1:6463 2:159.53739 3:52.525827 4:0.94424685 5:6629 6:90.713545 7:0.5112324 8:352.617 9:0.65318699 10:3.0373132 
0.1008513047578922 1:5714 2:146.82308 3:51.455209 4:0.93657874 5:6033 6:85.295315 7:0.52518382 8:346.092 9:0.59946934 10:2.8534153 
0.10081020752255215 1:6680 2:155.23601 3:56.172321 4:0.9322359 5:6996 6:92.223859 7:0.51164216 8:360.615 9:0.64550372 10:2.7635677 
0.10061540843140555 1:5360 2:140.68487 3:49.561175 4:0.93589275 5:5467 6:82.610919 7:0.5118411 8:311.821 9:0.6927299 10:2.8386104 
0.10027463107552498 1:5841 2:145.8084 3:52.226799 4:0.93364954 5:5976 6:86.237997 7:0.81125 8:326.861 9:0.68702234 10:2.7918311 
0.1009253902685979 1:6449 2:154.87916 3:53.75023 4:0.93784802 5:6594 6:90.615241 7:0.47664449 8:347.32 9:0.67180411 10:2.8814603 
0.10080998897347375 1:4809 2:131.5172 3:47.251657 4:0.93322935 5:4891 6:78.249658 7:0.49247312 8:294.359 9:0.69744506 10:2.7833351 
0.10079768567113431 1:5493 2:142.04043 3:50.450226 4:0.93479711 5:5672 6:83.629569 7:0.79035971 8:325.646 9:0.65092053 10:2.8154568 
0.10082896011830045 1:5894 2:146.65198 3:52.889516 4:0.93270259 5:6045 6:86.628366 7:0.51920366 8:333.397 9:0.66634113 10:2.7727986 
0.10090224015237756 1:6269 2:158.04296 3:51.116202 4:0.94625131 5:6392 6:89.341696 7:0.78284216 8:344.41 9:0.6641354 10:3.091837 
0.099585113054154906 1:5926 2:146.9423 3:52.826181 4:0.93314397 5:6101 6:86.863212 7:0.51602229 8:332.041 9:0.67544204 10:2.7816188 
0.097741019245131344 1:6197 2:153.8653 3:52.209042 4:0.94067225 5:6330 6:88.827166 7:0.48218176 8:341.299 9:0.66853066 10:2.9471006 
0.10087622947972315 1:6743 2:164.33953 3:53.669694 4:0.94517021 5:6916 6:92.657726 7:0.5650243 8:361.564 9:0.64817557 10:3.0620545 
0.10101431550949654 1:6836 2:165.96711 3:53.482258 4:0.94665592 5:7013 6:93.29451 7:0.54185162 8:365.376 9:0.6434753 10:3.1032181 
0.086183970787628558 1:5923 2:159.68121 3:48.157048 4:0.95344011 5:6090 6:86.841222 7:0.5303071 8:350.308 9:0.60652888 10:3.315843 
0.10098198753697198 1:6409 2:160.04118 3:51.949113 4:0.94585193 5:6610 6:90.333782 7:0.62114751 8:355.691 9:0.63658204 10:3.0807299 
0.10058253933651855 1:5771 2:144.86616 3:51.878604 4:0.93367786 5:5928 6:85.719691 7:0.71299728 8:326.547 9:0.68009494 10:2.7924066 
0.10083336418361333 1:6263 2:160.45961 3:50.502619 4:0.94917883 5:6444 6:89.298932 7:0.4430532 8:355.393 9:0.62312408 10:3.1772533 
0.10094065861754076 1:5896 2:153.66352 3:50.016904 4:0.94554332 5:6042 6:86.643063 7:0.80811404 8:343.063 9:0.62953456 10:3.0722317 
0.10102672141370311 1:5492 2:149.25262 3:47.368329 4:0.94830173 5:5614 6:83.621956 7:0.74782135 8:326.497 9:0.64741387 10:3.1508948 
0.10087876161835953 1:4831 2:136.82479 3:46.122384 4:0.94147213 5:4981 6:78.42844 7:0.59480424 8:305.583 9:0.65011251 10:2.9665594 
0.10053102878071901 1:5838 2:154.08939 3:49.274507 4:0.94749226 5:6036 6:86.215848 7:0.49914501 8:337.209 9:0.64517219 10:3.1271625 
0.1008032286688675 1:5622 2:146.54803 3:49.491623 4:0.94124804 5:5810 6:84.605867 7:0.50484914 8:329.702 9:0.64991647 10:2.9610675 
0.10081022722224292 1:5828 2:146.19073 3:51.700921 4:0.93537635 5:6008 6:86.141976 7:0.73289738 8:341.533 9:0.6278618 10:2.8276232 
0.10088938143451728 1:5793 2:133.59493 3:56.421237 4:0.90644183 5:5930 6:85.882924 7:0.76626984 8:311.85 9:0.74855186 10:2.3678128 
0.1009818295181735 1:5883 2:151.80324 3:50.606479 4:0.94279647 5:6026 6:86.547491 7:0.78966443 8:335.553 9:0.6565782 10:2.99968 
0.10084471076597197 1:4754 2:109.09759 3:56.647232 4:0.85463183 5:4863 6:77.800905 7:0.66694725 8:271.228 9:0.81208221 10:1.9259122 
0.10088895172794773 1:6325 2:162.07105 3:50.623942 4:0.94996497 5:6487 6:89.739847 7:0.75531407 8:356.485 9:0.6254432 10:3.2014704 
0.10061932757119267 1:6548 2:164.41667 3:51.657747 4:0.94936078 5:6717 6:91.308119 7:0.49085457 8:362.095 9:0.62758634 10:3.1828077 
0.10081048148137813 1:4080 2:104.27211 3:50.511916 4:0.87483333 5:4159 6:72.075081 7:0.75695733 8:250.412 9:0.81763553 10:2.0643071 
0.10092995614133524 1:7020 2:176.2016 3:51.843536 4:0.9557351 5:7195 6:94.541745 7:0.56667743 8:380.113 9:0.61055041 10:3.3987187 
0.10088944611044853 1:4911 2:132.22759 3:47.902598 4:0.9320717 5:5003 6:79.07515 7:0.59527273 8:296.396 9:0.70248187 10:2.7603427 
0.086185506833328179 1:5927 2:159.12186 3:48.256009 4:0.95290643 5:6091 6:86.87054 7:0.4370944 8:349.744 9:0.60889758 10:3.2974518 
0.10080322548579415 1:6454 2:162.16367 3:51.689685 4:0.94783879 5:6678 6:90.650361 7:0.49402939 8:361.573 9:0.62036436 10:3.1372539 
0.10083926074644961 1:5305 2:151.99861 3:45.780547 4:0.95356397 5:5530 6:82.185983 7:0.43857474 8:333.103 9:0.6008114 10:3.320157 
0.10067174902131995 1:6935 2:165.66564 3:54.436729 4:0.94447128 5:7115 6:93.967634 7:0.75200607 8:366.665 9:0.64821252 10:3.0432695 
0.10083972929108478 1:6220 2:154.81635 3:51.872064 4:0.94219841 5:6332 6:88.991853 7:0.46696697 8:347.081 9:0.64884142 10:2.9845806 
0.10058253789187152 1:5512 2:138.05664 3:51.938675 4:0.92653328 5:5653 6:83.774079 7:0.71104231 8:316.921 9:0.68963142 10:2.6580701 
0.099961674595528127 1:6607 2:162.44327 3:52.956645 4:0.94536947 5:6789 6:91.718557 7:0.64170552 8:359.306 9:0.64310995 10:3.0674766 
0.10098665429133939 1:6551 2:167.32811 3:50.847127 4:0.95271134 5:6697 6:91.329033 7:0.5885894 8:365.847 9:0.61506139 10:3.2908076 
0.100863321993519 1:6921 2:167.13563 3:53.688379 4:0.94700243 5:7117 6:93.872738 7:0.44772933 8:369.551 9:0.63683944 10:3.1130691 
0.10098667316284918 1:6495 2:158.06719 3:53.110494 4:0.94186217 5:6683 6:90.937841 7:0.64536963 8:368.369 9:0.60148232 10:2.976195 
0.10087622995302435 1:5069 2:140.69066 3:46.566779 4:0.94363531 5:5205 6:80.33711 7:0.74 8:312.306 9:0.65308769 10:3.0212666 
0.100847898125153 1:6103 2:142.26467 3:55.604822 4:0.92045237 5:6257 6:88.150899 7:0.80154978 8:328.714 9:0.70976868 10:2.5584952 
0.10068080589585268 1:5118 2:142.63529 3:46.60918 4:0.94510329 5:5222 6:80.72447 7:0.81822542 8:313.281 9:0.65530281 10:3.0602402 
0.10081264309303217 1:5759 2:145.52633 3:51.456702 4:0.93540039 5:5879 6:85.630523 7:0.73009635 8:325.455 9:0.68324277 10:2.8281318 
0.093404590952306854 1:6150 2:153.07411 3:51.689873 4:0.94126142 5:6285 6:88.489678 7:0.78846154 8:341.565 9:0.66242735 10:2.9613946 
0.10096262000162678 1:3677 2:117.42274 3:40.546242 4:0.93849183 5:3821 6:68.422963 7:0.63396552 8:266.084 9:0.65262841 10:2.8960204 
0.10077716903359477 1:5430 2:145.81195 3:48.104881 4:0.94401225 5:5553 6:83.148606 7:0.81974638 8:324.198 9:0.64921573 10:3.031126 
0.10102344818420228 1:5967 2:148.33387 3:52.045379 4:0.93642551 5:6091 6:87.163182 7:0.70724191 8:332.369 9:0.6787735 10:2.8500872 
0.10029549335585092 1:5839 2:150.03549 3:50.641819 4:0.94131396 5:5977 6:86.223232 7:0.79442177 8:332.038 9:0.66553785 10:2.9626797 
0.10094827980331245 1:5259 2:127.65225 3:53.092032 4:0.90940512 5:5372 6:81.828887 7:0.65312966 8:297.14 9:0.74849826 10:2.4043579 
0.10083051602290152 1:5804 2:148.86915 3:50.474467 4:0.94076743 5:5946 6:85.964425 7:0.82819635 8:334.278 9:0.65271212 10:2.9493951 
0.10081167322894413 1:5007 2:124.72481 3:51.907474 4:0.90928407 5:5145 6:79.844288 7:0.7947619 8:291.523 9:0.74035806 10:2.4028295 
0.10098004477333139 1:6793 2:154.21535 3:57.446237 4:0.92802954 5:7043 6:93.000625 7:0.50633572 8:365.313 9:0.63964826 10:2.6845162 
0.10051707952488938 1:6422 2:158.5578 3:52.647867 4:0.94326457 5:6542 6:90.425352 7:0.46821231 8:351.415 9:0.65349095 10:3.0116662 
0.10094068406099069 1:5969 2:149.91761 3:51.608547 4:0.93887946 5:6116 6:87.177789 7:0.48075064 8:335.791 9:0.66523232 10:2.9048988 
0.10079133213950486 1:6074 2:163.2618 3:48.163346 4:0.95549514 5:6279 6:87.941213 7:0.44783602 8:362.642 9:0.5804014 10:3.389752 
0.10098638543609512 1:5815 2:150.3777 3:50.775038 4:0.94127171 5:5996 6:86.045848 7:0.46099572 8:339.338 9:0.634592 10:2.9616462 
0.10073744397020498 1:6156 2:156.97621 3:50.615468 4:0.94658977 5:6279 6:88.532834 7:0.49741435 8:341.726 9:0.66244897 10:3.1013485 
0.10092999582713272 1:6941 2:163.50399 3:54.750196 4:0.94226952 5:7071 6:94.008275 7:0.59304511 8:362.829 9:0.66256414 10:2.9863635 
0.10087613900847807 1:6645 2:170.71178 3:50.375412 4:0.95546933 5:6866 6:91.981937 7:0.50173664 8:372.267 9:0.60255372 10:3.3887917 
0.096394186428844675 1:6010 2:150.15356 3:52.174267 4:0.93769009 5:6129 6:87.476681 7:0.53393746 8:335.629 9:0.67044843 10:2.8779237 
0.10096262000161374 1:5350 2:147.00776 3:47.59588 4:0.94613773 5:5524 6:82.533821 7:0.51201072 8:322.471 9:0.64652053 10:3.0886655 
0.10079112483778138 1:5685 2:145.08656 3:50.773207 4:0.93676796 5:5859 6:85.078592 7:0.70991508 8:327.879 9:0.66452776 10:2.8575419 
0.094251490538167254 1:6261 2:150.51657 3:53.984911 4:0.93346664 5:6406 6:89.284673 7:0.50305319 8:339.975 9:0.68070604 10:2.788123 
0.10079108679336343 1:5567 2:142.78613 3:50.904598 4:0.93429174 5:5742 6:84.191 7:0.67881966 8:325.026 9:0.6622087 10:2.8049752 
0.1009866555475353 1:5811 2:152.26344 3:49.352695 4:0.94601357 5:5936 6:86.016248 7:0.47697611 8:337.758 9:0.64010239 10:3.0852103 
0.1008748460879248 1:6218 2:160.27883 3:50.332853 4:0.94941204 5:6367 6:88.977545 7:0.83575269 8:350.224 9:0.63704304 10:3.184378 
0.10090624039627102 1:5788 2:165.13838 3:45.0489 4:0.96207223 5:5911 6:85.845853 7:0.49503934 8:351.053 9:0.59019158 10:3.6657583 
0.10081347473620303 1:6025 2:154.19627 3:50.435741 4:0.9449939 5:6216 6:87.585777 7:0.50766768 8:343.164 9:0.64292968 10:3.0572818 
0.10087152560219231 1:5983 2:162.09716 3:47.574536 4:0.95596093 5:6103 6:87.279964 7:0.42441654 8:347.777 9:0.62162311 10:3.4072252 
0.1008306517294949 1:5903 2:151.54797 3:50.389771 4:0.94310309 5:6052 6:86.694481 7:0.46243635 8:341.769 9:0.63506373 10:3.0075145 
0.096466185784729833 1:5860 2:145.70694 3:52.390912 4:0.93312058 5:6020 6:86.378144 7:0.50552105 8:327.461 9:0.68673363 10:2.7811492 
0.10102736454079039 1:3799 2:107.49013 3:46.238929 4:0.90274834 5:3923 6:69.54881 7:0.52610442 8:256.222 9:0.72718736 10:2.3246673 
0.09836400375182959 1:5461 2:137.88901 3:51.401958 4:0.92792065 5:5623 6:83.385617 7:0.61428571 8:314.812 9:0.69243575 10:2.6825633 
0.10102344818576109 1:6724 2:154.99393 3:56.595795 4:0.9309493 5:6950 6:92.527092 7:0.53543558 8:353.625 9:0.67569647 10:2.7386121 
0.10100314555394739 1:6673 2:151.94132 3:57.313129 4:0.92612951 5:6924 6:92.175525 7:0.50645112 8:361.137 9:0.64296453 10:2.6510735 
0.10079130950600425 1:5220 2:132.73 3:51.038157 4:0.9231141 5:5364 6:81.524907 7:0.60041408 8:304.252 9:0.70862013 10:2.6006033 
0.069145675943121279 1:5932 2:145.09948 3:53.169146 4:0.93044469 5:6102 6:86.907174 7:0.58942766 8:330.89 9:0.6808379 10:2.7290167 
0.1006110714047435 1:6747 2:158.57533 3:55.202971 4:0.93745062 5:6933 6:92.685205 7:0.7182244 8:365.326 9:0.63527156 10:2.8725868 
0.10098661146608108 1:5706 2:146.86569 3:50.541341 4:0.93892088 5:5931 6:85.235584 7:0.5822449 8:336.72 9:0.63241739 10:2.9058526 
0.10077147088919439 1:5658 2:152.45702 3:48.03806 4:0.94906097 5:5806 6:84.876318 7:0.43942218 8:339.208 9:0.61793193 10:3.1736714 
0.10101561415579952 1:6663 2:167.16771 3:51.612232 4:0.95114478 5:6828 6:92.106433 7:0.48370236 8:363.93 9:0.63218467 10:3.2389165 
0.10098710315827406 1:5788 2:158.14865 3:47.535944 4:0.95375736 5:5966 6:85.845853 7:0.482937 8:348.589 9:0.5985646 10:3.3269277 
0.10098302738999687 1:4848 2:140.81048 3:44.511409 4:0.948723 5:4935 6:78.566312 7:0.8244898 8:311.338 9:0.62850424 10:3.1634694 
0.10097540457879486 1:6858 2:167.36775 3:53.624044 4:0.94728352 5:7121 6:93.444512 7:0.72540724 8:371.727 9:0.62367614 10:3.1211326 
0.10097183491114756 1:6069 2:156.53468 3:50.36263 4:0.94682987 5:6199 6:87.90501 7:0.46828704 8:346.641 9:0.63469802 10:3.1081513 
0.10097718846076753 1:6085 2:154.81218 3:51.413028 4:0.94324441 5:6336 6:88.020808 7:0.61877161 8:348.397 9:0.62997256 10:3.011147 
0.10098654766274887 1:6610 2:155.12278 3:55.263032 4:0.93438935 5:6748 6:91.739378 7:0.72004357 8:350.125 9:0.67758702 10:2.80699 
0.10081201056209405 1:5194 2:151.25136 3:44.453641 4:0.95583441 5:5308 6:81.321622 7:0.43182574 8:326.321 9:0.61294536 10:3.4024515 
0.10088944891160452 1:5318 2:147.76584 3:47.230343 4:0.94754255 5:5477 6:82.28662 7:0.44783158 8:326.181 9:0.62811748 10:3.1286209 
0.10094906448819341 1:6290 2:141.41248 3:58.043153 4:0.91188183 5:6444 6:89.49121 7:0.71121664 8:329.747 9:0.7269404 10:2.4363335 
0.09735388933032868 1:6145 2:158.89299 3:51.019968 4:0.94704651 5:6374 6:88.4537 7:0.46050659 8:354.29 9:0.61519665 10:3.1143295 
0.10080891632733802 1:6443 2:164.22362 3:51.280632 4:0.94999635 5:6635 6:90.573078 7:0.49470209 8:362.201 9:0.61716133 10:3.2024492 
0.100613104722971 1:6095 2:154.51259 3:51.344793 4:0.94317315 5:6281 6:88.093104 7:0.77623535 8:342.235 9:0.65393522 10:3.0093137 
0.10094653231817863 1:5437 2:136.58964 3:51.431344 4:0.92640072 5:5599 6:83.202184 7:0.49844151 8:315.726 9:0.68540695 10:2.6557665 
0.10082288460482904 1:6577 2:158.07643 3:53.731509 4:0.94045854 5:6710 6:91.51009 7:0.83740769 8:350.803 9:0.67160065 10:2.941969 
0.10093812445744889 1:5364 2:146.64425 3:47.764284 4:0.94546788 5:5514 6:82.641738 7:0.47922809 8:321.722 9:0.65123407 10:3.0701653 
0.10079107734363277 1:6225 2:163.61979 3:48.876677 4:0.95434047 5:6391 6:89.027615 7:0.56508715 8:355.353 9:0.61948279 10:3.3476047 
0.10083890015078487 1:5927 2:147.67355 3:51.951864 4:0.93607441 5:6064 6:86.87054 7:0.82319444 8:330.888 9:0.68027225 10:2.8425074 
0.092784341354670286 1:6366 2:156.31462 3:53.54069 4:0.93951099 5:6573 6:90.030233 7:0.79495505 8:351.01 9:0.64928821 10:2.9195481 
0.10099907106157677 1:5538 2:148.17634 3:48.49349 4:0.94493129 5:5703 6:83.971427 7:0.57329193 8:329.029 9:0.64282752 10:3.0555925 
0.10098658741479971 1:5759 2:148.01959 3:50.333319 4:0.94040917 5:5949 6:85.630523 7:0.58366271 8:333.925 9:0.64902148 10:2.9407874 
0.10093808631025354 1:5496 2:161.66417 3:43.676365 4:0.96281341 5:5631 6:83.652403 7:0.56747548 8:344.138 9:0.58316483 10:3.7014109 
0.1010212281965491 1:5128 2:141.89975 3:47.195133 4:0.94306979 5:5242 6:80.803294 7:0.7695078 8:311.544 9:0.66392511 10:3.0066606 
0.10094830189667114 1:5804 2:144.88727 3:52.165057 4:0.93293728 5:5977 6:85.964425 7:0.51349199 8:327.103 9:0.68166063 10:2.7774774 
0.10062737685704816 1:5853 2:143.46312 3:53.50953 4:0.92783754 5:6020 6:86.326537 7:0.55331821 8:324.382 9:0.69899633 10:2.681076 
0.10080325763023895 1:6704 2:160.00536 3:54.07142 4:0.94116943 5:6886 6:92.389382 7:0.76251137 8:357.974 9:0.65741696 10:2.9591486 
0.10061539868334149 1:6428 2:154.79642 3:54.304462 4:0.93644586 5:6627 6:90.467584 7:0.54327248 8:345.272 9:0.6775838 10:2.8505286 
0.10083460619415641 1:5910 2:149.9969 3:51.001111 4:0.94042022 5:6065 6:86.745869 7:0.62559543 8:333.784 9:0.66660154 10:2.9410516 
0.10091561746564878 1:7031 2:162.45448 3:56.121964 4:0.93843248 5:7247 6:94.615787 7:0.64777962 8:369.627 9:0.64669512 10:2.8946685 
0.093070870497068386 1:6153 2:157.28797 3:51.121367 4:0.94570795 5:6348 6:88.511259 7:0.58936782 8:347.115 9:0.64172656 10:3.0767559 
0.099705765368893515 1:6599 2:158.8033 3:53.884071 4:0.94067342 5:6783 6:91.663012 7:0.50710828 8:356.918 9:0.65095519 10:2.9471288 
0.10088964769431408 1:5069 2:133.06426 3:49.282046 4:0.9288872 5:5171 6:80.33711 7:0.80003157 8:303.142 9:0.69317028 10:2.7000555 
0.10097900625988018 1:6185 2:160.04012 3:49.700718 4:0.95055652 5:6328 6:88.741121 7:0.57690514 8:351.185 9:0.63019892 10:3.2200767 
0.10102667833889012 1:5871 2:147.39255 3:51.435848 4:0.93713321 5:6009 6:86.459177 7:0.54240577 8:330.824 9:0.67410559 10:2.8655608 
0.10097538243791498 1:6029 2:148.28511 3:52.682831 4:0.93475968 5:6157 6:87.614846 7:0.58194981 8:335.298 9:0.67389653 10:2.8146762 
0.10088519248640207 1:5020 2:140.10125 3:46.445516 4:0.94345032 5:5191 6:79.947874 7:0.52842105 8:308.206 9:0.66409682 10:3.0164644 
0.10087607338891849 1:6623 2:140.4064 3:60.776901 4:0.90145915 5:6811 6:91.829546 7:0.55913888 8:341.702 9:0.7128031 10:2.3101934 
0.10083996169341843 1:5943 2:136.38009 3:56.491751 4:0.91017549 5:6121 6:86.987715 7:0.60151822 8:321.893 9:0.72076307 10:2.4141593 
0.10089853597953705 1:5354 2:140.81784 3:50.135918 4:0.93447306 5:5550 6:82.564669 7:0.64066052 8:322.759 9:0.64584977 10:2.8087217 
0.10080901727495348 1:5542 2:144.45379 3:49.38017 4:0.93975795 5:5688 6:84.001747 7:0.47157931 8:331.125 9:0.63517361 10:2.92534 
0.10080998131271915 1:5061 2:141.8464 3:47.015838 4:0.94347068 5:5218 6:80.27369 7:0.46809101 8:314.282 9:0.64388334 10:3.0169918 
0.10075282631888191 1:5986 2:154.89756 3:50.242175 4:0.9459346 5:6124 6:87.301844 7:0.77780665 8:340.614 9:0.64836802 10:3.0830187 
0.10061540601424657 1:6590 2:154.32677 3:55.304364 4:0.93358392 5:6810 6:91.600484 7:0.49215833 8:351.248 9:0.67122413 10:2.790499 
0.10094472605462498 1:6140 2:159.04773 3:49.629814 4:0.95006781 5:6260 6:88.417706 7:0.80324437 8:349.075 9:0.63319976 10:3.2046811 
0.10087613900904667 1:6310 2:163.13467 3:50.029872 4:0.95181321 5:6437 6:89.633373 7:0.4457159 8:355.153 9:0.62864903 10:3.2607452 
0.10093000679882402 1:4712 2:123.98145 3:49.242152 4:0.91774352 5:4819 6:77.45647 7:0.60973085 8:286.156 9:0.72311843 10:2.517791 
0.10083051479686841 1:6712 2:162.65491 3:53.49969 4:0.94435942 5:6852 6:92.444491 7:0.45474255 8:360.711 9:0.64825077 10:3.0402963 
0.10081347473356436 1:6975 2:156.11014 3:57.616877 4:0.92939828 5:7148 6:94.23824 7:0.50324675 8:358.252 9:0.682931 10:2.7094516 
0.10093810144891463 1:5273 2:117.25049 3:58.377013 4:0.86724426 5:5367 6:81.937733 7:0.570671 8:286.773 9:0.80573293 10:2.0085044 
0.10083041799319578 1:6040 2:156.78741 3:50.134809 4:0.94749757 5:6207 6:87.694737 7:0.56681682 8:344.56 9:0.63931823 10:3.1273164 
0.10094849081965659 1:6601 2:165.14994 3:51.684107 4:0.94976874 5:6738 6:91.676901 7:0.45274348 8:361.726 9:0.6339575 10:3.1953719 
0.10083360697650903 1:6254 2:152.20507 3:53.512399 4:0.93615749 5:6377 6:89.234747 7:0.54601013 8:338.367 9:0.68642286 10:2.8442954 
0.10087180372571308 1:3754 2:135.47144 3:36.177914 4:0.96368213 5:3883 6:69.135673 7:0.59389337 8:286.693 9:0.57394457 10:3.7445898 
0.10087606696293729 1:5939 2:149.42078 3:51.923336 4:0.93768093 5:6118 6:86.958436 7:0.80256757 8:338.63 9:0.65083714 10:2.8777191 
0.10085432986586451 1:4398 2:108.08429 3:52.780245 4:0.87266194 5:4496 6:74.831193 7:0.59755435 8:261.29 9:0.80950495 10:2.0478172 
0.10091827945724278 1:6497 2:158.80538 3:53.190391 4:0.94223919 5:6655 6:90.951841 7:0.48254605 8:352.008 9:0.6588972 10:2.9856027 
0.085382467483097316 1:6150 2:155.23511 3:51.030592 4:0.94442359 5:6285 6:88.489678 7:0.58134039 8:346.165 9:0.64493904 10:3.0420008 
0.10049674535488484 1:5290 2:150.46134 3:45.561221 4:0.9530509 5:5408 6:82.069709 7:0.77113703 8:323.56 9:0.63497391 10:3.3023992 
0.10080868890494232 1:5247 2:133.01928 3:51.669303 4:0.92147626 5:5399 6:81.735475 7:0.78902256 8:308.254 9:0.69391054 10:2.5744354 
0.10087782959160965 1:6429 2:160.50198 3:51.917192 4:0.94623924 5:6626 6:90.474621 7:0.67333473 8:356.328 9:0.6362875 10:3.0914996 
0.10084670078019026 1:5165 2:143.1857 3:47.020593 4:0.94454261 5:5334 6:81.09428 7:0.60226213 8:317.549 9:0.64366322 10:3.0451701 
0.090664733911704737 1:6524 2:162.9051 3:51.699127 4:0.94830603 5:6696 6:91.140632 7:0.47029988 8:363.51 9:0.62042757 10:3.1510224 
0.10083501082827426 1:6646 2:146.52631 3:58.789434 4:0.91598128 5:6822 6:91.988858 7:0.55126078 8:345.25 9:0.70065274 10:2.4923919 
0.10081945281001936 1:5262 2:140.44097 3:49.813609 4:0.93498233 5:5483 6:81.852223 7:0.45972392 8:322.269 9:0.63668357 10:2.8193293 
0.10081768138672123 1:4491 2:123.83314 3:47.521608 4:0.92343487 5:4630 6:75.618244 7:0.76442553 8:286.289 9:0.68856286 10:2.605828 
0.10061536518881423 1:6277 2:155.17018 3:52.112256 4:0.94191927 5:6407 6:89.398684 7:0.82592105 8:344.625 9:0.66415345 10:2.9776139 
0.10079120659507576 1:6242 2:155.94804 3:51.620241 4:0.94362751 5:6392 6:89.149096 7:0.56356085 8:344.709 9:0.66012835 10:3.0210637 
0.10081364880963473 1:6991 2:162.53924 3:56.036746 4:0.9386915 5:7227 6:94.346265 7:0.50237137 8:367.479 9:0.65055514 10:2.9005831 
0.10081347531224417 1:6320 2:158.56898 3:51.785593 4:0.94516927 5:6600 6:89.70437 7:0.48720321 8:360.533 9:0.61099393 10:3.0620289 
0.10081304786387718 1:5345 2:142.51451 3:48.668793 4:0.93988155 5:5473 6:82.495245 7:0.49711682 8:319.9 9:0.65634033 10:2.9282523 
0.085756279893749621 1:5719 2:154.20064 3:47.89799 4:0.95053378 5:5874 6:85.332625 7:0.65940274 8:337.083 9:0.63249378 10:3.2193552 
0.1009612511211726 1:5140 2:136.84834 3:48.619736 4:0.93475921 5:5298 6:80.897783 7:0.63930348 8:313.787 9:0.65599887 10:2.8146664 
0.10081020752255335 1:7236 2:150.42996 3:62.349249 4:0.91006134 5:7453 6:95.985214 7:0.55321101 8:367.844 9:0.67201825 10:2.4126989 
0.10081023737460779 1:7184 2:162.28527 3:57.322947 4:0.93553903 5:7371 6:95.639704 7:0.51465005 8:370.986 9:0.65593552 10:2.83107 
0.10097540428937805 1:6356 2:146.29169 3:56.034009 4:0.92373618 5:6558 6:89.959494 7:0.75059046 8:344.85 9:0.67163496 10:2.610766 
0.10058198073920105 1:5785 2:136.96793 3:54.631402 4:0.91701065 5:5911 6:85.823603 7:0.54207271 8:314.435 9:0.73527782 10:2.5071282 
0.10081033116796244 1:5118 2:136.7351 3:48.747835 4:0.93429038 5:5295 6:80.72447 7:0.64047053 8:308.518 9:0.67569255 10:2.8049471 
0.10082651787318941 1:5629 2:144.44 3:50.942433 4:0.93574051 5:5791 6:84.658522 7:0.50366858 8:325.144 9:0.66909783 10:2.8353573 
0.10081155514863882 1:4473 2:129.07409 3:45.007688 4:0.93723568 5:4572 6:75.466552 7:0.50044753 8:288.153 9:0.67695916 10:2.8678231 
0.092822195678679165 1:6149 2:154.87213 3:51.594147 4:0.94287727 5:6347 6:88.482484 7:0.63066667 8:345.85 9:0.64600934 10:3.0017383 
0.10093788742073717 1:6348 2:159.75394 3:51.53228 4:0.94654464 5:6503 6:89.902862 7:0.57588678 8:352.566 9:0.64175007 10:3.100075 
0.10098666858768114 1:6869 2:162.37927 3:55.088046 4:0.9406943 5:7076 6:93.519423 7:0.46996442 8:366.904 9:0.64120734 10:2.9476316 
0.10094296097081089 1:5403 2:155.2939 3:45.46078 4:0.95619199 5:5529 6:82.941626 7:0.76270469 8:339.705 9:0.58835704 10:3.4159972 
0.10080509827431308 1:6555 2:164.58982 3:51.846125 4:0.949091 5:6748 6:91.356911 7:0.71428571 8:362.687 9:0.62620796 10:3.1745828 
0.10087276641960598 1:6531 2:162.5211 3:51.997857 4:0.94743603 5:6738 6:91.189514 7:0.816375 8:362.637 9:0.62408727 10:3.1255346 
0.10081200962831097 1:4461 2:140.25147 3:40.944345 4:0.95643809 5:4565 6:75.365255 7:0.51602082 8:305.641 9:0.60009342 10:3.4254174 
0.091308171260230511 1:5717 2:151.46709 3:49.049266 4:0.94611601 5:5877 6:85.317703 7:0.50043768 8:336.441 9:0.63468791 10:3.0880603 
0.10097998549523492 1:6277 2:154.43931 3:52.600381 4:0.94021216 5:6456 6:89.398684 7:0.53815158 8:346.116 9:0.65844369 10:2.9360874 
0.10097951496108711 1:5551 2:151.92646 3:47.317476 4:0.95026259 5:5684 6:84.069928 7:0.82788963 8:331.608 9:0.63435314 10:3.2107897 
0.10081364880675583 1:6627 2:164.77739 3:52.278371 4:0.94833637 5:6788 6:91.857272 7:0.44983709 8:366.069 9:0.62144247 10:3.1519229 
0.10080998131808305 1:5508 2:135.12321 3:53.086912 4:0.91959068 5:5634 6:83.743677 7:0.51952462 8:311.896 9:0.71151521 10:2.5453206 
0.10080468880187021 1:6391 2:160.98569 3:51.718344 4:0.94699086 5:6628 6:90.20684 7:0.51498791 8:358.943 9:0.62334389 10:3.1127388 
0.10068657766139387 1:5726 2:150.10195 3:49.896976 4:0.94313125 5:5882 6:85.384833 7:0.47119816 8:333.078 9:0.6485886 10:3.0082373 
0.1006159774646503 1:7066 2:159.33666 3:57.885022 4:0.93167708 5:7422 6:94.850992 7:0.48291416 8:402.669 9:0.54762984 10:2.7526406 
0.097756386702996079 1:6075 2:149.98973 3:52.523924 4:0.93668113 5:6223 6:87.948452 7:0.58223117 8:337.861 9:0.66877498 10:2.855646 
0.10053257425890799 1:6315 2:158.51895 3:52.048438 4:0.94455889 5:6523 6:89.668878 7:0.45638505 8:354.713 9:0.63070897 10:3.0456043 
0.10093627901952371 1:5985 2:155.81348 3:50.107834 4:0.9468795 5:6178 6:87.294551 7:0.48897059 8:343.834 9:0.63617468 10:3.1095632 
0.10051076728979258 1:5687 2:143.71129 3:52.113715 4:0.93193404 5:5960 6:85.093556 7:0.74165363 8:341.095 9:0.61424607 10:2.7576482 
0.085526070890470457 1:6219 2:156.58476 3:52.176017 4:0.94285171 5:6424 6:88.984699 7:0.54913907 8:351.872 9:0.6311913 10:3.0010868 
0.10061539869953179 1:6336 2:146.70153 3:56.160378 4:0.92382267 5:6463 6:89.817848 7:0.53495441 8:335.275 9:0.70830889 10:2.6121891 
0.093035464319248223 1:6369 2:158.75568 3:52.801722 4:0.94306892 5:6576 6:90.051445 7:0.48636884 8:351.063 9:0.64939807 10:3.0066383 
0.10058225097686541 1:4536 2:143.11612 3:40.662534 4:0.95878794 5:4643 6:75.996148 7:0.63529412 8:310.892 9:0.58974439 10:3.5196065 
0.1006155838010106 1:6083 2:137.9956 3:57.665961 4:0.90850104 5:6262 6:88.006342 7:0.65303274 8:324.563 9:0.72565412 10:2.3930166 
0.10098356422145066 1:5564 2:148.43654 3:48.218798 4:0.94576743 5:5691 6:84.168312 7:0.75352113 8:323.859 9:0.66663029 10:3.0783956 
0.097044668136697598 1:5723 2:152.17544 3:49.089079 4:0.94654148 5:5871 6:85.362462 7:0.56809609 8:337.944 9:0.62971513 10:3.0999857 
0.10075726931064924 1:5989 2:155.14318 3:50.330203 4:0.94591612 5:6116 6:87.323717 7:0.4625782 8:342.235 9:0.64256243 10:3.0825066 
0.10061597553732811 1:6051 2:151.24637 3:52.300908 4:0.93830846 5:6200 6:87.774555 7:0.79628899 8:338.977 9:0.66175397 10:2.8918498 
0.10083040427540468 1:4644 2:130.24857 3:46.593532 4:0.93382592 5:4803 6:76.895542 7:0.5 8:290.931 9:0.68948064 10:2.7954218 
0.10079120634237948 1:5267 2:126.31491 3:54.411656 4:0.9024656 5:5382 6:81.891103 7:0.85116354 8:296.211 9:0.75434639 10:2.3214679 
0.097852498092056969 1:6290 2:158.47701 3:51.694828 4:0.94530159 5:6456 6:89.49121 7:0.51748252 8:348.862 9:0.64946115 10:3.065626 
0.10087152537594879 1:5591 2:144.12447 3:50.235829 4:0.93728698 5:5779 6:84.372284 7:0.63505225 8:328.011 9:0.65301407 10:2.8689577 
0.10068717899435943 1:6742 2:150.3546 3:58.129301 4:0.92224132 5:6943 6:92.650855 7:0.60804473 8:349.556 9:0.69337007 10:2.5865543 
0.10082459083851041 1:6390 2:151.60967 3:54.35445 4:0.93352369 5:6520 6:90.199782 7:0.65713698 8:339.573 9:0.696377 10:2.7892779 
0.10080500729860259 1:6498 2:152.16704 3:55.536287 4:0.93101958 5:6664 6:90.95884 7:0.77265161 8:346.428 9:0.68039889 10:2.739957 
0.10079130234691777 1:5149 2:147.78202 3:44.927298 4:0.95266866 5:5285 6:80.968577 7:0.44235395 8:323.774 9:0.61723254 10:3.2893592 
0.10093633550206885 1:5388 2:141.21936 3:49.702017 4:0.93601917 5:5544 6:82.826413 7:0.51314286 8:316.129 9:0.67749918 10:2.8413206 
0.10061597754339457 1:7281 2:155.09474 3:61.037475 4:0.91930338 5:7491 6:96.283213 7:0.51310782 8:361.198 9:0.70131031 10:2.5409757 
0.10126893244945812 1:5132 2:138.55906 3:48.493082 4:0.93675668 5:5277 6:80.834803 7:0.74204743 8:312.264 9:0.66138246 10:2.8572954 
0.10080968064896279 1:6722 2:162.38297 3:53.252914 4:0.94469632 5:6896 6:92.51333 7:0.54070142 8:357.173 9:0.66214199 10:3.0492785 
0.10060258678527181 1:6218 2:155.87444 3:51.664603 4:0.94347274 5:6376 6:88.977545 7:0.59616491 8:346.925 9:0.64921626 10:3.0170452 
0.10065790550013293 1:7075 2:163.2975 3:56.251484 4:0.93879644 5:7239 6:94.911379 7:0.82923113 8:365.276 9:0.66633716 10:2.9029901 
0.1007913436859729 1:4229 2:126.11362 3:43.395712 4:0.93893296 5:4339 6:73.379357 7:0.84613846 8:281.408 9:0.67108058 10:2.9061308 
0.101003148311879 1:6390 2:167.54017 3:49.996998 4:0.95443529 5:6645 6:90.199782 7:0.44242886 8:366.109 9:0.59908702 10:3.3510046 
0.10096273678392054 1:5706 2:153.71335 3:47.680053 4:0.9506752 5:5817 6:85.235584 7:0.4519604 8:337.064 9:0.63112719 10:3.2238502 
0.10082676003223817 1:6386 2:154.64517 3:53.29259 4:0.93874518 5:6549 6:90.171546 7:0.51834416 8:350.021 9:0.65501399 10:2.9018136 
0.10077794789611846 1:5437 2:144.34976 3:48.809652 4:0.94109775 5:5548 6:83.202184 7:0.47344131 8:322.435 9:0.65718076 10:2.9574019 
0.10080501007724754 1:5974 2:151.63138 3:51.573185 4:0.94038128 5:6183 6:87.214294 7:0.75648981 8:341.359 9:0.64424694 10:2.9401206 
0.10093003620473383 1:5697 2:142.70615 3:51.546119 4:0.93248659 5:5911 6:85.168337 7:0.50975304 8:333.497 9:0.64368327 10:2.768514 
0.10084624063640649 1:6944 2:172.61636 3:51.857231 4:0.95380734 5:7165 6:94.028588 7:0.69301397 8:386.234 9:0.58494977 10:3.3286845 
0.1009214329888658 1:6526 2:156.84266 3:53.963134 4:0.93894802 5:6693 6:91.154601 7:0.50585226 8:350.924 9:0.66593339 10:2.906478 
0.1008104825091852 1:6899 2:162.76466 3:54.502301 4:0.94227024 5:7034 6:93.723421 7:0.65880443 8:361.241 9:0.66435765 10:2.9863815 
0.10098822678622386 1:6813 2:158.71089 3:55.280234 4:0.93738024 5:6986 6:93.137431 7:0.49912088 8:368.192 9:0.6315381 10:2.8710242 
0.10080649258295632 1:5902 2:137.54915 3:55.565158 4:0.91477407 5:6047 6:86.687137 7:0.8128357 8:318.508 9:0.73108585 10:2.4754568 
0.10056614049014317 1:6978 2:156.00429 3:58.005654 4:0.92830449 5:7180 6:94.258504 7:0.65087212 8:357.395 9:0.68650528 10:2.689467 
0.10087613943513671 1:6032 2:150.42725 3:52.167599 4:0.9379405 5:6177 6:87.636641 7:0.53305055 8:337.085 9:0.66710215 10:2.8835379 
0.10084098438516181 1:6251 2:156.3079 3:51.860256 4:0.94335584 5:6401 6:89.213342 7:0.46126033 8:347.395 9:0.65089695 10:3.0140209 
0.10081201078798549 1:6123 2:146.65337 3:54.203161 4:0.92919076 5:6305 6:88.295219 7:0.62036474 8:333.974 9:0.68984069 10:2.705624 
0.10080872385259218 1:6447 2:166.47908 3:50.157165 4:0.95353505 5:6608 6:90.601188 7:0.44218107 8:362.042 9:0.61808702 10:3.3191485 
0.099731335491377249 1:5715 2:151.71895 3:48.946291 4:0.94653144 5:5870 6:85.302778 7:0.45199304 8:339.453 9:0.62325647 10:3.0997027 
0.10064626959096713 1:5673 2:149.15032 3:49.365185 4:0.94363915 5:5827 6:84.988752 7:0.82110291 8:330.864 9:0.65121383 10:3.0213666 
0.10098636928583421 1:6388 2:164.95369 3:50.335121 4:0.95230526 5:6577 6:90.185665 7:0.48080686 8:362.541 9:0.61074584 10:3.2771091 
0.10098664474046949 1:6835 2:165.56874 3:53.747004 4:0.94584435 5:7063 6:93.287686 7:0.67386375 8:369.114 9:0.63041617 10:3.0805203 
0.10087605470909519 1:5879 2:150.13503 3:50.519774 4:0.94168504 5:6000 6:86.518063 7:0.50812446 8:333.24 9:0.66527174 10:2.9718071 
0.10097539069636918 1:5307 2:135.69918 3:50.727221 4:0.92750082 5:5448 6:82.201474 7:0.50499572 8:311.606 9:0.68682695 10:2.6750762 
0.10087276642578415 1:5093 2:138.35527 3:48.046282 4:0.93776613 5:5233 6:80.52707 7:0.85740741 8:306.202 9:0.6826019 10:2.8796249 
0.10059675539237384 1:5627 2:147.61762 3:49.929012 4:0.94106274 5:5782 6:84.643481 7:0.47654133 8:332.316 9:0.64030114 10:2.95655 
0.1010051577664923 1:5307 2:153.9985 3:45.411273 4:0.9555339 5:5465 6:82.201474 7:0.4156485 8:338.696 9:0.58135153 10:3.3911953 
0.10072014922705613 1:5065 2:131.62052 3:50.443444 4:0.92364502 5:5220 6:80.305406 7:0.51390016 8:302.981 9:0.69335959 10:2.609269 
0.1008333094278504 1:5604 2:146.44515 3:49.557582 4:0.94100103 5:5766 6:84.470317 7:0.52669173 8:326.458 9:0.66077463 10:2.9550505 
0.10086645569991928 1:5230 2:137.99314 3:48.611906 4:0.93589552 5:5367 6:81.602958 7:0.72558269 8:309.527 9:0.68598477 10:2.8386696 
0.10088639377688324 1:5869 2:150.78767 3:50.478044 4:0.94230256 5:6029 6:86.44445 7:0.50338794 8:334.093 9:0.66075312 10:2.9871931 
0.10100291890355179 1:6163 2:161.88786 3:49.22895 4:0.95264238 5:6308 6:88.583155 7:0.75489956 8:353.731 9:0.61895031 10:3.2884686 
0.10075179023936467 1:6379 2:159.63474 3:52.008815 4:0.94543911 5:6554 6:90.122112 7:0.61956099 8:357.172 9:0.62835873 10:3.0693785 
0.10058265967060799 1:4409 2:120.98585 3:46.958074 4:0.92160521 5:4526 6:74.924717 7:0.54729394 8:278.673 9:0.71344447 10:2.5764654 
