svm_type one_class
kernel_type rbf
gamma 0.10000000000000001
nr_class 2
total_sv 1412
rho 0.10138181577658315
SV
0.101195338385142 1:5916 2:150.52015 3:51.161962 4:0.94046119 5:6091 6:86.789891 7:0.52925389 8:339.177 9:0.64622721 10:2.9420324 
0.10093517392355576 1:5241 2:139.96667 3:48.211409 4:0.93880495 5:5338 6:81.688729 7:0.47994505 8:312.725 9:0.67343986 10:2.9031856 
0.10101916214009407 1:6816 2:170.42038 3:51.610567 4:0.95304056 5:6956 6:93.157934 7:0.43331214 8:370.801 9:0.6229564 10:3.3020444 
0.1017477757529342 1:5068 2:124.23488 3:52.9986 4:0.9044404 5:5159 6:80.329185 7:0.53324916 8:288.12 9:0.76718421 10:2.3441163 
0.10174216335079422 1:6373 2:157.07862 3:53.076755 4:0.94118227 5:6477 6:90.079718 7:0.81705128 8:351.531 9:0.64807687 10:2.9594617 
0.10094669429656122 1:5021 2:138.63038 3:47.509495 4:0.93944263 5:5112 6:79.955836 7:0.80853462 8:308.055 9:0.66488045 10:2.9179511 
0.10045512531939431 1:6021 2:146.07521 3:54.134942 4:0.92879402 5:6177 6:87.556698 7:0.60573441 8:333.04 9:0.68215913 10:2.6983534 
0.10157622176439217 1:5193 2:141.9325 3:46.93393 4:0.9437437 5:5309 6:81.313793 7:0.60552705 8:312.811 9:0.66690528 10:3.0240915 
0.10159101089950603 1:5752 2:143.97748 3:51.453873 4:0.93396119 5:5903 6:85.578466 7:0.50567033 8:331.985 9:0.65583081 10:2.7981854 
0.10116874633963752 1:6651 2:164.34812 3:52.819677 4:0.94694726 5:6884 6:92.023455 7:0.51141869 8:364.236 9:0.62998626 10:3.1114943 
0.10035284499664729 1:6234 2:160.43501 3:50.636911 4:0.94888482 5:6373 6:89.091949 7:0.82199367 8:354.723 9:0.62258401 10:3.1683412 
0.10008310500056358 1:6039 2:152.14648 3:51.583949 4:0.94077147 5:6208 6:87.687477 7:0.51483376 8:340.162 9:0.65584815 10:2.9494927 
0.1017089504684042 1:4646 2:144.63315 3:41.145359 4:0.95868173 5:4747 6:76.912099 7:0.64153549 8:313.596 9:0.59367402 10:3.5151754 
0.10164059021631638 1:5155 2:142.52719 3:47.463373 4:0.94292232 5:5290 6:81.015738 7:0.458834 8:317.4 9:0.64302031 10:3.002888 
0.10102015508859338 1:6147 2:151.39269 3:52.711661 4:0.9374283 5:6335 6:88.468093 7:0.49389362 8:353.521 9:0.61807709 10:2.8720911 
0.10169737755756414 1:5848 2:149.46194 3:51.675695 4:0.93832857 5:6121 6:86.289657 7:0.53484544 8:339.268 9:0.63845667 10:2.8923064 
0.10138790892179325 1:6946 2:156.54768 3:57.951076 4:0.9289594 5:7141 6:94.042128 7:0.4874386 8:361.503 9:0.66791444 10:2.7013767 
0.10098019312131171 1:5623 2:150.91825 3:48.263569 4:0.94748527 5:5766 6:84.613391 7:0.79758865 8:333.526 9:0.6352118 10:3.1269601 
0.10105741348423797 1:5299 2:136.03824 3:51.123378 4:0.92670018 5:5463 6:82.139493 7:0.49477124 8:310.965 9:0.68862179 10:2.6609791 
0.10139053826624396 1:6571 2:157.95322 3:53.999275 4:0.9397477 5:6718 6:91.468339 7:0.47605593 8:354.787 9:0.65600317 10:2.925099 
0.098043798183871517 1:6668 2:168.02975 3:51.006316 4:0.95281383 5:6828 6:92.140986 7:0.46629371 8:366.91 9:0.62242404 10:3.294293 
0.10078476861523861 1:6253 2:157.96709 3:51.166257 4:0.94608977 5:6417 6:89.227613 7:0.54166667 8:349.944 9:0.64165442 10:3.0873294 
0.10169291933887023 1:5587 2:163.17594 3:44.33815 4:0.96237638 5:5800 6:84.342097 7:0.53209524 8:345.892 9:0.5868235 10:3.6802604 
0.10122088255683523 1:6220 2:154.99177 3:52.434869 4:0.94103564 5:6412 6:88.991853 7:0.587624 8:348.951 9:0.64190588 10:2.9558913 
0.10042159365494753 1:5973 2:149.0102 3:52.040534 4:0.93703278 5:6099 6:87.206994 7:0.83538462 8:328.523 9:0.69545786 10:2.8633488 
0.10169041235435627 1:4914 2:142.81726 3:44.099919 4:0.95113166 5:5015 6:79.099299 7:0.44318182 8:310.096 9:0.64217396 10:3.2384926 
0.10152198522218973 1:6073 2:154.45846 3:51.19002 4:0.9434847 5:6299 6:87.933974 7:0.75384806 8:348.885 9:0.62697258 10:3.0173549 
0.10176236872495084 1:5957 2:147.62621 3:52.261236 4:0.93524143 5:6097 6:87.090114 7:0.76460018 8:332.179 9:0.67841137 10:2.8247746 
0.10160784710501013 1:6970 2:158.71437 3:56.556177 4:0.9343566 5:7168 6:94.204457 7:0.51167229 8:364.396 9:0.65962247 10:2.8063137 
0.10047022632977562 1:5209 2:135.31626 3:50.123512 4:0.92886536 5:5371 6:81.438964 7:0.55314856 8:310.331 9:0.67969473 10:2.6996563 
0.10037899011244367 1:6227 2:159.95924 3:50.750706 4:0.94833433 5:6372 6:89.041915 7:0.45399533 8:352.805 9:0.62866498 10:3.1518624 
0.10167965136352539 1:7345 2:178.06396 3:53.480703 4:0.95383049 5:7584 6:96.705452 7:0.49672009 8:389.593 9:0.60810612 10:3.3294992 
0.10165845983059477 1:4437 2:129.11981 3:44.359722 4:0.93913266 5:4541 6:75.16225 7:0.75523404 8:286.61 9:0.67876058 10:2.9107444 
0.10165811942842121 1:4275 2:108.60189 3:51.525273 4:0.88028689 5:4388 6:73.777361 7:0.76833214 8:263.752 9:0.77224385 10:2.1077402 
0.10161029112097343 1:6621 2:153.8412 3:55.413283 4:0.9328759 5:6772 6:91.81568 7:0.57533889 8:347.141 9:0.69043314 10:2.7762513 
0.10125283612766661 1:6424 2:157.79273 3:53.222315 4:0.94139987 5:6666 6:90.439432 7:0.46299099 8:359.079 9:0.626088 10:2.9647852 
0.10164443163104898 1:7162 2:161.0012 3:57.674463 4:0.93363574 5:7422 6:95.49315 7:0.65079509 8:368.46 9:0.66292361 10:2.7915509 
0.10164183755856079 1:5837 2:153.42251 3:49.019136 4:0.94758486 5:5983 6:86.208464 7:0.81704927 8:337.413 9:0.64428191 10:3.1298494 
0.10024112267979524 1:6148 2:156.37677 3:50.975646 4:0.94537678 5:6320 6:88.475289 7:0.50625823 8:346.671 9:0.64284859 10:3.067676 
0.10175041592047249 1:5457 2:140.29585 3:50.07763 4:0.93412614 5:5590 6:83.355073 7:0.61259542 8:321.396 9:0.66386975 10:2.8015673 
0.10083130238258464 1:6240 2:156.88217 3:51.436479 4:0.94472391 5:6453 6:89.134812 7:0.63157895 8:354.344 9:0.62451703 10:3.0500178 
0.10152077083970389 1:5626 2:139.61161 3:52.252184 4:0.9273205 5:5787 6:84.63596 7:0.53842473 8:320.57 9:0.68796103 10:2.6718808 
0.10116856611405317 1:5964 2:144.27231 3:53.308944 4:0.92922984 5:6095 6:87.141268 7:0.73088235 8:322.784 9:0.71932226 10:2.7063435 
0.10164255800644942 1:7420 2:170.55524 3:56.821765 4:0.94287118 5:7698 6:97.197929 7:0.53979339 8:390.345 9:0.61195083 10:3.001583 
0.099187620443642044 1:6014 2:148.01785 3:52.518008 4:0.93493895 5:6167 6:87.505786 7:0.7525025 8:334.619 9:0.67495076 10:2.8184208 
0.10109228348353438 1:5561 2:144.04428 3:49.631196 4:0.93876609 5:5691 6:84.145618 7:0.51135632 8:318.753 9:0.68778737 10:2.9022932 
0.10088811186600892 1:5611 2:142.98252 3:51.289718 4:0.93344782 5:5781 6:84.523057 7:0.47016926 8:324.354 9:0.6702111 10:2.7877423 
0.10121084619274637 1:5153 2:138.24437 3:47.891919 4:0.93807603 5:5264 6:81.000021 7:0.64981084 8:307.195 9:0.68618579 10:2.8865907 
0.10131447112012484 1:6252 2:158.55751 3:51.143672 4:0.94655039 5:6394 6:89.220478 7:0.7469534 8:350.788 9:0.63846835 10:3.1002372 
0.10097892541893438 1:6322 2:159.47322 3:50.936859 4:0.94761763 5:6445 6:89.718562 7:0.78436725 8:349.868 9:0.64901676 10:3.1308019 
0.10164073186059189 1:6151 2:157.84078 3:51.657218 4:0.94492941 5:6478 6:88.496872 7:0.45062271 8:354.548 9:0.61490144 10:3.0555416 
0.10085312260558524 1:5929 2:152.3514 3:50.552631 4:0.94334413 5:6072 6:86.885196 7:0.46962376 8:337.512 9:0.6540529 10:3.0137185 
0.10173056774706152 1:6687 2:158.86638 3:54.577485 4:0.93913683 5:6943 6:92.272167 7:0.52911853 8:368.198 9:0.6198382 10:2.910841 
0.10169954234378613 1:5794 2:153.50084 3:49.515523 4:0.94654393 5:6011 6:85.890337 7:0.75236982 8:338.522 9:0.63535223 10:3.1000549 
0.10146094655834396 1:5596 2:154.81379 3:46.937125 4:0.95293191 5:5756 6:84.410002 7:0.63895867 8:340.292 9:0.60727317 10:3.2983228 
0.101259839346465 1:6173 2:157.82685 3:50.827501 4:0.94672404 5:6341 6:88.654993 7:0.5164826 8:347.828 9:0.64117571 10:3.1051469 
0.10163382686697595 1:5103 2:141.30388 3:46.806131 4:0.94354496 5:5206 6:80.606088 7:0.759375 8:313.398 9:0.65289447 10:3.0189182 
0.095719227857054279 1:5859 2:152.67222 3:49.696949 4:0.94553721 5:6036 6:86.370773 7:0.50421687 8:337.491 9:0.64641135 10:3.0720642 
0.10163391305106484 1:4472 2:106.21626 3:55.861038 4:0.8505353 5:4642 6:75.458116 7:0.77531207 8:274.486 9:0.74588395 10:1.9014373 
0.10130871316099446 1:6813 2:159.41111 3:55.451904 4:0.93754846 5:7031 6:93.137431 7:0.68362432 8:355.865 9:0.67604826 10:2.8747636 
0.10099234179146699 1:6270 2:147.56328 3:55.234779 4:0.92730262 5:6444 6:89.348822 7:0.51465156 8:340.421 9:0.6798995 10:2.6715645 
0.10145385532116788 1:5937 2:155.82972 3:49.673757 4:0.94783227 5:6064 6:86.943793 7:0.48864198 8:339.452 9:0.64747077 10:3.1370632 
0.10162101221169242 1:6086 2:147.30586 3:53.294799 4:0.93225695 5:6267 6:88.02804 7:0.60472973 8:342.99 9:0.6500981 10:2.7639819 
0.10163250397820714 1:5393 2:162.51212 3:42.994782 4:0.96436826 5:5574 6:82.864835 7:0.49242148 8:349.25 9:0.55560668 10:3.7798104 
0.078908148512997239 1:6317 2:155.06534 3:52.668054 4:0.94055164 5:6499 6:89.683076 7:0.72910896 8:349.398 9:0.65024933 10:2.944201 
0.10163051774256471 1:4951 2:131.66233 3:48.469355 4:0.92977282 5:5053 6:79.39653 7:0.65454786 8:298.842 9:0.69665783 10:2.7164036 
0.10080957327560863 1:6288 2:160.50471 3:50.573183 4:0.94906231 5:6436 6:89.476982 7:0.44786325 8:356.896 9:0.62035321 10:3.1737119 
0.10125339239853515 1:6580 2:152.81747 3:56.343202 4:0.92955 5:6728 6:91.530958 7:0.80696591 8:346.627 9:0.68819416 10:2.712261 
0.10107634116548384 1:5635 2:140.20519 3:52.011527 4:0.92864597 5:5753 6:84.703629 7:0.51176097 8:319.406 9:0.69409297 10:2.6956561 
0.097315056684019713 1:6631 2:158.84351 3:54.043568 4:0.9403417 5:6804 6:91.88499 7:0.57401316 8:358.992 9:0.64657566 10:2.9391751 
0.099130339344943252 1:6300 2:160.77058 3:50.912666 4:0.94853277 5:6495 6:89.56232 7:0.62937063 8:356.452 9:0.62308644 10:3.1577718 
0.10162919866795558 1:6854 2:173.5219 3:51.303358 4:0.95529346 5:6964 6:93.417257 7:0.42168082 8:376.409 9:0.60790255 10:3.3822717 
0.10162127066321122 1:6506 2:160.76394 3:52.946516 4:0.94421027 5:6786 6:91.014815 7:0.47600234 8:370.762 9:0.59474869 10:3.036346 
0.10130172368215781 1:6205 2:162.90907 3:50.012321 4:0.95171103 5:6432 6:88.884483 7:0.48416042 8:356.561 9:0.61331554 10:3.2573788 
0.10161789875147273 1:4912 2:129.97733 3:49.634939 4:0.92421448 5:5081 6:79.083201 7:0.66163793 8:297.288 9:0.69841485 10:2.6186661 
0.096789106041651377 1:6244 2:152.31142 3:53.489315 4:0.93630651 5:6411 6:89.163377 7:0.5120971 8:342.933 9:0.66719718 10:2.8475111 
0.10165809844531695 1:6353 2:164.6757 3:50.516244 4:0.95178626 5:6544 6:89.938261 7:0.80032754 8:360.678 9:0.61369052 10:3.2598565 
0.10107370812904223 1:7435 2:174.15268 3:55.792598 4:0.94729384 5:7680 6:97.296125 7:0.67455997 8:388.068 9:0.62040483 10:3.1214298 
0.10151057437102942 1:6312 2:169.03705 3:48.768118 4:0.95747824 5:6473 6:89.647577 7:0.75394171 8:362.96 9:0.6020871 10:3.4661384 
0.10136962718641496 1:5341 2:146.82971 3:47.526501 4:0.94616507 5:5476 6:82.464371 7:0.80074963 8:323.578 9:0.64102426 10:3.0894281 
0.10132006736625869 1:5977 2:161.56346 3:47.549146 4:0.95571115 5:6125 6:87.236189 7:0.80487476 8:349.86 9:0.61362711 10:3.3978205 
0.10161747423021808 1:6507 2:156.46202 3:53.685486 4:0.93929102 5:6669 6:91.021809 7:0.60654362 8:350.622 9:0.6651389 10:2.9144194 
0.10093490211400367 1:5628 2:137.63798 3:53.05139 4:0.92273227 5:5769 6:84.651002 7:0.79000561 8:314.2 9:0.71639343 10:2.5944274 
0.10175443925400715 1:6463 2:150.15771 3:55.899278 4:0.9281243 5:6644 6:90.713545 7:0.79398034 8:341.97 9:0.69449321 10:2.6862192 
0.100837872546685 1:5562 2:148.58263 3:48.109807 4:0.94612842 5:5751 6:84.153184 7:0.62298387 8:341.749 9:0.59844789 10:3.0884062 
0.10165670630374474 1:5479 2:144.81702 3:48.67839 4:0.94181302 5:5605 6:83.522928 7:0.6294807 8:321.337 9:0.66679095 10:2.9749755 
0.10176516209895062 1:6202 2:155.76604 3:51.999429 4:0.94263318 5:6394 6:88.862994 7:0.61989006 8:343.534 9:0.66039256 10:2.9955337 
0.097274713901594728 1:5547 2:139.52914 3:51.580054 4:0.92916221 5:5675 6:84.039632 7:0.51006897 8:316.817 9:0.69446614 10:2.7050987 
0.10175446542889885 1:5957 2:154.03704 3:50.191904 4:0.94542387 5:6104 6:87.090114 7:0.48668301 8:337.558 9:0.65696261 10:3.0689619 
0.10154635107780483 1:5281 2:141.17526 3:48.742237 4:0.9385069 5:5401 6:81.999866 7:0.59270483 8:318.343 9:0.65484034 10:2.8963639 
0.10125443871691885 1:5738 2:148.84963 3:50.105837 4:0.9416404 5:5868 6:85.474256 7:0.50733864 8:328.228 9:0.66929743 10:2.9707043 
0.10147976596827502 1:6382 2:151.6309 3:54.823668 4:0.93234884 5:6545 6:90.143301 7:0.58722856 8:342.848 9:0.68228123 10:2.7657927 
0.10161477136542107 1:4519 2:140.03736 3:41.846319 4:0.95430869 5:4703 6:75.853606 7:0.56986129 8:306.798 9:0.60331921 10:3.3464677 
0.10101296153712075 1:6267 2:161.376 3:50.701698 4:0.94936223 5:6418 6:89.327444 7:0.43905002 8:356.576 9:0.61939164 10:3.1828521 
0.10129235903327001 1:5830 2:148.53328 3:50.998212 4:0.93920922 5:5970 6:86.156756 7:0.51547303 8:331.14 9:0.66812101 10:2.9125193 
0.10159382442778142 1:5967 2:147.81969 3:52.031657 4:0.93600222 5:6106 6:87.163182 7:0.79137931 8:329.971 9:0.68867506 10:2.8409568 
0.10160803676815028 1:6451 2:152.76727 3:55.297485 4:0.93218894 5:6736 6:90.629291 7:0.69187044 8:351.664 9:0.65551266 10:2.7626441 
0.10160759452009323 1:4634 2:118.80577 3:50.438801 4:0.90540523 5:4726 6:76.812708 7:0.52593349 8:278.57 9:0.75040757 10:2.3554439 
0.10160567854016136 1:5756 2:141.02443 3:53.74568 4:0.92453011 5:5910 6:85.608217 7:0.50602198 8:325.153 9:0.68415597 10:2.6239212 
0.10161609236540606 1:5704 2:145.37689 3:51.092355 4:0.93620756 5:5902 6:85.220645 7:0.47144392 8:330.887 9:0.65468135 10:2.8453746 
0.10160731483977181 1:5560 2:140.55514 3:52.388994 4:0.92794019 5:5838 6:84.138052 7:0.58244291 8:322.719 9:0.6708657 10:2.6829135 
0.10160800281582219 1:7253 2:167.64276 3:56.413927 4:0.94167891 5:7453 6:96.0979 7:0.66413332 8:378.418 9:0.63647884 10:2.9716555 
0.10108331349532286 1:6190 2:146.9013 3:54.539079 4:0.92852758 5:6337 6:88.776983 7:0.59110008 8:335.605 9:0.69062718 10:2.6935054 
0.10156667679075716 1:6104 2:144.58291 3:54.541021 4:0.92611958 5:6295 6:88.15812 7:0.59406326 8:331.519 9:0.69792305 10:2.6509022 
0.10145532302499265 1:6484 2:159.09204 3:52.947481 4:0.94299377 5:6681 6:90.860801 7:0.5576675 8:362.234 9:0.62097547 10:3.004714 
0.10051822997054394 1:6438 2:151.59582 3:55.081789 4:0.93165414 5:6624 6:90.537927 7:0.52615234 8:342.23 9:0.69075603 10:2.752195 
0.10135204400870032 1:6975 2:163.8068 3:55.285016 4:0.94132505 5:7126 6:94.23824 7:0.50823375 8:364.584 9:0.65941507 10:2.9629512 
0.10094389246602506 1:5189 2:132.52314 3:50.970933 4:0.92307537 5:5346 6:81.28247 7:0.542896 8:303.434 9:0.70821488 10:2.5999747 
0.1010191679692615 1:6573 2:165.76597 3:51.406798 4:0.95069849 5:6808 6:91.482258 7:0.52100507 8:372.87 9:0.59409871 10:3.2245924 
0.10170426096704603 1:6233 2:161.17013 3:50.231545 4:0.95019112 5:6388 6:89.084803 7:0.4601698 8:348.659 9:0.64432537 10:3.2085442 
0.10129756381320543 1:5331 2:128.68895 3:53.818896 4:0.90835077 5:5471 6:82.387135 7:0.65879881 8:303.102 9:0.7291904 10:2.3911482 
0.10096937454810279 1:4955 2:148.71314 3:42.76075 4:0.95776908 5:5028 6:79.428597 7:0.8510821 8:316.307 9:0.62235175 10:3.4777953 
0.10111077822018988 1:5286 2:141.51876 3:48.973594 4:0.93821339 5:5450 6:82.038675 7:0.63154122 8:316.673 9:0.6623918 10:2.8896952 
0.10105833721460762 1:6066 2:145.85456 3:53.533771 4:0.93020702 5:6204 6:87.883281 7:0.53757533 8:333.836 9:0.68398399 10:2.7245337 
0.10163942473913415 1:5845 2:154.79848 3:49.857199 4:0.94671311 5:6078 6:86.267521 7:0.57586207 8:341.64 9:0.62929887 10:3.1048371 
0.10153763451041085 1:6012 2:153.64323 3:51.216371 4:0.94280452 5:6154 6:87.491235 7:0.46869884 8:341.719 9:0.64697959 10:2.999885 
0.1010389716853712 1:5923 2:149.43102 3:51.458164 4:0.93883744 5:6076 6:86.841222 7:0.71915979 8:337.885 9:0.65194922 10:2.9039323 
0.10139068947964094 1:6252 2:156.32753 3:51.970922 4:0.94312126 5:6409 6:89.220478 7:0.53600823 8:346.967 9:0.65260815 10:3.0079807 
0.10160757756276576 1:5596 2:148.34136 3:49.238035 4:0.94330618 5:5731 6:84.410002 7:0.51433824 8:328.782 9:0.65053625 10:3.0127392 
0.10088745651286823 1:5378 2:151.58535 3:45.695243 4:0.95348232 5:5499 6:82.749515 7:0.80208799 8:330.516 9:0.61865095 10:3.3173115 
0.10132106215008557 1:5943 2:148.50746 3:51.737721 4:0.93735166 5:6113 6:86.987715 7:0.53038822 8:334.885 9:0.66592329 10:2.8703904 
0.10175216468079525 1:6924 2:158.46919 3:56.422956 4:0.93446691 5:7105 6:93.893081 7:0.78879016 8:359.057 9:0.67490109 10:2.8085943 
0.1017975335212957 1:7014 2:155.51741 3:58.578257 4:0.92634878 5:7194 6:94.501334 7:0.63189189 8:357.445 9:0.68985398 10:2.6548658 
0.1003946516482597 1:6223 2:151.23762 3:53.657666 4:0.93494584 5:6422 6:89.013312 7:0.47344796 8:353.223 9:0.62677507 10:2.818565 
0.097994473166924417 1:5748 2:151.81085 3:49.049882 4:0.94636529 5:5924 6:85.548705 7:0.51602478 8:338.433 9:0.63063957 10:3.09503 
0.10131043609350263 1:6437 2:155.78014 3:53.016556 4:0.94030629 5:6610 6:90.530895 7:0.65456579 8:350.746 9:0.65751841 10:2.9383301 
0.10083431994616637 1:6089 2:168.24256 3:47.115177 4:0.95998741 5:6269 6:88.049734 7:0.4521087 8:361.962 9:0.5840229 10:3.5708783 
0.098867853743976608 1:5776 2:151.15129 3:49.697668 4:0.94440159 5:5908 6:85.756817 7:0.46494406 8:333.293 9:0.65340833 10:3.0414161 
0.10170657506654529 1:5482 2:141.70177 3:50.769463 4:0.93361268 5:5693 6:83.545791 7:0.56796519 8:327.21 9:0.64342178 10:2.7910826 
0.10160601060099042 1:6136 2:134.46066 3:58.546082 4:0.90023022 5:6341 6:88.388901 7:0.56293578 8:346.308 9:0.64293959 10:2.2966636 
0.099032508122412488 1:5770 2:151.93678 3:48.950892 4:0.94667865 5:5908 6:85.712264 7:0.48997962 8:333.563 9:0.65167331 10:3.1038614 
0.10161038842823354 1:4177 2:115.065 3:47.125335 4:0.91228586 5:4260 6:72.926823 7:0.53551282 8:268.297 9:0.72919336 10:2.4416802 
0.10160752542965708 1:4862 2:143.81187 3:43.579708 4:0.95298014 5:5013 6:78.679671 7:0.44503432 8:310.764 9:0.63264986 10:3.2999732 
0.10178512573425462 1:6304 2:157.96143 3:51.495972 4:0.94536858 5:6483 6:89.590748 7:0.47519976 8:354 9:0.63214913 10:3.0674522 
0.10169171417273504 1:5411 2:140.05034 3:50.021487 4:0.9340402 5:5524 6:83.003007 7:0.55208652 8:311.753 9:0.69962628 10:2.7998036 
0.10126649512003363 1:5248 2:144.67997 3:46.690973 4:0.94649483 5:5398 6:81.743264 7:0.52156629 8:320.264 9:0.64296516 10:3.0986712 
0.10080991833059257 1:5678 2:139.23995 3:53.09843 4:0.92443288 5:5869 6:85.026197 7:0.57469636 8:321.859 9:0.68876955 10:2.6222989 
0.10160756622120651 1:6875 2:161.86491 3:55.171702 4:0.94011759 5:7051 6:93.560258 7:0.47348485 8:361.395 9:0.66148239 10:2.9338394 
0.1015195326308416 1:6551 2:157.20389 3:54.566961 4:0.93782462 5:6783 6:91.329033 7:0.46659544 8:356.103 9:0.64918159 10:2.8809355 
0.10076854697051205 1:6383 2:145.72148 3:56.678441 4:0.92125866 5:6536 6:90.150363 7:0.66551976 8:337.324 9:0.70492064 10:2.5710214 
0.10111433854124252 1:6370 2:154.49024 3:53.744949 4:0.93753695 5:6509 6:90.058514 7:0.79071499 8:345.428 9:0.67086359 10:2.8745072 
0.10099581330088594 1:6005 2:145.55953 3:53.666662 4:0.92955154 5:6226 6:87.440285 7:0.50167084 8:339.601 9:0.65431211 10:2.7122897 
0.10109117747088076 1:5960 2:154.41826 3:50.146339 4:0.94580209 5:6122 6:87.112041 7:0.45562266 8:342.795 9:0.63736347 10:3.0793525 
0.10164530211617388 1:5995 2:161.98173 3:48.120578 4:0.95485443 5:6152 6:87.367449 7:0.72508466 8:350.1 9:0.61463152 10:3.3661634 
0.10160759452009323 1:4240 2:118.81222 3:46.48188 4:0.92029661 5:4376 6:73.474728 7:0.51600341 8:273.077 9:0.71450533 10:2.5560976 
0.10162395598166857 1:6889 2:160.5484 3:55.191147 4:0.93905519 5:7028 6:93.655471 7:0.47960178 8:358.949 9:0.67189368 10:2.9089519 
0.10160764381779652 1:6041 2:144.48827 3:53.780802 4:0.92814626 5:6243 6:87.701996 7:0.53870162 8:340.395 9:0.65516751 10:2.6866144 
0.10161464480053026 1:6879 2:166.63403 3:54.023344 4:0.94598734 5:7127 6:93.587472 7:0.54122738 8:368.743 9:0.63575181 10:3.0844819 
0.10160766020614515 1:5050 2:142.4947 3:46.033386 4:0.94638077 5:5253 6:80.186406 7:0.45202291 8:328.172 9:0.58924811 10:3.0954643 
0.10164917695235787 1:5228 2:142.31681 3:47.322141 4:0.94309879 5:5373 6:81.587354 7:0.47875458 8:314.402 9:0.6646222 10:3.0074043 
0.10091299840673079 1:5672 2:149.82828 3:49.042396 4:0.94491216 5:5799 6:84.981261 7:0.47792383 8:330.223 9:0.65362921 10:3.0550767 
0.1008881101505464 1:4984 2:133.69791 3:48.474479 4:0.93195762 5:5144 6:79.660692 7:0.69921437 8:302.531 9:0.68430251 10:2.7581092 
0.10100343804444369 1:5683 2:158.25956 3:46.943595 4:0.95499433 5:5837 6:85.063625 7:0.42607587 8:344.304 9:0.60242555 10:3.3712707 
0.10145517779291828 1:5860 2:159.52276 3:47.673732 4:0.9542994 5:6010 6:86.378144 7:0.45422835 8:345.738 9:0.61604615 10:3.3461354 
0.10083487954365125 1:5722 2:141.00638 3:52.265157 4:0.92876938 5:5845 6:85.355004 7:0.79164361 8:322.751 9:0.6902756 10:2.697904 
0.10164425709450058 1:5638 2:139.33945 3:52.077438 4:0.92753146 5:5769 6:84.726174 7:0.55899266 8:317.617 9:0.70230774 10:2.6756204 
0.10161237860757712 1:5429 2:136.15437 3:51.665062 4:0.92520837 5:5514 6:83.14095 7:0.49247097 8:309.344 9:0.71292905 10:2.6353277 
0.10106744907530754 1:6258 2:156.49065 3:51.79873 4:0.94363003 5:6456 6:89.26328 7:0.47466626 8:357.913 9:0.61388988 10:3.0211292 
0.10163144902376955 1:6507 2:149.43992 3:56.353349 4:0.92617376 5:6710 6:91.021809 7:0.65004995 8:342.335 9:0.69773107 10:2.6518374 
0.10165732588620841 1:3780 2:110.52637 3:44.833702 4:0.91403378 5:3922 6:69.374675 7:0.5641791 8:260.098 9:0.70214634 10:2.4652518 
0.10170841598413821 1:6052 2:138.95607 3:56.001282 4:0.91519368 5:6222 6:87.781807 7:0.52782138 8:335.062 9:0.67742065 10:2.4813016 
0.10163207826498011 1:6019 2:151.53622 3:51.98036 4:0.93932712 5:6208 6:87.542155 7:0.49190912 8:339.279 9:0.65708303 10:2.9152592 
0.10094715295100921 1:4805 2:132.4005 3:47.131098 4:0.93449597 5:4926 6:78.217108 7:0.50026028 8:298.003 9:0.67992652 10:2.8091963 
0.10155502354260032 1:5975 2:151.69658 3:51.065112 4:0.9416382 5:6110 6:87.221593 7:0.77116675 8:336.752 9:0.66210582 10:2.9706501 
0.10160788647843634 1:4941 2:133.59165 3:47.983734 4:0.93326748 5:5079 6:79.316307 7:0.49688254 8:302.618 9:0.6780086 10:2.7841028 
0.10031105278404531 1:6350 2:154.79208 3:52.955351 4:0.93966125 5:6550 6:89.917023 7:0.63096184 8:352.317 9:0.64285998 10:2.9230678 
0.10118137862381407 1:5875 2:146.19593 3:52.378531 4:0.93361562 5:6047 6:86.488625 7:0.59997958 8:330.12 9:0.67744503 10:2.7911423 
0.10160787817645095 1:6610 2:165.38921 3:52.029301 4:0.94922863 5:6832 6:91.739378 7:0.55780591 8:373.324 9:0.59599073 10:3.1787705 
0.10163776826726276 1:5563 2:138.58859 3:52.235236 4:0.92625044 5:5778 6:84.160748 7:0.62929864 8:324.307 9:0.66467031 10:2.6531629 
0.10164001965395418 1:6150 2:163.53585 3:48.643484 4:0.95473788 5:6334 6:88.489678 7:0.4510451 8:353.953 9:0.61687019 10:3.3619272 
0.1017429301297639 1:6996 2:163.17949 3:55.869377 4:0.9395616 5:7173 6:94.379997 7:0.46291272 8:368.444 9:0.64761468 10:2.9207323 
0.10130375995840254 1:6758 2:155.48565 3:56.444759 4:0.93178045 5:6874 6:92.760729 7:0.48949732 8:352.051 9:0.68519926 10:2.7546517 
0.10137832864427021 1:5601 2:146.87841 3:49.675867 4:0.94107037 5:5772 6:84.447704 7:0.52414374 8:330.022 9:0.64623378 10:2.9567357 
0.10147867783625958 1:6967 2:162.48354 3:55.58913 4:0.93965568 5:7129 6:94.184181 7:0.46558407 8:364.605 9:0.65858288 10:2.9229372 
0.10142256547476036 1:6607 2:158.56212 3:54.004305 4:0.94021276 5:6850 6:91.718557 7:0.53978758 8:362.483 9:0.63188622 10:2.9361016 
0.10160790907153969 1:4633 2:142.93831 3:41.919299 4:0.95603013 5:4788 6:76.804419 7:0.48768421 8:307.188 9:0.61696947 10:3.4098449 
0.1015653533968944 1:5841 2:157.4377 3:48.497665 4:0.95137226 5:6046 6:86.237997 7:0.47720588 8:350.27 9:0.59826168 10:3.2462945 
0.10163191186551532 1:6034 2:163.56351 3:48.014855 4:0.95594224 5:6184 6:87.651169 7:0.44253759 8:353.28 9:0.60754306 10:3.4065189 
0.1016608750091809 1:6418 2:159.70827 3:52.008067 4:0.9454924 5:6568 6:90.397187 7:0.5457483 8:353.724 9:0.64458549 10:3.0708365 
0.098388340678430122 1:6457 2:159.63567 3:52.648057 4:0.94405036 5:6647 6:90.671427 7:0.46065492 8:353.852 9:0.64803333 10:3.0321285 
0.10161621938692142 1:6154 2:164.35948 3:48.56869 4:0.95534187 5:6305 6:88.518451 7:0.42058502 8:360.455 9:0.59520319 10:3.3840625 
0.10104850114510727 1:6573 2:154.29625 3:55.242084 4:0.93371158 5:6775 6:91.482258 7:0.499544 8:352.271 9:0.66560981 10:2.7930925 
0.10160726195005906 1:6380 2:150.2136 3:55.23666 4:0.92993625 5:6556 6:90.129176 7:0.50283733 8:343.25 9:0.68047073 10:2.7194548 
0.10161008279828601 1:6335 2:163.48136 3:50.832479 4:0.95043037 5:6627 6:89.810759 7:0.59843189 8:363.548 9:0.60232788 10:3.2160807 
0.10161087121881295 1:5602 2:133.65663 3:54.361643 4:0.91355014 5:5816 6:84.455242 7:0.55702496 8:321.778 9:0.67989253 10:2.4586569 
0.10083475341334087 1:5823 2:139.0002 3:54.103201 4:0.92114014 5:5933 6:86.105017 7:0.6357681 8:316.193 9:0.73190068 10:2.5691678 
0.10112356274149978 1:6265 2:159.70896 3:50.859216 4:0.94793987 5:6408 6:89.313189 7:0.44968418 8:355.259 9:0.62379338 10:3.1402167 
0.1009202649703628 1:5851 2:158.36722 3:47.653749 4:0.9536536 5:6030 6:86.311787 7:0.58603766 8:350.994 9:0.59681616 10:3.3232898 
0.1000007481726114 1:6151 2:156.93864 3:50.89994 4:0.94594393 5:6341 6:88.496872 7:0.68140024 8:348.025 9:0.63816753 10:3.0832776 
0.098006654934289478 1:6735 2:165.24699 3:53.061862 4:0.94704314 5:6969 6:92.602745 7:0.46718923 8:365.124 9:0.63484354 10:3.1142329 
0.10147323717393557 1:6510 2:158.6893 3:52.985293 4:0.94261088 5:6629 6:91.042789 7:0.49206349 8:349.858 9:0.66835505 10:2.9949688 
0.10126116627082976 1:6474 2:150.25544 3:55.981274 4:0.92800247 5:6679 6:90.790709 7:0.53882647 8:345.679 9:0.68082668 10:2.6840303 
0.10105587181045664 1:7020 2:169.24404 3:53.639491 4:0.948447 5:7185 6:94.541745 7:0.47304582 8:369.54 9:0.64598743 10:3.1552134 
0.10129711482939846 1:5750 2:158.10814 3:47.259221 4:0.95428305 5:5869 6:85.563587 7:0.49132701 8:341.279 9:0.62038113 10:3.3455511 
0.10122168837861514 1:6297 2:147.71568 3:54.861812 4:0.9284724 5:6431 6:89.540993 7:0.50659694 8:338.577 9:0.69028534 10:2.6925046 
0.10161058878419027 1:4379 2:107.24411 3:52.819086 4:0.87030527 5:4495 6:74.669378 7:0.64397059 8:263.678 9:0.79147466 10:2.0304046 
0.1013041348953681 1:5806 2:145.44887 3:52.345726 4:0.93299439 5:6006 6:85.979235 7:0.56588694 8:332.097 9:0.66154134 10:2.7786198 
0.064420510032077549 1:6246 2:162.0052 3:49.780244 4:0.95162057 5:6385 6:89.177655 7:0.69477197 8:353.342 9:0.62866795 10:3.2544075 
0.10083137690671282 1:6994 2:159.24358 3:56.88625 4:0.93401725 5:7166 6:94.366506 7:0.52964786 8:358.952 9:0.68212307 10:2.7993333 
0.10174628541680494 1:6571 2:163.63376 3:52.251294 4:0.94764744 5:6734 6:91.468339 7:0.46015406 8:359.732 9:0.63809183 10:3.1316691 
0.1016794386581642 1:5216 2:141.36953 3:47.700901 4:0.94135423 5:5363 6:81.493665 7:0.48584203 8:317.413 9:0.65057598 10:2.9636659 
0.10148322354548445 1:6592 2:157.88676 3:54.440368 4:0.93867382 5:6790 6:91.614382 7:0.47132847 8:359.963 9:0.63930976 10:2.900178 
0.10091943000011158 1:6781 2:168.73933 3:52.35267 4:0.95065251 5:6964 6:92.918445 7:0.60663804 8:371.52 9:0.61736103 10:3.2231276 
0.10173915441545919 1:5352 2:148.52669 3:46.418639 4:0.9499088 5:5476 6:82.549246 7:0.53253731 8:324.257 9:0.63965713 10:3.199721 
0.10161627413989464 1:5436 2:142.28337 3:50.161427 4:0.9357945 5:5629 6:83.194532 7:0.58780277 8:321.834 9:0.6595162 10:2.8365096 
0.10161717002061019 1:5482 2:149.3031 3:47.150468 4:0.94882455 5:5650 6:83.545791 7:0.48659684 8:336.407 9:0.60872179 10:3.1665242 
0.10093587325164624 1:6852 2:168.03431 3:52.866135 4:0.94921932 5:7100 6:93.403626 7:0.78326475 8:368.17 9:0.63522916 10:3.1784867 
0.1015963524917205 1:5542 2:141.527 3:50.671025 4:0.93370978 5:5682 6:84.001747 7:0.57016461 8:318.038 9:0.68852285 10:2.7930558 
0.097689002623768811 1:6034 2:148.68589 3:52.819784 4:0.93477358 5:6154 6:87.651169 7:0.47991728 8:335.105 9:0.67523253 10:2.8149659 
0.10161086898175145 1:4927 2:144.02471 3:44.243226 4:0.95164759 5:5103 6:79.203859 7:0.55735294 8:317.112 9:0.61569705 10:3.2552941 
0.10161551335873723 1:2985 2:89.542807 3:44.875199 4:0.86535512 5:3078 6:61.649169 7:0.80762987 8:225.237 9:0.73939197 10:1.995374 
0.10122913480390541 1:5685 2:147.76092 3:49.823317 4:0.94143707 5:5843 6:85.078592 7:0.47773109 8:332.77 9:0.64513707 10:2.9656982 
0.10098438693204606 1:5931 2:161.97039 3:47.351807 4:0.95631184 5:6104 6:86.899849 7:0.55321332 8:349.919 9:0.60869921 10:3.4205747 
0.10161647074819838 1:6266 2:161.31788 3:50.96277 4:0.94878743 5:6472 6:89.320317 7:0.44840418 8:355.036 9:0.62467693 10:3.1654065 
0.098538278956764896 1:5739 2:150.42881 3:49.660772 4:0.94393615 5:5886 6:85.481704 7:0.55756339 8:333.776 9:0.64734512 10:3.0291274 
0.10164228557774696 1:5968 2:150.77882 3:51.084022 4:0.94085804 5:6101 6:87.170486 7:0.67011004 8:336.587 9:0.66197868 10:2.9515848 
0.10161719254750062 1:5607 2:147.61399 3:49.219096 4:0.94277447 5:5759 6:84.492924 7:0.82274395 8:332.435 9:0.63756862 10:2.9991203 
0.10178406046760768 1:6487 2:162.79528 3:51.76309 4:0.94810268 5:6673 6:90.881818 7:0.47966578 8:361.988 9:0.62210747 10:3.145007 
0.10162973288774443 1:5258 2:158.33338 3:44.289902 4:0.96007999 5:5576 6:81.821107 7:0.53386131 8:343.022 9:0.5615475 10:3.5749318 
0.098649326252593789 1:5875 2:154.17917 3:49.53222 4:0.94698966 5:6028 6:86.488625 7:0.4533179 8:339.389 9:0.64094713 10:3.1127045 
0.10125196516704354 1:6717 2:162.00265 3:53.660702 4:0.94354882 5:6913 6:92.478917 7:0.57030056 8:364.012 9:0.63702109 10:3.0190184 
0.10161973381615275 1:6923 2:169.40149 3:52.612559 4:0.95054754 5:7149 6:93.8863 7:0.57333333 8:378.807 9:0.60627297 10:3.2197918 
0.1016381176845377 1:5509 2:146.68076 3:48.334132 4:0.94414886 5:5609 6:83.751279 7:0.47639225 8:323.766 9:0.66041991 10:3.0347243 
0.10176665225499409 1:6489 2:149.3278 3:56.254264 4:0.92632856 5:6641 6:90.895827 7:0.50962067 8:343.581 9:0.69076347 10:2.6545153 
0.10162831579230824 1:4019 2:110.14182 3:47.540176 4:0.90205221 5:4122 6:71.534256 7:0.55297193 8:257.486 9:0.76176432 10:2.3168156 
0.10051530938448987 1:6078 2:153.6216 3:51.456326 4:0.94223412 5:6230 6:87.970165 7:0.46800647 8:341.299 9:0.65569297 10:2.9854756 
0.10175115269854318 1:5782 2:156.44699 3:47.760117 4:0.95226267 5:5942 6:85.801346 7:0.45434543 8:343.829 9:0.6146147 10:3.2756827 
0.1016425565106811 1:5665 2:152.75742 3:47.916804 4:0.94952907 5:5789 6:84.928806 7:0.5739615 8:334.809 9:0.63506113 10:3.1879718 
0.10130598916024626 1:5653 2:147.19321 3:50.233687 4:0.9399627 5:5837 6:84.838807 7:0.46967431 8:331.938 9:0.64472558 10:2.9301694 
0.10162978000275991 1:5052 2:134.35474 3:49.087033 4:0.93086868 5:5194 6:80.202283 7:0.57737143 8:307.734 9:0.67038184 10:2.7370719 
0.10163082371511675 1:5522 2:143.71316 3:50.276371 4:0.93681009 5:5691 6:83.850037 7:0.78806907 8:322.668 9:0.66649128 10:2.8584632 
0.10129205427803574 1:6512 2:159.75012 3:52.768509 4:0.94386933 5:6643 6:91.056773 7:0.46821973 8:356.268 9:0.64471923 10:3.027376 
0.10160756622120648 1:6117 2:153.03089 3:51.669783 4:0.9412743 5:6226 6:88.251948 7:0.49530364 8:339.322 9:0.66761227 10:2.9617095 
0.10105551330700892 1:6244 2:149.10122 3:54.147009 4:0.93172834 5:6347 6:89.163377 7:0.49453509 8:332.882 9:0.70809599 10:2.7536373 
0.1009836477413473 1:6341 2:157.23829 3:52.907218 4:0.94169135 5:6529 6:89.85328 7:0.58712963 8:350.473 9:0.64872179 10:2.971963 
0.10092485868607962 1:5086 2:139.4123 3:47.166868 4:0.94102881 5:5260 6:80.471711 7:0.47131869 8:322.822 9:0.61328165 10:2.9557252 
0.10164402044703819 1:5897 2:148.49101 3:51.880529 4:0.93697926 5:6185 6:86.65041 7:0.48655116 8:335.243 9:0.65935842 10:2.8621723 
0.10146846072874838 1:5894 2:157.34703 3:48.694642 4:0.95090826 5:6065 6:86.628366 7:0.54574074 8:346.421 9:0.61717962 10:3.2313007 
0.10081567828085311 1:6374 2:158.0311 3:51.985282 4:0.94434525 5:6593 6:90.086785 7:0.81686531 8:354.252 9:0.63825952 10:3.0399201 
0.10130765534022511 1:6623 2:156.74672 3:54.569504 4:0.93744326 5:6825 6:91.829546 7:0.58116883 8:355.262 9:0.65942758 10:2.8724233 
0.098047872512376649 1:6124 2:151.21928 3:52.586536 4:0.93758722 5:6271 6:88.302429 7:0.47487593 8:340.497 9:0.66377129 10:2.8756274 
0.10141501231440035 1:5936 2:152.60157 3:50.463236 4:0.94374076 5:6057 6:86.936471 7:0.68687804 8:338.009 9:0.65290084 10:3.0240147 
0.10098794837468583 1:5857 2:151.27315 3:50.642417 4:0.94229821 5:6052 6:86.356031 7:0.51269258 8:338.177 9:0.64357172 10:2.9870839 
0.092831225542034532 1:5270 2:128.17843 3:53.193683 4:0.90982271 5:5379 6:81.914421 7:0.52531898 8:297.276 9:0.74937773 10:2.4096551 
0.10091934765177581 1:6200 2:164.68285 3:48.25369 4:0.95610944 5:6331 6:88.848664 7:0.61143984 8:355.046 9:0.61806237 10:3.4128551 
0.10163926921200801 1:5678 2:167.87421 3:43.83884 4:0.96530066 5:5878 6:85.026197 7:0.79168991 8:356.633 9:0.56099914 10:3.8293487 
0.087070179365039246 1:5936 2:149.64966 3:51.267067 4:0.93948845 5:6102 6:86.936471 7:0.47381865 8:332.095 9:0.67636182 10:2.9190212 
0.10123273821864891 1:5610 2:142.99617 3:50.951704 4:0.93436583 5:5767 6:84.515524 7:0.61648352 8:324.861 9:0.66800171 10:2.8065042 
0.10164042603964245 1:5841 2:162.23456 3:47.63487 4:0.95592306 5:6077 6:86.237997 7:0.41745283 8:356.987 9:0.57595993 10:3.4057942 
0.10163533019411521 1:5350 2:124.82358 3:55.739784 4:0.89475943 5:5474 6:82.533821 7:0.60451977 8:294.808 9:0.77354417 10:2.2393984 
0.10178511997673648 1:6909 2:164.07298 3:54.619302 4:0.94296341 5:7073 6:93.791322 7:0.78511364 8:366.128 9:0.64767804 10:3.0039376 
0.10099920496475766 1:5600 2:143.96791 3:50.580514 4:0.93625099 5:5749 6:84.440165 7:0.56899004 8:319.593 9:0.68897486 10:2.8463117 
0.10080544839682637 1:6415 2:147.78502 3:56.520997 4:0.92397446 5:6583 6:90.376057 7:0.51542664 8:342.041 9:0.68904913 10:2.6146924 
0.10176151842482148 1:5695 2:141.99654 3:52.219822 4:0.92992304 5:5868 6:85.153386 7:0.65429688 8:332.419 9:0.64763739 10:2.7192078 
0.095296230827854211 1:6521 2:158.05504 3:53.457033 4:0.94106785 5:6664 6:91.119674 7:0.50530802 8:354.52 9:0.65199247 10:2.9566743 
0.10162445113030547 1:6105 2:162.88838 3:48.911605 4:0.9538521 5:6271 6:88.165341 7:0.61542339 8:358.471 9:0.59701807 10:3.3302603 
0.10165804613983703 1:3764 2:115.8439 3:42.125844 4:0.93153832 5:3868 6:69.227694 7:0.49010417 8:262.153 9:0.6882557 10:2.7499485 
0.1016580550911875 1:5807 2:156.44577 3:49.240253 4:0.94917684 5:6121 6:85.986639 7:0.62040598 8:345.833 9:0.61013906 10:3.1771925 
0.10176986243740929 1:5720 2:150.77742 3:48.688131 4:0.94642833 5:5816 6:85.340086 7:0.8106576 8:330.26 9:0.65901294 10:3.0968004 
0.10166378929090944 1:5643 2:157.47379 3:46.517638 4:0.9553739 5:5815 6:84.763735 7:0.74781341 8:341.664 9:0.6074653 10:3.385249 
0.09915055405230952 1:6476 2:161.53705 3:51.841957 4:0.94710319 5:6595 6:90.804732 7:0.72365627 8:354.823 9:0.64638784 10:3.115952 
0.10161865011245945 1:5212 2:139.83086 3:48.373295 4:0.93825609 5:5353 6:81.462412 7:0.58509205 8:312.761 9:0.66955936 10:2.8906624 
0.1016089619601412 1:6565 2:160.66413 3:52.961318 4:0.94410672 5:6794 6:91.426569 7:0.64590712 8:360.363 9:0.63527857 10:3.0336128 
0.1016145591402286 1:5804 2:139.74457 3:53.547083 4:0.92367441 5:5962 6:85.964425 7:0.73043041 8:330.939 9:0.66594961 10:2.6097513 
0.10166235273332119 1:4268 2:141.20471 3:38.819456 4:0.9614682 5:4383 6:73.716934 7:0.69229521 8:303.101 9:0.58379388 10:3.6374725 
0.10129047265793986 1:6093 2:148.47885 3:53.112116 4:0.93383338 5:6276 6:88.07865 7:0.51474191 8:337.493 9:0.67222011 10:2.795574 
0.10163942473913695 1:6706 2:165.22689 3:52.1952 4:0.94879244 5:6829 6:92.403162 7:0.79080189 8:360.528 9:0.64832895 10:3.1655572 
0.10104057574654557 1:6329 2:150.54492 3:54.63538 4:0.93182129 5:6512 6:89.768219 7:0.52514106 8:344.43 9:0.67041391 10:2.7554475 
0.10176986764228839 1:6630 2:151.61977 3:56.597748 4:0.92771575 5:6790 6:91.878061 7:0.65320197 8:345.503 9:0.69794266 10:2.6789011 
0.10131420087603264 1:6004 2:145.26614 3:53.669013 4:0.92924942 5:6175 6:87.433004 7:0.54148629 8:328.319 9:0.6999363 10:2.7067042 
0.10163284238434697 1:5824 2:154.6938 3:48.869715 4:0.94878831 5:6000 6:86.11241 7:0.64282561 8:344.784 9:0.61565445 10:3.1654329 
0.10160745776661648 1:6389 2:155.91918 3:53.984341 4:0.93814861 5:6630 6:90.192724 7:0.62563651 8:349.15 9:0.65859535 10:2.8882297 
0.10167104512661559 1:6889 2:152.45186 3:59.442684 4:0.92085247 5:7152 6:93.655471 7:0.66049856 8:355.187 9:0.68620191 10:2.5646867 
0.10111120030432355 1:4880 2:129.02142 3:49.234777 4:0.92432691 5:5003 6:78.82518 7:0.75343523 8:294.211 9:0.70845435 10:2.6205342 
0.10130177255227531 1:5835 2:152.7118 3:49.814204 4:0.94530165 5:6059 6:86.193693 7:0.71201952 8:344.692 9:0.61714657 10:3.0656277 
0.10130893745075628 1:5747 2:143.84728 3:52.294149 4:0.93157884 5:5954 6:85.541263 7:0.49288165 8:325.46 9:0.68179815 10:2.7507337 
0.10172340808917681 1:5681 2:163.10925 3:45.437255 4:0.96041609 5:5838 6:85.048656 7:0.53312688 8:352.011 9:0.57613225 10:3.5897691 
0.096868222311156604 1:6738 2:163.28593 3:53.57615 4:0.94463866 5:6962 6:92.623367 7:0.45818033 8:367.722 9:0.62618353 10:3.0477354 
0.1016607790197612 1:6270 2:150.86913 3:53.51335 4:0.93497999 5:6402 6:89.348822 7:0.52777778 8:341.213 9:0.67674689 10:2.8192802 
0.1015545869151315 1:5759 2:147.57633 3:50.504346 4:0.93961794 5:5901 6:85.630523 7:0.47204918 8:328.902 9:0.66899661 10:2.922052 
0.10040708103571744 1:5211 2:137.69633 3:49.212615 4:0.93395156 5:5369 6:81.454596 7:0.56207529 8:316.111 9:0.65531743 10:2.7979884 
0.097803503361898247 1:5750 2:150.2011 3:49.463192 4:0.94422078 5:5920 6:85.563587 7:0.51699335 8:334.96 9:0.64400882 10:3.0366237 
0.10164058438480393 1:5614 2:137.25037 3:53.083851 4:0.92217766 5:5725 6:84.545649 7:0.52723516 8:316.188 9:0.70565351 10:2.5855391 
0.099860411689654371 1:6241 2:158.24528 3:51.250948 4:0.94610149 5:6389 6:89.141954 7:0.73208211 8:350.241 9:0.63933735 10:3.0876557 
0.10167977635356046 1:5310 2:139.77182 3:49.533835 4:0.93509744 5:5508 6:82.224704 7:0.70471135 8:333.098 9:0.60139572 10:2.8217445 
0.10167357773434829 1:3503 2:98.372477 3:46.837917 4:0.87937584 5:3592 6:66.784415 7:0.51469292 8:240.295 9:0.76236076 10:2.1002744 
0.10167804914352598 1:6004 2:169.1001 3:46.074336 4:0.96216489 5:6272 6:87.433004 7:0.61390593 8:369.808 9:0.5516936 10:3.6701581 
0.10086514032538574 1:6912 2:163.40869 3:54.8567 4:0.94196807 5:7061 6:93.811682 7:0.68605459 8:362.927 9:0.65943962 10:2.9788283 
0.10164059198482311 1:6055 2:147.15598 3:54.076524 4:0.93003237 5:6314 6:87.803562 7:0.49934026 8:343.513 9:0.64481875 10:2.7212543 
0.10115115449722595 1:4996 2:148.15274 3:43.656153 4:0.9555991 5:5141 6:79.756534 7:0.58501171 8:322.512 9:0.60358792 10:3.3936278 
0.075235724084179473 1:5982 2:148.27181 3:52.461482 4:0.93531366 5:6133 6:87.27267 7:0.51308002 8:333.811 9:0.67461343 10:2.8262986 
0.10161751921733655 1:6951 2:168.28745 3:53.421678 4:0.94827734 5:7084 6:94.07597 7:0.46864887 8:369.558 9:0.63957567 10:3.1501715 
0.10085320888815999 1:6719 2:169.19591 3:51.693585 4:0.95218405 5:6902 6:92.492683 7:0.80467066 8:369.402 9:0.61875115 10:3.2730544 
0.088379812854605222 1:6310 2:150.39816 3:54.44947 4:0.93216432 5:6452 6:89.633373 7:0.50560897 8:340.114 9:0.68547277 10:2.7621603 
0.10174211568500538 1:7113 2:164.07063 3:56.442253 4:0.93896528 5:7290 6:95.165923 7:0.47821702 8:367.285 9:0.66260741 10:2.906876 
0.10164299664984783 1:4753 2:122.93562 3:49.83166 4:0.91416263 5:4839 6:77.792722 7:0.53888889 8:282.175 9:0.75013704 10:2.4670184 
0.10179798501253734 1:6026 2:157.50416 3:49.85369 4:0.94858483 5:6179 6:87.593045 7:0.52200277 8:348.729 9:0.62267705 10:3.1593281 
0.10168366007039123 1:4581 2:133.90782 3:44.42452 4:0.94336576 5:4690 6:76.372183 7:0.76554144 8:298.685 9:0.64527276 10:3.0142772 
0.059355170003264401 1:6247 2:161.62065 3:50.165106 4:0.95060997 5:6387 6:89.184794 7:0.46274074 8:353.298 9:0.62892522 10:3.2217744 
0.10168633815094721 1:6150 2:152.80935 3:52.652759 4:0.93876245 5:6419 6:88.489678 7:0.59766764 8:352.897 9:0.62056753 10:2.9022098 
0.10179833169916941 1:6130 2:153.32916 3:51.715495 4:0.9414029 5:6295 6:88.345676 7:0.46779609 8:341.001 9:0.66245904 10:2.9648593 
0.078883036148305871 1:6329 2:161.13114 3:50.840768 4:0.94891754 5:6503 6:89.768219 7:0.52150626 8:358.571 9:0.61857823 10:3.1693294 
0.10143260272589938 1:7210 2:161.95947 3:57.962787 4:0.93376586 5:7421 6:95.812615 7:0.57468516 8:365.832 9:0.67698921 10:2.7941974 
0.10052476140152292 1:6441 2:153.40545 3:54.7796 4:0.93406986 5:6627 6:90.559019 7:0.69722884 8:347.446 9:0.67048417 10:2.8004119 
0.10174732262827073 1:5764 2:146.04033 3:50.9119 4:0.93726589 5:5923 6:85.667688 7:0.58828332 8:331.577 9:0.65881737 10:2.8684911 
0.1016072476332332 1:6288 2:153.24713 3:52.734004 4:0.93892902 5:6490 6:89.476982 7:0.70810811 8:354.054 9:0.63035236 10:2.90604 
0.094276036624805049 1:6691 2:158.74635 3:54.904441 4:0.93828513 5:6879 6:92.299761 7:0.52515501 8:353.659 9:0.67225101 10:2.8913207 
0.10164049794666956 1:6000 2:160.05637 3:48.343944 4:0.95329423 5:6230 6:87.403874 7:0.51020408 8:353.815 9:0.60229413 10:3.3107843 
0.10055247394825037 1:5496 2:139.46138 3:51.570948 4:0.92911672 5:5671 6:83.652403 7:0.63099885 8:320.072 9:0.67415727 10:2.7042625 
0.10167812898582415 1:5544 2:156.15238 3:45.624619 4:0.95636331 5:5666 6:84.016903 7:0.68444444 8:336.438 9:0.61549283 10:3.4225465 
0.10111012937356126 1:5248 2:134.20268 3:50.393505 4:0.92682118 5:5347 6:81.743264 7:0.5368798 8:304.71 9:0.71028113 10:2.6630947 
0.10158707912734011 1:6560 2:160.38843 3:53.217903 4:0.94334751 5:6715 6:91.391747 7:0.75091575 8:356.228 9:0.64961732 10:3.0138059 
0.10161766623924628 1:7103 2:166.15123 3:55.157431 4:0.9432895 5:7296 6:95.099004 7:0.51056642 8:369.216 9:0.65477283 10:3.012309 
0.10164420409034024 1:5051 2:150.17015 3:43.532844 4:0.95705993 5:5204 6:80.194345 7:0.74115921 8:326.496 9:0.59543108 10:3.4495827 
0.10110661706456883 1:6058 2:156.65819 3:49.775555 4:0.94818006 5:6180 6:87.82531 7:0.73806043 8:343.484 9:0.64524717 10:3.1472917 
0.10170513162444285 1:5056 2:116.38951 3:56.201425 4:0.87569006 5:5197 6:80.234027 7:0.72643678 8:283.873 9:0.78844019 10:2.0709353 
0.10174020126371494 1:4934 2:131.49489 3:48.1605 4:0.930515 5:5035 6:79.260103 7:0.79070513 8:295.592 9:0.70961642 10:2.7303472 
0.10154341288107885 1:5731 2:154.80992 3:48.331743 4:0.95001622 5:5870 6:85.422104 7:0.45394059 8:338.273 9:0.62936937 10:3.2030693 
0.10173491439072613 1:6045 2:158.03098 3:49.684361 4:0.94929181 5:6264 6:87.731027 7:0.46162657 8:351.353 9:0.61534523 10:3.1806986 
0.10127879618153256 1:6446 2:162.09719 3:51.370251 4:0.94845555 5:6649 6:90.594162 7:0.45813788 8:369.432 9:0.59351424 10:3.1554682 
0.10175075290510457 1:3862 2:120.68172 3:41.055998 4:0.94035287 5:3966 6:70.123114 7:0.54857955 8:268.161 9:0.67488675 10:2.9394418 
0.10164042237633911 1:6010 2:154.93406 3:50.640913 4:0.94507463 5:6201 6:87.476681 7:0.57583597 8:344.378 9:0.63681537 10:3.0594643 
0.10111830823522588 1:6903 2:159.48451 3:55.760763 4:0.93688741 5:7022 6:93.750587 7:0.83490566 8:355.112 9:0.6878869 10:2.8601565 
0.099179361069408528 1:5902 2:146.65715 3:52.788923 4:0.93297243 5:6078 6:86.687137 7:0.52602496 8:331.643 9:0.67432211 10:2.7781803 
0.10160732432753039 1:6362 2:159.73541 3:52.032526 4:0.94545871 5:6589 6:90.001944 7:0.78427022 8:357.858 9:0.6242838 10:3.0699146 
0.10178963075871321 1:6664 2:166.3171 3:52.03734 4:0.94979257 5:6794 6:92.113345 7:0.77614722 8:363.134 9:0.63505454 10:3.1961106 
0.085905804487510173 1:6670 2:159.24105 3:54.755118 4:0.9390244 5:6917 6:92.154803 7:0.59692142 8:363.326 9:0.6349547 10:2.9082406 
0.10165345717843302 1:5266 2:131.92776 3:51.863522 4:0.91948692 5:5340 6:81.883328 7:0.88474462 8:301.074 9:0.73003589 10:2.5437486 
0.10167677852250009 1:6115 2:143.28075 3:55.756078 4:0.9211792 5:6285 6:88.237519 7:0.5157726 8:331.539 9:0.69909642 10:2.5697782 
0.096157944409459739 1:6115 2:153.42315 3:52.137304 4:0.94048802 5:6278 6:88.237519 7:0.66029586 8:343.394 9:0.65165978 10:2.9426751 
0.10160583082678344 1:5951 2:152.85854 3:50.663462 4:0.94347623 5:6118 6:87.046244 7:0.48846754 8:338.451 9:0.65284219 10:3.0171357 
0.10101855725953181 1:4990 2:138.07399 3:47.303119 4:0.93948409 5:5142 6:79.708628 7:0.53311966 8:312.969 9:0.64018835 10:2.9189193 
0.10178225891197346 1:3571 2:104.32764 3:44.802734 4:0.90309414 5:3688 6:67.429507 7:0.5466932 8:249.248 9:0.72233116 10:2.3285997 
0.10121183327597724 1:6405 2:162.50178 3:51.186184 4:0.9490955 5:6579 6:90.305588 7:0.52226027 8:357.686 9:0.62910786 10:3.1747195 
0.10130891754492494 1:5977 2:150.94603 3:51.174871 4:0.94077642 5:6140 6:87.236189 7:0.72116313 8:338.283 9:0.65634589 10:2.9496123 
0.098948981900661426 1:6256 2:156.0636 3:51.931215 4:0.9430127 5:6396 6:89.249015 7:0.59929112 8:345.246 9:0.65955238 10:3.0051983 
0.087667772586939655 1:6397 2:158.58049 3:52.649383 4:0.94327792 5:6621 6:90.249174 7:0.65934859 8:354.856 9:0.63838388 10:3.0120104 
0.10160686740372327 1:5754 2:141.92878 3:52.608829 4:0.92876439 5:5899 6:85.593343 7:0.52490421 8:320.621 9:0.70338936 10:2.697813 
0.10105779131601796 1:5763 2:157.92293 3:47.084884 4:0.95451871 5:5876 6:85.660256 7:0.81352343 8:341.879 9:0.61960317 10:3.3540049 
0.10129873878224908 1:5690 2:142.57015 3:51.838421 4:0.93155541 5:5817 6:85.115997 7:0.5526418 8:321.132 9:0.6933539 10:2.7502795 
0.10083274065706002 1:6376 2:150.18826 3:55.124255 4:0.93020738 5:6598 6:90.100918 7:0.61496914 8:345.544 9:0.67104471 10:2.7245405 
0.10176709609331303 1:6653 2:163.05508 3:53.04143 4:0.94561168 5:6897 6:92.03729 7:0.69913829 8:366.103 9:0.62376473 10:3.0741079 
0.10119290478331786 1:6555 2:154.64408 3:54.764634 4:0.93519492 5:6694 6:91.356911 7:0.49542741 8:349.776 9:0.67329059 10:2.8237947 
0.10172200329696821 1:6153 2:146.06052 3:54.191464 4:0.92862463 5:6297 6:88.511259 7:0.66068936 8:330.476 9:0.70797338 10:2.695268 
0.1008452155087835 1:7014 2:156.30595 3:58.117426 4:0.9283055 5:7205 6:94.501334 7:0.56637597 8:356.561 9:0.69327884 10:2.6894851 
0.10082994004129818 1:6541 2:152.62345 3:55.856779 4:0.93062362 5:6720 6:91.2593 7:0.72677778 8:345.982 9:0.68666831 10:2.732407 
0.10099109601443226 1:7063 2:156.9836 3:58.552843 4:0.92783656 5:7285 6:94.830854 7:0.79943407 8:362.381 9:0.67587788 10:2.6810585 
0.10084526374642128 1:5554 2:140.09731 3:51.796968 4:0.92914268 5:5707 6:84.092642 7:0.61113556 8:319.029 9:0.68573358 10:2.7047397 
0.10149443189482819 1:6609 2:158.6466 3:53.910613 4:0.94049203 5:6801 6:91.732438 7:0.69218685 8:353.888 9:0.66315331 10:2.9427712 
0.10125196525298019 1:7120 2:169.15655 3:54.263244 4:0.94715132 5:7356 6:95.212738 7:0.46903821 8:382.391 9:0.61189166 10:3.1173321 
0.10119869716055646 1:6010 2:149.00609 3:52.298262 4:0.93638269 5:6158 6:87.476681 7:0.73007775 8:336.157 9:0.66834394 10:2.8491595 
0.090884475817876204 1:6105 2:153.0919 3:52.529326 4:0.93929054 5:6316 6:88.165341 7:0.61492748 8:346.106 9:0.64043827 10:2.9144083 
0.10130191301316872 1:5079 2:140.69267 3:46.954753 4:0.94266521 5:5248 6:80.416315 7:0.47171914 8:317.446 9:0.63335668 10:2.9963456 
0.10107799700107221 1:5675 2:147.06809 3:50.737164 4:0.938606 5:5901 6:85.003732 7:0.4961098 8:327.799 9:0.66368268 10:2.8986266 
0.10125283022541663 1:5502 2:134.34596 3:52.704753 4:0.91983468 5:5593 6:83.698052 7:0.54367589 8:305.19 9:0.74231776 10:2.5490293 
0.10125208540267952 1:6797 2:159.08823 3:56.01997 4:0.93595055 5:7063 6:93.028002 7:0.61300505 8:363.16 9:0.6476362 10:2.8398485 
0.10082087906990653 1:5515 2:140.14806 3:50.970144 4:0.93152089 5:5670 6:83.796874 7:0.5274988 8:317.395 9:0.68794738 10:2.7496108 
0.10165445790227257 1:5908 2:142.09548 3:54.152897 4:0.92453293 5:6106 6:86.731189 7:0.5743171 8:321.612 9:0.71777092 10:2.6239682 
0.10156075665101136 1:5985 2:149.16495 3:52.6243 4:0.93570152 5:6178 6:87.294551 7:0.55125725 8:337.184 9:0.66151562 10:2.834526 
0.10136943695470955 1:6462 2:158.35647 3:53.273576 4:0.94171364 5:6613 6:90.706526 7:0.57201027 8:351.598 9:0.65687695 10:2.9725143 
0.10119427485197433 1:5993 2:144.18648 3:54.085117 4:0.9269822 5:6143 6:87.352874 7:0.50934897 8:329.472 9:0.69377256 10:2.6659179 
0.098751171917646569 1:5986 2:154.39358 3:50.334242 4:0.94536545 5:6130 6:87.301844 7:0.80902825 8:341.193 9:0.64616935 10:3.0673667 
0.10170961504362475 1:6241 2:168.95552 3:47.773652 4:0.95919106 5:6402 6:89.141954 7:0.69221384 8:362.282 9:0.59754489 10:3.5365836 
0.10164420409034024 1:6275 2:145.31513 3:55.984796 4:0.92280609 5:6477 6:89.38444 7:0.53825699 8:338.401 9:0.68858938 10:2.5956178 
0.10125902457329669 1:6029 2:155.57075 3:50.418025 4:0.94602824 5:6210 6:87.614846 7:0.47690239 8:343.778 9:0.64106045 10:3.0856178 
0.099990889542699357 1:6295 2:156.40482 3:52.143267 4:0.94279022 5:6460 6:89.526772 7:0.54530492 8:348.853 9:0.65001095 10:2.999521 
0.10171601750253588 1:6328 2:155.63371 3:52.393277 4:0.94163172 5:6431 6:89.761127 7:0.47030844 8:342.939 9:0.67614927 10:2.9704901 
0.09615069511640631 1:5775 2:147.40661 3:50.720779 4:0.93893757 5:5932 6:85.749393 7:0.57703837 8:329.203 9:0.66962905 10:2.9062371 
0.1011291947849053 1:6654 2:151.71207 3:56.960195 4:0.92684292 5:6827 6:92.044206 7:0.52767645 8:345.324 9:0.70119552 10:2.6634752 
0.10129389136745273 1:6696 2:157.59126 3:54.772524 4:0.9376575 5:6871 6:92.334241 7:0.74966413 8:354.947 9:0.66787977 10:2.8771956 
0.095906166506493556 1:6112 2:150.42299 3:52.868317 4:0.93620127 5:6265 6:88.215872 7:0.51249371 8:337.384 9:0.6747521 10:2.8452388 
0.10174818612382985 1:5878 2:149.56894 3:51.425329 4:0.93903426 5:6059 6:86.510705 7:0.67100457 8:336.422 9:0.65263546 10:2.9084684 
0.10160767653864076 1:5776 2:143.843 3:52.314554 4:0.93151924 5:5907 6:85.756817 7:0.53946017 8:323.944 9:0.69166718 10:2.749579 
0.1013017038153784 1:5742 2:143.47003 3:51.906173 4:0.93225921 5:5874 6:85.504044 7:0.51963801 8:322.341 9:0.69445155 10:2.7640264 
0.10104848322137927 1:6638 2:164.90069 3:51.928861 4:0.94912157 5:6792 6:91.933476 7:0.59931383 8:361.274 9:0.63910718 10:3.1755114 
0.10130168716858844 1:6086 2:153.24395 3:51.476365 4:0.94189365 5:6219 6:88.02804 7:0.48141117 8:341.323 9:0.65646368 10:2.9769769 
0.10165671065128895 1:6429 2:153.25173 3:54.483204 4:0.93467079 5:6566 6:90.474621 7:0.82423077 8:342.533 9:0.68857056 10:2.8128252 
0.10086584860955525 1:7026 2:160.35749 3:56.74456 4:0.93529732 5:7199 6:94.582139 7:0.78345227 8:357.774 9:0.68976389 10:2.8259535 
0.10160568800167882 1:7012 2:164.50897 3:55.12173 4:0.94219386 5:7188 6:94.48786 7:0.55890324 8:366.08 9:0.65750607 10:2.9844667 
0.10084567168311405 1:6338 2:168.34238 3:49.674637 4:0.95547224 5:6575 6:89.832022 7:0.50785256 8:365.385 9:0.59656898 10:3.3889 
0.10130778040580783 1:6830 2:161.58722 3:54.999397 4:0.94029169 5:7076 6:93.253558 7:0.67791563 8:371.33 9:0.62245863 10:2.9379817 
0.10131215246192724 1:5324 2:129.03762 3:53.80877 4:0.9089062 5:5458 6:82.333027 7:0.58338812 8:300.837 9:0.73923992 10:2.3980779 
0.097291045989132657 1:5550 2:140.01119 3:51.160136 4:0.93085046 5:5679 6:84.062355 7:0.82222222 8:314.033 9:0.70721631 10:2.7367243 
0.10169713069913837 1:5440 2:146.37721 3:48.230093 4:0.94415843 5:5598 6:83.225135 7:0.70944184 8:328.309 9:0.63422475 10:3.0349768 
0.10136996499412344 1:6197 2:156.3482 3:51.323239 4:0.94458657 5:6365 6:88.827166 7:0.75925018 8:346.486 9:0.64866427 10:3.0463432 
0.10080345004275607 1:4823 2:123.49622 3:50.350786 4:0.91311096 5:4942 6:78.363476 7:0.64409722 8:288.779 9:0.72676819 10:2.4527168 
0.10083821747576245 1:5650 2:143.98095 3:51.089419 4:0.93492911 5:5798 6:84.816292 7:0.7507308 8:324.612 9:0.67379715 10:2.8182147 
0.10164038257566414 1:6776 2:155.93543 3:56.205074 4:0.93278313 5:6957 6:92.884181 7:0.80955795 8:351.291 9:0.6900002 10:2.7744013 
0.10174186133416466 1:6713 2:168.64299 3:51.625131 4:0.95199267 5:6859 6:92.451377 7:0.59565217 8:368.204 9:0.62222794 10:3.2666841 
0.10175074182395377 1:6204 2:143.43757 3:56.19448 4:0.92006336 5:6376 6:88.877321 7:0.60704501 8:335.365 9:0.69318025 10:2.5525207 
0.10165732588620841 1:5253 2:158.52047 3:43.11885 4:0.96229496 5:5396 6:81.782194 7:0.40345622 8:339.587 9:0.57242047 10:3.6763612 
0.1010525225422295 1:5919 2:142.58767 3:53.63257 4:0.92656386 5:6080 6:86.811894 7:0.59691408 8:327.185 9:0.6948186 10:2.6586022 
0.10137324311278498 1:6197 2:151.28728 3:52.76771 4:0.93720036 5:6362 6:88.827166 7:0.68181318 8:341.814 9:0.66651767 10:2.8670427 
0.10022779029485365 1:5708 2:150.06421 3:49.455575 4:0.94413367 5:5855 6:85.250521 7:0.48067368 8:333.539 9:0.64476371 10:3.0343235 
0.10083360633791627 1:5625 2:144.14454 3:50.406289 4:0.93686447 5:5760 6:84.628438 7:0.57503578 8:323.744 9:0.67441766 10:2.8596539 
0.10172210544024468 1:6901 2:163.8679 3:54.397438 4:0.94329379 5:7084 6:93.737005 7:0.56380719 8:365.856 9:0.64789037 10:3.0124194 
0.10174263860119115 1:6309 2:153.36868 3:53.634308 4:0.93685862 5:6493 6:89.62627 7:0.59206081 8:344.734 9:0.66711722 10:2.8595256 
0.10130816592057765 1:6133 2:164.5079 3:48.248159 4:0.9560242 5:6297 6:88.367291 7:0.54515556 8:355.634 9:0.60936328 10:3.4096203 
0.071349929368561354 1:6523 2:163.18478 3:51.980869 4:0.94790945 5:6691 6:91.133647 7:0.45336391 8:361.85 9:0.62603713 10:3.1393239 
0.1013128506364617 1:5489 2:141.03616 3:50.358025 4:0.93408239 5:5753 6:83.599114 7:0.56535174 8:324.638 9:0.65449207 10:2.800669 
0.10174187055336903 1:5108 2:143.38767 3:46.466004 4:0.94603702 5:5264 6:80.645568 7:0.49049357 8:315.84 9:0.64346731 10:3.0858619 
0.10170708582085536 1:6271 2:151.73366 3:53.822853 4:0.93497286 5:6414 6:89.355947 7:0.7305452 8:341.657 9:0.67509675 10:2.8191308 
0.10091530195446756 1:6876 2:163.33424 3:55.131349 4:0.94131226 5:7084 6:93.567062 7:0.61612903 8:367.675 9:0.63917169 10:2.9626381 
0.1009845391961523 1:6208 2:159.75712 3:50.754891 4:0.94819117 5:6416 6:88.905968 7:0.4978348 8:351.988 9:0.62965964 10:3.1476203 
0.10131244259230379 1:6332 2:160.8424 3:51.736016 4:0.9468564 5:6527 6:89.789492 7:0.47749039 8:358.597 9:0.61878171 10:3.1089058 
0.10111013267804164 1:6210 2:149.15808 3:53.890448 4:0.93245058 5:6348 6:88.920288 7:0.66918103 8:338.209 9:0.68223052 10:2.7678019 
0.10164059198482009 1:7203 2:166.48908 3:55.800108 4:0.94216202 5:7341 6:95.766092 7:0.48235452 8:368.765 9:0.66561621 10:2.9836695 
0.10073621157286669 1:5841 2:155.56643 3:48.541742 4:0.95007151 5:6040 6:86.237997 7:0.65777027 8:343.865 9:0.62075628 10:3.204797 
0.09168948598668672 1:6407 2:153.09264 3:54.16324 4:0.93532342 5:6558 6:90.319686 7:0.4894576 8:346.682 9:0.6698877 10:2.8265045 
0.10172296665172537 1:4701 2:128.06267 3:47.722289 4:0.9279728 5:4862 6:77.366007 7:0.61163154 8:293.459 9:0.6859702 10:2.6834981 
0.10160611451471546 1:6709 2:150.20489 3:58.179736 4:0.92193869 5:6933 6:92.423829 7:0.52108738 8:348.162 9:0.69551247 10:2.581739 
0.10155336926216002 1:6174 2:150.7478 3:53.182021 4:0.93570326 5:6331 6:88.662173 7:0.66074486 8:339.002 9:0.675106 10:2.8345631 
0.098984403465754406 1:6134 2:158.02479 3:50.621894 4:0.94730214 5:6354 6:88.374495 7:0.73285544 8:351.861 9:0.62260323 10:3.1216688 
0.10166085741438113 1:5917 2:148.66872 3:52.093644 4:0.93659984 5:6133 6:86.797226 7:0.63760776 8:339.647 9:0.64454889 10:2.8538745 
0.10173853909417724 1:5822 2:151.88054 3:50.45195 4:0.94321538 5:6038 6:86.097623 7:0.72358936 8:340.143 9:0.63235214 10:3.0103997 
0.10166198462793344 1:7187 2:165.61528 3:56.184514 4:0.94069727 5:7410 6:95.659671 7:0.65808992 8:374.82 9:0.64285348 10:2.9477033 
0.10172547310802615 1:5803 2:148.54477 3:50.918289 4:0.93941543 5:5955 6:85.957019 7:0.56416488 8:333.413 9:0.65599024 10:2.9173167 
0.099916485756905843 1:5802 2:149.06 3:50.227686 4:0.94151793 5:5976 6:85.949612 7:0.71453202 8:331.286 9:0.66432626 10:2.9676859 
0.10126829611491488 1:4893 2:134.84659 3:46.506912 4:0.938644 5:5001 6:78.930103 7:0.5038616 8:300.227 9:0.68215896 10:2.8994956 
0.10179072357738711 1:6875 2:146.37178 3:60.713944 4:0.90991595 5:7035 6:93.560258 7:0.56186662 8:340.726 9:0.74416976 10:2.410843 
0.10162930730307956 1:5903 2:143.94266 3:52.46142 4:0.93121883 5:6032 6:86.694481 7:0.68631554 8:325.166 9:0.70157223 10:2.7437812 
0.10086005297142128 1:6222 2:150.18977 3:53.827483 4:0.93356948 5:6373 6:89.00616 7:0.49185771 8:344.036 9:0.66059015 10:2.7902061 
0.10167098070965266 1:5369 2:127.2988 3:54.433454 4:0.90396624 5:5576 6:82.680246 7:0.6162764 8:310.778 9:0.69855842 10:2.3386133 
0.10179948698249716 1:6876 2:157.00591 3:56.789641 4:0.93229305 5:7079 6:93.567062 7:0.64709204 8:358.148 9:0.67362884 10:2.7646928 
0.10116561012709518 1:6014 2:145.09445 3:53.491615 4:0.92956132 5:6150 6:87.505786 7:0.50716816 8:329.182 9:0.69743081 10:2.712471 
0.10124222974391307 1:7122 2:166.86552 3:55.392408 4:0.94329403 5:7336 6:95.22611 7:0.81918565 8:367.757 9:0.66174389 10:3.0124258 
0.1012803945424116 1:6574 2:159.46936 3:53.54284 4:0.94194889 5:6711 6:91.489217 7:0.46544888 8:357.616 9:0.64596008 10:2.9783507 
0.10137805479041857 1:6205 2:154.49925 3:51.675626 4:0.9424058 5:6384 6:88.884483 7:0.48212898 8:345.639 9:0.65268881 10:2.9897896 
0.1009723120403674 1:5833 2:155.70753 3:49.419959 4:0.94829521 5:6049 6:86.17892 7:0.74267889 8:354.434 9:0.58348687 10:3.1507014 
0.097680818237882175 1:6115 2:146.45507 3:54.495185 4:0.92819469 5:6263 6:88.237519 7:0.50205255 8:334.552 9:0.6865609 10:2.6874865 
0.10160791814156754 1:6778 2:156.57221 3:56.515214 4:0.932584 5:6991 6:92.897888 7:0.4885045 8:355.367 9:0.67446161 10:2.7704436 
0.10085947909734991 1:6587 2:157.57624 3:54.226 4:0.93892367 5:6757 6:91.579631 7:0.60990741 8:351.846 9:0.6686399 10:2.9059167 
0.10171600090151267 1:6001 2:162.29244 3:48.019426 4:0.95522447 5:6184 6:87.411158 7:0.42620739 8:355.451 9:0.59686211 10:3.3797248 
0.1016703947796874 1:5910 2:139.3679 3:54.711671 4:0.91972209 5:6032 6:86.745869 7:0.80803938 8:322.685 9:0.71324673 10:2.5473158 
0.10088710688641761 1:6402 2:147.70117 3:56.082636 4:0.92510828 5:6526 6:90.284437 7:0.49914237 8:335.105 9:0.71641343 10:2.6336345 
0.095105328948117906 1:6217 2:153.03418 3:52.478968 4:0.93936345 5:6336 6:88.97039 7:0.72918133 8:339.134 9:0.67927881 10:2.9161051 
0.10162680768753229 1:5307 2:143.65871 3:48.412456 4:0.94150597 5:5491 6:82.201474 7:0.72381342 8:323.728 9:0.63635348 10:2.9673916 
0.10088283727692468 1:6081 2:153.99606 3:51.129952 4:0.94327193 5:6275 6:87.991873 7:0.46426935 8:353.298 9:0.61221295 10:3.0118561 
0.10018668126697611 1:6152 2:150.8585 3:53.019059 4:0.93620705 5:6298 6:88.504066 7:0.51584773 8:338.219 9:0.67581868 10:2.8453636 
0.10111513458776548 1:5259 2:141.90524 3:48.051642 4:0.940924 5:5383 6:81.828887 7:0.52568972 8:315.59 9:0.66353917 10:2.9531818 
0.10147223203050837 1:6661 2:164.38497 3:52.517667 4:0.9475931 5:6834 6:92.092609 7:0.832625 8:359.718 9:0.64688184 10:3.1300889 
0.099589645870978821 1:6473 2:158.37178 3:52.799066 4:0.94279013 5:6594 6:90.783697 7:0.55112814 8:350.4 9:0.66250213 10:2.9995187 
0.10166502618523304 1:3636 2:124.82987 3:39.418307 4:0.94883369 5:3901 6:68.040422 7:0.52241379 8:273.743 9:0.60974422 10:3.1667994 
0.098537041006929782 1:5691 2:148.0302 3:49.488627 4:0.94246161 5:5834 6:85.123476 7:0.46249492 8:336.553 9:0.63138101 10:2.9911964 
0.1013094273623851 1:5919 2:144.97826 3:52.72102 4:0.93153653 5:6049 6:86.811894 7:0.79599247 8:328.185 9:0.69059074 10:2.7499138 
0.10168851219938455 1:5343 2:144.62795 3:47.44882 4:0.94465167 5:5488 6:82.479809 7:0.53882614 8:321.107 9:0.65117166 10:3.0480832 
0.10167977635356046 1:5019 2:141.3146 3:46.309985 4:0.94477891 5:5166 6:79.93991 7:0.53150482 8:313.722 9:0.64082155 10:3.0514931 
0.10165214414119554 1:5896 2:127.014 3:59.843292 4:0.88205038 5:6092 6:86.643063 7:0.61035197 8:309.264 9:0.77465549 10:2.1224433 
0.10163314426947266 1:6626 2:164.28523 3:52.552596 4:0.94745593 5:6811 6:91.850341 7:0.46303284 8:362.238 9:0.63456086 10:3.1261105 
0.10122342044577376 1:6207 2:162.61266 3:49.641688 4:0.95226402 5:6389 6:88.898807 7:0.54807947 8:358.562 9:0.60668476 10:3.2757279 
0.10164856222759946 1:4623 2:149.26347 3:41.103002 4:0.9613377 5:4839 6:76.721486 7:0.39563543 8:321.343 9:0.56259526 10:3.6314492 
0.10094891837228456 1:5956 2:143.79273 3:53.9397 4:0.92697578 5:6122 6:87.082804 7:0.71414868 8:328.549 9:0.69336873 10:2.6658051 
0.094607076487244299 1:6610 2:159.41597 3:54.032947 4:0.94080687 5:6791 6:91.739378 7:0.47315676 8:364.306 9:0.62586213 10:2.9503475 
0.10077281363950558 1:5948 2:143.35957 3:53.913077 4:0.9265917 5:6089 6:87.0243 7:0.50707587 8:328.447 9:0.69286755 10:2.6590872 
0.10173047105764886 1:5485 2:142.65863 3:50.080451 4:0.93635635 5:5636 6:83.568648 7:0.65157995 8:321.759 9:0.66577133 10:2.8485891 
0.10130183766659628 1:6565 2:166.05923 3:51.874221 4:0.94995597 5:6769 6:91.426569 7:0.47162356 8:367.081 9:0.61223871 10:3.20119 
0.10137724193884276 1:6094 2:149.59781 3:52.741418 4:0.93579119 5:6224 6:88.085877 7:0.77828863 8:332.444 9:0.69290759 10:2.836439 
0.10151913956226902 1:6182 2:150.5368 3:53.54411 4:0.93460481 5:6357 6:88.719597 7:0.62634245 8:339.036 9:0.6758452 10:2.811454 
0.10101748754552339 1:5626 2:139.52659 3:51.865699 4:0.92834239 5:5841 6:84.63596 7:0.50412186 8:335.599 9:0.62772334 10:2.6901516 
0.10168097434698835 1:4622 2:124.99189 3:48.268764 4:0.92242547 5:4772 6:76.713188 7:0.54077454 8:287.117 9:0.7045665 10:2.5894984 
0.099632881988068134 1:6589 2:157.91157 3:54.174234 4:0.93931097 5:6808 6:91.593533 7:0.55976553 8:356.172 9:0.6526943 10:2.9148833 
0.10083957662116441 1:6570 2:157.09408 3:54.217155 4:0.93855658 5:6744 6:91.461379 7:0.54315476 8:352.74 9:0.66353802 10:2.8974976 
0.10164072191317167 1:5664 2:139.85013 3:52.920592 4:0.92563836 5:5790 6:84.921309 7:0.51500273 8:319.035 9:0.6992886 10:2.642641 
0.10080344839460283 1:6265 2:154.92023 3:52.731009 4:0.94028969 5:6425 6:89.313189 7:0.48192308 8:347.154 9:0.65326079 10:2.9379341 
0.10083709388209654 1:5566 2:150.99694 3:47.528748 4:0.9491692 5:5703 6:84.183438 7:0.48505447 8:329.652 9:0.64363794 10:3.1769601 
0.10163654021585186 1:5226 2:139.85144 3:47.992796 4:0.93927337 5:5308 6:81.571747 7:0.47857143 8:311.056 9:0.6787379 10:2.914009 
0.10097941058968428 1:6048 2:143.22651 3:55.12966 4:0.9229531 5:6229 6:87.752793 7:0.50973451 8:332.473 9:0.68755728 10:2.5979936 
0.098837149045071598 1:6019 2:145.91184 3:53.410877 4:0.93059559 5:6170 6:87.542155 7:0.50767544 8:333.36 9:0.68062396 10:2.731875 
0.10168095732427135 1:5964 2:159.63127 3:48.828291 4:0.95206951 5:6204 6:87.141268 7:0.63285229 8:360.447 9:0.57685235 10:3.2692373 
0.10111011765590641 1:6558 2:155.88128 3:54.657226 4:0.93651269 5:6755 6:91.377814 7:0.70729077 8:350.208 9:0.67193792 10:2.8519793 
0.10163471075650221 1:5389 2:140.63214 3:49.807788 4:0.93518078 5:5558 6:82.834099 7:0.55505201 8:316.798 9:0.67476599 10:2.8234969 
0.10176294923252024 1:5813 2:147.47959 3:51.279026 4:0.9376049 5:5983 6:86.031049 7:0.79088435 8:333.122 9:0.65826923 10:2.8760216 
0.10130257981619753 1:5976 2:147.57148 3:52.910289 4:0.93351434 5:6165 6:87.228892 7:0.48680352 8:333.567 9:0.6749231 10:2.7890885 
0.10125489161511858 1:4793 2:132.53827 3:46.816107 4:0.93553761 5:4930 6:78.119377 7:0.56842979 8:302.837 9:0.656749 10:2.8310399 
0.10162080316138514 1:6263 2:146.41791 3:55.667229 4:0.92490671 5:6502 6:89.298932 7:0.50402382 8:348.36 9:0.64853842 10:2.6302353 
0.10160787608212966 1:6599 2:163.1286 3:52.338381 4:0.94713299 5:6774 6:91.663012 7:0.47223415 8:362.609 9:0.63068258 10:3.1168065 
0.09794447341304971 1:6146 2:153.31606 3:52.060409 4:0.94058344 5:6314 6:88.460897 7:0.52395567 8:344.925 9:0.64916198 10:2.9449646 
0.10167618155362382 1:5713 2:157.20321 3:46.882668 4:0.95449413 5:5854 6:85.287851 7:0.7944653 8:341.598 9:0.61523842 10:3.35312 
0.10122169126156665 1:6230 2:158.48989 3:50.979146 4:0.94685676 5:6357 6:89.063362 7:0.48429726 8:347.135 9:0.6496824 10:3.1089161 
0.10143978594977016 1:6418 2:157.25789 3:52.737426 4:0.94209136 5:6536 6:90.397187 7:0.47358323 8:348.412 9:0.66439043 10:2.9819029 
0.10168366007039123 1:6339 2:154.75727 3:53.979401 4:0.93719702 5:6586 6:89.839109 7:0.50405534 8:345.596 9:0.66694988 10:2.866969 
0.10131206861342956 1:6136 2:155.72463 3:51.076718 4:0.94467986 5:6265 6:88.388901 7:0.45685355 8:346.559 9:0.64200861 10:3.0488378 
0.1017096150644209 1:6730 2:169.5447 3:51.309561 4:0.95310765 5:6863 6:92.568365 7:0.7891651 8:367.351 9:0.62670401 10:3.3043491 
0.10090443430520932 1:6562 2:166.55133 3:51.189627 4:0.95159639 5:6735 6:91.405678 7:0.73697215 8:362.737 9:0.62670387 10:3.2536148 
0.10169291933887023 1:6759 2:165.17811 3:52.848815 4:0.94743427 5:6900 6:92.767592 7:0.58973912 8:363.978 9:0.64112401 10:3.1254837 
0.10160893914333555 1:5569 2:148.50197 3:49.030154 4:0.94392323 5:5746 6:84.206122 7:0.45206591 8:337.337 9:0.61497736 10:3.0287886 
0.10143931770209166 1:7216 2:165.12142 3:56.219136 4:0.94025484 5:7422 6:95.852473 7:0.49686704 8:369.325 9:0.66479688 10:2.9371035 
0.075444972041847649 1:5860 2:152.8888 3:49.755167 4:0.94556486 5:6012 6:86.378144 7:0.53919764 8:341.443 9:0.63164208 10:3.0728225 
0.10178690527535003 1:5401 2:146.49917 3:47.728368 4:0.94544121 5:5522 6:82.926273 7:0.47881206 8:319.895 9:0.6632376 10:3.069436 
0.098855710939829117 1:6482 2:152.48286 3:55.433281 4:0.93157946 5:6673 6:90.846787 7:0.50755618 8:348.111 9:0.67217661 10:2.7507458 
0.10164526142530995 1:6730 2:159.6922 3:54.507577 4:0.9399439 5:6862 6:92.568365 7:0.56459732 8:354.055 9:0.67465767 10:2.9297249 
0.10160788647843634 1:5401 2:139.62129 3:50.400194 4:0.93257439 5:5623 6:82.926273 7:0.51438095 8:319.636 9:0.66431287 10:2.770253 
0.10175167854090582 1:5982 2:151.37141 3:51.689494 4:0.939891 5:6192 6:87.27267 7:0.63154561 8:340.077 9:0.64998263 10:2.9284754 
0.10175093928846554 1:6429 2:152.24205 3:54.851638 4:0.93283946 5:6589 6:90.474621 7:0.48616152 8:344.401 9:0.68112133 10:2.7755242 
0.10161336818926418 1:6964 2:158.22784 3:57.111235 4:0.93258787 5:7123 6:94.163901 7:0.77146339 8:360 9:0.67524849 10:2.7705203 
0.10084562294146245 1:6419 2:161.27349 3:51.766563 4:0.94708387 5:6612 6:90.404229 7:0.55566136 8:358.372 9:0.62807152 10:3.1153988 
0.10159193930913044 1:5699 2:143.80418 3:52.181873 4:0.93184072 5:5931 6:85.183286 7:0.52188645 8:332.611 9:0.64734427 10:2.7558263 
0.10161994955253399 1:6353 2:157.15513 3:52.494602 4:0.94256227 5:6511 6:89.938261 7:0.78316075 8:349.827 9:0.6523521 10:2.9937388 
0.10171322012883299 1:5785 2:147.49456 3:50.520123 4:0.93950983 5:5935 6:85.823603 7:0.6999395 8:331.609 9:0.66109003 10:2.9195211 
0.10083278207595105 1:6173 2:147.99314 3:54.286812 4:0.93029202 5:6339 6:88.654993 7:0.74176881 8:337.439 9:0.68126424 10:2.7261342 
0.10163478756594177 1:6574 2:157.38337 3:54.246176 4:0.93872193 5:6735 6:91.489217 7:0.75563218 8:350.811 9:0.67126369 10:2.9012803 
0.10110527819893267 1:5847 2:142.37116 3:53.683769 4:0.92618512 5:5960 6:86.282279 7:0.60603234 8:323.901 9:0.70035524 10:2.6520336 
0.10059262939072219 1:6280 2:157.76778 3:51.924275 4:0.94428868 5:6445 6:89.420044 7:0.46363972 8:350.42 9:0.64267549 10:3.0384206 
0.080229690695001771 1:6449 2:160.13394 3:52.693842 4:0.94430865 5:6612 6:90.615241 7:0.73820971 8:354.93 9:0.64330485 10:3.0389497 
0.10101578279302915 1:6320 2:160.39466 3:51.159855 4:0.94776739 5:6460 6:89.70437 7:0.45188045 8:352.522 9:0.63907892 10:3.1351664 
0.10105307010125847 1:5349 2:141.63331 3:49.49259 4:0.9369581 5:5499 6:82.526107 7:0.4830233 8:320.903 9:0.652732 10:2.8617074 
0.10131202686635099 1:5876 2:137.62659 3:55.322178 4:0.91565151 5:6038 6:86.495986 7:0.5641321 8:320.545 9:0.71864372 10:2.4877291 
0.099003484708070383 1:4653 2:128.88825 3:47.169983 4:0.93062436 5:4760 6:76.970018 7:0.76744186 8:293.657 9:0.67805075 10:2.732421 
0.098952284660573625 1:5610 2:155.55313 3:46.961265 4:0.95334005 5:5795 6:84.515524 7:0.58553387 8:335.892 9:0.62484659 10:3.3123709 
0.10173853909192673 1:4181 2:101.11052 3:53.534449 4:0.848332 5:4281 6:72.961733 7:0.6422427 8:251.05 9:0.83362279 10:1.8887002 
0.10160235142383001 1:6021 2:145.69859 3:53.717402 4:0.92955299 5:6186 6:87.556698 7:0.57816401 8:329.037 9:0.69885812 10:2.7123164 
0.10160714772878615 1:5767 2:148.50207 3:50.533759 4:0.94032056 5:5941 6:85.689979 7:0.4784304 8:334.121 9:0.64916078 10:2.9386705 
0.10056777734488986 1:5298 2:134.23273 3:51.367419 4:0.92388331 5:5457 6:82.131742 7:0.65230239 8:307.981 9:0.70189794 10:2.6131881 
0.097549510068654838 1:6087 2:157.97595 3:49.725322 4:0.94916959 5:6295 6:88.035272 7:0.54956663 8:350.705 9:0.62191245 10:3.1769719 
0.10174370639017938 1:5390 2:140.87037 3:49.251771 4:0.93688981 5:5524 6:82.841784 7:0.60487038 8:320.809 9:0.65812069 10:2.8602093 
0.10163222606233269 1:5720 2:154.92719 3:47.969368 4:0.95085867 5:5984 6:85.340086 7:0.67349582 8:347.545 9:0.59509158 10:3.2297108 
0.09957050855663116 1:6122 2:156.1013 3:50.45733 4:0.94631889 5:6264 6:88.288009 7:0.7458577 8:344.866 9:0.64684828 10:3.0937289 
0.10129147638416749 1:6094 2:154.55969 3:51.482184 4:0.94289528 5:6272 6:88.085877 7:0.54207436 8:348.696 9:0.62982281 10:3.0021977 
0.10160445543601823 1:6330 2:157.67744 3:52.003898 4:0.94404666 5:6513 6:89.77531 7:0.6716893 8:352.027 9:0.6418915 10:3.0320312 
0.10157271807671318 1:5087 2:135.66197 3:48.696713 4:0.93335439 5:5229 6:80.479622 7:0.52551653 8:303.492 9:0.69402818 10:2.7858548 
0.10160787817645095 1:5116 2:118.23619 3:56.146712 4:0.88005644 5:5248 6:80.708695 7:0.58804598 8:288.913 9:0.77020482 10:2.1058435 
0.10175051236279462 1:6093 2:145.19304 3:53.979192 4:0.92832273 5:6206 6:88.07865 7:0.58949303 8:328.269 9:0.71052816 10:2.6897964 
0.10178612350813643 1:6535 2:167.40667 3:50.580947 4:0.95326224 5:6688 6:91.217435 7:0.50658915 8:363.921 9:0.62007072 10:3.3096784 
0.095653021225144186 1:5864 2:151.60586 3:50.283721 4:0.94339406 5:6035 6:86.407619 7:0.53115942 8:338.772 9:0.64207951 10:3.0150087 
0.10160755365178251 1:6243 2:161.12111 3:50.236198 4:0.95015053 5:6365 6:89.156236 7:0.44497505 8:351.523 9:0.63488594 10:3.2072711 
0.10163926921200318 1:5809 2:144.94808 3:52.137644 4:0.93306849 5:6023 6:86.001445 7:0.6149042 8:335.132 9:0.64994925 10:2.7801041 
0.10094563329042633 1:6999 2:164.75252 3:55.119698 4:0.94237424 5:7187 6:94.400231 7:0.53468296 8:367.304 9:0.65192036 10:2.9889953 
0.1017723367541398 1:6722 2:169.50957 3:51.211177 4:0.95327187 5:6844 6:92.51333 7:0.47465047 8:366.744 9:0.62803282 10:3.3100112 
0.096407026719403113 1:6194 2:149.65214 3:53.289202 4:0.93445275 5:6329 6:88.805663 7:0.52527137 8:340.055 9:0.67310487 10:2.8083014 
0.10087410393793614 1:6090 2:147.44366 3:53.803368 4:0.93104359 5:6300 6:88.056964 7:0.6007102 8:335.505 9:0.67987514 10:2.7404169 
0.10160709403724161 1:5664 2:144.80333 3:51.023291 4:0.93586353 5:5846 6:84.921309 7:0.76706392 8:327.953 9:0.66177429 10:2.837985 
0.10131111337919929 1:6352 2:156.17408 3:52.536032 4:0.94172132 5:6603 6:89.931183 7:0.53057133 8:357.356 9:0.62505495 10:2.9727042 
0.10160096039661584 1:5934 2:155.38192 3:50.043959 4:0.94671563 5:6105 6:86.921824 7:0.45283883 8:343.962 9:0.63028428 10:3.1049087 
0.10125506655217775 1:6840 2:159.1756 3:55.607342 4:0.93699384 5:7009 6:93.321801 7:0.6686217 8:362.464 9:0.65423867 10:2.8624926 
0.10130023203923139 1:4916 2:131.41361 3:48.424861 4:0.92963093 5:5034 6:79.115394 7:0.51048806 8:300.8 9:0.68275686 10:2.7137633 
0.10105950391671845 1:6271 2:157.30668 3:52.595317 4:0.94244936 5:6527 6:89.355947 7:0.68311547 8:354.929 9:0.6255524 10:2.9908875 
0.10175410083847766 1:5366 2:139.45891 3:49.913407 4:0.933757 5:5491 6:82.657144 7:0.50399173 8:316.553 9:0.67292655 10:2.794017 
0.10128610875618055 1:6901 2:167.31798 3:53.379622 4:0.94774428 5:7092 6:93.737005 7:0.57151139 8:369.718 9:0.6344256 10:3.1344916 
0.10101718933852211 1:5681 2:144.6832 3:51.420532 4:0.93471399 5:5913 6:85.048656 7:0.61442786 8:324.645 9:0.67735637 10:2.8137243 
0.10132531914599271 1:5755 2:163.85951 3:44.965868 4:0.96161073 5:5876 6:85.60078 7:0.78684714 8:349.752 9:0.59120048 10:3.6440865 
0.1017607630000617 1:6428 2:149.31376 3:55.971413 4:0.92708236 5:6607 6:90.467584 7:0.64305722 8:342.278 9:0.68948967 10:2.6676789 
0.060546975360919228 1:6320 2:153.88808 3:53.057128 4:0.93868448 5:6498 6:89.70437 7:0.56957462 8:350.325 9:0.64711979 10:2.9004223 
0.075445272560060617 1:6032 2:149.67238 3:52.339945 4:0.93686295 5:6180 6:87.636641 7:0.4904065 8:338.113 9:0.6630518 10:2.8596205 
0.10163581161611915 1:3937 2:102.4749 3:51.070676 4:0.86696298 5:4133 6:70.800735 7:0.66279461 8:256.524 9:0.75182934 10:2.0065311 
0.10085834156450893 1:5681 2:155.05013 3:47.698723 4:0.9515047 5:5865 6:85.048656 7:0.7900153 8:344.592 9:0.60120734 10:3.2506139 
0.10175057244914165 1:5074 2:145.8961 3:45.041327 4:0.95115233 5:5210 6:80.376722 7:0.5941452 8:321.287 9:0.61769491 10:3.2391607 
0.080622838076102515 1:5775 2:144.31221 3:51.888331 4:0.93312348 5:5928 6:85.749393 7:0.49613402 8:327.413 9:0.67697092 10:2.7812073 
0.10166034339662311 1:5353 2:140.20077 3:49.240763 4:0.93629444 5:5478 6:82.556958 7:0.73188406 8:314.754 9:0.6789919 10:2.8472502 
0.098611669426935902 1:5737 2:150.94071 3:48.808428 4:0.94627548 5:5881 6:85.466808 7:0.54307081 8:336.225 9:0.63772686 10:3.0925133 
0.10175216824357231 1:5539 2:143.05288 3:50.329881 4:0.936065 5:5653 6:83.979008 7:0.52131765 8:319.694 9:0.68103943 10:2.8423051 
0.097583397069472416 1:6110 2:153.49701 3:51.769414 4:0.94140918 5:6286 6:88.201438 7:0.73086124 8:345.378 9:0.64366773 10:2.9650134 
0.10130527515128727 1:5815 2:153.72926 3:49.738537 4:0.94621233 5:5990 6:86.045848 7:0.55317732 8:342.08 9:0.62445941 10:3.0907476 
0.10163654021618862 1:6645 2:164.54299 3:52.099393 4:0.94854883 5:6752 6:91.981937 7:0.4618432 8:360.488 9:0.64257411 10:3.1582516 
0.1013789187754506 1:6118 2:143.97692 3:54.953537 4:0.92429331 5:6300 6:88.259161 7:0.67230769 8:335.091 9:0.68468972 10:2.6199755 
0.094614950873995393 1:5259 2:138.66161 3:49.3077 4:0.93463925 5:5388 6:81.828887 7:0.7189337 8:310.602 9:0.68502203 10:2.8121694 
0.10172702497456526 1:4355 2:132.47834 3:42.146261 4:0.94804475 5:4453 6:74.464476 7:0.60068966 8:290.126 9:0.6501667 10:3.1432999 
0.10174860836990476 1:4533 2:151.65881 3:39.707711 4:0.96511601 5:4709 6:75.971013 7:0.78155172 8:318.971 9:0.55987772 10:3.8193794 
0.095864065721679687 1:6322 2:161.19962 3:50.771514 4:0.94910478 5:6491 6:89.718562 7:0.57352808 8:354.931 9:0.63063271 10:3.1750013 
0.10175357743804524 1:4553 2:137.08662 3:42.729024 4:0.95018266 5:4657 6:76.138424 7:0.51301408 8:299.969 9:0.63585013 10:3.2082788 
0.10117958270253187 1:5665 2:150.97608 3:48.464431 4:0.9470767 5:5823 6:84.928806 7:0.55829309 8:336.67 9:0.62805972 10:3.1151934 
0.09496484491646312 1:5382 2:136.79836 3:50.853357 4:0.92833708 5:5533 6:82.780283 7:0.50749646 8:314.478 9:0.68386916 10:2.6900557 
0.10160686143125322 1:5450 2:141.20914 3:49.868768 4:0.93556468 5:5586 6:83.301594 7:0.75884155 8:313.778 9:0.6956029 10:2.8316147 
0.10154084475894765 1:6401 2:155.91573 3:53.253765 4:0.93986187 5:6585 6:90.277385 7:0.6047808 8:350.233 9:0.65575795 10:2.927788 
0.089016097109031148 1:5893 2:152.60026 3:49.525087 4:0.94587153 5:6045 6:86.621017 7:0.60571487 8:342.162 9:0.63253237 10:3.081272 
0.10161973381615275 1:5843 2:150.49659 3:51.470955 4:0.93969724 5:6099 6:86.25276 7:0.58000794 8:338.292 9:0.64159696 10:2.9239129 
0.1009919974914163 1:6493 2:163.07799 3:51.779459 4:0.94825376 5:6644 6:90.923838 7:0.65034054 8:359.653 9:0.63079449 10:3.1494726 
0.098995616852982998 1:6052 2:154.43884 3:50.571756 4:0.94486681 5:6195 6:87.781807 7:0.60885312 8:339.705 9:0.65902958 10:3.0538556 
0.10155443824834799 1:6454 2:157.8717 3:53.128855 4:0.94167208 5:6634 6:90.650361 7:0.54829666 8:352.74 9:0.65182258 10:2.9714869 
0.068176067623587258 1:6273 2:160.63316 3:50.542858 4:0.94920851 5:6435 6:89.370194 7:0.49288913 8:352.484 9:0.63446305 10:3.1781573 
0.098976844814032891 1:5891 2:146.81542 3:51.834325 4:0.93560153 5:6040 6:86.606317 7:0.55785985 8:330.766 9:0.67663922 10:2.8323977 
0.093750194448718835 1:6740 2:165.05749 3:53.100274 4:0.94683902 5:6966 6:92.637112 7:0.47278339 8:364.8 9:0.63644386 10:3.1084113 
0.10177767850801785 1:6555 2:163.20553 3:51.91043 4:0.94806796 5:6684 6:91.356911 7:0.4488189 8:361.777 9:0.6293622 10:3.1439834 
0.1016932301094939 1:6468 2:152.04426 3:55.560861 4:0.93084056 5:6649 6:90.748627 7:0.66338462 8:347.512 9:0.67303905 10:2.7365353 
0.10174778842346616 1:5764 2:146.31287 3:51.572186 4:0.93581979 5:5964 6:85.667688 7:0.55449735 8:329.211 9:0.66832108 10:2.8370499 
0.1012884395162134 1:5590 2:153.22996 3:47.057601 4:0.95167582 5:5702 6:84.364738 7:0.44791667 8:333.731 9:0.63070834 10:3.2562213 
0.079094057291291292 1:6326 2:159.9502 3:51.501396 4:0.94674513 5:6486 6:89.746941 7:0.54473435 8:354.278 9:0.63336007 10:3.1057449 
0.10116858073913176 1:5775 2:145.39002 3:51.644744 4:0.93478456 5:5947 6:85.749393 7:0.55970149 8:329.302 9:0.66922648 10:2.815195 
0.100836526596528 1:5543 2:152.36511 3:47.548072 4:0.95006021 5:5819 6:84.009326 7:0.48393574 8:354.502 9:0.55426488 10:3.2044435 
0.10147638719841728 1:6504 2:161.29628 3:51.854354 4:0.94691463 5:6628 6:91.000824 7:0.46683893 8:354.374 9:0.6508287 10:3.1105639 
0.092491676768373526 1:6111 2:155.43082 3:51.337137 4:0.94387974 5:6281 6:88.208655 7:0.5478752 8:343.626 9:0.65035445 10:3.0276487 
0.10131201302945296 1:5549 2:150.80187 3:47.574704 4:0.94893282 5:5753 6:84.054781 7:0.54686114 8:337.151 9:0.61344508 10:3.169791 
0.1016078191971338 1:5953 2:140.25107 3:55.153788 4:0.91943142 5:6105 6:87.06087 7:0.79309885 8:326.341 9:0.70242905 10:2.5429092 
0.10119414096210669 1:6118 2:158.94891 3:49.722472 4:0.94981228 5:6249 6:88.259161 7:0.47856696 8:348.98 9:0.63127452 10:3.1967219 
0.10174296646917363 1:6187 2:153.71928 3:52.11801 4:0.94076955 5:6325 6:88.755468 7:0.65194942 8:344.104 9:0.6566146 10:2.9494464 
0.10147596125061986 1:5859 2:157.88813 3:47.927347 4:0.95281469 5:6018 6:86.370773 7:0.68832237 8:346.221 9:0.61422367 10:3.2943224 
0.10155949583382524 1:5895 2:149.12296 3:51.73326 4:0.93789591 5:6083 6:86.635715 7:0.65895372 8:335.743 9:0.65717304 10:2.8825356 
0.1016407272809462 1:6495 2:148.00344 3:56.612324 4:0.92395267 5:6719 6:90.937841 7:0.63990148 8:351.376 9:0.66106601 10:2.6143325 
0.10172296665170083 1:5312 2:145.43072 3:47.112808 4:0.94607297 5:5448 6:82.240188 7:0.56199746 8:324.133 9:0.63536229 10:3.0868617 
0.09288902107502886 1:6220 2:153.58065 3:52.127099 4:0.94063785 5:6340 6:88.991853 7:0.47451938 8:340.589 9:0.67381242 10:2.9462727 
0.10166486690283097 1:5505 2:147.24623 3:48.417231 4:0.94439327 5:5647 6:83.720868 7:0.58814103 8:327.458 9:0.64514298 10:3.0411949 
0.10091862340029115 1:5890 2:140.95294 3:54.276765 4:0.92288731 5:6054 6:86.598966 7:0.72536946 8:322.379 9:0.71218311 10:2.5969295 
0.10163863381839848 1:4773 2:126.25976 3:49.554308 4:0.91976096 5:4948 6:77.956221 7:0.61810412 8:293.375 9:0.69687533 10:2.5479069 
0.077474931709845818 1:5825 2:149.9403 3:50.626621 4:0.94127346 5:5947 6:86.119802 7:0.47013721 8:334.875 9:0.65274017 10:2.9616889 
0.10116513965519167 1:5684 2:155.60135 3:47.746164 4:0.95175811 5:5856 6:85.071109 7:0.43858025 8:341.117 9:0.61384286 10:3.2589287 
0.10081106965854089 1:6360 2:158.45329 3:52.519913 4:0.94347152 5:6568 6:89.987796 7:0.58932543 8:355.204 9:0.63344846 10:3.0170135 
0.10165582183086427 1:5813 2:138.93783 3:54.000836 4:0.92137742 5:5919 6:86.031049 7:0.81243885 8:317.582 9:0.72426655 10:2.5728829 
0.10165228215095515 1:4071 2:120.8513 3:43.092754 4:0.93426606 5:4159 6:71.995543 7:0.51021431 8:270.859 9:0.69730764 10:2.8044459 
0.10091588559729697 1:5452 2:139.41364 3:50.618167 4:0.93175836 5:5572 6:83.316877 7:0.68960283 8:315.804 9:0.68695843 10:2.7542215 
0.10160696154218815 1:6626 2:155.51571 3:55.661247 4:0.93375456 5:6836 6:91.850341 7:0.70534384 8:357.048 9:0.65314271 10:2.7939673 
0.099713489526635335 1:5134 2:142.23621 3:46.782261 4:0.94436287 5:5262 6:80.850552 7:0.78024316 8:313.596 9:0.65603151 10:3.0403877 
0.10161642106722216 1:6258 2:165.33679 3:48.968562 4:0.9551338 5:6411 6:89.26328 7:0.47102213 8:361.996 9:0.60011969 10:3.3763864 
0.1016544449899508 1:7055 2:169.87624 3:53.967424 4:0.94819573 5:7283 6:94.777133 7:0.57246024 8:379.055 9:0.61702452 10:3.1477551 
0.10112876500677019 1:5872 2:144.46087 3:53.338771 4:0.92933946 5:6089 6:86.46654 7:0.5002982 8:332.762 9:0.66638998 10:2.7083651 
0.10155625179928199 1:5933 2:148.04486 3:51.713392 4:0.93700762 5:6057 6:86.914499 7:0.56569413 8:331.089 9:0.68013435 10:2.8627954 
0.10176986243844696 1:5690 2:155.47404 3:47.920701 4:0.95131408 5:5888 6:85.115997 7:0.43867088 8:345.444 9:0.59919313 10:3.2444024 
0.088801283787745086 1:6310 2:151.9282 3:53.72339 4:0.93539281 5:6456 6:89.633373 7:0.6860187 8:340.92 9:0.68223542 10:2.8279713 
0.1009438925465779 1:6349 2:139.97086 3:59.254473 4:0.90597353 5:6537 6:89.909943 7:0.78547569 8:334.743 9:0.71201998 10:2.3621991 
0.099562273685340041 1:6390 2:155.52362 3:53.178121 4:0.93972559 5:6553 6:90.199782 7:0.74241896 8:347.272 9:0.665842 10:2.9245792 
0.086333436204540884 1:6395 2:158.54288 3:52.903279 4:0.94268486 5:6617 6:90.235065 7:0.58391161 8:354.988 9:0.63770977 10:2.996844 
0.095214965180817013 1:6524 2:161.53105 3:52.109308 4:0.94653667 5:6662 6:91.140632 7:0.79406037 8:353.425 9:0.65634062 10:3.0998501 
0.10094669696516861 1:5818 2:139.58925 3:54.269273 4:0.92133133 5:5985 6:86.068041 7:0.73963895 8:321.469 9:0.70746569 10:2.5721599 
0.10086145800668846 1:6045 2:159.9261 3:48.302607 4:0.95329817 5:6391 6:87.731027 7:0.44665287 8:393.481 9:0.49063512 10:3.3109206 
0.098172460967514696 1:6151 2:153.08706 3:51.837548 4:0.94092507 5:6306 6:88.496872 7:0.48720792 8:343.002 9:0.65699534 10:2.9532079 
0.10131035974617453 1:5279 2:152.89498 3:44.224696 4:0.95725394 5:5393 6:81.984337 7:0.6051817 8:330.881 9:0.6059236 10:3.4572308 
0.10125373916890144 1:6181 2:148.35277 3:53.803806 4:0.93191577 5:6287 6:88.712421 7:0.79878522 8:333.585 9:0.69800025 10:2.7572913 
0.10164020424172032 1:6005 2:141.70758 3:54.914774 4:0.92186054 5:6164 6:87.440285 7:0.67899141 8:328.557 9:0.69903903 10:2.5805 
0.10091255231518709 1:5718 2:153.34979 3:48.955317 4:0.94767405 5:5943 6:85.325165 7:0.50065669 8:340.236 9:0.62071678 10:3.132444 
0.10101950183998021 1:5313 2:157.62044 3:43.986381 4:0.96027215 5:5538 6:82.247928 7:0.40186068 8:341.251 9:0.57332623 10:3.5833918 
0.1010816938750564 1:6346 2:149.24659 3:55.32888 4:0.92874419 5:6472 6:89.888699 7:0.50261365 8:340.531 9:0.6876962 10:2.6974446 
0.075092807077314416 1:5983 2:146.96723 3:53.079958 4:0.93250051 5:6135 6:87.279964 7:0.50669038 8:331.951 9:0.68230869 10:2.7687895 
0.086077785225497111 1:6673 2:160.40857 3:54.767293 4:0.93990948 5:6915 6:92.175525 7:0.52688512 8:361.556 9:0.64147516 10:2.9289118 
0.10160733091509069 1:6362 2:150.06 3:55.318116 4:0.92957224 5:6527 6:90.001944 7:0.50133964 8:341.405 9:0.68590469 10:2.7126737 
0.10080789026317503 1:5117 2:141.87085 3:46.87224 4:0.94384567 5:5260 6:80.716583 7:0.51001694 8:312.829 9:0.65706944 10:3.0267564 
0.10179072357785368 1:4276 2:126.96721 3:43.636117 4:0.93908675 5:4387 6:73.78599 7:0.46947738 8:284.639 9:0.66322174 10:2.9096817 
0.10133236409120541 1:5972 2:162.50049 3:47.5877 4:0.95615947 5:6125 6:87.199694 7:0.44021819 8:355.374 9:0.59423518 10:3.4147583 
0.10116667485754285 1:5694 2:159.40785 3:46.472507 4:0.95656104 5:5859 6:85.14591 7:0.43935185 8:346.184 9:0.59705363 10:3.4301538 
0.10173258293975859 1:3871 2:96.335494 3:52.31805 4:0.83967982 5:3964 6:70.204774 7:0.59325671 8:240.094 9:0.84386004 10:1.8413434 
0.066400916596046911 1:5865 2:146.98775 3:52.068633 4:0.93515534 5:5998 6:86.414987 7:0.7887305 8:329.871 9:0.6773133 10:2.8229616 
0.1011117299231272 1:6720 2:167.90327 3:51.978783 4:0.95087478 5:6926 6:92.499566 7:0.64615385 8:368.154 9:0.62304597 10:3.230227 
0.10106744969169637 1:6233 2:159.32883 3:51.235591 4:0.94688534 5:6429 6:89.084803 7:0.64927083 8:350.894 9:0.63614352 10:3.1097296 
0.099771171377868811 1:5701 2:149.24478 3:50.037629 4:0.94212129 5:5860 6:85.198231 7:0.58598006 8:333.974 9:0.64229655 10:2.9826508 
0.10165214414118774 1:6532 2:153.2287 3:55.671015 4:0.9316645 5:6674 6:91.196495 7:0.48987551 8:347.279 9:0.68061105 10:2.7523964 
0.10084700792663656 1:5183 2:138.48298 3:48.619799 4:0.93634223 5:5343 6:81.235464 7:0.53421975 8:314.541 9:0.65831924 10:2.8482836 
0.1003679968563525 1:6105 2:146.84329 3:54.33342 4:0.92902795 5:6287 6:88.165341 7:0.49731183 8:339.428 9:0.66588649 10:2.702633 
0.10153970569038565 1:6379 2:148.33643 3:56.095377 4:0.92573895 5:6529 6:90.122112 7:0.79439601 8:338.621 9:0.69909258 10:2.644361 
0.10170702721397118 1:5938 2:143.61526 3:52.92657 4:0.92961575 5:6034 6:86.951115 7:0.58745548 8:322.711 9:0.71651043 10:2.7134813 
0.10161771037917203 1:3860 2:102.19715 3:49.125116 4:0.87689078 5:3948 6:70.104954 7:0.61474757 8:245.889 9:0.80226707 10:2.0803443 
0.1016177170334415 1:5298 2:140.6334 3:48.936897 4:0.93750384 5:5394 6:82.131742 7:0.52125148 8:312.872 9:0.6801245 10:2.8737702 
0.10162216231888282 1:7453 2:153.58339 3:63.322854 4:0.91104689 5:7720 6:97.41383 7:0.5440146 8:366.62 9:0.69680086 10:2.4254022 
0.10139001673275083 1:5560 2:138.56802 3:52.580073 4:0.92521095 5:5687 6:84.138052 7:0.6898263 8:317.094 9:0.69487807 10:2.6353715 
0.10129652645448164 1:4607 2:105.40416 3:57.716115 4:0.83676013 5:4727 6:76.588606 7:0.59064103 8:268.84 9:0.80101436 10:1.8262518 
0.10110503491295053 1:6270 2:159.75665 3:50.578037 4:0.94856106 5:6400 6:89.348822 7:0.45189189 8:350.537 9:0.64122386 10:3.158617 
0.10160747364375351 1:5969 2:144.6945 3:53.666585 4:0.92867448 5:6143 6:87.177789 7:0.71246121 8:331.311 9:0.68334455 10:2.6961749 
0.10160587142567055 1:6485 2:151.72493 3:55.703449 4:0.93016788 5:6631 6:90.867808 7:0.55144558 8:342.51 9:0.69466166 10:2.7237977 
0.099067908640359789 1:4649 2:128.96778 3:46.680813 4:0.93219473 5:4761 6:76.936926 7:0.5022688 8:288.891 9:0.70000539 10:2.7627578 
0.10083572885409736 1:6233 2:158.73968 3:50.644543 4:0.94774075 5:6398 6:89.084803 7:0.73114369 8:349.397 9:0.64160634 10:3.1343887 
0.10160790952649333 1:6318 2:156.39515 3:52.779882 4:0.94133351 5:6647 6:89.690175 7:0.51374207 8:379.958 9:0.54994379 10:2.9631583 
0.10164067067988275 1:5580 2:127.10546 3:57.264375 4:0.89276307 5:5773 6:84.289244 7:0.66986795 8:311.868 9:0.7209455 10:2.2196254 
0.10164202406439317 1:4432 2:112.36705 3:51.294914 4:0.88972635 5:4550 6:75.119889 7:0.60119371 8:270.823 9:0.75934393 10:2.190608 
0.1017508255139859 1:7049 2:162.48669 3:56.644584 4:0.93726765 5:7235 6:94.736823 7:0.78270042 8:362.53 9:0.67398382 10:2.86853 
0.10125283931765654 1:4828 2:144.27015 3:43.068413 4:0.95440145 5:4934 6:78.404085 7:0.72853478 8:314.414 9:0.61372438 10:3.3497903 
0.08588590454616199 1:6555 2:163.11651 3:52.393675 4:0.94701003 5:6758 6:91.356911 7:0.6271527 8:362.729 9:0.62606295 10:3.1132863 
0.099043603378669881 1:6219 2:157.87386 3:51.317203 4:0.94569617 5:6343 6:88.984699 7:0.84051899 8:343.699 9:0.66156708 10:3.0764314 
0.10012710716211355 1:5870 2:148.41374 3:51.48063 4:0.93791233 5:5994 6:86.451814 7:0.75343345 8:331.344 9:0.67187695 10:2.8829044 
0.10175082317668568 1:7425 2:170.99685 3:55.820791 4:0.94521676 5:7579 6:97.230672 7:0.74909201 8:379.344 9:0.64839534 10:3.0633183 
0.1008179419235582 1:5138 2:137.36297 3:48.776266 4:0.93483198 5:5289 6:80.882042 7:0.677747 8:309.784 9:0.67280002 10:2.8161846 
0.10163774516851072 1:5406 2:160.59445 3:43.29209 4:0.96297967 5:5545 6:82.964649 7:0.79781582 8:341.796 9:0.58150299 10:3.7095564 
0.10143633702280755 1:5763 2:150.93911 3:49.577433 4:0.94451794 5:5950 6:85.660256 7:0.45738095 8:339.96 9:0.62661797 10:3.0445124 
0.10168612026784959 1:5150 2:139.00241 3:47.718432 4:0.93922869 5:5274 6:80.976439 7:0.55316864 8:311.836 9:0.66552533 10:2.9129711 
0.10175034861064133 1:5454 2:130.69999 3:54.374993 4:0.90935133 5:5624 6:83.332158 7:0.55426829 8:311.871 9:0.70465252 10:2.4036784 
0.10160749425926704 1:4755 2:133.39462 3:46.548713 4:0.9371395 5:4956 6:77.809087 7:0.53547297 8:298.786 9:0.66932939 10:2.8656994 
0.095941360599520714 1:6122 2:155.78405 3:50.943688 4:0.94501923 5:6270 6:88.288009 7:0.76496314 8:342.814 9:0.65461521 10:3.0579658 
0.079167190653690905 1:6331 2:162.2153 3:50.821597 4:0.94965514 5:6505 6:89.782401 7:0.45754137 8:356.615 9:0.62558016 10:3.1918577 
0.10136004750511984 1:6467 2:158.98768 3:52.614576 4:0.94365357 5:6618 6:90.741612 7:0.67731462 8:354.294 9:0.64741854 10:3.021742 
0.10111077822019049 1:7138 2:159.72213 3:57.755373 4:0.9323337 5:7290 6:95.333016 7:0.81113636 8:364.763 9:0.6741629 10:2.765494 
0.10167696684702532 1:6816 2:158.81974 3:55.658319 4:0.93658158 5:6964 6:93.157934 7:0.66380989 8:357.477 9:0.6702599 10:2.8534772 
0.10080866841310204 1:6312 2:152.45953 3:53.512436 4:0.93637757 5:6435 6:89.647577 7:0.81963381 8:342.558 9:0.67594074 10:2.8490486 
0.10152198544920021 1:6067 2:153.21489 3:51.411666 4:0.94202145 5:6302 6:87.890525 7:0.66751018 8:343.915 9:0.64458712 10:2.9801581 
0.1009672686186264 1:6322 2:164.16644 3:50.171736 4:0.95215515 5:6525 6:89.718562 7:0.56205548 8:359.512 9:0.61466371 10:3.27209 
0.10165446526163394 1:5618 2:137.73222 3:53.219995 4:0.9223305 5:5841 6:84.575763 7:0.59563189 8:326.259 9:0.66323372 10:2.5879788 
0.10130584168987419 1:6947 2:171.11742 3:52.928446 4:0.95096104 5:7199 6:94.048897 7:0.69748996 8:386.117 9:0.58555719 10:3.2329953 
0.10161536764879955 1:6164 2:146.60328 3:54.933766 4:0.92714193 5:6353 6:88.590341 7:0.50715814 8:337.518 9:0.67995256 10:2.6687281 
0.10160804465496348 1:4639 2:131.73684 3:46.30503 4:0.93618922 5:4781 6:76.854136 7:0.72825746 8:296.088 9:0.66495556 10:2.8449791 
0.10091011912910079 1:5691 2:149.66921 3:48.904637 4:0.94511029 5:5800 6:85.123476 7:0.46724138 8:330.151 9:0.6561048 10:3.0604298 
0.1017365637084011 1:5889 2:142.82721 3:53.459383 4:0.92731005 5:6066 6:86.591614 7:0.57633588 8:325.383 9:0.69897509 10:2.6716959 
0.098640322904969185 1:6201 2:152.03179 3:53.05423 4:0.93713464 5:6324 6:88.855829 7:0.48445312 8:341.034 9:0.67000221 10:2.8655923 
0.10091100239629378 1:6692 2:151.64464 3:57.111061 4:0.92637144 5:6876 6:92.306658 7:0.57471659 8:348.349 9:0.69300547 10:2.6552587 
0.101310965671692 1:6379 2:158.85423 3:52.870896 4:0.94298808 5:6613 6:90.122112 7:0.61224686 8:354.476 9:0.63795316 10:3.0045685 
0.10130044019262044 1:6078 2:147.60298 3:53.518413 4:0.93195127 5:6212 6:87.970165 7:0.62071078 8:335.083 9:0.68024564 10:2.7579851 
0.10098046240063865 1:5698 2:149.47887 3:49.907139 4:0.94261764 5:5879 6:85.175812 7:0.80753968 8:331.492 9:0.6516077 10:2.9951402 
0.096266425031427266 1:6399 2:154.87406 3:53.843881 4:0.93761979 5:6617 6:90.263281 7:0.67457305 8:352.979 9:0.64539298 10:2.8763539 
0.1016666666184827 1:6195 2:146.26601 3:54.805501 4:0.92714714 5:6317 6:88.812831 7:0.72711268 8:331.948 9:0.7064982 10:2.6688199 
0.10130598923892016 1:6754 2:153.39554 3:56.863769 4:0.92875255 5:6887 6:92.733273 7:0.83537415 8:346.378 9:0.70740857 10:2.6975971 
0.10086391754038959 1:6759 2:162.42966 3:54.284505 4:0.94250106 5:6946 6:92.767592 7:0.50459127 8:358.82 9:0.65968867 10:2.992192 
0.10164070076129803 1:6593 2:157.33898 3:53.972049 4:0.93932431 5:6739 6:91.621331 7:0.47823879 8:353.11 9:0.66446622 10:2.9151937 
0.10124941254244228 1:6356 2:148.92307 3:55.476904 4:0.92802394 5:6516 6:89.959494 7:0.50795173 8:340.975 9:0.68698725 10:2.6844156 
0.10160183394104982 1:6142 2:161.75347 3:49.368943 4:0.95228474 5:6278 6:88.432106 7:0.45284966 8:352.587 9:0.62085057 10:3.2764216 
0.10160738699984237 1:6729 2:153.57089 3:57.029393 4:0.92849076 5:6940 6:92.561487 7:0.64012557 8:353.285 9:0.67750109 10:2.6928375 
0.10169932468706118 1:5113 2:139.46901 3:48.145653 4:0.93852664 5:5271 6:80.685028 7:0.47290048 8:315.131 9:0.64699869 10:2.8968141 
0.10130801540909407 1:6649 2:148.93954 3:58.427419 4:0.91984181 5:6925 6:92.009618 7:0.53586396 8:354.337 9:0.66547721 10:2.5491378 
0.10160861989078548 1:4885 2:136.48981 3:46.677075 4:0.93970646 5:5022 6:78.865551 7:0.4744561 8:303.074 9:0.66830863 10:2.9241295 
0.10130703229801241 1:6587 2:145.46084 3:58.56613 4:0.91536513 5:6737 6:91.579631 7:0.53370604 8:338.46 9:0.72257483 10:2.4837024 
0.10167770629688454 1:6966 2:162.08573 3:55.614194 4:0.93929306 5:7178 6:94.177421 7:0.58755061 8:368.04 9:0.64625407 10:2.9144669 
0.10163610614615592 1:6571 2:154.10648 3:55.285087 4:0.93343521 5:6722 6:91.468339 7:0.72527594 8:347.032 9:0.68564969 10:2.7874874 
0.10130857425515018 1:5516 2:151.89132 3:48.58908 4:0.94745343 5:5818 6:83.804471 7:0.44541344 8:336.684 9:0.61148973 10:3.1260381 
0.10131043704918766 1:4388 2:106.44739 3:53.890151 4:0.86238037 5:4470 6:74.746071 7:0.57539995 8:263.299 9:0.79538622 10:1.9752661 
0.10080300121273825 1:5550 2:145.28551 3:49.628889 4:0.93984703 5:5682 6:84.062355 7:0.54625984 8:322.479 9:0.67065624 10:2.9274382 
0.1015959376116467 1:7121 2:167.05898 3:55.622827 4:0.94294334 5:7327 6:95.219424 7:0.46707333 8:370.801 9:0.65083224 10:3.0034249 
0.10130985362750186 1:4309 2:128.06898 3:43.41927 4:0.94077544 5:4509 6:74.070164 7:0.51592433 8:292.46 9:0.63307244 10:2.9495885 
0.10130127787128532 1:4770 2:134.24073 3:46.76856 4:0.93734847 5:4910 6:77.931718 7:0.48396916 8:302.304 9:0.65590427 10:2.8703198 
0.10129641843354217 1:3709 2:100.73572 3:47.6494 4:0.88105495 5:3788 6:68.720051 7:0.77270833 8:240.529 9:0.80562291 10:2.1141026 
0.10109542915134505 1:6400 2:143.23352 3:57.808928 4:0.9149359 5:6558 6:90.270333 7:0.52467618 8:336.418 9:0.71061012 10:2.4777058 
0.1016762164393305 1:4726 2:120.04379 3:50.745651 4:0.90625747 5:4809 6:77.571451 7:0.7610306 8:277.216 9:0.77279979 10:2.3655976 
0.099354917147937566 1:6135 2:156.49174 3:51.106429 4:0.94517098 5:6360 6:88.381698 7:0.45810932 8:352.075 9:0.62194797 10:3.0620754 
0.10167322870938514 1:5395 2:149.94025 3:46.869826 4:0.94988814 5:5517 6:82.880199 7:0.43915344 8:328.862 9:0.62686486 10:3.1990784 
0.10084349103170945 1:6354 2:157.2884 3:52.010286 4:0.94374705 5:6464 6:89.945339 7:0.83058824 8:345.378 9:0.6693723 10:3.0241788 
0.10172960489709043 1:5371 2:147.68527 3:47.381835 4:0.94713687 5:5536 6:82.695644 7:0.48654769 8:326.798 9:0.63198422 10:3.1169175 
0.10173190034108284 1:6115 2:156.49866 3:51.165602 4:0.94504525 5:6302 6:88.237519 7:0.71839756 8:345.676 9:0.64308424 10:3.0586694 
0.10123028469421724 1:5150 2:135.2529 3:48.896526 4:0.93236464 5:5267 6:80.976439 7:0.53312629 8:302.211 9:0.70859251 10:2.7661044 
0.101160632184937 1:6332 2:158.02282 3:51.907012 4:0.94451164 5:6479 6:89.789492 7:0.74389098 8:350.208 9:0.64878178 10:3.0443444 
0.10100869647438496 1:6272 2:156.88812 3:52.628726 4:0.94205664 5:6514 6:89.363071 7:0.57268079 8:350.664 9:0.64096387 10:2.981036 
0.10125196525253734 1:5865 2:152.81546 3:49.913173 4:0.94515441 5:6237 6:86.414987 7:0.67166743 8:349.737 9:0.60255226 10:3.0616257 
0.10084461707017478 1:6458 2:157.61185 3:54.014308 4:0.93944321 5:6654 6:90.678448 7:0.57404444 8:354.675 9:0.64512927 10:2.9179647 
0.097501429297708012 1:6603 2:164.16246 3:51.624455 4:0.94926683 5:6756 6:91.690789 7:0.49158725 8:360.888 9:0.63709805 10:3.1799359 
0.10116985225343636 1:6477 2:159.88401 3:52.598126 4:0.94433801 5:6640 6:90.811742 7:0.49571407 8:353.767 9:0.65035296 10:3.0397282 
0.10107370634474824 1:5787 2:147.6217 3:50.857295 4:0.93878229 5:5913 6:85.838437 7:0.50182102 8:328.802 9:0.67265821 10:2.9026651 
0.10125313241973079 1:6134 2:148.58756 3:53.162314 4:0.93380421 5:6223 6:88.374495 7:0.79817827 8:331.79 9:0.70020797 10:2.7949792 
0.080849090851239369 1:5854 2:153.24714 3:49.767924 4:0.94579784 5:6019 6:86.333912 7:0.64083196 8:339.829 9:0.63700334 10:3.0792352 
0.10154837555288053 1:6500 2:157.72948 3:53.764949 4:0.94011113 5:6692 6:90.972837 7:0.54880108 8:352.136 9:0.6587223 10:2.933686 
0.10162061107879203 1:6723 2:160.10212 3:54.021732 4:0.94135404 5:6857 6:92.520211 7:0.51517241 8:356.505 9:0.66472456 10:2.9636614 
0.10133074711502138 1:6973 2:166.08043 3:54.34867 4:0.9449402 5:7132 6:94.224728 7:0.45808698 8:368.286 9:0.64603956 10:3.0558325 
0.094704872751839572 1:5257 2:136.21 3:50.184169 4:0.92965456 5:5392 6:81.813326 7:0.73473096 8:309.957 9:0.68761437 10:2.7142025 
0.10122342341902041 1:5371 2:123.94353 3:56.235398 4:0.89114537 5:5531 6:82.695644 7:0.73414434 8:297.114 9:0.76457269 10:2.2040127 
0.10083487721979892 1:6047 2:161.8127 3:48.245859 4:0.95451632 5:6185 6:87.745538 7:0.54858024 8:351.623 9:0.61460386 10:3.353919 
0.10165412377299006 1:6562 2:165.6173 3:51.188184 4:0.95103763 5:6706 6:91.405678 7:0.51555625 8:359.34 9:0.63860889 10:3.2354595 
0.10085320814644408 1:6328 2:163.35557 3:50.361357 4:0.95129149 5:6507 6:89.761127 7:0.43641379 8:371.288 9:0.57683886 10:3.2436689 
0.10132636633079353 1:5603 2:137.66711 3:52.666293 4:0.92392956 5:5759 6:84.46278 7:0.54229578 8:314.12 9:0.71357448 10:2.613951 
0.09868672284125557 1:6095 2:161.21029 3:49.131243 4:0.9524276 5:6268 6:88.093104 7:0.44816176 8:353.174 9:0.61405338 10:3.2812175 
0.10170697895897572 1:6546 2:162.56156 3:52.315929 4:0.9468001 5:6691 6:91.294173 7:0.46281109 8:357.376 9:0.64407301 10:3.1073052 
0.10132986313305886 1:6611 2:155.75546 3:55.195903 4:0.93510324 5:6794 6:91.746317 7:0.59174723 8:351.888 9:0.67091594 10:2.8218663 
0.10125196525230201 1:6604 2:150.46241 3:57.335444 4:0.92454966 5:6815 6:91.697731 7:0.57823308 8:345.992 9:0.69324192 10:2.6242478 
0.10160752542965708 1:4752 2:137.57457 3:44.869663 4:0.94531874 5:4940 6:77.784538 7:0.47912886 8:308.034 9:0.62934529 10:3.0660933 
0.10160745359856518 1:6484 2:166.09018 3:50.397029 4:0.95285318 5:6646 6:90.860801 7:0.43920612 8:366.011 9:0.60822546 10:3.2956343 
0.10116874472269832 1:6997 2:169.02255 3:53.551644 4:0.94848189 5:7138 6:94.386742 7:0.45147761 8:372.397 9:0.63402939 10:3.1562533 
0.10178693770504826 1:5056 2:143.01544 3:45.879107 4:0.94714754 5:5175 6:80.234027 7:0.5 8:314.905 9:0.64070456 10:3.1172237 
0.10111485184941682 1:7275 2:163.37988 3:57.758032 4:0.93542702 5:7473 6:96.243533 7:0.4861668 8:374.04 9:0.65344158 10:2.8286953 
0.10165852054719128 1:7241 2:168.82366 3:55.405906 4:0.94461241 5:7428 6:96.018371 7:0.61229494 8:375.771 9:0.64440944 10:3.0470337 
0.10130871301926486 1:6407 2:153.04093 3:54.074825 4:0.93549659 5:6598 6:90.319686 7:0.68253968 8:353.873 9:0.64293894 10:2.8301697 
0.10104062302487801 1:4816 2:135.27832 3:45.89482 4:0.94069186 5:4959 6:78.306588 7:0.54603175 8:304.674 9:0.65196691 10:2.9475728 
0.10130375664920135 1:6864 2:150.24488 3:58.917955 4:0.91990291 5:7026 6:93.48538 7:0.52404947 8:347.172 9:0.71564519 10:2.5500694 
0.101456283449157 1:6220 2:159.01734 3:50.71301 4:0.94778333 5:6383 6:88.991853 7:0.47721344 8:350.617 9:0.63582018 10:3.135632 
0.10174053561844393 1:5131 2:130.41979 3:51.258342 4:0.91952744 5:5241 6:80.826927 7:0.81794994 8:301.033 9:0.71151435 10:2.5443622 
0.098376800727942693 1:6152 2:153.52313 3:51.974094 4:0.94095112 5:6315 6:88.504066 7:0.46744168 8:344.97 9:0.6496262 10:2.9538394 
0.10161614397007498 1:6294 2:166.00033 3:48.896841 4:0.95563339 5:6472 6:89.519661 7:0.43897336 8:364.992 9:0.59370391 10:3.3949091 
0.094134807361733963 1:6691 2:159.5254 3:54.842763 4:0.93904765 5:6882 6:92.299761 7:0.64311803 8:357.734 9:0.65702282 10:2.9087776 
0.10086560465099285 1:6290 2:148.74725 3:55.032691 4:0.92904191 5:6465 6:89.49121 7:0.52351228 8:339.352 9:0.6863722 10:2.702889 
0.10101578288156852 1:6369 2:143.25986 3:57.394264 4:0.91623973 5:6575 6:90.051445 7:0.59484449 8:333.462 9:0.71976117 10:2.4960658 
0.10174993742613883 1:6473 2:154.93757 3:54.339424 4:0.93648104 5:6668 6:90.783697 7:0.71699158 8:346.164 9:0.67881537 10:2.851292 
0.10125859986827512 1:6419 2:162.19663 3:50.801359 4:0.94968439 5:6547 6:90.404229 7:0.52254966 8:354.287 9:0.6426386 10:3.1927616 
0.098897299553543178 1:6484 2:155.82111 3:53.828988 4:0.93843577 5:6676 6:90.860801 7:0.57645804 8:351.64 9:0.65895586 10:2.8947434 
0.1008407336441465 1:6451 2:155.62365 3:53.215985 4:0.93971703 5:6607 6:90.629291 7:0.59709367 8:351.35 9:0.65668484 10:2.9243779 
0.10096806390379179 1:6110 2:144.34733 3:55.227136 4:0.92391452 5:6277 6:88.201438 7:0.54651163 8:327.269 9:0.71687153 10:2.6137029 
0.10167301979891302 1:6531 2:151.75769 3:55.247742 4:0.93137849 5:6723 6:91.189514 7:0.56915033 8:344.404 9:0.69191568 10:2.7468578 
0.10171764352079601 1:5638 2:143.64039 3:51.23331 4:0.93422754 5:5810 6:84.726174 7:0.48645384 8:326.154 9:0.66602345 10:2.8036524 
0.10162686590747792 1:5649 2:157.23765 3:46.341224 4:0.95558337 5:5773 6:84.808786 7:0.7335411 8:337.654 9:0.62264089 10:3.3930405 
