svm_type one_class
kernel_type rbf
gamma 0.10000000000000001
nr_class 2
total_sv 6039
rho 0.2588645422101874
SV
0.25755747858997624 1:6553 2:150.14727 3:56.338122 4:0.92693616 5:6697 6:91.342973 7:0.68949916 8:345.585 9:0.68950952 10:2.6651097 
0.25923296895529369 1:6803 2:165.68134 3:53.065792 4:0.94732012 5:6927 6:93.069053 7:0.46576749 8:366.101 9:0.63783523 10:3.1221873 
0.25880690883042956 1:6882 2:153.85105 3:59.166593 4:0.92309558 5:7212 6:93.607877 7:0.58520408 8:364.857 9:0.64964959 10:2.6003027 
0.25870471215766799 1:4698 2:129.73958 3:47.029091 4:0.93198829 5:4823 6:77.341317 7:0.58549352 8:295.575 9:0.67575222 10:2.758709 
0.25844436586810871 1:6502 2:151.44049 3:55.962294 4:0.92921751 5:6702 6:90.986832 7:0.61005817 8:347.935 9:0.67493289 10:2.7061165 
0.25896437816137641 1:5690 2:148.25619 3:50.352958 4:0.94055739 5:5867 6:85.115997 7:0.47204248 8:330.86 9:0.65318108 10:2.9443392 
0.24914109268988019 1:4775 2:136.05255 3:45.346866 4:0.9428194 5:4914 6:77.972552 7:0.67500707 8:300.29 9:0.66542866 10:3.0002637 
0.25878869584699915 1:5721 2:139.38368 3:53.199551 4:0.92429575 5:5929 6:85.347545 7:0.5804586 8:324.977 9:0.68073262 10:2.620016 
0.25876863822123203 1:6666 2:172.40433 3:49.965549 4:0.95708235 5:6844 6:92.127166 7:0.56799591 8:373.654 9:0.5999788 10:3.450464 
0.22095591413119164 1:6125 2:151.94974 3:52.49166 4:0.93843565 5:6267 6:88.309638 7:0.48061833 8:342.018 9:0.65798809 10:2.8947407 
0.25890727814990389 1:6805 2:166.49185 3:53.608183 4:0.94674414 5:6970 6:93.082733 7:0.82876629 8:367.054 9:0.63471399 10:3.105717 
0.25898155692121516 1:5353 2:135.34435 3:50.7103 4:0.92715575 5:5499 6:82.556958 7:0.71145667 8:308.808 9:0.70539118 10:2.6689716 
0.25120503433968766 1:6365 2:158.26677 3:52.386091 4:0.94363122 5:6526 6:90.023162 7:0.78970223 8:350.72 9:0.65026025 10:3.0211601 
0.18492761850518769 1:6482 2:156.55095 3:54.515416 4:0.93740988 5:6655 6:90.846787 7:0.56199064 8:350.152 9:0.66436335 10:2.8716821 
0.25896954307186926 1:6757 2:165.2087 3:53.107863 4:0.94692342 5:6882 6:92.753866 7:0.46264978 8:361.355 9:0.65027289 10:3.1108143 
0.24400567573444104 1:6289 2:165.34447 3:49.361416 4:0.95439811 5:6477 6:89.484096 7:0.44895774 8:357.127 9:0.61964948 10:3.3496702 
0.24908131503677891 1:5181 2:145.16046 3:45.632415 4:0.94930436 5:5306 6:81.219789 7:0.47328035 8:320.174 9:0.63511348 10:3.1810822 
0.2587913256602703 1:7371 2:167.22915 3:56.804341 4:0.94054119 5:7536 6:96.876461 7:0.49804054 8:375.222 9:0.6578997 10:2.9439502 
0.19063905683661436 1:6356 2:160.47212 3:51.365658 4:0.94738685 5:6518 6:89.959494 7:0.56537983 8:356.858 9:0.62719542 10:3.124113 
0.25880594962865255 1:5124 2:124.93968 3:54.248708 4:0.90081688 5:5391 6:80.771774 7:0.53823529 8:308.355 9:0.67720007 10:2.3030903 
0.2452009002475812 1:6770 2:153.93245 3:57.235842 4:0.92830308 5:6976 6:92.843049 7:0.61405896 8:352.806 9:0.68348125 10:2.6894415 
0.25908097515812989 1:5845 2:159.98225 3:47.292226 4:0.95530895 5:6011 6:86.267521 7:0.51992528 8:346.356 9:0.61227841 10:3.3828446 
0.25831092174524695 1:4897 2:145.01601 3:44.57034 4:0.95159728 5:5100 6:78.962358 7:0.51918999 8:319.113 9:0.60429775 10:3.2536438 
0.23469375615839655 1:6131 2:151.37977 3:52.941921 4:0.93685084 5:6241 6:88.352881 7:0.82295302 8:337.703 9:0.67557154 10:2.8593553 
0.23552559482892266 1:5631 2:147.14752 3:49.942335 4:0.940641 5:5784 6:84.673561 7:0.49429424 8:328.866 9:0.65427065 10:2.9463485 
0.25831421637195395 1:4999 2:121.55261 3:53.7086 4:0.89708659 5:5293 6:79.780477 7:0.59511905 8:318.791 9:0.61813153 10:2.263187 
0.21298295404764053 1:5866 2:152.46478 3:49.791096 4:0.94517149 5:6011 6:86.422353 7:0.56973582 8:337.034 9:0.64893992 10:3.0620892 
0.25470590180951969 1:5429 2:150.89121 3:46.441869 4:0.95145632 5:5583 6:83.14095 7:0.45320978 8:334.493 9:0.60975538 10:3.2490339 
0.14388551323383925 1:6023 2:150.6206 3:51.929209 4:0.93868782 5:6181 6:87.571238 7:0.67628565 8:337.34 9:0.66510015 10:2.9004986 
0.16546770790164925 1:6604 2:161.11634 3:53.425668 4:0.94342119 5:6755 6:91.697731 7:0.46797052 8:359.445 9:0.64232087 10:3.0157104 
0.24809840186256341 1:6834 2:165.98711 3:53.185861 4:0.94727503 5:7037 6:93.280861 7:0.44492188 8:371.618 9:0.62185819 10:3.1208878 
0.25822219369340194 1:5332 2:144.74936 3:47.821431 4:0.94385009 5:5468 6:82.394862 7:0.69744931 8:322.767 9:0.64316404 10:3.0268722 
0.25831642860109888 1:3556 2:110.71318 3:42.393467 4:0.92378459 5:3709 6:67.287739 7:0.51528764 8:262.297 9:0.6495087 10:2.6115623 
0.24141611460851947 1:5597 2:140.95275 3:51.687654 4:0.93033846 5:5777 6:84.417544 7:0.61586708 8:317.731 9:0.69670029 10:2.72701 
0.25718795023362773 1:6853 2:166.90712 3:53.184185 4:0.94787399 5:7026 6:93.410442 7:0.49919872 8:363.335 9:0.65234318 10:3.1382848 
0.24100384334019082 1:5317 2:144.84808 3:47.272053 4:0.9452469 5:5422 6:82.278883 7:0.47253822 8:319.259 9:0.65552646 10:3.0641378 
0.25788439009266295 1:7049 2:165.19072 3:55.665004 4:0.9415139 5:7269 6:94.736823 7:0.53850267 8:370.265 9:0.64611831 10:2.9675866 
0.16157352492551233 1:5189 2:132.38378 3:50.552698 4:0.92421822 5:5348 6:81.28247 7:0.52525559 8:304.388 9:0.70378253 10:2.6187283 
0.2591521596504992 1:3929 2:112.42896 3:45.897752 4:0.91287561 5:4059 6:70.728765 7:0.75311482 8:261.858 9:0.72004593 10:2.4495526 
0.23305988747884973 1:5835 2:156.15752 3:48.593728 4:0.95034967 5:5984 6:86.193693 7:0.47671569 8:341.916 9:0.62720841 10:3.2135325 
0.19752155145501668 1:5792 2:159.01764 3:47.021924 4:0.95528006 5:5978 6:85.875511 7:0.56784314 8:347.496 9:0.60275219 10:3.3817764 
0.25906505606997476 1:4841 2:134.00502 3:46.740514 4:0.93719839 5:4986 6:78.50957 7:0.4708228 8:302.536 9:0.66464666 10:2.8669992 
0.25880121747473961 1:6026 2:146.08946 3:53.378183 4:0.93085841 5:6140 6:87.593045 7:0.57064394 8:330.138 9:0.69478104 10:2.7368759 
0.2583181612762413 1:3900 2:95.170126 3:52.513063 4:0.83398907 5:3980 6:70.467256 7:0.78281815 8:236.767 9:0.87424293 10:1.8123134 
0.25878315004310409 1:5245 2:135.50668 3:50.637427 4:0.92755384 5:5389 6:81.719896 7:0.50066819 8:308.301 9:0.69343457 10:2.6760182 
0.20988241811558267 1:6132 2:153.0876 3:52.117784 4:0.94026473 5:6315 6:88.360087 7:0.78615385 8:342.219 9:0.65796649 10:2.937339 
0.25864230329412258 1:5356 2:137.66319 3:51.254705 4:0.92810458 5:5531 6:82.580088 7:0.51648987 8:314.591 9:0.68007662 10:2.6858644 
0.25792084844741214 1:6031 2:151.01002 3:51.68835 4:0.93959645 5:6242 6:87.629377 7:0.58169367 8:340.078 9:0.65530294 10:2.9215485 
0.22609378241074457 1:6345 2:157.28526 3:52.157153 4:0.94341703 5:6514 6:89.881616 7:0.46944362 8:347.336 9:0.66090935 10:3.0156029 
0.25685548789422807 1:6134 2:154.752 3:51.626849 4:0.9427111 5:6293 6:88.374495 7:0.45670464 8:346.106 9:0.64348048 10:2.9975101 
0.25677182503969453 1:6339 2:150.84678 3:54.099771 4:0.93347574 5:6470 6:89.839109 7:0.53756784 8:340.914 9:0.68539502 10:2.7883072 
0.25832687992124093 1:7254 2:163.29461 3:57.574619 4:0.9357812 5:7508 6:96.104525 7:0.60779221 8:372.886 9:0.65559444 10:2.8362257 
0.25885591302795014 1:4942 2:138.13781 3:45.879916 4:0.9432331 5:5122 6:79.324333 7:0.45708472 8:313.965 9:0.6300139 10:3.0108559 
0.25834761156203762 1:3888 2:138.67142 3:36.232517 4:0.96526218 5:4002 6:70.358762 7:0.57960644 8:291.473 9:0.57509482 10:3.8272644 
0.25870757390531129 1:6478 2:151.31677 3:55.487128 4:0.93034115 5:6607 6:90.818752 7:0.50847724 8:342.249 9:0.6949706 10:2.7270608 
0.25795420617395048 1:6435 2:150.01943 3:55.13152 4:0.93002516 5:6581 6:90.51683 7:0.71089262 8:341.516 9:0.69332411 10:2.7211191 
0.25834825461735944 1:4535 2:109.73561 3:54.490818 4:0.86799977 5:4698 6:75.987771 7:0.66446886 8:274.329 9:0.75725773 10:2.0138367 
0.25863754900012947 1:5932 2:140.99648 3:55.140138 4:0.92035899 5:6086 6:86.907174 7:0.59750201 8:325.738 9:0.70254501 10:2.557057 
0.21322680850004777 1:5543 2:139.66896 3:51.2944 4:0.93011951 5:5678 6:84.009326 7:0.51096976 8:318.116 9:0.68830943 10:2.722889 
0.24147792475184041 1:6629 2:163.94191 3:52.880449 4:0.94655038 5:6828 6:91.871132 7:0.45891312 8:364.454 9:0.62715146 10:3.1002367 
0.2572269503993741 1:5303 2:140.86031 3:48.847385 4:0.9379469 5:5447 6:82.170489 7:0.49915286 8:317.925 9:0.65929857 10:2.8836816 
0.17364447543444428 1:6370 2:159.1108 3:51.901986 4:0.94530069 5:6527 6:90.058514 7:0.4964539 8:353.66 9:0.63999622 10:3.0656014 
0.2522207597789673 1:6586 2:151.56082 3:56.04834 4:0.92910837 5:6802 6:91.57268 7:0.50451969 8:348.039 9:0.6832439 10:2.7041091 
0.21201509295276086 1:5332 2:142.32073 3:48.497853 4:0.94014869 5:5491 6:82.394862 7:0.48297101 8:318.471 9:0.66063294 10:2.9345779 
0.22882072797680364 1:6466 2:157.7465 3:52.911393 4:0.94206855 5:6645 6:90.734596 7:0.54099732 8:355.925 9:0.64139944 10:2.9813333 
0.25870985993217288 1:5853 2:141.94847 3:53.294509 4:0.92684277 5:5977 6:86.326537 7:0.51888298 8:321.473 9:0.71170396 10:2.6634727 
0.25924863093348283 1:5990 2:147.36909 3:52.577336 4:0.93419105 5:6222 6:87.331008 7:0.67092294 8:341.724 9:0.64459321 10:2.8029015 
0.25877788143724534 1:7067 2:161.84962 3:56.472713 4:0.93715219 5:7255 6:94.857703 7:0.73537981 8:363.721 9:0.67128695 10:2.8659792 
0.2375324275840095 1:6636 2:156.633 3:54.906052 4:0.93654795 5:6827 6:91.919626 7:0.69125 8:351.622 9:0.67447237 10:2.8527456 
0.2589750312289098 1:6816 2:161.75528 3:54.602457 4:0.94130325 5:6999 6:93.157934 7:0.57138067 8:362.027 9:0.65351795 10:2.9624176 
0.24262143626821311 1:5610 2:140.50401 3:52.750443 4:0.9268478 5:5800 6:84.515524 7:0.761504 8:321.593 9:0.68164704 10:2.6635607 
0.25835994924264305 1:6283 2:144.50445 3:56.843129 4:0.91938199 5:6570 6:89.4414 7:0.51415712 8:352.023 9:0.63713996 10:2.5421622 
0.25928899955989776 1:5077 2:117.42651 3:56.392018 4:0.87714128 5:5196 6:80.40048 7:0.54241453 8:288.61 9:0.76593917 10:2.082325 
0.24584574540243578 1:6720 2:169.00229 3:51.169877 4:0.95306167 5:6849 6:92.499566 7:0.81336238 8:367.393 9:0.62562974 10:3.302769 
0.25912064664778789 1:6586 2:146.56198 3:58.531136 4:0.91679376 5:6721 6:91.57268 7:0.52162205 8:339.927 9:0.7162428 10:2.5040002 
0.25835764090232238 1:7347 2:162.85771 3:58.660866 4:0.93287625 5:7649 6:96.718617 7:0.55194952 8:382.919 9:0.62965995 10:2.7762583 
0.25890904393970815 1:6426 2:158.04619 3:53.034272 4:0.94201818 5:6617 6:90.453509 7:0.46565217 8:350.191 9:0.65847702 10:2.9800765 
0.25874639253212839 1:5822 2:155.98419 3:48.228027 4:0.9510018 5:5954 6:86.097623 7:0.44654088 8:338.629 9:0.63801923 10:3.2343059 
0.22759153107076135 1:6059 2:148.27332 3:53.242753 4:0.93330479 5:6238 6:87.832559 7:0.57020516 8:337.994 9:0.66648877 10:2.7848545 
0.25849234301593538 1:6164 2:150.59963 3:52.9835 4:0.93606882 5:6346 6:88.590341 7:0.5254902 8:346.753 9:0.64421679 10:2.8423873 
0.25906339281411878 1:5837 2:152.25096 3:50.307987 4:0.94383119 5:6085 6:86.208464 7:0.46696 8:346.59 9:0.61061505 10:3.0263775 
0.22176090769282752 1:3869 2:96.60035 3:53.4247 4:0.83314891 5:4005 6:70.186635 7:0.72725564 8:248.428 9:0.78778464 10:1.808159 
0.25247018029350859 1:5707 2:145.80971 3:50.530191 4:0.93803192 5:5853 6:85.243053 7:0.63623188 8:326.026 9:0.67470397 10:2.8855958 
0.24494096348427402 1:6012 2:152.27451 3:51.359233 4:0.94140417 5:6184 6:87.491235 7:0.56029823 8:347.993 9:0.62386098 10:2.9648906 
0.2580790036761782 1:6035 2:150.6744 3:52.236816 4:0.93798097 5:6187 6:87.658432 7:0.63943632 8:340.209 9:0.65523267 10:2.8844483 
0.25900354291613142 1:6457 2:168.9516 3:49.509771 4:0.95609983 5:6591 6:90.671427 7:0.46912235 8:365.264 9:0.60817268 10:3.41249 
0.25837739609658228 1:4041 2:114.03573 3:46.231599 4:0.91413351 5:4093 6:71.729778 7:0.88657306 8:261.799 9:0.74090538 10:2.4666187 
0.25847119667920959 1:6066 2:163.00588 3:48.025964 4:0.95561228 5:6180 6:87.883281 7:0.42838983 8:351.928 9:0.61546679 10:3.3941199 
0.2399845675449285 1:5796 2:155.16343 3:48.268737 4:0.95038268 5:5931 6:85.905159 7:0.51851852 8:339.615 9:0.63148714 10:3.214574 
0.25372350782247266 1:6507 2:149.3251 3:56.031811 4:0.92693024 5:6715 6:91.021809 7:0.66411513 8:352.814 9:0.65689968 10:2.6650058 
0.24782189264057994 1:6523 2:166.99436 3:50.821089 4:0.95256725 5:6688 6:91.133647 7:0.46377533 8:363.924 9:0.6189219 10:3.2859265 
0.23378991694875242 1:6654 2:159.71418 3:53.809794 4:0.94153576 5:6821 6:92.044206 7:0.69032057 8:357.378 9:0.654692 10:2.9681246 
0.23358298098666722 1:5877 2:145.85493 3:52.791459 4:0.93219946 5:6024 6:86.503346 7:0.4858631 8:332.203 9:0.66920389 10:2.762851 
0.25691546528547071 1:5638 2:147.13285 3:49.882132 4:0.94077634 5:5761 6:84.726174 7:0.47553981 8:326.016 9:0.66658741 10:2.9496102 
0.25761480981786777 1:5839 2:145.32888 3:52.602761 4:0.93219491 5:6016 6:86.223232 7:0.52438258 8:328.567 9:0.67967368 10:2.7627614 
0.25856047162809315 1:6171 2:146.61043 3:55.36196 4:0.92596363 5:6419 6:88.64063 7:0.50623462 8:335.848 9:0.68751136 10:2.6482159 
0.25844125573127297 1:6540 2:154.88355 3:55.011282 4:0.93479856 5:6729 6:91.252324 7:0.53179379 8:351.31 9:0.66589628 10:2.8154871 
0.25911339146898316 1:6553 2:160.26347 3:52.402415 4:0.94503241 5:6666 6:91.342973 7:0.79759007 8:355.608 9:0.6511889 10:3.0583223 
0.25866116060156408 1:7046 2:167.88101 3:54.609266 4:0.94561584 5:7259 6:94.716661 7:0.53480076 8:372.961 9:0.63653994 10:3.0742221 
0.25877437814085441 1:5992 2:146.02535 3:53.168602 4:0.93135779 5:6175 6:87.345586 7:0.64918743 8:331.658 9:0.68454297 10:2.7464583 
0.25895786418834199 1:5784 2:159.23583 3:47.226751 4:0.95500687 5:5909 6:85.816185 7:0.43495262 8:342.782 9:0.61858891 10:3.3717296 
0.25859637339362274 1:6462 2:163.91296 3:50.988342 4:0.95038713 5:6604 6:90.706526 7:0.46101163 8:357.359 9:0.63586859 10:3.2147145 
0.19171897878022451 1:6073 2:158.03951 3:49.809683 4:0.94903445 5:6208 6:87.933974 7:0.48545164 8:344.803 9:0.64190547 10:3.1728673 
0.25863463760436634 1:6259 2:158.13623 3:51.808386 4:0.94481003 5:6480 6:89.270411 7:0.46130601 8:352.729 9:0.63216796 10:3.0523289 
0.25355495663650091 1:6203 2:161.1347 3:50.184054 4:0.95026528 5:6385 6:88.870158 7:0.44402291 8:356.418 9:0.61360994 10:3.2108744 
0.2583854418996599 1:6533 2:159.13201 3:53.470981 4:0.9418561 5:6786 6:91.203476 7:0.49120301 8:362.294 9:0.62546101 10:2.9760444 
0.2583914807142984 1:6863 2:161.35396 3:54.90008 4:0.94033637 5:6972 6:93.47857 7:0.85701798 8:355.839 9:0.68110924 10:2.9390478 
0.24349252311539216 1:6559 2:156.71365 3:54.159092 4:0.93838462 5:6738 6:91.384781 7:0.5909009 8:352.45 9:0.66351763 10:2.8935798 
0.24632278568527152 1:6241 2:158.40386 3:50.715447 4:0.94736163 5:6372 6:89.141954 7:0.72840803 8:346.313 9:0.65392277 10:3.1233848 
0.25890960627803605 1:6889 2:162.10244 3:55.592787 4:0.93935421 5:7194 6:93.655471 7:0.49668349 8:373.385 9:0.62094383 10:2.9158898 
0.257256310473304 1:5978 2:154.34053 3:50.706192 4:0.94449197 5:6181 6:87.243487 7:0.59399841 8:346.346 9:0.62624666 10:3.0438202 
0.25892173130592333 1:4964 2:146.83421 3:43.521927 4:0.95506333 5:5096 6:79.500699 7:0.44712664 8:320.985 9:0.60544146 10:3.3737985 
0.25839238875298365 1:5626 2:154.51068 3:47.291914 4:0.95200728 5:5831 6:84.63596 7:0.55428571 8:342.501 9:0.60267879 10:3.2671691 
0.25892321129681461 1:6244 2:166.73112 3:48.910631 4:0.95600501 5:6513 6:89.163377 7:0.68804408 8:367.277 9:0.58168156 10:3.4088932 
0.25838433924160675 1:4896 2:139.18928 3:45.857374 4:0.94416935 5:5015 6:78.954296 7:0.80632411 8:308.253 9:0.64749534 10:3.035265 
0.25251386052160796 1:4878 2:126.99798 3:49.922149 4:0.91949827 5:5006 6:78.809025 7:0.56062522 8:289.565 9:0.73107095 10:2.5439205 
0.25878893262121888 1:6568 2:156.62491 3:54.46647 4:0.93758693 5:6765 6:91.447457 7:0.49502563 8:351.669 9:0.66738253 10:2.8756208 
0.25840129967011682 1:7057 2:162.49646 3:56.816251 4:0.93688186 5:7398 6:94.790566 7:0.71856226 8:375.143 9:0.6301389 10:2.8600349 
0.25865711358193044 1:5658 2:145.71319 3:50.436406 4:0.93818479 5:5800 6:84.876318 7:0.83010563 8:322.106 9:0.68529124 10:2.8890479 
0.25829326408291564 1:6286 2:156.02259 3:52.585775 4:0.94149051 5:6483 6:89.462751 7:0.5899024 8:347.627 9:0.65366802 10:2.9670114 
0.25845423888943386 1:5375 2:142.49481 3:49.061553 4:0.93885817 5:5519 6:82.726432 7:0.61710677 8:318.832 9:0.6644534 10:2.904409 
0.20029169126369328 1:5858 2:154.72838 3:48.819984 4:0.94891874 5:6021 6:86.363402 7:0.59568843 8:342.004 9:0.6293567 10:3.1693656 
0.2398265514855687 1:6544 2:158.96448 3:53.474783 4:0.94172114 5:6715 6:91.280226 7:0.64257659 8:354.393 9:0.65476112 10:2.9726999 
0.23949042211893953 1:5759 2:148.76442 3:50.108521 4:0.941565 5:5922 6:85.630523 7:0.81067004 8:333.502 9:0.65066891 10:2.9688449 
0.25871631847837728 1:6115 2:165.58895 3:47.687565 4:0.95763414 5:6261 6:88.237519 7:0.44193105 8:355.828 9:0.60691251 10:3.4723717 
0.24222970188201814 1:4763 2:136.43282 3:45.733036 4:0.94214502 5:4883 6:77.874514 7:0.82690972 8:301.57 9:0.65813377 10:2.9832442 
0.25917086868849021 1:5082 2:143.39655 3:45.77735 4:0.94767523 5:5199 6:80.440061 7:0.69807692 8:315.399 9:0.64198355 10:3.1324782 
0.25732821287217178 1:6129 2:154.27245 3:51.643594 4:0.94230492 5:6259 6:88.338469 7:0.48735687 8:341.845 9:0.65908438 10:2.9872523 
0.2584113517315984 1:5436 2:134.92145 3:52.939976 4:0.91980479 5:5675 6:83.194532 7:0.54338265 8:312.292 9:0.7004346 10:2.548574 
0.25910740008981559 1:5662 2:136.09093 3:53.860243 4:0.91835114 5:5844 6:84.906315 7:0.75695187 8:317.822 9:0.70438779 10:2.5267419 
0.20947885359776655 1:6689 2:159.8135 3:54.356518 4:0.94038035 5:6877 6:92.285965 7:0.60261261 8:359.413 9:0.65070403 10:2.9400982 
0.2504492620128087 1:6228 2:159.9977 3:50.621765 4:0.94862901 5:6405 6:89.049064 7:0.51318392 8:352.873 9:0.62852363 10:3.1606503 
0.25794390235141151 1:5674 2:157.00926 3:46.658008 4:0.95482545 5:5815 6:84.996242 7:0.56762705 8:343.179 9:0.60542143 10:3.3651085 
0.25882006525827939 1:3426 2:88.922106 3:51.488388 4:0.81530766 5:3548 6:66.046337 7:0.56320894 8:232.94 9:0.79343085 10:1.7270322 
0.24645821825571496 1:4762 2:136.42259 3:44.963671 4:0.94412378 5:4878 6:77.866339 7:0.50876068 8:299.812 9:0.66573476 10:3.0340625 
0.2588059550584309 1:7130 2:164.4911 3:56.066802 4:0.94011767 5:7274 6:95.279578 7:0.60919344 8:367.435 9:0.66364885 10:2.9338414 
0.25245308678991829 1:6290 2:157.1393 3:51.986858 4:0.94368934 5:6428 6:89.49121 7:0.66120046 8:349.464 9:0.6472255 10:3.0226736 
0.25900832088141779 1:7228 2:158.90919 3:58.570777 4:0.92959596 5:7426 6:95.93214 7:0.6857685 8:362.299 9:0.69198031 10:2.7131138 
0.19067640433680916 1:5948 2:156.71831 3:49.445072 4:0.94892463 5:6124 6:87.0243 7:0.50372629 8:345.413 9:0.6264746 10:3.1695436 
0.2588663069657024 1:6653 2:161.2648 3:53.501641 4:0.94336288 5:6757 6:92.03729 7:0.83622423 8:356.411 9:0.65815046 10:3.0142028 
0.25835253999553626 1:5720 2:158.71413 3:46.654624 4:0.95581962 5:5835 6:85.340086 7:0.81481481 8:343.467 9:0.60930657 10:3.401895 
0.25470254137059206 1:6766 2:167.30749 3:52.670184 4:0.94915448 5:6920 6:92.815617 7:0.44003642 8:367.022 9:0.63118644 10:3.1765123 
0.25776250454086064 1:5650 2:153.17337 3:47.864892 4:0.9499216 5:5802 6:84.816292 7:0.81884058 8:335.561 9:0.63054393 10:3.2001195 
0.25849698945635025 1:5429 2:148.04485 3:47.711747 4:0.94664473 5:5605 6:83.14095 7:0.46947423 8:328.603 9:0.63181024 10:3.1029015 
0.20396543205619391 1:6026 2:151.43448 3:51.793638 4:0.93969263 5:6184 6:87.593045 7:0.61115619 8:339.176 9:0.65824681 10:2.9238047 
0.25928768455754414 1:5453 2:153.39836 3:45.862455 4:0.95426057 5:5603 6:83.324518 7:0.4808642 8:338.269 9:0.59885401 10:3.344748 
0.23777395813531399 1:5996 2:155.22843 3:50.228606 4:0.94620127 5:6174 6:87.374735 7:0.52130064 8:343.494 9:0.63860627 10:3.0904387 
0.24534276759555687 1:4752 2:135.13588 3:45.404571 4:0.94186485 5:4896 6:77.784538 7:0.48613811 8:302.815 9:0.65122569 10:2.9762616 
0.25854878303263795 1:6252 2:152.29464 3:54.144488 4:0.93466694 5:6470 6:89.220478 7:0.49267139 8:342.19 9:0.67095625 10:2.8127451 
0.25618476567391446 1:6592 2:159.25875 3:53.871857 4:0.94105045 5:6814 6:91.614382 7:0.5231746 8:360.068 9:0.63893696 10:2.9562513 
0.21814119657104017 1:6463 2:155.17662 3:54.235858 4:0.93693244 5:6627 6:90.713545 7:0.5021756 8:347.846 9:0.67122789 10:2.8611443 
0.23762157737498149 1:6025 2:149.74255 3:52.194508 4:0.93728587 5:6162 6:87.585777 7:0.75900731 8:334.726 9:0.67575306 10:2.8689332 
0.25877322097302324 1:7363 2:171.68314 3:55.470053 4:0.94636636 5:7546 6:96.823875 7:0.47703272 8:383.261 9:0.62990551 10:3.0950599 
0.25841877892491955 1:5039 2:154.84338 3:43.035157 4:0.9606022 5:5256 6:80.099027 7:0.4964532 8:338.01 9:0.5542365 10:3.598067 
0.25878778050717649 1:6340 2:158.98497 3:51.693075 4:0.94566438 5:6550 6:89.846195 7:0.70522803 8:353.814 9:0.63642773 10:3.0755565 
0.25594107499685692 1:6808 2:159.76932 3:55.302172 4:0.93818375 5:7007 6:93.103248 7:0.57114094 8:360.621 9:0.65785077 10:2.8890242 
0.25878991555184117 1:5327 2:139.23042 3:50.153461 4:0.93286772 5:5525 6:82.356221 7:0.47990991 8:320.063 9:0.65346393 10:2.7760881 
0.25173947881204806 1:6032 2:153.87041 3:51.033973 4:0.94339599 5:6240 6:87.636641 7:0.46774194 8:346.559 9:0.63112711 10:3.0150585 
0.25520495479669569 1:6212 2:140.38286 3:58.324235 4:0.90960893 5:6405 6:88.934605 7:0.66688137 8:336.803 9:0.68815997 10:2.4069387 
0.22038224643379772 1:5892 2:149.7129 3:51.437205 4:0.93912623 5:6068 6:86.613668 7:0.51503497 8:336.879 9:0.65241618 10:2.9105956 
0.25900599137390024 1:6865 2:160.25917 3:54.953947 4:0.93936946 5:7026 6:93.492189 7:0.52540946 8:357.82 9:0.67378476 10:2.916245 
0.25920301983765182 1:5486 2:149.50215 3:47.762053 4:0.94759504 5:5694 6:83.576265 7:0.67082416 8:333.105 9:0.62130288 10:3.130145 
0.25835044176943878 1:5693 2:142.13194 3:52.324118 4:0.9297713 5:5869 6:85.138433 7:0.54593402 8:323.373 9:0.68413772 10:2.7163752 
0.2591674688825587 1:4775 2:132.29499 3:48.378342 4:0.93073853 5:4931 6:77.972552 7:0.71130642 8:308.071 9:0.63223947 10:2.7345912 
0.25495824860641647 1:4769 2:135.83379 3:45.248474 4:0.94288568 5:4882 6:77.923548 7:0.80885346 8:303.473 9:0.65072437 10:3.001953 
0.25880720366970578 1:5071 2:142.71197 3:46.014424 4:0.94659378 5:5246 6:80.352957 7:0.51856018 8:311.671 9:0.65601034 10:3.1014617 
0.25839524781741963 1:6140 2:148.57207 3:53.343842 4:0.93332081 5:6325 6:88.417706 7:0.65978938 8:344.237 9:0.65112315 10:2.7851776 
0.25879150760637742 1:6810 2:147.87812 3:59.691103 4:0.91491319 5:7005 6:93.116923 7:0.54919355 8:344.075 9:0.72285425 10:2.4773897 
0.25876088352976812 1:6636 2:166.5365 3:51.692468 4:0.95060695 5:6796 6:91.919626 7:0.43158169 8:370.85 9:0.60634482 10:3.2216783 
0.25886271584876908 1:6886 2:174.04375 3:51.860018 4:0.95457488 5:7134 6:93.635076 7:0.68313492 8:378.806 9:0.60303592 10:3.3560296 
0.25892228261992262 1:4643 2:138.81254 3:42.978429 4:0.95086204 5:4750 6:76.887263 7:0.63144295 8:304.482 9:0.62933995 10:3.2298189 
0.25913375008759199 1:4727 2:140.999 3:43.732167 4:0.95068456 5:4877 6:77.579658 7:0.62526455 8:312.984 9:0.60638883 10:3.2241484 
0.22251767678095868 1:5889 2:154.26851 3:50.049279 4:0.94590983 5:6073 6:86.591614 7:0.47415459 8:342.743 9:0.62996182 10:3.0823323 
0.23705910128612187 1:6223 2:160.61063 3:50.23393 4:0.94982942 5:6388 6:89.013312 7:0.45094203 8:354.671 9:0.6216677 10:3.1972539 
0.25859357372552871 1:6573 2:157.24127 3:54.552485 4:0.93788921 5:6833 6:91.482258 7:0.58818792 8:362.87 9:0.62729434 10:2.8823852 
0.25869936998561349 1:6375 2:138.03769 3:59.498054 4:0.90233874 5:6542 6:90.093852 7:0.69962687 8:331.535 9:0.72883847 10:2.320037 
0.22785962061942924 1:6213 2:158.52832 3:50.505415 4:0.94789288 5:6416 6:88.941763 7:0.6745196 8:349.679 9:0.63851649 10:3.1388381 
0.25904076158243916 1:4623 2:134.6704 3:44.315283 4:0.94430735 5:4790 6:76.721486 7:0.50271857 8:307.38 9:0.61486893 10:3.0389154 
0.25280378516375929 1:6636 2:152.53047 3:56.766399 4:0.92816686 5:6848 6:91.919626 7:0.66586394 8:354.319 9:0.66424357 10:2.6869851 
0.25887924774009186 1:5780 2:153.79866 3:48.652758 4:0.94864568 5:5902 6:85.786506 7:0.4658285 8:339.727 9:0.62932875 10:3.1611498 
0.25832495965254487 1:5852 2:144.48868 3:52.286612 4:0.93222724 5:5970 6:86.319163 7:0.50205903 8:326.569 9:0.68954763 10:2.7633973 
0.25854430519318689 1:6669 2:157.23148 3:55.331976 4:0.93603229 5:6903 6:92.147895 7:0.64949357 8:359.876 9:0.64709018 10:2.8416024 
0.25869137853202218 1:5305 2:142.7689 3:47.840095 4:0.94218696 5:5437 6:82.185983 7:0.57376163 8:317.575 9:0.66100179 10:2.9842939 
0.25843960830085216 1:5158 2:159.64475 3:41.770462 4:0.96516382 5:5293 6:81.039309 7:0.57311111 8:339.87 9:0.56113265 10:3.8219532 
0.25837620475853684 1:4875 2:130.45316 3:48.671892 4:0.9277917 5:5045 6:78.784788 7:0.54898649 8:298.984 9:0.6853124 10:2.6802567 
0.25210495767415941 1:5153 2:133.46888 3:50.063718 4:0.92698574 5:5269 6:81.000021 7:0.5136563 8:307.729 9:0.68380639 10:2.6659802 
0.25880561887879339 1:5049 2:141.13009 3:46.043586 4:0.94528378 5:5162 6:80.178466 7:0.60221851 8:308.973 9:0.66462118 10:3.0651411 
0.25891973481482766 1:4967 2:134.90481 3:47.860528 4:0.93495262 5:5066 6:79.524718 7:0.48223301 8:304.34 9:0.67388525 10:2.818707 
0.25620325531316113 1:6247 2:153.09443 3:52.675622 4:0.93894299 5:6406 6:89.184794 7:0.48501553 8:351.479 9:0.63545179 10:2.906362 
0.25873585492176754 1:4558 2:125.51777 3:47.231548 4:0.92650043 5:4706 6:76.18022 7:0.63927069 8:287.289 9:0.69397878 10:2.6574987 
0.25879444756830094 1:6352 2:161.53582 3:51.236579 4:0.94836402 5:6537 6:89.931183 7:0.64448052 8:355.079 9:0.63309718 10:3.1527441 
0.25862969454701179 1:5497 2:148.20212 3:47.989883 4:0.94612085 5:5629 6:83.660013 7:0.47420635 8:326.484 9:0.6480549 10:3.0881951 
0.25882611042166725 1:6736 2:158.84493 3:55.135998 4:0.93782597 5:6903 6:92.609619 7:0.83573201 8:355.078 9:0.67137384 10:2.8809658 
0.25846590236843703 1:6449 2:162.91062 3:51.526612 4:0.94866334 5:6747 6:90.615241 7:0.55475269 8:372.249 9:0.58483743 10:3.1616792 
0.11939726030024156 1:6093 2:154.76868 3:51.399742 4:0.94324176 5:6283 6:88.07865 7:0.49105416 8:343.198 9:0.65005716 10:3.0110789 
0.25352060508025931 1:6242 2:157.27943 3:51.535477 4:0.94479284 5:6378 6:89.149096 7:0.46890024 8:346.254 9:0.65425045 10:3.0518672 
0.23027313784092571 1:5692 2:150.00947 3:48.830322 4:0.9455369 5:5813 6:85.130955 7:0.70323697 8:328.771 9:0.66174055 10:3.0720557 
0.23050665554924826 1:6416 2:156.66898 3:53.180906 4:0.94062497 5:6557 6:90.383101 7:0.49225104 8:349.757 9:0.65908494 10:2.9459629 
0.25903501435151743 1:6857 2:155.70016 3:57.792542 4:0.92856156 5:7095 6:93.437699 7:0.49069701 8:359.277 9:0.66755212 10:2.694122 
0.25888877006515898 1:6052 2:159.7482 3:49.434557 4:0.95091475 5:6213 6:87.781807 7:0.47887324 8:351.931 9:0.61403586 10:3.2315088 
0.25846384299861669 1:5276 2:120.72833 3:57.29556 4:0.880211 5:5434 6:81.961039 7:0.57787514 8:292.865 9:0.77300038 10:2.107115 
0.2324830451350112 1:6645 2:160.17236 3:53.510012 4:0.94254554 5:6819 6:91.981937 7:0.73441645 8:356.923 9:0.65547447 10:2.9933157 
0.15544387108578919 1:6242 2:158.60182 3:51.238637 4:0.94637691 5:6392 6:89.149096 7:0.67995643 8:350.084 9:0.64001345 10:3.095356 
0.25847999991314552 1:3243 2:91.130335 3:47.692551 4:0.85212125 5:3431 6:64.258197 7:0.66509434 8:234.302 9:0.74234335 10:1.9107876 
0.25923099886517253 1:5177 2:136.40216 3:48.723375 4:0.93402646 5:5295 6:81.18843 7:0.58616395 8:306.146 9:0.69411407 10:2.799522 
0.25856031694728504 1:3791 2:99.934505 3:49.441305 4:0.8690427 5:3886 6:69.475543 7:0.6438519 8:243.201 9:0.80543952 10:2.0212756 
0.24334065284318007 1:5828 2:154.72911 3:48.948688 4:0.94864225 5:5995 6:86.141976 7:0.58702659 8:340.673 9:0.63103577 10:3.1610471 
0.25850000194309075 1:6127 2:151.48975 3:52.706736 4:0.93752319 5:6335 6:88.324055 7:0.51122236 8:342.643 9:0.65580393 10:2.874201 
0.21752074869609436 1:6289 2:162.08621 3:50.411981 4:0.95040351 5:6480 6:89.484096 7:0.4882764 8:354.462 9:0.62900209 10:3.2152319 
0.25872205244520541 1:4176 2:109.34829 3:49.837688 4:0.89009751 5:4277 6:72.918093 7:0.59623073 8:260.346 9:0.7742274 10:2.1940884 
0.25229207555476429 1:5205 2:146.98546 3:45.780392 4:0.9502586 5:5347 6:81.407689 7:0.4487069 8:325.129 9:0.61875566 10:3.2106642 
0.2207342894238756 1:4988 2:145.04214 3:44.644659 4:0.95144955 5:5104 6:79.692652 7:0.57878858 8:318.434 9:0.61815508 10:3.2488128 
0.2585198279659533 1:6741 2:163.56724 3:53.411022 4:0.94518386 5:6941 6:92.643984 7:0.57987097 8:362.556 9:0.64444224 10:3.0624249 
0.25835998381879688 1:6323 2:154.36666 3:53.198995 4:0.93873952 5:6476 6:89.725658 7:0.83197368 8:349.844 9:0.64920848 10:2.9016838 
0.2498109985491688 1:6150 2:148.14948 3:54.276713 4:0.93047141 5:6341 6:88.489678 7:0.53306752 8:337.755 9:0.67745649 10:2.729522 
0.25851127728857598 1:6081 2:166.24721 3:47.720337 4:0.95791727 5:6315 6:87.991873 7:0.61536126 8:368.179 9:0.56372441 10:3.4837812 
0.25718429980804258 1:5833 2:155.94522 3:48.520272 4:0.95036519 5:5961 6:86.17892 7:0.44533517 8:339.266 9:0.63682655 10:3.214022 
0.25905951758727741 1:6962 2:159.20411 3:57.212279 4:0.93319734 5:7205 6:94.150378 7:0.52718461 8:362.615 9:0.66535336 10:2.7826913 
0.25870454500571705 1:7337 2:169.33506 3:56.227602 4:0.943262 5:7510 6:96.652773 7:0.84410953 8:375.82 9:0.65278266 10:3.0116002 
0.25879288521954658 1:5540 2:146.10162 3:49.281885 4:0.94139277 5:5643 6:83.986589 7:0.46166667 8:322.006 9:0.67141602 10:2.964611 
0.25249085506219576 1:6883 2:157.98938 3:56.339587 4:0.93425578 5:7080 6:93.614677 7:0.51419393 8:364.708 9:0.65027499 10:2.804234 
0.22652689590010491 1:6640 2:163.09521 3:52.524128 4:0.94672409 5:6816 6:91.947325 7:0.53691275 8:363.185 9:0.63258973 10:3.1051483 
0.25619800728523634 1:6806 2:163.62044 3:54.146465 4:0.94365626 5:7004 6:93.089572 7:0.57030333 8:364.524 9:0.64364968 10:3.021812 
0.25875021757971051 1:6095 2:151.03094 3:52.979014 4:0.93645696 5:6312 6:88.093104 7:0.50164609 8:339.278 9:0.66538373 10:2.8507692 
0.25868584839721998 1:5955 2:157.23443 3:49.009491 4:0.95018157 5:6074 6:87.075493 7:0.50526048 8:343.933 9:0.63262148 10:3.2082444 
0.25793665556404521 1:6086 2:145.22227 3:54.009697 4:0.92826857 5:6262 6:88.02804 7:0.57796771 8:331.907 9:0.69423897 10:2.6888185 
0.25851802085692732 1:3798 2:126.60379 3:39.653042 4:0.94968528 5:4013 6:69.539656 7:0.6115942 8:278.232 9:0.61652497 10:3.1927888 
0.25868282437600132 1:5213 2:139.64785 3:48.994677 4:0.93643374 5:5377 6:81.470226 7:0.50454897 8:314.616 9:0.66181404 10:2.8502658 
0.25922719099619135 1:6563 2:158.86357 3:54.522806 4:0.93926044 5:6843 6:91.412642 7:0.46675201 8:356.5 9:0.64892305 10:2.9137086 
0.25356095425378389 1:5831 2:139.91899 3:53.573702 4:0.92379359 5:5949 6:86.164144 7:0.7093674 8:319.692 9:0.71695082 10:2.6117104 
0.25886213311744088 1:4393 2:115.22748 3:49.148625 4:0.90447076 5:4493 6:74.788644 7:0.69487504 8:268.805 9:0.76400532 10:2.3444701 
0.21348094860734204 1:6614 2:158.03812 3:54.425273 4:0.9388301 5:6796 6:91.767131 7:0.48920118 8:354.827 9:0.66014712 10:2.9037634 
0.25878982323748512 1:5041 2:135.54727 3:48.121048 4:0.93486134 5:5187 6:80.114921 7:0.60119261 8:305.79 9:0.6774543 10:2.8167979 
0.25859854589194398 1:6716 2:168.15035 3:52.120833 4:0.95074776 5:7570 6:92.472032 7:0.42910996 8:410.721 9:0.50029566 10:3.2261639 
0.25871511155354754 1:4859 2:144.69842 3:43.191097 4:0.95441262 5:5005 6:78.655394 7:0.47234373 8:312.756 9:0.62423119 10:3.350191 
0.25880232035122236 1:5528 2:148.03675 3:48.367105 4:0.94511992 5:5676 6:83.895579 7:0.76248276 8:326.1 9:0.65324531 10:3.0606907 
0.25911797569316958 1:5427 2:128.06631 3:54.83162 4:0.90370758 5:5557 6:83.125634 7:0.58480603 8:300.597 9:0.75474527 10:2.3356289 
0.25864456812253417 1:6144 2:149.80169 3:52.972038 4:0.93539128 5:6287 6:88.446502 7:0.68817204 8:334.834 9:0.68865542 10:2.827939 
0.2585347373075344 1:6808 2:168.51107 3:52.256449 4:0.95070169 5:6905 6:93.103248 7:0.44276795 8:367.808 9:0.63239302 10:3.2246942 
0.25831248920873495 1:6842 2:160.25871 3:55.111363 4:0.93900995 5:6982 6:93.335443 7:0.66029724 8:359.686 9:0.66457785 10:2.9079069 
0.25733910731325921 1:5136 2:134.66743 3:49.49482 4:0.93001021 5:5283 6:80.866299 7:0.62231916 8:307.179 9:0.68399328 10:2.720839 
0.16059628020714908 1:6091 2:151.60109 3:52.246668 4:0.93873767 5:6252 6:88.064193 7:0.4977934 8:339.559 9:0.66384696 10:2.9016414 
0.24709946383627246 1:6669 2:160.50012 3:54.010369 4:0.94167884 5:6830 6:92.147895 7:0.80660377 8:354.16 9:0.66814629 10:2.9716538 
0.25234321739667098 1:6199 2:151.6278 3:53.662082 4:0.93528076 5:6420 6:88.841499 7:0.6195902 8:342.435 9:0.66431675 10:2.8256041 
0.22757696875436825 1:6373 2:164.06743 3:50.219824 4:0.95200175 5:6506 6:90.079718 7:0.47920896 8:357.017 9:0.62831292 10:3.2669853 
0.25701558894027199 1:5421 2:143.87326 3:48.523921 4:0.94140849 5:5545 6:83.07967 7:0.61777778 8:320.271 9:0.66413144 10:2.9649965 
0.25418558965513921 1:6661 2:157.88546 3:54.410896 4:0.93874132 5:6842 6:92.092609 7:0.5134906 8:353.09 9:0.67139556 10:2.901725 
0.25903739091281541 1:5301 2:128.00222 3:53.438022 4:0.90868734 5:5416 6:82.154993 7:0.73228346 8:299.091 9:0.74466506 10:2.3953397 
0.25842759308781982 1:5950 2:142.57452 3:53.696529 4:0.92636752 5:6043 6:87.03893 7:0.54909561 8:321.265 9:0.72443596 10:2.6551907 
0.24058153966614065 1:5155 2:138.99658 3:47.477282 4:0.93985576 5:5275 6:81.015738 7:0.49207713 8:312.692 9:0.66252915 10:2.9276439 
0.15995128151727719 1:6034 2:145.24775 3:53.73922 4:0.92903847 5:6178 6:87.651169 7:0.74027727 8:329.532 9:0.69826453 10:2.7028259 
0.25006224019699397 1:6771 2:160.46466 3:54.792537 4:0.93989569 5:6970 6:92.849906 7:0.47868505 8:364.769 9:0.6394798 10:2.9285861 
0.25904387410248531 1:3992 2:97.470849 3:53.154123 4:0.83821914 5:4057 6:71.293564 7:0.58490842 8:243.28 9:0.84759343 10:1.8337401 
0.25878253564130671 1:6750 2:154.12988 3:57.11195 4:0.92881479 5:6985 6:92.705808 7:0.52083333 8:354.106 9:0.6764677 10:2.6987326 
0.25597020137626847 1:5645 2:142.6936 3:51.05531 4:0.93379948 5:5759 6:84.778755 7:0.64929837 8:322.57 9:0.68175112 10:2.7948827 
0.25892171017450094 1:7405 2:163.61531 3:58.115597 4:0.93479164 5:7559 6:97.099634 7:0.49754754 8:373.966 9:0.66538145 10:2.8153426 
0.2585074716685376 1:6527 2:162.67035 3:51.723302 4:0.94810281 5:6619 6:91.161585 7:0.83252551 8:356.079 9:0.64689047 10:3.1450109 
0.13208286073681128 1:5609 2:143.88511 3:50.724381 4:0.93579904 5:5766 6:84.507991 7:0.55076591 8:324.836 9:0.66798544 10:2.8366065 
0.19426827507324984 1:6545 2:156.04279 3:54.511701 4:0.93699672 5:6673 6:91.2872 7:0.79739279 8:349.108 9:0.6748386 10:2.8625559 
0.25863440281644501 1:4790 2:133.4516 3:46.592372 4:0.93707314 5:4906 6:78.094926 7:0.70857988 8:298.677 9:0.67474833 10:2.864237 
0.25897588111550396 1:6668 2:162.86787 3:52.822591 4:0.94594473 5:6908 6:92.140986 7:0.46629371 8:371.444 9:0.60732165 10:3.0832995 
0.25893998911826566 1:5714 2:147.2626 3:50.731194 4:0.93878824 5:5941 6:85.295315 7:0.51491394 8:333.802 9:0.64442478 10:2.9028017 
0.25856101548718713 1:6970 2:164.68568 3:55.14588 4:0.94226955 5:7204 6:94.204457 7:0.47286296 8:369.316 9:0.64216465 10:2.9863641 
0.23556193945475484 1:5833 2:149.67796 3:50.502243 4:0.94135922 5:5983 6:86.17892 7:0.65495172 8:336.604 9:0.64693894 10:2.9637884 
0.25911453931493333 1:6651 2:162.70375 3:52.758563 4:0.94596748 5:6778 6:92.023455 7:0.77953587 8:358.412 9:0.65062647 10:3.0839306 
0.25850022286696167 1:6480 2:160.8253 3:52.046551 4:0.94618657 5:6620 6:90.832771 7:0.63213345 8:355.22 9:0.64534218 10:3.0900281 
0.25853643464600246 1:4592 2:143.09252 3:41.714178 4:0.95656506 5:4743 6:76.463821 7:0.702893 8:309.386 9:0.60285161 10:3.430309 
0.25874691308267267 1:6665 2:160.84537 3:53.652844 4:0.94272609 5:6792 6:92.120256 7:0.50112782 8:355.313 9:0.66341887 10:2.9978908 
0.21158661916994473 1:5992 2:150.30984 3:52.234078 4:0.93767651 5:6161 6:87.345586 7:0.46929825 8:334.842 9:0.67158628 10:2.8776203 
0.25304469797587381 1:5659 2:145.13616 3:50.822129 4:0.93668668 5:5823 6:84.883818 7:0.56954509 8:327.408 9:0.66339315 10:2.8557671 
0.25651157619607312 1:5269 2:146.67334 3:46.695486 4:0.94796861 5:5419 6:81.906649 7:0.44277311 8:326.445 9:0.62132384 10:3.1410604 
0.25884031159527721 1:5817 2:152.1713 3:50.013946 4:0.94444527 5:6016 6:86.060644 7:0.49717949 8:334.919 9:0.65167244 10:3.0425774 
0.25905552239298085 1:6823 2:162.44585 3:54.286198 4:0.94250918 5:6992 6:93.205758 7:0.63505212 8:361.894 9:0.65467004 10:2.9923969 
0.25153822353823918 1:4743 2:125.96533 3:48.343754 4:0.92342199 5:4843 6:77.710843 7:0.796875 8:284.56 9:0.7360635 10:2.6056175 
0.25854237140621789 1:5951 2:166.96751 3:45.995741 4:0.96130761 5:6066 6:87.046244 7:0.39985218 8:359.388 9:0.57899214 10:3.6300645 
0.2589516011355395 1:6299 2:152.1798 3:54.068542 4:0.93475468 5:6487 6:89.555211 7:0.63884381 8:343.774 9:0.669785 10:2.814572 
0.25881693684106555 1:5103 2:137.49916 3:48.114396 4:0.93677771 5:5231 6:80.606088 7:0.54865068 8:309.595 9:0.66903302 10:2.857755 
0.2563743898736518 1:5591 2:158.59974 3:46.062024 4:0.95689643 5:5741 6:84.372284 7:0.42304782 8:345.163 9:0.58972683 10:3.4431779 
0.25869144489169815 1:6163 2:163.54754 3:49.175437 4:0.95372516 5:6347 6:88.583155 7:0.62517752 8:359.645 9:0.59876165 10:3.3257975 
0.25856721867297239 1:4118 2:107.81828 3:49.341171 4:0.88914133 5:4217 6:72.409947 7:0.69373315 8:255.689 9:0.79153863 10:2.1851585 
0.24878966984831241 1:6006 2:154.13284 3:51.282753 4:0.94302641 5:6190 6:87.447565 7:0.46688433 8:343.158 9:0.64092459 10:3.0055493 
0.25899207903539434 1:6599 2:170.45724 3:49.986274 4:0.95603635 5:6746 6:91.663012 7:0.4762214 8:365.254 9:0.62158143 10:3.4100809 
0.22900500188142536 1:6037 2:156.83121 3:49.761653 4:0.94832711 5:6165 6:87.672956 7:0.75387113 8:345.659 9:0.63494382 10:3.1516479 
0.25907210989543639 1:5222 2:141.94254 3:47.98164 4:0.9411333 5:5413 6:81.540523 7:0.60064412 8:323.926 9:0.62539602 10:2.9582678 
0.17248325536199294 1:6294 2:152.99532 3:52.969325 4:0.93815508 5:6458 6:89.519661 7:0.52046639 8:345.596 9:0.66221527 10:2.8883759 
0.25919104559295325 1:6079 2:152.72023 3:51.51186 4:0.94139879 5:6177 6:87.977402 7:0.83871413 8:337.86 9:0.66921929 10:2.9647587 
0.25927887991818144 1:5909 2:146.85361 3:52.360782 4:0.93427591 5:6091 6:86.738529 7:0.5529665 8:332.71 9:0.6707986 10:2.8046489 
0.25691638610359935 1:5669 2:148.16243 3:49.470466 4:0.94261082 5:5779 6:84.958784 7:0.48803375 8:328.216 9:0.66129741 10:2.9949674 
0.25829111380485859 1:5952 2:147.53942 3:52.253633 4:0.93518209 5:6103 6:87.053557 7:0.66666667 8:333.643 9:0.67190636 10:2.8235246 
0.25857284255995072 1:5772 2:154.41793 3:49.229054 4:0.94782067 5:6053 6:85.727117 7:0.4412844 8:342.937 9:0.61674764 10:3.1367236 
0.25871994856254121 1:5382 2:149.252 3:47.219333 4:0.9486348 5:5558 6:82.780283 7:0.63995244 8:330.344 9:0.61975596 10:3.1608239 
0.23747164690131495 1:7039 2:170.16628 3:53.387873 4:0.94950912 5:7190 6:94.6696 7:0.46437525 8:375.073 9:0.62876625 10:3.1873583 
0.25875562345530351 1:6321 2:164.21485 3:50.005272 4:0.95250873 5:6544 6:89.711466 7:0.45021368 8:370.284 9:0.57932966 10:3.2839507 
0.25837047568262772 1:6472 2:150.76636 3:55.203577 4:0.93055461 5:6592 6:90.776684 7:0.54708369 8:337.722 9:0.7130659 10:2.7310977 
0.2573705738028893 1:5074 2:138.80226 3:47.383798 4:0.93992672 5:5235 6:80.376722 7:0.78230034 8:311.644 9:0.65651218 10:2.929319 
0.19363001623353698 1:6897 2:156.853 3:57.311684 4:0.93085661 5:7068 6:93.709835 7:0.63409028 8:356.213 9:0.68304696 10:2.7368416 
0.25857774506988673 1:4375 2:125.75838 3:46.077355 4:0.93045905 5:4567 6:74.635267 7:0.56921676 8:288.233 9:0.66176001 10:2.7292881 
0.11176784528199396 1:6154 2:150.36984 3:53.244711 4:0.93521071 5:6340 6:88.518451 7:0.50467443 8:340.188 9:0.66823524 10:2.8241273 
0.25877071649513494 1:6482 2:154.30094 3:54.253013 4:0.93614838 5:6616 6:90.846787 7:0.48634454 8:346.825 9:0.67717061 10:2.8440991 
0.25903867247283963 1:7289 2:166.68689 3:56.650596 4:0.94047519 5:7454 6:96.336094 7:0.47516297 8:378.151 9:0.64054155 10:2.9423678 
0.25435582424212311 1:6079 2:150.60529 3:52.480825 4:0.93732141 5:6208 6:87.977402 7:0.72060218 8:339.887 9:0.66126098 10:2.8697203 
0.25216798947548225 1:5230 2:140.38434 3:48.733703 4:0.93781152 5:5355 6:81.602958 7:0.81795433 8:313.19 9:0.67003236 10:2.8806418 
0.25857284087862553 1:3556 2:84.323564 3:55.413061 4:0.75376157 5:3636 6:67.287739 7:0.75021097 8:227.007 9:0.86714778 10:1.5217272 
0.23849137609378526 1:6160 2:153.04063 3:52.130737 4:0.94019623 5:6321 6:88.561592 7:0.53057709 8:341.518 9:0.6636871 10:2.9357082 
0.25828345768213573 1:5397 2:142.6156 3:48.966833 4:0.93920812 5:5510 6:82.89556 7:0.76880342 8:316.987 9:0.67496209 10:2.9124938 
0.25830139271725427 1:5912 2:158.84664 3:47.894186 4:0.95346235 5:6057 6:86.760545 7:0.68688277 8:345.692 9:0.62167819 10:3.3166164 
0.22012420154626935 1:6925 2:158.4851 3:56.372967 4:0.93460063 5:7140 6:93.899861 7:0.52248378 8:366.363 9:0.64834539 10:2.811367 
0.25521469244845274 1:6396 2:151.83511 3:55.257084 4:0.93142699 5:6556 6:90.242119 7:0.82 8:342.665 9:0.68450847 10:2.7477945 
0.21473816939923371 1:6459 2:155.58222 3:54.095853 4:0.93760604 5:6614 6:90.685469 7:0.46824706 8:351.987 9:0.65512157 10:2.8760471 
0.2588071496900593 1:5260 2:153.94654 3:44.659688 4:0.95699674 5:5385 6:81.836667 7:0.46043417 8:331.33 9:0.60210757 10:3.447103 
0.21947702754458095 1:5948 2:156.9514 3:49.444717 4:0.94908104 5:6122 6:87.0243 7:0.61958333 8:348.901 9:0.61401134 10:3.1742804 
0.25882291291466986 1:3863 2:124.67738 3:40.581829 4:0.94554386 5:3993 6:70.132192 7:0.64902554 8:278.366 9:0.62647276 10:3.0722466 
0.23046996789337637 1:6575 2:164.3625 3:51.849561 4:0.94893934 5:6740 6:91.496175 7:0.6265485 8:362.977 9:0.62711532 10:3.1699882 
0.25878961978620407 1:6459 2:155.69017 3:53.877835 4:0.93821311 5:6707 6:90.685469 7:0.56067708 8:354.906 9:0.64438952 10:2.8896887 
0.25878851471338954 1:6935 2:156.83314 3:57.415941 4:0.9305772 5:7181 6:93.967634 7:0.50253623 8:364.511 9:0.65589611 10:2.7315261 
0.2386242059289852 1:5950 2:147.91989 3:51.809981 4:0.93665362 5:6152 6:87.03893 7:0.77423552 8:341.425 9:0.64141069 10:2.8550462 
0.24070879900899728 1:5897 2:150.28526 3:51.430208 4:0.93962085 5:6087 6:86.65041 7:0.76109964 8:337.67 9:0.64991422 10:2.9221203 
0.25868462656612395 1:6050 2:148.40488 3:53.328207 4:0.93320568 5:6234 6:87.767302 7:0.71209981 8:334.288 9:0.68033633 10:2.7828591 
0.25903050422193852 1:5783 2:150.73711 3:49.825376 4:0.94379028 5:5986 6:85.808766 7:0.69017783 8:337.571 9:0.63772405 10:3.025308 
0.25894698540192934 1:6371 2:166.42633 3:49.558994 4:0.95463347 5:6595 6:90.065582 7:0.50228635 8:363.806 9:0.60489188 10:3.3581458 
0.24947774410853649 1:4898 2:135.02589 3:47.260978 4:0.9367444 5:5037 6:78.97042 7:0.48399209 8:304.991 9:0.66169004 10:2.857027 
0.16375730491026594 1:6547 2:155.15283 3:55.083309 4:0.93485637 5:6715 6:91.301146 7:0.53752053 8:348.307 9:0.67815318 10:2.816694 
0.22233642315226398 1:6183 2:141.42837 3:56.670144 4:0.91620995 5:6311 6:88.726772 7:0.78038622 8:327.531 9:0.72427632 10:2.4956416 
0.25917811014879533 1:7036 2:169.6833 3:53.923443 4:0.94816154 5:7244 6:94.649424 7:0.50024884 8:370.91 9:0.64268566 10:3.1467445 
0.25878238976361945 1:6488 2:164.66968 3:50.636988 4:0.951546 5:6611 6:90.888823 7:0.82755102 8:359.924 9:0.62935993 10:3.2519644 
0.25874119089251091 1:6481 2:165.9278 3:50.692772 4:0.95218854 5:6679 6:90.839779 7:0.71063596 8:363.754 9:0.61551172 10:3.2732044 
0.25886127785571567 1:4976 2:131.90504 3:49.090228 4:0.92816723 5:5129 6:79.596733 7:0.68351648 8:300.786 9:0.69115428 10:2.6869918 
0.24352644052137937 1:5390 2:140.6503 3:49.823568 4:0.93515561 5:5502 6:82.841784 7:0.81370773 8:314.927 9:0.68293416 10:2.8229673 
0.25877844442821407 1:6067 2:160.08206 3:49.218786 4:0.9515611 5:6242 6:87.890525 7:0.43298601 8:355.824 9:0.60216205 10:3.2524585 
0.25909074576171737 1:6972 2:172.69661 3:52.736982 4:0.95223263 5:7217 6:94.217971 7:0.77312043 8:378.938 9:0.61014201 10:3.2746776 
0.25861628122372193 1:3907 2:126.3143 3:39.58288 4:0.94963171 5:4001 6:70.530468 7:0.65116667 8:276.596 9:0.64174351 10:3.1911345 
0.22879455307667326 1:6206 2:150.10063 3:53.175035 4:0.93514599 5:6352 6:88.891645 7:0.58685579 8:338.846 9:0.67923008 10:2.822765 
0.25862208049381108 1:4976 2:114.12127 3:56.644203 4:0.86812196 5:5093 6:79.596733 7:0.68033908 8:277.133 9:0.81416748 10:2.0147035 
0.18715419766249014 1:5801 2:159.94879 3:46.693871 4:0.95643965 5:5944 6:85.942205 7:0.7797043 8:351.233 9:0.59091104 10:3.4254772 
0.25872511365099382 1:5482 2:137.95332 3:52.311934 4:0.92531463 5:5645 6:83.545791 7:0.49342934 8:324.303 9:0.65500854 10:2.637129 
0.25919050523876042 1:5273 2:134.65533 3:50.732177 4:0.92631262 5:5370 6:81.937733 7:0.58104683 8:302.813 9:0.72263435 10:2.6542392 
0.22326280186497482 1:6186 2:151.86185 3:52.949884 4:0.93724504 5:6319 6:88.748295 7:0.66089744 8:339.903 9:0.67283687 10:2.8680299 
0.25793733220540244 1:5591 2:146.90691 3:48.841574 4:0.94311519 5:5721 6:84.372284 7:0.4887665 8:323.541 9:0.67118263 10:3.007825 
0.25867438464157344 1:5301 2:151.15962 3:44.970739 4:0.95472027 5:5445 6:82.154993 7:0.43080049 8:336.79 9:0.58728552 10:3.3612883 
0.23239981677805846 1:4959 2:129.85316 3:49.975536 4:0.92297417 5:5082 6:79.46065 7:0.64503122 8:298.073 9:0.70138859 10:2.5983346 
0.25875965996808103 1:5097 2:140.07332 3:48.953753 4:0.93694135 5:5283 6:80.558686 7:0.52895392 8:324.191 9:0.60942826 10:2.8613397 
0.25862948758809051 1:7336 2:159.46793 3:59.313473 4:0.92825433 5:7576 6:96.646186 7:0.509586 8:375.544 9:0.65365341 10:2.6885616 
0.1766804198005037 1:6574 2:159.2512 3:53.759992 4:0.9412969 5:6722 6:91.489217 7:0.5143975 8:353.386 9:0.66151681 10:2.9622623 
0.2074144261437203 1:5896 2:147.64087 3:51.553049 4:0.93705615 5:6011 6:86.643063 7:0.48791791 8:329.671 9:0.68171971 10:2.8638631 
0.24944934809944086 1:6105 2:155.30617 3:51.219342 4:0.94405225 5:6265 6:88.165341 7:0.5737782 8:344.163 9:0.64768997 10:3.0321782 
0.25838217669529695 1:6363 2:162.73485 3:50.60706 4:0.9504169 5:6501 6:90.009017 7:0.795375 8:355.194 9:0.63378294 10:3.215655 
0.2589147974187318 1:6637 2:153.75776 3:55.46766 4:0.93266369 5:6919 6:91.926551 7:0.50737711 8:371.797 9:0.60335084 10:2.7720254 
0.2576038618118337 1:5672 2:154.70508 3:47.656879 4:0.95137021 5:5802 6:84.981261 7:0.46683128 8:335.376 9:0.63369769 10:3.2462277 
0.25880999690524242 1:6406 2:161.31169 3:51.457724 4:0.94775619 5:6642 6:90.312638 7:0.57104653 8:365.822 9:0.60152982 10:3.1348393 
0.25124522640282343 1:5433 2:137.35505 3:51.390488 4:0.92737086 5:5555 6:83.171572 7:0.62362259 8:312.712 9:0.69816886 10:2.6727719 
0.25656369119307698 1:5533 2:141.93916 3:50.505344 4:0.93455303 5:5655 6:83.933512 7:0.79611511 8:317.516 9:0.68966678 10:2.8103791 
0.25864045218296183 1:4599 2:150.0844 3:39.474734 4:0.96479123 5:4727 6:76.52208 7:0.77359125 8:317.912 9:0.57182012 10:3.8020371 
0.18828291959920085 1:6246 2:152.10746 3:53.061087 4:0.93718249 5:6390 6:89.177655 7:0.72016603 8:342.219 9:0.67019874 10:2.8666481 
0.25459501626628522 1:5258 2:123.10846 3:55.628979 4:0.89208396 5:5429 6:81.821107 7:0.65235732 8:297.503 9:0.74653083 10:2.2130274 
0.25905952279925226 1:5697 2:154.1561 3:48.468428 4:0.94928684 5:5840 6:85.168337 7:0.44629847 8:339.779 9:0.62010183 10:3.1805467 
0.25390320515622422 1:6563 2:163.59231 3:52.239735 4:0.94764399 5:6785 6:91.412642 7:0.63337194 8:359.322 9:0.63877021 10:3.1315685 
0.25892875354977174 1:6075 2:148.7668 3:53.141568 4:0.93402261 5:6244 6:87.948452 7:0.5532283 8:342.13 9:0.65218954 10:2.7994432 
0.25865061125568151 1:5464 2:161.60388 3:43.442604 4:0.96319 5:5678 6:83.408518 7:0.51693472 8:358.239 9:0.53502593 10:3.71994 
0.25866457256640873 1:6789 2:146.72902 3:59.853905 4:0.91301705 5:6927 6:92.97324 7:0.65203611 8:340.02 9:0.73791569 10:2.4514527 
0.25867511130632215 1:5499 2:136.2555 3:52.955183 4:0.92138707 5:5716 6:83.675231 7:0.61779575 8:311.347 9:0.71285995 10:2.5730343 
0.25870105381962738 1:5350 2:141.65818 3:48.732344 4:0.93896466 5:5445 6:82.533821 7:0.78549405 8:315.812 9:0.67407216 10:2.9068617 
0.25781252313929948 1:6377 2:155.38772 3:53.22417 4:0.93950874 5:6558 6:90.107983 7:0.46257072 8:352.075 9:0.64648121 10:2.9194955 
0.22328145942160729 1:6624 2:161.19351 3:52.96876 4:0.94446795 5:6787 6:91.836478 7:0.45619835 8:359.777 9:0.64307762 10:3.0431807 
0.25400156582368333 1:6590 2:156.97548 3:54.363146 4:0.93811786 5:6770 6:91.600484 7:0.52736876 8:352.054 9:0.66815422 10:2.8875348 
0.25871126905627895 1:6516 2:158.34234 3:53.292428 4:0.94166037 5:6719 6:91.084735 7:0.50073004 8:354.346 9:0.65213254 10:2.9711977 
0.25868520548722967 1:3302 2:96.297438 3:45.241139 4:0.88276955 5:3423 6:64.840088 7:0.5376099 8:233.736 9:0.75951389 10:2.128537 
0.23626432303991468 1:5622 2:141.42733 3:51.512261 4:0.93130852 5:5784 6:84.605867 7:0.49629237 8:321.375 9:0.68403217 10:2.7455081 
0.22966800513672841 1:6589 2:164.94161 3:52.336558 4:0.94832403 5:6752 6:91.593533 7:0.44725767 8:364.614 9:0.6228202 10:3.1515564 
0.20941833388183401 1:4236 2:105.64516 3:52.487291 4:0.86785002 5:4326 6:73.440062 7:0.53505116 8:260.888 9:0.78209158 10:2.012776 
0.25869344861825166 1:5450 2:152.25114 3:46.306855 4:0.95262484 5:5560 6:83.301594 7:0.43617447 8:334.841 9:0.6108423 10:3.2878748 
0.25880402853940065 1:6398 2:149.18708 3:55.824624 4:0.92735122 5:6705 6:90.256228 7:0.74534017 8:349.422 9:0.65849671 10:2.6724242 
0.25898245645955925 1:6388 2:154.18835 3:53.897534 4:0.9369153 5:6661 6:90.185665 7:0.65517949 8:359.893 9:0.61976632 10:2.8607682 
0.25350521429223993 1:5447 2:139.75663 3:50.960587 4:0.93114934 5:5581 6:83.278664 7:0.54415584 8:315.351 9:0.68830166 10:2.7424455 
0.25906416715537961 1:4703 2:138.98457 3:44.279005 4:0.94789283 5:4838 6:77.382463 7:0.46344107 8:307.292 9:0.62586741 10:3.1388367 
0.25868609276565824 1:7254 2:170.51277 3:55.809904 4:0.9449183 5:7478 6:96.104525 7:0.52247191 8:381.115 9:0.62758901 10:3.0552422 
0.24233408584929222 1:5516 2:140.66467 3:50.632481 4:0.93297096 5:5621 6:83.804471 7:0.50036284 8:317.563 9:0.68734429 10:2.7781508 
0.25848490783469985 1:6160 2:140.93128 3:56.892673 4:0.91489544 5:6318 6:88.561592 7:0.69174621 8:325.886 9:0.72888526 10:2.4771428 
0.25892028681611196 1:4975 2:138.59982 3:46.339969 4:0.94245124 5:5125 6:79.588735 7:0.59374627 8:310.115 9:0.65006593 10:2.9909348 
0.24857681941804879 1:6136 2:157.80844 3:50.657569 4:0.94707692 5:6342 6:88.388901 7:0.49245586 8:350.459 9:0.62779923 10:3.1151997 
0.20289917449226455 1:6395 2:155.96228 3:53.71837 4:0.93881134 5:6617 6:90.235065 7:0.58004535 8:351.209 9:0.65150708 10:2.9033324 
0.25926682593409367 1:4580 2:139.85703 3:42.26629 4:0.95324115 5:4706 6:76.363847 7:0.63085399 8:302.125 9:0.63052457 10:3.3089497 
0.25870455548775095 1:5469 2:147.35403 3:47.775783 4:0.94598017 5:5566 6:83.446672 7:0.47379364 8:324.304 9:0.65345123 10:3.0842828 
0.13181085605021675 1:5924 2:143.39048 3:53.418595 4:0.9280164 5:6060 6:86.848552 7:0.49104775 8:324.452 9:0.70717028 10:2.6842803 
0.2584906545308554 1:5768 2:152.31163 3:49.224135 4:0.94633738 5:5872 6:85.697408 7:0.46351655 8:335.154 9:0.64527717 10:3.094247 
0.22748148097427554 1:5708 2:147.58697 3:50.212416 4:0.94034494 5:5841 6:85.250521 7:0.5994539 8:331.328 9:0.65339762 10:2.9392525 
0.22258548290794891 1:5693 2:143.5414 3:51.548778 4:0.93329089 5:5820 6:85.138433 7:0.53505639 8:322.505 9:0.6878253 10:2.7845743 
0.2587885866959545 1:5923 2:154.02378 3:50.653642 4:0.94437556 5:6123 6:86.841222 7:0.79524705 8:344.51 9:0.62711607 10:3.0407247 
0.25878872506618211 1:6296 2:165.77002 3:49.062896 4:0.95519734 5:6459 6:89.533883 7:0.44617674 8:365.992 9:0.59065162 10:3.3787247 
0.25878856144777984 1:4642 2:130.34947 3:46.731802 4:0.93352525 5:4826 6:76.878983 7:0.52011204 8:297.414 9:0.65946566 10:2.7893096 
0.25871637337447562 1:7336 2:165.16348 3:57.830611 4:0.93669677 5:7605 6:96.646186 7:0.53516195 8:375.227 9:0.65475832 10:2.8559871 
0.2523688314715179 1:5454 2:135.9574 3:52.088253 4:0.9236978 5:5626 6:83.332158 7:0.68863636 8:312.463 9:0.70198495 10:2.6101355 
0.25244973038974905 1:6662 2:154.17983 3:55.713519 4:0.93242865 5:6819 6:92.099521 7:0.80634229 8:347.586 9:0.69293092 10:2.7673684 
0.25852638086317969 1:5006 2:125.31324 3:51.872726 4:0.91030212 5:5170 6:79.836315 7:0.74962564 8:292.789 9:0.73382279 10:2.4157828 
0.1663164477265921 1:6102 2:156.53194 3:50.599035 4:0.94631342 5:6275 6:88.143676 7:0.48808191 8:345.679 9:0.64170596 10:3.0935757 
0.25871909960183787 1:7226 2:164.00091 3:57.750566 4:0.93594898 5:7511 6:95.918866 7:0.48160491 8:384.425 9:0.61444721 10:2.8398149 
0.25862826656184962 1:6275 2:152.41901 3:53.106879 4:0.93733596 5:6396 6:89.38444 7:0.58920188 8:341.889 9:0.67461088 10:2.8700426 
0.2253644148666229 1:5850 2:145.17472 3:52.256764 4:0.93296861 5:6011 6:86.304411 7:0.70532915 8:329.095 9:0.67877082 10:2.778104 
0.25878868266559568 1:5401 2:147.89329 3:47.016481 4:0.94812152 5:5493 6:82.926273 7:0.46600518 8:322.956 9:0.65072475 10:3.1455628 
0.25878179408370461 1:5259 2:138.90314 3:49.802257 4:0.93351457 5:5424 6:81.828887 7:0.61322295 8:314.093 9:0.66987924 10:2.7890933 
0.18139130673677767 1:6276 2:154.3889 3:52.792841 4:0.93971919 5:6459 6:89.391562 7:0.47697218 8:346.955 9:0.65515868 10:2.9244287 
0.16245242742729316 1:6025 2:149.12736 3:52.687853 4:0.93550715 5:6181 6:87.585777 7:0.74199507 8:339.382 9:0.65733886 10:2.8303936 
0.25831834618268879 1:6808 2:164.16377 3:53.798746 4:0.94477701 5:7032 6:93.103248 7:0.58188034 8:363.78 9:0.64647506 10:3.0514422 
0.25878541259730148 1:6223 2:163.35894 3:49.413263 4:0.95315485 5:6439 6:89.013312 7:0.54587719 8:358.256 9:0.60928813 10:3.3059735 
0.25865061125034172 1:5356 2:154.99989 3:44.279084 4:0.95832754 5:5455 6:82.580088 7:0.41616162 8:334.453 9:0.60170032 10:3.5005216 
0.23998545024989199 1:5938 2:152.99886 3:50.17537 4:0.94469646 5:6070 6:86.951115 7:0.57272377 8:342.278 9:0.63693056 10:3.0492822 
0.25501155326159619 1:6140 2:152.01173 3:53.046312 4:0.93713689 5:6354 6:88.417706 7:0.70867959 8:346.37 9:0.64312841 10:2.8656418 
0.25878387859402041 1:5722 2:137.86357 3:53.843316 4:0.92057957 5:5900 6:85.355004 7:0.77345228 8:319.716 9:0.7034431 10:2.5604584 
0.24869654482093656 1:5828 2:146.07638 3:51.914493 4:0.93471704 5:5974 6:86.141976 7:0.47896121 8:329.342 9:0.67520425 10:2.8137879 
0.25839318371247821 1:3197 2:115.15164 3:36.770882 4:0.94764501 5:3379 6:63.800837 7:0.47489602 8:253.285 9:0.62622955 10:3.1315985 
0.2497732842922003 1:5350 2:133.84601 3:51.901223 4:0.92175693 5:5525 6:82.533821 7:0.53521409 8:309.745 9:0.70073698 10:2.5788604 
0.25398136410002925 1:5832 2:146.25672 3:51.775826 4:0.93524297 5:5988 6:86.171533 7:0.57176471 8:331.626 9:0.6663927 10:2.8248071 
0.25867610985236844 1:7145 2:163.01804 3:56.953863 4:0.93698427 5:7302 6:95.379749 7:0.76993534 8:366.177 9:0.6696224 10:2.8622823 
0.24699383873850986 1:5870 2:149.77064 3:50.919503 4:0.9404315 5:6017 6:86.451814 7:0.51536435 8:334.273 9:0.66015416 10:2.9413217 
0.25890453850962247 1:5977 2:144.84168 3:53.560877 4:0.92911572 5:6077 6:87.236189 7:0.48831699 8:329.242 9:0.69288739 10:2.704244 
0.25910810148070584 1:5728 2:146.12919 3:51.761544 4:0.93516299 5:5965 6:85.399743 7:0.69061973 8:335.571 9:0.63921069 10:2.8231227 
0.22238938094029345 1:6600 2:156.28763 3:54.863992 4:0.93635858 5:6791 6:91.669957 7:0.8034084 8:354.856 9:0.65864211 10:2.8486375 
0.25841946940035587 1:6655 2:164.81997 3:52.14864 4:0.94862668 5:6803 6:92.051123 7:0.71713362 8:360.744 9:0.64262807 10:3.1605805 
0.229013627915162 1:6671 2:156.74684 3:55.123171 4:0.93612401 5:6814 6:92.161711 7:0.52568952 8:351.807 9:0.67731681 10:2.8435744 
0.18674080151193317 1:5321 2:136.78833 3:50.608558 4:0.92904085 5:5449 6:82.309827 7:0.74149944 8:312.678 9:0.68392499 10:2.7028696 
0.21461523675106325 1:5792 2:154.99205 3:48.585161 4:0.94959852 5:5928 6:85.875511 7:0.56260321 8:340.558 9:0.62756143 10:3.1901108 
0.25917628812084736 1:5526 2:153.32717 3:46.590818 4:0.95271498 5:5672 6:83.880401 7:0.48135889 8:335.986 9:0.61514625 10:3.290931 
0.17934505628797814 1:6136 2:145.96337 3:54.988313 4:0.92632442 5:6315 6:88.388901 7:0.69208211 8:334.619 9:0.68864282 10:2.6544435 
0.25878933516008018 1:5308 2:137.84935 3:50.499254 4:0.93048242 5:5468 6:82.209218 7:0.57508126 8:313.994 9:0.67654717 10:2.7297305 
0.13372452009628555 1:6554 2:157.07571 3:54.443875 4:0.93800965 5:6696 6:91.349942 7:0.46141932 8:351.638 9:0.6660774 10:2.8850941 
0.25889106681530205 1:4796 2:137.42771 3:45.084683 4:0.94465651 5:4917 6:78.143822 7:0.48230089 8:302.559 9:0.65836826 10:3.0482129 
0.20264269424373099 1:6442 2:157.51164 3:53.197303 4:0.94124099 5:6622 6:90.566049 7:0.62325851 8:352.706 9:0.65073608 10:2.9608953 
0.25893189100361774 1:4251 2:129.91422 3:42.443817 4:0.94512586 5:4377 6:73.569976 7:0.46982759 8:283.63 9:0.66404367 10:3.0608516 
0.21057849674821782 1:6334 2:149.66203 3:55.019924 4:0.92997301 5:6499 6:89.803671 7:0.54792388 8:340.128 9:0.68802331 10:2.7201424 
0.25907448160764657 1:6535 2:165.60971 3:51.468359 4:0.95048153 5:6842 6:91.217435 7:0.45000689 8:369.697 9:0.60084659 10:3.2176994 
0.25720968804479977 1:5247 2:146.46567 3:46.464179 4:0.94834663 5:5426 6:81.735475 7:0.46131528 8:325.378 9:0.6227942 10:3.1522275 
0.2148555454157933 1:6168 2:156.07122 3:50.746631 4:0.94566229 5:6306 6:88.619081 7:0.74655047 8:346.238 9:0.64655395 10:3.0754992 
0.25880019370993507 1:5119 2:153.81022 3:43.035669 4:0.96005913 5:5292 6:80.732356 7:0.50068466 8:334.247 9:0.57578448 10:3.5740173 
0.25867942153514334 1:5783 2:134.97106 3:55.193013 4:0.91256809 5:5937 6:85.808766 7:0.59495885 8:316.683 9:0.7246254 10:2.4454375 
0.25910323570126315 1:6154 2:148.94839 3:53.497519 4:0.93327286 5:6380 6:88.518451 7:0.55955628 8:338.97 9:0.67304613 10:2.7842112 
0.25775113738443189 1:5243 2:141.08475 3:48.064763 4:0.94017929 5:5364 6:81.704314 7:0.5563455 8:312.009 9:0.67679241 10:2.9353053 
0.22068535509266385 1:6854 2:159.93184 3:55.6524 4:0.93750354 5:7044 6:93.417257 7:0.53417504 8:363.17 9:0.65303135 10:2.8737636 
0.2561304261413393 1:6370 2:160.6504 3:51.83232 4:0.94652159 5:6576 6:90.058514 7:0.60828877 8:357.362 9:0.62680515 10:3.0994252 
0.25849290527569868 1:6761 2:161.40937 3:54.213644 4:0.94190597 5:6896 6:92.781316 7:0.47787673 8:358.775 9:0.66004942 10:2.9772832 
0.25873389754237486 1:6761 2:169.10331 3:51.956195 4:0.95163035 5:7004 6:92.781316 7:0.77784169 8:382.735 9:0.57999526 10:3.2547285 
0.25874784320191052 1:4923 2:128.31019 3:50.521256 4:0.91922051 5:5119 6:79.171701 7:0.55277341 8:304.136 9:0.66881197 10:2.5397269 
0.25918327470741098 1:5933 2:161.99415 3:47.500344 4:0.9560442 5:6081 6:86.914499 7:0.64876982 8:351.762 9:0.60254067 10:3.4103786 
0.25849475575752912 1:6562 2:156.90671 3:54.386747 4:0.93800624 5:6698 6:91.405678 7:0.48535503 8:351.504 9:0.66739899 10:2.8850174 
0.21046847917821052 1:6113 2:155.51889 3:50.917527 4:0.9448844 5:6273 6:88.223088 7:0.45845208 8:344.401 9:0.64764267 10:3.0543291 
0.24346802494670564 1:6044 2:156.0489 3:50.495811 4:0.94619751 5:6203 6:87.72377 7:0.76025157 8:342.103 9:0.64896392 10:3.0903336 
0.22392217672339004 1:5672 2:147.3405 3:50.049054 4:0.94054001 5:5852 6:84.981261 7:0.78234483 8:327.548 9:0.66434884 10:2.9439218 
0.25422314133339002 1:6432 2:154.14467 3:54.01535 4:0.93659273 5:6622 6:90.495728 7:0.80844646 8:345.965 9:0.67529195 10:2.8537197 
0.24019076289806657 1:5633 2:144.64799 3:50.729165 4:0.93648498 5:5779 6:84.688596 7:0.47320228 8:328.331 9:0.65663773 10:2.8513774 
0.25879965482877498 1:6628 2:171.96828 3:50.836533 4:0.95530693 5:6894 6:91.864203 7:0.51463623 8:375.921 9:0.58938515 10:3.3827696 
0.24105204216490253 1:6064 2:152.69699 3:51.792942 4:0.94071872 5:6251 6:87.868792 7:0.61252525 8:345.817 9:0.6372009 10:2.9482201 
0.25879512990344244 1:6896 2:165.64433 3:55.038272 4:0.9431851 5:7206 6:93.703041 7:0.60618847 8:373.018 9:0.62279847 10:3.0096208 
0.25865305982857145 1:6733 2:160.7911 3:54.086602 4:0.94172702 5:6943 6:92.588994 7:0.7222699 8:363.788 9:0.63932508 10:2.9728453 
0.2589096139164252 1:5823 2:164.25143 3:45.698905 4:0.96051584 5:5955 6:86.105017 7:0.4556338 8:351.063 9:0.59372664 10:3.5942093 
0.19395775912366459 1:5506 2:136.53421 3:52.354795 4:0.92355935 5:5632 6:83.728471 7:0.6004362 8:312.514 9:0.70844659 10:2.6078645 
0.25753423689362104 1:7188 2:162.03752 3:57.653504 4:0.93456081 5:7397 6:95.666326 7:0.58515142 8:368.171 9:0.66637513 10:2.8105406 
0.25829730627420899 1:6333 2:168.88372 3:48.963321 4:0.95704989 5:6512 6:89.796581 7:0.78807865 8:363.58 9:0.60203173 10:3.4491884 
0.2587881969588291 1:6579 2:156.64279 3:54.676592 4:0.93710308 5:6843 6:91.524002 7:0.52971014 8:360.415 9:0.63644963 10:2.8648967 
0.25885368170785444 1:4676 2:133.5905 3:44.863075 4:0.94192428 5:4783 6:77.160016 7:0.81124219 8:299.942 9:0.65314529 10:2.9777384 
0.25885061426349953 1:5636 2:149.29555 3:49.107737 4:0.94435442 5:5800 6:84.711145 7:0.62262483 8:335.206 9:0.63031448 10:3.0401636 
0.24202912153903558 1:5514 2:142.40991 3:50.65938 4:0.93458903 5:5672 6:83.789276 7:0.63350184 8:322.288 9:0.66709603 10:2.8111263 
0.23413304809886851 1:6284 2:158.98707 3:50.999043 4:0.9471555 5:6421 6:89.448518 7:0.45339105 8:349.298 9:0.64722285 10:3.117452 
0.24808555253125247 1:5866 2:146.45834 3:52.106116 4:0.9345719 5:6017 6:86.422353 7:0.81996086 8:332.46 9:0.66691905 10:2.8107706 
0.25879763803879985 1:5418 2:140.37524 3:51.10006 4:0.93138928 5:5711 6:83.056679 7:0.62318841 8:324.075 9:0.64827281 10:2.747066 
0.25848226940261121 1:6994 2:164.36889 3:55.248486 4:0.9418174 5:7217 6:94.366506 7:0.47822222 8:377.877 9:0.61550924 10:2.975084 
0.25880135348444455 1:6967 2:164.051 3:55.253723 4:0.94157327 5:7153 6:94.184181 7:0.47010796 8:371.98 9:0.63272719 10:2.9690488 
0.18642388101218418 1:6315 2:162.10898 3:50.890872 4:0.94944613 5:6509 6:89.668878 7:0.71372061 8:356.443 9:0.62460152 10:3.1854236 
0.24854619201836636 1:6296 2:164.58322 3:49.940316 4:0.95285213 5:6501 6:89.533883 7:0.44526167 8:363.585 9:0.59849795 10:3.2955982 
0.12262921379921773 1:6346 2:153.4333 3:53.896567 4:0.93627408 5:6513 6:89.888699 7:0.50719309 8:347.234 9:0.66140191 10:2.8468102 
0.25190556239177897 1:5995 2:154.38605 3:50.464777 4:0.94506795 5:6168 6:87.367449 7:0.6386492 8:342.178 9:0.64342049 10:3.0592833 
0.2083732349093636 1:6369 2:158.94195 3:52.563027 4:0.9437339 5:6594 6:90.051445 7:0.78013229 8:354.368 9:0.63734138 10:3.0238357 
0.25878840599046088 1:4894 2:124.9072 3:50.300301 4:0.91533141 5:5018 6:78.938168 7:0.63377363 8:289.068 9:0.73599319 10:2.4832296 
0.19948710568007028 1:7174 2:165.98891 3:56.335638 4:0.94064431 5:7368 6:95.573116 7:0.52556777 8:368.909 9:0.66241893 10:2.9464281 
0.22472918004068232 1:6917 2:166.86858 3:53.764357 4:0.94667305 5:7118 6:93.845607 7:0.48343584 8:368.944 9:0.63856739 10:3.1037028 
0.25886597095512942 1:5133 2:131.62463 3:50.901012 4:0.92219994 5:5363 6:80.842678 7:0.7718797 8:308.915 9:0.6759322 10:2.5858942 
0.25756760088623187 1:6129 2:154.44076 3:51.234743 4:0.94336956 5:6283 6:88.338469 7:0.74290909 8:342.533 9:0.65643941 10:3.0143755 
0.25874820562425094 1:5623 2:150.93351 3:48.98907 4:0.94586036 5:5792 6:84.613391 7:0.51422039 8:330.601 9:0.64650163 10:3.0809629 
0.25740749282048314 1:6648 2:160.68672 3:54.143451 4:0.9415224 5:6894 6:92.002698 7:0.81430671 8:363.167 9:0.63341467 10:2.967796 
0.25727114681705565 1:6997 2:169.26781 3:53.339226 4:0.94905271 5:7131 6:94.386742 7:0.47504922 8:370.269 9:0.64133809 10:3.1734209 
0.24928003730466275 1:6666 2:161.66466 3:52.862767 4:0.94502772 5:6817 6:92.127166 7:0.79603535 8:353.648 9:0.6697809 10:3.0581952 
0.22483511724817612 1:6246 2:153.51163 3:52.613101 4:0.93943381 5:6401 6:89.177655 7:0.77628635 8:346.767 9:0.65273413 10:2.9177453 
0.18589464805786673 1:5593 2:146.16932 3:49.4743 4:0.94097627 5:5735 6:84.387373 7:0.70219711 8:323.246 9:0.67264879 10:2.9544495 
0.15396244159853995 1:5960 2:155.53258 3:49.444714 4:0.9481223 5:6122 6:87.112041 7:0.49966465 8:344.281 9:0.63187331 10:3.1455857 
0.25739177960876164 1:7192 2:167.66192 3:55.911902 4:0.94275717 5:7405 6:95.69294 7:0.71165644 8:374.034 9:0.64600723 10:2.9986804 
0.2526369643518086 1:5362 2:148.53241 3:46.568321 4:0.94958062 5:5483 6:82.62633 7:0.70256813 8:326.389 9:0.63250745 10:3.1895591 
0.25879943948634104 1:5342 2:134.57582 3:51.125787 4:0.92502624 5:5427 6:82.47209 7:0.54565884 8:302.096 9:0.73556964 10:2.6322494 
0.25860497451970882 1:5368 2:149.80087 3:46.853739 4:0.94982775 5:5501 6:82.672546 7:0.62746932 8:333.114 9:0.60790624 10:3.197202 
0.25809131778934924 1:6218 2:155.63908 3:51.891703 4:0.94278176 5:6368 6:88.977545 7:0.50064412 8:342.296 9:0.66689419 10:2.9993057 
0.25699124034113352 1:6457 2:155.56499 3:54.198843 4:0.93734595 5:6651 6:90.671427 7:0.52039007 8:347.597 9:0.67156586 10:2.8702641 
0.25880943795131828 1:5303 2:146.75511 3:46.359004 4:0.94879461 5:5377 6:82.170489 7:0.45656479 8:320.708 9:0.64790585 10:3.1656225 
0.25690548571785965 1:5422 2:149.67513 3:47.162085 4:0.94905969 5:5569 6:83.087332 7:0.50465376 8:329.212 9:0.62866323 10:3.1736325 
0.2579922533177389 1:5655 2:152.00038 3:48.124513 4:0.94855652 5:5798 6:84.853813 7:0.56891348 8:332.13 9:0.64420822 10:3.1584814 
0.25329060380823587 1:6219 2:150.77409 3:53.477342 4:0.93498577 5:6392 6:88.984699 7:0.63073022 8:341.963 9:0.66830111 10:2.8194014 
0.08911026232905217 1:5959 2:147.6954 3:52.490048 4:0.93471662 5:6136 6:87.104733 7:0.52405241 8:334.77 9:0.66817494 10:2.8137792 
0.22490995487388787 1:6246 2:155.67449 3:52.174025 4:0.94216542 5:6402 6:89.177655 7:0.46969469 8:342.466 9:0.66923234 10:2.9837547 
0.25878446276009959 1:6327 2:147.055 3:55.775932 4:0.9252794 5:6419 6:89.754034 7:0.50039544 8:333.725 9:0.71388822 10:2.6365314 
0.25890357486759669 1:5433 2:146.21816 3:47.917668 4:0.94477714 5:5562 6:83.171572 7:0.50352178 8:323.094 9:0.65402114 10:3.0514457 
0.2585746214406261 1:6860 2:166.54498 3:53.558208 4:0.94688104 5:7088 6:93.458136 7:0.76992144 8:372.381 9:0.62166863 10:3.109607 
0.25706665307082882 1:6697 2:158.0665 3:54.874053 4:0.93780665 5:6860 6:92.341135 7:0.69478162 8:354.525 9:0.66957069 10:2.8805326 
0.22461184057222805 1:5603 2:157.29713 3:45.777288 4:0.95671566 5:5733 6:84.46278 7:0.4880662 8:339.385 9:0.61128706 10:3.4361391 
0.25862235902779979 1:6047 2:160.89646 3:48.876127 4:0.95274419 5:6270 6:87.745538 7:0.45466165 8:355.249 9:0.60212146 10:3.2919232 
0.25686275459232255 1:6168 2:150.79606 3:53.028077 4:0.93612995 5:6377 6:88.619081 7:0.78553235 8:342.012 9:0.66263068 10:2.8437021 
0.25900103874177072 1:5870 2:140.20247 3:54.290132 4:0.92198455 5:6028 6:86.451814 7:0.5312698 8:327.386 9:0.68822074 10:2.5824668 
0.24186554940350474 1:5239 2:137.14113 3:49.283519 4:0.93319766 5:5396 6:81.673141 7:0.49923766 8:313.609 9:0.66939309 10:2.7826976 
0.25882472491432351 1:6284 2:154.24584 3:52.995428 4:0.93912426 5:6606 6:89.448518 7:0.59802056 8:359.521 9:0.61093853 10:2.91055 
0.2216686073310235 1:3866 2:98.219827 3:52.02728 4:0.84818356 5:4003 6:70.159419 7:0.7744391 8:247.889 9:0.79060071 10:1.8878524 
0.25368738618256292 1:6099 2:158.55659 3:50.350012 4:0.94824075 5:6286 6:88.122006 7:0.77654698 8:350.075 9:0.62538333 10:3.1490874 
0.24846411332003668 1:6477 2:159.45876 3:52.800209 4:0.94358816 5:6655 6:90.811742 7:0.51832586 8:353.261 9:0.65221739 10:3.0200403 
0.25734454270103369 1:5110 2:137.64368 3:48.123796 4:0.93688939 5:5236 6:80.661354 7:0.48731642 8:307.49 9:0.67915479 10:2.8601999 
0.25882853288242713 1:7082 2:158.18622 3:58.772612 4:0.92841669 5:7465 6:94.95832 7:0.57652231 8:384.631 9:0.6015576 10:2.6914955 
0.25843352386153962 1:5997 2:154.69062 3:50.172923 4:0.94593931 5:6157 6:87.382021 7:0.64678602 8:344.27 9:0.63583664 10:3.0831494 
0.25815583367292161 1:6495 2:165.81518 3:50.614121 4:0.95227411 5:6654 6:90.937841 7:0.47652238 8:359.656 9:0.63097827 10:3.2760655 
0.24901809569226335 1:6492 2:156.35273 3:53.897878 4:0.93870564 5:6655 6:90.916836 7:0.7714795 8:350.895 9:0.66257343 10:2.900907 
0.25906093006177167 1:6483 2:158.65704 3:53.101838 4:0.94232624 5:6669 6:90.853794 7:0.47788589 8:355.919 9:0.64310745 10:2.9877881 
0.25921541727235187 1:4814 2:131.14811 3:47.151205 4:0.93313492 5:4918 6:78.290326 7:0.58280872 8:292.492 9:0.70711161 10:2.7814371 
0.25687166362880887 1:6304 2:156.12946 3:52.356563 4:0.94209692 5:6496 6:89.590748 7:0.74913844 8:353.028 9:0.63563494 10:2.9820418 
0.25891595645365928 1:3873 2:118.68967 3:42.556314 4:0.9335101 5:3987 6:70.222908 7:0.49653846 8:268.981 9:0.67268873 10:2.7890027 
0.14919299232082328 1:4998 2:132.4382 3:48.711912 4:0.92990151 5:5120 6:79.772497 7:0.65027322 8:300.091 9:0.69742928 10:2.7188052 
0.25878510419094836 1:5083 2:127.75619 3:51.648382 4:0.91463835 5:5253 6:80.447975 7:0.58425287 8:301.515 9:0.70260644 10:2.4735758 
0.21456341765107248 1:5891 2:157.45748 3:48.059457 4:0.95228129 5:6072 6:86.606317 7:0.4459838 8:344.831 9:0.62256727 10:3.2763059 
0.25846432099231675 1:6217 2:150.54295 3:53.233644 4:0.93539257 5:6399 6:88.97039 7:0.4826114 8:346.335 9:0.65132533 10:2.8279663 
0.24441330173724846 1:5925 2:147.77376 3:52.021671 4:0.93598649 5:6079 6:86.855882 7:0.56834532 8:333.222 9:0.67054957 10:2.8406192 
0.24475942414004612 1:6586 2:158.77711 3:54.23021 4:0.93986386 5:6817 6:91.57268 7:0.57404341 8:355.469 9:0.65498013 10:2.9278351 
0.18971404298577565 1:6510 2:160.93926 3:52.631206 4:0.94501559 5:6669 6:91.042789 7:0.75390851 8:354.343 9:0.65154308 10:3.0578676 
0.22406803851911372 1:6590 2:158.3223 3:53.910047 4:0.94024154 5:6736 6:91.600484 7:0.64179977 8:352.309 9:0.66718735 10:2.9367866 
0.25684359326139272 1:6568 2:162.97544 3:52.248012 4:0.94721865 5:6708 6:91.447457 7:0.80996424 8:357.08 9:0.64730946 10:3.1192659 
0.22438647843516624 1:4963 2:138.93214 3:46.085976 4:0.94337939 5:5091 6:79.492691 7:0.79331841 8:306.351 9:0.66453144 10:3.0146294 
0.25889696008048035 1:6591 2:171.84861 3:49.579264 4:0.95747825 5:6755 6:91.607433 7:0.54925 8:372.116 9:0.59814226 10:3.4661388 
0.23798390664349947 1:6454 2:153.43845 3:54.014813 4:0.93598902 5:6639 6:90.650361 7:0.54778476 8:351.104 9:0.65791119 10:2.8406735 
0.25899841042187854 1:5719 2:136.94206 3:54.128198 4:0.91856778 5:5859 6:85.332625 7:0.6466531 8:316.558 9:0.71717208 10:2.5299579 
0.25817511552214467 1:6414 2:162.92607 3:51.410214 4:0.94891121 5:6582 6:90.369013 7:0.49490741 8:355.015 9:0.63950716 10:3.1691381 
0.2590377185319811 1:6097 2:144.25663 3:54.35199 4:0.92630566 5:6223 6:88.107556 7:0.59367089 8:324.53 9:0.72747213 10:2.6541187 
0.25286764649990834 1:4738 2:123.00339 3:50.137914 4:0.91315428 5:4844 6:77.669872 7:0.50318607 8:284.343 9:0.73641027 10:2.4533008 
0.25915381336196097 1:6398 2:166.38945 3:50.021371 4:0.95374139 5:6568 6:90.256228 7:0.44209508 8:361.835 9:0.61409131 10:3.3263672 
0.25903011581648727 1:7107 2:169.15223 3:54.425215 4:0.94682368 5:7246 6:95.125777 7:0.45181182 8:374.01 9:0.6384542 10:3.1079753 
0.25884665563914688 1:3176 2:110.32033 3:38.376971 4:0.93754333 5:3332 6:63.590949 7:0.45632184 8:243.926 9:0.67077083 10:2.8746493 
0.25923581799277717 1:3657 2:92.436906 3:51.864299 4:0.82776305 5:3725 6:68.236625 7:0.63215212 8:234.047 9:0.83893568 10:1.7822839 
0.25746925482869298 1:6824 2:160.28898 3:55.309145 4:0.93858102 5:7026 6:93.212588 7:0.47133582 8:368.061 9:0.63300812 10:2.8980557 
0.22871308233453794 1:5810 2:148.61833 3:51.024193 4:0.93921714 5:6021 6:86.008847 7:0.53976217 8:334.372 9:0.65301956 10:2.9127032 
0.25862145576230633 1:5869 2:143.69341 3:52.793825 4:0.93006065 5:5995 6:86.44445 7:0.51600141 8:322.432 9:0.70941064 10:2.7217845 
0.22859978193400807 1:6333 2:158.54665 3:51.62837 4:0.94549549 5:6484 6:89.796581 7:0.48306636 8:349.501 9:0.65151213 10:3.0709211 
0.25356404004186595 1:6707 2:166.98536 3:53.057292 4:0.94817916 5:6957 6:92.410052 7:0.53078506 8:371.612 9:0.61032156 10:3.147265 
0.25893084152288726 1:6249 2:166.68679 3:49.189097 4:0.9554667 5:6470 6:89.199069 7:0.72781272 8:357.865 9:0.61317147 10:3.3886938 
0.25755476270755684 1:6154 2:158.05206 3:50.456037 4:0.94767497 5:6327 6:88.518451 7:0.71825397 8:349.587 9:0.63278592 10:3.1324707 
0.25832998113306171 1:6232 2:161.05559 3:50.342945 4:0.94989105 5:6414 6:89.077656 7:0.55767338 8:354.294 9:0.62389243 10:3.1991689 
0.12027928523095677 1:5854 2:143.85174 3:53.165776 4:0.92919602 5:6028 6:86.333912 7:0.60675788 8:326.018 9:0.69211685 10:2.7057208 
0.24130983634341066 1:6060 2:155.00253 3:51.069796 4:0.94416354 5:6250 6:87.839807 7:0.76226415 8:343.368 9:0.64589638 10:3.0351116 
0.25771920351462102 1:6828 2:163.42934 3:54.569653 4:0.94260721 5:7029 6:93.239904 7:0.78078902 8:363.606 9:0.64899492 10:2.994876 
0.2588001232379134 1:6610 2:148.66567 3:57.120766 4:0.92324033 5:6730 6:91.739378 7:0.53530936 8:336.02 9:0.73566665 10:2.6026554 
0.20381387110433102 1:6568 2:158.41304 3:53.466083 4:0.94132172 5:6717 6:91.447457 7:0.47173741 8:356.193 9:0.65053737 10:2.9628697 
0.25682506581214504 1:6358 2:162.27196 3:50.728054 4:0.94988113 5:6566 6:89.973646 7:0.45511811 8:363.09 9:0.60604073 10:3.1988603 
0.25881653978732821 1:6986 2:168.95861 3:53.514491 4:0.94851528 5:7118 6:94.31252 7:0.8403705 8:368.418 9:0.64678027 10:3.1572496 
0.25885554459594495 1:3335 2:87.978305 3:50.23674 4:0.82094114 5:3459 6:65.163286 7:0.625 8:229.787 9:0.7936971 10:1.7512742 
0.24139099333107616 1:5985 2:145.80544 3:53.674983 4:0.92977534 5:6147 6:87.294551 7:0.49466898 8:330.731 9:0.68758154 10:2.7164506 
0.2583590406450012 1:5967 2:148.59463 3:52.909705 4:0.93446027 5:6198 6:87.163182 7:0.64195804 8:335.074 9:0.66785848 10:2.808457 
0.25829380498576437 1:6270 2:152.52909 3:53.0013 4:0.9376862 5:6458 6:89.348822 7:0.52831143 8:342.213 9:0.67279754 10:2.8778368 
0.25815645569705592 1:6740 2:157.88669 3:55.125855 4:0.93706752 5:6895 6:92.637112 7:0.54957599 8:353.261 9:0.67870082 10:2.8641133 
0.15355235010742241 1:6657 2:161.75089 3:53.393267 4:0.94394749 5:6822 6:92.064953 7:0.60430283 8:359.677 9:0.64664078 10:3.0294249 
0.20454470230848723 1:6181 2:156.73578 3:51.097194 4:0.94536684 5:6327 6:88.712421 7:0.55704758 8:347.058 9:0.64485859 10:3.0674048 
0.228452373395234 1:5880 2:146.26223 3:52.547794 4:0.93323324 5:6039 6:86.525421 7:0.81103448 8:333.081 9:0.66602031 10:2.7834134 
0.25790360217849817 1:5517 2:149.5721 3:48.464677 4:0.94604949 5:5688 6:83.812067 7:0.44484761 8:334.947 9:0.61796043 10:3.0862086 
0.03952557809620319 1:5582 2:144.77601 3:50.259411 4:0.93780854 5:5742 6:84.304348 7:0.51117216 8:325.483 9:0.66212971 10:2.880575 
0.25736072931171661 1:6372 2:158.41212 3:52.755401 4:0.94291754 5:6613 6:90.072651 7:0.47081425 8:354.107 9:0.6385819 10:3.0027659 
0.2587896453263685 1:7322 2:167.4074 3:56.826513 4:0.94062395 5:7492 6:96.553922 7:0.51585177 8:368.38 9:0.6780278 10:2.9459383 
0.25657631325471209 1:6847 2:169.84464 3:52.686961 4:0.9506691 5:7101 6:93.369541 7:0.7684624 8:372.214 9:0.62104745 10:3.223656 
0.2592559452283173 1:5793 2:138.35824 3:55.010645 4:0.9175607 5:6005 6:85.882924 7:0.51138771 8:326.112 9:0.68451006 10:2.5151175 
0.25844434124162541 1:7324 2:168.14614 3:56.635556 4:0.94156784 5:7508 6:96.567108 7:0.63099854 8:375.903 9:0.6513383 10:2.9689148 
0.2591683503099188 1:6705 2:155.45079 3:56.059042 4:0.93271188 5:6849 6:92.396272 7:0.78421053 8:348.297 9:0.69455906 10:2.7729833 
0.23937396274527026 1:5367 2:137.03072 3:50.424868 4:0.92983283 5:5467 6:82.664845 7:0.7760266 8:309.816 9:0.70264146 10:2.7175227 
0.25879175543275673 1:6410 2:151.7219 3:54.880627 4:0.93228734 5:6637 6:90.34083 7:0.61404349 8:347.439 9:0.66728408 10:2.7645802 
0.22032358222672199 1:5705 2:151.44903 3:49.063006 4:0.94607174 5:5853 6:85.228115 7:0.75075668 8:335.239 9:0.63790564 10:3.0868275 
0.25803764210578817 1:6757 2:168.02046 3:52.319895 4:0.9502822 5:6926 6:92.753866 7:0.44293674 8:368.971 9:0.62370513 10:3.2114066 
0.25838856965326384 1:3641 2:98.218981 3:48.839391 4:0.86760729 5:3726 6:68.087188 7:0.55494589 8:241.542 9:0.78423321 10:2.0110607 
0.25887076612892468 1:6640 2:166.58464 3:51.877119 4:0.95027369 5:6807 6:91.947325 7:0.43285528 8:368.428 9:0.61471341 10:3.211139 
0.12056231848171958 1:6358 2:160.62281 3:51.164122 4:0.94791081 5:6517 6:89.973646 7:0.45929351 8:354.963 9:0.63410944 10:3.139364 
0.23107931234703449 1:6160 2:150.19808 3:53.215295 4:0.93513152 5:6308 6:88.561592 7:0.69643867 8:336.753 9:0.68260211 10:2.8224607 
0.18332247455213285 1:6608 2:162.96215 3:52.421294 4:0.94684922 5:6765 6:91.725498 7:0.48659794 8:359.772 9:0.64154212 10:3.1087014 
0.2588881759317978 1:4946 2:130.65099 3:49.476305 4:0.92552331 5:5112 6:79.356429 7:0.52522035 8:301.74 9:0.68265017 10:2.6406779 
0.25878799590588486 1:6583 2:157.57086 3:54.796171 4:0.93758517 5:6883 6:91.551821 7:0.57378192 8:359.67 9:0.63947753 10:2.8755816 
0.24554822366813089 1:5425 2:145.65663 3:48.485061 4:0.9429719 5:5552 6:83.110315 7:0.47194432 8:326.297 9:0.64029992 10:3.0041548 
0.24200255715529348 1:5622 2:148.08561 3:49.926861 4:0.94145143 5:5823 6:84.605867 7:0.57780062 8:334.702 9:0.63064374 10:2.9660509 
0.24233305236598499 1:6514 2:155.41127 3:54.558888 4:0.93635247 5:6706 6:91.070755 7:0.52359135 8:352.65 9:0.65821813 10:2.8485052 
0.2591803424769723 1:5118 2:129.56871 3:50.463932 4:0.92103652 5:5213 6:80.72447 7:0.81238095 8:295.161 9:0.73823087 10:2.5675508 
0.18271633614085264 1:5006 2:140.32974 3:46.043219 4:0.94464044 5:5123 6:79.836315 7:0.46806919 8:310.789 9:0.65128253 10:3.047783 
0.25811987240590195 1:4764 2:125.41719 3:49.83205 4:0.91767567 5:4921 6:77.882689 7:0.52380429 8:294.587 9:0.68984967 10:2.5167978 
0.25857468270950129 1:7009 2:159.77672 3:56.559437 4:0.93524903 5:7168 6:94.467645 7:0.5123538 8:359.177 9:0.68272984 10:2.8249348 
0.25885689221165264 1:4204 2:111.32367 3:50.306969 4:0.8920695 5:4355 6:73.162142 7:0.50263032 8:273.607 9:0.70569682 10:2.2128877 
0.25364908193651847 1:6467 2:154.21899 3:54.013486 4:0.93666041 5:6632 6:90.741612 7:0.78788986 8:346.139 9:0.67828413 10:2.8551941 
0.25862050916129958 1:6400 2:156.35338 3:53.227292 4:0.94027007 5:6594 6:90.270333 7:0.6006006 8:351.689 9:0.65023788 10:2.9374663 
0.25886231497267137 1:3216 2:101.89762 3:40.625354 4:0.91708664 5:3321 6:63.990143 7:0.78439024 8:232.201 9:0.74954504 10:2.5082272 
0.25876350727200481 1:5701 2:151.52274 3:48.735244 4:0.94686322 5:5801 6:85.198231 7:0.83739718 8:331.128 9:0.6533849 10:3.1090999 
0.25880655195440039 1:4459 2:106.39327 3:54.551416 4:0.8585477 5:4566 6:75.348359 7:0.59036145 8:263.639 9:0.80617258 10:1.9503302 
0.25886330196812418 1:6836 2:173.70668 3:51.585371 4:0.95488735 5:7141 6:93.29451 7:0.60926916 8:383.901 9:0.58287232 10:3.3673632 
0.25820953036611727 1:6472 2:163.73787 3:51.359683 4:0.949532 5:6623 6:90.776684 7:0.44702307 8:359.478 9:0.62936667 10:3.1880622 
0.25386795178544452 1:6505 2:145.82394 3:58.056068 4:0.91733143 5:6714 6:91.00782 7:0.51692626 8:348.6 9:0.67267053 10:2.5117777 
0.24418339414156534 1:6112 2:151.18425 3:52.199224 4:0.93850379 5:6299 6:88.215872 7:0.75085995 8:342.873 9:0.65332103 10:2.896293 
0.25914441393696125 1:6436 2:168.67184 3:49.30983 4:0.9563139 5:6608 6:90.523863 7:0.49561066 8:368.438 9:0.59579529 10:3.4206535 
0.2295492092719294 1:5201 2:147.23912 3:45.519333 4:0.9510125 5:5338 6:81.376402 7:0.8076087 8:318.987 9:0.64231897 10:3.2346503 
0.25522962992375953 1:6213 2:143.39175 3:56.913928 4:0.91785661 5:6405 6:88.941763 7:0.59002849 8:331.361 9:0.71106358 10:2.5194493 
0.22545276945402648 1:6312 2:160.76111 3:50.993646 4:0.9483582 5:6447 6:89.647577 7:0.56864865 8:353.674 9:0.63411874 10:3.1525713 
0.25878835494107416 1:5642 2:133.43999 3:54.824101 4:0.911702 5:5769 6:84.756224 7:0.63194444 8:309.718 9:0.73911166 10:2.4339658 
0.16136544983900525 1:6044 2:150.21202 3:52.723595 4:0.93637751 5:6288 6:87.72377 7:0.54465171 8:342.203 9:0.64858469 10:2.8490474 
0.2572572594145297 1:6662 2:159.65968 3:54.36413 4:0.9402445 5:6881 6:92.099521 7:0.55572239 8:365.592 9:0.62635583 10:2.9368571 
0.25759485207138166 1:5522 2:148.3518 3:48.624728 4:0.94475881 5:5693 6:83.850037 7:0.45269716 8:333.509 9:0.62386576 10:3.0509538 
0.25804117734144139 1:6245 2:159.49267 3:51.320405 4:0.94681691 5:6407 6:89.170516 7:0.51534907 8:355.444 9:0.62115492 10:3.1077829 
0.25866199422681735 1:6221 2:151.89003 3:53.253717 4:0.93652266 5:6380 6:88.999007 7:0.56895921 8:340.285 9:0.67512541 10:2.8521959 
0.25864981859863623 1:5294 2:149.299 3:45.938 4:0.95148624 5:5443 6:82.100732 7:0.80578387 8:328.573 9:0.61621186 10:3.2500108 
0.25907887601236346 1:6114 2:144.99635 3:55.232099 4:0.92460774 5:6324 6:88.230304 7:0.68481183 8:336.447 9:0.67873771 10:2.6252189 
0.25844284795191197 1:6047 2:148.01705 3:53.376034 4:0.93271772 5:6301 6:87.745538 7:0.57241575 8:348.82 9:0.62452104 10:2.7730994 
0.25504980993821069 1:6536 2:159.67061 3:53.557267 4:0.94206746 5:6737 6:91.224414 7:0.49492655 8:355.778 9:0.64887901 10:2.9813061 
0.24482016245537891 1:6340 2:164.81789 3:50.273798 4:0.95234391 5:6556 6:89.846195 7:0.60151803 8:362.142 9:0.60749307 10:3.2784053 
0.24560039245324303 1:5990 2:147.9008 3:52.527757 4:0.9348073 5:6153 6:87.331008 7:0.54375454 8:333.024 9:0.67871215 10:2.8156694 
0.22133132886931389 1:6351 2:158.54132 3:51.787979 4:0.94514438 5:6506 6:89.924103 7:0.47791406 8:352.123 9:0.64366988 10:3.0613537 
0.25265419381673515 1:6766 2:161.98306 3:54.128438 4:0.94251597 5:6948 6:92.815617 7:0.48550517 8:363.215 9:0.64448721 10:2.9925685 
0.20922474616371797 1:6685 2:165.1353 3:52.584725 4:0.94794497 5:6853 6:92.258367 7:0.44548847 8:363.465 9:0.63589598 10:3.1403664 
0.2586513378466665 1:5295 2:146.22439 3:46.817197 4:0.94735887 5:5435 6:82.108485 7:0.79385307 8:328.226 9:0.61763211 10:3.123305 
0.25774886520472629 1:6581 2:155.66997 3:55.088523 4:0.93529075 5:6750 6:91.537913 7:0.54031199 8:350.995 9:0.67127411 10:2.8258149 
0.2588722021469384 1:7039 2:156.58924 3:58.402422 4:0.92784511 5:7417 6:94.6696 7:0.52428125 8:383.118 9:0.60263689 10:2.6812113 
0.25884534011030058 1:7282 2:163.10674 3:58.178608 4:0.93422265 5:7481 6:96.289825 7:0.7315652 8:367.89 9:0.67612123 10:2.8035518 
0.22300311902196804 1:6046 2:155.39613 3:50.877813 4:0.94488333 5:6261 6:87.738283 7:0.50333 8:351.286 9:0.61568181 10:3.0543004 
0.24478750521366022 1:5804 2:163.11991 3:46.011651 4:0.95939308 5:5945 6:85.964425 7:0.43866677 8:346.98 9:0.60579876 10:3.5451871 
0.21571143887236441 1:6166 2:152.67826 3:51.879434 4:0.94049923 5:6306 6:88.604712 7:0.80067524 8:345.254 9:0.65003381 10:2.9429438 
0.25461842513764549 1:5434 2:153.3882 3:46.032214 4:0.95390689 5:5586 6:83.179226 7:0.57260274 8:334.512 9:0.61024762 10:3.3321925 
0.23619226036055915 1:5968 2:143.08645 3:54.136457 4:0.92566348 5:6147 6:87.170486 7:0.70543735 8:329.401 9:0.69117632 10:2.6430701 
0.25721848327658536 1:6328 2:163.87285 3:50.345425 4:0.95163772 5:6511 6:89.761127 7:0.56288917 8:358.975 9:0.61708917 10:3.2549701 
0.25661177758360754 1:5961 2:159.18297 3:48.241492 4:0.95297248 5:6108 6:87.119349 7:0.73957816 8:344.692 9:0.63047312 10:3.2997108 
0.25914339456655378 1:5448 2:138.9714 3:50.930427 4:0.93042539 5:5637 6:83.286308 7:0.53458934 8:318.403 9:0.67529364 10:2.7286517 
0.23175086060941744 1:6590 2:167.41396 3:50.667793 4:0.95310184 5:6753 6:91.600484 7:0.7401168 8:361.347 9:0.6342294 10:3.3041494 
0.25328001771125974 1:6166 2:156.08238 3:51.167857 4:0.94473813 5:6316 6:88.604712 7:0.68117543 8:344.129 9:0.65429084 10:3.0503991 
0.25827869061342357 1:6100 2:153.39569 3:51.92586 4:0.94096306 5:6256 6:88.12923 7:0.48412698 8:343.108 9:0.65114545 10:2.954129 
0.2440886901852195 1:6425 2:154.08927 3:53.831555 4:0.93699117 5:6591 6:90.446471 7:0.52906785 8:349.185 9:0.66217356 10:2.8624339 
0.25906631857590612 1:5046 2:147.31735 3:44.822237 4:0.95259019 5:5226 6:80.154643 7:0.50510511 8:320.015 9:0.61917932 10:3.2867023 
0.25691993028197235 1:6152 2:153.2359 3:52.00265 4:0.94065536 5:6403 6:88.504066 7:0.62393509 8:353.699 9:0.61795739 10:2.946694 
0.24512630415662492 1:6848 2:163.43801 3:54.333308 4:0.94312446 5:7087 6:93.376359 7:0.48062886 8:375.13 9:0.61151909 10:3.008063 
0.25574203841393461 1:6929 2:158.43151 3:56.947704 4:0.93316557 5:7101 6:93.926976 7:0.63313231 8:357.404 9:0.68165027 10:2.7820527 
0.25878816013681921 1:5809 2:162.26069 3:46.11865 4:0.95875741 5:5935 6:86.001445 7:0.4302963 8:349.99 9:0.59593648 10:3.5183313 
0.25851806224799645 1:5819 2:148.11962 3:50.772289 4:0.93941608 5:5940 6:86.075437 7:0.47262833 8:333.021 9:0.65934844 10:2.9173318 
0.25695956175016416 1:5726 2:147.546 3:50.16236 4:0.94043347 5:5897 6:85.384833 7:0.53195838 8:329.03 9:0.66464572 10:2.9413688 
0.25760442726008048 1:6651 2:168.67192 3:50.912954 4:0.95335668 5:6823 6:92.023455 7:0.46374285 8:367.175 9:0.61994135 10:3.312947 
0.25903445430607264 1:6168 2:145.709 3:55.116427 4:0.92569788 5:6353 6:88.619081 7:0.49838397 8:345.688 9:0.64861296 10:2.6436583 
0.25888201566187602 1:6190 2:151.81552 3:53.014781 4:0.93704624 5:6441 6:88.776983 7:0.64559866 8:350.193 9:0.63428668 10:2.863645 
0.2071832239145302 1:6670 2:158.59401 3:54.898595 4:0.93817621 5:6861 6:92.154803 7:0.72936031 8:356.774 9:0.65849018 10:2.8888538 
0.24366335731991445 1:5836 2:145.8051 3:51.419695 4:0.93575135 5:6015 6:86.201079 7:0.49752771 8:335.631 9:0.65103002 10:2.8355885 
0.25892456417141374 1:7369 2:166.13181 3:57.493053 4:0.9382091 5:7606 6:96.863317 7:0.70221079 8:383.951 9:0.62815499 10:2.889598 
0.25837872285212882 1:5308 2:135.74115 3:50.601275 4:0.92792067 5:5422 6:82.209218 7:0.64339394 8:305.458 9:0.71488761 10:2.6825638 
0.24137025120908456 1:5580 2:143.39367 3:50.545308 4:0.93581434 5:5724 6:84.289244 7:0.47843608 8:324.684 9:0.66515412 10:2.8369334 
0.25913633334675235 1:5712 2:148.59878 3:49.515947 4:0.94284943 5:5874 6:85.280386 7:0.53164557 8:330.089 9:0.65877325 10:3.0010288 
0.25141782912825839 1:6641 2:163.38783 3:53.052259 4:0.94581657 5:6843 6:91.954249 7:0.45436508 8:361.645 9:0.63808482 10:3.0797525 
0.24605298169262216 1:6313 2:157.6978 3:52.398378 4:0.94318402 5:6510 6:89.654678 7:0.50878466 8:350.094 9:0.64725635 10:3.0095931 
0.25885689212739538 1:6986 2:156.53785 3:58.209332 4:0.92829095 5:7196 6:94.31252 7:0.79071873 8:356.17 9:0.69202817 10:2.6892226 
0.21711909942357244 1:6088 2:149.0707 3:52.942942 4:0.93480809 5:6297 6:88.042503 7:0.56881248 8:335.836 9:0.6783128 10:2.815686 
0.25866613670035854 1:6554 2:162.68022 3:51.81906 4:0.94791169 5:6709 6:91.349942 7:0.75856481 8:359.57 9:0.63701462 10:3.1393897 
0.23069993644597325 1:6488 2:160.84838 3:52.263367 4:0.94574041 5:6692 6:90.888823 7:0.66652969 8:360.835 9:0.62618606 10:3.0776505 
0.25904444429415258 1:5825 2:136.05196 3:55.446108 4:0.91318903 5:5949 6:86.119802 7:0.5495283 8:312.386 9:0.75010605 10:2.4537694 
0.25907805401690676 1:3940 2:112.12034 3:46.01282 4:0.9119111 5:4048 6:70.827705 7:0.5037719 8:264.418 9:0.70814803 10:2.4367197 
0.22508884761442075 1:6315 2:161.09765 3:50.274662 4:0.95005724 5:6449 6:89.668878 7:0.77351788 8:351.324 9:0.64293576 10:3.2043508 
0.25724209338661619 1:5037 2:133.45928 3:48.744165 4:0.93091487 5:5163 6:80.083129 7:0.53183402 8:304.393 9:0.68314437 10:2.737954 
0.25857454043705141 1:6029 2:140.58473 3:55.497805 4:0.91878251 5:6157 6:87.614846 7:0.59317198 8:324.506 9:0.71946502 10:2.5331584 
0.25865648664080604 1:6825 2:157.99344 3:55.892679 4:0.93533403 5:6993 6:93.219418 7:0.53782506 8:354.94 9:0.68077348 10:2.8267287 
0.25904024582781149 1:5754 2:162.19971 3:46.048213 4:0.95885441 5:5915 6:85.593343 7:0.4605042 8:350.996 9:0.58691524 10:3.5223888 
0.25794339891293389 1:6439 2:154.55686 3:53.995296 4:0.93699024 5:6587 6:90.544958 7:0.4837716 8:347.551 9:0.66987104 10:2.8624134 
0.25900332261859371 1:5466 2:146.59462 3:48.223603 4:0.94434424 5:5683 6:83.423782 7:0.55821078 8:329.724 9:0.63179818 10:3.0398935 
0.25893197591661465 1:4043 2:106.50106 3:50.381295 4:0.8810307 5:4174 6:71.747526 7:0.54842648 8:262.446 9:0.73762171 10:2.1139008 
0.2525209842364019 1:6323 2:159.46463 3:51.167484 4:0.9471231 5:6509 6:89.725658 7:0.61990196 8:352.541 9:0.63931336 10:3.1165228 
0.25848767200299094 1:7069 2:153.75921 3:60.140506 4:0.9203336 5:7329 6:94.871125 7:0.49056211 8:367.696 9:0.65703731 10:2.5566664 
0.25867745694768896 1:5171 2:138.19889 3:48.4921 4:0.93641807 5:5288 6:81.141369 7:0.58495475 8:310.801 9:0.67269715 10:2.8499259 
0.25895150568558517 1:5418 2:149.339 3:47.083026 4:0.94899997 5:5657 6:83.056679 7:0.48100142 8:340.998 9:0.58552467 10:3.1718224 
0.25823243984027633 1:6210 2:156.69999 3:51.53817 4:0.94436577 5:6333 6:88.920288 7:0.51509622 8:345.314 9:0.65444491 10:3.0404649 
0.21941718233158652 1:6445 2:151.7832 3:55.315532 4:0.93122774 5:6609 6:90.587134 7:0.48414964 8:343.069 9:0.68812896 10:2.7439526 
0.25852237921565324 1:6288 2:160.53243 3:50.496764 4:0.94923825 5:6507 6:89.476982 7:0.46005268 8:369.796 9:0.5778272 10:3.1790638 
0.2568252861552669 1:4825 2:135.44541 3:46.664161 4:0.9387776 5:4978 6:78.379722 7:0.55587558 8:304.343 9:0.65460685 10:2.9025575 
0.25928572975344033 1:4702 2:134.04699 3:46.388428 4:0.93821203 5:4874 6:77.374236 7:0.49020017 8:299.319 9:0.65951385 10:2.8896644 
0.25838018600047136 1:6255 2:167.07686 3:48.879331 4:0.9562484 5:6500 6:89.241881 7:0.45577091 8:364.295 9:0.59228503 10:3.4181494 
0.25795633093690273 1:6741 2:152.79228 3:56.5851 4:0.92889626 5:6895 6:92.643984 7:0.52255814 8:347.938 9:0.69972995 10:2.7002211 
0.19935315905682174 1:6183 2:157.51884 3:50.449476 4:0.94732433 5:6329 6:88.726772 7:0.79238754 8:344.948 9:0.65298296 10:3.1223087 
0.25896463859508112 1:4434 2:150.44222 3:41.478578 4:0.96124057 5:5661 6:75.136836 7:0.42196422 8:421.126 9:0.3141821 10:3.6269859 
0.25898252083426543 1:6368 2:164.51792 3:51.019845 4:0.95069832 5:6889 6:90.044375 7:0.68194474 8:435.715 9:0.42151001 10:3.2245869 
0.25878835352708152 1:4957 2:137.38977 3:46.585042 4:0.94076038 5:5058 6:79.444625 7:0.7538017 8:306.748 9:0.66201115 10:2.9492249 
0.25906273775644095 1:7309 2:170.41054 3:55.831645 4:0.94480603 5:7516 6:96.46817 7:0.50756944 8:379.106 9:0.63906717 10:3.0522213 
0.24866264200674873 1:5769 2:147.54376 3:50.594677 4:0.93936715 5:5874 6:85.704836 7:0.64035964 8:328.839 9:0.67041507 10:2.9161913 
0.25668596823880402 1:6100 2:148.7561 3:53.33885 4:0.93350445 5:6259 6:88.12923 7:0.7280105 8:337.373 9:0.67347124 10:2.7888884 
0.25880635043577116 1:5061 2:149.11198 3:43.545873 4:0.95640772 5:5173 6:80.27369 7:0.7484472 8:323.685 9:0.60701728 10:3.4242505 
0.25018690577438979 1:6206 2:152.1451 3:52.349591 4:0.93894153 5:6374 6:88.891645 7:0.67471189 8:338.886 9:0.67906974 10:2.9063284 
0.25584756177996076 1:5866 2:145.88453 3:52.741253 4:0.93236149 5:6043 6:86.422353 7:0.67721081 8:334.808 9:0.65759768 10:2.7660422 
0.25898285028931917 1:5797 2:162.35666 3:46.091827 4:0.95885614 5:5951 6:85.91257 7:0.54071449 8:353.831 9:0.58186389 10:3.522461 
0.16970816485507281 1:6521 2:161.88707 3:52.212783 4:0.94656062 5:6664 6:91.119674 7:0.76916726 8:354.698 9:0.65133825 10:3.1005256 
0.24637560426188743 1:5797 2:148.64796 3:50.808994 4:0.93976997 5:5975 6:85.91257 7:0.77853881 8:333.336 9:0.65561476 10:2.925623 
0.19045726957938314 1:6452 2:154.07432 3:54.100857 4:0.93632492 5:6650 6:90.636315 7:0.68016024 8:352.442 9:0.65272299 10:2.8479091 
0.25683831976401494 1:6396 2:160.68412 3:51.842087 4:0.94652395 5:6587 6:90.242119 7:0.45555556 8:357.162 9:0.63006859 10:3.0994917 
0.19489108742097419 1:5626 2:143.08578 3:51.150941 4:0.93391909 5:5790 6:84.63596 7:0.51919527 8:323.854 9:0.67407941 10:2.7973245 
0.25626081115479526 1:6208 2:155.05835 3:51.493379 4:0.94324759 5:6349 6:88.905968 7:0.56333938 8:343.568 9:0.66090062 10:3.0112288 
0.2587770027806709 1:6751 2:155.79252 3:56.442047 4:0.93206549 5:6939 6:92.712675 7:0.70499165 8:352.102 9:0.68429125 10:2.760221 
0.25747875330058845 1:5531 2:147.34443 3:48.330539 4:0.94467403 5:5710 6:83.918341 7:0.77846587 8:325.538 9:0.65585848 10:3.0486817 
0.25780663418314032 1:6612 2:165.56671 3:51.423192 4:0.95054432 5:6755 6:91.753255 7:0.46302521 8:362.851 9:0.63108239 10:3.2196895 
0.25907517743749103 1:6461 2:154.41502 3:54.388004 4:0.93591737 5:6584 6:90.699508 7:0.79676902 8:346.445 9:0.67645827 10:2.8391374 
0.258881357518288 1:6678 2:151.7031 3:57.164181 4:0.92628806 5:6867 6:92.210052 7:0.51156734 8:354.256 9:0.66868541 10:2.6538139 
0.2509788603248248 1:6477 2:156.0263 3:54.005076 4:0.93818728 5:6699 6:90.811742 7:0.49097938 8:354.679 9:0.64701271 10:2.8891043 
0.25845760257414691 1:5878 2:153.99624 3:50.443469 4:0.94482934 5:6118 6:86.510705 7:0.46283465 8:342.456 9:0.62983949 10:3.0528479 
0.25900501018245226 1:5753 2:144.74094 3:51.07427 4:0.93567358 5:5858 6:85.585905 7:0.53327772 8:321.737 9:0.69839677 10:2.8339307 
0.20908683567488504 1:6139 2:149.68216 3:53.583874 4:0.93372757 5:6295 6:88.410506 7:0.48621891 8:340.167 9:0.66668877 10:2.793418 
0.25722997565171857 1:5973 2:154.62361 3:50.628817 4:0.94487452 5:6168 6:87.206994 7:0.71447368 8:345.296 9:0.62953414 10:3.0540633 
0.25880187725321191 1:4126 2:99.492266 3:53.874809 4:0.84070239 5:4265 6:72.480248 7:0.62288647 8:253.076 9:0.80953786 10:1.8467308 
0.23154012408798225 1:6104 2:153.96173 3:51.143402 4:0.94321511 5:6244 6:88.15812 7:0.49569596 8:341.131 9:0.6591466 10:3.0103928 
0.25890450366023798 1:5445 2:143.13854 3:49.33905 4:0.93871497 5:5557 6:83.263373 7:0.48391397 8:320.285 9:0.66701338 10:2.9011208 
0.25838245166986651 1:6402 2:162.18429 3:51.41555 4:0.94841908 5:6592 6:90.284437 7:0.6942095 8:358.238 9:0.62687685 10:3.154382 
0.25847067192656298 1:6986 2:167.70108 3:54.490318 4:0.94573969 5:7211 6:94.31252 7:0.58582809 8:371.868 9:0.63483495 10:3.0776307 
0.20110108634154877 1:6372 2:160.8246 3:51.308859 4:0.94774255 5:6516 6:90.072651 7:0.75230224 8:350.266 9:0.65266401 10:3.1344412 
0.21717825633007648 1:5804 2:139.65197 3:53.341849 4:0.92417772 5:5957 6:85.964425 7:0.52217724 8:325.385 9:0.68887783 10:2.6180563 
0.2493695085118609 1:6935 2:159.97594 3:56.281362 4:0.9360709 5:7114 6:93.967634 7:0.53738861 8:361.714 9:0.66607893 10:2.842432 
0.23958198042232171 1:6134 2:150.75304 3:52.595092 4:0.93716649 5:6245 6:88.374495 7:0.48977962 8:337.876 9:0.67521013 10:2.8662948 
0.24350429949049543 1:6032 2:149.34879 3:52.666636 4:0.93575836 5:6193 6:87.636641 7:0.53963142 8:336.489 9:0.66946743 10:2.8357381 
0.24548642478978835 1:7016 2:165.27352 3:54.621101 4:0.9438098 5:7191 6:94.514806 7:0.62642857 8:373.704 9:0.63131186 10:3.0258182 
0.19080511396747224 1:5582 2:144.74285 3:50.415337 4:0.93737952 5:5741 6:84.304348 7:0.48004816 8:325.362 9:0.66262229 10:2.8710083 
0.25843265748459848 1:6523 2:156.81828 3:54.363343 4:0.93798916 5:6748 6:91.133647 7:0.51196923 8:352.79 9:0.65860452 10:2.8846327 
0.25885188124061498 1:6093 2:154.47809 3:51.455008 4:0.94289527 5:6242 6:88.07865 7:0.53635563 8:343.122 9:0.65034516 10:3.0021975 
0.25528240952034831 1:6492 2:155.01089 3:54.035301 4:0.93727518 5:6621 6:90.916836 7:0.83230769 8:346.718 9:0.67863397 10:2.8686967 
0.25528544071743586 1:6676 2:165.01225 3:52.051907 4:0.94894463 5:6849 6:92.196243 7:0.48028777 8:364.064 9:0.63295192 10:3.170148 
0.24712732733672754 1:6702 2:153.57749 3:56.469251 4:0.92994753 5:6871 6:92.3756 7:0.53368371 8:351.096 9:0.68322307 10:2.7196658 
0.2591287034198253 1:5869 2:155.31929 3:49.043429 4:0.9488395 5:6045 6:86.44445 7:0.65008861 8:341.615 9:0.63197531 10:3.1669746 
0.25908624767264454 1:6356 2:168.66252 3:48.881871 4:0.95708099 5:6467 6:89.959494 7:0.41678689 8:363.177 9:0.60555986 10:3.4504105 
0.25761658842363222 1:6185 2:162.68404 3:49.331395 4:0.952916 5:6310 6:88.741121 7:0.4297825 8:352.359 9:0.62600648 10:3.2977791 
0.25878447931583415 1:5884 2:157.95342 3:48.331741 4:0.95203559 5:6006 6:86.554847 7:0.4339233 8:345.262 9:0.62027598 10:3.2681094 
0.21061048052021913 1:6161 2:149.50807 3:53.345175 4:0.93417902 5:6327 6:88.56878 7:0.55806159 8:338.036 9:0.67754035 10:2.8026541 
0.19411333385042501 1:6542 2:156.64897 3:53.753421 4:0.93928219 5:6674 6:91.266276 7:0.75368664 8:348.86 9:0.67548864 10:2.914214 
0.25879000713233968 1:7142 2:162.68366 3:57.050898 4:0.93649306 5:7340 6:95.359723 7:0.53654872 8:368.52 9:0.66085714 10:2.851553 
0.25878862912350126 1:5015 2:145.54605 3:44.82914 4:0.95138423 5:5197 6:79.908049 7:0.78605016 8:323.247 9:0.6031312 10:3.246684 
0.25719778125194925 1:6440 2:154.09178 3:54.583353 4:0.93515976 5:6579 6:90.551989 7:0.76666667 8:344.684 9:0.68116682 10:2.8230546 
0.25878570042064608 1:5532 2:148.19111 3:48.568414 4:0.94476735 5:5653 6:83.925927 7:0.49304813 8:326.079 9:0.6538022 10:3.0511827 
0.22954217860575707 1:6209 2:149.37121 3:53.912566 4:0.93259287 5:6352 6:88.913128 7:0.48273985 8:342.572 9:0.66485631 10:2.7706195 
0.25684053407380658 1:6739 2:163.01617 3:53.826343 4:0.94391441 5:6974 6:92.63024 7:0.48583375 8:365.868 9:0.63263974 10:3.0285573 
0.2463565856369915 1:6221 2:158.77883 3:50.713539 4:0.94762088 5:6354 6:88.999007 7:0.48150155 8:348.815 9:0.64250981 10:3.1308962 
0.25894331206919391 1:5841 2:146.32053 3:52.467805 4:0.93349851 5:6068 6:86.237997 7:0.69935345 8:332.27 9:0.66483643 10:2.7887679 
0.25832607889039194 1:5254 2:123.69069 3:55.229517 4:0.89477707 5:5425 6:81.789978 7:0.68986345 8:302.928 9:0.71948393 10:2.2395757 
0.25001154424934569 1:6196 2:147.75804 3:54.438885 4:0.92965444 5:6359 6:88.819999 7:0.71712963 8:335.446 9:0.69195211 10:2.7142003 
0.24197074734481436 1:6542 2:158.11353 3:53.248328 4:0.94158596 5:6693 6:91.266276 7:0.50607256 8:352.404 9:0.66197067 10:2.9693615 
0.24398736075767005 1:5568 2:134.33807 3:53.847839 4:0.91614883 5:5686 6:84.198562 7:0.7694859 8:313.456 9:0.71212448 10:2.4947718 
0.25832904123152511 1:6135 2:147.78337 3:54.091278 4:0.93060802 5:6289 6:88.381698 7:0.50719246 8:333.524 9:0.69305907 10:2.7321109 
0.25827516557377084 1:4692 2:127.09704 3:47.586284 4:0.92726364 5:4818 6:77.291914 7:0.64098361 8:289.026 9:0.70582013 10:2.6708755 
0.25089865886613583 1:6083 2:147.68523 3:53.753122 4:0.93141034 5:6251 6:88.006342 7:0.5835012 8:333.958 9:0.68539981 10:2.7474727 
0.22829916470485595 1:6105 2:148.83954 3:52.666655 4:0.93530273 5:6279 6:88.165341 7:0.52958015 8:342.553 9:0.65379257 10:2.8260678 
0.2588721349650942 1:6242 2:161.35034 3:50.487124 4:0.94978484 5:6450 6:89.149096 7:0.61955335 8:360.554 9:0.60338289 10:3.195871 
0.17851220684829658 1:6761 2:160.46219 3:54.391772 4:0.9407974 5:6942 6:92.781316 7:0.51034118 8:359.863 9:0.6560643 10:2.9501189 
0.25832385890273157 1:5218 2:129.96089 3:52.473502 4:0.91486327 5:5347 6:81.509287 7:0.64707341 8:303.606 9:0.71136622 10:2.4766956 
0.25842263938117904 1:7058 2:158.11394 3:57.797112 4:0.93079527 5:7243 6:94.797282 7:0.70693109 8:366.335 9:0.66089839 10:2.7356719 
0.24823810227928741 1:6175 2:155.42612 3:51.413119 4:0.94370504 5:6299 6:88.669353 7:0.7913623 8:343.724 9:0.65679088 10:3.0230829 
0.23569949878186455 1:6201 2:155.66975 3:51.390843 4:0.9439364 5:6331 6:88.855829 7:0.54973404 8:344.164 9:0.65787096 10:3.029134 
0.25888103096067261 1:5610 2:139.46724 3:53.167402 4:0.92448523 5:5820 6:84.515524 7:0.56240601 8:328.012 9:0.65522923 10:2.6231719 
0.25000290192623809 1:6316 2:150.52707 3:54.586302 4:0.93193146 5:6488 6:89.675978 7:0.62208214 8:340.88 9:0.68304441 10:2.7575978 
0.18620165777799755 1:5623 2:151.2157 3:48.305252 4:0.94760448 5:5806 6:84.613391 7:0.47149086 8:338.211 9:0.6177354 10:3.1304194 
0.25679937755396476 1:5296 2:129.18125 3:53.314295 4:0.91086282 5:5506 6:82.116239 7:0.57254054 8:311.647 9:0.68522301 10:2.4230133 
0.25069220139074705 1:6615 2:158.45042 3:54.662617 4:0.93860913 5:6843 6:91.774068 7:0.80523433 8:353.061 9:0.66686852 10:2.8986981 
0.25682075819969974 1:5175 2:144.73057 3:46.714488 4:0.9464779 5:5446 6:81.172746 7:0.5919698 8:323.272 9:0.62227741 10:3.0981945 
0.25563524895727474 1:6604 2:158.48758 3:54.142013 4:0.93983934 5:6780 6:91.697731 7:0.67733333 8:352.581 9:0.66757355 10:2.9272568 
0.25005293446858651 1:5546 2:145.52061 3:49.498266 4:0.94037261 5:5691 6:84.032056 7:0.59531988 8:327.118 9:0.65129965 10:2.9399133 
0.22606334269871606 1:6863 2:161.26393 3:55.724288 4:0.9384014 5:7086 6:93.47857 7:0.6230029 8:362.614 9:0.65589562 10:2.8939613 
0.25208509380845218 1:4940 2:128.22213 3:51.074638 4:0.91724246 5:5154 6:79.30828 7:0.4992925 8:295.416 9:0.71132617 10:2.5104854 
0.25848289777062805 1:6678 2:160.56388 3:53.759094 4:0.94228411 5:6795 6:92.210052 7:0.76935484 8:354.392 9:0.66817229 10:2.9867297 
0.24999999982753143 1:5888 2:147.34123 3:52.002263 4:0.93564685 5:6110 6:86.584262 7:0.52463691 8:340.559 9:0.63795925 10:2.8333618 
