svm_type one_class
kernel_type rbf
gamma 0.10000000000000001
nr_class 2
total_sv 2120
rho 0.13615383762848404
SV
0.1153587718745651 1:5618 2:144.43643 3:50.515732 4:0.93684542 5:5732 6:84.575763 7:0.48231456 8:322.932 9:0.67697002 10:2.8592366 
0.13623757452861585 1:6585 2:165.84583 3:51.112625 4:0.95132366 5:6724 6:91.565727 7:0.80197296 8:360.71 9:0.63598852 10:3.2447136 
0.13614793854037094 1:6367 2:159.80884 3:52.318905 4:0.94489127 5:6596 6:90.037304 7:0.48588217 8:357.53 9:0.62592131 10:3.0545142 
0.13470368148265288 1:6538 2:156.20057 3:54.340571 4:0.93753547 5:6663 6:91.23837 7:0.47760976 8:350.678 9:0.66809426 10:2.8744743 
0.13670670048887423 1:5486 2:141.3392 3:50.323989 4:0.93446646 5:5644 6:83.576265 7:0.54947917 8:317.17 9:0.68530115 10:2.808585 
0.13566726352515768 1:6380 2:162.31592 3:51.078956 4:0.949195 5:6517 6:90.129176 7:0.82932536 8:352.622 9:0.64478026 10:3.1777455 
0.1358786532911235 1:4807 2:150.58601 3:41.352126 4:0.96155626 5:4916 6:78.233385 7:0.48190476 8:320.065 9:0.58966807 10:3.6415542 
0.12785074320562978 1:6029 2:150.71787 3:51.809908 4:0.93905965 5:6161 6:87.614846 7:0.48124202 8:337.346 9:0.66573903 10:2.9090551 
0.13624955202032782 1:5839 2:154.16601 3:48.606633 4:0.94899617 5:5965 6:86.223232 7:0.60595683 8:339.209 9:0.63769587 10:3.1717073 
0.13621499405272847 1:6151 2:168.07524 3:47.542298 4:0.95916027 5:6293 6:88.496872 7:0.59361127 8:361.53 9:0.59138038 10:3.535278 
0.13621713548212111 1:6409 2:148.06385 3:56.005509 4:0.92570249 5:6609 6:90.333782 7:0.59975669 8:347.422 9:0.66724527 10:2.6437372 
0.13620664145494127 1:5752 2:151.47479 3:49.213968 4:0.94574881 5:5910 6:85.578466 7:0.45477546 8:342.498 9:0.61618718 10:3.0778822 
0.13491519346099362 1:6565 2:160.09114 3:53.134904 4:0.94331314 5:6748 6:91.426569 7:0.47366522 8:355.648 9:0.65223463 10:3.0129187 
0.13574468719927124 1:5442 2:140.34284 3:50.30553 4:0.93354991 5:5601 6:83.240432 7:0.70174081 8:320.717 9:0.66485117 10:2.7898094 
0.13610145476111687 1:5838 2:149.53721 3:50.675031 4:0.94082994 5:6017 6:86.215848 7:0.48972402 8:339.253 9:0.63742128 10:2.9509051 
0.1362392569112304 1:5383 2:143.61012 3:48.830201 4:0.94041848 5:5501 6:82.787973 7:0.74330295 8:321.883 9:0.65288721 10:2.9410101 
0.11319539493917015 1:6456 2:157.75848 3:52.93634 4:0.94202131 5:6634 6:90.664406 7:0.64238806 8:356.171 9:0.63952316 10:2.9801546 
0.13620865031524321 1:6399 2:158.74643 3:52.330662 4:0.94410343 5:6604 6:90.263281 7:0.45707143 8:358.567 9:0.62543379 10:3.0335261 
0.13635336545666044 1:5679 2:150.68395 3:48.82303 4:0.94605383 5:5841 6:85.033684 7:0.46972705 8:336.881 9:0.6288234 10:3.0863292 
0.13634583392194349 1:4347 2:140.54872 3:41.001603 4:0.95650217 5:4511 6:74.39605 7:0.6333042 8:303.878 9:0.59156298 10:3.4278834 
0.073850791493808327 1:5142 2:139.86969 3:47.579779 4:0.94036316 5:5255 6:80.91352 7:0.47558269 8:309.277 9:0.67553319 10:2.9396877 
0.13627086218385698 1:4498 2:125.57311 3:46.449824 4:0.92907053 5:4639 6:75.677153 7:0.67174433 8:286.669 9:0.687809 10:2.7034142 
0.13510755945683295 1:6214 2:159.07823 3:51.367676 4:0.94643026 5:6412 6:88.948921 7:0.4514676 8:352.332 9:0.62903808 10:3.0968547 
0.13623831909315381 1:5499 2:146.44825 3:48.426402 4:0.94374559 5:5596 6:83.675231 7:0.46140292 8:326.438 9:0.6484734 10:3.0241408 
0.13590959649506629 1:6163 2:158.26338 3:51.003781 4:0.94664727 5:6382 6:88.583155 7:0.47701238 8:346.871 9:0.64367412 10:3.1029735 
0.13066602245432712 1:6536 2:163.95789 3:51.603385 4:0.94917938 5:6740 6:91.224414 7:0.71666667 8:363.109 9:0.62294238 10:3.1772701 
0.10924158703660043 1:5374 2:141.132 3:48.783363 4:0.93836067 5:5545 6:82.718736 7:0.52893701 8:325.598 9:0.6370068 10:2.8930355 
0.13623055062646519 1:6798 2:167.24704 3:52.939421 4:0.94858107 5:7011 6:93.034845 7:0.47356322 8:369.796 9:0.62469295 10:3.1592155 
0.13605122566140954 1:6754 2:158.42297 3:54.909463 4:0.93801288 5:6923 6:92.733273 7:0.48167166 8:353.084 9:0.68079263 10:2.8851669 
0.13620463618141407 1:6122 2:148.89755 3:53.175769 4:0.93405473 5:6304 6:88.288009 7:0.63400994 8:343.369 9:0.65250076 10:2.8001016 
0.12938010997185506 1:6577 2:161.93295 3:52.358293 4:0.94628519 5:6728 6:91.51009 7:0.5550211 8:356.453 9:0.65047882 10:3.0927851 
0.13588073516383153 1:5825 2:148.34922 3:51.909149 4:0.93678263 5:6131 6:86.119802 7:0.64657565 8:338.945 9:0.63715828 10:2.8578626 
0.13624851058846119 1:6521 2:155.85972 3:53.789641 4:0.93856014 5:6656 6:91.119674 7:0.49559204 8:347.287 9:0.67943359 10:2.8975787 
0.13611915981104772 1:6103 2:149.7687 3:52.395689 4:0.93680795 5:6203 6:88.150899 7:0.49313187 8:334.716 9:0.6845423 10:2.8584164 
0.13620661204790269 1:5832 2:144.42998 3:52.103211 4:0.9326623 5:5948 6:86.171533 7:0.73395419 8:323.545 9:0.70009664 10:2.7719978 
0.13600992127891137 1:5310 2:141.21575 3:48.723315 4:0.93859258 5:5447 6:82.224704 7:0.66341829 8:317.549 9:0.66173314 10:2.8983198 
0.13620860005402219 1:6000 2:157.55374 3:49.563893 4:0.94922962 5:6171 6:87.403874 7:0.46382189 8:345.524 9:0.63154555 10:3.1788007 
0.1362124609635269 1:5155 2:135.08671 3:49.11033 4:0.93157597 5:5292 6:81.015738 7:0.52007667 8:303.592 9:0.70284229 10:2.7506781 
0.13621256256569036 1:5333 2:145.57244 3:47.389482 4:0.94552867 5:5514 6:82.402588 7:0.47261609 8:323.995 9:0.63841757 10:3.0718301 
0.13618932927470934 1:6515 2:162.25269 3:52.099215 4:0.94704556 5:6722 6:91.077745 7:0.68027566 8:361.787 9:0.62548712 10:3.1143021 
0.13652051377215513 1:4538 2:121.54364 3:47.947932 4:0.91889959 5:4632 6:76.012901 7:0.61657609 8:277.126 9:0.74253992 10:2.5349089 
0.13621237964275684 1:5715 2:145.90948 3:50.486308 4:0.93823039 5:5807 6:85.302778 7:0.49034749 8:325.974 9:0.67586534 10:2.8900801 
0.13605682897451998 1:6585 2:158.81413 3:53.790475 4:0.94089413 5:6744 6:91.565727 7:0.80158247 8:356.178 9:0.65227609 10:2.9524583 
0.13624702324652715 1:6257 2:164.72482 3:49.198047 4:0.95435705 5:6424 6:89.256147 7:0.60771173 8:358.933 9:0.61030825 10:3.3481983 
0.13608881549844845 1:5556 2:153.18295 3:47.006547 4:0.95175292 5:5654 6:84.107782 7:0.47293156 8:330.437 9:0.63943258 10:3.2587577 
0.13625965527116005 1:6103 2:148.79739 3:53.956219 4:0.93193889 5:6338 6:88.150899 7:0.54066265 8:340.145 9:0.66286494 10:2.7577431 
0.13230698782079647 1:5987 2:157.86239 3:49.413029 4:0.94974874 5:6112 6:87.309136 7:0.45249792 8:345.119 9:0.6316571 10:3.1947523 
0.13621271981498262 1:4970 2:136.90738 3:46.860574 4:0.93959822 5:5088 6:79.548731 7:0.49110672 8:303.494 9:0.67805673 10:2.9215899 
0.13587532223088108 1:6100 2:155.57531 3:51.126186 4:0.94445993 5:6287 6:88.12923 7:0.46550672 8:344.766 9:0.64489772 10:3.0429673 
0.1361794130834309 1:6677 2:165.38639 3:52.66311 4:0.94794816 5:6908 6:92.203148 7:0.58324598 8:369.304 9:0.61520976 10:3.1404599 
0.13615363689569271 1:5927 2:157.73766 3:48.872002 4:0.95079167 5:6074 6:86.87054 7:0.46074316 8:343.183 9:0.63240203 10:3.2275669 
0.13203221173526375 1:6675 2:157.46321 3:55.135429 4:0.93669439 5:6851 6:92.189338 7:0.7829912 8:353.086 9:0.67282193 10:2.8559352 
0.13625155195257743 1:6173 2:154.97764 3:51.660159 4:0.94280688 5:6309 6:88.654993 7:0.49702093 8:345.166 9:0.65110364 10:2.999945 
0.13582022721667109 1:5973 2:159.41126 3:48.590835 4:0.9524118 5:6108 6:87.206994 7:0.59291245 8:347.355 9:0.62209294 10:3.2806857 
0.13620914805816808 1:5748 2:147.05561 3:50.67285 4:0.93875589 5:5890 6:85.548705 7:0.50844759 8:331.471 9:0.65740885 10:2.9020592 
0.13606772454884422 1:6121 2:158.03548 3:50.677623 4:0.94719015 5:6281 6:88.280798 7:0.77974522 8:352.449 9:0.61921245 10:3.1184469 
0.13625819623388782 1:5160 2:137.40355 3:49.129615 4:0.93389128 5:5307 6:81.055019 7:0.4937799 8:307.042 9:0.68780288 10:2.7967561 
0.13574825551134484 1:5451 2:144.03785 3:48.854702 4:0.94072163 5:5583 6:83.309236 7:0.79460641 8:324.744 9:0.64953682 10:2.9482904 
0.13643337233322389 1:3761 2:115.32937 3:41.921419 4:0.93159693 5:3840 6:69.200101 7:0.49794784 8:257.769 9:0.71129839 10:2.7510846 
0.13622152066444199 1:6338 2:148.70902 3:55.424039 4:0.92795138 5:6551 6:89.832022 7:0.54426793 8:347.812 9:0.65837446 10:2.6831141 
0.1363213396234696 1:7055 2:170.68892 3:54.383066 4:0.94788615 5:7298 6:94.777133 7:0.71262626 8:379.889 9:0.61431829 10:3.1386409 
0.13624633548857468 1:6763 2:158.70204 3:55.294527 4:0.93733955 5:6962 6:92.795038 7:0.48752884 8:357.83 9:0.66373658 10:2.870122 
0.1357594897338959 1:5640 2:141.95588 3:51.556424 4:0.93171655 5:5767 6:84.7412 7:0.49369748 8:324.286 9:0.67395759 10:2.7534081 
0.13619304581110958 1:6216 2:176.32542 3:45.288285 4:0.96645264 5:6388 6:88.963234 7:0.52888624 8:373.001 9:0.5614368 10:3.8934004 
0.13578175194950462 1:7136 2:171.11487 3:53.917634 4:0.94905976 5:7317 6:95.319659 7:0.52163743 8:376.053 9:0.6341129 10:3.1736347 
0.13620094769413549 1:6643 2:160.5301 3:53.533905 4:0.94275646 5:6800 6:91.968094 7:0.68028674 8:356.518 9:0.6567668 10:2.9986623 
0.13616541945680094 1:5037 2:137.3557 3:48.002159 4:0.9369463 5:5245 6:80.083129 7:0.77875696 8:315.175 9:0.6372037 10:2.8614484 
0.13592554908661211 1:5047 2:144.34628 3:45.544433 4:0.94891825 5:5206 6:80.162585 7:0.64375 8:319.112 9:0.62281189 10:3.1693507 
0.093508771093605725 1:6056 2:149.43662 3:52.4855 4:0.93629203 5:6188 6:87.810812 7:0.73844653 8:332.55 9:0.68814796 10:2.8471982 
0.13556521529959656 1:6746 2:162.08654 3:54.113732 4:0.94262372 5:6927 6:92.678336 7:0.46460055 8:362.58 9:0.64483487 10:2.9952941 
0.13592120392499707 1:6863 2:160.50797 3:55.278734 4:0.93882349 5:7073 6:93.47857 7:0.59808279 8:363.334 9:0.65329868 10:2.9036116 
0.10403542903071242 1:5324 2:149.42985 3:46.186785 4:0.95103385 5:5453 6:82.333027 7:0.82876712 8:325.91 9:0.62987234 10:3.2353379 
0.13577486094616603 1:4933 2:129.88134 3:49.226471 4:0.92539212 5:5146 6:79.25207 7:0.5419688 8:300.374 9:0.68706259 10:2.6384451 
0.13627528549134943 1:6300 2:150.56589 3:54.864834 4:0.93124611 5:6531 6:89.56232 7:0.68965517 8:342.186 9:0.67612336 10:2.744306 
0.13618887647228731 1:6002 2:151.03381 3:51.691473 4:0.93960856 5:6195 6:87.418441 7:0.5567718 8:341.442 9:0.64695187 10:2.9218321 
0.13658722339154999 1:5725 2:137.23841 3:53.459613 4:0.92101028 5:5808 6:85.377376 7:0.52522936 8:313.181 9:0.73349058 10:2.5671418 
0.077213632652630967 1:5865 2:153.92748 3:49.503039 4:0.9468757 5:6008 6:86.414987 7:0.451849 8:340.009 9:0.63752476 10:3.1094551 
0.10145703911700178 1:6283 2:157.12017 3:52.348358 4:0.94286535 5:6461 6:89.4414 7:0.46396396 8:347.388 9:0.65425537 10:3.0014345 
0.13623155749654578 1:5766 2:161.32307 3:46.268079 4:0.95798932 5:5905 6:85.682549 7:0.66428571 8:351.076 9:0.58787125 10:3.4867034 
0.1357820045517196 1:5843 2:163.92983 3:45.829049 4:0.96012676 5:6021 6:86.25276 7:0.42432825 8:356.92 9:0.57637347 10:3.5769852 
0.12416851180775942 1:5911 2:145.30603 3:52.787873 4:0.93167707 5:6064 6:86.753207 7:0.55554511 8:327.127 9:0.69412557 10:2.7526404 
0.13620821486350804 1:6370 2:164.91236 3:49.83944 4:0.95323892 5:6555 6:90.058514 7:0.4603599 8:360.939 9:0.6144431 10:3.3088726 
0.13620808921776806 1:6941 2:168.53268 3:53.353668 4:0.94856662 5:7111 6:94.008275 7:0.4504218 8:374.887 9:0.62062769 10:3.1587834 
0.13388750690706713 1:6174 2:151.18297 3:52.996599 4:0.93654549 5:6343 6:88.662173 7:0.71441796 8:340.871 9:0.66772307 10:2.852692 
0.1361979396755934 1:4705 2:120.97475 3:50.216897 4:0.90977474 5:4794 6:77.398915 7:0.5726631 8:278.623 9:0.76161513 10:2.4090447 
0.13597748910916166 1:5919 2:153.71326 3:50.299953 4:0.9449439 5:6063 6:86.811894 7:0.66881356 8:341.913 9:0.6362488 10:3.0559324 
0.12698328998940484 1:5754 2:149.1464 3:49.972215 4:0.94219865 5:5920 6:85.593343 7:0.49560724 8:332.049 9:0.65580597 10:2.9845866 
0.13610446396745135 1:6142 2:156.68402 3:51.469798 4:0.94450597 5:6359 6:88.432106 7:0.47122909 8:347.675 9:0.63851742 10:3.0441934 
0.13621025481692584 1:6001 2:145.67058 3:53.470729 4:0.93019487 5:6106 6:87.411158 7:0.50937951 8:330.83 9:0.68900714 10:2.7243051 
0.10200721628890314 1:6529 2:156.74096 3:53.947858 4:0.93890192 5:6694 6:91.17555 7:0.56675347 8:350.441 9:0.66807729 10:2.9054157 
0.13602691671073691 1:6206 2:160.58682 3:50.447577 4:0.94937495 5:6403 6:88.891645 7:0.75060474 8:356.675 9:0.61302233 10:3.1832414 
0.13598049813527113 1:6419 2:161.67627 3:51.278826 4:0.94836878 5:6597 6:90.404229 7:0.52254966 8:355.751 9:0.63736026 10:3.1528856 
0.13621990063909142 1:6523 2:165.95171 3:51.150393 4:0.95131363 5:6681 6:91.133647 7:0.45355305 8:363.454 9:0.62052365 10:3.2443877 
0.13608743015344613 1:7124 2:161.99967 3:56.876 4:0.93634279 5:7317 6:95.23948 7:0.79508929 8:371.182 9:0.64977045 10:2.8482957 
0.13625122699415057 1:6742 2:154.66438 3:56.437248 4:0.93104617 5:6935 6:92.650855 7:0.5926512 8:351.689 9:0.68498497 10:2.7404663 
0.13622551646000991 1:5986 2:147.44268 3:52.53734 4:0.93436252 5:6145 6:87.301844 7:0.60294118 8:334.876 9:0.67077757 10:2.8064359 
0.13618855220675113 1:4609 2:123.48214 3:48.166842 4:0.92078464 5:4705 6:76.605229 7:0.77099364 8:282.244 9:0.72705478 10:2.5636337 
0.10380662008914626 1:5260 2:139.10949 3:48.78957 4:0.93647744 5:5386 6:81.836667 7:0.55532095 8:308.396 9:0.69498933 10:2.8512137 
0.13606990325924551 1:5942 2:141.83611 3:54.652627 4:0.92278203 5:6121 6:86.980396 7:0.70923848 8:327.788 9:0.69495456 10:2.5952296 
0.13595870477911304 1:6289 2:150.94126 3:53.747714 4:0.93445408 5:6409 6:89.484096 7:0.77786024 8:337.43 9:0.69410325 10:2.8083289 
0.13602657153054071 1:5598 2:135.31017 3:53.753487 4:0.91770556 5:5737 6:84.425085 7:0.77663707 8:315.854 9:0.7051313 10:2.5172352 
0.13577017348921755 1:5778 2:140.34214 3:53.039915 4:0.92583298 5:5937 6:85.771663 7:0.71157635 8:325.059 9:0.68716813 10:2.6459721 
0.13623445218332891 1:3606 2:88.779904 3:52.588617 4:0.80568208 5:3658 6:67.759146 7:0.59309211 8:227.906 9:0.8724169 10:1.6881962 
0.12635068940212429 1:6944 2:158.84849 3:56.315514 4:0.93504712 5:7141 6:94.028588 7:0.53362023 8:365.402 9:0.65354837 10:2.8206879 
0.13625621229942597 1:7270 2:168.10867 3:56.705164 4:0.94139272 5:7484 6:96.210454 7:0.80110193 8:374.075 9:0.65287029 10:2.9646096 
0.13511689766185625 1:5833 2:147.13327 3:51.433134 4:0.93691087 5:5975 6:86.17892 7:0.73352616 8:335.355 9:0.65176685 10:2.860671 
0.11715883834448995 1:5945 2:150.8738 3:50.832239 4:0.94153366 5:6111 6:87.002351 7:0.69015556 8:336.86 9:0.65835909 10:2.9680732 
0.13501697265724477 1:6787 2:169.95618 3:51.765447 4:0.95248639 5:6961 6:92.959544 7:0.48430141 8:372.243 9:0.61550932 10:3.2831973 
0.13625454974908274 1:7173 2:163.63643 3:57.438925 4:0.93636964 5:7366 6:95.566455 7:0.47415389 8:369.502 9:0.66020241 10:2.8488769 
0.13621981474829459 1:5610 2:151.12506 3:48.273273 4:0.94761122 5:5748 6:84.515524 7:0.75342466 8:330.343 9:0.64601486 10:3.1306155 
0.13626942180468388 1:5071 2:138.00485 3:48.214087 4:0.93698665 5:5226 6:80.352957 7:0.73921283 8:311.355 9:0.65734261 10:2.8623347 
0.13194431981124816 1:5589 2:151.32178 3:47.925403 4:0.9485218 5:5697 6:84.357192 7:0.45661765 8:331.574 9:0.63882667 10:3.1574441 
0.13504659952579523 1:6624 2:156.33463 3:55.091259 4:0.93585204 5:6800 6:91.836478 7:0.53384913 8:352.146 9:0.67125057 10:2.8377394 
0.13623513252032743 1:6087 2:159.98313 3:49.805999 4:0.95030503 5:6310 6:88.035272 7:0.49633072 8:350.764 9:0.62170325 10:3.2121256 
0.13621631002494672 1:5442 2:143.38815 3:49.762054 4:0.9378487 5:5579 6:83.240432 7:0.4590081 8:320.65 9:0.66512904 10:2.8814757 
0.13622856214297138 1:5181 2:139.29998 3:49.546818 4:0.93460616 5:5411 6:81.219789 7:0.78786496 8:316.673 9:0.64923419 10:2.8114818 
0.13550655636357428 1:5383 2:142.18403 3:48.93062 4:0.93891987 5:5540 6:82.787973 7:0.54067899 8:320.619 9:0.65804521 10:2.9058292 
0.1358463907895141 1:6704 2:152.9193 3:57.332999 4:0.92705586 5:6883 6:92.389382 7:0.53804173 8:350.55 9:0.68555756 10:2.6672126 
0.13626772116148878 1:6910 2:158.81097 3:56.080924 4:0.93557425 5:7048 6:93.798109 7:0.60677907 8:354.327 9:0.69163891 10:2.831818 
0.13622651489809651 1:6459 2:157.53026 3:53.954539 4:0.93951684 5:6758 6:90.685469 7:0.61514286 8:357.627 9:0.63462116 10:2.919685 
0.13365911395456384 1:5383 2:138.9936 3:50.682018 4:0.93115029 5:5558 6:82.787973 7:0.54193094 8:316.997 9:0.67316874 10:2.7424638 
0.13078041692242637 1:6255 2:159.07744 3:50.960112 4:0.94729999 5:6400 6:89.241881 7:0.50411025 8:350.665 9:0.63922292 10:3.1216069 
0.13600816952979711 1:5930 2:145.28341 3:53.160862 4:0.93064968 5:6093 6:86.892523 7:0.52431477 8:330.792 9:0.68101168 10:2.7329017 
0.13601799442187251 1:6974 2:171.03776 3:52.98752 4:0.95080171 5:7152 6:94.231484 7:0.72000826 8:376.523 9:0.61817123 10:3.2278877 
0.13624349248325651 1:5822 2:159.22908 3:46.895732 4:0.95564612 5:6039 6:86.097623 7:0.64345712 8:360.2 9:0.56389033 10:3.3953852 
0.1361881520894386 1:6007 2:151.71007 3:51.254382 4:0.94120201 5:6208 6:87.454845 7:0.48726476 8:349.748 9:0.61710209 10:2.9599434 
0.13295772906780559 1:5130 2:134.74244 3:49.711233 4:0.92945511 5:5275 6:80.81905 7:0.49709302 8:308.456 9:0.67754912 10:2.7105029 
0.13621762015276781 1:5473 2:149.20814 3:47.391816 4:0.94821735 5:5587 6:83.477183 7:0.45246362 8:327.258 9:0.64217703 10:3.1483947 
0.13620005334341562 1:6266 2:151.22628 3:54.005961 4:0.93405843 5:6470 6:89.320317 7:0.79882713 8:340.432 9:0.67942184 10:2.8001775 
0.13623506488130796 1:6988 2:163.43866 3:55.799049 4:0.93991568 5:7190 6:94.326019 7:0.74490992 8:367.352 9:0.65072568 10:2.9290582 
0.13621375200860311 1:4840 2:113.01929 3:55.413847 4:0.87155129 5:4962 6:78.501461 7:0.68945869 8:274.396 9:0.80779223 10:2.0395496 
0.13621321746809956 1:5576 2:162.56346 3:44.193558 4:0.96233846 5:5704 6:84.259027 7:0.6262354 8:351.093 9:0.56844479 10:3.6784425 
0.13616180006695294 1:5560 2:146.6021 3:49.280962 4:0.94180684 5:5722 6:84.138052 7:0.5011718 8:326.235 9:0.6564831 10:2.9748222 
0.13652736695296167 1:6244 2:144.20294 3:56.084766 4:0.92126755 5:6430 6:89.163377 7:0.80298354 8:333.56 9:0.70522034 10:2.5711606 
0.13621826796313205 1:4928 2:142.40861 3:44.615759 4:0.9496562 5:5116 6:79.211896 7:0.49260296 8:321.704 9:0.59836701 10:3.1918904 
0.13485188687430888 1:6034 2:154.44656 3:50.736666 4:0.94450178 5:6204 6:87.651169 7:0.81551561 8:343.26 9:0.64352996 10:3.0440818 
0.13618581293155774 1:6843 2:153.88673 3:57.268298 4:0.92817429 5:6995 6:93.342264 7:0.82396147 8:355.518 9:0.6803513 10:2.6871189 
0.13621328152627007 1:7126 2:156.14621 3:59.171768 4:0.92541673 5:7265 6:95.252848 7:0.50747757 8:358.576 9:0.6964553 10:2.6388634 
0.13623062902617075 1:6985 2:163.44523 3:55.400423 4:0.94080293 5:7178 6:94.30577 7:0.47633661 8:366.25 9:0.65436642 10:2.9502524 
0.13610495241474413 1:6050 2:141.78413 3:55.985015 4:0.9187409 5:6200 6:87.767302 7:0.51709402 8:329.132 9:0.70181884 10:2.5325371 
0.13373922947864347 1:6354 2:156.91503 3:52.931607 4:0.94138769 5:6568 6:89.945339 7:0.45844156 8:356.26 9:0.62910473 10:2.9644864 
0.13575716173486202 1:6299 2:150.40116 3:54.222673 4:0.93275136 5:6461 6:89.555211 7:0.6872886 8:337.174 9:0.696263 10:2.7737687 
0.13004612389264247 1:6847 2:166.40292 3:53.854153 4:0.9461813 5:7077 6:93.369541 7:0.72081272 8:369.726 9:0.62943401 10:3.0898809 
0.13619538867145253 1:6158 2:156.84806 3:50.498209 4:0.94675455 5:6295 6:88.547214 7:0.59497585 8:347.373 9:0.64129437 10:3.1060122 
0.1362090175336349 1:7164 2:167.08713 3:55.57854 4:0.94305668 5:7360 6:95.506482 7:0.45852535 8:372.422 9:0.64907486 10:3.0063246 
0.13621157046501142 1:5682 2:150.79513 3:49.011567 4:0.94570684 5:5903 6:85.056141 7:0.783508 8:339.166 9:0.62070676 10:3.0767253 
0.13621049087746517 1:5401 2:138.42757 3:50.317809 4:0.93159592 5:5569 6:82.926273 7:0.78846715 8:321.428 9:0.65692627 10:2.7510651 
0.13577420465947881 1:5044 2:136.30795 3:47.98976 4:0.93597417 5:5207 6:80.138756 7:0.50289133 8:303.138 9:0.68976981 10:2.8403549 
0.133901997767505 1:6090 2:153.18906 3:52.193993 4:0.9401662 5:6275 6:88.056964 7:0.46220401 8:344.989 9:0.64300842 10:2.9349941 
0.12043122626791906 1:6845 2:166.00861 3:53.40862 4:0.94683418 5:7072 6:93.355903 7:0.48357471 8:369.729 9:0.62923994 10:3.1082737 
0.13342618133343026 1:5961 2:150.99828 3:51.143417 4:0.9408937 5:6089 6:87.119349 7:0.47995169 8:334.352 9:0.67007148 10:2.952448 
0.13620830098214776 1:5532 2:142.87715 3:50.649772 4:0.93505648 5:5717 6:83.925927 7:0.53865628 8:321.678 9:0.67181441 10:2.8208843 
0.13216125559368783 1:6422 2:158.86847 3:52.440415 4:0.94395052 5:6550 6:90.425352 7:0.4757037 8:351.478 9:0.6532567 10:3.0295045 
0.13565733028560767 1:5948 2:149.41701 3:51.654096 4:0.93834352 5:6045 6:87.0243 7:0.51231697 8:332.754 9:0.67504738 10:2.8926459 
0.13623202852041144 1:6070 2:154.28063 3:51.303392 4:0.94309164 5:6277 6:87.912252 7:0.70952659 8:343.988 9:0.64463216 10:3.0072209 
0.13620857555986288 1:5322 2:148.62045 3:46.973086 4:0.94873897 5:5555 6:82.317561 7:0.46931217 8:327.17 9:0.62479535 10:3.1639491 
0.13616775396066544 1:6162 2:149.9965 3:53.137165 4:0.93514847 5:6313 6:88.575968 7:0.55319149 8:337.78 9:0.67867788 10:2.8228171 
0.13648823617137132 1:6281 2:164.28637 3:49.853009 4:0.95284676 5:6469 6:89.427164 7:0.72245227 8:360.09 9:0.60871855 10:3.2954153 
0.13626765291904658 1:5960 2:155.82012 3:49.942911 4:0.94724295 5:6135 6:87.112041 7:0.4577573 8:343.829 9:0.63353573 10:3.1199647 
0.13602259751215828 1:6203 2:153.4782 3:52.583339 4:0.93947731 5:6372 6:88.870158 7:0.71595106 8:343.84 9:0.65932395 10:2.918761 
0.13616570220924007 1:6664 2:160.29771 3:54.230451 4:0.94103442 5:6859 6:92.113345 7:0.56565657 8:358.678 9:0.65093163 10:2.9558616 
0.13558553742711477 1:6789 2:161.69925 3:54.646479 4:0.94116358 5:6949 6:92.97324 7:0.76246631 8:360.868 9:0.65511709 10:2.9590059 
0.13619719567914018 1:6915 2:157.73752 3:56.871019 4:0.93274293 5:7207 6:93.832039 7:0.79813019 8:391.344 9:0.56739393 10:2.773601 
0.13619603111991982 1:6938 2:165.889 3:54.524511 4:0.94444111 5:7175 6:93.987956 7:0.49328119 8:369.885 9:0.63725129 10:3.0424665 
0.13619280887366281 1:5701 2:154.84166 3:48.069879 4:0.95059122 5:6061 6:85.198231 7:0.60187922 8:348.133 9:0.59111301 10:3.2211785 
0.13618893602334264 1:5985 2:132.78956 3:58.555671 4:0.89752385 5:6140 6:87.294551 7:0.67672999 8:316.69 9:0.74990339 10:2.2677489 
0.13504156350325544 1:6220 2:148.50061 3:53.85374 4:0.93192543 5:6367 6:88.991853 7:0.49621061 8:341.835 9:0.66890924 10:2.75748 
0.1362164635342531 1:6339 2:152.26886 3:54.632099 4:0.93341943 5:6595 6:89.839109 7:0.53358586 8:343.486 9:0.67516906 10:2.7871683 
0.13642986343037902 1:5999 2:138.93154 3:55.699631 4:0.9161156 5:6154 6:87.39659 7:0.75175439 8:324.455 9:0.71611007 10:2.4942991 
0.13618763949543811 1:5086 2:117.34314 3:57.067864 4:0.87377343 5:5276 6:80.471711 7:0.59277389 8:299.803 9:0.71107314 10:2.0562034 
0.1358610569010397 1:5945 2:149.04355 3:51.657942 4:0.9380144 5:6092 6:87.002351 7:0.54531279 8:336.754 9:0.65877362 10:2.8852011 
0.12276255626909113 1:5326 2:146.45077 3:47.367842 4:0.94624914 5:5455 6:82.34849 7:0.59336007 8:323.413 9:0.63987638 10:3.0917763 
0.13522449160511479 1:5821 2:141.69567 3:53.205179 4:0.92682681 5:5945 6:86.090228 7:0.51926851 8:321.583 9:0.70732873 10:2.6631932 
0.13572680813353583 1:5535 2:140.10904 3:51.520978 4:0.92993633 5:5670 6:83.94868 7:0.711074 8:319.377 9:0.68189925 10:2.7194561 
0.11889420905551942 1:6812 2:161.08373 3:54.858987 4:0.94022209 5:7044 6:93.130595 7:0.60561878 8:362.001 9:0.65322826 10:2.9363235 
0.13586447505699947 1:5913 2:139.86195 3:55.099745 4:0.91912841 5:6065 6:86.767882 7:0.51691581 8:322.896 9:0.71267646 10:2.5383411 
0.13621231305363221 1:5885 2:158.97174 3:48.122622 4:0.95308214 5:6059 6:86.562201 7:0.8237682 8:346.006 9:0.61771631 10:3.3034722 
0.13570796814619249 1:5505 2:141.94158 3:50.351405 4:0.93496753 5:5642 6:83.720868 7:0.64190765 8:320.262 9:0.67446026 10:2.8190192 
0.13613734695905488 1:6607 2:156.27519 3:55.190644 4:0.93556174 5:6762 6:91.718557 7:0.80948297 8:348.479 9:0.68369271 10:2.8315523 
0.13619695037711932 1:4773 2:134.48442 3:45.647436 4:0.94063296 5:4902 6:77.956221 7:0.50332173 8:297.697 9:0.67678758 10:2.9461549 
0.13594375168921186 1:4529 2:126.51536 3:46.743855 4:0.92924195 5:4649 6:75.937487 7:0.80515556 8:285.08 9:0.70029122 10:2.7065666 
0.13620988170567511 1:6065 2:152.67209 3:51.981325 4:0.94025287 5:6269 6:87.876037 7:0.49252883 8:341.966 9:0.65174065 10:2.9370565 
0.13117882006831386 1:5629 2:146.95758 3:49.375278 4:0.94186798 5:5777 6:84.658522 7:0.50941176 8:330.495 9:0.64760669 10:2.9763392 
0.1362109740598752 1:5851 2:146.65007 3:52.2113 4:0.93447588 5:6068 6:86.311787 7:0.50878261 8:331.562 9:0.66882186 10:2.8087802 
0.092514366410757221 1:6260 2:151.18679 3:54.046164 4:0.93392102 5:6411 6:89.277542 7:0.55052326 8:340.294 9:0.6793219 10:2.7973639 
0.13577791390987703 1:6207 2:157.60814 3:50.786709 4:0.94666003 5:6390 6:88.898807 7:0.48889414 8:349.276 9:0.63937275 10:3.1033344 
0.13219693348652806 1:6054 2:154.03868 3:50.621995 4:0.94445815 5:6203 6:87.796311 7:0.63914696 8:341.698 9:0.65157949 10:3.04292 
0.1359272087634732 1:5702 2:164.66303 3:44.649123 4:0.96253583 5:5823 6:85.205703 7:0.55738025 8:351.722 9:0.57921261 10:3.6879342 
0.13579896558518095 1:7160 2:171.64129 3:53.920805 4:0.94937395 5:7343 6:95.479815 7:0.48378378 8:385.187 9:0.60642856 10:3.1832108 
0.13620399380887072 1:6596 2:160.42643 3:53.051535 4:0.94373918 5:6730 6:91.642174 7:0.65468983 8:357.52 9:0.64846991 10:3.0239735 
0.13540750659580925 1:5322 2:142.15345 3:47.969476 4:0.94134397 5:5416 6:82.317561 7:0.80881459 8:313.165 9:0.68192765 10:2.9634146 
0.13609958674791545 1:6660 2:165.49238 3:52.176846 4:0.94899788 5:6866 6:92.085696 7:0.44794189 8:362.812 9:0.63580042 10:3.171759 
0.13578393181645587 1:5624 2:145.15256 3:51.222967 4:0.93566461 5:5993 6:84.620915 7:0.60865801 8:334.768 9:0.63061936 10:2.8337398 
0.11497339617134054 1:5619 2:142.78036 3:50.991291 4:0.93405431 5:5734 6:84.58329 7:0.70920106 8:319.923 9:0.68988701 10:2.8000929 
0.13620988835644393 1:6445 2:164.58284 3:51.107444 4:0.95056451 5:6658 6:90.587134 7:0.43006806 8:364.607 9:0.6092321 10:3.2203302 
0.13626532668779645 1:6183 2:163.53168 3:49.025098 4:0.95400534 5:6365 6:88.726772 7:0.42985261 8:359.569 9:0.6009587 10:3.3356728 
0.13621073785122895 1:6703 2:163.50175 3:52.679545 4:0.94667312 5:6857 6:92.382491 7:0.7855385 8:360.562 9:0.6479167 10:3.1037047 
0.13224679576206649 1:6108 2:152.17671 3:51.713831 4:0.94048778 5:6278 6:88.187001 7:0.50466826 8:340.824 9:0.66076732 10:2.9426695 
0.13602591948813797 1:5266 2:151.01799 3:44.961364 4:0.95465264 5:5398 6:81.883328 7:0.61982109 8:329.781 9:0.6084704 10:3.3588391 
0.13375863850307251 1:5864 2:148.24878 3:51.840409 4:0.93686725 5:6037 6:86.407619 7:0.58993964 8:333.999 9:0.66056186 10:2.8597148 
0.13470861882962787 1:6537 2:157.1973 3:53.543171 4:0.94020421 5:6657 6:91.231392 7:0.83231474 8:348.264 9:0.67728457 10:2.9358982 
0.13553192448164186 1:6039 2:150.4889 3:51.677336 4:0.93919058 5:6143 6:87.687477 7:0.482811 8:333.269 9:0.68325852 10:2.912087 
0.13583346989731232 1:6654 2:157.24503 3:55.463764 4:0.9357282 5:6863 6:92.044206 7:0.68400493 8:356.385 9:0.65834543 10:2.8350947 
0.13621561119859493 1:5678 2:140.46789 3:52.454036 4:0.92766091 5:5830 6:85.026197 7:0.80550433 8:315.746 9:0.71569756 10:2.6779234 
0.13627196780021406 1:6743 2:166.7133 3:52.342143 4:0.94943455 5:6930 6:92.657726 7:0.72210323 8:371.321 9:0.61455959 10:3.1850682 
0.13620630539383505 1:6443 2:162.21882 3:51.118334 4:0.94905196 5:6573 6:90.573078 7:0.47606029 8:358.31 9:0.630638 10:3.1733981 
0.13626062304671749 1:4493 2:106.10246 3:54.731305 4:0.85668828 5:4635 6:75.63508 7:0.67129837 8:265.167 9:0.80298481 10:1.9386064 
0.13594870167806428 1:5153 2:141.0584 3:47.55827 4:0.94144985 5:5305 6:81.000021 7:0.565518 8:315.044 9:0.65242047 10:2.966012 
0.13574727649945156 1:6105 2:154.74193 3:51.151375 4:0.94378524 5:6240 6:88.165341 7:0.59782609 8:343.063 9:0.65185015 10:3.0251763 
0.1362404666191534 1:5381 2:154.1388 3:45.013702 4:0.95640807 5:5475 6:82.772592 7:0.79718519 8:330.78 9:0.61800839 10:3.4242641 
0.13624640530326498 1:6876 2:163.2084 3:54.395923 4:0.94282394 5:7040 6:93.567062 7:0.56518165 8:363.838 9:0.65272406 10:3.0003794 
0.136236007279392 1:5511 2:146.85231 3:48.971733 4:0.94275856 5:5658 6:83.76648 7:0.56656729 8:326.258 9:0.65060581 10:2.9987157 
0.13623895623685162 1:6242 2:147.73493 3:54.459218 4:0.92957704 5:6397 6:89.149096 7:0.61924603 8:336.406 9:0.69311638 10:2.7127627 
0.12835448807519786 1:5968 2:152.00922 3:50.872815 4:0.94233565 5:6112 6:87.170486 7:0.47425302 8:338.405 9:0.65488514 10:2.9880245 
0.11913387655360175 1:6217 2:157.12765 3:50.975469 4:0.94591288 5:6330 6:88.97039 7:0.46205871 8:346.543 9:0.65054369 10:3.0824169 
0.13623172990974086 1:4347 2:109.35571 3:51.284169 4:0.88321592 5:4420 6:74.39605 7:0.57024793 8:260.209 9:0.80677954 10:2.1323482 
0.1362331471550306 1:5180 2:146.75224 3:45.44807 4:0.95083676 5:5324 6:81.21195 7:0.78843227 8:324.413 9:0.61850487 10:3.2290093 
0.1362128882450537 1:5018 2:150.89564 3:43.192891 4:0.95815692 5:5162 6:79.931946 7:0.41816667 8:326.463 9:0.59166051 10:3.4935296 
0.13622687401337924 1:6229 2:147.59783 3:55.269281 4:0.92724362 5:6444 6:89.056213 7:0.72565238 8:339.986 9:0.67718312 10:2.670522 
0.13511522831248962 1:6124 2:160.26252 3:49.525134 4:0.9510539 5:6247 6:88.302429 7:0.44864469 8:351.96 9:0.62123859 10:3.2359835 
0.13575770487930616 1:6897 2:158.43901 3:56.611119 4:0.93398759 5:7068 6:93.709835 7:0.48707627 8:359.016 9:0.67242288 10:2.7987259 
0.13621959373489845 1:6656 2:158.55629 3:54.113803 4:0.93995776 5:6792 6:92.058038 7:0.48221401 8:355.043 9:0.66353108 10:2.9300526 
0.12499998579217772 1:5585 2:142.97536 3:50.47107 4:0.93562129 5:5709 6:84.327 7:0.74735715 8:321.643 9:0.67839843 10:2.8328181 
0.13621740252885201 1:5948 2:141.70956 3:54.958663 4:0.92173257 5:6171 6:87.0243 7:0.64800087 8:329.418 9:0.68878895 10:2.5784754 
0.13621185921947232 1:4771 2:114.01507 3:55.049647 4:0.87571532 5:4887 6:77.939886 7:0.57907513 8:279.955 9:0.76496722 10:2.0711318 
0.13624772685361924 1:4597 2:123.79284 3:48.225174 4:0.9209996 5:4711 6:76.505439 7:0.67404692 8:284.957 9:0.71141941 10:2.5669754 
0.13614072025217566 1:6121 2:153.18765 3:52.099973 4:0.94038726 5:6291 6:88.280798 7:0.62779487 8:343.535 9:0.65176384 10:2.9402635 
0.13621046023573155 1:5535 2:140.53117 3:50.939151 4:0.93199318 5:5705 6:83.94868 7:0.53779635 8:318.949 9:0.68373057 10:2.7588047 
0.13621126764632563 1:6202 2:164.206 3:48.772363 4:0.95487145 5:6456 6:88.862994 7:0.44060813 8:376.13 9:0.550891 10:3.3667837 
0.13620859755787212 1:4117 2:105.54054 3:51.14682 4:0.87472602 5:4264 6:72.401155 7:0.78419048 8:262.743 9:0.74942542 10:2.0634819 
0.13651129905238057 1:6774 2:154.78022 3:56.993434 4:0.92973802 5:6938 6:92.870473 7:0.79581767 8:354.483 9:0.6774297 10:2.7157552 
0.13493759759655857 1:5731 2:143.26333 3:51.983336 4:0.93184691 5:5895 6:85.422104 7:0.79135598 8:324.794 9:0.68269116 10:2.7559471 
0.13604902741112967 1:6389 2:161.37285 3:52.028984 4:0.94659851 5:6582 6:90.192724 7:0.45235061 8:357.6 9:0.62783819 10:3.1015953 
0.13593363272493356 1:6381 2:160.8609 3:51.637832 4:0.94707607 5:6599 6:90.136239 7:0.44703657 8:361.57 9:0.61335771 10:3.1151753 
0.13619736231512086 1:7098 2:175.07916 3:52.783889 4:0.95347065 5:7393 6:95.065526 7:0.53104893 8:387.739 9:0.59328981 10:3.3169053 
0.13623576490604511 1:6576 2:170.61127 3:50.206621 4:0.95572081 5:6750 6:91.503132 7:0.65070255 8:370.594 9:0.60169292 10:3.3981828 
0.13473774343237241 1:5600 2:152.96097 3:47.55199 4:0.95045028 5:5747 6:84.440165 7:0.71029934 8:332.782 9:0.63544539 10:3.2167102 
0.13609471412356447 1:5484 2:137.89732 3:51.843806 4:0.9266361 5:5689 6:83.56103 7:0.50923948 8:320.093 9:0.67259705 10:2.6598611 
0.13626190072917926 1:4496 2:134.07265 3:43.542552 4:0.94579359 5:4605 6:75.660326 7:0.45607628 8:296.564 9:0.64239079 10:3.0791178 
0.13507399614033122 1:6015 2:156.12355 3:49.992232 4:0.94734678 5:6184 6:87.513061 7:0.44914875 8:346.112 9:0.63097504 10:3.1229562 
0.13616639383320614 1:6058 2:147.90252 3:53.204094 4:0.93305873 5:6197 6:87.82531 7:0.5399287 8:332.611 9:0.68812275 10:2.7799086 
0.13587865329112198 1:5674 2:162.46146 3:45.114118 4:0.96067039 5:5855 6:84.996242 7:0.41967456 8:355.15 9:0.56529554 10:3.6011225 
0.11179034375340284 1:5324 2:146.95064 3:46.96497 4:0.9475536 5:5450 6:82.333027 7:0.59934707 8:325.01 9:0.63336559 10:3.1289415 
0.13579796568645949 1:5008 2:120.14054 3:53.716333 4:0.89447775 5:5109 6:79.852261 7:0.82517713 8:285.494 9:0.77211184 10:2.2365737 
0.13579709918897184 1:4861 2:125.21465 3:50.381008 4:0.91548279 5:4984 6:78.67158 7:0.57903514 8:288.771 9:0.73253492 10:2.4853542 
0.13625436796514284 1:6670 2:163.71278 3:52.605069 4:0.94696885 5:6811 6:92.154803 7:0.5773892 8:362.73 9:0.637043 10:3.1121104 
0.13619778486171377 1:6020 2:156.22055 3:49.928716 4:0.9475512 5:6249 6:87.549426 7:0.49295775 8:354.552 9:0.60179209 10:3.1288719 
0.1273527687673624 1:6925 2:164.31482 3:55.071475 4:0.94216183 5:7117 6:93.899861 7:0.61731146 8:368.692 9:0.64018016 10:2.9836647 
0.10403487294908947 1:5331 2:138.7473 3:50.02924 4:0.93272902 5:5493 6:82.387135 7:0.52060547 8:316.378 9:0.66927714 10:2.7733241 
0.13622851349597623 1:5906 2:143.6317 3:52.826344 4:0.92990876 5:6053 6:86.716508 7:0.7099411 8:327.209 9:0.69319086 10:2.7189408 
0.13578314608162531 1:6757 2:165.2868 3:53.081074 4:0.94702994 5:6953 6:92.753866 7:0.74944543 8:366.012 9:0.6338305 10:3.1138556 
0.136206627192476 1:5119 2:136.41583 3:48.683761 4:0.93415113 5:5254 6:80.732356 7:0.76815726 8:308.27 9:0.6769124 10:2.8020807 
0.13363802456732271 1:6254 2:155.87826 3:52.668483 4:0.94118842 5:6488 6:89.234747 7:0.69736842 8:348.496 9:0.64710111 10:2.9596116 
0.1362421798716916 1:5416 2:136.98767 3:51.337407 4:0.92712213 5:5539 6:83.041347 7:0.84374513 8:305.813 9:0.72774065 10:2.6683792 
0.13658729564199973 1:4347 2:124.1147 3:45.399006 4:0.9307003 5:4478 6:74.39605 7:0.70705921 8:280.06 9:0.69646186 10:2.7338639 
0.13649270231230659 1:5165 2:141.77476 3:47.142225 4:0.94309799 5:5246 6:81.09428 7:0.47276888 8:314.942 9:0.65436344 10:3.0073837 
0.13654944685798198 1:5974 2:148.145 3:52.218002 4:0.93581972 5:6133 6:87.214294 7:0.54289349 8:332.048 9:0.68088434 10:2.8370484 
0.13621104737095335 1:5698 2:153.63528 3:48.146512 4:0.94962719 5:5891 6:85.175812 7:0.4518636 8:339.395 9:0.62161492 10:3.1909951 
0.13574880530124575 1:6493 2:155.13296 3:54.17816 4:0.93703445 5:6683 6:90.923838 7:0.54988144 8:347.265 9:0.67660194 10:2.8633855 
0.13620236043573675 1:7065 2:164.10949 3:56.105407 4:0.93974438 5:7272 6:94.84428 7:0.65217391 8:371.099 9:0.64467742 10:2.9250209 
0.13624566324078663 1:6066 2:152.74605 3:51.747404 4:0.94086539 5:6224 6:87.883281 7:0.53492063 8:342.353 9:0.65037523 10:2.9517625 
0.13621149171108579 1:5860 2:151.21687 3:50.31154 4:0.94302878 5:5986 6:86.378144 7:0.46898759 8:334.84 9:0.6567995 10:3.00561 
0.13610236608287229 1:5191 2:135.78321 3:49.363167 4:0.93157704 5:5332 6:81.298133 7:0.5116302 8:307.239 9:0.69104799 10:2.7506989 
0.13639957068045305 1:5381 2:152.76192 3:45.692171 4:0.95421955 5:5518 6:82.772592 7:0.78417371 8:329.995 9:0.62095215 10:3.3432843 
0.12923648558568004 1:6379 2:159.30531 3:52.153358 4:0.9448928 5:6549 6:90.122112 7:0.47654266 8:359.971 9:0.61862496 10:3.0545552 
0.13622125536322863 1:4939 2:137.38553 3:46.053289 4:0.9421427 5:5045 6:79.300253 7:0.68769145 8:304.839 9:0.66789445 10:2.9831861 
0.13550502217499427 1:5363 2:134.56649 3:51.985473 4:0.9223656 5:5466 6:82.634035 7:0.50805229 8:308.913 9:0.70622858 10:2.5885402 
0.13620396466299028 1:6168 2:162.68679 3:49.343045 4:0.95289484 5:6325 6:88.619081 7:0.71430226 8:358.412 9:0.60337755 10:3.2970562 
0.13619669299073989 1:4818 2:137.71714 3:45.308372 4:0.94433135 5:4939 6:78.322845 7:0.54981171 8:302.16 9:0.66313617 10:3.0395516 
0.078589160009658529 1:6462 2:152.3327 3:55.410018 4:0.93149918 5:6604 6:90.706526 7:0.82297504 8:344.526 9:0.68412083 10:2.7491906 
0.13597882257888561 1:6417 2:156.69277 3:53.439139 4:0.94004731 5:6596 6:90.390144 7:0.53969722 8:350.317 9:0.65708186 10:2.9321724 
0.13592454793458261 1:5237 2:143.11885 3:47.46526 4:0.94340276 5:5411 6:81.65755 7:0.61764359 8:320.237 9:0.64172568 10:3.0152337 
0.13652038055063254 1:6232 2:161.37807 3:49.785679 4:0.95122325 5:6322 6:89.077656 7:0.44011299 8:351.16 9:0.63507823 10:3.2414557 
0.13619784916962613 1:4375 2:142.6082 3:41.411904 4:0.95690858 5:4652 6:74.635267 7:0.42691257 8:308.738 9:0.57677675 10:3.4436524 
0.12096736937422159 1:6712 2:157.76386 3:54.825899 4:0.93767303 5:6876 6:92.444491 7:0.50595507 8:359.277 9:0.65343588 10:2.8775425 
0.13573285493513521 1:4916 2:137.03766 3:46.532114 4:0.94058543 5:5071 6:79.115394 7:0.73769508 8:305.748 9:0.66083721 10:2.9450125 
0.13642679678956326 1:5595 2:139.69565 3:52.031163 4:0.92804789 5:5706 6:84.40246 7:0.51123904 8:316.553 9:0.70164444 10:2.6848457 
0.13613605453286087 1:6839 2:159.7527 3:55.456651 4:0.93781309 5:6991 6:93.314979 7:0.60791111 8:358.478 9:0.66877103 10:2.8806771 
0.13614762313832562 1:6226 2:153.27457 3:52.405896 4:0.9397332 5:6363 6:89.034765 7:0.51057897 8:341.66 9:0.67024056 10:2.9247581 
0.1358016065573015 1:6512 2:158.79686 3:53.245352 4:0.9421097 5:6669 6:91.056773 7:0.67762747 8:355.782 9:0.64648181 10:2.982361 
0.13626732705502423 1:5444 2:151.2401 3:46.680848 4:0.95117441 5:5563 6:83.255727 7:0.46331915 8:329.679 9:0.62942706 10:3.2398747 
0.1356793168952799 1:6492 2:160.30501 3:52.49052 4:0.94487144 5:6658 6:90.916836 7:0.66056166 8:356.303 9:0.64261287 10:3.0539802 
0.13541460602478955 1:6866 2:163.63151 3:54.786865 4:0.94228262 5:7086 6:93.498998 7:0.54131189 8:364.649 9:0.64887884 10:2.9866924 
0.13594771045655302 1:6865 2:158.95315 3:55.998301 4:0.93588924 5:7095 6:93.492189 7:0.47299159 8:362.604 9:0.65612294 10:2.8385353 
0.13629108587053496 1:5730 2:134.56176 3:55.082098 4:0.91237996 5:5831 6:85.414651 7:0.53218167 8:309.111 9:0.75359076 10:2.4429309 
0.1169351467761085 1:6244 2:157.22978 3:51.377253 4:0.94510548 5:6388 6:89.163377 7:0.82745826 8:346.089 9:0.65508426 10:3.0602995 
0.13348985803259597 1:6624 2:162.06097 3:53.239966 4:0.94449767 5:6799 6:91.836478 7:0.79605817 8:356.203 9:0.65604713 10:3.0439722 
0.1356999749988308 1:6503 2:154.1521 3:54.492517 4:0.93543514 5:6653 6:90.993828 7:0.69677488 8:348.414 9:0.67318189 10:2.8288673 
0.13314406872354845 1:5861 2:150.14881 3:50.024223 4:0.94286878 5:6021 6:86.385514 7:0.57348337 8:334.686 9:0.65751625 10:3.001522 
0.13581150317610013 1:4688 2:131.8501 3:45.831219 4:0.93764257 5:4812 6:77.258961 7:0.46955128 8:298.144 9:0.66274326 10:2.8768621 
0.13605863842435539 1:5655 2:147.88932 3:49.493209 4:0.94233757 5:5749 6:84.853813 7:0.84139265 8:326.232 9:0.66771227 10:2.9880729 
0.098751020727125882 1:6281 2:156.94927 3:51.747562 4:0.94408266 5:6459 6:89.427164 7:0.76457699 8:348.984 9:0.64807852 10:3.032979 
0.13625491453183516 1:6176 2:162.48165 3:50.036971 4:0.95140106 5:6471 6:88.676533 7:0.47529629 8:359.373 9:0.60093329 10:3.247232 
0.13614234844258166 1:5294 2:144.03359 3:47.612926 4:0.94378211 5:5411 6:82.100732 7:0.56062692 8:320.85 9:0.64623387 10:3.0250944 
0.13616936185613238 1:5344 2:136.23286 3:50.86904 4:0.92767136 5:5459 6:82.487527 7:0.74170715 8:308.261 9:0.7067066 10:2.6781096 
0.13584566157664438 1:6171 2:159.274 3:50.451019 4:0.948507 5:6334 6:88.64063 7:0.56345873 8:349.456 9:0.63500977 10:3.1570026 
0.13500021849748062 1:6837 2:164.35037 3:54.070726 4:0.94433108 5:7032 6:93.301333 7:0.62211101 8:366.699 9:0.63893399 10:3.0395444 
0.12517530285937584 1:6067 2:156.35699 3:50.711816 4:0.94594279 5:6201 6:87.890525 7:0.4745776 8:342.628 9:0.64943869 10:3.0832457 
0.13596948557158473 1:6634 2:153.69776 3:56.262137 4:0.93059244 5:6855 6:91.905773 7:0.73490639 8:350.87 9:0.67716243 10:2.7318152 
0.1362237165784646 1:5321 2:143.25377 3:47.988831 4:0.94222106 5:5472 6:82.309827 7:0.55641535 8:318.865 9:0.65764182 10:2.9851482 
0.13620467545895076 1:3723 2:120.83913 3:40.349923 4:0.94260341 5:3856 6:68.849625 7:0.62931034 8:270.98 9:0.63713054 10:2.9947798 
0.13641614165588373 1:4891 2:141.48546 3:44.859184 4:0.94840594 5:5037 6:78.91397 7:0.5703125 8:311.331 9:0.63410736 10:3.1539909 
0.13578175195022116 1:4971 2:133.94535 3:48.602687 4:0.93184576 5:5155 6:79.556733 7:0.53451613 8:308.661 9:0.65567724 10:2.7559247 
0.13623710332038283 1:5904 2:151.78436 3:50.198124 4:0.94372892 5:6096 6:86.701824 7:0.48176255 8:341.561 9:0.63594515 10:3.0237058 
0.13567073366287141 1:6455 2:167.10514 3:50.218009 4:0.95377632 5:6682 6:90.657384 7:0.4444674 8:364.96 9:0.60899759 10:3.327594 
0.13623112810104004 1:5406 2:138.70213 3:50.971893 4:0.93002677 5:5575 6:82.964649 7:0.50808271 8:314.659 9:0.68612871 10:2.7211493 
0.090835257414821527 1:5867 2:152.90612 3:49.575112 4:0.94598196 5:6008 6:86.429719 7:0.60063473 8:339.391 9:0.64006681 10:3.0843324 
0.13621328258509335 1:6665 2:157.21689 3:55.898241 4:0.93465781 5:7076 6:92.120256 7:0.53341337 8:380.487 9:0.57853598 10:2.8125553 
0.13624793078220754 1:6949 2:156.65828 3:57.068138 4:0.93128783 5:7091 6:94.062435 7:0.5026765 8:354.903 9:0.69328665 10:2.7451094 
0.12928922688117978 1:6026 2:156.72637 3:49.499955 4:0.94881353 5:6174 6:87.593045 7:0.44763037 8:350.48 9:0.6164708 10:3.1661922 
0.13618533711141012 1:6646 2:158.11735 3:55.01359 4:0.93752094 5:6835 6:91.988858 7:0.69862294 8:352.176 9:0.67336523 10:2.8741507 
0.13621470419959492 1:6500 2:163.88827 3:51.482933 4:0.94937854 5:6698 6:90.972837 7:0.47688921 8:362.013 9:0.62326808 10:3.1833514 
0.13595017544447602 1:6028 2:144.85103 3:54.064803 4:0.92773314 5:6181 6:87.607579 7:0.64726726 8:332.684 9:0.68441462 10:2.6792112 
0.13623067997409877 1:4678 2:133.41294 3:45.850485 4:0.93908921 5:4828 6:77.176516 7:0.51548209 8:297.099 9:0.66598999 10:2.9097388 
0.13630284390394443 1:5007 2:132.38644 3:49.177621 4:0.92844486 5:5144 6:79.844288 7:0.55362671 8:300.315 9:0.69764327 10:2.6920057 
0.13621566807595753 1:5947 2:155.72474 3:49.027334 4:0.94914698 5:6072 6:87.016984 7:0.55064815 8:340.79 9:0.64347861 10:3.176284 
0.13624721894067104 1:3982 2:100.50932 3:50.663138 4:0.86366626 5:4058 6:71.204212 7:0.60691968 8:243.849 9:0.84152915 10:1.9838747 
0.13627575487770988 1:7290 2:175.65316 3:54.129761 4:0.95133365 5:7589 6:96.342702 7:0.60755063 8:396.447 9:0.58286385 10:3.2450384 
0.091647096239101861 1:6383 2:155.09838 3:53.44351 4:0.93875765 5:6525 6:90.150363 7:0.491 8:346.3 9:0.66885153 10:2.9020995 
0.13619775186695265 1:6049 2:157.86703 3:49.958382 4:0.94860632 5:6241 6:87.760048 7:0.581411 8:354.749 9:0.60401968 10:3.1599708 
0.13410166767128012 1:5280 2:141.9082 3:48.696833 4:0.93927796 5:5448 6:81.992102 7:0.61567164 8:317.823 9:0.65686049 10:2.9141156 
0.10305367899840645 1:6233 2:161.74048 3:50.019218 4:0.95097882 5:6374 6:89.084803 7:0.46424847 8:351.933 9:0.63239293 10:3.2335667 
0.13452948653946356 1:6230 2:164.78103 3:49.150144 4:0.95447982 5:6391 6:89.063362 7:0.47513728 8:359.498 9:0.60576608 10:3.3526052 
0.13621701412070622 1:5805 2:150.36435 3:49.927012 4:0.94326523 5:5985 6:85.97183 7:0.49295177 8:338.162 9:0.63791451 10:3.0116834 
0.13496360223349299 1:5678 2:151.92183 3:48.34131 4:0.94802409 5:5798 6:85.026197 7:0.46457208 8:332.473 9:0.64549441 10:3.1426917 
0.13612262985547452 1:5810 2:153.22356 3:48.783362 4:0.94796307 5:5949 6:86.008847 7:0.56827074 8:336.274 9:0.64565336 10:3.1408979 
0.13624711514342058 1:6351 2:152.94028 3:53.764886 4:0.93617223 5:6495 6:89.924103 7:0.49175377 8:342.613 9:0.67989884 10:2.8446128 
0.13221356132828599 1:6679 2:159.54514 3:54.340123 4:0.94021046 5:6850 6:92.216956 7:0.47500178 8:356.73 9:0.65954137 10:2.9360467 
0.1342017138874764 1:5961 2:149.0729 3:52.053508 4:0.93705509 5:6083 6:87.119349 7:0.48633434 8:333.253 9:0.67449829 10:2.8638397 
0.13625842198735977 1:6636 2:161.99206 3:53.171254 4:0.94459655 5:6776 6:91.919626 7:0.82877482 8:355.748 9:0.6589179 10:3.0466098 
0.13620616919610626 1:6678 2:159.78997 3:54.317076 4:0.94045148 5:6841 6:92.210052 7:0.65278592 8:360.191 9:0.64683061 10:2.9417999 
0.13626109844051698 1:6369 2:155.14986 3:53.346046 4:0.93902986 5:6545 6:90.051445 7:0.57794918 8:349.192 9:0.65637577 10:2.9083667 
0.13601917593075102 1:5594 2:142.48897 3:51.24098 4:0.93310129 5:5778 6:84.394917 7:0.77791684 8:321.386 9:0.6805788 10:2.7807619 
0.13621602794920556 1:5256 2:142.12956 3:48.752662 4:0.93932969 5:5470 6:81.805544 7:0.5087108 8:317.585 9:0.65485516 10:2.915319 
0.13621834002034894 1:6343 2:160.62391 3:51.193394 4:0.94785029 5:6557 6:89.867449 7:0.45672523 8:361.429 9:0.61018086 10:3.1375906 
0.13624123909071176 1:5926 2:144.81408 3:53.913826 4:0.92811371 5:6127 6:86.863212 7:0.49432766 8:328.448 9:0.69030063 10:2.6860287 
0.1285025096032843 1:6430 2:153.46672 3:54.587861 4:0.93460081 5:6593 6:90.481657 7:0.55335628 8:347.571 9:0.66885776 10:2.8113709 
0.13566777930958823 1:6772 2:164.88165 3:53.135156 4:0.94665038 5:6930 6:92.856762 7:0.45747484 8:360.273 9:0.65563689 10:3.1030614 
0.13575999671288747 1:4431 2:139.27416 3:41.053057 4:0.95556998 5:4532 6:75.111413 7:0.52043693 8:300.398 9:0.617046 10:3.3925406 
0.13291743003657114 1:6522 2:158.09741 3:53.541982 4:0.94090719 5:6691 6:91.126661 7:0.47329463 8:354.467 9:0.65228747 10:2.9527746 
0.13618540239000276 1:5746 2:149.55571 3:49.777994 4:0.94298362 5:5910 6:85.53382 7:0.52546868 8:335.133 9:0.64289655 10:3.0044544 
0.13585911574716941 1:4372 2:144.7565 3:38.579403 4:0.96383149 5:4461 6:74.609673 7:0.39745455 8:307.946 9:0.57934983 10:3.7521707 
0.13585521004250647 1:3812 2:95.003648 3:52.781004 4:0.83147098 5:3903 6:69.667705 7:0.59655712 8:244.123 9:0.80379511 10:1.7999591 
0.1353739839755555 1:6033 2:148.03345 3:52.651498 4:0.93461047 5:6146 6:87.643906 7:0.49289216 8:334.352 9:0.67816495 10:2.8115715 
0.13621263844262141 1:6925 2:161.4771 3:55.986385 4:0.93797086 5:7154 6:93.899861 7:0.52071584 8:361.432 9:0.66615676 10:2.8842208 
0.076155999000079952 1:5984 2:146.84572 3:52.960391 4:0.93269995 5:6135 6:87.287258 7:0.7881981 8:331.931 9:0.68250497 10:2.7727461 
0.13618852366827383 1:6067 2:151.89694 3:51.896178 4:0.93982585 5:6255 6:87.890525 7:0.5893152 8:341.649 9:0.65316597 10:2.9269388 
0.13579821908590284 1:4925 2:118.28476 3:54.534885 4:0.8873755 5:5035 6:79.187782 7:0.87789661 8:280.448 9:0.78688525 10:2.1689743 
0.13612731902122976 1:5801 2:138.30833 3:53.96317 4:0.92074465 5:5960 6:85.942205 7:0.5465423 8:323.3 9:0.69743112 10:2.5630135 
0.13579197208462507 1:4585 2:147.39485 3:41.390152 4:0.95976297 5:4884 6:76.405519 7:0.45454545 8:315.237 9:0.57979549 10:3.5611092 
0.13597046827487114 1:5779 2:140.22851 3:53.545405 4:0.92422682 5:5952 6:85.779084 7:0.53643368 8:322.68 9:0.69745865 10:2.618871 
0.13620881819744596 1:5426 2:138.18355 3:50.879941 4:0.92974444 5:5560 6:83.117975 7:0.61352329 8:314.432 9:0.68966181 10:2.7158749 
0.11357699846047542 1:6444 2:157.68783 3:52.875523 4:0.94210511 5:6571 6:90.580106 7:0.81518027 8:349.397 9:0.66332605 10:2.9822463 
0.13621253473144365 1:5777 2:161.7106 3:46.377841 4:0.95799188 5:5914 6:85.76424 7:0.81769285 8:346.808 9:0.60357886 10:3.4868074 
0.13625145733401647 1:6058 2:143.06735 3:54.450725 4:0.92474181 5:6209 6:87.82531 7:0.60677083 8:327.069 9:0.71164003 10:2.6274646 
0.089011965503708088 1:6193 2:152.68328 3:52.413072 4:0.93923322 5:6330 6:88.798494 7:0.80954248 8:339.895 9:0.67362996 10:2.9130763 
0.13600124589352933 1:6108 2:161.1089 3:49.651925 4:0.95132528 5:6264 6:88.187001 7:0.43516671 8:356.65 9:0.60342658 10:3.2447664 
0.13625160616662413 1:5303 2:152.95116 3:44.732658 4:0.95627663 5:5392 6:82.170489 7:0.82768847 8:332.435 9:0.60300097 10:3.419228 
0.13548371133126297 1:6216 2:157.42605 3:51.657586 4:0.94462954 5:6376 6:88.963234 7:0.65528147 8:353.937 9:0.62354663 10:3.0474915 
0.13608520855535719 1:6202 2:156.11875 3:52.375102 4:0.94204645 5:6406 6:88.862994 7:0.49031544 8:350.55 9:0.63422256 10:2.9807817 
0.12630969052142876 1:6565 2:157.00949 3:54.091725 4:0.93878174 5:6743 6:91.426569 7:0.49859497 8:351.982 9:0.66589183 10:2.9026526 
0.11310584270589095 1:6286 2:160.25878 3:51.205944 4:0.94757941 5:6460 6:89.462751 7:0.45789627 8:352.87 9:0.63438772 10:3.129691 
0.1357891366328538 1:6444 2:161.9494 3:51.875776 4:0.9473091 5:6677 6:90.580106 7:0.5339299 8:358.909 9:0.62863231 10:3.1218695 
0.13609846597924646 1:7033 2:158.60604 3:57.250185 4:0.93258191 5:7202 6:94.629243 7:0.49837018 8:360.106 9:0.68153751 10:2.7704022 
0.13613063436696854 1:6594 2:167.75765 3:51.016528 4:0.9526374 5:6766 6:91.628279 7:0.43438735 8:372.263 9:0.597942 10:3.2882999 
0.13619716334293799 1:6162 2:155.25211 3:51.162567 4:0.94413985 5:6303 6:88.575968 7:0.53675958 8:343.676 9:0.65559125 10:3.0344863 
0.13609130978764725 1:6282 2:153.58135 3:53.336813 4:0.93775888 5:6504 6:89.434282 7:0.53554987 8:344.883 9:0.66368839 10:2.8794625 
0.13573636946724341 1:6284 2:155.98024 3:52.424902 4:0.94182644 5:6468 6:89.448518 7:0.597793 8:350.622 9:0.64234406 10:2.9753083 
0.13621083477754156 1:4203 2:107.2993 3:50.527183 4:0.88218688 5:4281 6:73.15344 7:0.66894795 8:255.102 9:0.81159904 10:2.1235955 
0.13184485805013874 1:6313 2:160.77096 3:50.739438 4:0.94889207 5:6504 6:89.654678 7:0.54658009 8:358.454 9:0.6174173 10:3.1685602 
0.13608473641324015 1:6051 2:146.97798 3:53.840627 4:0.93048986 5:6220 6:87.774555 7:0.50425 8:332.489 9:0.68783212 10:2.7298712 
0.13607208486152678 1:5945 2:148.94579 3:51.770145 4:0.93765141 5:6069 6:87.002351 7:0.54641544 8:333.214 9:0.67284533 10:2.8770596 
0.11603069643276753 1:6184 2:152.81008 3:52.902012 4:0.93816276 5:6323 6:88.733947 7:0.58828006 8:341.848 9:0.66498716 10:2.8885495 
0.13667704106038561 1:4433 2:116.19397 3:48.959342 4:0.90689406 5:4564 6:75.128363 7:0.61775362 8:269.153 9:0.76896955 10:2.3732748 
0.13619585090844161 1:5841 2:155.01038 3:49.013901 4:0.94869337 5:6029 6:86.237997 7:0.69411765 8:343.36 9:0.62258359 10:3.16258 
0.13607379178227647 1:6105 2:173.67273 3:44.922587 4:0.96596782 5:6246 6:88.165341 7:0.38323917 8:369.825 9:0.56092268 10:3.8660448 
0.13623134516615071 1:7340 2:168.03829 3:57.240372 4:0.94019422 5:7564 6:96.672531 7:0.49146301 8:381.201 9:0.63474291 10:2.9356604 
0.13630852252950176 1:6100 2:148.01485 3:53.624302 4:0.93206542 5:6279 6:88.12923 7:0.50714998 8:344.695 9:0.64516341 10:2.7602197 
0.13619304581110775 1:5105 2:129.28314 3:51.184799 4:0.91828829 5:5237 6:80.621882 7:0.81134774 8:295.252 9:0.73590188 10:2.5258113 
0.13372166430330776 1:6286 2:154.22334 3:52.227708 4:0.94091248 5:6413 6:89.462751 7:0.47762328 8:343.605 9:0.66906035 10:2.9529028 
0.13589104275338165 1:7003 2:161.92155 3:56.083183 4:0.93810159 5:7165 6:94.427202 7:0.74341826 8:363.2 9:0.66711747 10:2.8871676 
0.13490813087909165 1:5402 2:138.79227 3:50.963279 4:0.93014554 5:5554 6:82.93395 7:0.49559633 8:319.258 9:0.66601018 10:2.7233779 
0.13617940852646354 1:5651 2:139.74746 3:52.452808 4:0.92688721 5:5828 6:84.823798 7:0.74748677 8:321.56 9:0.68676971 10:2.6642512 
0.1361992621347195 1:5893 2:149.86122 3:51.642193 4:0.93874957 5:6117 6:86.621017 7:0.50367521 8:338.069 9:0.64794122 10:2.9019143 
0.13620404700984889 1:6760 2:160.39384 3:54.257453 4:0.94104679 5:6905 6:92.774454 7:0.51367781 8:355.438 9:0.67240177 10:2.9561623 
0.13620070116477809 1:6473 2:144.32188 3:58.169219 4:0.91517708 5:6633 6:90.783697 7:0.53066076 8:339.214 9:0.7069162 10:2.4810695 
0.13608881495871439 1:5833 2:162.49366 3:46.915054 4:0.95741379 5:5995 6:86.17892 7:0.57186275 8:349.546 9:0.59991976 10:3.4635718 
0.13569227422762606 1:6250 2:152.8513 3:52.988158 4:0.9379891 5:6395 6:89.206206 7:0.598659 8:342.328 9:0.67020094 10:2.8846312 
0.13626621916834442 1:5570 2:162.83617 3:44.828226 4:0.96135937 5:5778 6:84.213682 7:0.69555445 8:349.446 9:0.57319832 10:3.6324474 
0.13565943413029477 1:5732 2:144.31594 3:51.028603 4:0.93540069 5:5904 6:85.429556 7:0.56825617 8:325.813 9:0.6785459 10:2.8281382 
0.13597447120436001 1:4860 2:135.90575 3:46.430652 4:0.9398314 5:5170 6:78.663487 7:0.46784752 8:310.039 9:0.63535065 10:2.9270697 
0.13585920563829404 1:6042 2:150.3351 3:52.977598 4:0.93585071 5:6289 6:87.709255 7:0.50287141 8:342.801 9:0.64610994 10:2.8377108 
0.13163712862843274 1:6553 2:154.87431 3:55.265815 4:0.93416436 5:6755 6:91.342973 7:0.67984231 8:352.978 9:0.66092892 10:2.8023527 
0.13596035664585479 1:6306 2:159.49237 3:51.568949 4:0.94628567 5:6575 6:89.604958 7:0.45291963 8:353.779 9:0.63313997 10:3.0927986 
0.13621129397789888 1:6401 2:162.71465 3:51.159702 4:0.94928608 5:6542 6:90.277385 7:0.46260027 8:359.375 9:0.62281916 10:3.1805237 
0.13574727497568151 1:6919 2:165.89364 3:54.507974 4:0.94447899 5:7088 6:93.859173 7:0.52321537 8:368.321 9:0.6409147 10:3.0434746 
0.13612540346269245 1:6524 2:147.12148 3:57.897012 4:0.91931092 5:6731 6:91.140632 7:0.53801748 8:352.146 9:0.66111696 10:2.5410894 
0.13622103667585717 1:6992 2:165.74305 3:54.741986 4:0.94388222 5:7195 6:94.353012 7:0.48707767 8:376.264 9:0.62062026 10:3.0277134 
0.13627092390693291 1:5273 2:158.23403 3:42.957725 4:0.96244346 5:5422 6:81.937733 7:0.40221205 8:336.678 9:0.5845722 10:3.6834826 
0.13585073607514864 1:5567 2:138.61792 3:53.255018 4:0.92325586 5:5804 6:84.191 7:0.78718891 8:318.31 9:0.69044728 10:2.6029082 
0.12719560515278386 1:5976 2:151.42959 3:51.169885 4:0.94117769 5:6145 6:87.228892 7:0.47099622 8:338.917 9:0.65378318 10:2.9593498 
0.13624312507882946 1:5988 2:156.62609 3:50.149483 4:0.94735469 5:6201 6:87.316427 7:0.59035788 8:348.422 9:0.61984131 10:3.1231845 
0.13576368069346836 1:6505 2:157.98597 3:53.191442 4:0.94161749 5:6618 6:91.00782 7:0.81241414 8:353.855 9:0.6528396 10:2.970139 
0.092514957555818386 1:6368 2:162.09647 3:51.08571 4:0.94903981 5:6522 6:90.044375 7:0.61609907 8:355.146 9:0.63445243 10:3.1730295 
0.13620420090975724 1:6075 2:159.33221 3:49.77872 4:0.94994376 5:6209 6:87.948452 7:0.50223214 8:346.761 9:0.63488586 10:3.2008097 
0.13665834417069733 1:6977 2:166.06156 3:54.976071 4:0.94361027 5:7242 6:94.25175 7:0.55250238 8:370.314 9:0.63934949 10:3.0206152 
0.13649638913682316 1:5415 2:139.05877 3:50.457789 4:0.93184668 5:5545 6:83.033681 7:0.83719852 8:312.644 9:0.6961585 10:2.7559426 
0.12438985971135269 1:5800 2:146.46251 3:51.631246 4:0.93580355 5:5954 6:85.934797 7:0.49011323 8:330.479 9:0.66734456 10:2.8367029 
0.13621283817197993 1:4851 2:133.35743 3:47.34263 4:0.93486418 5:5027 6:78.590617 7:0.56341463 8:299.984 9:0.67739963 10:2.8168572 
0.13609802711589758 1:7015 2:171.01451 3:53.042743 4:0.95068269 5:7192 6:94.508071 7:0.4664849 8:378.108 9:0.61660325 10:3.2240888 
0.13624963616281247 1:6030 2:154.61619 3:51.53755 4:0.94281174 5:6277 6:87.622112 7:0.78352391 8:342.715 9:0.64515037 10:3.0000687 
0.13598161678293619 1:5960 2:152.36149 3:50.704504 4:0.94300067 5:6112 6:87.112041 7:0.78961314 8:336.595 9:0.66105988 10:3.0048906 
0.13609841859984378 1:5010 2:138.38661 3:46.842983 4:0.94096869 5:5136 6:79.868205 7:0.6494685 8:307.848 9:0.66431631 10:2.9542655 
0.13621842222422637 1:5097 2:126.27789 3:52.613896 4:0.90906621 5:5252 6:80.558686 7:0.73401498 8:299.67 9:0.71324373 10:2.4000864 
0.13610178522041194 1:5585 2:152.54749 3:47.604734 4:0.95006075 5:5784 6:84.327 7:0.79751535 8:334.916 9:0.62569293 10:3.2044604 
0.13454077979804091 1:5880 2:148.41099 3:51.453842 4:0.93797669 5:6006 6:86.525421 7:0.66666667 8:330.947 9:0.67463721 10:2.884352 
0.13624711171766313 1:7217 2:170.53548 3:54.926921 4:0.94671075 5:7399 6:95.859114 7:0.46203585 8:383.146 9:0.61778588 10:3.1047705 
0.1361184534978771 1:5626 2:154.69197 3:47.389551 4:0.95191964 5:5785 6:84.63596 7:0.4582926 8:339.765 9:0.61242416 10:3.2642633 
0.13466519041948954 1:5986 2:153.97844 3:50.525322 4:0.94463173 5:6114 6:87.301844 7:0.81988769 8:336.826 9:0.66303333 10:3.0475499 
0.13591436126455464 1:6121 2:162.59833 3:49.001037 4:0.95350965 5:6317 6:88.280798 7:0.49570781 8:358.778 9:0.59755878 10:3.3182632 
0.13619279531849754 1:6371 2:164.76557 3:50.206347 4:0.95244396 5:6568 6:90.065582 7:0.71104911 8:359.338 9:0.62002782 10:3.2817678 
0.13580382531690816 1:7222 2:161.32128 3:58.436882 4:0.93208519 5:7467 6:95.892315 7:0.55079317 8:371.919 9:0.65610088 10:2.7606072 
0.13624796764458902 1:6225 2:161.6328 3:50.013764 4:0.95092278 5:6340 6:89.027615 7:0.44158332 8:357.668 9:0.61148956 10:3.2317665 
0.13581717961154413 1:3977 2:129.09513 3:39.872105 4:0.95110805 5:4073 6:71.159495 7:0.47771772 8:283.421 9:0.62215902 10:3.2377304 
0.13619702789315885 1:6932 2:161.49271 3:55.268808 4:0.9396136 5:7080 6:93.947307 7:0.75800984 8:357.725 9:0.68072207 10:2.9219502 
0.13456854414044742 1:6018 2:155.35771 3:49.904534 4:0.94700344 5:6190 6:87.534882 7:0.60149925 8:345.999 9:0.63170216 10:3.1130982 
0.13576139054767325 1:5530 2:142.64295 3:50.408753 4:0.93547566 5:5689 6:83.910754 7:0.73674394 8:322.767 9:0.66704747 10:2.8297258 
0.10573520731462877 1:6320 2:160.47574 3:50.841801 4:0.94848593 5:6492 6:89.70437 7:0.54747055 8:352.053 9:0.6407828 10:3.1563739 
0.1350006031212134 1:6840 2:169.34431 3:52.241204 4:0.95122724 5:7035 6:93.321801 7:0.73619632 8:367.624 9:0.63600167 10:3.2415851 
0.13610102042607211 1:6445 2:151.07329 3:55.519661 4:0.93002293 5:6613 6:90.587134 7:0.68042652 8:343.84 9:0.6850464 10:2.7210773 
0.13584404203880918 1:6388 2:161.76398 3:50.471074 4:0.95008065 5:6515 6:90.185665 7:0.44364192 8:355.773 9:0.63420374 10:3.2050829 
0.1360243258516734 1:5373 2:133.64986 3:51.634246 4:0.92235657 5:5479 6:82.71104 7:0.53420163 8:306.315 9:0.71959838 10:2.5883957 
0.1362664686346777 1:7003 2:167.64919 3:54.113393 4:0.94647486 5:7159 6:94.427202 7:0.66316288 8:369.61 9:0.644179 10:3.0981091 
0.13586652760057588 1:5618 2:148.65957 3:48.848492 4:0.94447163 5:5776 6:84.575763 7:0.52573461 8:329.295 9:0.65106047 10:3.0432786 
0.13575344605557604 1:5781 2:156.60356 3:48.312301 4:0.95122413 5:5961 6:85.793926 7:0.44370251 8:343.423 9:0.61596222 10:3.2414843 
0.1290417084729964 1:6241 2:166.87533 3:48.505347 4:0.95682392 5:6466 6:89.141954 7:0.46339471 8:369.877 9:0.57325704 10:3.4403492 
0.13450489834653692 1:6529 2:149.14991 3:56.579243 4:0.92525539 5:6676 6:91.17555 7:0.50690994 8:343.349 9:0.69596109 10:2.6361243 
0.13626359412135161 1:5612 2:144.36381 3:50.470155 4:0.93689759 5:5756 6:84.530588 7:0.76416122 8:319.508 9:0.69081865 10:2.8603797 
0.13622040092920837 1:6532 2:164.46069 3:51.607774 4:0.94948908 5:6709 6:91.196495 7:0.74694111 8:360.272 9:0.6324046 10:3.1867425 
0.11510780279090599 1:5717 2:154.45438 3:48.097512 4:0.95027804 5:5870 6:85.317703 7:0.44004002 8:341.887 9:0.61462876 10:3.2112759 
0.13624616966886199 1:4811 2:131.07277 3:47.862658 4:0.93094441 5:4936 6:78.265928 7:0.69825835 8:298.793 9:0.67718041 10:2.7385185 
0.13610236492147992 1:6350 2:167.09755 3:49.170783 4:0.9557242 5:6530 6:89.917023 7:0.42804179 8:362.834 9:0.60613259 10:3.3983098 
0.13615580627359614 1:6561 2:160.05424 3:53.737257 4:0.94195326 5:6801 6:91.398713 7:0.50625 8:355.826 9:0.65118523 10:2.9784595 
0.13621296944508093 1:5465 2:147.47967 3:48.269906 4:0.94492092 5:5623 6:83.41615 7:0.52873452 8:326.987 9:0.64230168 10:3.055313 
0.13596848690125912 1:5079 2:132.31419 3:49.79302 4:0.92648808 5:5239 6:80.416315 7:0.65620155 8:303.383 9:0.69343474 10:2.6572839 
0.13590427654928272 1:6458 2:160.56454 3:52.597652 4:0.94482362 5:6669 6:90.678448 7:0.58570651 8:365.228 9:0.60838679 10:3.0526941 
0.13200295550263885 1:6485 2:156.20686 3:53.938812 4:0.93849099 5:6639 6:90.867808 7:0.49409524 8:349.459 9:0.66730962 10:2.8960012 
0.13591610054185821 1:6521 2:146.5743 3:57.834733 4:0.91886322 5:6686 6:91.119674 7:0.78898972 8:341.309 9:0.70344247 10:2.5343647 
0.1362055627864954 1:7170 2:173.02381 3:53.178458 4:0.95159731 5:7371 6:95.546468 7:0.74874687 8:390.459 9:0.59098729 10:3.2536448 
0.13506054941368195 1:6234 2:161.29714 3:50.196548 4:0.95034266 5:6385 6:89.091949 7:0.67908497 8:354.806 9:0.62229276 10:3.2133114 
0.13517908378612659 1:6117 2:158.61425 3:50.604395 4:0.94774103 5:6299 6:88.251948 7:0.72691622 8:351.407 9:0.62248305 10:3.1343968 
0.13624927083724442 1:6161 2:165.32621 3:47.709596 4:0.95745623 5:6317 6:88.56878 7:0.5770888 8:357.726 9:0.60500653 10:3.4652611 
0.13391492742940331 1:6150 2:152.23969 3:52.468591 4:0.93873323 5:6308 6:88.489678 7:0.56823432 8:336.348 9:0.68313617 10:2.9015394 
0.13607167353826216 1:5665 2:154.85929 3:47.691334 4:0.95139749 5:5809 6:84.928806 7:0.4367435 8:340.572 9:0.61375056 10:3.2471158 
0.13626677643247742 1:5971 2:152.17836 3:50.911569 4:0.94237731 5:6127 6:87.192393 7:0.46459695 8:339.512 9:0.65094857 10:2.9890724 
0.13621817235160555 1:5670 2:140.3582 3:52.827025 4:0.92646826 5:5840 6:84.966277 7:0.77884615 8:323.322 9:0.68158874 10:2.6569394 
0.13610328950583112 1:6549 2:152.36296 3:55.863199 4:0.93036071 5:6806 6:91.315091 7:0.55349899 8:353.137 9:0.65993082 10:2.7274299 
0.13626158630457469 1:4683 2:140.60891 3:43.930278 4:0.94994117 5:4906 6:77.217749 7:0.47649573 8:312.434 9:0.60286135 10:3.2007289 
0.13594559710229892 1:5630 2:145.92019 3:50.564225 4:0.93804269 5:5816 6:84.666042 7:0.62389184 8:328.83 9:0.6542977 10:2.8858386 
0.10911330842898888 1:5587 2:147.95063 3:48.485928 4:0.94477595 5:5770 6:84.342097 7:0.56275181 8:338.061 9:0.61432529 10:3.0514138 
0.13620629123029007 1:6502 2:150.1136 3:56.201224 4:0.92727081 5:6672 6:90.986832 7:0.55139077 8:343.52 9:0.69239317 10:2.6710023 
0.13353958632712615 1:6545 2:155.59396 3:54.956491 4:0.93554613 5:6718 6:91.2872 7:0.50130208 8:348.938 9:0.67549631 10:2.8312208 
0.13618845385838751 1:5732 2:147.41429 3:50.711385 4:0.93896749 5:5940 6:85.429556 7:0.51477324 8:331.9 9:0.65388525 10:2.9069269 
0.13620525962959812 1:5859 2:148.66973 3:50.603503 4:0.94028967 5:5971 6:86.370773 7:0.73467085 8:329.45 9:0.67835079 10:2.9379336 
0.13607792003815652 1:5108 2:142.56427 3:47.267777 4:0.94343619 5:5297 6:80.645568 7:0.47827715 8:319.05 9:0.63058445 10:3.0160985 
0.13621809176043725 1:5474 2:140.56262 3:50.467531 4:0.93332237 5:5639 6:83.484809 7:0.49248763 8:318.192 9:0.67941659 10:2.7852089 
0.13663549310483517 1:5626 2:154.5474 3:47.149586 4:0.95232618 5:5751 6:84.63596 7:0.43816199 8:334.693 9:0.63112638 10:3.2778104 
0.13609395887319792 1:6282 2:156.05044 3:51.889323 4:0.94309749 5:6429 6:89.434282 7:0.80507497 8:349.563 9:0.64603624 10:3.0073708 
0.13623977240827062 1:6520 2:161.8622 3:52.212983 4:0.94654331 5:6645 6:91.112688 7:0.45664659 8:352.218 9:0.66044152 10:3.1000374 
0.13621352083956267 1:5439 2:147.51274 3:47.839973 4:0.94595058 5:5636 6:83.217485 7:0.50254089 8:332.497 9:0.61823482 10:3.0834619 
0.13669764540731863 1:5142 2:129.52673 3:51.161509 4:0.91868626 5:5284 6:80.91352 7:0.59191896 8:298.289 9:0.72621875 10:2.5317222 
0.13621732054145541 1:4688 2:133.51226 3:45.421579 4:0.94035118 5:4798 6:77.258961 7:0.60994015 8:295.724 9:0.6736345 10:2.9394015 
0.13621884494128039 1:6629 2:168.44149 3:50.777062 4:0.95348128 5:6769 6:91.871132 7:0.81991342 8:364.126 9:0.62828183 10:3.3172753 
0.13637258559058418 1:5221 2:136.08566 3:49.950111 4:0.9302016 5:5451 6:81.532715 7:0.54092416 8:325.755 9:0.61827456 10:2.7244317 
0.13636842474793731 1:6714 2:163.02124 3:53.536761 4:0.94453749 5:6885 6:92.458262 7:0.48046372 8:359.805 9:0.65171364 10:3.0450337 
0.13634583392175603 1:7241 2:168.66778 3:55.465441 4:0.94438415 5:7464 6:96.018371 7:0.54607843 8:380.9 9:0.62717172 10:3.0409526 
0.1359662389878476 1:6654 2:164.27723 3:52.537835 4:0.94748101 5:6825 6:92.044206 7:0.80043306 8:362.687 9:0.63566556 10:3.1268366 
0.092509144380745992 1:6057 2:147.33923 3:53.325705 4:0.93220733 5:6188 6:87.818061 7:0.57357955 8:331.32 9:0.69338131 10:2.7630057 
0.13606279965248658 1:4981 2:134.98926 3:47.964496 4:0.9347444 5:5117 6:79.636714 7:0.4840622 8:309.482 9:0.65351508 10:2.8143579 
0.13620009167744823 1:6915 2:149.36545 3:60.050263 4:0.91562393 5:7157 6:93.832039 7:0.61303191 8:352.591 9:0.69897172 10:2.4873405 
0.135833431121619 1:5085 2:139.16981 3:47.586752 4:0.93972433 5:5226 6:80.4638 7:0.59265734 8:312.232 9:0.65545971 10:2.9245495 
0.13579028266383603 1:6548 2:152.44361 3:55.450719 4:0.93149826 5:6710 6:91.308119 7:0.58990991 8:347.836 9:0.68009484 10:2.7491728 
0.13589060518220003 1:5453 2:159.63015 3:44.040127 4:0.96118964 5:5590 6:83.324518 7:0.43157895 8:345.764 9:0.57317312 10:3.6246523 
0.13587418916272145 1:7016 2:160.95946 3:55.973339 4:0.93758802 5:7204 6:94.514806 7:0.62816725 8:363.466 9:0.66737796 10:2.8756451 
0.13621342687088683 1:3974 2:135.39337 3:38.262301 4:0.95923755 5:4095 6:71.13265 7:0.50527654 8:291.25 9:0.58871603 10:3.5385581 
0.13619642879860566 1:6644 2:157.14995 3:54.940237 4:0.9368976 5:6824 6:91.975016 7:0.60664719 8:352.21 9:0.67303263 10:2.8603799 
0.13621035293274314 1:7034 2:169.65563 3:54.358498 4:0.94728068 5:7238 6:94.635971 7:0.69464744 8:379.633 9:0.61331603 10:3.1210508 
0.13623306096952106 1:6644 2:151.20013 3:57.35878 4:0.92525052 5:6784 6:91.975016 7:0.56496599 8:345.769 9:0.69834074 10:2.6360417 
0.13620852470477207 1:5678 2:143.28214 3:51.594075 4:0.93291862 5:5817 6:85.026197 7:0.77994505 8:321.122 9:0.69193473 10:2.7771046 
0.13611604527849497 1:6511 2:158.75126 3:53.322942 4:0.94190127 5:6655 6:91.049781 7:0.78247807 8:354.41 9:0.65139681 10:2.9771663 
0.13587669879096842 1:6807 2:162.47764 3:54.238798 4:0.94263572 5:6982 6:93.09641 7:0.65972088 8:364.739 9:0.64298554 10:2.9955981 
0.13554089596606647 1:5722 2:151.93636 3:48.499782 4:0.94768362 5:5859 6:85.355004 7:0.45911899 8:333.682 9:0.64579125 10:3.1327226 
0.13619186695743329 1:5012 2:149.26922 3:43.167273 4:0.9572715 5:5119 6:79.884145 7:0.53076353 8:317.682 9:0.62407345 10:3.4579256 
0.11750885668815644 1:5834 2:153.1226 3:49.625674 4:0.94602587 5:5981 6:86.186307 7:0.56280147 8:340.02 9:0.63411403 10:3.085552 
0.13580382528019863 1:3977 2:126.87187 3:40.568247 4:0.94749938 5:4103 6:71.159495 7:0.76363287 8:282.93 9:0.6243203 10:3.1273688 
0.13625461353670645 1:6500 2:155.72173 3:54.736461 4:0.93618723 5:6766 6:90.972837 7:0.51652893 8:358.852 9:0.63429674 10:2.8449361 
0.13408621692998668 1:6092 2:154.39649 3:51.340919 4:0.94309392 5:6286 6:88.071422 7:0.65505376 8:345.13 9:0.64269413 10:3.0072794 
0.13606255465421924 1:6276 2:175.92027 3:46.551232 4:0.964354 5:6494 6:89.391562 7:0.55598866 8:379.6 9:0.54731883 10:3.7790679 
0.13576763541965145 1:6427 2:158.65419 3:52.540273 4:0.94357384 5:6588 6:90.460547 7:0.61774318 8:351.912 9:0.65215377 10:3.0196682 
0.13585798776887265 1:6029 2:149.65367 3:51.883691 4:0.93797912 5:6220 6:87.614846 7:0.49613232 8:345.209 9:0.63575667 10:2.8844068 
0.13609694829436314 1:6381 2:158.31036 3:52.870029 4:0.94258567 5:6597 6:90.136239 7:0.57486486 8:354.129 9:0.6394044 10:2.9943308 
0.13591527699893952 1:6174 2:148.80775 3:53.859943 4:0.93220018 5:6290 6:88.662173 7:0.52428668 8:331.67 9:0.70528412 10:2.7628651 
0.13581914917446947 1:6989 2:161.27534 3:56.224814 4:0.93726183 5:7166 6:94.332768 7:0.80891204 8:364.234 9:0.66200907 10:2.8684014 
0.13492267023246715 1:5954 2:144.01118 3:53.616641 4:0.92810888 5:6086 6:87.068182 7:0.77324675 8:325.224 9:0.70738121 10:2.6859418 
0.13591275013129675 1:5692 2:144.27222 3:51.4398 4:0.93427746 5:5832 6:85.130955 7:0.48475558 8:328.093 9:0.66447834 10:2.8046809 
0.13619715765774171 1:5687 2:136.91394 3:53.926388 4:0.91916586 5:5815 6:85.093556 7:0.56620868 8:313.019 9:0.72937638 10:2.5389043 
0.12214688506238644 1:5189 2:143.53 3:46.940034 4:0.94501054 5:5309 6:81.28247 7:0.51838162 8:314.492 9:0.65928672 10:3.0577311 
0.13611190554675184 1:6186 2:160.20934 3:50.0068 4:0.95003805 5:6343 6:88.748295 7:0.54996444 8:353.004 9:0.62382177 10:3.2037511 
0.1361950845160313 1:5791 2:148.26587 3:50.622603 4:0.93990675 5:5904 6:85.868098 7:0.49043022 8:329.397 9:0.67069358 10:2.9288472 
0.13618398109087998 1:5885 2:150.73896 3:50.776087 4:0.94155911 5:6064 6:86.562201 7:0.53980921 8:335.513 9:0.65695803 10:2.9686998 
0.13618857061943251 1:6917 2:156.46526 3:57.206037 4:0.93076619 5:7075 6:93.845607 7:0.57184193 8:356.487 9:0.68397503 10:2.7351179 
0.092045998687244779 1:6253 2:159.81269 3:51.297285 4:0.94708468 5:6418 6:89.227613 7:0.47015038 8:351.602 9:0.63561717 10:3.115422 
0.12987126760052248 1:5989 2:147.99716 3:52.641098 4:0.93460403 5:6134 6:87.323717 7:0.81482993 8:332.195 9:0.68198998 10:2.8114376 
0.1360736517664235 1:6507 2:151.77802 3:55.850627 4:0.9298354 5:6774 6:91.021809 7:0.49656593 8:361.194 9:0.62677204 10:2.7175706 
0.13577772140941269 1:5576 2:126.64435 3:56.984844 4:0.8930489 5:5689 6:84.259027 7:0.56985181 8:302.164 9:0.76744487 10:2.2224217 
0.13578738648852121 1:5491 2:134.97798 3:52.83741 4:0.92019849 5:5668 6:83.614343 7:0.57443247 8:318.914 9:0.67844421 10:2.5545911 
0.13619429926531185 1:6162 2:164.57144 3:48.616112 4:0.95537045 5:6417 6:88.575968 7:0.58955224 8:357.974 9:0.6042666 10:3.3851213 
0.13024658476115492 1:5083 2:142.88575 3:46.517815 4:0.94552155 5:5246 6:80.447975 7:0.48538961 8:315.03 9:0.64361499 10:3.0716349 
0.13588300398199457 1:6668 2:160.9344 3:53.831927 4:0.94239714 5:6885 6:92.140986 7:0.63390056 8:362.779 9:0.63667995 10:2.9895716 
0.11640198863647702 1:5069 2:135.04136 3:48.646855 4:0.93286093 5:5168 6:80.33711 7:0.57238031 8:301.068 9:0.70275341 10:2.7759526 
0.1271860148946759 1:6356 2:147.66577 3:55.602931 4:0.92639799 5:6513 6:89.959494 7:0.59291045 8:337.002 9:0.70328086 10:2.6557191 
0.1365746705833879 1:5356 2:145.57494 3:47.439417 4:0.94541243 5:5488 6:82.580088 7:0.53293532 8:324.945 9:0.63742738 10:3.0686494 
0.13572563213590982 1:6659 2:157.09658 3:54.664828 4:0.93750583 5:6855 6:92.078782 7:0.60393615 8:354.658 9:0.66527217 10:2.8738146 
0.13577420281573072 1:4646 2:127.76395 3:47.086382 4:0.9296111 5:4748 6:76.912099 7:0.67313822 8:287.719 9:0.70526444 10:2.713395 
0.13588237294350558 1:6785 2:166.09594 3:53.267693 4:0.94717935 5:6996 6:92.945846 7:0.5082397 8:372.357 9:0.61495122 10:3.1181366 
0.13626986489329207 1:6424 2:162.91536 3:51.574834 4:0.94856768 5:6639 6:90.439432 7:0.69224138 8:360.289 9:0.62188974 10:3.158815 
0.13602699064102614 1:5239 2:137.32816 3:49.84742 4:0.93179681 5:5358 6:81.673141 7:0.484375 8:314.313 9:0.66639783 10:2.7549703 
0.1358244943067923 1:6414 2:159.20555 3:52.68406 4:0.94365934 5:6623 6:90.369013 7:0.46817518 8:355.77 9:0.63679577 10:3.0218922 
0.13583312341916082 1:6858 2:163.32996 3:55.024242 4:0.94154399 5:7041 6:93.444512 7:0.66608392 8:364.375 9:0.64909789 10:2.9683273 
0.13611800309128194 1:6226 2:154.9574 3:52.14451 4:0.94168036 5:6326 6:89.034765 7:0.46819071 8:344.849 9:0.65790175 10:2.9716915 
0.13608360875397171 1:6445 2:166.52128 3:50.507478 4:0.95289211 5:6598 6:90.587134 7:0.43538472 8:361.472 9:0.61984551 10:3.2969628 
0.13626576662858231 1:7443 2:166.59854 3:57.347605 4:0.9388867 5:7624 6:97.348456 7:0.50304136 8:383.93 9:0.63453237 10:2.9050654 
0.13577282946248884 1:6206 2:151.97184 3:52.437871 4:0.93858433 5:6357 6:88.891645 7:0.81668641 8:349.729 9:0.63761473 10:2.8981314 
0.13602774775495158 1:6505 2:153.58803 3:54.602655 4:0.93467106 5:6631 6:91.00782 7:0.82845135 8:344.593 9:0.68840539 10:2.8128308 
0.13531237731356938 1:5510 2:142.53117 3:50.39617 4:0.93540429 5:5668 6:83.758879 7:0.50849022 8:321.282 9:0.67079323 10:2.8282143 
0.13452753118524929 1:5549 2:150.30193 3:47.885907 4:0.9478899 5:5706 6:84.054781 7:0.59628197 8:335.422 9:0.61978563 10:3.1387507 
0.10625140349725158 1:5740 2:144.32432 3:51.707838 4:0.93361599 5:5873 6:85.489151 7:0.48784634 8:324.991 9:0.68293456 10:2.7911497 
0.13615455946621069 1:6910 2:169.72787 3:53.064482 4:0.94987022 5:7068 6:93.798109 7:0.49956622 8:370.158 9:0.63374367 10:3.1985212 
0.13626796208863451 1:6312 2:150.65729 3:54.887562 4:0.93127357 5:6558 6:89.647577 7:0.59687943 8:338.879 9:0.69069695 10:2.7448347 
0.13335442700797473 1:5830 2:153.09538 3:49.110604 4:0.94715226 5:5979 6:86.156756 7:0.47111111 8:335.79 9:0.64974493 10:3.117359 
0.13611884898208082 1:4793 2:125.2034 3:49.620378 4:0.91811325 5:4916 6:78.119377 7:0.64937 8:290.961 9:0.71145548 10:2.5232255 
0.13667704109887072 1:4760 2:149.68505 3:41.10258 4:0.96156033 5:4859 6:77.849985 7:0.45075758 8:319.421 9:0.58625949 10:3.6417435 
0.13621271403654633 1:6278 2:158.40342 3:51.542821 4:0.94558005 5:6476 6:89.405804 7:0.67943723 8:352.507 9:0.6348859 10:3.0732393 
0.13649316890048502 1:5472 2:118.82259 3:59.811046 4:0.86407431 5:5649 6:83.469556 7:0.60692103 8:295.612 9:0.78688603 10:1.9866328 
0.13577475699743508 1:6867 2:166.54713 3:53.438713 4:0.94712582 5:7036 6:93.505807 7:0.46273585 8:368.052 9:0.63702804 10:3.1166006 
0.13619603111991896 1:7136 2:169.72673 3:54.699874 4:0.9466437 5:7364 6:95.319659 7:0.57562313 8:379.874 9:0.62142049 10:3.1028724 
0.1290316760056448 1:6022 2:150.33514 3:51.450972 4:0.93961191 5:6177 6:87.563968 7:0.54266919 8:334.406 9:0.67670984 10:2.9219106 
0.13577336117437075 1:5633 2:130.26213 3:55.960288 4:0.90302047 5:5756 6:84.688596 7:0.68278788 8:305.169 9:0.76009659 10:2.3277602 
0.13619617468089057 1:6636 2:167.09638 3:51.383834 4:0.9515448 5:6782 6:91.919626 7:0.50041475 8:366.113 9:0.62213687 10:3.2519252 
0.13620297951147003 1:6110 2:160.51462 3:49.218666 4:0.95182865 5:6278 6:88.201438 7:0.79557292 8:354.433 9:0.61119919 10:3.261255 
0.13653176247565901 1:6410 2:160.80228 3:51.330747 4:0.94768181 5:6542 6:90.34083 7:0.51886029 8:351.74 9:0.65106504 10:3.1326699 
0.13648782703595208 1:6179 2:145.78662 3:55.499757 4:0.92470202 5:6405 6:88.698067 7:0.55556555 8:336.333 9:0.68641869 10:2.6267974 
0.13618521527483168 1:6534 2:155.48892 3:54.981985 4:0.93539405 5:6686 6:91.210455 7:0.81593407 8:349 9:0.67412144 10:2.8279976 
0.13620006134057233 1:5524 2:159.5734 3:45.180869 4:0.95907996 5:5736 6:83.865221 7:0.65218418 8:345.502 9:0.58151698 10:3.5318797 
0.12400272233230195 1:4664 2:135.11779 3:44.4514 4:0.94433599 5:4753 6:77.060945 7:0.81552719 8:299.586 9:0.65301834 10:3.0396746 
0.13621018171727645 1:6057 2:153.3719 3:50.920537 4:0.94327694 5:6171 6:87.818061 7:0.47349906 8:339.834 9:0.6590734 10:3.0119852 
0.13620299661977725 1:6169 2:161.83074 3:49.92012 4:0.95123369 5:6399 6:88.626264 7:0.66598294 8:357.882 9:0.60526411 10:3.2417939 
0.13622145387712159 1:6626 2:171.56573 3:50.769779 4:0.95521264 5:6843 6:91.850341 7:0.42335953 8:382.971 9:0.56771389 10:3.3792885 
0.13621927488051805 1:6474 2:163.03721 3:51.808135 4:0.94816824 5:6664 6:90.790709 7:0.44864865 8:362.222 9:0.62005885 10:3.1469423 
0.13620411861287568 1:6885 2:157.90018 3:56.798797 4:0.93306287 5:7051 6:93.628277 7:0.48836714 8:359.022 9:0.6712305 10:2.7799916 
0.13592100070378099 1:6209 2:162.19429 3:49.820006 4:0.95165708 5:6421 6:88.913128 7:0.57533358 8:359.198 9:0.60473305 10:3.2556056 
0.13579066220444014 1:4934 2:144.114 3:44.671156 4:0.95074602 5:5049 6:79.260103 7:0.46437647 8:317.056 9:0.61678962 10:3.2261085 
0.13140916986020726 1:5224 2:143.78396 3:46.608311 4:0.94600393 5:5349 6:81.556136 7:0.45664336 8:319.507 9:0.64306116 10:3.0849425 
0.13351984642700798 1:7074 2:166.57601 3:55.062153 4:0.94378753 5:7241 6:94.904671 7:0.5463392 8:369.785 9:0.65009427 10:3.025236 
0.13613201058094465 1:6560 2:161.9073 3:52.297882 4:0.94639512 5:6732 6:91.391747 7:0.56444674 8:356.387 9:0.64903781 10:3.0958672 
0.13621717479941109 1:3860 2:94.636503 3:53.139757 4:0.82746698 5:3942 6:70.104954 7:0.81572274 8:242.845 9:0.82250555 10:1.7808983 
0.13604689420254901 1:6267 2:155.09479 3:52.396946 4:0.9412042 5:6485 6:89.327444 7:0.48762838 8:348.376 9:0.64889302 10:2.9599967 
0.11565490031117451 1:6617 2:167.04913 3:51.661564 4:0.95097762 5:6807 6:91.787941 7:0.44812407 8:368.615 9:0.61196275 10:3.2335284 
0.13619801254871094 1:4833 2:129.21879 3:48.972665 4:0.92540065 5:4964 6:78.444673 7:0.63894765 8:293.293 9:0.70603018 10:2.6385901 
0.13608606122065417 1:6140 2:155.7803 3:52.137002 4:0.94233081 5:6373 6:88.417706 7:0.80261438 8:348.347 9:0.63584914 10:2.9879029 
0.1357755402371954 1:6524 2:161.16679 3:53.122326 4:0.94411687 5:6702 6:91.140632 7:0.45821042 8:358.279 9:0.63867675 10:3.0338805 
0.13518348991613496 1:6519 2:161.00189 3:52.466589 4:0.94541266 5:6657 6:91.1057 7:0.48555042 8:354.787 9:0.65081185 10:3.0686556 
0.13587913088491471 1:3637 2:110.12585 3:42.318138 4:0.92322047 5:3731 6:68.049778 7:0.74589828 8:250.743 9:0.72693492 10:2.6023322 
0.097970017293093847 1:5891 2:147.63128 3:52.264547 4:0.93523754 5:6038 6:86.606317 7:0.48831233 8:332.871 9:0.66810845 10:2.8246926 
0.13586790191792358 1:5469 2:142.08716 3:49.571713 4:0.93716651 5:5627 6:83.446672 7:0.50220386 8:324.45 9:0.65286326 10:2.8662952 
0.13591887193351204 1:6295 2:149.64612 3:54.501204 4:0.93132053 5:6458 6:89.526772 7:0.5462513 8:343.337 9:0.67106468 10:2.7457397 
0.13621559657361726 1:5421 2:152.1121 3:45.757681 4:0.95368235 5:5571 6:83.07967 7:0.49107709 8:335.143 9:0.60649743 10:3.3242965 
0.1362271275767703 1:6345 2:155.3609 3:53.447222 4:0.9389624 5:6540 6:89.881616 7:0.46819658 8:350.142 9:0.65035888 10:2.9068096 
0.13621886289732729 1:6542 2:144.26747 3:59.414144 4:0.91125922 5:6785 6:91.266276 7:0.76247086 8:338.258 9:0.71849583 10:2.4281672 
0.1366967417944934 1:5644 2:139.58065 3:52.641678 4:0.92615558 5:5787 6:84.771245 7:0.50271667 8:321.607 9:0.68571853 10:2.6515235 
0.13575777967654479 1:5507 2:145.16061 3:50.023803 4:0.93874593 5:5737 6:83.736075 7:0.57031897 8:330.6 9:0.63316841 10:2.9018307 
0.13608314553224921 1:5653 2:148.2939 3:49.676627 4:0.94222251 5:5767 6:84.838807 7:0.44666561 8:330.037 9:0.65217416 10:2.9851846 
0.13579333831949539 1:6232 2:150.86255 3:53.929831 4:0.93392209 5:6403 6:89.077656 7:0.69709172 8:343.386 9:0.66415912 10:2.7973858 
0.13642034680925566 1:6576 2:163.20611 3:52.502667 4:0.94684319 5:6720 6:91.503132 7:0.56243585 8:362.341 9:0.62941445 10:3.1085299 
0.13602315235467208 1:6127 2:157.3951 3:50.773641 4:0.94653976 5:6288 6:88.324055 7:0.4544578 8:347.519 9:0.63753002 10:3.0999372 
0.13440325395265756 1:5542 2:148.03046 3:49.012117 4:0.94359749 5:5711 6:84.001747 7:0.47808834 8:327.924 9:0.64763451 10:3.0202828 
0.13642988420480082 1:7114 2:159.34076 3:58.042852 4:0.93129389 5:7353 6:95.172612 7:0.51286857 8:367.19 9:0.66304352 10:2.7452262 
0.13605451412213632 1:6339 2:149.55558 3:54.805813 4:0.93043466 5:6482 6:89.839109 7:0.50445647 8:340.248 9:0.68808082 10:2.728827 
0.13620305350101963 1:5635 2:139.66102 3:52.200924 4:0.92752192 5:5782 6:84.703629 7:0.71637427 8:318.062 9:0.69997127 10:2.675451 
0.13619653260419334 1:6968 2:160.63147 3:56.914435 4:0.93512543 5:7158 6:94.19094 7:0.47221469 8:366.409 9:0.65220743 10:2.8223327 
0.13585072783419255 1:6178 2:157.97505 3:50.907591 4:0.94665432 5:6365 6:88.69089 7:0.59232982 8:348.86 9:0.63790413 10:3.1031729 
0.1362042769230456 1:3987 2:127.18819 3:41.183798 4:0.94612485 5:4240 6:71.248902 7:0.50245747 8:281.667 9:0.63151572 10:3.0883066 
0.13366746552043188 1:6304 2:159.11306 3:51.306588 4:0.94658525 5:6437 6:89.590748 7:0.7873111 8:351.134 9:0.64251061 10:3.1012209 
0.1360193842570965 1:6167 2:143.02051 3:55.856431 4:0.9205824 5:6301 6:88.611897 7:0.66219263 8:330.948 9:0.70756166 10:2.5605022 
0.13613497210405931 1:5990 2:157.90268 3:48.691301 4:0.95126885 5:6105 6:87.331008 7:0.52654712 8:341.278 9:0.64627908 10:3.2429341 
0.13000477876756161 1:5610 2:144.06664 3:50.569962 4:0.93636876 5:5777 6:84.515524 7:0.70054945 8:327.895 9:0.65569691 10:2.8488579 
0.13596778451192323 1:6223 2:159.66921 3:51.173014 4:0.94725057 5:6403 6:89.013312 7:0.54949227 8:355.121 9:0.62009318 10:3.1201838 
0.13624552579539972 1:6658 2:152.63881 3:56.821283 4:0.9281286 5:6845 6:92.071868 7:0.6714401 8:356.154 9:0.65959598 10:2.6862965 
0.13643223859229986 1:6912 2:174.35044 3:51.040833 4:0.95618947 5:7046 6:93.811682 7:0.43852303 8:376.347 9:0.61324876 10:3.4159011 
0.1348040104387101 1:6891 2:163.76816 3:54.152395 4:0.94374821 5:7032 6:93.669065 7:0.51264693 8:362.832 9:0.65778043 10:3.024209 
0.12906421960717085 1:6086 2:149.36324 3:53.377451 4:0.93396415 5:6241 6:88.02804 7:0.78025641 8:337.654 9:0.67080766 10:2.798246 
0.1362136743836368 1:5146 2:135.18189 3:49.264276 4:0.93123096 5:5324 6:80.944986 7:0.52360602 8:313.657 9:0.65730915 10:2.7440145 
0.13621732071448472 1:4581 2:106.5972 3:55.874881 4:0.85161466 5:4685 6:76.372183 7:0.56562539 8:266.221 9:0.81224217 10:1.907784 
0.13622122697075587 1:5353 2:138.89976 3:49.971635 4:0.93304194 5:5512 6:82.556958 7:0.5222439 8:313.871 9:0.68281763 10:2.7795721 
0.1357531702867841 1:5265 2:144.75768 3:47.065077 4:0.9456693 5:5391 6:81.875553 7:0.77244718 8:319.443 9:0.64836787 10:3.0756919 
0.13609587349585589 1:5363 2:141.45071 3:48.853794 4:0.9384641 5:5482 6:82.634035 7:0.77165468 8:318.74 9:0.66335274 10:2.8953884 
0.13589876259274258 1:6378 2:164.62574 3:50.668981 4:0.95145663 5:6632 6:90.115048 7:0.52086566 8:366.667 9:0.59614338 10:3.2490438 
0.1320723586818445 1:6315 2:160.9278 3:51.131645 4:0.94818112 5:6499 6:89.668878 7:0.45415318 8:356.103 9:0.62579481 10:3.1473229 
0.13176216514968003 1:6488 2:156.49297 3:53.574284 4:0.93957502 5:6644 6:90.888823 7:0.78528201 8:349.05 9:0.6691838 10:2.9210464 
0.13608176028746855 1:6486 2:161.49216 3:51.679653 4:0.94741302 5:6641 6:90.874813 7:0.64230541 8:357.171 9:0.63890227 10:3.1248693 
0.13318601413926279 1:5221 2:138.16571 3:48.743852 4:0.93570152 5:5306 6:81.532715 7:0.84074074 8:308.807 9:0.68800134 10:2.834526 
0.13571102695261988 1:5759 2:148.26406 3:50.734748 4:0.93963012 5:5957 6:85.630523 7:0.67089935 8:335.975 9:0.64112545 10:2.9223375 
0.13621886647937737 1:7388 2:178.1897 3:53.574369 4:0.95373165 5:7518 6:96.988111 7:0.45902454 8:385.603 9:0.62439001 10:3.3260251 
0.13576834420523146 1:6066 2:157.78679 3:50.031184 4:0.94839848 5:6259 6:87.883281 7:0.58220559 8:348.215 9:0.62866216 10:3.1537688 
0.13366764627663918 1:5548 2:147.10139 3:48.86542 4:0.94321295 5:5710 6:84.047207 7:0.8254724 8:331.484 9:0.63448473 10:3.0103372 
0.12945775260376291 1:6180 2:150.02543 3:53.406483 4:0.93449248 5:6362 6:88.705244 7:0.79762519 8:339.415 9:0.67411855 10:2.809124 
0.13587880904050487 1:5597 2:146.22342 3:49.994883 4:0.93973361 5:5747 6:84.417544 7:0.56707194 8:330.964 9:0.64210146 10:2.9247677 
0.13624368070175275 1:4729 2:135.18278 3:45.442919 4:0.94180522 5:4848 6:77.596068 7:0.5185307 8:299.133 9:0.66412606 10:2.9747821 
0.13371658013237142 1:5490 2:143.4781 3:49.561869 4:0.93844393 5:5633 6:83.606729 7:0.65827338 8:323.967 9:0.65732577 10:2.8949291 
0.13669845456250979 1:4869 2:141.56646 3:44.410403 4:0.9495198 5:5000 6:78.73629 7:0.7506938 8:309.32 9:0.63948982 10:3.1876869 
0.13620862633259861 1:6135 2:155.48388 3:51.174818 4:0.9442837 5:6306 6:88.381698 7:0.50369458 8:344.413 9:0.64992817 10:3.0382889 
0.13621884502545561 1:7056 2:170.24385 3:53.683278 4:0.94898153 5:7258 6:94.78385 7:0.45393721 8:380.815 9:0.61142099 10:3.1712641 
0.1361822236983605 1:5497 2:143.50042 3:49.603934 4:0.93835578 5:5638 6:83.660013 7:0.49809714 8:319.537 9:0.67653971 10:2.8929242 
0.13619952936497326 1:5632 2:149.81109 3:48.435255 4:0.94629349 5:5765 6:84.681079 7:0.45706866 8:331.266 9:0.64493921 10:3.0930174 
0.1362354765049299 1:5926 2:142.24647 3:53.42213 4:0.92679795 5:6061 6:86.863212 7:0.70196636 8:320.063 9:0.72694335 10:2.662688 
0.13627802503704983 1:3638 2:103.75279 3:45.261657 4:0.89982784 5:3723 6:68.059132 7:0.55995075 8:242.294 9:0.7787306 10:2.2922889 
0.13620189045037406 1:5118 2:129.74539 3:50.756464 4:0.92030547 5:5301 6:80.72447 7:0.5538961 8:311.076 9:0.6646257 10:2.5562338 
0.13620085971403018 1:5264 2:141.09228 3:48.152264 4:0.93996094 5:5398 6:81.867777 7:0.5054734 8:314.095 9:0.67050759 10:2.9301278 
0.13608881543076864 1:6396 2:152.21053 3:54.803443 4:0.9329329 5:6540 6:90.242119 7:0.78440029 8:343.956 9:0.67937966 10:2.7773899 
0.13618581898284882 1:5055 2:142.09078 3:46.331841 4:0.94534489 5:5205 6:80.226092 7:0.57157395 8:313.307 9:0.64712895 10:3.0668062 
0.13604224326395814 1:6850 2:162.39629 3:54.491058 4:0.94202462 5:7040 6:93.389993 7:0.52067498 8:370.414 9:0.62737275 10:2.9802373 
0.13618978945592519 1:6669 2:157.58682 3:54.730511 4:0.93775265 5:6835 6:92.147895 7:0.49646393 8:354.43 9:0.66712871 10:2.8793231 
0.13624057847605625 1:5007 2:129.94851 3:49.982471 4:0.92306964 5:5201 6:79.844288 7:0.71122159 8:312.662 9:0.64363144 10:2.5998818 
0.12425046579663411 1:6613 2:165.19555 3:52.042574 4:0.94907967 5:6807 6:91.760193 7:0.5970567 8:364.648 9:0.62497222 10:3.1742387 
0.13624144155500137 1:4755 2:128.91139 3:48.029022 4:0.92800251 5:4874 6:77.809087 7:0.57790472 8:292.88 9:0.69659596 10:2.684031 
0.13625114293597296 1:5185 2:135.69555 3:49.574537 4:0.93087552 5:5382 6:81.251136 7:0.46146315 8:314.545 9:0.65855652 10:2.7372025 
0.13646413757111509 1:5437 2:141.01123 3:49.747085 4:0.93570324 5:5530 6:83.202184 7:0.49436261 8:317.009 9:0.67987021 10:2.8345627 
0.12991475688634499 1:6083 2:145.71701 3:53.894737 4:0.92908793 5:6243 6:88.006342 7:0.49991782 8:339.727 9:0.66231952 10:2.7037336 
0.13597223976217465 1:5939 2:157.78759 3:48.792287 4:0.95098804 5:6069 6:86.958436 7:0.82053053 8:344.865 9:0.62751621 10:3.2338634 
0.13623865824037987 1:4662 2:121.99666 3:50.154512 4:0.91158403 5:4794 6:77.044421 7:0.61213235 8:282.244 9:0.73541536 10:2.4324165 
0.13621549112166242 1:6075 2:149.54025 3:52.755079 4:0.93570562 5:6237 6:87.948452 7:0.49031477 8:335.245 9:0.67925294 10:2.8346134 
0.13619718769187925 1:5272 2:139.86649 3:48.915949 4:0.93684936 5:5409 6:81.929963 7:0.483315 8:313.742 9:0.67303856 10:2.8593229 
0.13623158366290705 1:7410 2:175.04941 3:54.877484 4:0.94958916 5:7581 6:97.13241 7:0.49367089 8:386.582 9:0.62308144 10:3.1898221 
0.13622895077557881 1:5501 2:150.14968 3:47.55311 4:0.94852419 5:5606 6:83.690446 7:0.83159486 8:326.348 9:0.6490671 10:3.1575155 
0.13625140025378069 1:7186 2:166.37222 3:55.645714 4:0.94240811 5:7358 6:95.653015 7:0.73476483 8:369.444 9:0.66160662 10:2.9898478 
0.13626986477593728 1:6724 2:153.76623 3:56.240557 4:0.9307117 5:6868 6:92.527092 7:0.73776607 8:344.336 9:0.71264412 10:2.7340808 
0.13626755370829485 1:5568 2:139.64755 3:52.148561 4:0.92765843 5:5703 6:84.198562 7:0.71302343 8:317.938 9:0.69218824 10:2.6778792 
0.13623709909069889 1:5332 2:140.25096 3:49.37895 4:0.93597154 5:5471 6:82.394862 7:0.54810855 8:315.731 9:0.672149 10:2.8402986 
0.13619735547812223 1:5189 2:138.05596 3:49.514738 4:0.93346941 5:5357 6:81.28247 7:0.55735768 8:315.251 9:0.65611594 10:2.788179 
0.13618620043390123 1:6702 2:156.52696 3:55.67925 4:0.93459384 5:6910 6:92.3756 7:0.63828571 8:356.486 9:0.66271886 10:2.8112261 
0.13374324862021841 1:6299 2:156.85337 3:52.138469 4:0.94313759 5:6440 6:89.555211 7:0.46843162 8:351.29 9:0.64143093 10:3.0084 
0.13581916782064413 1:6253 2:145.68344 3:55.679251 4:0.92408235 5:6394 6:89.227613 7:0.61400236 8:329.624 9:0.7232037 10:2.6164763 
0.13619961969839756 1:6915 2:155.50622 3:57.832131 4:0.92827443 5:7108 6:93.832039 7:0.77418271 8:354.434 9:0.69172153 10:2.6889243 
0.13503689716192407 1:5601 2:157.06777 3:45.72567 4:0.95668635 5:5744 6:84.447704 7:0.48548149 8:337.391 9:0.6183131 10:3.435002 
0.13622646759599949 1:6814 2:158.39319 3:55.946027 4:0.93554414 5:7030 6:93.144266 7:0.58599931 8:367.105 9:0.63537686 10:2.8311785 
0.13622703653440177 1:6414 2:151.29886 3:54.965073 4:0.93167686 5:6570 6:90.369013 7:0.51001908 8:341.033 9:0.69302038 10:2.7526365 
0.13617542197792343 1:6076 2:167.15413 3:47.288575 4:0.95914822 5:6206 6:87.95569 7:0.83347051 8:359.693 9:0.59015169 10:3.5347677 
0.13561283158559176 1:6154 2:150.73876 3:52.695785 4:0.93690521 5:6288 6:88.518451 7:0.50475722 8:336.882 9:0.68141508 10:2.8605468 
0.13409026567725874 1:6285 2:155.73277 3:51.764776 4:0.94314031 5:6407 6:89.455634 7:0.55634239 8:344.387 9:0.66591937 10:3.0084698 
0.13615905574252474 1:5952 2:145.48541 3:52.741953 4:0.93197443 5:6047 6:87.053557 7:0.50096793 8:326.869 9:0.70004397 10:2.758438 
0.1362606442661356 1:5530 2:148.56596 3:49.077271 4:0.94386202 5:5743 6:83.910754 7:0.77832512 8:329.813 9:0.63885082 10:3.0271845 
0.13626964605235298 1:5347 2:135.96875 3:50.867576 4:0.92738342 5:5521 6:82.510677 7:0.75951705 8:311.181 9:0.69389523 10:2.6729944 
0.13611846682162967 1:6433 2:159.44719 3:52.195079 4:0.94490307 5:6545 6:90.502762 7:0.51708062 8:350.326 9:0.65868637 10:3.0548319 
0.136208587468754 1:5619 2:134.66621 3:54.663572 4:0.91390906 5:5761 6:84.58329 7:0.51343202 8:313.296 9:0.71938139 10:2.4635457 
0.13574647194505532 1:6224 2:152.22672 3:52.413109 4:0.9388562 5:6346 6:89.020464 7:0.48315479 8:339.141 9:0.68001557 10:2.9043635 
0.13590728497986049 1:6705 2:163.98012 3:53.247876 4:0.94580967 5:6874 6:92.396272 7:0.70460277 8:364.002 9:0.63591798 10:3.0795617 
0.13585287435133997 1:4913 2:129.54394 3:49.355214 4:0.9245783 5:5042 6:79.09125 7:0.64449692 8:294.492 9:0.71188464 10:2.6247265 
0.13624771515431189 1:6548 2:148.85139 3:57.533738 4:0.92228188 5:6728 6:91.308119 7:0.70705107 8:344.643 9:0.69275491 10:2.5872019 
0.13623728130682894 1:6162 2:165.80037 3:48.250015 4:0.95671919 5:6339 6:88.575968 7:0.71360741 8:355.699 9:0.61202092 10:3.436276 
0.13618998417596073 1:6362 2:157.94699 3:52.566799 4:0.94299287 5:6608 6:90.001944 7:0.49298721 8:356.505 9:0.62903133 10:3.004691 
0.11937805297069599 1:6453 2:158.25115 3:53.061022 4:0.94211273 5:6639 6:90.643338 7:0.78047895 8:353.193 9:0.65005088 10:2.9824368 
0.12432569426605512 1:4660 2:137.46188 3:43.749001 4:0.94800253 5:4754 6:77.027893 7:0.50204697 8:300.152 9:0.64999991 10:3.1420575 
0.12139297112305369 1:6572 2:160.97837 3:53.03397 4:0.94417379 5:6724 6:91.475299 7:0.63283582 8:356.907 9:0.64833175 10:3.0353823 
0.12481238433597333 1:6265 2:158.83794 3:51.306171 4:0.9463957 5:6468 6:89.313189 7:0.52913851 8:354.245 9:0.62736962 10:3.0958836 
0.13623701229088386 1:5463 2:130.96437 3:54.286664 4:0.9100426 5:5629 6:83.400885 7:0.59868493 8:306.634 9:0.73013043 10:2.4124594 
0.13626945347233971 1:6801 2:168.0085 3:52.60684 4:0.94971353 5:7089 6:93.055371 7:0.55929276 8:384.596 9:0.57779411 10:3.1936626 
0.13644222070641207 1:6512 2:168.03569 3:50.394644 4:0.95396926 5:6702 6:91.056773 7:0.42528736 8:372.918 9:0.58843374 10:3.3343959 
0.13575697859457847 1:6184 2:154.68365 3:53.04052 4:0.9393731 5:6472 6:88.733947 7:0.49173028 8:348.11 9:0.64127801 10:2.9163299 
0.13624340289321055 1:5740 2:149.63822 3:49.436121 4:0.94385117 5:5854 6:85.489151 7:0.52631579 8:327.169 9:0.67387208 10:3.0269006 
0.13639460548442431 1:4915 2:141.08739 3:45.215048 4:0.94725682 5:5063 6:79.107347 7:0.59102934 8:308.138 9:0.65049336 10:3.1203636 
0.13560560221973925 1:6778 2:163.1984 3:53.582707 4:0.94456356 5:6927 6:92.897888 7:0.6745621 8:362.712 9:0.64742219 10:3.045729 
0.13634720205649564 1:5252 2:140.49243 3:48.870388 4:0.93754995 5:5404 6:81.77441 7:0.4862963 8:312.98 9:0.67375408 10:2.8747968 
0.13615967660315753 1:6869 2:156.35399 3:57.079158 4:0.93098256 5:7161 6:93.519423 7:0.52018175 8:358.903 9:0.67011479 10:2.7392483 
0.13576002990794295 1:4990 2:150.40411 3:42.920409 4:0.95841824 5:5079 6:79.708628 7:0.42003367 8:325.364 9:0.59234048 10:3.5042563 
0.13620295472428423 1:5888 2:156.14319 3:48.940441 4:0.94961029 5:6093 6:86.584262 7:0.50833118 8:347.497 9:0.61273903 10:3.1904736 
0.13532671268178692 1:5984 2:154.36982 3:49.613004 4:0.94694672 5:6147 6:87.287258 7:0.46219201 8:342.811 9:0.6398703 10:3.1114789 
0.097435452530993852 1:5910 2:147.73238 3:52.172505 4:0.93556464 5:6065 6:86.745869 7:0.50127226 8:330.777 9:0.6787764 10:2.8316138 
0.13599962470539645 1:5076 2:136.3924 3:47.847992 4:0.93644618 5:5193 6:80.392561 7:0.63465866 8:306.459 9:0.67918286 10:2.8505354 
0.13611849548255972 1:6096 2:144.19609 3:54.740038 4:0.9251416 5:6248 6:88.100331 7:0.79874214 8:330.583 9:0.70096089 10:2.6341978 
0.13614468577251235 1:6760 2:164.27694 3:54.31835 4:0.94375307 5:7037 6:92.774454 7:0.60185185 8:365.442 9:0.63609157 10:3.0243359 
0.13519847107992994 1:5576 2:141.45098 3:51.037791 4:0.93263698 5:5711 6:84.259027 7:0.55899749 8:318.882 9:0.68908472 10:2.7714949 
0.13624718526357224 1:6961 2:152.00896 3:59.502958 4:0.92020203 5:7133 6:94.143616 7:0.74849462 8:349.555 9:0.71589686 10:2.5546454 
0.13370668586651455 1:6198 2:145.43815 3:55.423778 4:0.92454148 5:6374 6:88.834333 7:0.82256138 8:335.636 9:0.69139202 10:2.6241111 
0.13559755647347463 1:6004 2:146.60291 3:52.904444 4:0.93261652 5:6182 6:87.433004 7:0.68072562 8:330.418 9:0.69107177 10:2.7710888 
0.13623064792684414 1:6792 2:157.87078 3:55.641927 4:0.93582976 5:6981 6:92.993779 7:0.73032258 8:359.396 9:0.66078635 10:2.837263 
0.13620220230599439 1:4262 2:120.66304 3:45.784538 4:0.92521582 5:4370 6:73.6651 7:0.68301282 8:277.076 9:0.69763055 10:2.6354538 
0.13655014135091398 1:6273 2:148.49835 3:54.773427 4:0.92948944 5:6384 6:89.370194 7:0.50507246 8:336.767 9:0.69506608 10:2.7111385 
0.13467057560606988 1:5956 2:143.30602 3:53.638854 4:0.92730933 5:6092 6:87.082804 7:0.67528345 8:328.053 9:0.695467 10:2.6716832 
0.13619283975573721 1:6502 2:164.92041 3:51.103129 4:0.95078043 5:6671 6:90.986832 7:0.47591861 8:359.375 9:0.63264649 10:3.2272077 
0.13610004991670571 1:5856 2:143.25443 3:53.025298 4:0.92897292 5:6028 6:86.348658 7:0.62859596 8:326.076 9:0.69210703 10:2.7016243 
0.13621739555300688 1:5424 2:132.77221 3:53.228168 4:0.91612251 5:5569 6:83.102655 7:0.59683099 8:307.502 9:0.72083133 10:2.4943975 
0.13658755304511205 1:5985 2:147.96165 3:52.209874 4:0.93567581 5:6155 6:87.294551 7:0.58676471 8:332.387 9:0.68074735 10:2.8339783 
0.1362752210900442 1:5399 2:139.65593 3:50.726505 4:0.93170151 5:5609 6:82.910918 7:0.58947483 8:316.838 9:0.67584743 10:2.7531155 
0.1355503132370813 1:5962 2:144.13085 3:53.641803 4:0.92816285 5:6142 6:87.126656 7:0.62612896 8:326.887 9:0.70114289 10:2.6869129 
0.11399957568121449 1:6445 2:155.48323 3:53.399451 4:0.93917394 5:6574 6:90.587134 7:0.48422239 8:348.402 9:0.66722377 10:2.911701 
0.13621189480942361 1:5891 2:152.02616 3:50.286356 4:0.94370987 5:6055 6:86.606317 7:0.51948854 8:338.996 9:0.64418371 10:3.023209 
0.13622543195572992 1:4902 2:134.81948 3:46.838842 4:0.93771001 5:5033 6:79.00266 7:0.57575758 8:303.284 9:0.66970597 10:2.8783691 
0.13616151728845005 1:7002 2:183.14233 3:49.560545 4:0.96268845 5:7196 6:94.42046 7:0.46917716 8:391.884 9:0.57295024 10:3.6953252 
0.13580162782425487 1:5916 2:150.52015 3:51.161962 4:0.94046119 5:6091 6:86.789891 7:0.52925389 8:339.177 9:0.64622721 10:2.9420324 
0.13621764115976687 1:5241 2:139.96667 3:48.211409 4:0.93880495 5:5338 6:81.688729 7:0.47994505 8:312.725 9:0.67343986 10:2.9031856 
0.13605460027989369 1:6816 2:170.42038 3:51.610567 4:0.95304056 5:6956 6:93.157934 7:0.43331214 8:370.801 9:0.6229564 10:3.3020444 
0.13613338230968883 1:5068 2:124.23488 3:52.9986 4:0.9044404 5:5159 6:80.329185 7:0.53324916 8:288.12 9:0.76718421 10:2.3441163 
0.13579066219958658 1:6373 2:157.07862 3:53.076755 4:0.94118227 5:6477 6:90.079718 7:0.81705128 8:351.531 9:0.64807687 10:2.9594617 
0.13616541583585012 1:5021 2:138.63038 3:47.509495 4:0.93944263 5:5112 6:79.955836 7:0.80853462 8:308.055 9:0.66488045 10:2.9179511 
0.12760073433612723 1:6021 2:146.07521 3:54.134942 4:0.92879402 5:6177 6:87.556698 7:0.60573441 8:333.04 9:0.68215913 10:2.6983534 
0.12172142622262282 1:5193 2:141.9325 3:46.93393 4:0.9437437 5:5309 6:81.313793 7:0.60552705 8:312.811 9:0.66690528 10:3.0240915 
0.13616949741598455 1:5752 2:143.97748 3:51.453873 4:0.93396119 5:5903 6:85.578466 7:0.50567033 8:331.985 9:0.65583081 10:2.7981854 
0.13591610087230921 1:6651 2:164.34812 3:52.819677 4:0.94694726 5:6884 6:92.023455 7:0.51141869 8:364.236 9:0.62998626 10:3.1114943 
0.10461686573801066 1:6234 2:160.43501 3:50.636911 4:0.94888482 5:6373 6:89.091949 7:0.82199367 8:354.723 9:0.62258401 10:3.1683412 
0.13421641027289336 1:6039 2:152.14648 3:51.583949 4:0.94077147 5:6208 6:87.687477 7:0.51483376 8:340.162 9:0.65584815 10:2.9494927 
0.13585619698272181 1:4646 2:144.63315 3:41.145359 4:0.95868173 5:4747 6:76.912099 7:0.64153549 8:313.596 9:0.59367402 10:3.5151754 
0.13624057063523159 1:5155 2:142.52719 3:47.463373 4:0.94292232 5:5290 6:81.015738 7:0.458834 8:317.4 9:0.64302031 10:3.002888 
0.13624616227407521 1:6147 2:151.39269 3:52.711661 4:0.9374283 5:6335 6:88.468093 7:0.49389362 8:353.521 9:0.61807709 10:2.8720911 
0.13613061584349317 1:5848 2:149.46194 3:51.675695 4:0.93832857 5:6121 6:86.289657 7:0.53484544 8:339.268 9:0.63845667 10:2.8923064 
0.12734641104536232 1:6946 2:156.54768 3:57.951076 4:0.9289594 5:7141 6:94.042128 7:0.4874386 8:361.503 9:0.66791444 10:2.7013767 
0.1362556758019545 1:5623 2:150.91825 3:48.263569 4:0.94748527 5:5766 6:84.613391 7:0.79758865 8:333.526 9:0.6352118 10:3.1269601 
0.13477519473819255 1:5299 2:136.03824 3:51.123378 4:0.92670018 5:5463 6:82.139493 7:0.49477124 8:310.965 9:0.68862179 10:2.6609791 
0.13482640823165234 1:6571 2:157.95322 3:53.999275 4:0.9397477 5:6718 6:91.468339 7:0.47605593 8:354.787 9:0.65600317 10:2.925099 
0.1319315101310351 1:6668 2:168.02975 3:51.006316 4:0.95281383 5:6828 6:92.140986 7:0.46629371 8:366.91 9:0.62242404 10:3.294293 
0.091224715017866581 1:6253 2:157.96709 3:51.166257 4:0.94608977 5:6417 6:89.227613 7:0.54166667 8:349.944 9:0.64165442 10:3.0873294 
0.1358375165096613 1:5587 2:163.17594 3:44.33815 4:0.96237638 5:5800 6:84.342097 7:0.53209524 8:345.892 9:0.5868235 10:3.6802604 
0.13601582955802877 1:6220 2:154.99177 3:52.434869 4:0.94103564 5:6412 6:88.991853 7:0.587624 8:348.951 9:0.64190588 10:2.9558913 
0.1350212079847391 1:5973 2:149.0102 3:52.040534 4:0.93703278 5:6099 6:87.206994 7:0.83538462 8:328.523 9:0.69545786 10:2.8633488 
0.13620617521837444 1:4914 2:142.81726 3:44.099919 4:0.95113166 5:5015 6:79.099299 7:0.44318182 8:310.096 9:0.64217396 10:3.2384926 
0.1359860001105766 1:6073 2:154.45846 3:51.19002 4:0.9434847 5:6299 6:87.933974 7:0.75384806 8:348.885 9:0.62697258 10:3.0173549 
0.13575262709005026 1:5957 2:147.62621 3:52.261236 4:0.93524143 5:6097 6:87.090114 7:0.76460018 8:332.179 9:0.67841137 10:2.8247746 
0.13628885931398382 1:6970 2:158.71437 3:56.556177 4:0.9343566 5:7168 6:94.204457 7:0.51167229 8:364.396 9:0.65962247 10:2.8063137 
0.13512636993696855 1:5209 2:135.31626 3:50.123512 4:0.92886536 5:5371 6:81.438964 7:0.55314856 8:310.331 9:0.67969473 10:2.6996563 
0.13452635096781765 1:6227 2:159.95924 3:50.750706 4:0.94833433 5:6372 6:89.041915 7:0.45399533 8:352.805 9:0.62866498 10:3.1518624 
0.13587864355508175 1:7345 2:178.06396 3:53.480703 4:0.95383049 5:7584 6:96.705452 7:0.49672009 8:389.593 9:0.60810612 10:3.3294992 
0.13597459984630808 1:4437 2:129.11981 3:44.359722 4:0.93913266 5:4541 6:75.16225 7:0.75523404 8:286.61 9:0.67876058 10:2.9107444 
0.13619686229377628 1:4275 2:108.60189 3:51.525273 4:0.88028689 5:4388 6:73.777361 7:0.76833214 8:263.752 9:0.77224385 10:2.1077402 
0.13608881529514583 1:6621 2:153.8412 3:55.413283 4:0.9328759 5:6772 6:91.81568 7:0.57533889 8:347.141 9:0.69043314 10:2.7762513 
0.13621791738221098 1:6424 2:157.79273 3:53.222315 4:0.94139987 5:6666 6:90.439432 7:0.46299099 8:359.079 9:0.626088 10:2.9647852 
0.13621559856501525 1:7162 2:161.0012 3:57.674463 4:0.93363574 5:7422 6:95.49315 7:0.65079509 8:368.46 9:0.66292361 10:2.7915509 
0.12072730380709872 1:5837 2:153.42251 3:49.019136 4:0.94758486 5:5983 6:86.208464 7:0.81704927 8:337.413 9:0.64428191 10:3.1298494 
0.13448969543639552 1:6148 2:156.37677 3:50.975646 4:0.94537678 5:6320 6:88.475289 7:0.50625823 8:346.671 9:0.64284859 10:3.067676 
0.13627275909969169 1:5457 2:140.29585 3:50.07763 4:0.93412614 5:5590 6:83.355073 7:0.61259542 8:321.396 9:0.66386975 10:2.8015673 
0.13626577617359625 1:6240 2:156.88217 3:51.436479 4:0.94472391 5:6453 6:89.134812 7:0.63157895 8:354.344 9:0.62451703 10:3.0500178 
0.13615923094405508 1:5626 2:139.61161 3:52.252184 4:0.9273205 5:5787 6:84.63596 7:0.53842473 8:320.57 9:0.68796103 10:2.6718808 
0.13596925508350727 1:5964 2:144.27231 3:53.308944 4:0.92922984 5:6095 6:87.141268 7:0.73088235 8:322.784 9:0.71932226 10:2.7063435 
0.13622624251633864 1:7420 2:170.55524 3:56.821765 4:0.94287118 5:7698 6:97.197929 7:0.53979339 8:390.345 9:0.61195083 10:3.001583 
0.13397479004760493 1:6014 2:148.01785 3:52.518008 4:0.93493895 5:6167 6:87.505786 7:0.7525025 8:334.619 9:0.67495076 10:2.8184208 
0.13521970977178555 1:5561 2:144.04428 3:49.631196 4:0.93876609 5:5691 6:84.145618 7:0.51135632 8:318.753 9:0.68778737 10:2.9022932 
0.13057483501963979 1:5611 2:142.98252 3:51.289718 4:0.93344782 5:5781 6:84.523057 7:0.47016926 8:324.354 9:0.6702111 10:2.7877423 
0.13552435173279931 1:5153 2:138.24437 3:47.891919 4:0.93807603 5:5264 6:81.000021 7:0.64981084 8:307.195 9:0.68618579 10:2.8865907 
