svm_type one_class
kernel_type rbf
gamma 0.10000000000000001
nr_class 2
total_sv 6458
rho 0.28306887958395222
SV
0.28299841321810887 1:9380 2:159.47795 3:76.01002 4:0.87911065 5:9846 6:109.28397 7:0.60128205 8:395.888 9:0.7520869 10:2.0981175 
0.27993860660245856 1:8579 2:157.22908 3:70.088698 4:0.89514535 5:8809 6:104.51374 7:0.56709413 8:371.783 9:0.77995128 10:2.2432872 
0.28344197633499946 1:7660 2:148.86703 3:66.429816 4:0.89491537 5:7872 6:98.757354 7:0.78952793 8:353.847 9:0.76878977 10:2.2409671 
0.2753260112018952 1:7602 2:149.02372 3:65.697953 4:0.897578 5:7825 6:98.382758 7:0.58052692 8:353.099 9:0.7662046 10:2.268316 
0.27883496090648924 1:9159 2:159.14186 3:74.123815 4:0.88490479 5:9401 6:107.98889 7:0.59858833 8:382.506 9:0.78664977 10:2.1469734 
0.27993180016252511 1:9576 2:166.99155 3:73.838563 4:0.89693153 5:9823 6:110.41984 7:0.58036364 8:397.699 9:0.7608254 10:2.2615764 
0.28285377827688518 1:9168 2:158.51492 3:74.383355 4:0.88306459 5:9384 6:108.04194 7:0.59420572 8:381.441 9:0.79182594 10:2.1310536 
0.28337238999620151 1:7329 2:142.52877 3:66.369733 4:0.88496451 5:7519 6:96.600065 7:0.5934413 8:343.413 9:0.78094621 10:2.1474966 
0.28287113157119087 1:5902 2:136.01857 3:56.002644 4:0.91130681 5:6033 6:86.687137 7:0.5591133 8:313.898 9:0.75271743 10:2.4287883 
0.28293999272336839 1:5545 2:103.74087 3:70.409704 4:0.7344087 5:5658 6:84.02448 7:0.64089228 8:283.024 9:0.8698911 10:1.4733888 
0.2769494527364782 1:9245 2:167.5467 3:71.088338 4:0.90552651 5:9530 6:108.4947 7:0.57308455 8:394.243 9:0.74746145 10:2.3568803 
0.2827749369103596 1:8029 2:148.79319 3:69.89387 4:0.88280568 5:8265 6:101.10806 7:0.6189485 8:359.291 9:0.78158937 10:2.1288446 
0.28281464535774525 1:9294 2:166.5947 3:72.509901 4:0.90031092 5:9692 6:108.78184 7:0.58592863 8:399.162 9:0.73301718 10:2.2975442 
0.28207674845275565 1:8911 2:159.64113 3:71.645037 4:0.89363821 5:9053 6:106.51684 7:0.74184149 8:377.145 9:0.78726256 10:2.2282232 
0.25777440672878005 1:9068 2:162.42828 3:72.305301 4:0.89545493 5:9295 6:107.45109 7:0.80461402 8:385.538 9:0.76663209 10:2.2464228 
0.28280280471759034 1:6417 2:121.45284 3:68.512046 4:0.82570367 5:6544 6:90.390144 7:0.6119588 8:309.06 9:0.84422129 10:1.7727224 
0.28289369124669234 1:7187 2:141.86502 3:65.876487 4:0.88564636 5:7302 6:95.659671 7:0.73864337 8:338.961 9:0.78606425 10:2.1535 
0.23470495647078074 1:9181 2:157.93495 3:75.007335 4:0.88002601 5:9431 6:108.11851 7:0.70595925 8:382.545 9:0.78837854 10:2.1055935 
0.28329149725492964 1:9524 2:169.39892 3:72.055756 4:0.90502359 5:9684 6:110.11963 7:0.82961672 8:392.758 9:0.77585251 10:2.3509422 
0.28060617582783803 1:9239 2:167.29148 3:71.207733 4:0.90488756 5:9440 6:108.45949 7:0.56500734 8:396.582 9:0.73819115 10:2.3493443 
0.27538799538260889 1:8092 2:154.48956 3:67.439519 4:0.8996891 5:8294 6:101.50396 7:0.6828692 8:368.279 9:0.74974198 10:2.2907868 
0.21832569157036522 1:7981 2:151.10193 3:68.486714 4:0.89138423 5:8234 6:100.80538 7:0.57375988 8:362.661 9:0.76254498 10:2.2062955 
0.28290353493329151 1:8809 2:148.86109 3:75.783619 4:0.86071359 5:9048 6:105.90546 7:0.62017741 8:389.561 9:0.72943321 10:1.9642912 
0.28319006548527165 1:9908 2:154.6124 3:82.186569 4:0.84701738 5:10132 6:112.31766 7:0.71984888 8:389.062 9:0.82254228 10:1.8812368 
0.28314473128218154 1:8530 2:153.41254 3:72.042826 4:0.88287826 5:8802 6:104.21484 7:0.60646996 8:370.308 9:0.78168667 10:2.1294632 
0.28004418414037524 1:8109 2:155.01621 3:67.880097 4:0.8990284 5:8339 6:101.61053 7:0.59354414 8:365.518 9:0.76271033 10:2.2836769 
0.2833533353033949 1:7853 2:139.82937 3:73.549529 4:0.85048775 5:7994 6:99.993751 7:0.70500045 8:348.382 9:0.81308144 10:1.9011593 
0.23672359787392563 1:6741 2:134.64017 3:64.897491 4:0.87616742 5:6860 6:92.643984 7:0.69956413 8:329.542 9:0.7800324 10:2.0746591 
0.27797376375954519 1:7062 2:138.74665 3:65.380319 4:0.88201523 5:7185 6:94.824141 7:0.74180672 8:332.197 9:0.80416685 10:2.122147 
0.24244331346137607 1:8911 2:155.91079 3:73.500782 4:0.88190432 5:9114 6:106.51684 7:0.66899399 8:374.54 9:0.79825178 10:2.1212127 
0.28289569706103446 1:9647 2:162.95997 3:76.046201 4:0.88443905 5:9978 6:110.82843 7:0.6223871 8:427.504 9:0.66331799 10:2.1429074 
0.2819170506244173 1:8652 2:156.02729 3:71.625779 4:0.88840563 5:8968 6:104.95746 7:0.70651641 8:378.352 9:0.75951142 10:2.1783678 
0.2438721776312521 1:8918 2:157.69611 3:73.301869 4:0.8854 5:9206 6:106.55867 7:0.74721408 8:380.758 9:0.77299958 10:2.1513246 
0.28265616792741144 1:6884 2:144.0457 3:61.634941 4:0.90383337 5:7005 6:93.621477 7:0.58597208 8:338.922 9:0.7530975 10:2.3370786 
0.24023869321482685 1:7637 2:144.85052 3:68.18065 4:0.88229512 5:7762 6:98.608977 7:0.58877496 8:347.543 9:0.79453963 10:2.1245106 
0.28331584397386633 1:9165 2:159.18549 3:73.941973 4:0.8855721 5:9358 6:108.02426 7:0.64834465 8:380.884 9:0.79388368 10:2.1528435 
0.27995154279530826 1:9851 2:167.21083 3:75.791153 4:0.89137479 5:10128 6:111.99412 7:0.78650699 8:400.177 9:0.77301146 10:2.2062052 
0.27917245730803819 1:8908 2:157.37783 3:72.559834 4:0.88737157 5:9045 6:106.49891 7:0.59986532 8:374.999 9:0.79603077 10:2.1689387 
0.28301123111020227 1:7306 2:140.94152 3:66.457068 4:0.88185414 5:7413 6:96.44837 7:0.5998358 8:336.567 9:0.81048778 10:2.1207905 
0.27602696529979232 1:7709 2:144.25078 3:68.819788 4:0.87885752 5:7888 6:99.072719 7:0.7990257 8:347.677 9:0.80141227 10:2.0960655 
0.22044908182472947 1:8831 2:159.59988 3:71.132 4:0.89518758 5:9077 6:106.03763 7:0.76083398 8:379.071 9:0.77228683 10:2.2437142 
0.28289640613509126 1:7604 2:139.64991 3:70.225361 4:0.86436367 5:7817 6:98.395699 7:0.61372074 8:344.548 9:0.80491961 10:1.9885965 
0.28329571822782135 1:7772 2:150.3353 3:66.846007 4:0.89570634 5:7967 6:99.47672 7:0.55853396 8:358.444 9:0.76015127 10:2.2489796 
0.28281519919577303 1:7474 2:143.72206 3:67.028272 4:0.88458749 5:7592 6:97.550973 7:0.78008559 8:343.146 9:0.7976366 10:2.1442006 
0.19681417877100188 1:9533 2:165.63487 3:73.962295 4:0.89476457 5:9779 6:110.17165 7:0.62356096 8:394.472 9:0.76985174 10:2.2394501 
0.2829665823241308 1:8558 2:162.96477 3:67.466654 4:0.91027901 5:8699 6:104.38575 7:0.7034358 8:378.559 9:0.75043831 10:2.4154862 
0.24529840735753608 1:6893 2:139.44302 3:64.12696 4:0.88798143 5:7014 6:93.682657 7:0.55768608 8:334.46 9:0.77433657 10:2.1744836 
0.28227345815555505 1:8788 2:156.64308 3:72.27254 4:0.88720078 5:9063 6:105.77915 7:0.63359769 8:377.204 9:0.77615299 10:2.1673941 
0.28250611023037769 1:9743 2:157.09567 3:80.501303 4:0.85872608 5:10078 6:111.37851 7:0.60500497 8:404.91 9:0.74676776 10:1.9514674 
0.28297131155816757 1:8902 2:158.7959 3:71.892296 4:0.89164565 5:9062 6:106.46304 7:0.79767025 8:374.688 9:0.7968157 10:2.2088028 
0.23920977283996603 1:9325 2:162.93346 3:73.87349 4:0.89130884 5:9607 6:108.96311 7:0.6749421 8:393.744 9:0.75584163 10:2.2055742 
0.28324643281651007 1:9385 2:159.50339 3:75.624924 4:0.88045626 5:9554 6:109.3131 7:0.80779824 8:383.48 9:0.80197107 10:2.1091378 
0.28323584223144815 1:9190 2:159.87562 3:74.206023 4:0.88575742 5:9458 6:108.17149 7:0.59540006 8:384.707 9:0.78030645 10:2.154483 
0.24869846866325424 1:9117 2:158.71651 3:73.918708 4:0.88492797 5:9338 6:107.74101 7:0.71730921 8:380.875 9:0.78976318 10:2.1471765 
0.28204830965154176 1:8177 2:151.80056 3:69.448015 4:0.88921213 5:8334 6:102.03568 7:0.58806185 8:363.817 9:0.77631483 10:2.1858156 
0.28286824250763465 1:8849 2:155.2397 3:73.987018 4:0.87912105 5:9210 6:106.14564 7:0.77704601 8:377.963 9:0.77840476 10:2.0982019 
0.2831431779028678 1:9359 2:171.90283 3:69.786247 4:0.91388937 5:9560 6:109.16157 7:0.79112426 8:405.824 9:0.71410793 10:2.4632767 
0.26514775495539 1:9663 2:161.24405 3:77.048798 4:0.87844709 5:9869 6:110.9203 7:0.75966981 8:390.915 9:0.79461576 10:2.0927523 
0.28330224408521471 1:7077 2:138.15487 3:66.518505 4:0.87645827 5:7305 6:94.924793 7:0.61161524 8:336.49 9:0.78544311 10:2.0769388 
0.28291909041112207 1:8078 2:156.15392 3:66.653288 4:0.9043255 5:8229 6:101.41612 7:0.61327057 8:367.453 9:0.7518135 10:2.342779 
0.28113291473168139 1:9131 2:160.70927 3:73.432192 4:0.88950488 5:9437 6:107.8237 7:0.75562728 8:386.977 9:0.76622779 10:2.1885397 
0.25149651764436254 1:9338 2:160.99285 3:75.216604 4:0.88414921 5:9570 6:109.03903 7:0.7994863 8:388.342 9:0.77809927 10:2.1403897 
0.15592041659748895 1:8479 2:157.63727 3:69.51852 4:0.89750559 5:8687 6:103.90283 7:0.62807407 8:372.481 9:0.76797353 10:2.2675579 
0.27708624582200503 1:8875 2:158.63372 3:71.897422 4:0.89139405 5:9044 6:106.30146 7:0.67557281 8:380.114 9:0.77188126 10:2.2063895 
0.28009469705764095 1:8101 2:152.12851 3:68.495377 4:0.89290414 5:8254 6:101.56039 7:0.73968225 8:363.846 9:0.76897689 10:2.2210041 
0.28286780448974425 1:8446 2:149.49868 3:73.047213 4:0.87249982 5:8720 6:103.70044 7:0.78203704 8:365.69 9:0.79366051 10:2.0466035 
0.27478383363261405 1:9180 2:162.86405 3:72.677684 4:0.89490957 5:9368 6:108.11262 7:0.59641372 8:385.459 9:0.77641902 10:2.2409087 
0.21895162496582488 1:8522 2:156.11082 3:70.454306 4:0.89236745 5:8749 6:104.16596 7:0.57294608 8:372.784 9:0.77061395 10:2.215774 
0.28285540711712787 1:8529 2:154.47309 3:70.919164 4:0.88838269 5:8682 6:104.20873 7:0.62360167 8:366.626 9:0.79737287 10:2.1781572 
0.28283081728995002 1:7935 2:151.63504 3:67.355081 4:0.89593159 5:8293 6:100.51446 7:0.55848818 8:364.354 9:0.75112067 10:2.2512784 
0.27956157046207342 1:9334 2:166.69205 3:72.197373 4:0.9013371 5:9565 6:109.01568 7:0.60010287 8:391.81 9:0.76405853 10:2.3088382 
0.28297051806923224 1:10031 2:173.03956 3:74.622211 4:0.90223551 5:10358 6:113.01268 7:0.78214425 8:408.074 9:0.75696578 10:2.3188747 
0.28337001778036264 1:7338 2:141.99225 3:66.836711 4:0.88228971 5:7527 6:96.659359 7:0.66824515 8:342.436 9:0.78637327 10:2.1244649 
0.28314152687817778 1:9003 2:164.67612 3:70.436338 4:0.90390822 5:9278 6:107.06529 7:0.6166016 8:388.046 9:0.75132993 10:2.3379427 
0.28288234058955875 1:8923 2:164.07563 3:70.440845 4:0.90315275 5:9173 6:106.58854 7:0.55408594 8:390.978 9:0.73352702 10:2.3292684 
0.27551871296930713 1:6949 2:141.88583 3:63.130035 4:0.89556264 5:7132 6:94.062435 7:0.57908333 8:337.667 9:0.76586979 10:2.247517 
0.28286050546943398 1:8161 2:147.1793 3:71.300856 4:0.87481954 5:8310 6:101.9358 7:0.60721726 8:355.712 9:0.81050595 10:2.0642011 
0.28291336241040821 1:8216 2:150.38204 3:70.032703 4:0.88494341 5:8344 6:102.27872 7:0.61570743 8:359.524 9:0.79875671 10:2.1473117 
0.28283014611500668 1:5955 2:110.68831 3:70.978597 4:0.76733416 5:6062 6:87.075493 7:0.60827375 8:295.812 9:0.85518496 10:1.5594604 
0.24937761997877589 1:8630 2:157.58521 3:70.431176 4:0.8945638 5:8873 6:104.82393 7:0.56918612 8:374.709 9:0.77238247 10:2.2374354 
0.17132487493328052 1:9367 2:161.17966 3:74.856262 4:0.88561116 5:9620 6:109.20822 7:0.58180124 8:388.926 9:0.77817349 10:2.1531887 
0.28301954547665303 1:6474 2:142.18213 3:58.782098 4:0.91053674 5:6626 6:90.790709 7:0.55409106 8:332.663 9:0.73514593 10:2.4188 
0.19131316119489539 1:9273 2:160.69153 3:74.327054 4:0.88659584 5:9509 6:108.65887 7:0.75722685 8:385.919 9:0.78241614 10:2.1619522 
0.28318723727263051 1:6715 2:133.26384 3:65.319517 4:0.87163707 5:6979 6:92.465148 7:0.59530142 8:334.135 9:0.7558088 10:2.0401842 
0.27520695050738819 1:8252 2:148.27955 3:72.082045 4:0.87389061 5:8473 6:102.50255 7:0.73909539 8:366.029 9:0.77399489 10:2.0570941 
0.24883775565736288 1:8535 2:156.7 3:70.431793 4:0.89329593 5:8777 6:104.24538 7:0.62190324 8:375.384 9:0.76113532 10:2.2248476 
0.2824924982217033 1:10041 2:173.01175 3:74.417777 4:0.90276631 5:10260 6:113.069 7:0.74267751 8:409.175 9:0.75364817 10:2.3248712 
0.22807290006066275 1:7713 2:144.27493 3:69.391046 4:0.87674035 5:7921 6:99.098419 7:0.78848906 8:350.241 9:0.79013123 10:2.0791577 
0.28317454558232558 1:8121 2:154.56919 3:67.5237 4:0.8995339 5:8332 6:101.68568 7:0.68991589 8:364.219 9:0.76929725 10:2.2891102 
0.28280280381935247 1:8899 2:154.42432 3:74.256057 4:0.87679888 5:9092 6:106.4451 7:0.59070694 8:375.263 9:0.79410801 10:2.0796191 
0.28318345183800264 1:8933 2:162.61392 3:70.677521 4:0.90060723 5:9148 6:106.64825 7:0.57714175 8:393.954 9:0.72329618 10:2.300787 
0.28286798438425881 1:8649 2:161.33061 3:68.743282 4:0.90467517 5:8879 6:104.93926 7:0.75550314 8:386.68 9:0.7268961 10:2.3468564 
0.22832876669370269 1:9229 2:160.48947 3:73.974027 4:0.88743774 5:9476 6:108.40077 7:0.62594954 8:385.151 9:0.78181221 10:2.1695381 
0.28304917796179929 1:8619 2:151.19436 3:74.115638 4:0.87160938 5:8866 6:104.75711 7:0.71825 8:369.71 9:0.79239979 10:2.0399793 
0.18998883105660322 1:8957 2:159.23588 3:72.501495 4:0.8903336 5:9207 6:106.79142 7:0.70075106 8:383.694 9:0.76454389 10:2.1963117 
0.28321053483729952 1:9662 2:166.64947 3:74.506442 4:0.89449158 5:9873 6:110.91456 7:0.56354622 8:396.611 9:0.77187573 10:2.2367122 
0.26879276351721859 1:9676 2:163.0267 3:76.294192 4:0.88373595 5:9851 6:110.99489 7:0.79572368 8:390.898 9:0.79575399 10:2.1368166 
0.27236563077046355 1:8721 2:153.67394 3:73.290487 4:0.8789456 5:8969 6:105.37515 7:0.79166667 8:371.454 9:0.79426618 10:2.0967788 
0.27950431806771131 1:6630 2:136.47466 3:62.535361 4:0.88883903 5:6749 6:91.878061 7:0.7921147 8:322.826 9:0.79944094 10:2.1823599 
0.28296803093477352 1:6598 2:137.23751 3:61.912 4:0.89245809 5:6707 6:91.656066 7:0.64940945 8:323.092 9:0.79427294 10:2.2166544 
0.23028298959148874 1:8947 2:161.04787 3:71.440194 4:0.89622685 5:9192 6:106.73179 7:0.57470452 8:383.237 9:0.76551277 10:2.2543034 
0.2831957287594723 1:9259 2:169.82493 3:70.455636 4:0.90987971 5:9469 6:108.57682 7:0.69700391 8:396.464 9:0.74022957 10:2.4103811 
0.27912664936782938 1:8576 2:156.99358 3:70.067695 4:0.89487876 5:8735 6:104.49547 7:0.56990962 8:372.113 9:0.77829627 10:2.2405986 
0.25736886502698597 1:8227 2:152.0223 3:69.701818 4:0.88869579 5:8423 6:102.34716 7:0.60218123 8:363.261 9:0.78345456 10:2.1810378 
0.28264081198948438 1:8633 2:155.35869 3:71.722203 4:0.88705926 5:8892 6:104.84215 7:0.57077686 8:374.057 9:0.77534686 10:2.166117 
0.28341543600811719 1:7394 2:131.77688 3:72.785797 4:0.83361815 5:7558 6:97.027487 7:0.76605885 8:331.732 9:0.84433458 10:1.8104752 
0.26600796180003999 1:9078 2:157.14813 3:74.161625 4:0.88164042 5:9273 6:107.51032 7:0.65512016 8:375.938 9:0.80717479 10:2.1189952 
0.28261325072394289 1:9023 2:162.31575 3:71.223809 4:0.89858578 5:9153 6:107.18414 7:0.82244098 8:378.988 9:0.78942323 10:2.2789535 
0.22925177737063976 1:9565 2:164.1693 3:74.74975 4:0.89032729 5:9696 6:110.35641 7:0.57948625 8:389.986 9:0.79030878 10:2.1962522 
0.26867084876553349 1:8271 2:153.76626 3:69.341292 4:0.89254791 5:8462 6:102.62049 7:0.78346121 8:368.866 9:0.76388966 10:2.217528 
0.28260775438369168 1:6613 2:117.42152 3:74.301803 4:0.77433294 5:6882 6:91.760193 7:0.62801519 8:319.002 9:0.81662294 10:1.5803321 
0.28232703189213071 1:8257 2:151.75124 3:69.865341 4:0.88771476 5:8427 6:102.5336 7:0.67327136 8:362.259 9:0.79066731 10:2.1720533 
0.23375001809429524 1:8332 2:154.81746 3:68.985143 4:0.89523705 5:8488 6:102.99821 7:0.69502836 8:366.162 9:0.78093085 10:2.2442146 
0.28246522247594674 1:9655 2:163.03441 3:76.181725 4:0.8841126 5:9841 6:110.87438 7:0.79958592 8:393.321 9:0.7842741 10:2.1400724 
0.28310743342778122 1:8996 2:150.99088 3:76.673303 4:0.86147447 5:9214 6:107.02366 7:0.63910202 8:370.281 9:0.824511 10:1.9692758 
0.28216228091715506 1:8843 2:156.22758 3:72.658298 4:0.88526873 5:9024 6:106.10965 7:0.60156463 8:372.226 9:0.80204009 10:2.1501684 
0.27983405511399356 1:8798 2:158.43669 3:72.102794 4:0.89044596 5:9071 6:105.83932 7:0.590787 8:381.332 9:0.76030408 10:2.1973724 
0.27150136721678642 1:9570 2:170.16225 3:72.467448 4:0.90478312 5:9805 6:110.38525 7:0.71162998 8:398.506 9:0.7572723 10:2.3481199 
0.23441788392362697 1:8801 2:158.50709 3:71.624455 4:0.89208425 5:9079 6:105.85736 7:0.78953979 8:379.633 9:0.76738618 10:2.2130303 
0.24518446080381334 1:7485 2:147.94525 3:65.619564 4:0.89625483 5:7639 6:97.622733 7:0.77045805 8:348.992 9:0.77227278 10:2.2545906 
0.28307594678246961 1:9315 2:167.18027 3:71.57397 4:0.90371976 5:9500 6:108.90467 7:0.7376465 8:391.493 9:0.76373857 10:2.3357692 
0.28182435296043729 1:8877 2:159.54456 3:71.465846 4:0.89406532 5:9059 6:106.31344 7:0.56512605 8:384.212 9:0.75567357 10:2.2324588 
0.28307563096086474 1:8022 2:147.90468 3:70.042278 4:0.8807596 5:8254 6:101.06398 7:0.60749716 8:362.12 9:0.76875419 10:2.1116486 
0.28265303285699778 1:6976 2:139.32813 3:64.951013 4:0.88469358 5:7218 6:94.244995 7:0.61246708 8:336.837 9:0.77263923 10:2.1451263 
0.28335837474770692 1:7796 2:144.96481 3:69.620862 4:0.87712594 5:7972 6:99.630194 7:0.63506028 8:349.159 9:0.80359127 10:2.0822036 
0.26761998357684563 1:8354 2:154.37045 3:69.531069 4:0.89281832 5:8668 6:103.1341 7:0.7092885 8:371.067 9:0.76242946 10:2.220165 
0.28009224044310543 1:9361 2:160.905 3:74.891198 4:0.88508082 5:9668 6:109.17324 7:0.59810875 8:396.791 9:0.74715117 10:2.1485168 
0.26183075712602721 1:9154 2:160.83548 3:73.452573 4:0.88962392 5:9338 6:107.95941 7:0.58194533 8:383.774 9:0.78103352 10:2.1896507 
0.2500655605603303 1:8954 2:151.64279 3:75.842586 4:0.8659447 5:9221 6:106.77353 7:0.64551943 8:371.862 9:0.81369819 10:1.9994411 
0.28256129649931816 1:9751 2:168.05461 3:74.5608 4:0.89619019 5:9940 6:111.42423 7:0.58691465 8:402.679 9:0.75568545 10:2.2539271 
0.28303435579440195 1:8608 2:153.47032 3:72.583375 4:0.88109072 5:8879 6:104.69024 7:0.59275582 8:375.098 9:0.76881638 10:2.1144005 
0.28292736822866099 1:8243 2:149.16848 3:71.268059 4:0.87848557 5:8451 6:102.44664 7:0.58473434 8:361.452 9:0.79285524 10:2.0930623 
0.2758398864401499 1:9022 2:160.80741 3:72.635381 4:0.89217406 5:9315 6:107.1782 7:0.55567874 8:385.362 9:0.76344 10:2.2138991 
0.28286189286697572 1:7264 2:143.64548 3:65.349092 4:0.89052559 5:7479 6:96.170744 7:0.70075246 8:348.059 9:0.75349429 10:2.1981252 
0.28316332474595096 1:7959 2:149.12208 3:68.361724 4:0.8887316 5:8105 6:100.66635 7:0.67678571 8:352.715 9:0.80393421 10:2.1813681 
0.28290593623946403 1:9993 2:170.5651 3:75.425203 4:0.89691266 5:10295 6:112.79842 7:0.63987962 8:406.637 9:0.75943737 10:2.2613807 
0.28287054634498454 1:9225 2:160.66512 3:74.100221 4:0.88729146 5:9661 6:108.37728 7:0.74853944 8:399.962 9:0.72466749 10:2.1682137 
0.28201856819136295 1:8939 2:157.68613 3:73.301808 4:0.88538476 5:9234 6:106.68406 7:0.58701077 8:388.049 9:0.74597739 10:2.1511902 
0.25754461928969918 1:8226 2:149.82238 3:70.785222 4:0.88135161 5:8427 6:102.34094 7:0.59184114 8:363.48 9:0.78241565 10:2.1165771 
0.28252604993114189 1:10102 2:172.81522 3:75.025625 4:0.90084646 5:10381 6:113.41193 7:0.77032179 8:407.141 9:0.76582149 10:2.3034159 
0.18603893390081852 1:9324 2:158.60543 3:75.632679 4:0.87897894 5:9587 6:108.95726 7:0.60408163 8:384.657 9:0.79188998 10:2.0970489 
0.28181518952171736 1:8532 2:160.42415 3:69.032235 4:0.90268082 5:8852 6:104.22706 7:0.59572685 8:381.455 9:0.73684152 10:2.323902 
0.2802282282832409 1:9392 2:161.50384 3:74.731907 4:0.88650174 5:9653 6:109.35386 7:0.60687516 8:389.941 9:0.77619376 10:2.1611096 
0.28307869069110569 1:6920 2:142.30768 3:63.045052 4:0.89651207 5:7150 6:93.865956 7:0.7217355 8:338.06 9:0.7609014 10:2.2572379 
0.26473998045574243 1:9744 2:166.93808 3:75.397665 4:0.89219495 5:10025 6:111.38423 7:0.57752489 8:400.463 9:0.76352339 10:2.2141014 
0.28283667321464789 1:9701 2:168.83216 3:73.732965 4:0.8995958 5:9966 6:111.13819 7:0.75441325 8:398.614 9:0.7672224 10:2.2897785 
0.28254624809125639 1:10040 2:179.11768 3:71.754692 4:0.91625268 5:10230 6:113.06337 7:0.53546667 8:410.132 9:0.75006045 10:2.4962505 
0.25000000781974319 1:8805 2:156.75106 3:72.465528 4:0.8867252 5:9036 6:105.88142 7:0.61337513 8:375.361 9:0.78530964 10:2.1631121 
0.17932779685335143 1:7261 2:141.55637 3:66.094334 4:0.88430391 5:7429 6:96.150883 7:0.58603713 8:340.637 9:0.78636226 10:2.1417323 
0.24565000957118194 1:8300 2:153.60455 3:69.599361 4:0.89145593 5:8465 6:102.80023 7:0.78007519 8:365.012 9:0.7828412 10:2.2069822 
0.28309650873404557 1:7787 2:150.58643 3:67.006986 4:0.89554369 5:8049 6:99.572669 7:0.76855507 8:359.09 9:0.75888054 10:2.2473244 
0.2776055424647339 1:7188 2:140.72577 3:66.595343 4:0.88094011 5:7456 6:95.666326 7:0.59914979 8:339.326 9:0.78448322 10:2.1131473 
0.28288495013091552 1:9093 2:163.41578 3:71.536527 4:0.89909295 5:9287 6:107.5991 7:0.55977592 8:389.96 9:0.75140993 10:2.2843684 
0.28247710915521368 1:8744 2:165.34196 3:67.733063 4:0.91224079 5:8878 6:105.51401 7:0.82288726 8:381.692 9:0.7542128 10:2.441082 
0.28334225074480202 1:7798 2:148.67486 3:67.902352 4:0.88961199 5:8056 6:99.642973 7:0.58385744 8:356.706 9:0.77014458 10:2.1895392 
0.28332915625021449 1:9562 2:161.01209 3:76.847551 4:0.87875229 5:9924 6:110.3391 7:0.63115512 8:396.481 9:0.76438797 10:2.0952144 
0.25915285565636298 1:7412 2:142.42547 3:67.080621 4:0.88213986 5:7591 6:97.145517 7:0.71544402 8:345.66 9:0.77955547 10:2.1231984 
0.28291612866437821 1:6892 2:136.46895 3:65.319863 4:0.8780098 5:7073 6:93.675861 7:0.62427536 8:341.551 9:0.74241034 10:2.0892413 
0.28275764112726898 1:8781 2:159.81442 3:70.912518 4:0.89616652 5:8968 6:105.73702 7:0.62034617 8:379.114 9:0.76774005 10:2.2536842 
0.28333780920987406 1:6774 2:134.03373 3:65.410689 4:0.87283433 5:6963 6:92.870473 7:0.60309829 8:332.512 9:0.7699108 10:2.0491105 
0.28292081274465297 1:5762 2:109.21906 3:69.81739 4:0.7690058 5:5949 6:85.652824 7:0.81074996 8:296.096 9:0.82588207 10:1.5643533 
0.28335497863219333 1:9675 2:164.23495 3:75.599828 4:0.8877556 5:9894 6:110.98916 7:0.7513396 8:394.024 9:0.78309687 10:2.1724249 
0.28146982561292566 1:8790 2:161.74541 3:70.216709 4:0.90085567 5:9073 6:105.79119 7:0.74706782 8:382.975 9:0.75310909 10:2.3035173 
0.23566188385899917 1:9228 2:159.72332 3:74.705183 4:0.8838787 5:9521 6:108.3949 7:0.63848336 8:388.012 9:0.77024189 10:2.1380487 
0.28285251415366641 1:8645 2:152.3706 3:72.806622 4:0.87845454 5:8882 6:104.91499 7:0.60412299 8:368.803 9:0.79870421 10:2.0928123 
0.28326925737231823 1:10053 2:164.5485 3:78.3021 4:0.87952087 5:10315 6:113.13654 7:0.68118986 8:402.536 9:0.77964356 10:2.1014571 
0.2832005340719394 1:7906 2:154.01334 3:66.10981 4:0.90318701 5:8066 6:100.33061 7:0.61688514 8:360.349 9:0.76510322 10:2.3296595 
0.27805351849734694 1:9139 2:164.62668 3:71.395632 4:0.90106598 5:9298 6:107.87092 7:0.58809524 8:384.202 9:0.77801738 10:2.3058369 
0.22307592080590491 1:8620 2:161.11007 3:68.908669 4:0.90391519 5:8814 6:104.76318 7:0.56336187 8:376.858 9:0.76271388 10:2.3380233 
0.242587484330922 1:8319 2:152.44602 3:70.250847 4:0.88749133 5:8494 6:102.91783 7:0.598274 8:362.649 9:0.79489181 10:2.170024 
0.28325850690645382 1:8010 2:152.04038 3:67.952999 4:0.89456369 5:8263 6:100.98836 7:0.65650357 8:361.068 9:0.77208369 10:2.2374344 
0.2021216747324317 1:8505 2:159.4606 3:68.883905 4:0.90188283 5:8748 6:104.06201 7:0.59037901 8:376.551 9:0.75376605 10:2.3149181 
0.28137151515689651 1:8800 2:159.32043 3:71.736763 4:0.89289386 5:9148 6:105.85135 7:0.79566004 8:387.027 9:0.73826114 10:2.2209035 
0.28303985042518875 1:6846 2:144.79332 3:61.293072 4:0.90598293 5:7008 6:93.362722 7:0.57869822 8:341.254 9:0.73873939 10:2.3623114 
0.28280824594924631 1:7760 2:150.10149 3:66.844165 4:0.89536828 5:7992 6:99.399894 7:0.57337077 8:357.224 9:0.7641706 10:2.2455437 
0.28285598785546673 1:10093 2:168.44313 3:77.417313 4:0.88812341 5:10435 6:113.3614 7:0.61629114 8:406.555 9:0.76734651 10:2.1757811 
0.2828662070941651 1:9386 2:161.87705 3:75.072826 4:0.88595852 5:9740 6:109.31892 7:0.64570721 8:390.981 9:0.77157671 10:2.1562668 
0.28290689073423891 1:6396 2:126.33396 3:65.658541 4:0.85433543 5:6619 6:90.242119 7:0.62705882 8:314.442 9:0.81290018 10:1.9241055 
0.24652536295010843 1:7997 2:149.27366 3:69.368009 4:0.88546629 5:8263 6:100.90638 7:0.61444487 8:364.501 9:0.75637909 10:2.1519092 
0.28238006518029585 1:8416 2:151.91136 3:71.643447 4:0.88180538 5:8664 6:103.51611 7:0.67696268 8:369.454 9:0.77480934 10:2.1203804 
0.28247861594939766 1:6905 2:140.39329 3:63.621739 4:0.89142516 5:7101 6:93.764167 7:0.60043478 8:336.276 9:0.76732933 10:2.2066874 
0.28300792893069526 1:8409 2:160.62635 3:67.158157 4:0.9084002 5:8595 6:103.47305 7:0.63012364 8:376.12 9:0.74696691 10:2.3917623 
0.27966471692020206 1:6604 2:138.99079 3:61.875947 4:0.895441 5:6729 6:91.697731 7:0.69355177 8:330.493 9:0.75978794 10:2.2462813 
0.27635712966387138 1:8646 2:159.43995 3:69.732918 4:0.89928571 5:8846 6:104.92106 7:0.6001666 8:375.626 9:0.77004092 10:2.2864373 
0.28280020179862264 1:8653 2:153.23251 3:73.175233 4:0.87860794 5:8929 6:104.96353 7:0.6348496 8:373.854 9:0.77798729 10:2.0940488 
0.28289843741665144 1:6939 2:145.63607 3:62.195975 4:0.90422124 5:7341 6:93.99473 7:0.54359577 8:353.437 9:0.69804389 10:2.3415675 
0.24243659462647063 1:9301 2:161.31786 3:74.288199 4:0.88765544 5:9532 6:108.8228 7:0.59450304 8:386.112 9:0.78399431 10:2.1715139 
0.28289815813375618 1:7615 2:145.26455 3:67.768386 4:0.88451222 5:7789 6:98.466843 7:0.59866352 8:350.932 9:0.77702292 10:2.1435445 
0.20218525450998318 1:8500 2:158.96373 3:69.078013 4:0.90064673 5:8774 6:104.03142 7:0.72186837 8:378.07 9:0.74728171 10:2.3012204 
0.28327585857945459 1:8081 2:145.84326 3:71.336831 4:0.87220891 5:8266 6:101.43495 7:0.64819122 8:355.42 9:0.80388004 10:2.0444315 
0.28288226391079596 1:7755 2:156.61617 3:63.579387 4:0.9138923 5:7927 6:99.367865 7:0.68494966 8:372.416 9:0.70264345 10:2.4633167 
0.27568035544156166 1:8607 2:161.63457 3:68.446495 4:0.90591272 5:8757 6:104.68416 7:0.63207755 8:376.219 9:0.76415282 10:2.3614732 
0.23734444757941189 1:8925 2:156.13999 3:73.999331 4:0.88056284 5:9186 6:106.60048 7:0.61365512 8:380.654 9:0.77402911 10:2.1100189 
0.27312773699511428 1:8905 2:166.43222 3:68.795755 4:0.91056951 5:9161 6:106.48098 7:0.53515625 8:388.431 9:0.74167907 10:2.4192222 
0.28272244955206444 1:7834 2:142.59801 3:71.178605 4:0.86651233 5:8033 6:99.872712 7:0.77718254 8:351.557 9:0.79652962 10:2.003383 
0.28287427977050439 1:6396 2:127.56481 3:65.556004 4:0.857848 5:6570 6:90.242119 7:0.6049371 8:317.016 9:0.79975314 10:1.9458906 
0.28294406396489058 1:7291 2:144.84987 3:65.423632 4:0.89218755 5:7590 6:96.34931 7:0.57377823 8:357.688 9:0.71612399 10:2.2140297 
0.28302093129879713 1:8908 2:163.30437 3:70.038587 4:0.90335971 5:9271 6:106.49891 7:0.63751521 8:393.918 9:0.72140379 10:2.3316344 
0.28288568969087624 1:8680 2:150.70347 3:74.09294 4:0.87079448 5:8899 6:105.12716 7:0.72122975 8:366.344 9:0.8127396 10:2.0339788 
0.28293616835641189 1:9110 2:161.10689 3:72.732231 4:0.89229477 5:9304 6:107.69964 7:0.74391638 8:381.18 9:0.78789443 10:2.2150688 
0.28299215553538282 1:8431 2:158.565 3:68.391951 4:0.90219993 5:8674 6:103.60831 7:0.55122589 8:375.983 9:0.74946704 10:2.3184745 
0.2830960474797366 1:7693 2:143.06498 3:70.275552 4:0.87103881 5:7950 6:98.969853 7:0.76319444 8:351.44 9:0.78271421 10:2.0357718 
0.27541047464541901 1:9139 2:164.33117 3:71.24087 4:0.90114389 5:9322 6:107.87092 7:0.57823474 8:387.742 9:0.76387597 10:2.306698 
0.27977626077846113 1:7876 2:147.19813 3:68.661046 4:0.88454585 5:7999 6:100.14008 7:0.69330986 8:350.714 9:0.80465436 10:2.1438376 
0.28291631390079064 1:8046 2:148.14649 3:69.576683 4:0.88285383 5:8238 6:101.21505 7:0.59866071 8:358.78 9:0.78547694 10:2.1292548 
0.28315363544007333 1:7503 2:146.9847 3:65.700989 4:0.89453795 5:7611 6:97.740045 7:0.58380019 8:348.982 9:0.77417431 10:2.2371765 
0.27454901398019532 1:9052 2:156.17747 3:74.349683 4:0.87941337 5:9237 6:107.35625 7:0.79431379 8:375.341 9:0.80742538 10:2.1005802 
0.24410134115691776 1:8212 2:153.4914 3:69.310907 4:0.89223967 5:8475 6:102.25382 7:0.65959839 8:367.32 9:0.76483835 10:2.2145346 
0.27423892832214702 1:8936 2:162.4683 3:71.375694 4:0.89833027 5:9132 6:106.66615 7:0.78800705 8:384.017 9:0.76146882 10:2.2762412 
0.28293409546090886 1:7098 2:139.295 3:65.610627 4:0.88212293 5:7238 6:95.065526 7:0.61904762 8:334.307 9:0.7980956 10:2.1230554 
0.28328053590097296 1:6409 2:113.72856 3:74.004668 4:0.75932364 5:6552 6:90.333782 7:0.60416667 8:309.597 9:0.84024638 10:1.5367754 
0.27273722286087454 1:9153 2:163.6527 3:72.571333 4:0.8963005 5:9352 6:107.95352 7:0.57263514 8:389.398 9:0.75855294 10:2.2550599 
0.28337382016733792 1:8933 2:153.99286 3:74.371024 4:0.87564732 5:9081 6:106.64825 7:0.63994555 8:369.158 9:0.82372572 10:2.0706029 
0.27919796743212399 1:9070 2:164.03357 3:70.786046 4:0.90209672 5:9265 6:107.46294 7:0.67909554 8:389.352 9:0.75185195 10:2.317315 
0.28267916736558885 1:9104 2:165.08958 3:70.938975 4:0.90297177 5:9300 6:107.66417 7:0.54760902 8:388.415 9:0.75831584 10:2.3272057 
0.28291614384737773 1:8894 2:152.84449 3:75.068781 4:0.87107793 5:9129 6:106.41519 7:0.76494367 8:375.549 9:0.79245347 10:2.0360593 
0.21380149176350272 1:9086 2:157.82348 3:74.654696 4:0.88104817 5:9369 6:107.55768 7:0.56979807 8:383.344 9:0.7769718 10:2.1140462 
0.2815430324335696 1:8419 2:153.96138 3:70.555515 4:0.88881426 5:8594 6:103.53455 7:0.57054757 8:368.259 9:0.78012399 10:2.1821311 
0.24026626697298675 1:7411 2:142.74797 3:67.136735 4:0.88249779 5:7556 6:97.138964 7:0.62858355 8:343.734 9:0.78820955 10:2.1262275 
0.28317120423944953 1:5978 2:104.44157 3:75.396796 4:0.69199316 5:6104 6:87.243487 7:0.67777778 8:298.835 9:0.84120695 10:1.3852256 
0.28105173490740498 1:8527 2:153.70625 3:71.688286 4:0.88457499 5:8783 6:104.19651 7:0.80771052 8:369.676 9:0.78408585 10:2.1440916 
0.26509395211943076 1:8954 2:158.88068 3:72.565909 4:0.88960429 5:9169 6:106.77353 7:0.78125818 8:380.089 9:0.77885453 10:2.1894673 
0.27832368753628967 1:8589 2:156.44371 3:70.567841 4:0.89248606 5:8803 6:104.57464 7:0.7916129 8:372.554 9:0.77763179 10:2.2169264 
0.28269792904834395 1:9194 2:163.11741 3:73.090484 4:0.89399089 5:9514 6:108.19503 7:0.59300826 8:390.246 9:0.75864298 10:2.2317188 
0.2831542438470197 1:6031 2:105.31388 3:74.973753 4:0.70227315 5:6111 6:87.629377 7:0.63577904 8:291.412 9:0.89245089 10:1.4046767 
0.2832177054304848 1:6581 2:117.01422 3:74.569705 4:0.77064023 5:6827 6:91.537913 7:0.6066556 8:315.559 9:0.83050187 10:1.5691925 
0.28309669501761675 1:6912 2:128.55734 3:69.361348 4:0.84196236 5:7036 6:93.811682 7:0.62315182 8:322.963 9:0.83273737 10:1.8534435 
0.28333699208683566 1:9568 2:166.84463 3:74.165216 4:0.89577059 5:9790 6:110.37371 7:0.77788618 8:395.454 9:0.76884551 10:2.2496345 
0.28321425693024738 1:7562 2:153.95761 3:63.536789 4:0.91087148 5:7854 6:98.123582 7:0.63814346 8:362.904 9:0.72154434 10:2.4231255 
0.2832717576919872 1:5830 2:129.54698 3:57.845166 4:0.89477423 5:5974 6:86.156756 7:0.63715847 8:307.908 9:0.77274548 10:2.2395472 
0.28292722467631115 1:7918 2:146.36763 3:69.847878 4:0.87879009 5:8088 6:100.40673 7:0.62861226 8:351.963 9:0.80321413 10:2.09552 
0.2834217424636728 1:7050 2:120.13203 3:76.643583 4:0.77004084 5:7288 6:94.743542 7:0.64738292 8:329.882 9:0.81410748 10:1.5674114 
0.28191251853632104 1:7458 2:141.57917 3:67.954737 4:0.8772811 5:7595 6:97.446501 7:0.76767885 8:343.635 9:0.79366542 10:2.0834334 
0.2626163383645756 1:6927 2:138.99335 3:64.528995 4:0.88569917 5:7084 6:93.913419 7:0.77980412 8:332.841 9:0.78574462 10:2.1539673 
0.28290649072663365 1:9406 2:160.599 3:75.631067 4:0.88216998 5:9763 6:109.43533 7:0.64833195 8:396.208 9:0.75295385 10:2.1234528 
0.28293988227058398 1:9842 2:163.77472 3:76.928858 4:0.88281352 5:9978 6:111.94295 7:0.73283693 8:394.612 9:0.79424163 10:2.1289114 
0.28340364058087225 1:7345 2:138.03682 3:68.61732 4:0.8676965 5:7486 6:96.705452 7:0.72982909 8:335.984 9:0.81764441 10:2.0116906 
0.28177219694547778 1:8203 2:150.97844 3:70.000768 4:0.88601977 5:8408 6:102.19777 7:0.80421569 8:360.554 9:0.79294295 10:2.1568112 
0.27376704640663224 1:8027 2:154.68825 3:67.426213 4:0.90000261 5:8313 6:101.09547 7:0.68152488 8:370.016 9:0.73675335 10:2.2941857 
0.2820877809204313 1:8720 2:159.64551 3:70.830283 4:0.89618912 5:8980 6:105.36911 7:0.60961969 8:380.86 9:0.75543243 10:2.253916 
0.27102291884177282 1:9000 2:163.05867 3:71.058355 4:0.9000513 5:9194 6:107.04745 7:0.591133 8:382.3 9:0.77382682 10:2.294715 
0.28291398581200355 1:9387 2:157.63773 3:76.722313 4:0.87356908 5:9611 6:109.32474 7:0.59675779 8:382.276 9:0.80720272 10:2.054653 
0.20611237172054442 1:8642 2:157.58975 3:70.695011 4:0.89373185 5:8751 6:104.89679 7:0.80690943 8:370.346 9:0.79178781 10:2.2291495 
0.28250321588330696 1:8250 2:151.72964 3:69.754843 4:0.88805815 5:8386 6:102.49013 7:0.6182554 8:364.105 9:0.7820068 10:2.1751844 
0.27001332460730154 1:8505 2:158.58024 3:68.914354 4:0.90063764 5:8673 6:104.06201 7:0.81747405 8:369.767 9:0.78167799 10:2.3011206 
0.27142842163585995 1:8726 2:158.0246 3:71.431689 4:0.89200327 5:9013 6:105.40535 7:0.78281152 8:381.561 9:0.75317712 10:2.2122478 
0.28293054749983826 1:8531 2:158.92834 3:69.02762 4:0.90075299 5:8687 6:104.22095 7:0.66378774 8:374.433 9:0.76464802 10:2.3023876 
0.28287123865160457 1:9656 2:169.55817 3:73.310833 4:0.9016992 5:9928 6:110.88012 7:0.56074332 8:405.714 9:0.73716912 10:2.3128665 
0.28298863561795523 1:7604 2:153.12685 3:63.66371 4:0.90947529 5:7733 6:98.395699 7:0.60167748 8:354.18 9:0.76173499 10:2.4052455 
0.2256211185616285 1:7137 2:143.8597 3:63.493154 4:0.89733274 5:7277 6:95.326338 7:0.63406183 8:341.767 9:0.76783041 10:2.2657514 
0.28329829007379914 1:9015 2:157.02613 3:73.632677 4:0.88324069 5:9219 6:107.13662 7:0.60487118 8:377.361 9:0.79553917 10:2.1325603 
0.28341258228007027 1:6845 2:120.6734 3:74.2334 4:0.78840262 5:6952 6:93.355903 7:0.76004886 8:316.746 9:0.8573557 10:1.6255944 
0.26979984339096441 1:7875 2:154.20474 3:65.719617 4:0.90463642 5:8025 6:100.13372 7:0.72400478 8:360.233 9:0.76259409 10:2.3464035 
0.26194022696287705 1:8109 2:148.81443 3:70.156593 4:0.88189987 5:8295 6:101.61053 7:0.72195513 8:356.99 9:0.79958578 10:2.1211753 
0.27293399755497993 1:8781 2:157.12632 3:72.015045 4:0.88878427 5:8954 6:105.73702 7:0.77053352 8:374.159 9:0.78820911 10:2.1818542 
0.23714863675566997 1:9271 2:161.51934 3:74.024572 4:0.88879674 5:9554 6:108.64715 7:0.62238185 8:388.583 9:0.77155848 10:2.1819693 
0.28325728420947532 1:7032 2:143.28068 3:63.345641 4:0.89696146 5:7273 6:94.622516 7:0.7461008 8:343.882 9:0.74725674 10:2.261887 
0.27109065796850551 1:8365 2:158.18287 3:68.733926 4:0.90066126 5:8592 6:103.20198 7:0.5573694 8:376.116 9:0.74307422 10:2.3013799 
0.2296710263213215 1:9440 2:161.74264 3:75.187935 4:0.88538338 5:9665 6:109.63294 7:0.62533121 8:388.377 9:0.78645677 10:2.1511781 
0.19979627045639642 1:8626 2:156.91357 3:70.691512 4:0.89277016 5:8793 6:104.79964 7:0.67138854 8:371.389 9:0.78588906 10:2.2196946 
0.2833467823456744 1:6130 2:128.88892 3:61.172938 4:0.88019215 5:6250 6:88.345676 7:0.80393443 8:307.319 9:0.81562685 10:2.1069598 
0.28247891679997578 1:8184 2:154.50066 3:67.990791 4:0.89796446 5:8334 6:102.07934 7:0.61538462 8:363.988 9:0.77624953 10:2.2723762 
0.28318721230365523 1:8853 2:158.48363 3:71.695762 4:0.89182228 5:9033 6:106.16963 7:0.65143488 8:376.74 9:0.78382094 10:2.2105021 
0.25103104254416553 1:8599 2:157.27211 3:70.448317 4:0.8940641 5:8867 6:104.6355 7:0.72996604 8:377.55 9:0.75806922 10:2.2324466 
0.28313267477171089 1:7305 2:144.25759 3:65.306821 4:0.89165793 5:7481 6:96.441769 7:0.59390244 8:342.356 9:0.78320274 10:2.2089207 
0.28241961315835817 1:8327 2:149.45745 3:72.013922 4:0.87626163 5:8518 6:102.9673 7:0.58312325 8:366.151 9:0.78050912 10:2.0753966 
0.28291891490387444 1:7052 2:138.30499 3:65.813346 4:0.87952287 5:7222 6:94.75698 7:0.64490169 8:343.015 9:0.75317508 10:2.1014733 
0.27992053903622005 1:9182 2:160.68242 3:74.350128 4:0.88650722 5:9456 6:108.1244 7:0.56227802 8:389.306 9:0.761316 10:2.1611586 
0.28308176589216938 1:6930 2:135.80476 3:66.341938 4:0.87255847 5:7092 6:93.933753 7:0.68208661 8:332.485 9:0.78776918 10:2.0470423 
0.28334219133995586 1:7297 2:150.14091 3:62.917756 4:0.90795945 5:7520 6:96.388946 7:0.77216931 8:354.981 9:0.72768596 10:2.3863043 
0.28284037758564556 1:8377 2:157.61395 3:68.778452 4:0.89976592 5:8561 6:103.27598 7:0.56928304 8:375.502 9:0.74657573 10:2.2916181 
0.28340572978428535 1:9655 2:170.0987 3:72.838502 4:0.90367776 5:9866 6:110.87438 7:0.78127529 8:402.707 9:0.74814157 10:2.3352855 
0.28296873110866189 1:8625 2:157.13182 3:70.368547 4:0.89411807 5:8840 6:104.79356 7:0.72747976 8:380.411 9:0.74896726 10:2.2329837 
0.26146437947752033 1:8954 2:159.45144 3:72.231817 4:0.89150951 5:9242 6:106.77353 7:0.61952536 8:381.265 9:0.77405724 10:2.2074959 
0.23619599818893855 1:9181 2:165.28204 3:71.400748 4:0.90187678 5:9473 6:108.11851 7:0.6480096 8:388.227 9:0.76547036 10:2.3148503 
0.28286945779543621 1:9652 2:162.76459 3:76.414959 4:0.88294233 5:9958 6:110.85715 7:0.64449786 8:394.017 9:0.781263 10:2.1300095 
0.28341013589282593 1:8539 2:156.33274 3:70.792622 4:0.89159536 5:8709 6:104.26981 7:0.6221947 8:377.352 9:0.75356994 10:2.2083196 
0.28246206916455641 1:9309 2:167.21937 3:71.956063 4:0.90268147 5:9623 6:108.86959 7:0.55243012 8:396.462 9:0.74423443 10:2.3239094 
0.25001248457487862 1:8292 2:153.09306 3:70.170325 4:0.88877137 5:8506 6:102.75068 7:0.58164983 8:366.936 9:0.77390653 10:2.1817351 
0.28342988594855645 1:9043 2:170.33062 3:68.66314 4:0.91514852 5:9355 6:107.30287 7:0.5263066 8:399.777 9:0.71102813 10:2.4806704 
0.2830181298161763 1:8566 2:154.93577 3:71.621631 4:0.88674099 5:8795 6:104.43452 7:0.62911281 8:371.092 9:0.78167235 10:2.1632538 
0.28303759127931455 1:6850 2:134.86543 3:65.942001 4:0.8723137 5:7014 6:93.389993 7:0.62250091 8:328.898 9:0.79575242 10:2.045213 
0.28334707863800734 1:9491 2:165.36789 3:74.264359 4:0.89348867 5:9886 6:109.92869 7:0.56727034 8:436.387 9:0.62629397 10:2.2267463 
0.25813878873873353 1:9295 2:153.67634 3:77.935095 4:0.86186494 5:9557 6:108.78769 7:0.70288869 8:382.745 9:0.79733386 10:1.9718503 
0.28297988920226147 1:7659 2:149.05249 3:66.598475 4:0.89462777 5:7936 6:98.750907 7:0.66588419 8:355.543 9:0.76137334 10:2.2380767 
0.2834052851355191 1:9699 2:163.16006 3:76.257088 4:0.88405867 5:9828 6:111.12673 7:0.59393754 8:388.679 9:0.80677916 10:2.1396052 
0.28333718994631524 1:8996 2:159.68393 3:72.763799 4:0.89014678 5:9327 6:107.02366 7:0.57182812 8:387.801 9:0.75169465 10:2.1945518 
0.28341541951211985 1:7508 2:125.40967 3:79.715053 4:0.77198791 5:7762 6:97.772606 7:0.75110044 8:343.376 9:0.80019209 10:1.5732245 
0.28331349604214101 1:8114 2:153.23246 3:68.697372 4:0.8938725 5:8371 6:101.64185 7:0.55423497 8:365.473 9:0.76336856 10:2.2305433 
0.2772522767775335 1:8824 2:160.8406 3:70.929263 4:0.89751151 5:9119 6:105.99559 7:0.60244419 8:381.795 9:0.76070258 10:2.2676198 
0.28314909215897033 1:7430 2:142.72039 3:67.034664 4:0.88283021 5:7562 6:97.263404 7:0.64273356 8:346.902 9:0.77586305 10:2.1290536 
0.27292178089453911 1:8680 2:151.91732 3:73.415788 4:0.87547606 5:8918 6:105.12716 7:0.60993606 8:374.782 9:0.77655486 10:2.0692731 
0.28327765906606683 1:8901 2:158.66448 3:72.93447 4:0.88808598 5:9173 6:106.45706 7:0.62463158 8:382.388 9:0.76496252 10:2.1754388 
0.25996646223577657 1:8884 2:159.25503 3:71.691187 4:0.89294492 5:9054 6:106.35535 7:0.72086985 8:380.767 9:0.77001611 10:2.2214031 
0.28055314447526392 1:8522 2:156.76642 3:70.080599 4:0.8945148 5:8791 6:104.16596 7:0.59561085 8:374.617 9:0.76309117 10:2.2369446 
0.28341796685421461 1:6690 2:142.68391 3:60.939399 4:0.90420737 5:6869 6:92.292863 7:0.6497669 8:340.26 9:0.72612968 10:2.3414066 
0.28222400764696132 1:7602 2:147.93492 3:66.337456 4:0.89382134 5:7771 6:98.382758 7:0.56986507 8:350.984 9:0.77546659 10:2.2300361 
0.28233772353326958 1:6946 2:141.89852 3:63.537309 4:0.89415085 5:7164 6:94.042128 7:0.76565256 8:340.036 9:0.75490942 10:2.2333101 
0.2832162767198706 1:9513 2:156.01242 3:78.251991 4:0.86511394 5:9759 6:110.05602 7:0.74019608 8:383.356 9:0.81343495 10:1.9937182 
0.27826021839262105 1:9413 2:166.23069 3:73.049291 4:0.89826936 5:9676 6:109.47604 7:0.65056327 8:394.918 9:0.75844495 10:2.2755962 
0.2559336066668263 1:8364 2:157.32733 3:68.216458 4:0.9011075 5:8586 6:103.19581 7:0.61427732 8:376.055 9:0.74322644 10:2.3062957 
0.27898784770019636 1:9138 2:166.32562 3:70.953358 4:0.90444366 5:9429 6:107.86502 7:0.63960244 8:392.015 9:0.74723232 10:2.3441542 
0.2740959885817652 1:8237 2:148.27788 3:71.969384 4:0.87430979 5:8400 6:102.40935 7:0.78974113 8:359.364 9:0.80151156 10:2.0602911 
0.28333310603613937 1:8015 2:147.8435 3:69.534842 4:0.88249203 5:8160 6:101.01987 7:0.80109945 8:352.805 9:0.80917774 10:2.1261787 
0.2830983268202733 1:9208 2:158.89997 3:74.541183 4:0.88314102 5:9452 6:108.27737 7:0.75191899 8:381.908 9:0.79333691 10:2.1317071 
0.19269639424595558 1:9550 2:167.81901 3:73.438603 4:0.89916683 5:9810 6:110.26984 7:0.55266204 8:397.529 9:0.75940876 10:2.2851606 
0.28289462913962765 1:9519 2:167.22482 3:73.654657 4:0.89777572 5:9804 6:110.09072 7:0.55086806 8:398.183 9:0.75445921 10:2.2703903 
0.273764445744764 1:8001 2:148.02781 3:69.914874 4:0.88143302 5:8266 6:100.93161 7:0.68843573 8:359.795 9:0.77668316 10:2.1172578 
0.28298053462020623 1:8739 2:154.86156 3:73.029234 4:0.8818246 5:9034 6:105.48384 7:0.60173518 8:379.447 9:0.76272741 10:2.1205421 
0.2826451925073421 1:7468 2:140.1841 3:69.346073 4:0.86907601 5:7667 6:97.511809 7:0.56507264 8:343.64 9:0.79470648 10:2.0215147 
0.28344124058513087 1:8275 2:142.93701 3:74.376116 4:0.85395802 5:8484 6:102.6453 7:0.64795239 8:378.131 9:0.72726603 10:1.9218133 
0.2827202394177214 1:8139 2:154.68674 3:68.323611 4:0.89716766 5:8359 6:101.79831 7:0.70455332 8:366.708 9:0.76057167 10:2.2640306 
0.28295551450410694 1:7491 2:148.26647 3:64.947866 4:0.89895147 5:7700 6:97.661852 7:0.61684783 8:349.54 9:0.77047029 10:2.2828537 
0.20356258391739435 1:8778 2:155.81827 3:72.208951 4:0.88613995 5:8959 6:105.71895 7:0.75986842 8:374.647 9:0.78588848 10:2.1578803 
0.27391898697286093 1:7069 2:132.11778 3:69.487347 4:0.85051549 5:7302 6:94.871125 7:0.61298994 8:332.174 9:0.80507543 10:1.9013214 
0.26916172150457912 1:8442 2:151.76628 3:71.519165 4:0.88200212 5:8648 6:103.67588 7:0.61010335 8:367.935 9:0.78363352 10:2.1220365 
0.28333475033590638 1:7471 2:146.24143 3:65.866493 4:0.89282912 5:7666 6:97.531393 7:0.61969144 8:351.881 9:0.75822302 10:2.2202705 
0.28287918811939083 1:8764 2:154.79349 3:73.415628 4:0.88037347 5:9098 6:105.63461 7:0.78027066 8:376.028 9:0.77888235 10:2.1084543 
0.27997049353898756 1:9313 2:161.84647 3:74.104087 4:0.88902092 5:9562 6:108.89297 7:0.73678797 8:387.995 9:0.77740478 10:2.1840424 
0.28342454585380839 1:8931 2:158.45038 3:72.374044 4:0.88958915 5:9054 6:106.63631 7:0.71654365 8:376.186 9:0.79305753 10:2.189326 
0.28343558820485171 1:8507 2:156.46344 3:69.896646 4:0.89466968 5:8637 6:104.07425 7:0.62847222 8:368.34 9:0.78793162 10:2.2384971 
0.28085997490631109 1:9209 2:161.29746 3:73.358917 4:0.89059096 5:9392 6:108.28325 7:0.80441999 8:382.909 9:0.78928016 10:2.1987437 
0.28282718380136046 1:9494 2:164.12644 3:74.406725 4:0.89133257 5:9708 6:109.94606 7:0.60835576 8:391.016 9:0.78031514 10:2.2058012 
0.28293572867330957 1:7963 2:149.94025 3:68.400227 4:0.88988587 5:8136 6:100.69164 7:0.58448326 8:357.02 9:0.78505754 10:2.1921017 
0.27933235556763086 1:8581 2:153.57327 3:72.454387 4:0.88171077 5:8794 6:104.52592 7:0.78992912 8:370.131 9:0.78711256 10:2.1195856 
0.270696722063273 1:8910 2:157.90222 3:72.990263 4:0.88674978 5:9161 6:106.51086 7:0.62112234 8:378.8 9:0.78031082 10:2.1633327 
0.27377757263784858 1:8729 2:160.854 3:69.603605 4:0.90153176 5:8865 6:105.42347 7:0.80067877 8:374.886 9:0.7805054 10:2.311001 
0.28342443244498555 1:8606 2:162.32854 3:68.413131 4:0.9068523 5:8968 6:104.67808 7:0.64488572 8:392.536 9:0.70186279 10:2.3727687 
0.28066049376373264 1:8515 2:154.15617 3:71.346986 4:0.88645083 5:8676 6:104.12317 7:0.58114933 8:370.584 9:0.7791502 10:2.1606543 
0.28327540183691491 1:7290 2:147.92461 3:63.788572 4:0.90224513 5:7529 6:96.342702 7:0.58050645 8:357.207 9:0.71795541 10:2.318983 
0.25682911090659233 1:8838 2:160.1372 3:70.951389 4:0.89648887 5:9079 6:106.07965 7:0.65641711 8:380.618 9:0.76662895 10:2.2569988 
0.28291409420502278 1:6958 2:139.91819 3:63.944403 4:0.88946012 5:7054 6:94.123327 7:0.58687584 8:332.126 9:0.79266291 10:2.1881226 
0.28249634500613519 1:8242 2:152.76995 3:69.218747 4:0.89146408 5:8470 6:102.44042 7:0.77975402 8:362.853 9:0.78664908 10:2.2070603 
0.28301474793136611 1:7913 2:147.97176 3:68.843194 4:0.8851817 5:8054 6:100.37502 7:0.65559238 8:353.807 9:0.7943615 10:2.149403 
0.27730145514502541 1:7700 2:147.99846 3:67.344438 4:0.89047369 5:7950 6:99.01487 7:0.70306793 8:355.411 9:0.7660178 10:2.1976345 
0.28286320149908489 1:6865 2:133.64127 3:66.563271 4:0.8671344 5:7071 6:93.492189 7:0.73690425 8:328.359 9:0.80011527 10:2.0077329 
0.28287115113417888 1:9637 2:170.83401 3:72.634438 4:0.90511092 5:9992 6:110.77098 7:0.70373886 8:405.321 9:0.737146 10:2.3519699 
0.28337802702568859 1:9043 2:161.29096 3:72.599497 4:0.89297054 5:9359 6:107.30287 7:0.55769349 8:386.287 9:0.76155664 10:2.2216539 
0.27633672804354203 1:8138 2:149.98779 3:70.147625 4:0.88389314 5:8351 6:101.79206 7:0.70155172 8:361.845 9:0.7810564 10:2.1381734 
0.28324939906938529 1:8131 2:147.52437 3:70.789864 4:0.87734945 5:8328 6:101.74827 7:0.60029531 8:362.419 9:0.77791458 10:2.0839759 
0.25000385673332859 1:8449 2:153.35727 3:71.181673 4:0.88575356 5:8713 6:103.71886 7:0.68691057 8:370.33 9:0.77417186 10:2.1544489 
0.28295270724650634 1:8051 2:154.53627 3:67.139643 4:0.9006917 5:8186 6:101.24649 7:0.56006957 8:365.15 9:0.75878211 10:2.3017142 
0.2775511332236153 1:9237 2:165.03842 3:72.336879 4:0.89882714 5:9439 6:108.44775 7:0.80461672 8:390.459 9:0.76135978 10:2.2815253 
0.28344249023977486 1:9459 2:165.59039 3:73.649506 4:0.89564522 5:9702 6:109.74321 7:0.56933911 8:404.4 9:0.72682992 10:2.2483571 
0.27917779912956669 1:8995 2:156.28474 3:73.614274 4:0.88211899 5:9159 6:107.01771 7:0.82735467 8:374.952 9:0.80400673 10:2.1230222 
0.2832428158274346 1:5982 2:123.79969 3:63.383615 4:0.85899424 5:6150 6:87.27267 7:0.61663746 8:307.652 9:0.79421263 10:1.9531813 
0.28259434740781397 1:7353 2:145.99577 3:65.248476 4:0.89457377 5:7603 6:96.758102 7:0.60073529 8:347.704 9:0.76428451 10:2.2375353 
0.27454911873333737 1:8707 2:152.79862 3:72.840642 4:0.87906058 5:8880 6:105.29053 7:0.74918258 8:367.824 9:0.80872018 10:2.0977111 
0.28108251748448432 1:9399 2:165.07174 3:73.453605 4:0.89554056 5:9636 6:109.3946 7:0.55697778 8:391.483 9:0.77066511 10:2.2472926 
0.28288324411160398 1:8204 2:153.02341 3:69.696588 4:0.89025442 5:8541 6:102.204 7:0.60010241 8:369.29 9:0.75596279 10:2.1955653 
0.28266273338285525 1:8832 2:154.11688 3:73.735921 4:0.87811939 5:9097 6:106.04363 7:0.71225806 8:374.763 9:0.79023363 10:2.0901194 
0.28279142472665902 1:9553 2:173.20272 3:71.258937 4:0.91144621 5:9810 6:110.28716 7:0.53789414 8:403.167 9:0.73854963 10:2.4306106 
0.2833973171127866 1:9851 2:167.53819 3:75.72329 4:0.89202995 5:10180 6:111.99412 7:0.65791758 8:404.652 9:0.75600871 10:2.2125054 
0.27989689648360216 1:8909 2:160.97193 3:71.305313 4:0.89653774 5:9147 6:106.50489 7:0.76682734 8:380.51 9:0.7732264 10:2.2575026 
0.28298825238102943 1:7920 2:149.57039 3:67.912855 4:0.89097477 5:8125 6:100.41941 7:0.71377073 8:363.838 9:0.75182876 10:2.202387 
0.27491314476856032 1:9580 2:162.2772 3:75.629619 4:0.88475731 5:9778 6:110.4429 7:0.60198567 8:393.755 9:0.77646737 10:2.1456831 
0.16123422514582636 1:7932 2:148.06315 3:69.096304 4:0.88443268 5:8131 6:100.49545 7:0.63756933 8:356.462 9:0.78445149 10:2.142852 
0.28208182508546364 1:8258 2:149.07024 3:71.417852 4:0.87776654 5:8463 6:102.53981 7:0.78587743 8:359.562 9:0.80267025 10:2.0872966 
0.28341787117838568 1:7453 2:139.3367 3:69.376571 4:0.86723103 5:7723 6:97.41383 7:0.66025868 8:344.338 9:0.78989812 10:2.0084114 
0.28324302597535911 1:9680 2:168.04757 3:73.791791 4:0.89843207 5:9811 6:111.01783 7:0.57619048 8:392.963 9:0.78773819 10:2.2773206 
0.28318060284561464 1:7017 2:139.64044 3:65.131065 4:0.88456349 5:7177 6:94.521542 7:0.72117163 8:337.969 9:0.77198277 10:2.1439913 
0.28288332833123958 1:9348 2:157.83538 3:76.104252 4:0.87607499 5:9579 6:109.0974 7:0.63591837 8:389.791 9:0.77315212 10:2.0739364 
0.15948366574029027 1:7986 2:151.34569 3:68.053592 4:0.8932015 5:8152 6:100.83695 7:0.78294118 8:357.503 9:0.78519909 10:2.2239192 
0.28305468060904343 1:7828 2:154.83572 3:65.377081 4:0.90648634 5:8002 6:99.834459 7:0.54180509 8:363.009 9:0.74649327 10:2.3683486 
0.28264838131364883 1:10132 2:168.53634 3:77.692742 4:0.88740788 5:10483 6:113.58021 7:0.70127353 8:413.683 9:0.74399445 10:2.1692675 
0.28273131702787224 1:9243 2:167.2541 3:71.196759 4:0.90487368 5:9454 6:108.48296 7:0.58088235 8:391.786 9:0.75670219 10:2.3491814 
0.2799926331967667 1:7781 2:148.15406 3:67.858015 4:0.88894018 5:7982 6:99.5343 7:0.57509239 8:354.654 9:0.77738392 10:2.183295 
0.28344149031635502 1:9283 2:163.71607 3:73.452341 4:0.89370409 5:10064 6:108.71744 7:0.60956071 8:436.402 9:0.61252631 10:2.2288748 
0.28109456959375861 1:9009 2:161.12859 3:71.832429 4:0.89512856 5:9174 6:107.10096 7:0.73101266 8:381.553 9:0.77763662 10:2.2431176 
0.28288356352894134 1:10047 2:166.42043 3:77.677274 4:0.88438759 5:10322 6:113.10277 7:0.61547415 8:404.413 9:0.77196223 10:2.1424597 
0.28290722595047613 1:6621 2:135.29945 3:62.949829 4:0.88517249 5:6832 6:91.81568 7:0.73812709 8:338.722 9:0.72518138 10:2.149322 
0.25173599229815258 1:8350 2:154.22288 3:69.737045 4:0.89192493 5:8594 6:103.10941 7:0.64112408 8:368.098 9:0.77440727 10:2.2114915 
0.28100349091744975 1:8461 2:155.41283 3:69.998564 4:0.89282486 5:8698 6:103.79248 7:0.71819031 8:370.95 9:0.77268202 10:2.2202289 
0.28264830659547313 1:6330 2:135.44356 3:60.338653 4:0.89528728 5:6477 6:89.77531 7:0.64101266 8:320.081 9:0.77641476 10:2.2447229 
0.25053201227303551 1:9028 2:158.88348 3:73.239638 4:0.88741859 5:9296 6:107.21384 7:0.72788841 8:381.652 9:0.77887243 10:2.1693646 
0.2739756896922409 1:9167 2:162.40369 3:72.581917 4:0.89457251 5:9372 6:108.03604 7:0.63659722 8:385.366 9:0.77569377 10:2.2375227 
0.28305727539647341 1:8125 2:154.24413 3:68.238638 4:0.89681453 5:8392 6:101.71072 7:0.79782011 8:366.492 9:0.76015864 10:2.2603635 
0.28322451020110284 1:9143 2:159.58714 3:73.850408 4:0.88648405 5:9404 6:107.89453 7:0.66397967 8:383.695 9:0.78041625 10:2.1609513 
0.28306176242880149 1:8650 2:160.41408 3:69.185987 4:0.90221038 5:8959 6:104.94533 7:0.67236689 8:385.208 9:0.7325468 10:2.3185921 
0.28299805988362642 1:7787 2:142.54715 3:70.932616 4:0.86740196 5:7954 6:99.572669 7:0.74077245 8:349.854 9:0.79947769 10:2.0096135 
0.28290454246860303 1:5819 2:125.42735 3:60.090569 4:0.87776762 5:6064 6:86.075437 7:0.65176971 8:322.041 9:0.70507593 10:2.0873052 
0.28305273018735483 1:7052 2:137.86515 3:66.029509 4:0.87784617 5:7152 6:94.75698 7:0.60469902 8:330.356 9:0.81200325 10:2.0879324 
0.28289480567201541 1:9885 2:160.99836 3:78.964259 4:0.8714602 5:10190 6:112.18722 7:0.62263794 8:421.285 9:0.69989767 10:2.0388763 
0.28340261260059563 1:8986 2:157.19133 3:73.699361 4:0.88327711 5:9278 6:106.96416 7:0.58578879 8:411.842 9:0.66575588 10:2.1328724 
0.28296998025628051 1:7982 2:153.6213 3:67.190428 4:0.89927823 5:8184 6:100.8117 7:0.58004505 8:362.574 9:0.76300656 10:2.2863569 
0.28343286891381658 1:9149 2:154.31485 3:76.867274 4:0.86710826 5:9419 6:107.92992 7:0.76676165 8:382.007 9:0.78784512 10:2.0075494 
0.26616917494153935 1:8190 2:150.24243 3:70.381093 4:0.88348992 5:8383 6:102.11676 7:0.71428571 8:361.332 9:0.78828074 10:2.1346987 
0.2080359168830456 1:8778 2:159.34931 3:71.125881 4:0.89485747 5:9005 6:105.71895 7:0.79872611 8:379.228 9:0.7670164 10:2.2403843 
0.28342649015942556 1:8756 2:165.4611 3:68.10035 4:0.91137399 5:8973 6:105.58639 7:0.80175808 8:384.86 9:0.74286529 10:2.4296659 
0.27112956447140601 1:9378 2:159.74137 3:75.251966 4:0.88208713 5:9602 6:109.27232 7:0.58810987 8:390.33 9:0.77349272 10:2.1227534 
0.28301452948999734 1:7866 2:146.17734 3:69.214845 4:0.88079427 5:8017 6:100.07648 7:0.69242958 8:350.829 9:0.80310593 10:2.1119362 
0.28332943859257814 1:8518 2:154.44203 3:71.370552 4:0.88681808 5:8845 6:104.14151 7:0.66713659 8:373.283 9:0.76819429 10:2.1639462 
0.22746118989324193 1:8689 2:160.57674 3:69.72984 4:0.90079423 5:8864 6:105.18164 7:0.5573802 8:376.976 9:0.7683379 10:2.3028411 
0.27803800009459101 1:9174 2:160.88994 3:74.07293 4:0.88771415 5:9488 6:108.07729 7:0.67515455 8:388.698 9:0.76303417 10:2.1720478 
0.28268985398616941 1:9621 2:162.30027 3:76.668601 4:0.88139104 5:9927 6:110.67898 7:0.60861589 8:394.002 9:0.77881306 10:2.1169067 
0.28340305454695902 1:9203 2:157.08947 3:75.884609 4:0.87558385 5:9597 6:108.24797 7:0.62010646 8:386.202 9:0.77537224 10:2.0701098 
0.28340561627775007 1:6330 2:119.30604 3:69.592246 4:0.81225057 5:6457 6:89.77531 7:0.61852648 8:307.43 9:0.84162976 10:1.7143582 
0.28340781440491608 1:6591 2:127.69681 3:66.695001 4:0.85276683 5:6776 6:91.607433 7:0.62807318 8:317.719 9:0.82049285 10:1.9146385 
0.28339574008470558 1:9199 2:160.62254 3:74.014177 4:0.88750623 5:9425 6:108.22445 7:0.57486564 8:387.184 9:0.77110883 10:2.1701591 
0.27271793410964423 1:9661 2:162.13722 3:76.729507 4:0.88093458 5:9946 6:110.90882 7:0.60036043 8:395.426 9:0.77642856 10:2.1131014 
0.28244576075267225 1:8717 2:163.3841 3:68.983352 4:0.90649534 5:8914 6:105.35098 7:0.56442631 8:383.069 9:0.74648811 10:2.368457 
0.28263859131803176 1:7425 2:128.69837 3:75.972556 4:0.8071731 5:7650 6:97.230672 7:0.80741627 8:338.728 9:0.81321265 10:1.6940114 
0.28275815963148782 1:9309 2:166.01907 3:72.275044 4:0.90026525 5:9507 6:108.86959 7:0.57608763 8:393.062 9:0.75716543 10:2.2970456 
0.27882237856259295 1:9223 2:160.51751 3:74.002964 4:0.88738592 5:9482 6:108.36553 7:0.56742956 8:386.29 9:0.77670328 10:2.1690686 
0.28341473603617262 1:6507 2:133.38787 3:63.913732 4:0.8777292 5:6740 6:91.021809 7:0.57737356 8:326.468 9:0.76720148 10:2.0869986 
0.28341735394258832 1:10014 2:168.24947 3:76.877131 4:0.88950601 5:10321 6:112.91688 7:0.55847415 8:404.268 9:0.76997871 10:2.1885503 
0.28292018924264162 1:8711 2:165.32574 3:68.227158 4:0.91087462 5:8965 6:105.31472 7:0.5511547 8:387.777 9:0.72797051 10:2.4231662 
0.22572417933726924 1:8992 2:160.0178 3:72.690461 4:0.89086668 5:9278 6:106.99986 7:0.58359294 8:383.176 9:0.76960798 10:2.2013589 
0.26837279480916587 1:8588 2:156.34187 3:70.605649 4:0.89221513 5:8823 6:104.56855 7:0.56798942 8:373.868 9:0.77208535 10:2.2142969 
0.21210977634107556 1:9729 2:169.42611 3:74.121339 4:0.89922583 5:9999 6:111.29846 7:0.55997467 8:402.29 9:0.75543933 10:2.285794 
0.20953979431600053 1:9045 2:160.44761 3:72.495223 4:0.89210349 5:9247 6:107.31473 7:0.77927113 8:382.355 9:0.77747223 10:2.2132163 
0.2801413096432161 1:8067 2:150.33132 3:69.095154 4:0.88811611 5:8323 6:101.34704 7:0.61958525 8:361.069 9:0.77757361 10:2.1757143 
0.28272488559530728 1:9176 2:160.51296 3:73.393613 4:0.8893412 5:9355 6:108.08907 7:0.597046 8:386.014 9:0.77385066 10:2.1870153 
0.27973301193290068 1:6982 2:140.21477 3:64.453302 4:0.88808693 5:7188 6:94.285516 7:0.62776479 8:340.525 9:0.7566442 10:2.1754475 
0.28258712659465279 1:8678 2:155.4297 3:71.381962 4:0.88830416 5:8810 6:105.11505 7:0.79294591 8:370.239 9:0.79554579 10:2.1774366 
0.27112679409238061 1:8424 2:152.5378 3:71.035961 4:0.88494574 5:8687 6:103.56529 7:0.62234043 8:377.138 9:0.74426507 10:2.1473321 
0.28250115564828021 1:10023 2:171.54523 3:75.28557 4:0.89855194 5:10263 6:112.96761 7:0.77022977 8:411.342 9:0.74439163 10:2.2785937 
0.2825394293711635 1:8080 2:149.53056 3:69.572613 4:0.88516695 5:8234 6:101.42867 7:0.72792793 8:358.851 9:0.78848403 10:2.1492733 
0.2830574970629583 1:7931 2:150.17968 3:68.204631 4:0.89092344 5:8135 6:100.48912 7:0.80111111 8:364.292 9:0.75099759 10:2.2018985 
0.28310067193298305 1:9942 2:167.23881 3:76.737183 4:0.88851482 5:10122 6:112.51021 7:0.64462167 8:400.839 9:0.7775775 10:2.1793713 
0.28342082465999308 1:7594 2:147.53038 3:66.632077 4:0.89219526 5:7782 6:98.330977 7:0.73763963 8:351.474 9:0.7724921 10:2.2141044 
0.28294803176155481 1:9936 2:171.74397 3:74.435748 4:0.90119631 5:10207 6:112.47626 7:0.74371257 8:405.908 9:0.75782028 10:2.3072781 
0.28159548441287624 1:9478 2:165.14705 3:74.354054 4:0.89291293 5:9744 6:109.85338 7:0.58140106 8:397.899 9:0.75228235 10:2.22109 
0.28294659587098969 1:7783 2:148.04482 3:67.340792 4:0.89055908 5:7943 6:99.547091 7:0.71181635 8:357.155 9:0.76673171 10:2.1984419 
0.28283130650291477 1:8111 2:156.34019 3:66.615326 4:0.90467977 5:8293 6:101.62306 7:0.55214432 8:371.352 9:0.73911622 10:2.3469103 
0.27120864468854633 1:9016 2:160.75113 3:72.306749 4:0.89312652 5:9322 6:107.14256 7:0.63225806 8:386.855 9:0.75705484 10:2.2231829 
0.2525604339724854 1:9428 2:162.38858 3:75.080193 4:0.88669804 5:9755 6:109.56323 7:0.70201042 8:392.444 9:0.76926159 10:2.1628684 
0.28314864335574863 1:7468 2:150.82621 3:64.014313 4:0.90546341 5:7640 6:97.511809 7:0.55195861 8:355.647 9:0.74195211 10:2.3561326 
0.28288774779690945 1:10157 2:166.17913 3:78.583195 4:0.88112553 5:10402 6:113.72024 7:0.60325474 8:405.968 9:0.77444702 10:2.1146905 
0.28177864539798292 1:9215 2:164.84449 3:72.067487 4:0.89937175 5:9467 6:108.31852 7:0.55646135 8:390.963 9:0.75758939 10:2.2873628 
0.28274306803522131 1:6445 2:135.91969 3:61.791283 4:0.89068747 5:6600 6:90.587134 7:0.60414323 8:325.383 9:0.76496765 10:2.199658 
0.27961524219971989 1:8437 2:157.11317 3:69.304957 4:0.89745065 5:8679 6:103.64517 7:0.77162978 8:372.761 9:0.76302185 10:2.2669832 
0.27105634292074099 1:8869 2:156.91197 3:73.157929 4:0.88466065 5:9084 6:106.26552 7:0.5853739 8:375.57 9:0.7901376 10:2.1448389 
0.28172245480626013 1:8906 2:157.29815 3:73.237162 4:0.88499814 5:9142 6:106.48695 7:0.58469013 8:379.375 9:0.77759801 10:2.1477914 
0.25281116545828214 1:8316 2:160.28166 3:66.502696 4:0.90986179 5:8545 6:102.89927 7:0.55495496 8:375.108 9:0.74269704 10:2.4101528 
0.27729510400710367 1:8594 2:156.34812 3:71.017475 4:0.89088618 5:8828 6:104.60507 7:0.58462585 8:376.817 9:0.76057884 10:2.2015443 
0.28292610093497972 1:6809 2:130.32879 3:67.274466 4:0.85647388 5:6967 6:93.110086 7:0.66158181 8:323.017 9:0.82005398 10:1.9372698 
0.28337561113829707 1:9916 2:158.49286 3:80.410568 4:0.861743 5:10125 6:112.363 7:0.78474201 8:389.153 9:0.82282147 10:1.9710451 
0.27732221731946821 1:8050 2:147.62785 3:70.580373 4:0.87830726 5:8281 6:101.2402 7:0.5785124 8:357.682 9:0.7906997 10:2.0916275 
0.28337642994464241 1:8800 2:154.57925 3:73.588781 4:0.87941356 5:9097 6:105.85135 7:0.59863946 8:389.455 9:0.72908467 10:2.1005818 
0.28264657172845575 1:8725 2:159.07314 3:70.939522 4:0.89505519 5:8924 6:105.39931 7:0.59965636 8:379.04 9:0.76314175 10:2.2423768 
0.28267128258807495 1:7373 2:152.08518 3:62.568762 4:0.91145218 5:7525 6:96.889603 7:0.65977629 8:355.13 9:0.73464813 10:2.4306887 
0.2108190378724551 1:8464 2:155.65039 3:70.266223 4:0.8923034 5:8667 6:103.81088 7:0.60804598 8:372.118 9:0.76811131 10:2.2151524 
0.28324359917169917 1:8125 2:151.56618 3:69.535589 4:0.8885497 5:8383 6:101.71072 7:0.6411774 8:364.062 9:0.77034015 10:2.1796922 
0.24607044634632938 1:8182 2:150.14177 3:69.916355 4:0.88495902 5:8345 6:102.06687 7:0.61371137 8:360.797 9:0.78984797 10:2.1474485 
0.28281666829430357 1:9014 2:156.32658 3:74.528983 4:0.87903794 5:9285 6:107.13067 7:0.60774002 8:378.643 9:0.7900736 10:2.0975273 
0.28331087491699303 1:7318 2:147.89221 3:63.790051 4:0.90219519 5:7468 6:96.527545 7:0.71576682 8:347.595 9:0.76112367 10:2.3184212 
0.28341826262816616 1:5619 2:125.29473 3:58.001979 4:0.8863978 5:5805 6:84.58329 7:0.58458177 8:303.494 9:0.76659976 10:2.1601802 
0.17732735071563788 1:8932 2:162.27322 3:71.252114 4:0.8984444 5:9234 6:106.64228 7:0.56646372 8:387.642 9:0.74695928 10:2.2774514 
0.27810801982107547 1:7911 2:150.57502 3:67.630312 4:0.89345789 5:8141 6:100.36233 7:0.60985199 8:358.844 9:0.77202234 10:2.2264428 
0.28118637473876429 1:7862 2:148.92858 3:68.187597 4:0.88902722 5:8088 6:100.05103 7:0.56724387 8:356.92 9:0.77553452 10:2.1841007 
0.21967061884783509 1:9076 2:165.08494 3:70.89753 4:0.90308545 5:9276 6:107.49847 7:0.80697075 8:388.524 9:0.75555946 10:2.3285006 
0.28210782191808126 1:7877 2:145.09002 3:70.33164 4:0.87465561 5:8073 6:100.14643 7:0.64804607 8:353.088 9:0.79397128 10:2.062941 
0.2834208136664228 1:7995 2:153.26868 3:67.768641 4:0.89693825 5:8300 6:100.89376 7:0.63241576 8:367.155 9:0.74529711 10:2.2616461 
0.28268681342272012 1:8546 2:148.79311 3:73.83238 4:0.86820348 5:8791 6:104.31254 7:0.62553067 8:366.04 9:0.80152239 10:2.0152825 
0.28331934289385685 1:9571 2:172.29352 3:71.41976 4:0.91003848 5:9809 6:110.39101 7:0.72070783 8:408.133 9:0.72204416 10:2.4124069 
0.28266425985534971 1:8984 2:169.66045 3:68.263439 4:0.91548448 5:9197 6:106.95225 7:0.75041764 8:393.039 9:0.73081645 10:2.485378 
0.28329118767035222 1:6960 2:138.3098 3:64.442877 4:0.88482085 5:7107 6:94.136854 7:0.60296283 8:332.605 9:0.79060864 10:2.1462388 
0.28329995081990478 1:9305 2:164.70611 3:72.759415 4:0.89713673 5:9492 6:108.84619 7:0.74595158 8:392.469 9:0.7591289 10:2.2637086 
0.24460366264494449 1:8207 2:149.90792 3:70.42662 4:0.88277331 5:8417 6:102.22268 7:0.69146516 8:361.515 9:0.78911746 10:2.128569 
0.2828799555925976 1:10094 2:166.57724 3:77.853204 4:0.88406181 5:10313 6:113.36701 7:0.64292994 8:400.923 9:0.78913485 10:2.1396325 
0.28063156151698732 1:9415 2:160.8395 3:75.968468 4:0.88142463 5:9736 6:109.48767 7:0.78951782 8:388.424 9:0.78418418 10:2.1171876 
0.21240982562570074 1:8666 2:156.00946 3:71.633679 4:0.88835234 5:8916 6:105.04234 7:0.78156566 8:374.845 9:0.77504176 10:2.1778787 
0.28265635223265873 1:9528 2:165.30571 3:74.037269 4:0.89409323 5:9763 6:110.14275 7:0.5533101 8:408.379 9:0.71793448 10:2.2327364 
0.28299885037793604 1:8956 2:160.56457 3:71.818339 4:0.89439082 5:9328 6:106.78545 7:0.64823393 8:384.109 9:0.76280755 10:2.2357043 
0.28330725435500292 1:8097 2:162.68883 3:64.105248 4:0.91909502 5:8260 6:101.53532 7:0.53551587 8:376.338 9:0.71841908 10:2.5378394 
0.28335050438590448 1:8620 2:149.40433 3:74.191103 4:0.86799135 5:8778 6:104.76318 7:0.80893393 8:363.011 9:0.82201087 10:2.013777 
0.27976760883327789 1:9124 2:159.52688 3:73.36747 4:0.88796727 5:9300 6:107.78236 7:0.67445299 8:382.868 9:0.78216252 10:2.1743543 
0.28342907895467973 1:7898 2:153.38702 3:67.074017 4:0.89932243 5:8220 6:100.27984 7:0.69280702 8:382.033 9:0.68002556 10:2.2868322 
0.28291568680187351 1:8038 2:154.60366 3:67.020287 4:0.90115481 5:8222 6:101.16471 7:0.58145255 8:365.172 9:0.75746562 10:2.3068189 
0.28328050726593362 1:9649 2:158.0559 3:78.243206 4:0.86887302 5:9832 6:110.83992 7:0.61615581 8:385.36 9:0.8165051 10:2.0200591 
0.28087912188246139 1:8967 2:159.12462 3:72.908995 4:0.8888553 5:9235 6:106.85101 7:0.5811783 8:381.665 9:0.77355708 10:2.1825101 
0.26012050710975687 1:9024 2:159.93683 3:72.805335 4:0.89038254 5:9296 6:107.19008 7:0.58054555 8:386.791 9:0.75797735 10:2.1967735 
0.28342313814701553 1:10022 2:169.04217 3:76.486535 4:0.89177955 5:10299 6:112.96197 7:0.5691731 8:406.857 9:0.76081782 10:2.2100906 
0.28289101598980959 1:9013 2:161.30527 3:71.759273 4:0.895597 5:9184 6:107.12473 7:0.57247205 8:380.964 9:0.7803894 10:2.2478665 
0.2812807823091299 1:8978 2:152.50125 3:75.61876 4:0.86840439 5:9150 6:106.91653 7:0.61959972 8:375.237 9:0.80126866 10:2.0167119 
0.19725395537718934 1:9104 2:162.27093 3:72.491887 4:0.894667 5:9369 6:107.66417 7:0.62351894 8:386.64 9:0.76529442 10:2.2384703 
0.26801547445270213 1:8873 2:157.519 3:72.839871 4:0.88666122 5:9084 6:106.28948 7:0.58348129 8:379.416 9:0.7745493 10:2.1625382 
0.2834314266773918 1:8894 2:160.98555 3:71.814507 4:0.89498667 5:9543 6:106.41519 7:0.6622487 8:428.329 9:0.60918897 10:2.2416856 
0.28333809593463422 1:7140 2:147.76726 3:62.301502 4:0.90677303 5:7387 6:95.34637 7:0.64463705 8:349.886 9:0.73291725 10:2.371809 
0.26808973809915854 1:8981 2:161.58704 3:71.573678 4:0.89655029 5:9203 6:106.93439 7:0.65004343 8:383.381 9:0.7678447 10:2.2576322 
0.21857056013345347 1:8819 2:158.03205 3:71.878235 4:0.8905766 5:9052 6:105.96556 7:0.75908074 8:378.41 9:0.77393413 10:2.1986078 
0.17655872814029247 1:8827 2:161.74253 3:70.381976 4:0.90035883 5:9081 6:106.01361 7:0.61779115 8:383.704 9:0.75340819 10:2.2980675 
0.28110639484754962 1:7840 2:152.44968 3:66.111058 4:0.90107743 5:7977 6:99.91095 7:0.6833435 8:359.347 9:0.76295317 10:2.3059634 
0.28220865965631392 1:8169 2:151.13936 3:69.55216 4:0.88782272 5:8373 6:101.98575 7:0.69399371 8:364.103 9:0.77433742 10:2.1730361 
0.28335112967750897 1:5814 2:117.03019 3:64.399368 4:0.83498023 5:5979 6:86.038449 7:0.66819906 8:295.932 9:0.83425925 10:1.8172569 
0.2818494289414013 1:9511 2:163.41043 3:74.875188 4:0.88884745 5:9752 6:110.04445 7:0.59503253 8:390.363 9:0.78432986 10:2.1824377 
0.28326622876824847 1:9765 2:169.76771 3:74.140082 4:0.89959999 5:9967 6:111.50419 7:0.78547297 8:402.129 9:0.75884194 10:2.2898236 
0.2829712555363334 1:7934 2:146.83074 3:70.168441 4:0.87842154 5:8237 6:100.50812 7:0.60325426 8:361.963 9:0.7609808 10:2.0925467 
0.27698357193364853 1:8051 2:145.18757 3:71.65772 4:0.86971588 5:8271 6:101.24649 7:0.60010435 8:359.352 9:0.78346492 10:2.026126 
0.23153456023851149 1:8892 2:165.11995 3:69.456235 4:0.90722714 5:9116 6:106.40322 7:0.6946875 8:387.532 9:0.74403639 10:2.3773237 
0.24491050658006999 1:9246 2:158.74296 3:75.248464 4:0.88051025 5:9492 6:108.50057 7:0.58371212 8:384.519 9:0.78582917 10:2.109584 
0.27096160867716645 1:9305 2:161.45235 3:74.163376 4:0.88825459 5:9509 6:108.84619 7:0.81280573 8:385.332 9:0.78751002 10:2.1769822 
0.28324710473557235 1:8689 2:156.58909 3:71.798584 4:0.88868621 5:9009 6:105.18164 7:0.57764925 8:379.935 9:0.75641661 10:2.1809495 
0.20990933227687189 1:9101 2:161.42304 3:72.572241 4:0.8932411 5:9370 6:107.64643 7:0.56824426 8:386.568 9:0.76532725 10:2.2243083 
0.28237436724371207 1:8800 2:161.32785 3:70.275377 4:0.90013745 5:8972 6:105.85135 7:0.66793169 8:380.503 9:0.76379422 10:2.2956526 
0.28326791640144405 1:9477 2:166.31505 3:73.109106 4:0.89820246 5:9660 6:109.84758 7:0.56833583 8:392.076 9:0.7747119 10:2.2748883 
0.28343276734622735 1:8786 2:154.0058 3:73.125965 4:0.88007967 5:8913 6:105.76712 7:0.61855815 8:371.078 9:0.80180849 10:2.1060344 
0.2831868523548019 1:9046 2:159.62163 3:73.350247 4:0.88816445 5:9293 6:107.32066 7:0.70682919 8:384.407 9:0.76927899 10:2.1761567 
0.25993266370761203 1:8552 2:159.08603 3:68.98922 4:0.90107666 5:8706 6:104.34915 7:0.56982942 8:376.894 9:0.75655257 10:2.3059548 
0.27178871678695393 1:8869 2:164.47907 3:69.282189 4:0.90695761 5:9056 6:106.26552 7:0.64860319 8:385.242 9:0.75096079 10:2.3740456 
0.27987524892845389 1:8748 2:158.27108 3:70.779721 4:0.89443116 5:8905 6:105.53814 7:0.61770936 8:373.665 9:0.78732456 10:2.2361077 
0.28248873281919995 1:8838 2:148.54012 3:76.761118 4:0.8561241 5:9064 6:106.07965 7:0.61899426 8:373.089 9:0.79788256 10:1.9350958 
0.28263210406715539 1:9140 2:163.29922 3:72.57893 4:0.89580186 5:9398 6:107.87683 7:0.56225394 8:389.861 9:0.75567747 10:2.2499535 
0.28291897504080188 1:8243 2:155.13687 3:68.105158 4:0.89848683 5:8384 6:102.44664 7:0.56439575 8:364.843 9:0.77818549 10:2.2779019 
0.27992012977124398 1:8805 2:157.11127 3:72.465261 4:0.88727787 5:9049 6:105.88142 7:0.65087226 8:378.055 9:0.77415737 10:2.1680909 
0.28005945562366247 1:8353 2:149.66177 3:72.282289 4:0.87563636 5:8618 6:103.12793 7:0.58152325 8:365.959 9:0.78376792 10:2.0705178 
0.23741964933847573 1:8693 2:159.25231 3:70.131335 4:0.89781209 5:8904 6:105.20585 7:0.7482355 8:376.499 9:0.77064061 10:2.2707725 
0.28287470956652849 1:8136 2:162.14617 3:65.791439 4:0.91398237 5:8540 6:101.77955 7:0.52173913 8:383.884 9:0.69377841 10:2.4645481 
0.28286065598758614 1:6574 2:134.10932 3:62.744375 4:0.88380263 5:6667 6:91.489217 7:0.69272919 8:317.534 9:0.81933045 10:2.1373918 
0.26827326479450442 1:9112 2:162.31829 3:72.080676 4:0.89599212 5:9261 6:107.71146 7:0.56582216 8:386.313 9:0.76726419 10:2.2518974 
0.28304007895646915 1:9296 2:159.92796 3:74.833346 4:0.88377132 5:9501 6:108.79354 7:0.80596497 8:388.739 9:0.77301826 10:2.1371217 
0.2834331243365189 1:7683 2:147.82357 3:67.464301 4:0.88978296 5:8022 6:98.905508 7:0.60792847 8:373.971 9:0.69034287 10:2.1911377 
0.28312806069905883 1:9063 2:159.88752 3:72.752453 4:0.89047983 5:9253 6:107.42146 7:0.7496898 8:379.75 9:0.7897439 10:2.1976924 
0.2834385465989559 1:9633 2:163.74106 3:75.17498 4:0.88837999 5:9795 6:110.74799 7:0.73422256 8:390.071 9:0.79558044 10:2.1781325 
0.28343726023140225 1:9435 2:163.24322 3:74.262877 4:0.89053145 5:9577 6:109.6039 7:0.5928742 8:388.039 9:0.78741016 10:2.1981806 
0.28289471626667839 1:9610 2:172.78776 3:71.855231 4:0.90942941 5:9859 6:110.6157 7:0.56729634 8:403.671 9:0.74110228 10:2.4046651 
0.281564113016045 1:9101 2:163.89336 3:72.009118 4:0.8983083 5:9409 6:107.64643 7:0.68936525 8:394.032 9:0.73660726 10:2.2760085 
0.28310844152036418 1:7634 2:145.35365 3:67.624792 4:0.88518292 5:7941 6:98.589607 7:0.61169872 8:350.832 9:0.77940578 10:2.1494136 
0.2832802292053786 1:9563 2:165.32234 3:74.342838 4:0.89318764 5:9921 6:110.34487 7:0.62503268 8:406.794 9:0.72619782 10:2.2237831 
0.27820370129655481 1:6464 2:127.19756 3:65.248907 4:0.85840477 5:6564 6:90.720562 7:0.63522013 8:311.136 9:0.83909413 10:1.9494205 
0.28327997669968963 1:7037 2:140.34799 3:65.211888 4:0.88549744 5:7203 6:94.65615 7:0.60222507 8:340.832 9:0.76123139 10:2.1521842 
0.24121835140019213 1:8924 2:159.60433 3:71.968596 4:0.89256497 5:9186 6:106.59451 7:0.56660317 8:381.186 9:0.77178359 10:2.2176941 
0.26535003786668621 1:6753 2:139.09145 3:62.380296 4:0.89379084 5:6881 6:92.726407 7:0.64271438 8:328.724 9:0.78531481 10:2.2297337 
0.28303107865408983 1:8494 2:159.19723 3:68.679102 4:0.9021565 5:8696 6:103.9947 7:0.58644021 8:376.669 9:0.75231958 10:2.3179864 
0.28310214816413015 1:7845 2:149.56399 3:67.646937 4:0.89186876 5:8025 6:99.942805 7:0.7360668 8:356.626 9:0.77513404 10:2.2109499 
0.26615703818036102 1:8651 2:157.84022 3:70.486702 4:0.89474871 5:8811 6:104.95139 7:0.58295148 8:372.888 9:0.78184266 10:2.2392907 
0.28285911905448924 1:8923 2:163.79001 3:69.752297 4:0.9047871 5:9157 6:106.58854 7:0.75363176 8:388.251 9:0.74386751 10:2.3481665 
0.28285029719173982 1:9214 2:158.58367 3:74.913755 4:0.88138823 5:9423 6:108.31265 7:0.78752137 8:380.519 9:0.79966001 10:2.1168832 
0.28303393346679334 1:9157 2:164.93625 3:71.261976 4:0.90184596 5:9339 6:107.9771 7:0.56668111 8:393.383 9:0.74358719 10:2.3145056 
0.28325182149115347 1:8196 2:159.73425 3:66.390991 4:0.90953194 5:8370 6:102.15415 7:0.52884243 8:373.984 9:0.73638642 10:2.4059627 
0.26887430921092725 1:7043 2:141.5306 3:64.042846 4:0.8917635 5:7163 6:94.696495 7:0.61115932 8:335.92 9:0.78432459 10:2.2099361 
0.28295791108905299 1:8252 2:154.85286 3:69.049547 4:0.89508066 5:8432 6:102.50255 7:0.57020453 8:367.671 9:0.76709708 10:2.2426339 
0.28304801418004299 1:6822 2:133.88989 3:65.309013 4:0.87296576 5:6968 6:93.198928 7:0.6323693 8:325.318 9:0.810038 10:2.0500983 
0.28322290216917601 1:7905 2:146.03985 3:69.859848 4:0.87816299 5:8137 6:100.32427 7:0.68727178 8:354.989 9:0.78828261 10:2.090469 
0.2350456864794146 1:9458 2:166.53858 3:73.088598 4:0.89855112 5:9647 6:109.73741 7:0.5511655 8:393.485 9:0.76763154 10:2.2785849 
0.28137780322345929 1:8754 2:152.71303 3:73.939832 4:0.87497118 5:9002 6:105.57433 7:0.67986952 8:369.487 9:0.80578296 10:2.0653689 
0.282917633603049 1:5834 2:128.12014 3:58.944998 4:0.88787955 5:6002 6:86.186307 7:0.57876984 8:306.215 9:0.78184987 10:2.173554 
0.2688177858625288 1:7394 2:150.71269 3:62.994298 4:0.90845803 5:7543 6:97.027487 7:0.57229102 8:352.981 9:0.74573865 10:2.3924814 
0.28343411326936419 1:6559 2:125.79426 3:67.39901 4:0.84435279 5:6678 6:91.384781 7:0.59768544 8:319.299 9:0.80844853 10:1.8664112 
0.24771823173788371 1:8330 2:159.10978 3:67.627502 4:0.9051761 5:8512 6:102.98585 7:0.81110029 8:371.272 9:0.75939979 10:2.3527378 
0.28081606955081528 1:8458 2:155.23361 3:70.680934 4:0.89032797 5:8741 6:103.77408 7:0.62054292 8:374.151 9:0.75924812 10:2.1962586 
0.28317385748711021 1:9353 2:163.45075 3:73.623181 4:0.89281156 5:9541 6:109.12658 7:0.56234969 8:388.58 9:0.77839477 10:2.2200989 
0.28304997192533832 1:8914 2:159.21357 3:71.827752 4:0.89245274 5:9091 6:106.53477 7:0.6632934 8:377.981 9:0.78404783 10:2.2166025 
0.2786601463850098 1:8637 2:146.94357 3:75.562501 4:0.85765352 5:8794 6:104.86644 7:0.6493985 8:368.414 9:0.79965109 10:1.9446627 
0.28240681457189981 1:8339 2:159.78446 3:66.922811 4:0.90806384 5:8526 6:103.04147 7:0.56154882 8:372.188 9:0.75648288 10:2.3875934 
0.28328003473405949 1:7691 2:140.45932 3:70.612538 4:0.86444588 5:7876 6:98.956987 7:0.63546228 8:343.519 9:0.81901367 10:1.9891555 
0.26600014042605041 1:7821 2:152.74412 3:66.758769 4:0.89943101 5:8058 6:99.789811 7:0.55279898 8:363.023 9:0.74576821 10:2.2880009 
0.27374893770348196 1:9771 2:166.91812 3:75.334013 4:0.89236058 5:10011 6:111.53844 7:0.58425018 8:398.873 9:0.77175526 10:2.2157073 
0.23667710673069076 1:8990 2:161.69363 3:71.787647 4:0.89604004 5:9258 6:106.98796 7:0.58643183 8:387.741 9:0.7514258 10:2.2523879 
0.28343164249164787 1:6673 2:133.7596 3:64.447163 4:0.87627385 5:6822 6:92.175525 7:0.58990453 8:324.46 9:0.79654197 10:2.0754924 
0.27017596956967332 1:8363 2:152.3303 3:70.593844 4:0.88613555 5:8584 6:103.18964 7:0.57883444 8:364.52 9:0.79091395 10:2.1578412 
0.28332098020636332 1:7983 2:152.58974 3:67.630263 4:0.89641469 5:8274 6:100.81801 7:0.73427152 8:364.921 9:0.75331789 10:2.2562346 
0.25021723731503143 1:8449 2:153.73423 3:70.78451 4:0.88769379 5:8632 6:103.71886 7:0.57743302 8:367.226 9:0.78731464 10:2.1718625 
0.28343527407551983 1:6374 2:140.05423 3:58.309996 4:0.90920959 5:6517 6:90.086785 7:0.56946306 8:326.442 9:0.75163996 10:2.4018906 
0.2815329811174786 1:8398 2:147.56123 3:73.177319 4:0.86837303 5:8567 6:103.40535 7:0.80440613 8:358.694 9:0.82023351 10:2.0164886 
0.28320492868040092 1:9324 2:162.76659 3:73.741145 4:0.89148592 5:9519 6:108.95726 7:0.56715328 8:387.306 9:0.78109468 10:2.2072696 
0.28290177539362416 1:8170 2:156.09638 3:67.602287 4:0.90135528 5:8377 6:101.992 7:0.71192053 8:373.531 9:0.73583191 10:2.3090399 
0.2824731055809323 1:8295 2:153.55427 3:69.535872 4:0.89159061 5:8563 6:102.76927 7:0.61755509 8:367.421 9:0.77214401 10:2.2082741 
0.28155587480504485 1:8099 2:151.24347 3:69.353605 4:0.88866549 5:8340 6:101.54786 7:0.68804689 8:363.962 9:0.76829707 10:2.1807585 
0.28090676543809889 1:8379 2:154.96968 3:69.771579 4:0.89291399 5:8685 6:103.28831 7:0.79891304 8:369.692 9:0.77041007 10:2.2211004 
0.2829388804068434 1:9591 2:168.44613 3:73.157079 4:0.90076564 5:9809 6:110.50629 7:0.5696383 8:395.954 9:0.76874851 10:2.3025267 
0.28222472079530231 1:9348 2:161.02449 3:74.614405 4:0.88616333 5:9525 6:109.0974 7:0.58188609 8:384.758 9:0.79351155 10:2.1580886 
0.28342030108386407 1:7968 2:146.64601 3:69.912381 4:0.87904301 5:8127 6:100.72325 7:0.60090498 8:353.058 9:0.80328023 10:2.0975685 
0.28327704341311416 1:7867 2:142.37905 3:71.478023 4:0.86485238 5:8145 6:100.08284 7:0.60890093 8:355.513 9:0.7821824 10:1.9919277 
0.27520293512024135 1:9463 2:163.52309 3:74.853912 4:0.88907711 5:9794 6:109.76641 7:0.63995401 8:395.1 9:0.76177137 10:2.184563 
0.25087331526120793 1:8618 2:160.66394 3:69.261422 4:0.90230654 5:8885 6:104.75103 7:0.73708519 8:381.933 9:0.74240688 10:2.3196742 
0.27620197578703443 1:6656 2:137.44541 3:62.313905 4:0.89132138 5:6879 6:92.058038 7:0.69901281 8:330.559 9:0.76546477 10:2.2056941 
0.24706233710498599 1:8910 2:158.31546 3:72.355592 4:0.88944908 5:9153 6:106.51086 7:0.7724987 8:382.487 9:0.76533964 10:2.1880197 
0.28183630680429306 1:9092 2:167.5945 3:70.334176 4:0.90767733 5:9437 6:107.59319 7:0.58282051 8:394.588 9:0.73380648 10:2.3828317 
0.25003860958926227 1:9199 2:157.86423 3:75.14244 4:0.87944849 5:9433 6:108.22445 7:0.7374539 8:381.718 9:0.79335069 10:2.1008665 
0.24999907045134115 1:9935 2:165.83855 3:76.841818 4:0.88617371 5:10129 6:112.4706 7:0.58441176 8:403.283 9:0.76764055 10:2.158181 
0.28270426418952876 1:9433 2:165.11376 3:73.764111 4:0.89466023 5:9710 6:109.59228 7:0.66242978 8:393.644 9:0.76498413 10:2.2384023 
0.24965605184202366 1:7243 2:146.31633 3:64.098194 4:0.89893621 5:7447 6:96.03163 7:0.79141171 8:345.271 9:0.76349842 10:2.2826904 
0.253483163706131 1:7994 2:159.2051 3:64.686102 4:0.91373675 5:8160 6:100.88745 7:0.54425381 8:374.542 9:0.71609882 10:2.4611949 
0.2498201259757542 1:9192 2:167.80083 3:70.638379 4:0.90707659 5:9422 6:108.18326 7:0.64149627 8:394.024 9:0.74400273 10:2.3754909 
0.25001097801919314 1:8887 2:154.653 3:74.243441 4:0.8772331 5:9115 6:106.3733 7:0.77983503 8:378.228 9:0.78065239 10:2.0830527 
0.28337976497368655 1:7047 2:140.45631 3:64.596385 4:0.88796876 5:7199 6:94.723382 7:0.63658537 8:336.87 9:0.78035005 10:2.1743679 
0.25007646137162287 1:8814 2:160.37727 3:70.735447 4:0.8974793 5:9061 6:105.93551 7:0.76991614 8:384.463 9:0.74933119 10:2.2672828 
0.28129944995720702 1:7936 2:146.18981 3:69.592166 4:0.87942375 5:8073 6:100.52079 7:0.74995275 8:350.118 9:0.813547 10:2.1006648 
0.24359238883252621 1:8001 2:150.75752 3:68.498667 4:0.89081654 5:8229 6:100.93161 7:0.76711409 8:360.753 9:0.77256358 10:2.2008826 
0.24968357244254213 1:8623 2:157.24037 3:70.614908 4:0.89348707 5:8834 6:104.78141 7:0.80109625 8:374.878 9:0.7710603 10:2.2267305 
0.25007223318190497 1:8731 2:157.27158 3:71.670762 4:0.89012658 5:8988 6:105.43555 7:0.76668423 8:375.672 9:0.77742088 10:2.1943618 
0.24857192928125238 1:9240 2:162.50662 3:73.317957 4:0.89243851 5:9447 6:108.46536 7:0.58113208 8:388.537 9:0.76916067 10:2.2164641 
0.2766240329581513 1:6232 2:126.64329 3:64.295121 4:0.86154173 5:6474 6:89.077656 7:0.6829589 8:317.443 9:0.7771517 10:1.9697185 
0.24999136179133991 1:7482 2:148.24728 3:64.84909 4:0.89924825 5:7647 6:97.603167 7:0.70213964 8:353.857 9:0.7508825 10:2.2860348 
0.2611245623428301 1:6559 2:127.49916 3:66.745087 4:0.85202916 5:6758 6:91.384781 7:0.6477385 8:319.991 9:0.80495568 10:1.9102404 
0.2447488033976371 1:8679 2:153.15962 3:72.927498 4:0.87936216 5:8833 6:105.1211 7:0.70286686 8:369.842 9:0.7973465 10:2.1001629 
0.20322654700096604 1:8781 2:159.32441 3:71.020166 4:0.8951534 5:8960 6:105.73702 7:0.58794777 8:376.238 9:0.77952227 10:2.2433687 
0.25405038591222462 1:9286 2:159.94721 3:74.466898 4:0.88501016 5:9459 6:108.73501 7:0.7346519 8:383.521 9:0.79334163 10:2.1478968 
0.2500002718507206 1:6886 2:146.10912 3:60.994869 4:0.90869481 5:7100 6:93.635076 7:0.57326007 8:342.378 9:0.73818494 10:2.3954329 
0.28223308687620074 1:8434 2:154.12349 3:71.15226 4:0.88705827 5:8756 6:103.62675 7:0.5628295 8:377.943 9:0.74197769 10:2.1661081 
0.27690564150507052 1:9179 2:167.85751 3:70.752756 4:0.90682614 5:9403 6:108.10673 7:0.56305975 8:398.85 9:0.72508019 10:2.3724519 
0.25005922321462815 1:8673 2:152.86916 3:73.298862 4:0.87754867 5:8957 6:105.08476 7:0.6645977 8:371.596 9:0.789291 10:2.0855598 
0.24999907427659562 1:6747 2:140.9427 3:61.419276 4:0.90005574 5:6872 6:92.685205 7:0.55926724 8:331.366 9:0.77215535 10:2.2947633 
0.25238390147456058 1:8615 2:159.91507 3:69.55809 4:0.90044545 5:8799 6:104.7328 7:0.61876032 8:376.997 9:0.76170947 10:2.2990147 
0.25697168113870072 1:8817 2:162.30344 3:70.134182 4:0.90181724 5:9143 6:105.95354 7:0.61165453 8:390.867 9:0.72522488 10:2.3141846 
0.24478411153896878 1:9381 2:162.44887 3:74.96442 4:0.88715857 5:9661 6:109.2898 7:0.6234051 8:389.989 9:0.77509384 10:2.167013 
0.27716104661632218 1:9008 2:162.51932 3:71.096943 4:0.89923415 5:9296 6:107.09501 7:0.76016878 8:404.329 9:0.69241817 10:2.2858833 
0.27012443650469253 1:8748 2:160.56465 3:70.17279 4:0.89944323 5:8968 6:105.53814 7:0.70983447 8:379.791 9:0.76213043 10:2.2881326 
0.15927560526808099 1:8848 2:158.84381 3:71.750899 4:0.89216622 5:9089 6:106.13964 7:0.5643577 8:379.897 9:0.77041237 10:2.2138232 
0.25000047071965281 1:8404 2:153.51223 3:70.807866 4:0.88726903 5:8637 6:103.44228 7:0.57045887 8:369.359 9:0.77410262 10:2.168011 
0.24741617255261206 1:9001 2:162.90259 3:71.055997 4:0.89985603 5:9298 6:107.05339 7:0.61684485 8:385.466 9:0.76125204 10:2.2925946 
0.27742166802797913 1:9606 2:160.73664 3:77.241449 4:0.87696919 5:9934 6:110.59267 7:0.63835726 8:404.802 9:0.7366601 10:2.0809636 
0.25679025727973481 1:7842 2:147.2609 3:69.540194 4:0.88147836 5:8094 6:99.923693 7:0.61602514 8:362.203 9:0.75116028 10:2.1176372 
0.21824110384335532 1:8631 2:157.53733 3:70.809011 4:0.89329317 5:8914 6:104.83001 7:0.55683871 8:376.804 9:0.76390609 10:2.2248204 
0.16662911275191394 1:8414 2:153.29598 3:71.324097 4:0.88516856 5:8691 6:103.5038 7:0.76331307 8:369.37 9:0.77497757 10:2.1492874 
0.25109436796681811 1:8557 2:163.00202 3:67.823561 4:0.90932329 5:8824 6:104.37965 7:0.71756813 8:385.754 9:0.7226209 10:2.4033244 
0.27142538340388878 1:6730 2:147.29342 3:59.445801 4:0.914941 5:6909 6:92.568365 7:0.72670338 8:343.303 9:0.71757902 10:2.4777768 
0.25000100691757449 1:7161 2:139.70582 3:66.029821 4:0.88125844 5:7325 6:95.486483 7:0.75753729 8:336.654 9:0.79399173 10:2.1157989 
0.25070152917357202 1:9295 2:164.2113 3:73.28498 4:0.89489107 5:9562 6:108.78769 7:0.67501816 8:393.049 9:0.75607672 10:2.2407225 
0.25004097368022288 1:7679 2:156.13345 3:63.747867 4:0.91285187 5:7883 6:98.879758 7:0.67823706 8:363.838 9:0.72895114 10:2.449234 
0.28287685976825327 1:7321 2:151.93164 3:62.473777 4:0.91154667 5:7583 6:96.547329 7:0.77932723 8:357.998 9:0.71782581 10:2.4319265 
0.25378223989519028 1:8568 2:162.47603 3:68.237831 4:0.90753009 5:8898 6:104.44672 7:0.56975662 8:387.627 9:0.71657439 10:2.3810258 
0.23931331774345049 1:9126 2:155.6434 3:75.563392 4:0.87424193 5:9309 6:107.79417 7:0.79529412 8:381.197 9:0.78920782 10:2.0597725 
0.25518312470912052 1:8288 2:152.32677 3:69.660013 4:0.88930918 5:8434 6:102.72589 7:0.58593142 8:361.552 9:0.79674266 10:2.1867175 
0.25077815913620849 1:7707 2:147.12462 3:67.181073 4:0.88965825 5:7878 6:99.059867 7:0.5996732 8:355.554 9:0.76609757 10:2.1899713 
0.27288182187780002 1:8503 2:155.19992 3:70.769192 4:0.88998629 5:8680 6:104.04978 7:0.57953926 8:372.599 9:0.76965957 10:2.1930436 
0.24098585604715539 1:9285 2:168.03181 3:71.558251 4:0.90478844 5:9581 6:108.72916 7:0.58929931 8:400.37 9:0.72789497 10:2.3481822 
0.25070222591438673 1:8097 2:150.40142 3:69.846896 4:0.88562391 5:8382 6:101.53532 7:0.5767094 8:364.645 9:0.76523262 10:2.1533015 
0.2816294937253796 1:8352 2:149.4226 3:72.23716 4:0.8753764 5:8546 6:103.12176 7:0.59129204 8:361.568 9:0.80282405 10:2.0685005 
0.24999999905823844 1:5701 2:123.89163 3:59.704369 4:0.87622182 5:5816 6:85.198231 7:0.76688189 8:300.042 9:0.79578693 10:2.0750849 
0.25316364502656008 1:9621 2:159.9406 3:77.324143 4:0.875369 5:9872 6:110.67898 7:0.60319749 8:389.083 9:0.7986299 10:2.0684432 
0.24999841869247152 1:7928 2:150.46244 3:68.119378 4:0.89164591 5:8176 6:100.47011 7:0.77847604 8:362.01 9:0.76020789 10:2.2088052 
0.23775259278419542 1:8186 2:148.79387 3:70.803653 4:0.87952613 5:8348 6:102.09182 7:0.60637037 8:358.294 9:0.80131364 10:2.1014999 
0.28130673375017157 1:7209 2:150.53275 3:61.323268 4:0.91326101 5:7329 6:95.80597 7:0.79639859 8:345.858 9:0.75733711 10:2.4547412 
0.28302090539136832 1:8176 2:162.06552 3:64.725523 4:0.91678603 5:8386 6:102.02944 7:0.58609319 8:381.704 9:0.70517568 10:2.503889 
0.2500097530473217 1:9200 2:165.73569 3:71.024699 4:0.90352188 5:9333 6:108.23033 7:0.62398264 8:386.84 9:0.77256485 10:2.3334938 
0.25016359072538019 1:8241 2:149.47809 3:70.99789 4:0.88000098 5:8431 6:102.43421 7:0.61661055 8:358.398 9:0.80622939 10:2.1053878 
0.20572149335443302 1:8814 2:156.24699 3:72.693182 4:0.88518179 5:9007 6:105.93551 7:0.80610938 8:373.191 9:0.79528096 10:2.1494037 
0.2499999743209218 1:8764 2:160.41757 3:70.483905 4:0.89830242 5:9034 6:105.63461 7:0.54836691 8:381.93 9:0.75499606 10:2.2759461 
0.24998765864139741 1:9354 2:165.8445 3:73.04832 4:0.8977709 5:9673 6:109.13241 7:0.74593301 8:397.968 9:0.74218287 10:2.2703397 
0.2500440353649343 1:9512 2:167.87375 3:72.948271 4:0.90065136 5:9738 6:110.05024 7:0.69471224 8:395.769 9:0.76312935 10:2.3012712 
0.27790781778836465 1:10127 2:171.96312 3:75.735603 4:0.89779299 5:10348 6:113.55218 7:0.58987651 8:408.847 9:0.76132316 10:2.2705718 
0.25007939608213126 1:8965 2:159.40056 3:72.397212 4:0.89090781 5:9143 6:106.8391 7:0.58686829 8:381.334 9:0.77472773 10:2.2017499 
0.27798048454332552 1:5999 2:139.8108 3:55.569281 4:0.91761925 5:6183 6:87.39659 7:0.71263958 8:324.414 9:0.71629109 10:2.5159727 
0.25004272591277643 1:8564 2:153.91544 3:71.898843 4:0.88418753 5:8813 6:104.42233 7:0.60292875 8:373.46 9:0.77161087 10:2.140722 
0.24999969569956054 1:7844 2:143.52956 3:70.852833 4:0.86966279 5:8086 6:99.936435 7:0.67180541 8:354.667 9:0.78362068 10:2.025742 
0.16006695305063914 1:8862 2:158.77466 3:72.268198 4:0.89040862 5:9110 6:106.22358 7:0.60285714 8:380.281 9:0.77007381 10:2.1970197 
0.25017068160598566 1:8755 2:151.95312 3:73.895551 4:0.87378917 5:8967 6:105.58036 7:0.65896432 8:372.424 9:0.79321459 10:2.056323 
0.25128220714189398 1:9002 2:168.31878 3:69.098697 4:0.91185033 5:9358 6:107.05934 7:0.62323456 8:396.241 9:0.72049347 10:2.4359183 
0.27564761750767902 1:9130 2:154.84058 3:75.661932 4:0.87248323 5:9309 6:107.8178 7:0.76504106 8:376.88 9:0.80774534 10:2.0464794 
0.25118897682659247 1:6737 2:137.15607 3:63.488095 4:0.88641604 5:6894 6:92.616493 7:0.59409171 8:328.717 9:0.78348752 10:2.1603432 
0.25001993213062429 1:6784 2:133.5172 3:65.800765 4:0.87012782 5:6902 6:92.938997 7:0.60425759 8:324.815 9:0.80802268 10:2.0291132 
0.24994804236035834 1:7691 2:143.17116 3:69.245389 4:0.87525895 5:7914 6:98.956987 7:0.6061633 8:347.657 9:0.79963302 10:2.0675912 
0.28251808624179897 1:8398 2:161.89572 3:67.885567 4:0.90784006 5:8726 6:103.40535 7:0.58319444 8:383.522 9:0.71747235 10:2.3848328 
0.24993753872420155 1:8199 2:154.64538 3:68.422835 4:0.89679321 5:8444 6:102.17285 7:0.76661992 8:367.443 9:0.76311641 10:2.2601428 
0.25005537144581469 1:9055 2:163.8739 3:71.138808 4:0.90086131 5:9288 6:107.37404 7:0.72105431 8:386.349 9:0.76232249 10:2.3035795 
0.24662289140633825 1:9019 2:159.41643 3:72.891272 4:0.8893443 5:9259 6:107.16038 7:0.62710332 8:381.347 9:0.7793411 10:2.1870442 
0.22740360449610669 1:8643 2:154.47502 3:71.917164 4:0.88501708 5:8914 6:104.90286 7:0.59788323 8:377.396 9:0.76257013 10:2.1479575 
0.25007886891773212 1:7082 2:147.25384 3:62.248684 4:0.90625546 5:7234 6:94.95832 7:0.78236854 8:344.833 9:0.74842476 10:2.3655736 
0.24934625915509279 1:7875 2:150.40532 3:67.459187 4:0.89377483 5:8080 6:100.13372 7:0.59259538 8:358.439 9:0.77024682 10:2.2295751 
0.28200899120297207 1:9963 2:166.92265 3:77.206974 4:0.88660288 5:10246 6:112.62897 7:0.78498267 8:404.974 9:0.76338867 10:2.1620152 
0.2501228102738825 1:8608 2:148.17921 3:74.362919 4:0.86495786 5:8836 6:104.69024 7:0.72214765 8:364.551 9:0.81394589 10:1.9926491 
0.22463276301358481 1:9106 2:163.16459 3:71.820927 4:0.89791215 5:9279 6:107.67599 7:0.6911575 8:384.15 9:0.77541792 10:2.2718252 
0.25265699447313972 1:8698 2:154.99663 3:72.764715 4:0.88295375 5:8976 6:105.2361 7:0.62769719 8:375.848 9:0.77375734 10:2.130107 
0.18904574049419187 1:9265 2:161.90527 3:73.868417 4:0.88985437 5:9552 6:108.61199 7:0.60025915 8:388.063 9:0.77312695 10:2.1918064 
0.25037858792188572 1:8866 2:158.98094 3:71.924223 4:0.89181117 5:9127 6:106.24755 7:0.65747126 8:381.016 9:0.7674519 10:2.210395 
0.25010160405688547 1:8714 2:154.07081 3:73.228203 4:0.87982959 5:9033 6:105.33285 7:0.66458206 8:377.31 9:0.76918497 10:2.1039819 
0.28293918098945425 1:9534 2:168.1503 3:72.986251 4:0.90088703 5:9726 6:110.17743 7:0.54919355 8:396.7 9:0.76130838 10:2.3038627 
0.25746144706389484 1:7608 2:150.00551 3:65.50843 4:0.89960388 5:7808 6:98.421575 7:0.62896825 8:357.983 9:0.74602875 10:2.2898657 
0.25000086135243876 1:8393 2:147.02075 3:73.865291 4:0.86462716 5:8663 6:103.37456 7:0.61280666 8:373.304 9:0.75683603 10:1.9903902 
0.25836533325017097 1:8333 2:153.405 3:69.897962 4:0.89016244 5:8478 6:103.00439 7:0.68765473 8:364.748 9:0.78709184 10:2.1946991 
0.25000000066917893 1:8303 2:157.89697 3:68.205084 4:0.90189304 5:8620 6:102.81881 7:0.67834967 8:375.242 9:0.7410065 10:2.3150323 
0.25008609066296661 1:9070 2:160.97767 3:72.979339 4:0.89133223 5:9370 6:107.46294 7:0.56289952 8:387.456 9:0.75922827 10:2.2057978 
0.27858248877387265 1:5652 2:123.47298 3:58.899146 4:0.87889215 5:5837 6:84.831303 7:0.60449198 8:303.038 9:0.77342434 10:2.0963458 
0.28281770325875721 1:6085 2:106.29664 3:75.241964 4:0.70636383 5:6174 6:88.020808 7:0.62602881 8:294.612 9:0.88098717 10:1.4127308 
0.2494579176554827 1:7726 2:143.53876 3:69.327909 4:0.8756254 5:7936 6:99.181897 7:0.73059102 8:350.044 9:0.79235407 10:2.0704326 
0.24999988053907035 1:8445 2:151.996 3:71.403678 4:0.88278703 5:8605 6:103.6943 7:0.58450997 8:363.139 9:0.80475509 10:2.1286858 
0.24987424900235028 1:8549 2:162.30067 3:68.05549 4:0.90783971 5:8761 6:104.33084 7:0.54262139 8:380.688 9:0.74128772 10:2.3848284 
0.25000767415580982 1:9279 2:154.88334 3:77.257291 4:0.86671161 5:9526 6:108.69402 7:0.63760049 8:380.859 9:0.80386402 10:2.0047731 
0.24710119374521605 1:6864 2:140.3021 3:63.196387 4:0.89281134 5:7053 6:93.48538 7:0.62857143 8:339.748 9:0.74726273 10:2.2200968 
0.25225123550084949 1:6731 2:145.38083 3:59.960058 4:0.9109873 5:6866 6:92.575242 7:0.66762547 8:341.492 9:0.72531788 10:2.424628 
0.27083247711075376 1:8441 2:153.43194 3:71.483845 4:0.88483772 5:8643 6:103.66974 7:0.64518841 8:369.363 9:0.77749389 10:2.1463863 
0.27890317200120296 1:6739 2:137.85346 3:62.571 4:0.89105517 5:6833 6:92.63024 7:0.58528748 8:324.89 9:0.80229231 10:2.2031526 
0.26263229496910262 1:7047 2:135.6206 3:67.494746 4:0.8673646 5:7235 6:94.723382 7:0.59318182 8:334.409 9:0.7918779 10:2.0093505 
0.27068967252700848 1:9307 2:163.60958 3:73.384507 4:0.89376562 5:9513 6:108.85789 7:0.58226977 8:387.7 9:0.77808667 10:2.2294839 
0.25001843484032882 1:9167 2:161.09192 3:72.84288 4:0.89192564 5:9343 6:108.03604 7:0.77423986 8:385.29 9:0.77599982 10:2.2114985 
0.24984661318780915 1:9049 2:164.23013 3:71.232796 4:0.90103919 5:9295 6:107.33846 7:0.56222429 8:390.655 9:0.74511564 10:2.3055409 
0.19976388538352977 1:8164 2:153.27922 3:68.886658 4:0.89332087 5:8333 6:101.95454 7:0.5858209 8:361.988 9:0.78293284 10:2.2250929 
0.24221274520094077 1:9040 2:159.31989 3:72.62802 4:0.89005003 5:9178 6:107.28507 7:0.69882498 8:378.046 9:0.79485699 10:2.1936422 
0.25351300078280448 1:6937 2:136.99391 3:65.037854 4:0.88012071 5:7046 6:93.981183 7:0.58431604 8:331.737 9:0.79212502 10:2.1063719 
0.25021445921020036 1:8922 2:156.89911 3:73.364341 4:0.88394585 5:9146 6:106.58257 7:0.77785527 8:377.905 9:0.78506715 10:2.138629 
0.27811280530382076 1:9034 2:160.59969 3:73.220043 4:0.89002256 5:9370 6:107.24946 7:0.65387956 8:385.482 9:0.76397957 10:2.1933842 
0.20617931417356389 1:7686 2:153.96142 3:64.194229 4:0.90892938 5:7825 6:98.924816 7:0.59479957 8:358.456 9:0.75168959 10:2.3983685 
0.25041836215853935 1:8802 2:149.64321 3:76.188204 4:0.86068823 5:8995 6:105.86338 7:0.78835647 8:368.22 9:0.81578644 10:1.9641257 
0.25000729548676082 1:9436 2:155.57586 3:78.273372 4:0.86421639 5:9719 6:109.60971 7:0.7957497 8:385.82 9:0.79657803 10:1.9875962 
0.24709386291777746 1:9056 2:155.1708 3:74.957266 4:0.87558562 5:9290 6:107.37997 7:0.59657444 8:376.784 9:0.80160676 10:2.0701235 
0.18268763703605906 1:8516 2:158.48835 3:69.45721 4:0.89885408 5:8791 6:104.12928 7:0.68270002 8:376.499 9:0.75494943 10:2.2818128 
0.25082554644376798 1:7155 2:137.09505 3:67.207698 4:0.87159478 5:7272 6:95.446472 7:0.60883254 8:331.465 9:0.81835954 10:2.0398712 
0.2829007376912025 1:6801 2:140.54552 3:62.342682 4:0.89623655 5:6919 6:93.055371 7:0.61072198 8:330.378 9:0.78299754 10:2.2544029 
0.25666119913190999 1:9246 2:160.67646 3:74.186431 4:0.88702931 5:9483 6:108.50057 7:0.76482753 8:387.135 9:0.77524483 10:2.1658471 
0.26682500990726821 1:7156 2:137.89619 3:67.556724 4:0.87177301 5:7409 6:95.453141 7:0.60028521 8:339.476 9:0.78030078 10:2.0411912 
0.26127444559636204 1:5919 2:125.72711 3:61.55173 4:0.87196619 5:6124 6:86.811894 7:0.68191244 8:312.745 9:0.76046189 10:2.0426251 
0.25044330224372147 1:6994 2:143.90443 3:62.12133 4:0.9020246 5:7111 6:94.366506 7:0.60444214 8:335.631 9:0.78020972 10:2.3165059 
0.2500866942538435 1:8402 2:153.41106 3:71.049125 4:0.88629083 5:8689 6:103.42997 7:0.61239067 8:373.135 9:0.75833407 10:2.1592251 
0.25163437261536614 1:8403 2:158.97308 3:68.343101 4:0.90287479 5:8711 6:103.43612 7:0.60236559 8:376.335 9:0.7455813 10:2.3261028 
0.28222431520063912 1:9249 2:162.14628 3:74.021385 4:0.88971832 5:9652 6:108.51817 7:0.59061303 8:408.087 9:0.69790952 10:2.1905329 
0.25001070443883411 1:8303 2:152.73486 3:69.84291 4:0.88932172 5:8439 6:102.81881 7:0.74299776 8:363.3 9:0.79052226 10:2.1868341 
0.25000002221164586 1:6717 2:134.63383 3:64.729406 4:0.87684062 5:6865 6:92.478917 7:0.78396359 8:326.821 9:0.79025145 10:2.0799484 
0.25000000500859842 1:7961 2:159.75977 3:65.147888 4:0.91307728 5:8262 6:100.67899 7:0.63871951 8:372.976 9:0.71914376 10:2.4522632 
0.28142016454049357 1:6365 2:111.17746 3:75.116432 4:0.73722766 5:6590 6:90.023162 7:0.60699981 8:307.688 9:0.84486468 10:1.4800685 
0.24913798319595859 1:9220 2:168.43361 3:70.361845 4:0.90856555 5:9445 6:108.34791 7:0.61962366 8:395.018 9:0.74251805 10:2.3938202 
0.25033807612191872 1:7784 2:148.76235 3:67.575655 4:0.89087302 5:7998 6:99.553486 7:0.75646258 8:356.775 9:0.76846459 10:2.2014192 
0.25014178494786499 1:8633 2:158.73987 3:69.908182 4:0.89780432 5:8816 6:104.84215 7:0.73761107 8:374.846 9:0.77208629 10:2.2706909 
0.28205953497364222 1:9620 2:173.54961 3:71.424669 4:0.91138633 5:9994 6:110.67323 7:0.57439694 8:406.878 9:0.7302247 10:2.4298273 
0.25000000007385292 1:8246 2:152.37067 3:69.306157 4:0.89056687 5:8412 6:102.46528 7:0.83158532 8:364.747 9:0.77887854 10:2.1985156 
0.24458922456426108 1:9137 2:158.52742 3:73.949258 4:0.88453378 5:9313 6:107.85912 7:0.59547706 8:380.028 9:0.79502777 10:2.1437324 
0.28073170817210263 1:8820 2:158.23179 3:71.721812 4:0.89137298 5:9013 6:105.97157 7:0.6004902 8:375.112 9:0.78769218 10:2.2061878 
0.2500372564749499 1:8343 2:155.44293 3:68.995368 4:0.89609464 5:8515 6:103.06618 7:0.80717879 8:364.648 9:0.78846866 10:2.2529473 
0.250061479400771 1:8245 2:156.12443 3:67.820914 4:0.90071864 5:8522 6:102.45907 7:0.71372922 8:372.736 9:0.74575787 10:2.3020101 
0.28296757904774184 1:6070 2:108.19713 3:73.638557 4:0.73265873 5:6168 6:87.912252 7:0.76835443 8:295.889 9:0.87124624 10:1.4693 
0.2510897644849594 1:8685 2:150.39297 3:74.855585 4:0.86733016 5:8953 6:105.15743 7:0.6066215 8:370.169 9:0.79648866 10:2.0091082 
0.23766305626414946 1:7066 2:135.22722 3:68.199444 4:0.86350971 5:7300 6:94.850992 7:0.67974988 8:335.249 9:0.79003897 10:1.98282 
0.26185147176116758 1:7563 2:140.64309 3:69.855295 4:0.86793095 5:7757 6:98.13007 7:0.71973734 8:348.009 9:0.78473498 10:2.013349 
0.26248383893925742 1:9316 2:158.24465 3:75.911588 4:0.87742694 5:9531 6:108.91051 7:0.67970232 8:384.671 9:0.79115295 10:2.0845915 
0.24211780629551882 1:7495 2:144.33053 3:66.828827 4:0.88634456 5:7643 6:97.687923 7:0.61054089 8:345.985 9:0.78680473 10:2.1597047 
0.18760780774688515 1:9264 2:160.99003 3:74.156968 4:0.88759183 5:9498 6:108.60613 7:0.7150355 8:386.11 9:0.78088362 10:2.170936 
0.25000007066099894 1:7520 2:142.92086 3:67.920285 4:0.8798616 5:7637 6:97.85071 7:0.76797386 8:345.173 9:0.7931477 10:2.1042442 
0.25001879018829531 1:8300 2:150.37589 3:71.271036 4:0.88055039 5:8574 6:102.80023 7:0.63339438 8:366.436 9:0.77676865 10:2.1099159 
0.28182528141673235 1:6606 2:137.69996 3:61.817154 4:0.89356872 5:6735 6:91.711616 7:0.6217997 8:325.407 9:0.78396135 10:2.2275364 
0.28337811357755172 1:5883 2:131.55453 3:58.012747 4:0.89751756 5:6073 6:86.547491 7:0.59532483 8:313.316 9:0.75308425 10:2.2676831 
0.28204893372650697 1:7910 2:150.55072 3:67.77488 4:0.89293797 5:8045 6:100.35599 7:0.79234699 8:355.708 9:0.78559567 10:2.2213351 
0.25312332170947205 1:8051 2:152.1224 3:68.674472 4:0.89230036 5:8313 6:101.24649 7:0.76763921 8:364.888 9:0.75987215 10:2.2151229 
0.25292252506901669 1:7867 2:145.22567 3:70.153842 4:0.87558295 5:8051 6:100.08284 7:0.79240532 8:352.731 9:0.79456925 10:2.0701028 
0.28333796928991617 1:6787 2:138.44309 3:63.610685 4:0.88819239 5:6906 6:92.959544 7:0.78191244 8:331.7 9:0.77516967 10:2.1764125 
0.28288297010732438 1:6616 2:135.46202 3:62.800056 4:0.88604513 5:6769 6:91.781005 7:0.60836782 8:327.352 9:0.77584571 10:2.1570366 
0.25000324398101659 1:8385 2:152.49988 3:70.819834 4:0.88562938 5:8574 6:103.32528 7:0.57755889 8:368.591 9:0.77557442 10:2.1533499 
0.25000000010684287 1:6781 2:139.09121 3:62.771441 4:0.89237383 5:6933 6:92.918445 7:0.65233285 8:330.766 9:0.77886446 10:2.2158359 
0.25000001257709137 1:8599 2:161.7795 3:68.608816 4:0.90562078 5:8841 6:104.6355 7:0.61491705 8:380.495 9:0.74637985 10:2.3579987 
0.17584480057061069 1:8975 2:160.2206 3:72.272328 4:0.89248346 5:9234 6:106.89867 7:0.74271764 8:383.984 9:0.76492361 10:2.2169011 
0.28290336879205769 1:6069 2:130.74266 3:59.77179 4:0.88937867 5:6195 6:87.90501 7:0.67840376 8:312.15 9:0.78270899 10:2.187364 
0.28303576095533201 1:7466 2:138.62331 3:69.446139 4:0.86546457 5:7680 6:97.498751 7:0.60112721 8:340.438 9:0.8095092 10:1.9961269 
0.25140556372098383 1:6188 2:134.30865 3:59.310434 4:0.89721301 5:6323 6:88.76264 7:0.65329392 8:317.898 9:0.76945739 10:2.2645028 
0.26432006602546032 1:8692 2:159.4961 3:69.819374 4:0.89909687 5:8843 6:105.1998 7:0.56899712 8:383.492 9:0.74270605 10:2.2844104 
0.28213438434969851 1:5974 2:135.35668 3:57.106999 4:0.90664232 5:6138 6:87.214294 7:0.54807339 8:319.249 9:0.73657333 10:2.3702293 
0.25129591055510192 1:9378 2:162.96264 3:74.212128 4:0.89029026 5:9648 6:109.27232 7:0.56368336 8:391.491 9:0.7689118 10:2.195903 
0.24928621185139971 1:9175 2:157.14497 3:75.447944 4:0.87720455 5:9387 6:108.08318 7:0.63959568 8:380.181 9:0.79769179 10:2.0828264 
0.24562012156366247 1:8447 2:158.74253 3:68.838314 4:0.90108257 5:8684 6:103.70658 7:0.68977625 8:376.508 9:0.74879673 10:2.3060201 
0.28129850784347199 1:9237 2:167.79604 3:70.830553 4:0.90653861 5:9516 6:108.44775 7:0.78545918 8:394.9 9:0.74433174 10:2.3689783 
0.27473818145046369 1:9355 2:166.16666 3:72.301755 4:0.90037445 5:9513 6:109.13824 7:0.80834701 8:388.78 9:0.7777604 10:2.2982382 
0.25293747570921932 1:8523 2:156.42835 3:70.628137 4:0.89226874 5:8803 6:104.17207 7:0.70954046 8:374.184 9:0.76494802 10:2.2148164 
0.28254104874091951 1:10076 2:164.2547 3:79.371008 4:0.87549947 5:10445 6:113.26589 7:0.61066667 8:414.635 9:0.73648873 10:2.0694547 
0.25000318797272247 1:9168 2:160.1282 3:73.744996 4:0.8876404 5:9439 6:108.04194 7:0.78005616 8:395.613 9:0.73611109 10:2.1713772 
0.20110484447971894 1:7218 2:139.48273 3:66.608343 4:0.87861095 5:7355 6:95.865755 7:0.69323857 8:337.589 9:0.79588472 10:2.094073 
0.25005280348169823 1:8100 2:155.87849 3:67.187695 4:0.90233947 5:8278 6:101.55412 7:0.56493235 8:369.549 9:0.74533381 10:2.3200452 
0.25063653176027689 1:9784 2:164.98689 3:76.346305 4:0.88649319 5:10056 6:111.61261 7:0.57519106 8:397.842 9:0.77679255 10:2.1610331 
0.2554796373213481 1:9073 2:156.53502 3:74.346658 4:0.88001158 5:9293 6:107.48071 7:0.75532801 8:392.701 9:0.73932733 10:2.1054749 
0.28261548806638848 1:5555 2:129.231 3:55.957622 4:0.9013917 5:5698 6:84.100212 7:0.53413462 8:307.11 9:0.7401266 10:2.3094442 
0.25268452413634779 1:8605 2:155.97677 3:71.690112 4:0.88811545 5:8897 6:104.67199 7:0.68983486 8:377.6 9:0.75839728 10:2.1757083 
0.28342324537319202 1:5843 2:130.08013 3:57.828152 4:0.8957501 5:5997 6:86.25276 7:0.70772771 8:309.429 9:0.76687349 10:2.2494256 
0.28198115156527426 1:8982 2:167.00241 3:68.814296 4:0.91115866 5:9173 6:106.94035 7:0.6218499 8:389.692 9:0.74325859 10:2.4268564 
0.17842950509788694 1:8436 2:154.68962 3:69.804927 4:0.89239354 5:8599 6:103.63903 7:0.57426821 8:367.887 9:0.78328093 10:2.2160273 
0.2624874625685909 1:10148 2:171.80934 3:76.530868 4:0.89531146 5:10496 6:113.66985 7:0.77071467 8:413.251 9:0.7467281 10:2.2449679 
0.21677872357739941 1:9052 2:162.84636 3:71.887023 4:0.8972904 5:9230 6:107.35625 7:0.775 8:384.629 9:0.76890088 10:2.2653096 
0.26002176089012485 1:6755 2:133.95444 3:68.040736 4:0.86139281 5:7024 6:92.740138 7:0.75231095 8:330.938 9:0.77507181 10:1.9687388 
