svm_type one_class
kernel_type rbf
gamma 0.10000000000000001
nr_class 2
total_sv 7888
rho 0.28889880070157631
SV
0.2887175665061722 1:5427 2:147.54214 3:47.63402 4:0.94645006 5:5623 6:83.125634 7:0.49117567 8:327.235 9:0.63686912 10:3.0974111 
0.28402604252698349 1:6034 2:151.56743 3:51.982089 4:0.93934875 5:6268 6:87.651169 7:0.47511811 8:350.85 9:0.61598794 10:2.9157626 
0.27930252746353723 1:6247 2:160.7439 3:50.762001 4:0.94882769 5:6428 6:89.184794 7:0.71887227 8:354.74 9:0.62382252 10:3.1666188 
0.28867450629953828 1:4542 2:113.02689 3:52.404672 4:0.88601958 5:4719 6:76.046394 7:0.60925553 8:283.196 9:0.71167673 10:2.1568095 
0.26571266114348885 1:5649 2:151.68327 3:48.711219 4:0.94703251 5:5786 6:84.808786 7:0.44741011 8:337.686 9:0.62252289 10:3.113929 
0.27073859994583704 1:5540 2:141.05207 3:50.527371 4:0.93363803 5:5658 6:83.986589 7:0.56820513 8:316.195 9:0.69632122 10:2.7915973 
0.24036335474468284 1:6039 2:150.6714 3:51.906905 4:0.93878484 5:6201 6:87.687477 7:0.75055928 8:345.164 9:0.63697723 10:2.9027236 
0.28535600217578794 1:5761 2:143.80812 3:52.092476 4:0.93208642 5:5918 6:85.645391 7:0.54554924 8:326.359 9:0.67969888 10:2.7606313 
0.28696037546624376 1:5860 2:142.65444 3:53.191683 4:0.92788325 5:6041 6:86.378144 7:0.52935863 8:327.55 9:0.68636049 10:2.6818936 
0.28885926084663827 1:6260 2:161.37614 3:50.609601 4:0.949551 5:6556 6:89.277542 7:0.46247045 8:362.129 9:0.59987061 10:3.1886467 
0.2890505395459842 1:4037 2:135.34243 3:39.582002 4:0.95627831 5:4222 6:71.694268 7:0.45584914 8:295.428 9:0.58125313 10:3.4192923 
0.28696679507295397 1:5472 2:143.49308 3:49.43706 4:0.93877687 5:5620 6:83.469556 7:0.51730006 8:321.546 9:0.66507363 10:2.9025407 
0.27655066364266256 1:5446 2:146.04997 3:48.064936 4:0.94429533 5:5584 6:83.271019 7:0.68006993 8:323.884 9:0.65239183 10:3.0385969 
0.24501215470416124 1:5793 2:145.3415 3:51.571687 4:0.93493042 5:5937 6:85.882924 7:0.50709034 8:325.187 9:0.6884098 10:2.8182422 
0.28860443465467878 1:6892 2:158.01722 3:56.346048 4:0.93426414 5:7115 6:93.675861 7:0.5543758 8:364.369 9:0.65233742 10:2.8044064 
0.25413811691649413 1:6163 2:150.48626 3:53.055354 4:0.93578941 5:6352 6:88.583155 7:0.49637564 8:342.894 9:0.6586918 10:2.836401 
0.28003215258286257 1:6119 2:163.74328 3:48.686372 4:0.95477367 5:6265 6:88.266374 7:0.42566957 8:356.519 9:0.60495763 10:3.3632261 
0.28869695391636707 1:5239 2:140.01576 3:48.896326 4:0.9370407 5:5436 6:81.673141 7:0.57413699 8:314.026 9:0.66761648 10:2.863523 
0.25932298284423821 1:6363 2:155.80053 3:52.912465 4:0.94056392 5:6514 6:90.009017 7:0.71422157 8:345.808 9:0.66865441 10:2.9444959 
0.28579368797314064 1:6593 2:168.40259 3:50.827367 4:0.95336475 5:6763 6:91.621331 7:0.68250518 8:366.202 9:0.61780514 10:3.3132267 
0.28888499391282385 1:7207 2:161.3405 3:57.359656 4:0.93466895 5:7401 6:95.792679 7:0.78150076 8:364.333 9:0.68228742 10:2.8127871 
0.26388883561061072 1:5479 2:140.41066 3:50.958079 4:0.93181963 5:5619 6:83.522928 7:0.51982922 8:315.393 9:0.6921609 10:2.755415 
0.23107618751337283 1:6029 2:151.13633 3:51.938962 4:0.93909547 5:6213 6:87.614846 7:0.62141826 8:344.544 9:0.63821317 10:2.9098835 
0.26841977507527121 1:5845 2:153.18921 3:49.383325 4:0.94661437 5:6013 6:86.267521 7:0.45398058 8:341.058 9:0.63144844 10:3.1020432 
0.28605646301050736 1:5869 2:153.13131 3:49.879032 4:0.9454638 5:6059 6:86.44445 7:0.47965021 8:341.157 9:0.63367329 10:3.0700539 
0.24971665167504251 1:6779 2:158.15395 3:55.417206 4:0.9366 5:6989 6:92.904741 7:0.7850608 8:358.933 9:0.66122417 10:2.8538781 
0.28884825083519539 1:4207 2:133.78411 3:40.805838 4:0.95234832 5:4309 6:73.188242 7:0.49792875 8:292.07 9:0.6197385 10:3.2785533 
0.2890580340870933 1:7414 2:167.81286 3:57.330296 4:0.93983369 5:7618 6:97.158623 7:0.48142857 8:379.811 9:0.64584361 10:2.9271235 
0.28824574839529549 1:5969 2:152.03139 3:51.282554 4:0.94139164 5:6195 6:87.177789 7:0.64894542 8:341.244 9:0.64414167 10:2.9645831 
0.28884318523227348 1:6735 2:149.8507 3:59.078136 4:0.91900467 5:7015 6:92.602745 7:0.4973416 8:360.65 9:0.65069219 10:2.5364832 
0.28321353850801706 1:6215 2:151.30837 3:52.934639 4:0.9368072 5:6351 6:88.956078 7:0.76539409 8:337.819 9:0.68435722 10:2.8584 
0.28901715276361878 1:6981 2:160.49518 3:56.069477 4:0.93699118 5:7143 6:94.278764 7:0.57076282 8:363.492 9:0.66395369 10:2.8624341 
0.2887357075688684 1:3623 2:120.37088 3:39.340911 4:0.94508287 5:3782 6:67.918678 7:0.5391369 8:266.912 9:0.63906054 10:3.0596872 
0.16307049109250002 1:6282 2:151.7949 3:53.567909 4:0.93566232 5:6448 6:89.434282 7:0.48323077 8:343.044 9:0.6708233 10:2.833691 
0.14157901535636255 1:6296 2:158.4289 3:51.300963 4:0.94612191 5:6442 6:89.533883 7:0.47725894 8:349.517 9:0.64764643 10:3.0882247 
0.28125763693013783 1:6384 2:164.68806 3:50.24857 4:0.95231595 5:6539 6:90.157425 7:0.56787049 8:359.455 9:0.6208886 10:3.2774675 
0.28865997082735351 1:7200 2:164.65385 3:56.997861 4:0.93817261 5:7446 6:95.746147 7:0.51959299 8:378.561 9:0.63135063 10:2.8887724 
0.2861422485571713 1:6335 2:158.64223 3:51.257586 4:0.94636422 5:6516 6:89.810759 7:0.74793388 8:348.752 9:0.65452022 10:3.095 
0.2708926846479317 1:4800 2:133.31795 3:46.737278 4:0.93653652 5:4925 6:78.176402 7:0.57720058 8:298.752 9:0.67581754 10:2.852497 
0.28922723342466572 1:6730 2:167.92242 3:52.196292 4:0.95046364 5:6949 6:92.568365 7:0.62750583 8:371.876 9:0.61154529 10:3.217133 
0.28625850430900968 1:5762 2:156.93136 3:47.328144 4:0.9534393 5:5883 6:85.652824 7:0.44459877 8:341.606 9:0.62048622 10:3.3158149 
0.28882761149667924 1:6171 2:157.08425 3:50.59024 4:0.94671994 5:6406 6:88.64063 7:0.50665025 8:345.952 9:0.6479384 10:3.1050308 
0.28701333467080692 1:5650 2:148.77035 3:49.211968 4:0.94370386 5:5843 6:84.816292 7:0.56841046 8:333.329 9:0.63901656 10:3.0230522 
0.28893619403976456 1:5174 2:145.91476 3:45.704862 4:0.94967734 5:5378 6:81.164903 7:0.47801183 8:328.742 9:0.60162504 10:3.1925436 
0.2322268322580833 1:5487 2:138.28805 3:51.63307 4:0.92768118 5:5600 6:83.583882 7:0.67127477 8:315.433 9:0.69299575 10:2.6782846 
0.26871590104109561 1:5304 2:138.46997 3:49.87586 4:0.93287795 5:5440 6:82.178236 7:0.72757202 8:312.695 9:0.6816658 10:2.7762923 
0.26155097979508801 1:6125 2:147.17422 3:53.666731 4:0.93114558 5:6269 6:88.309638 7:0.4931562 8:334.269 9:0.68884856 10:2.7423734 
0.2283573653594137 1:5603 2:147.4171 3:49.678469 4:0.9415073 5:5748 6:84.46278 7:0.71239669 8:327.143 9:0.65789293 10:2.9674243 
0.24904603394637484 1:5868 2:150.53218 3:50.669199 4:0.94164757 5:6037 6:86.437085 7:0.49153962 8:337.392 9:0.64778428 10:2.9708815 
0.28898117462006512 1:5363 2:141.52397 3:49.263123 4:0.937461 5:5549 6:82.634035 7:0.49524425 8:320.863 9:0.65460359 10:2.8728176 
0.28305662482975369 1:6099 2:149.87548 3:52.704206 4:0.93613031 5:6239 6:88.122006 7:0.48698499 8:340.777 9:0.6599757 10:2.8437101 
0.26254570595787985 1:6120 2:145.42795 3:55.208109 4:0.92514039 5:6312 6:88.273586 7:0.73566534 8:338.935 9:0.66946588 10:2.6341773 
0.28368347332954658 1:5839 2:142.79498 3:52.921929 4:0.92878668 5:5947 6:86.223232 7:0.84427415 8:319.565 9:0.71850521 10:2.6982195 
0.28870057354176532 1:6509 2:155.82083 3:54.245462 4:0.93744732 5:6759 6:91.035796 7:0.48895733 8:365.555 9:0.61209478 10:2.8725136 
0.28876908374915944 1:6449 2:155.2882 3:54.233551 4:0.93703163 5:6700 6:90.615241 7:0.48386855 8:352.24 9:0.65316799 10:2.8633235 
0.28867244773641898 1:5941 2:159.26663 3:48.661685 4:0.95218054 5:6128 6:86.973077 7:0.59220494 8:350.919 9:0.60625544 10:3.2729371 
0.28895044541574599 1:5238 2:137.04231 3:49.325773 4:0.93297894 5:5350 6:81.665346 7:0.50584259 8:307.473 9:0.69624387 10:2.7783105 
0.23704554875502529 1:6692 2:159.68355 3:54.412617 4:0.94015293 5:6890 6:92.306658 7:0.6248366 8:357.883 9:0.65657397 10:2.9346787 
0.28871590899484889 1:4108 2:130.75269 3:41.655275 4:0.94789576 5:4276 6:72.321975 7:0.43888889 8:298.142 9:0.58075636 10:3.1389227 
0.22271491323131656 1:6384 2:158.46804 3:52.897105 4:0.94264287 5:6527 6:90.157425 7:0.83516484 8:350.108 9:0.65448346 10:2.9957791 
0.28733489441443305 1:5066 2:139.18317 3:47.442523 4:0.94011264 5:5236 6:80.313333 7:0.56101883 8:310.181 9:0.66167491 10:2.9337218 
0.28867379677494842 1:4837 2:141.89844 3:44.240873 4:0.95015483 5:4955 6:78.477128 7:0.45948513 8:314.379 9:0.61500535 10:3.2074059 
0.28672470868301786 1:5827 2:147.03002 3:51.057365 4:0.93776959 5:5983 6:86.134586 7:0.54529291 8:332.685 9:0.66158925 10:2.8797024 
0.28846742070299514 1:5740 2:146.45933 3:50.945845 4:0.93755028 5:5840 6:85.489151 7:0.47921189 8:326.976 9:0.67466783 10:2.8748042 
0.28735497510951191 1:6197 2:159.74789 3:50.616158 4:0.94847558 5:6388 6:88.827166 7:0.56624635 8:353.914 9:0.62172148 10:3.1560651 
0.2891288769798484 1:5495 2:145.70736 3:49.78557 4:0.93981566 5:5723 6:83.644792 7:0.60751797 8:323.686 9:0.65906725 10:2.9266987 
0.2890308622865207 1:5509 2:162.2191 3:44.970464 4:0.96080632 5:5751 6:83.751279 7:0.3900177 8:352.771 9:0.5562844 10:3.6072366 
0.28865961526284756 1:4351 2:129.65058 3:44.519489 4:0.93919635 5:4523 6:74.430271 7:0.74376068 8:293.35 9:0.63537008 10:2.9122207 
0.12835073638709699 1:5966 2:148.33128 3:52.317296 4:0.93573428 5:6092 6:87.155878 7:0.48151735 8:331.507 9:0.6821937 10:2.8352244 
0.28893204909854264 1:7019 2:161.30984 3:56.193327 4:0.93736213 5:7175 6:94.535011 7:0.5997095 8:361.828 9:0.67372205 10:2.8706227 
0.28817668848095834 1:6329 2:159.44289 3:52.0967 4:0.94511355 5:6538 6:89.768219 7:0.47280741 8:353.9 9:0.63501478 10:3.060518 
0.28229813962644434 1:6480 2:161.33051 3:52.406832 4:0.9457685 5:6665 6:90.832771 7:0.63754427 8:358.636 9:0.63310699 10:3.0784252 
0.28364757301334481 1:5841 2:138.30634 3:55.163062 4:0.9170175 5:6009 6:86.237997 7:0.71580882 8:324.356 9:0.69767506 10:2.5072273 
0.22506040819453066 1:5787 2:157.79845 3:47.697207 4:0.95322341 5:5935 6:85.838437 7:0.48410574 8:341.269 9:0.62440974 10:3.3083373 
0.26644332597603149 1:6467 2:160.6942 3:51.831625 4:0.94655304 5:6661 6:90.741612 7:0.5024864 8:359.557 9:0.62860413 10:3.1003118 
0.28887374503804886 1:5024 2:132.84079 3:48.625825 4:0.93059681 5:5131 6:79.979719 7:0.571949 8:300.2 9:0.70054836 10:2.731898 
0.28887195549975497 1:6679 2:146.59023 3:59.473271 4:0.91400141 5:6851 6:92.216956 7:0.58794014 8:342.99 9:0.71344154 10:2.4648086 
0.28680964872533815 1:6439 2:162.81367 3:51.770822 4:0.9480988 5:6667 6:90.544958 7:0.65099585 8:360.736 9:0.621798 10:3.1448926 
0.27918830393917582 1:7015 2:167.31464 3:54.401375 4:0.94566447 5:7144 6:94.508071 7:0.44907496 8:373.539 9:0.63177965 10:3.0755591 
0.28912331941557212 1:5262 2:135.32098 3:50.327319 4:0.92826852 5:5444 6:81.852223 7:0.51770956 8:312.005 9:0.67926244 10:2.6888176 
0.28870577305824963 1:6346 2:168.60281 3:48.697616 4:0.95738028 5:6584 6:89.888699 7:0.64887526 8:367.608 9:0.59011958 10:3.4622395 
0.26190612020558868 1:6195 2:144.84866 3:55.279975 4:0.92431124 5:6371 6:88.812831 7:0.69248826 8:333.238 9:0.70103893 10:2.6202736 
0.28866832035744538 1:4209 2:125.42947 3:43.739036 4:0.93722912 5:4336 6:73.205637 7:0.58458333 8:281.509 9:0.66742769 10:2.867678 
0.2767263669203977 1:5977 2:146.76713 3:52.673552 4:0.93337908 5:6097 6:87.236189 7:0.70218515 8:331.086 9:0.68519074 10:2.7863534 
0.28466324772010443 1:5956 2:158.97844 3:48.586257 4:0.95215505 5:6144 6:87.082804 7:0.46418829 8:350.683 9:0.60860445 10:3.2720866 
0.27140542536996992 1:6301 2:161.71564 3:50.666218 4:0.94965276 5:6439 6:89.569428 7:0.45996058 8:354.324 9:0.63069328 10:3.1917843 
0.28450232829732247 1:5636 2:148.56159 3:49.829459 4:0.94207126 5:5779 6:84.711145 7:0.4618158 8:334.147 9:0.63431607 10:2.9814009 
0.28871186218865341 1:4136 2:95.743627 3:56.411011 4:0.80799587 5:4217 6:72.568028 7:0.76592593 8:247.294 9:0.84989101 10:1.6972507 
0.28103786616579834 1:6182 2:151.01734 3:53.69558 4:0.93465382 5:6388 6:88.719597 7:0.58831367 8:341.831 9:0.66483821 10:2.8124724 
0.28887968193496261 1:7430 2:154.8082 3:62.02465 4:0.91622908 5:7628 6:97.263404 7:0.79363384 8:358.313 9:0.72723295 10:2.4959141 
0.28897042245501808 1:6104 2:159.53344 3:49.635182 4:0.9503683 5:6247 6:88.15812 7:0.72927121 8:352.714 9:0.61656518 10:3.2141202 
0.18993573279156895 1:6090 2:160.41592 3:49.175964 4:0.95185363 5:6220 6:88.056964 7:0.43737432 8:351.265 9:0.62023661 10:3.26208 
0.28883479608473062 1:5585 2:138.82408 3:51.957487 4:0.92732036 5:5783 6:84.327 7:0.50675982 8:325.93 9:0.66066967 10:2.6718782 
0.25965431780195086 1:6621 2:163.7142 3:52.305449 4:0.94758883 5:6795 6:91.81568 7:0.48114236 8:359.797 9:0.64271491 10:3.1299646 
0.2570719958890848 1:5933 2:149.15164 3:51.349329 4:0.93886848 5:6083 6:86.914499 7:0.73301211 8:333.726 9:0.66942839 10:2.9046462 
0.18001611005202689 1:6496 2:156.30135 3:53.927238 4:0.93859499 5:6642 6:90.944841 7:0.47870302 8:354.077 9:0.65111912 10:2.8983748 
0.25542249978428538 1:6411 2:156.0281 3:53.848356 4:0.93855871 5:6606 6:90.347876 7:0.56996799 8:350.159 9:0.65706004 10:2.8975462 
0.28865759552799408 1:6781 2:160.76937 3:55.174492 4:0.93926589 5:7025 6:92.918445 7:0.51906001 8:368.62 9:0.62711302 10:2.9138351 
0.28892527780303934 1:5313 2:142.45688 3:49.125034 4:0.93866095 5:5530 6:82.247928 7:0.47395183 8:320.53 9:0.64984879 10:2.8998835 
0.2887093949539109 1:5495 2:131.46215 3:53.855396 4:0.9122362 5:5573 6:83.644792 7:0.53999607 8:302.958 9:0.7523375 10:2.441021 
0.28882640291187323 1:6435 2:167.2345 3:50.259117 4:0.95377211 5:6638 6:90.51683 7:0.45063025 8:363.014 9:0.61363718 10:3.327446 
0.27984960321707242 1:5666 2:144.14885 3:50.682987 4:0.93614968 5:5820 6:84.936301 7:0.56479266 8:327.673 9:0.66313984 10:2.844127 
0.28890811274456141 1:6636 2:159.08933 3:54.115181 4:0.94036904 5:6880 6:91.919626 7:0.46943973 8:370.979 9:0.60592321 10:2.9398282 
0.28890875583943115 1:6702 2:166.30712 3:52.180013 4:0.94950333 5:6884 6:92.3756 7:0.45058491 8:369.251 9:0.61769051 10:3.1871805 
0.28143350836067926 1:6685 2:165.39888 3:52.345654 4:0.94859875 5:6845 6:92.258367 7:0.45603384 8:364.274 9:0.63307465 10:3.1597443 
0.28889100504737419 1:6754 2:165.08929 3:53.689037 4:0.9456411 5:7031 6:92.733273 7:0.73142733 8:369.468 9:0.6217521 10:3.0749162 
0.26766446931602272 1:6242 2:147.15624 3:54.700401 4:0.9283463 5:6392 6:89.149096 7:0.51197507 8:336.749 9:0.69170513 10:2.6902224 
0.27525015300452765 1:4984 2:138.96849 3:47.029934 4:0.9409946 5:5157 6:79.660692 7:0.57685185 8:314.167 9:0.63455134 10:2.9548943 
0.28879760033205559 1:6293 2:169.55095 3:48.146804 4:0.95883418 5:6446 6:89.512549 7:0.44006993 8:365.454 9:0.59210967 10:3.5215412 
0.16866756806107802 1:6895 2:154.27014 3:57.964071 4:0.92672878 5:7061 6:93.696247 7:0.7872802 8:351.713 9:0.70043412 10:2.6614787 
0.27120233543577421 1:6307 2:149.64849 3:54.849594 4:0.93040904 5:6472 6:89.612063 7:0.61262749 8:343.982 9:0.66982486 10:2.7283426 
0.27446377904788072 1:6043 2:152.58273 3:52.058142 4:0.93999806 5:6225 6:87.716513 7:0.47687816 8:338.892 9:0.66121063 10:2.931006 
0.28903319962910023 1:5432 2:132.635 3:52.99574 4:0.91670672 5:5533 6:83.163918 7:0.51052632 8:304.496 9:0.73621802 10:2.5027484 
0.093997273940676557 1:5794 2:141.48368 3:53.393495 4:0.92605739 5:5940 6:85.890337 7:0.50268957 8:322.567 9:0.69975899 10:2.64983 
0.26773987311739478 1:6018 2:156.84953 3:49.317913 4:0.94928127 5:6216 6:87.534882 7:0.6368254 8:348.563 9:0.62244284 10:3.1803765 
0.28869807785329149 1:7001 2:173.70448 3:52.248276 4:0.95369093 5:7175 6:94.413718 7:0.47049731 8:377.94 9:0.61591988 10:3.3245973 
0.28891080585932316 1:5956 2:164.38508 3:47.005146 4:0.95824593 5:6124 6:87.082804 7:0.67743403 8:355.616 9:0.5918368 10:3.4971719 
0.27100777959548594 1:6343 2:156.27495 3:52.557842 4:0.94174902 5:6534 6:89.867449 7:0.51273139 8:349.739 9:0.65165307 10:2.9733898 
0.20564326179574327 1:6605 2:160.62414 3:53.273096 4:0.94339791 5:6770 6:91.704674 7:0.52487285 8:355.783 9:0.65571074 10:3.0151081 
0.27644455206682528 1:6155 2:167.01081 3:48.116845 4:0.95759847 5:6335 6:88.525643 7:0.42071087 8:363.621 9:0.58497864 10:3.4709428 
0.2890389505446786 1:5268 2:137.14358 3:49.827036 4:0.93166432 5:5494 6:81.898876 7:0.67538462 8:316.011 9:0.6629049 10:2.7523929 
0.28880200057572647 1:6290 2:157.04502 3:52.517453 4:0.94242763 5:6529 6:89.49121 7:0.49770533 8:352.344 9:0.63668812 10:2.9903396 
0.2887094296262126 1:4098 2:129.62199 3:41.196577 4:0.94815077 5:4189 6:72.233895 7:0.44703829 8:282.432 9:0.64558587 10:3.1464263 
0.17037192147246683 1:6366 2:155.53763 3:52.881173 4:0.94042921 5:6531 6:90.030233 7:0.57767695 8:347.504 9:0.66245576 10:2.9412667 
0.27856975259708316 1:6796 2:156.94588 3:56.233089 4:0.93360802 5:6985 6:93.021159 7:0.51275087 8:359.938 9:0.65918579 10:2.7909881 
0.28890088581969009 1:5171 2:134.08762 3:49.673725 4:0.92884953 5:5288 6:81.141369 7:0.77433363 8:301.025 9:0.71709926 10:2.6993671 
0.28770222659886163 1:6440 2:159.36014 3:52.726855 4:0.94367774 5:6682 6:90.551989 7:0.55747922 8:356.428 9:0.63701859 10:3.0223714 
0.28761810094750317 1:6500 2:147.03835 3:57.375926 4:0.92072562 5:6687 6:90.972837 7:0.57032552 8:339.409 9:0.70904943 10:2.5627186 
0.23884502483610009 1:6519 2:157.47506 3:53.701726 4:0.94005701 5:6649 6:91.1057 7:0.84116129 8:349.992 9:0.66876665 10:2.9324023 
0.27753285135134542 1:5926 2:153.34578 3:50.074169 4:0.94518194 5:6061 6:86.863212 7:0.69309942 8:339.647 9:0.64552928 10:3.0623729 
0.28886609102034921 1:6817 2:160.61606 3:55.00037 4:0.93954196 5:6926 6:93.164768 7:0.78946149 8:359.116 9:0.66425319 10:2.9202724 
0.28577424331723722 1:6726 2:152.68564 3:57.756709 4:0.92569447 5:6925 6:92.540851 7:0.49962858 8:350.289 9:0.68883266 10:2.6436 
0.17801288735441856 1:5535 2:138.30567 3:52.31354 4:0.92570519 5:5671 6:83.94868 7:0.56318681 8:316.963 9:0.69232554 10:2.6437834 
0.28823848901141558 1:5873 2:156.53013 3:48.628701 4:0.95051891 5:6020 6:86.473903 7:0.63574367 8:340.97 9:0.63480089 10:3.2188836 
0.28877535106611851 1:5781 2:141.73232 3:52.334746 4:0.92932985 5:5884 6:85.793926 7:0.544658 8:320.224 9:0.70844327 10:2.7081877 
0.25675540345534403 1:6310 2:157.18285 3:52.180653 4:0.94328846 5:6464 6:89.633373 7:0.50952842 8:349.664 9:0.64854092 10:3.0122821 
0.28007726101159836 1:6384 2:165.08896 3:49.871916 4:0.95327904 5:6509 6:90.157425 7:0.66237809 8:358.478 9:0.62427756 10:3.310259 
0.28571686227522108 1:5639 2:147.01683 3:49.74117 4:0.94102517 5:5777 6:84.733687 7:0.56344924 8:327.524 9:0.66058042 10:2.9556368 
0.23506291322472189 1:5904 2:154.92781 3:48.993174 4:0.94868179 5:6049 6:86.701824 7:0.50204082 8:341.667 9:0.63555062 10:3.1622325 
0.28851512951860259 1:4801 2:130.59731 3:47.531858 4:0.9314156 5:4953 6:78.184545 7:0.5526649 8:300.184 9:0.66952452 10:2.7475743 
0.28905078678143203 1:6117 2:161.24201 3:49.844522 4:0.95102023 5:6369 6:88.251948 7:0.60877787 8:356.312 9:0.60546277 10:3.2348993 
0.26252481733964195 1:6689 2:161.64085 3:53.610174 4:0.94339818 5:6850 6:92.285965 7:0.52785669 8:354.262 9:0.66976418 10:3.0151151 
0.28864087255080378 1:5226 2:139.72479 3:48.290616 4:0.93837737 5:5402 6:81.571747 7:0.56369324 8:313.49 9:0.6682391 10:2.8934149 
0.2747330621681191 1:6314 2:160.38007 3:51.457635 4:0.94713068 5:6516 6:89.661778 7:0.61004831 8:355.137 9:0.62910422 10:3.1167401 
0.28885218620864117 1:6926 2:173.30693 3:52.2051 4:0.95355178 5:7102 6:93.90664 7:0.43548793 8:380.061 9:0.6025398 10:3.3197318 
0.28850235117338185 1:5381 2:156.50732 3:44.022394 4:0.95962571 5:5516 6:82.772592 7:0.52278247 8:336.803 9:0.59610251 10:3.555175 
0.28902921485485977 1:6641 2:162.77761 3:52.416858 4:0.94673451 5:6766 6:91.954249 7:0.45358924 8:358.717 9:0.64854397 10:3.1054439 
0.27168375065469996 1:6351 2:151.07173 3:54.530353 4:0.93258258 5:6492 6:89.924103 7:0.81969541 8:338.828 9:0.69517379 10:2.7704154 
0.18331815790956385 1:6466 2:154.90579 3:53.940331 4:0.93741515 5:6634 6:90.734596 7:0.66646052 8:347.396 9:0.67328035 10:2.871799 
0.28901410386050075 1:6893 2:167.34327 3:53.315917 4:0.94788855 5:7079 6:93.682657 7:0.70480573 8:370.825 9:0.62991236 10:3.1387112 
0.2889372118758845 1:6530 2:153.48457 3:55.878505 4:0.93137317 5:6791 6:91.182532 7:0.57482394 8:352.26 9:0.66129674 10:2.746755 
0.28871335033878109 1:4553 2:141.25374 3:41.797404 4:0.955218 5:4676 6:76.138424 7:0.50099032 8:306.485 9:0.60910065 10:3.379486 
0.28851224930028763 1:5199 2:135.8729 3:49.411898 4:0.93153072 5:5319 6:81.360755 7:0.49684633 8:308.068 9:0.68839309 10:2.7498013 
0.22246820397864295 1:5609 2:147.76719 3:49.460926 4:0.94231693 5:5761 6:84.507991 7:0.473014 8:330.151 9:0.64665117 10:2.9875541 
0.28905553781198601 1:5856 2:152.02533 3:50.751838 4:0.94263045 5:6088 6:86.348658 7:0.79135135 8:338.018 9:0.64406734 10:2.9954645 
0.28896723539714803 1:6621 2:166.25886 3:51.449093 4:0.95091515 5:6778 6:91.81568 7:0.54413215 8:363.962 9:0.62808926 10:3.2315216 
0.28720219312768347 1:5702 2:152.41972 3:49.162766 4:0.94655291 5:5871 6:85.205703 7:0.46020985 8:338.156 9:0.62661802 10:3.1003081 
0.28600367365477269 1:6130 2:156.06071 3:51.416148 4:0.94416867 5:6349 6:88.345676 7:0.55626134 8:346.206 9:0.64268943 10:3.0352471 
0.28728021393898795 1:6249 2:147.25324 3:55.456875 4:0.92637236 5:6403 6:89.199069 7:0.55934479 8:337.184 9:0.69069525 10:2.6552747 
0.28895006074476048 1:5932 2:152.57387 3:50.802179 4:0.94293821 5:6165 6:86.907174 7:0.64937055 8:337.025 9:0.65627638 10:3.0032939 
0.28487250194170188 1:5751 2:147.5106 3:50.814629 4:0.93879322 5:5953 6:85.571027 7:0.50279769 8:334.961 9:0.64411697 10:2.9029161 
0.28870015119036274 1:6627 2:151.04696 3:56.812642 4:0.92656866 5:6754 6:91.857272 7:0.50996537 8:343.144 9:0.70725173 10:2.6586858 
0.28887203468090922 1:6338 2:164.43084 3:50.3429 4:0.9519786 5:6543 6:89.832022 7:0.63891129 8:367.964 9:0.58823578 10:3.2662171 
0.28443151566012581 1:5744 2:141.17663 3:52.895639 4:0.9271554 5:5933 6:85.518933 7:0.70738916 8:324.976 9:0.68347356 10:2.6689654 
0.28742617964644845 1:5321 2:141.06488 3:49.235223 4:0.93711327 5:5456 6:82.309827 7:0.49562221 8:316.751 9:0.66644933 10:2.8651212 
0.26351877404196972 1:5994 2:146.50444 3:53.471515 4:0.93101449 5:6126 6:87.360162 7:0.47860109 8:332.649 9:0.6806975 10:2.7398596 
0.24832598266577563 1:6543 2:162.74176 3:52.404458 4:0.9467363 5:6715 6:91.273251 7:0.80183824 8:358.842 9:0.63852844 10:3.1054945 
0.28535759288538065 1:6892 2:165.01075 3:54.37148 4:0.94415465 5:7066 6:93.675861 7:0.46205417 8:369.418 9:0.6346277 10:3.0348769 
0.22432568242721504 1:6067 2:149.14815 3:53.069334 4:0.93455594 5:6222 6:87.890525 7:0.80378908 8:336.165 9:0.67465054 10:2.8104395 
0.28764637984755459 1:6354 2:154.13007 3:53.59869 4:0.9375874 5:6530 6:89.945339 7:0.47276786 8:348.809 9:0.65626873 10:2.8756313 
0.2886286346005319 1:5180 2:142.63807 3:47.039154 4:0.94405788 5:5294 6:81.21195 7:0.53030303 8:315.508 9:0.65391135 10:3.0323265 
0.26603547929085136 1:6414 2:156.44087 3:53.035246 4:0.94078225 5:6600 6:90.369013 7:0.61971014 8:351.25 9:0.65329022 10:2.949753 
0.2722442039251029 1:6624 2:165.36329 3:52.211289 4:0.94884679 5:6825 6:91.836478 7:0.4885316 8:366.123 9:0.62097793 10:3.1671942 
0.2871991478823207 1:6796 2:162.68311 3:54.232886 4:0.94279778 5:6926 6:93.021159 7:0.47405134 8:361.802 9:0.65241105 10:2.9997133 
0.27458831653263227 1:5948 2:148.62594 3:52.249762 4:0.93616832 5:6100 6:87.0243 7:0.63991393 8:336.232 9:0.66115416 10:2.8445285 
0.21217629472570576 1:6859 2:156.55732 3:57.030921 4:0.93128892 5:7096 6:93.451324 7:0.49444925 8:361.393 9:0.65995024 10:2.7451304 
0.2521954974411289 1:6277 2:148.52737 3:54.818346 4:0.92939799 5:6434 6:89.398684 7:0.59317709 8:339.268 9:0.68529284 10:2.7094463 
0.28828690410433383 1:6071 2:152.29154 3:51.225268 4:0.94173235 5:6205 6:87.919493 7:0.49680851 8:337.808 9:0.66854437 10:2.972977 
0.28853756566940725 1:6339 2:164.25592 3:49.919998 4:0.95269884 5:6478 6:89.839109 7:0.51486355 8:359.522 9:0.61628227 10:3.2903832 
0.27427155485185534 1:6034 2:148.73215 3:52.445042 4:0.93576885 5:6160 6:87.651169 7:0.50616559 8:333.54 9:0.6815839 10:2.8359621 
0.27357357103767344 1:5781 2:138.06702 3:54.484724 4:0.91884218 5:5916 6:85.793926 7:0.70724248 8:317.252 9:0.72177876 10:2.5340501 
0.27137734245558753 1:5958 2:155.87704 3:49.387752 4:0.94847971 5:6080 6:87.097424 7:0.71593367 8:341.276 9:0.64283404 10:3.1561883 
0.28865892660011117 1:7191 2:163.12957 3:56.777589 4:0.93747519 5:7299 6:95.686287 7:0.82712215 8:363.242 9:0.68486826 10:2.8731331 
0.28237481504133005 1:6073 2:143.96362 3:54.626324 4:0.92521416 5:6234 6:87.933974 7:0.5415552 8:328.692 9:0.70637428 10:2.6354258 
0.28894521228308717 1:5921 2:144.4877 3:53.72215 4:0.92830835 5:6114 6:86.826559 7:0.57625304 8:329.129 9:0.68686696 10:2.6895368 
0.286954451513454 1:6733 2:165.4714 3:52.924552 4:0.9474712 5:6868 6:92.588994 7:0.45200054 8:364.441 9:0.63703606 10:3.1265527 
0.2844277990973455 1:6817 2:165.26722 3:53.536136 4:0.94607872 5:7028 6:93.164768 7:0.69412483 8:366.93 9:0.63626307 10:3.0870217 
0.28659813536394763 1:6269 2:153.98828 3:53.427626 4:0.93788028 5:6514 6:89.341696 7:0.48371914 8:356.281 9:0.62061577 10:2.8821845 
0.28868448619240605 1:3878 2:98.86216 3:51.202208 4:0.85543201 5:3952 6:70.268222 7:0.82440476 8:244.49 9:0.81525875 10:1.9308183 
0.28878515272808186 1:5576 2:152.40552 3:47.433776 4:0.95033331 5:5775 6:84.259027 7:0.64958062 8:336.314 9:0.61950203 10:3.2130167 
0.28838473917549967 1:5366 2:138.32189 3:50.473147 4:0.93104816 5:5506 6:82.657144 7:0.5039444 8:315.511 9:0.67737868 10:2.7405045 
0.28866247866060168 1:6978 2:153.69664 3:59.016353 4:0.92334164 5:7234 6:94.258504 7:0.57879894 8:363.93 9:0.66207184 10:2.604306 
0.26412627513028408 1:5834 2:142.34108 3:53.051555 4:0.92794897 5:5944 6:86.186307 7:0.71495098 8:321.973 9:0.70719207 10:2.6830708 
0.25796092923066849 1:6473 2:150.68042 3:55.779236 4:0.9289591 5:6645 6:90.783697 7:0.52412955 8:342.412 9:0.6937732 10:2.7013711 
0.24408297292139325 1:6588 2:159.75243 3:53.654981 4:0.94191073 5:6734 6:91.586583 7:0.47491349 8:355.447 9:0.65526014 10:2.9774016 
0.17693873223874751 1:6291 2:164.36051 3:49.634877 4:0.95331177 5:6468 6:89.498324 7:0.44091674 8:353.971 9:0.63094889 10:3.3113914 
0.23119579643698113 1:6559 2:164.22244 3:51.805881 4:0.94893833 5:6738 6:91.384781 7:0.53912543 8:362.722 9:0.62646917 10:3.1699574 
0.28865658409218131 1:6694 2:175.04888 3:49.261655 4:0.9595857 5:6894 6:92.32045 7:0.44331126 8:390.802 9:0.55078489 10:3.5534512 
0.28907137647346365 1:6691 2:158.44685 3:55.303311 4:0.93711012 5:6934 6:92.299761 7:0.57571847 8:357.95 9:0.65623012 10:2.8650517 
0.22929629987568637 1:5607 2:146.72785 3:49.265925 4:0.94194615 5:5750 6:84.492924 7:0.47388438 8:328.322 9:0.65364275 10:2.9782826 
0.28865191459090273 1:6858 2:173.18931 3:51.35673 4:0.95502192 5:7079 6:93.444512 7:0.42902721 8:389.232 9:0.56884019 10:3.3722808 
0.27706948312889157 1:5335 2:147.63845 3:47.13844 4:0.94765943 5:5510 6:82.418038 7:0.68608539 8:326.646 9:0.62833261 10:3.1320183 
0.21389009217937793 1:5638 2:150.78414 3:48.555978 4:0.94673181 5:5801 6:84.726174 7:0.59322391 8:333.494 9:0.63702853 10:3.1053672 
0.28798957697854427 1:5416 2:139.93362 3:50.047791 4:0.93385425 5:5535 6:83.041347 7:0.52839024 8:313.863 9:0.690889 10:2.7959999 
0.28895702357488207 1:6677 2:156.08824 3:55.307907 4:0.93511763 5:6830 6:92.203148 7:0.77576391 8:348.917 9:0.68920272 10:2.8221687 
0.28866559102811795 1:7044 2:167.48572 3:54.516218 4:0.94554283 5:7211 6:94.703217 7:0.74508145 8:371.992 9:0.63967888 10:3.0722182 
0.28892283486278214 1:5677 2:147.30571 3:49.470695 4:0.94192015 5:5794 6:85.018709 7:0.80456349 8:325.331 9:0.67402788 10:2.9776358 
0.28906800692756102 1:6260 2:141.81806 3:56.932916 4:0.91588077 5:6387 6:89.277542 7:0.82476943 8:325.752 9:0.74132734 10:2.4909678 
0.2890258241793241 1:6905 2:174.6064 3:51.644528 4:0.95525707 5:7076 6:93.764167 7:0.72107352 8:383.446 9:0.59015369 10:3.3809275 
0.21215592542169595 1:5774 2:146.33979 3:50.81795 4:0.93776891 5:5935 6:85.741968 7:0.62045992 8:331.005 9:0.66224324 10:2.8796871 
0.12042807926135289 1:5891 2:145.75303 3:52.034649 4:0.93410224 5:6052 6:86.606317 7:0.76288526 8:329.085 9:0.68356956 10:2.8010765 
0.28486289765327799 1:5741 2:143.75526 3:52.310687 4:0.93144306 5:5929 6:85.496598 7:0.80406162 8:321.568 9:0.69767275 10:2.7481051 
0.28907632589700627 1:5608 2:143.13335 3:50.27878 4:0.93627334 5:5722 6:84.500458 7:0.65937684 8:318.161 9:0.69618391 10:2.8467944 
0.28886835652722576 1:5631 2:137.57501 3:52.940615 4:0.92299467 5:5761 6:84.673561 7:0.62296714 8:317.591 9:0.70155063 10:2.5986666 
0.28532999389174607 1:6598 2:161.0124 3:52.693581 4:0.94493291 5:6741 6:91.656066 7:0.59856663 8:354.401 9:0.6601343 10:3.0556359 
0.28732048726403625 1:6199 2:148.09165 3:54.734143 4:0.92919239 5:6403 6:88.841499 7:0.57276171 8:343.675 9:0.65953161 10:2.705654 
0.2576524924877075 1:6280 2:151.14331 3:53.331922 4:0.93567739 5:6444 6:89.420044 7:0.64133987 8:345.851 9:0.65976829 10:2.834012 
0.27702758530540739 1:5811 2:156.87596 3:48.33288 4:0.95135522 5:5980 6:86.016248 7:0.61904762 8:343.947 9:0.61727358 10:3.24574 
0.28866169578831857 1:5180 2:141.73603 3:47.787347 4:0.9414483 5:5424 6:81.21195 7:0.49352134 8:325.003 9:0.61626128 10:2.9659739 
0.28895539060527525 1:5930 2:147.21218 3:52.598191 4:0.93399154 5:6141 6:86.892523 7:0.53079126 8:335.075 9:0.66371328 10:2.7988069 
0.28877167057966069 1:6998 2:166.96529 3:54.646114 4:0.94492385 5:7146 6:94.393487 7:0.47156334 8:369.326 9:0.64470945 10:3.0553918 
0.28900025652992872 1:5425 2:142.61725 3:49.430549 4:0.93801456 5:5577 6:83.110315 7:0.54071564 8:320.942 9:0.66184531 10:2.8852047 
0.2718899587575988 1:5661 2:142.25309 3:51.743478 4:0.93149958 5:5799 6:84.898817 7:0.62126866 8:324.15 9:0.67703476 10:2.7491984 
0.26622029580102263 1:5965 2:151.46431 3:51.608189 4:0.94016178 5:6159 6:87.148574 7:0.52333743 8:339.582 9:0.65002639 10:2.9348892 
0.28893228046064384 1:5362 2:148.56791 3:46.637533 4:0.94945145 5:5544 6:82.62633 7:0.47002104 8:331.489 9:0.61319475 10:3.1855867 
0.28894567198752852 1:5423 2:139.67078 3:51.006069 4:0.93093385 5:5634 6:83.094994 7:0.5423 8:314.806 9:0.6876437 10:2.7383168 
0.28931907771002641 1:5328 2:135.58788 3:51.05442 4:0.92639989 5:5445 6:82.36395 7:0.67137097 8:307.377 9:0.70864927 10:2.6557521 
0.28912902827813741 1:6403 2:156.00606 3:54.108788 4:0.93792515 5:6704 6:90.291488 7:0.53492063 8:351.376 9:0.65170218 10:2.8831926 
0.27231162016441957 1:6031 2:143.78488 3:54.236729 4:0.92612879 5:6158 6:87.629377 7:0.58439922 8:327.854 9:0.70507971 10:2.6510611 
0.28867805503369193 1:4879 2:124.00339 3:51.685375 4:0.90899539 5:5021 6:78.817103 7:0.7128872 8:294.988 9:0.70458271 10:2.3991968 
0.28904076443240601 1:5300 2:150.12546 3:45.226795 4:0.95354204 5:5409 6:82.147243 7:0.65270936 8:327.945 9:0.61927523 10:3.319392 
0.28458453187648736 1:5998 2:144.03792 3:53.969134 4:0.92715137 5:6176 6:87.389306 7:0.57817621 8:333.181 9:0.67897826 10:2.6688943 
0.28570209476156044 1:7047 2:164.43414 3:56.058957 4:0.94009216 5:7269 6:94.723382 7:0.73728814 8:376.582 9:0.62444619 10:2.9332359 
0.28630434421663542 1:5848 2:160.94383 3:46.939383 4:0.95652489 5:5965 6:86.289657 7:0.42193362 8:346.619 9:0.61166341 10:3.428759 
0.28840543964887366 1:5967 2:142.52537 3:54.272186 4:0.92466169 5:6134 6:87.163182 7:0.52880184 8:327.692 9:0.69828743 10:2.6261219 
0.28898092255962349 1:6827 2:147.46844 3:59.760436 4:0.91420937 5:7075 6:93.233076 7:0.53369293 8:366.42 9:0.63897141 10:2.4676601 
0.27734395581303828 1:6399 2:149.73952 3:55.718197 4:0.92819233 5:6594 6:90.263281 7:0.73780699 8:341.88 9:0.68797805 10:2.6874438 
0.28679730056823027 1:6591 2:165.34513 3:52.242129 4:0.94877315 5:6826 6:91.607433 7:0.68229814 8:364.896 9:0.62204667 10:3.1649768 
0.27539137634438615 1:6023 2:149.79036 3:52.437557 4:0.93672243 5:6217 6:87.571238 7:0.58092207 8:339.64 9:0.6561227 10:2.8565473 
0.28865130593453114 1:5860 2:158.22827 3:47.817775 4:0.95324216 5:6073 6:86.378144 7:0.45076923 8:355.265 9:0.58344864 10:3.3089845 
0.26290832116270968 1:6360 2:153.82314 3:53.508373 4:0.9375478 5:6511 6:89.987796 7:0.80998472 8:344.294 9:0.67423 10:2.8747489 
0.28877756978695457 1:4897 2:128.9677 3:49.186343 4:0.92441631 5:5021 6:78.962358 7:0.5118102 8:295.836 9:0.70313372 10:2.6220227 
0.28866369170019179 1:6416 2:142.53357 3:58.509983 4:0.91186074 5:6559 6:90.383101 7:0.55883634 8:331.296 9:0.73458463 10:2.4360555 
0.23833624143178431 1:5963 2:157.83773 3:48.767368 4:0.95107128 5:6110 6:87.133962 7:0.64956427 8:347.09 9:0.62200012 10:3.236544 
0.28888276894374232 1:5000 2:133.85082 3:48.913915 4:0.93083644 5:5170 6:79.788456 7:0.52631579 8:306.709 9:0.66792366 10:2.7364568 
0.27387746130691593 1:5620 2:150.74182 3:48.341362 4:0.94718428 5:5797 6:84.590817 7:0.48034188 8:329.727 9:0.64958675 10:3.1182783 
0.28866140461875306 1:4375 2:109.24483 3:52.176379 4:0.87857217 5:4455 6:74.635267 7:0.5466017 8:261.724 9:0.80260308 10:2.0937602 
0.28642963722260134 1:6672 2:161.35676 3:53.718627 4:0.94295566 5:6797 6:92.168619 7:0.47599344 8:357.452 9:0.65619126 10:3.0037395 
0.289288518624711 1:5395 2:140.24908 3:50.117758 4:0.93397123 5:5586 6:82.880199 7:0.49094549 8:320.473 9:0.66011321 10:2.798391 
0.28874858665977787 1:6719 2:170.00913 3:51.283623 4:0.95341805 5:6938 6:92.492683 7:0.74490022 8:370.767 9:0.6142036 10:3.3150765 
0.28898187774499834 1:6696 2:162.62162 3:53.586047 4:0.9441508 5:6915 6:92.334241 7:0.58352941 8:377.609 9:0.59012041 10:3.0347754 
0.28520089227490186 1:6473 2:163.31024 3:51.419816 4:0.94913822 5:6590 6:90.783697 7:0.44951389 8:357.238 9:0.63738255 10:3.1760177 
0.28695718901312728 1:6019 2:156.20557 3:49.959425 4:0.94747452 5:6168 6:87.542155 7:0.49727363 8:342.8 9:0.64365416 10:3.1266487 
0.28854775254532017 1:6881 2:170.40428 3:52.491852 4:0.95137242 5:7097 6:93.601075 7:0.58912671 8:379.535 9:0.60028537 10:3.2462997 
0.28946467732071357 1:6237 2:142.28967 3:56.524578 4:0.91771041 5:6375 6:89.113383 7:0.54140625 8:332.001 9:0.71106094 10:2.5173062 
0.27875875117990029 1:5631 2:153.46233 3:47.622803 4:0.95063136 5:5787 6:84.673561 7:0.67203724 8:335.818 9:0.62746203 10:3.2224547 
0.25783058374786327 1:6290 2:152.58351 3:53.524141 4:0.93645569 5:6447 6:89.49121 7:0.75383509 8:343.137 9:0.67131354 10:2.8507418 
0.27022182715682963 1:6964 2:159.44948 3:56.445649 4:0.93524416 5:7156 6:94.163901 7:0.51815476 8:364.105 9:0.66010852 10:2.8248321 
0.28008880356181254 1:5766 2:143.23147 3:51.883207 4:0.93208746 5:5943 6:85.682549 7:0.58884804 8:334.157 9:0.64890837 10:2.7606518 
0.28871396813689754 1:6052 2:148.30605 3:52.97372 4:0.93403102 5:6247 6:87.781807 7:0.62237762 8:334.429 9:0.67998749 10:2.7996156 
0.27803360586665599 1:6306 2:153.97096 3:53.701257 4:0.9372064 5:6502 6:89.604958 7:0.74751067 8:343.732 9:0.6706932 10:2.8671761 
0.27802078293619359 1:5891 2:154.0127 3:49.562575 4:0.94680483 5:6011 6:86.606317 7:0.49416995 8:337.26 9:0.65083248 10:3.1074395 
0.26112062678028414 1:6513 2:160.22562 3:52.825495 4:0.9440877 5:6722 6:91.063764 7:0.78271842 8:357.179 9:0.64153316 10:3.0331116 
0.26318521734013145 1:6549 2:157.03766 3:54.197903 4:0.93855608 5:6781 6:91.315091 7:0.6285632 8:360.125 9:0.63456821 10:2.897486 
0.28859947165286776 1:6309 2:164.28754 3:50.116699 4:0.9523348 5:6525 6:89.62627 7:0.65650364 8:356.857 9:0.62256106 10:3.2780997 
0.28728642720231201 1:6118 2:159.72454 3:49.762327 4:0.95022946 5:6275 6:88.259161 7:0.77896613 8:348.008 9:0.63480579 10:3.2097483 
0.27737371273677291 1:6660 2:158.49822 3:54.388549 4:0.93928088 5:6809 6:92.085696 7:0.65953654 8:354.6 9:0.66558976 10:2.9141836 
0.28884050832573027 1:5025 2:134.48966 3:48.104937 4:0.93384229 5:5106 6:79.987679 7:0.79787234 8:302.332 9:0.69084035 10:2.7957559 
0.28865996654373527 1:5009 2:134.95871 3:48.344716 4:0.93363776 5:5175 6:79.860233 7:0.53860215 8:305.84 9:0.67293377 10:2.7915918 
0.18600867195863879 1:6546 2:157.93648 3:53.446371 4:0.94100084 5:6717 6:91.294173 7:0.54495505 8:350.97 9:0.66779917 10:2.9550459 
0.28869735907809313 1:3498 2:110.09879 3:40.862266 4:0.9285762 5:3582 6:66.736736 7:0.62286325 8:246.757 9:0.72192271 10:2.6943878 
0.28813836159656225 1:6951 2:166.92147 3:54.095494 4:0.94603053 5:7143 6:94.07597 7:0.45905429 8:369.999 9:0.63805197 10:3.0856816 
0.28675454698634095 1:5730 2:151.64577 3:48.62322 4:0.9472022 5:5857 6:85.414651 7:0.50307287 8:333.034 9:0.6492132 10:3.1187932 
0.28883190020741289 1:4429 2:109.39092 3:52.907516 4:0.87525848 5:4600 6:75.09446 7:0.69149102 8:276.786 9:0.72648609 10:2.0675876 
0.28904485995079177 1:7384 2:173.30291 3:55.056999 4:0.94819386 5:7580 6:96.961852 7:0.83928165 8:385.116 9:0.62563124 10:3.1476999 
0.28127990906359046 1:5710 2:138.05252 3:53.547783 4:0.92170997 5:5873 6:85.265455 7:0.53979958 8:317.833 9:0.71031011 10:2.5781183 
0.27542665969519831 1:5966 2:141.81801 3:54.4126 4:0.9234665 5:6120 6:87.155878 7:0.74761905 8:325.488 9:0.70765756 10:2.606345 
0.28886819346860015 1:6089 2:157.41813 3:50.133134 4:0.94793255 5:6191 6:88.049734 7:0.4490413 8:342.923 9:0.65067274 10:3.1400018 
0.280483111234267 1:6543 2:152.74702 3:55.661568 4:0.93124111 5:6731 6:91.273251 7:0.54497751 8:346.786 9:0.683697 10:2.7442099 
0.28533195899203695 1:5441 2:151.12337 3:47.316657 4:0.94972031 5:5625 6:83.232784 7:0.81015485 8:329.938 9:0.62809294 10:3.1938724 
0.28832843060061386 1:5701 2:147.778 3:49.931389 4:0.94118881 5:5831 6:85.198231 7:0.74698637 8:332.337 9:0.64863968 10:2.9596211 
0.2886691018732408 1:3609 2:95.461211 3:49.316156 4:0.85622121 5:3684 6:67.787326 7:0.69914762 8:235.956 9:0.81458179 10:1.9356986 
0.28867911203156316 1:4204 2:137.15622 3:40.051142 4:0.95641492 5:4359 6:73.162142 7:0.45945355 8:297.488 9:0.5969441 10:3.424527 
0.28846629966790638 1:5738 2:155.07334 3:47.623235 4:0.95167681 5:5868 6:85.474256 7:0.55735794 8:341.624 9:0.61783664 10:3.2562538 
0.28897119443004426 1:4256 2:130.56219 3:42.455892 4:0.94565298 5:4424 6:73.613229 7:0.49673203 8:293.559 9:0.62061274 10:3.0752431 
0.280073866764601 1:6036 2:161.48187 3:48.104011 4:0.95459986 5:6155 6:87.665694 7:0.7034965 8:349.331 9:0.62156255 10:3.3569315 
0.28700377015036083 1:6858 2:161.94034 3:54.602165 4:0.94144214 5:7060 6:93.444512 7:0.51836735 8:368.066 9:0.63614474 10:2.9658227 
0.28866097061646812 1:5642 2:132.72363 3:54.788311 4:0.9108217 5:5809 6:84.756224 7:0.54385965 8:322.853 9:0.68019478 10:2.4224807 
0.28876857652799165 1:6261 2:147.87097 3:54.605201 4:0.92931977 5:6376 6:89.284673 7:0.65808283 8:334.669 9:0.70246161 10:2.7080016 
0.27810746304640643 1:6362 2:155.37311 3:53.086075 4:0.93982059 5:6520 6:90.001944 7:0.55924754 8:346.645 9:0.6653247 10:2.9268148 
0.19398827903804444 1:6144 2:153.94429 3:51.936256 4:0.94137196 5:6312 6:88.446502 7:0.67368421 8:345.403 9:0.64715582 10:2.9641006 
0.28870729946755458 1:6778 2:163.18472 3:53.705229 4:0.94429265 5:6912 6:92.897888 7:0.50424044 8:360.467 9:0.65551163 10:3.0385257 
0.28633863249943053 1:6190 2:164.76905 3:48.991812 4:0.95477283 5:6390 6:88.776983 7:0.5624716 8:358.958 9:0.60368897 10:3.3631957 
0.25962046242716141 1:5192 2:144.49975 3:46.949821 4:0.94574397 5:5374 6:81.305964 7:0.45281702 8:324.006 9:0.62149615 10:3.0777487 
0.28851770313098668 1:6348 2:157.86877 3:52.038684 4:0.94410931 5:6575 6:89.902862 7:0.48149272 8:354.513 9:0.63472039 10:3.033681 
0.28746919454353936 1:6468 2:154.09775 3:54.549735 4:0.93524755 5:6584 6:90.748627 7:0.74072377 8:344.46 9:0.68501847 10:2.8249037 
0.18201744746350051 1:6522 2:157.18325 3:53.996039 4:0.93914431 5:6750 6:91.126661 7:0.80399408 8:352.829 9:0.65835799 10:2.9110144 
0.28868083862367 1:4026 2:138.03776 3:40.638846 4:0.95568111 5:4346 6:71.596525 7:0.69461698 8:304.672 9:0.54502767 10:3.3966949 
0.20036049889032542 1:6059 2:149.64356 3:52.356696 4:0.93679601 5:6196 6:87.832559 7:0.54477612 8:331.801 9:0.69160072 10:2.8581553 
0.27156447337570699 1:5952 2:150.8864 3:51.395574 4:0.9401995 5:6122 6:87.053557 7:0.58284371 8:335.396 9:0.66490107 10:2.9357859 
0.275430785263656 1:4689 2:132.33276 3:45.799342 4:0.93820049 5:4817 6:77.2672 7:0.57294721 8:299.927 9:0.65502665 10:2.889403 
0.28863589484224794 1:6121 2:150.35989 3:52.808782 4:0.9362945 5:6238 6:88.280798 7:0.4945863 8:335.559 9:0.683116 10:2.8472516 
0.2887236032281828 1:4689 2:133.06745 3:45.91854 4:0.93857432 5:4785 6:77.2672 7:0.51380671 8:296.52 9:0.67016557 10:2.8979026 
0.28868161600671571 1:4289 2:139.96618 3:39.146906 4:0.96009085 5:4360 6:73.898068 7:0.40824291 8:299.701 9:0.60005288 10:3.5754084 
0.28319899320051822 1:5574 2:144.64265 3:49.905744 4:0.93859245 5:5719 6:84.243915 7:0.81206294 8:327.374 9:0.65356451 10:2.8983167 
0.28887092015554749 1:5642 2:125.86706 3:58.21205 4:0.88662536 5:5759 6:84.756224 7:0.63997278 8:301.902 9:0.77787706 10:2.1622166 
0.28902823986044834 1:6160 2:156.63451 3:52.099056 4:0.94306255 5:6478 6:88.561592 7:0.57403783 8:349.241 9:0.63465854 10:3.0064751 
0.28867982429727612 1:5555 2:129.02054 3:55.632277 4:0.90226148 5:5733 6:84.100212 7:0.74966262 8:305.326 9:0.74880089 10:2.319167 
0.27286797771265625 1:6267 2:158.21245 3:50.786568 4:0.9470784 5:6388 6:89.327444 7:0.72669295 8:347.28 9:0.65299524 10:3.115242 
0.28900304451598807 1:6957 2:161.56949 3:55.633436 4:0.9388482 5:7112 6:94.116563 7:0.71471132 8:361.745 9:0.66807742 10:2.9041796 
0.26014490251675976 1:5808 2:149.3161 3:50.329143 4:0.94148159 5:5987 6:85.994042 7:0.57607618 8:335.224 9:0.64948072 10:2.9667919 
0.16670010744291616 1:6467 2:168.86608 3:49.760404 4:0.95559791 5:6600 6:90.741612 7:0.79505778 8:364.614 9:0.61128825 10:3.3935834 
0.28718432440694086 1:6707 2:161.79454 3:53.701541 4:0.94331037 5:6862 6:92.410052 7:0.68243793 8:362.465 9:0.64151382 10:3.0128472 
0.28755901294201891 1:6260 2:152.28904 3:53.759965 4:0.93561853 5:6381 6:89.277542 7:0.81830065 8:339.738 9:0.68154721 10:2.8327593 
0.28836515329857737 1:5663 2:146.78375 3:50.021669 4:0.94014133 5:5792 6:84.913812 7:0.49389499 8:331.249 9:0.64855569 10:2.9344032 
0.28072553780243703 1:5729 2:146.88949 3:50.550802 4:0.93891772 5:5903 6:85.407197 7:0.64771057 8:333.247 9:0.6482704 10:2.9057797 
0.28353038691012511 1:6143 2:154.04728 3:52.056975 4:0.94117177 5:6342 6:88.439304 7:0.48987241 8:345.34 9:0.64728659 10:2.9592054 
0.28270364977904056 1:5990 2:153.03358 3:50.683476 4:0.94356343 5:6137 6:87.331008 7:0.52821869 8:339.45 9:0.65325849 10:3.0193978 
0.28866741976942278 1:6484 2:159.90868 3:53.294265 4:0.94282812 5:6747 6:90.860801 7:0.75185529 8:357.137 9:0.63882687 10:3.0004858 
0.20811740970471204 1:6453 2:155.92882 3:53.480937 4:0.93934161 5:6605 6:90.643338 7:0.60998204 8:350.242 9:0.66105117 10:2.9155963 
0.22329322338103155 1:5882 2:149.71552 3:50.461783 4:0.94148635 5:6040 6:86.540135 7:0.7845805 8:334.734 9:0.6596829 10:2.966909 
0.21339969352313465 1:6162 2:151.83915 3:52.526229 4:0.93825908 5:6309 6:88.575968 7:0.56115108 8:339.681 9:0.67110279 10:2.89073 
0.28894062030385281 1:3663 2:94.001431 3:49.885573 4:0.84756631 5:3738 6:68.29258 7:0.7537037 8:230.804 9:0.86409227 10:1.884341 
0.27754852292561039 1:6750 2:157.65027 3:55.59206 4:0.9357632 5:6884 6:92.705808 7:0.48761107 8:355.524 9:0.67108231 10:2.8358415 
0.28872885073866228 1:6460 2:152.64006 3:55.023564 4:0.93276726 5:6746 6:90.692488 7:0.76767677 8:371.059 9:0.5895986 10:2.7740853 
0.28873906098412266 1:7429 2:170.27596 3:56.191348 4:0.94398036 5:7559 6:97.256859 7:0.73062549 8:374.208 9:0.66667487 10:3.0302879 
0.28896298095351752 1:5966 2:147.67003 3:53.187646 4:0.93288321 5:6184 6:87.155878 7:0.5215035 8:335.638 9:0.6655043 10:2.7763972 
0.28877797422230089 1:4567 2:125.51124 3:47.145312 4:0.92677125 5:4725 6:76.255393 7:0.64542114 8:295.742 9:0.65616772 10:2.662221 
0.28876448779545388 1:7069 2:158.52825 3:57.909844 4:0.93089115 5:7236 6:94.871125 7:0.49648827 8:363.414 9:0.67261189 10:2.737501 
0.28623193462341334 1:6403 2:157.84426 3:52.805108 4:0.9423818 5:6576 6:90.291488 7:0.55843363 8:351.516 9:0.65118317 10:2.9891854 
0.28824656342765087 1:5671 2:144.47783 3:51.375213 4:0.93464115 5:5882 6:84.973769 7:0.5233481 8:335.596 9:0.63275555 10:2.8122089 
0.28831809787140189 1:5593 2:137.78977 3:52.642793 4:0.92414102 5:5711 6:84.387373 7:0.54380165 8:310.779 9:0.72769829 10:2.617448 
0.26667188102360517 1:6084 2:153.88375 3:51.028602 4:0.94341836 5:6211 6:88.013575 7:0.48621434 8:341.1 9:0.6571063 10:3.0156372 
0.28894102130434024 1:3494 2:90.075276 3:50.525192 4:0.82786874 5:3580 6:66.698568 7:0.72549834 8:227.934 9:0.84511253 10:1.7827795 
0.28014788770577559 1:6248 2:161.47481 3:50.103462 4:0.95064307 5:6415 6:89.191932 7:0.51162791 8:353.104 9:0.62971728 10:3.2228274 
0.28765849074921718 1:6603 2:160.06989 3:53.563367 4:0.94235142 5:6730 6:91.690789 7:0.47090287 8:355.17 9:0.65777689 10:2.9884211 
0.28824183436925166 1:5197 2:134.78857 3:49.867988 4:0.92904294 5:5349 6:81.345104 7:0.5019801 8:307.142 9:0.69228379 10:2.7029078 
0.28922872335288136 1:7134 2:153.53725 3:60.293836 4:0.91966731 5:7351 6:95.3063 7:0.63458459 8:361.415 9:0.68632627 10:2.5464834 
0.25678931947624195 1:6176 2:152.48584 3:53.151836 4:0.93728313 5:6365 6:88.676533 7:0.59213806 8:347.182 9:0.64387676 10:2.8688725 
0.28865796995902815 1:7133 2:176.5565 3:52.322366 4:0.95507967 5:7336 6:95.299621 7:0.44112554 8:387.925 9:0.5956437 10:3.3743981 
0.28744806646762172 1:6205 2:151.5943 3:53.452189 4:0.93577404 5:6405 6:88.884483 7:0.51682492 8:343.702 9:0.66006626 10:2.8360728 
0.28791017779197992 1:6228 2:153.1776 3:52.584753 4:0.93922847 5:6379 6:89.049064 7:0.54531127 8:342.907 9:0.66558843 10:2.9129661 
0.27401278062330975 1:5682 2:152.21657 3:48.270495 4:0.94838635 5:5824 6:85.056141 7:0.45822581 8:334.493 9:0.63817094 10:3.153408 
0.24550355196363197 1:6049 2:152.54718 3:51.661683 4:0.94090869 5:6217 6:87.760048 7:0.7122336 8:344.817 9:0.63931679 10:2.9528109 
0.28887091226065192 1:6980 2:170.93637 3:53.385643 4:0.94997927 5:7162 6:94.272011 7:0.8260355 8:375.232 9:0.62296773 10:3.2019164 
0.24463995868119426 1:5892 2:147.05094 3:51.988277 4:0.9354197 5:6047 6:86.613668 7:0.49646107 8:328.553 9:0.68590146 10:2.8285404 
0.26270606655811823 1:5625 2:137.92973 3:52.989456 4:0.92325939 5:5772 6:84.628438 7:0.58139535 8:316.566 9:0.70534867 10:2.6029657 
0.27972060476869837 1:6161 2:161.37078 3:49.542348 4:0.95170648 5:6330 6:88.56878 7:0.58833079 8:357.776 9:0.60483744 10:3.2572292 
0.2886142903676534 1:5340 2:139.62717 3:49.579161 4:0.93483498 5:5453 6:82.45665 7:0.74414716 8:312.579 9:0.68680196 10:2.8162471 
0.27653395111838408 1:6230 2:152.65296 3:52.977932 4:0.9378473 5:6359 6:89.063362 7:0.5297619 8:339.633 9:0.67870047 10:2.8814442 
0.28617793790594526 1:5070 2:148.17176 3:44.274472 4:0.95431417 5:5215 6:80.345034 7:0.57777778 8:321.941 9:0.61470288 10:3.3466634 
0.23169184677853094 1:6204 2:155.5718 3:51.785322 4:0.94297241 5:6389 6:88.877321 7:0.46385047 8:348.163 9:0.64315614 10:3.0041678 
0.28871421909343531 1:7185 2:155.90767 3:59.436103 4:0.92448175 5:7329 6:95.64636 7:0.51098784 8:359.66 9:0.69799507 10:2.6231139 
0.28892647809185168 1:5300 2:133.99504 3:51.763206 4:0.92237031 5:5491 6:82.147243 7:0.52516845 8:319.33 9:0.65314001 10:2.5886156 
0.20796177780313402 1:6245 2:160.73052 3:50.414068 4:0.94953673 5:6382 6:89.170516 7:0.45009009 8:353.193 9:0.62909775 10:3.1882078 
0.28846819184989153 1:6071 2:157.35603 3:49.7412 4:0.94872385 5:6247 6:87.919493 7:0.66386003 8:351.06 9:0.61902388 10:3.163495 
0.28885318771772206 1:6549 2:162.17677 3:52.274467 4:0.94662731 5:6742 6:91.315091 7:0.48547072 8:357.472 9:0.64402213 10:3.1024089 
0.28834848298610405 1:6680 2:160.92593 3:54.461482 4:0.94099309 5:6913 6:92.223859 7:0.53015873 8:358.893 9:0.65171295 10:2.9548576 
0.15340611287745637 1:6113 2:150.73571 3:52.59736 4:0.93714595 5:6297 6:88.223088 7:0.66808743 8:342.741 9:0.65393132 10:2.8658417 
0.2888734426098073 1:6631 2:174.41772 3:49.244182 4:0.95931595 5:6908 6:91.88499 7:0.64705308 8:379.426 9:0.57880826 10:3.5418949 
0.28227079603793004 1:6823 2:168.04296 3:52.984166 4:0.94899161 5:7001 6:93.205758 7:0.47208192 8:371.448 9:0.62142567 10:3.1715693 
0.28932061603517345 1:6282 2:149.9341 3:53.701832 4:0.93365655 5:6393 6:89.434282 7:0.51810309 8:335.103 9:0.70299327 10:2.7919736 
0.28599478018229141 1:6575 2:164.39737 3:52.16139 4:0.94832907 5:6752 6:91.496175 7:0.59827116 8:363.333 9:0.625887 10:3.151706 
0.2733404637062461 1:6379 2:155.29373 3:53.349817 4:0.93913755 5:6549 6:90.122112 7:0.52316903 8:348.183 9:0.66122207 10:2.9108578 
0.28866547437654144 1:7312 2:163.35669 3:57.438056 4:0.93614609 5:7566 6:96.487966 7:0.48411017 8:396.566 9:0.58427203 10:2.8440498 
0.28536329710987496 1:6032 2:150.73085 3:52.267488 4:0.93795374 5:6227 6:87.636641 7:0.60708535 8:337.911 9:0.66384477 10:2.8838357 
0.28891091328312696 1:6143 2:161.61803 3:50.019544 4:0.95090193 5:6330 6:88.439304 7:0.43853512 8:357.019 9:0.60563048 10:3.2310976 
0.19575909266314837 1:6248 2:155.92644 3:51.574259 4:0.94371484 5:6407 6:89.191932 7:0.68061002 8:351.672 9:0.63485611 10:3.0233386 
0.28701403817638294 1:5950 2:161.38494 3:47.972654 4:0.95479779 5:6141 6:87.03893 7:0.47282263 8:351.046 9:0.60673461 10:3.3641027 
0.2888753651958631 1:4833 2:126.77002 3:48.871107 4:0.92270366 5:4918 6:78.444673 7:0.66570248 8:286.404 9:0.74040356 10:2.5939665 
0.28886458007030952 1:5129 2:148.70263 3:44.824886 4:0.95348522 5:5328 6:80.811173 7:0.64048452 8:323.487 9:0.61592651 10:3.3174122 
0.28865012901504383 1:7067 2:159.31594 3:57.775534 4:0.93192637 5:7246 6:94.857703 7:0.48677504 8:361.438 9:0.67979401 10:2.7574984 
0.28860293756388206 1:6199 2:146.02803 3:55.285707 4:0.92556181 5:6389 6:88.841499 7:0.55586442 8:333.587 9:0.70002454 10:2.6413342 
0.26375139259164948 1:6599 2:167.01378 3:50.890804 4:0.95244511 5:6744 6:91.663012 7:0.443362 8:367.904 9:0.61265922 10:3.2818067 
0.28464468670194965 1:5536 2:141.81489 3:50.914644 4:0.93332916 5:5647 6:83.956263 7:0.49200142 8:318.737 9:0.6847641 10:2.7853459 
0.23949006385275906 1:6136 2:154.19018 3:51.867275 4:0.94172452 5:6284 6:88.388901 7:0.68177778 8:342.773 9:0.65626917 10:2.9727834 
0.28581826091631918 1:5502 2:146.43697 3:48.445949 4:0.94368988 5:5604 6:83.698052 7:0.58656716 8:321.18 9:0.67024481 10:3.0226876 
0.28871887554391185 1:4527 2:125.63047 3:46.886457 4:0.92774718 5:4666 6:75.920718 7:0.64487179 8:286.247 9:0.6942861 10:2.6794618 
0.28865942106122033 1:5080 2:139.68628 3:48.044352 4:0.93898991 5:5325 6:80.424231 7:0.71308254 8:320.874 9:0.62001832 10:2.9074443 
0.2888655264869574 1:6048 2:154.45951 3:51.533575 4:0.94270124 5:6280 6:87.752793 7:0.45 8:348.975 9:0.62406958 10:2.9972598 
0.28721073991295443 1:6596 2:155.01783 3:55.481362 4:0.93375874 5:6735 6:91.642174 7:0.82419093 8:348.189 9:0.68369187 10:2.7940524 
0.21534671188558707 1:5820 2:148.68518 3:50.722891 4:0.94001146 5:5937 6:86.082833 7:0.63592657 8:330.823 9:0.66825383 10:2.9313231 
0.28868030800827571 1:6374 2:129.57676 3:63.762307 4:0.87054922 5:6476 6:90.086785 7:0.66223377 8:314.656 9:0.80900255 10:2.0321843 
0.28785037612919329 1:6672 2:156.62262 3:55.238938 4:0.93574093 5:6870 6:92.168619 7:0.57201646 8:353.931 9:0.66931213 10:2.8353662 
0.20197358402166979 1:6460 2:162.11451 3:52.065351 4:0.94702358 5:6632 6:90.692488 7:0.47569956 8:358.382 9:0.63204792 10:3.1136737 
0.2888297489145697 1:5377 2:133.46036 3:52.657947 4:0.91887074 5:5549 6:82.741822 7:0.75202797 8:307.642 9:0.71393496 10:2.5344772 
0.28903250190523777 1:6332 2:166.14029 3:49.321228 4:0.95491947 5:6459 6:89.789492 7:0.46955877 8:358.977 9:0.61747236 10:3.368535 
0.28870851362294969 1:7431 2:170.98122 3:56.225615 4:0.94438534 5:7589 6:97.269949 7:0.68869323 8:380.948 9:0.64346619 10:3.0409845 
0.22829128207185428 1:5630 2:151.14811 3:48.335817 4:0.94748808 5:5778 6:84.666042 7:0.44971643 8:335.923 9:0.62695848 10:3.1270416 
0.28277404335902612 1:6085 2:152.27595 3:51.507612 4:0.94105565 5:6248 6:88.020808 7:0.60953621 8:343.245 9:0.64902587 10:2.9563776 
0.28747136668783879 1:6925 2:158.8444 3:56.594957 4:0.93437474 5:7113 6:93.899861 7:0.59585269 8:358.355 9:0.67764573 10:2.8066882 
0.28187567609640196 1:6077 2:151.87702 3:51.525389 4:0.94069362 5:6243 6:87.962928 7:0.63941498 8:337.356 9:0.67099954 10:2.9476152 
0.20928608411956942 1:5612 2:150.68147 3:48.047691 4:0.94779871 5:5757 6:84.530588 7:0.57265306 8:333.238 9:0.63506545 10:3.1360814 
0.28894025165134402 1:3505 2:88.001794 3:52.277039 4:0.8044317 5:3586 6:66.803477 7:0.59477346 8:229.044 9:0.83957606 10:1.6833737 
0.28777809427244572 1:5131 2:141.06756 3:47.258153 4:0.94221682 5:5283 6:80.826927 7:0.46125494 8:315.744 9:0.64675779 10:2.9850418 
0.28835355432437437 1:5912 2:154.99427 3:49.002776 4:0.94870634 5:6050 6:86.760545 7:0.78346144 8:343.088 9:0.63115094 10:3.1629691 
0.27496060512696108 1:5939 2:152.13355 3:50.587467 4:0.94309616 5:6108 6:86.958436 7:0.56497336 8:339.499 9:0.64750957 10:3.0073368 
0.28901875356590156 1:6819 2:168.01862 3:52.598954 4:0.94973523 5:7019 6:93.178433 7:0.51565336 8:366.37 9:0.63839686 10:3.194334 
0.27646497692731287 1:5894 2:156.59068 3:49.104953 4:0.94955915 5:6055 6:86.628366 7:0.57329054 8:345.023 9:0.62219125 10:3.1888979 
0.28944936148766043 1:5384 2:157.35545 3:44.287731 4:0.95957582 5:5532 6:82.795662 7:0.56259143 8:336.587 9:0.5972006 10:3.5530257 
0.28941357700392956 1:6619 2:155.7629 3:55.053399 4:0.93545584 5:6731 6:91.801811 7:0.82654845 8:348.777 9:0.68376453 10:2.8293057 
0.28717406384578331 1:5861 2:156.43286 3:49.04778 4:0.94957537 5:6041 6:86.385514 7:0.49144726 8:340.922 9:0.63368223 10:3.1893973 
0.22197430160996126 1:6398 2:156.30607 3:52.967536 4:0.94083298 5:6535 6:90.256228 7:0.49105841 8:350.544 9:0.6542881 10:2.9509786 
0.19256105182575017 1:6391 2:153.29963 3:54.088091 4:0.93568896 5:6553 6:90.20684 7:0.56657801 8:346.927 9:0.66727135 10:2.8342584 
0.28902317307390224 1:5346 2:136.78492 3:51.011001 4:0.92786007 5:5494 6:82.502961 7:0.70714286 8:312.811 9:0.68655413 10:2.6814789 
0.286322572361841 1:5052 2:137.90886 3:47.221905 4:0.93954922 5:5207 6:80.202283 7:0.47570621 8:317.338 9:0.63041864 10:2.9204425 
0.28609052060614704 1:6289 2:151.23527 3:53.568809 4:0.9351665 5:6481 6:89.484096 7:0.57271651 8:344.652 9:0.66531889 10:2.8231965 
0.28866393084258424 1:5969 2:162.93018 3:47.532922 4:0.95649827 5:6186 6:87.177789 7:0.46357564 8:361.565 9:0.57377111 10:3.4277332 
0.28807570946057309 1:5408 2:145.69054 3:47.425577 4:0.94553422 5:5520 6:82.979994 7:0.72727273 8:322.188 9:0.65467812 10:3.0719824 
0.2428457543921082 1:6186 2:161.76254 3:49.38694 4:0.95225456 5:6363 6:88.748295 7:0.5035819 8:359.373 9:0.6019063 10:3.2754112 
0.28560881055474086 1:6224 2:147.43288 3:54.882175 4:0.92813173 5:6443 6:89.020464 7:0.60135266 8:344.271 9:0.65990066 10:2.6863528 
0.28869806195236158 1:6275 2:166.30652 3:49.134183 4:0.95536021 5:6529 6:89.38444 7:0.61713218 8:370.048 9:0.57584748 10:3.3847417 
0.28618329877424159 1:5687 2:140.84533 3:52.227851 4:0.92870593 5:5810 6:85.093556 7:0.81242857 8:320.039 9:0.69772982 10:2.6967475 
0.28685719837568485 1:6207 2:149.84747 3:54.138576 4:0.93245303 5:6388 6:88.898807 7:0.54091503 8:340.674 9:0.67206864 10:2.7678502 
0.28887164369434892 1:5828 2:145.67591 3:51.884422 4:0.9344237 5:6029 6:86.141976 7:0.49318778 8:334.681 9:0.65383368 10:2.8077004 
0.28899217455418735 1:6178 2:162.15214 3:49.037389 4:0.95317606 5:6334 6:88.69089 7:0.56871951 8:355.676 9:0.61368943 10:3.3067042 
0.28866411676820791 1:4177 2:128.90515 3:41.475069 4:0.94682509 5:4269 6:72.926823 7:0.58030008 8:283.064 9:0.65509617 10:3.1080152 
0.28414936931757651 1:6797 2:159.27809 3:55.469346 4:0.93739994 5:6965 6:93.028002 7:0.50051546 8:356.332 9:0.67269389 10:2.8714614 
0.28867105546787031 1:7132 2:158.88084 3:59.081748 4:0.92828802 5:7541 6:95.29294 7:0.66159555 8:393.214 9:0.57964655 10:2.6891695 
0.27935645051475033 1:5702 2:153.41498 3:48.244887 4:0.94926638 5:5878 6:85.205703 7:0.59675563 8:337.034 9:0.63079704 10:3.179922 
0.28889593389366974 1:4933 2:125.00367 3:51.364088 4:0.91168014 5:5037 6:79.25207 7:0.55055804 8:290.047 9:0.73685871 10:2.4336784 
0.26219402042840634 1:6116 2:153.06707 3:51.790696 4:0.94101927 5:6266 6:88.244734 7:0.75506173 8:339.366 9:0.66733005 10:2.9554936 
0.28109459939196624 1:6978 2:158.73701 3:57.399284 4:0.93233338 5:7177 6:94.258504 7:0.49127006 8:361.758 9:0.67004588 10:2.7654876 
0.28894498637100724 1:6392 2:149.78367 3:55.033617 4:0.93005487 5:6505 6:90.213897 7:0.4966589 8:337.504 9:0.70516181 10:2.721676 
0.25910556563706016 1:6736 2:159.7383 3:54.529425 4:0.93992999 5:6940 6:92.609619 7:0.57225384 8:365.542 9:0.63348652 10:2.9293963 
0.28886860778915846 1:5780 2:145.10614 3:52.149991 4:0.93318667 5:5991 6:85.786506 7:0.53252257 8:328.906 9:0.67141975 10:2.7824768 
0.2527524251906042 1:6151 2:147.10214 3:54.630482 4:0.92848181 5:6337 6:88.496872 7:0.54184285 8:335.886 9:0.68512811 10:2.6926752 
0.090624754475797181 1:6216 2:158.66148 3:50.863081 4:0.94722276 5:6376 6:88.963234 7:0.45461859 8:351.917 9:0.63072548 10:3.1193841 
0.28886134456458745 1:7135 2:173.35765 3:53.831946 4:0.9505651 5:7310 6:95.31298 7:0.69623341 8:382.867 9:0.61165703 10:3.220349 
0.28895239214583501 1:5729 2:157.24859 3:46.909119 4:0.95446846 5:5855 6:85.407197 7:0.73448718 8:345.899 9:0.60171394 10:3.3521965 
0.28583550197317315 1:6176 2:151.00601 3:53.591593 4:0.93490537 5:6419 6:88.676533 7:0.72933396 8:337.662 9:0.68069534 10:2.8177182 
0.2889246538220332 1:7049 2:159.45442 3:57.553965 4:0.93258786 5:7259 6:94.736823 7:0.59066533 8:365.236 9:0.66403385 10:2.7705202 
0.28903606262950876 1:4757 2:131.60193 3:46.991327 4:0.93407697 5:4902 6:77.825449 7:0.6348592 8:297.809 9:0.67401161 10:2.8005578 
0.28878136151364941 1:4863 2:152.17256 3:41.454313 4:0.96217943 5:4965 6:78.687762 7:0.39965483 8:326.554 9:0.57306531 10:3.6708498 
0.23983501506841823 1:6087 2:149.01214 3:52.86611 4:0.93495087 5:6262 6:88.035272 7:0.50197922 8:342.43 9:0.65233331 10:2.8186704 
0.24600012045864483 1:6030 2:162.04858 3:48.217023 4:0.95470726 5:6189 6:87.622112 7:0.56672932 8:351.838 9:0.61212722 10:3.3608168 
0.2889401985238137 1:7401 2:168.59913 3:56.366439 4:0.94245882 5:7620 6:97.073405 7:0.52841639 8:382.225 9:0.63659334 10:2.9911261 
0.28866042287639992 1:4381 2:128.97153 3:45.128655 4:0.93678266 5:4549 6:74.686427 7:0.49598098 8:294.644 9:0.63414404 10:2.8578633 
0.25379417621767753 1:6318 2:152.33976 3:53.94192 4:0.93521152 5:6490 6:89.690175 7:0.55479452 8:345.81 9:0.66391792 10:2.8241443 
0.28882742898174757 1:4855 2:135.14998 3:46.307294 4:0.93946812 5:5011 6:78.623012 7:0.50368295 8:308.065 9:0.642857 10:2.9185464 
0.22686822471887089 1:6377 2:159.2184 3:51.986057 4:0.94519449 5:6565 6:90.107983 7:0.61696981 8:354.079 9:0.63918407 10:3.0627135 
0.22886060117667509 1:5878 2:143.31853 3:53.559061 4:0.92754702 5:6022 6:86.510705 7:0.49932042 8:327.34 9:0.6893524 10:2.675897 
0.28671460797825599 1:6016 2:161.13342 3:48.906709 4:0.95282607 5:6220 6:87.520335 7:0.43209078 8:352.184 9:0.60950665 10:3.29471 
0.27919722467888958 1:5271 2:135.29121 3:50.501599 4:0.92771844 5:5410 6:81.922193 7:0.49985775 8:310.31 9:0.68787787 10:2.678949 
0.27163343807462376 1:5597 2:148.02565 3:49.443924 4:0.94256504 5:5803 6:84.417544 7:0.652331 8:338.878 9:0.61246097 10:2.9938087 
0.11727390576989496 1:6041 2:159.67328 3:48.486511 4:0.95278022 5:6172 6:87.701996 7:0.77448718 8:349.174 9:0.62263697 10:3.2931486 
0.25418606602443916 1:6259 2:156.71432 3:51.868253 4:0.94364012 5:6469 6:89.270411 7:0.76684636 8:349.29 9:0.6446775 10:3.0213919 
0.27492055869856002 1:6397 2:161.8453 3:51.050325 4:0.94894995 5:6602 6:90.249174 7:0.606926 8:361.63 9:0.61469165 10:3.1703089 
0.28860934551626677 1:6491 2:157.28938 3:53.357288 4:0.94070344 5:6668 6:90.909834 7:0.53662368 8:350.168 9:0.665225 10:2.9478519 
0.28336391176508446 1:5451 2:158.71807 3:44.138375 4:0.96055417 5:5595 6:83.309236 7:0.58789905 8:340.846 9:0.58961652 10:3.5959202 
0.28904886778477501 1:6517 2:164.51596 3:51.535475 4:0.949669 5:6671 6:91.091724 7:0.43891433 8:364.886 9:0.6150964 10:3.1922858 
0.28885039823010761 1:4090 2:137.04989 3:38.510389 4:0.95970912 5:4247 6:72.163355 7:0.47607962 8:298.877 9:0.57537128 10:3.5587772 
0.28776286748341384 1:6169 2:162.84687 3:49.152038 4:0.95336182 5:6320 6:88.626264 7:0.42914783 8:353.011 9:0.62208275 10:3.3131254 
0.28838646448104222 1:6611 2:162.64241 3:52.918389 4:0.94558799 5:6826 6:91.746317 7:0.58426867 8:362.415 9:0.63250606 10:3.0734573 
0.28883152662700712 1:4968 2:142.97374 3:45.392461 4:0.94826226 5:5187 6:79.532723 7:0.64519481 8:319.94 9:0.60989401 10:3.1497244 
0.28658049778561068 1:5978 2:151.745 3:50.833499 4:0.94222065 5:6133 6:87.243487 7:0.53667295 8:338.623 9:0.65513812 10:2.9851379 
0.26030700826400754 1:6568 2:151.60896 3:56.487366 4:0.92799769 5:6741 6:91.447457 7:0.62504758 8:348.248 9:0.68055894 10:2.6839446 
0.28873066803373093 1:5958 2:153.10008 3:51.148082 4:0.94254378 5:6180 6:87.097424 7:0.47192079 8:338.8 9:0.65226423 10:2.9932713 
0.28862118812431548 1:6697 2:153.8792 3:56.132068 4:0.9310937 5:6853 6:92.341135 7:0.65656863 8:351.573 9:0.68086206 10:2.7413777 
0.28854360826336412 1:7108 2:165.27799 3:56.103736 4:0.94062383 5:7302 6:95.132469 7:0.46664916 8:371.758 9:0.64630369 10:2.9459355 
0.28696895193586291 1:7082 2:167.79289 3:54.525128 4:0.9457295 5:7234 6:94.95832 7:0.50978981 8:369.762 9:0.65091043 10:3.0773498 
0.26292081543233126 1:6718 2:164.43465 3:52.957048 4:0.94672086 5:6867 6:92.4858 7:0.68579012 8:362.067 9:0.6439794 10:3.1050569 
0.27926870955517319 1:6541 2:162.91927 3:51.771698 4:0.94816609 5:6666 6:91.2593 7:0.45048209 8:359.205 9:0.63704376 10:3.146879 
0.28869867035265617 1:6829 2:144.90733 3:61.565377 4:0.90525892 5:7092 6:93.246731 7:0.57541288 8:357.414 9:0.67177503 10:2.3537147 
0.28039252690186711 1:6230 2:152.15931 3:52.909264 4:0.93759738 5:6415 6:89.063362 7:0.78890718 8:340.738 9:0.67430561 10:2.8758538 
0.2888263695673724 1:6395 2:149.05373 3:55.243298 4:0.9287819 5:6514 6:90.235065 7:0.50891294 8:335.518 9:0.7138694 10:2.6981323 
0.28676651103567657 1:6741 2:170.96704 3:50.833301 4:0.95477538 5:6897 6:92.643984 7:0.46541011 8:368.11 9:0.62514241 10:3.3632882 
0.28866226316833155 1:5130 2:135.39477 3:49.472849 4:0.93085176 5:5410 6:80.81905 7:0.66502463 8:324.604 9:0.61181412 10:2.736749 
0.28882599842527529 1:5636 2:141.41798 3:51.621658 4:0.93099617 5:5740 6:84.711145 7:0.50524429 8:318.356 9:0.69880301 10:2.7395087 
0.28540990601759275 1:5891 2:147.63176 3:51.19571 4:0.93794658 5:6024 6:86.606317 7:0.79116304 8:334.09 9:0.66324187 10:2.8836745 
0.28898927207543401 1:6643 2:151.27333 3:57.019984 4:0.92624033 5:6812 6:91.968094 7:0.62375587 8:346.496 9:0.6953087 10:2.652988 
0.28893168808782999 1:5257 2:140.00568 3:48.661305 4:0.93765528 5:5360 6:81.813326 7:0.53862705 8:306.75 9:0.70206722 10:2.877146 
0.28904555352921002 1:6264 2:148.31054 3:54.96218 4:0.92879716 5:6492 6:89.306061 7:0.49167975 8:344.201 9:0.66441183 10:2.6984108 
0.24074302449490695 1:5791 2:149.77579 3:50.219798 4:0.94211146 5:5976 6:85.868098 7:0.62836372 8:337.431 9:0.63913628 10:2.9824052 
0.28866185584055715 1:6587 2:172.70687 3:49.622 4:0.95783489 5:6787 6:91.579631 7:0.80017007 8:372.553 9:0.5963777 10:3.4804496 
0.26079520860211219 1:5846 2:156.36747 3:48.776855 4:0.95010267 5:6015 6:86.2749 7:0.59446817 8:344.212 9:0.62003565 10:3.2057718 
0.28095357686811134 1:6581 2:160.11298 3:53.192003 4:0.94320353 5:6734 6:91.537913 7:0.48148961 8:354.198 9:0.65918838 10:3.0100949 
0.28265741144094453 1:5898 2:145.94644 3:52.603667 4:0.93278576 5:6073 6:86.657757 7:0.57823529 8:334.86 9:0.66097965 10:2.7744538 
0.28878005733936185 1:6094 2:158.30391 3:49.46927 4:0.94991922 5:6256 6:88.085877 7:0.45073965 8:348.411 9:0.63085362 10:3.2000455 
0.28866192983768735 1:4602 2:125.28955 3:48.17189 4:0.92313145 5:4809 6:76.547034 7:0.5344327 8:286.606 9:0.7040215 10:2.6008851 
0.277998468135771 1:6557 2:169.65232 3:49.598323 4:0.95631055 5:6701 6:91.370847 7:0.50007627 8:365.668 9:0.61622758 10:3.4205254 
0.23295557153226734 1:5988 2:145.82799 3:53.172428 4:0.93115473 5:6127 6:87.316427 7:0.6067484 8:331.56 9:0.68449045 10:2.7425491 
0.28540920864566433 1:5821 2:155.44644 3:48.505374 4:0.95006925 5:5964 6:86.090228 7:0.46773805 8:339.767 9:0.63364363 10:3.2047262 
0.28869734855735762 1:7351 2:177.23812 3:53.876428 4:0.95267916 5:7690 6:96.744942 7:0.50935421 8:399.624 9:0.57843313 10:3.2897155 
0.26685742673264318 1:5786 2:141.88358 3:52.843543 4:0.92805508 5:5913 6:85.83102 7:0.78539433 8:321.519 9:0.7033557 10:2.6849748 
0.25216962872454407 1:6422 2:154.50065 3:54.378547 4:0.93601383 5:6607 6:90.425352 7:0.75446429 8:348.173 9:0.66571752 10:2.841206 
0.22832929108923522 1:6510 2:155.73527 3:54.326867 4:0.93718188 5:6671 6:91.042789 7:0.47779817 8:350.488 9:0.66595448 10:2.8666345 
0.27712853525094011 1:5603 2:158.79825 3:45.572766 4:0.95793498 5:5728 6:84.46278 7:0.42286792 8:341.83 9:0.60257365 10:3.4844989 
0.27656297053706602 1:6267 2:151.39402 3:54.540991 4:0.93285249 5:6486 6:89.327444 7:0.60492278 8:351.838 9:0.63618595 10:2.7757842 
0.28882099473150064 1:5619 2:157.2662 3:46.110546 4:0.95605094 5:5745 6:84.58329 7:0.42487713 8:340.316 9:0.6096831 10:3.4106341 
0.19081019648481187 1:5954 2:152.66074 3:50.820063 4:0.94296375 5:6106 6:87.068182 7:0.76845638 8:338.306 9:0.65373132 10:3.0039464 
0.28870292322257551 1:6540 2:171.16244 3:50.075706 4:0.95624641 5:6777 6:91.252324 7:0.5078034 8:374.151 9:0.58707528 10:3.4180734 
0.25930178918570396 1:6421 2:154.6525 3:53.696955 4:0.93778726 5:6557 6:90.418312 7:0.49335382 8:346.821 9:0.67081345 10:2.8800981 
0.28892596378861113 1:6064 2:148.15339 3:53.59507 4:0.93227362 5:6282 6:87.868792 7:0.76392038 8:336.852 9:0.67156924 10:2.76431 
0.24412450733518917 1:6067 2:146.14573 3:54.101962 4:0.92895531 5:6205 6:87.890525 7:0.58561776 8:332.668 9:0.68890891 10:2.7013018 
0.28867698774248196 1:6652 2:163.66839 3:53.157151 4:0.94578764 5:6893 6:92.030372 7:0.44222843 8:374.958 9:0.5945616 10:3.0789533 
0.28727720845402072 1:6179 2:145.08022 3:56.061359 4:0.92232449 5:6421 6:88.698067 7:0.56912591 8:336.911 9:0.68406548 10:2.5878828 
0.28072256936523565 1:6181 2:153.73717 3:52.065987 4:0.94090564 5:6392 6:88.712421 7:0.81889242 8:344.848 9:0.65315038 10:2.9527371 
0.28479781570148627 1:6589 2:159.12644 3:53.858354 4:0.94097983 5:6751 6:91.593533 7:0.58258179 8:352.45 9:0.66655247 10:2.9545359 
0.28869821948110752 1:7232 2:171.15709 3:55.172653 4:0.94662023 5:7494 6:95.958681 7:0.62761434 8:384.281 9:0.61541837 10:3.1022088 
0.23961694680262263 1:6232 2:150.88224 3:53.578294 4:0.93482829 5:6400 6:89.077656 7:0.62344938 8:346.222 9:0.65332306 10:2.8161075 
0.27666111308960806 1:6324 2:156.57449 3:52.434408 4:0.9422591 5:6448 6:89.732753 7:0.47222222 8:346.923 9:0.66029124 10:2.986102 
0.27371838976309715 1:6396 2:154.47742 3:53.88631 4:0.93718614 5:6559 6:90.242119 7:0.48943985 8:346.475 9:0.66953689 10:2.8667286 
0.28861614676209113 1:6433 2:155.7414 3:53.375896 4:0.93943713 5:6665 6:90.502762 7:0.4749354 8:361.898 9:0.61723572 10:2.9178228 
0.28869903218811493 1:4516 2:145.32969 3:40.24837 4:0.96088569 5:4625 6:75.828423 7:0.40684685 8:312.082 9:0.58267496 10:3.6108217 
0.23307551586142136 1:6411 2:161.00827 3:52.098855 4:0.94620124 5:6660 6:90.347876 7:0.59943899 8:358.247 9:0.62772658 10:3.0904378 
0.28867421191815307 1:6051 2:150.36479 3:51.983255 4:0.93833983 5:6153 6:87.774555 7:0.84582052 8:332.898 9:0.68614301 10:2.892562 
0.27620297112515041 1:6402 2:166.05232 3:49.465368 4:0.95460012 5:6565 6:90.284437 7:0.79037037 8:359.536 9:0.62235871 10:3.3569408 
0.27268104606424776 1:6348 2:155.86232 3:52.950025 4:0.94052551 5:6525 6:89.902862 7:0.5917226 8:354.377 9:0.63520766 10:2.9435741 
0.2872542011461714 1:6827 2:166.60984 3:53.447898 4:0.94714806 5:7017 6:93.233076 7:0.6647517 8:371.975 9:0.62002937 10:3.1172385 
0.28808319709085795 1:6077 2:151.18398 3:52.033841 4:0.93890529 5:6252 6:87.962928 7:0.56456708 8:340.913 9:0.65707051 10:2.9054934 
0.28882543603882077 1:6563 2:159.90061 3:53.384703 4:0.94262204 5:6855 6:91.412642 7:0.50434181 8:365.809 9:0.61631608 10:2.9952514 
0.28731435647472325 1:6249 2:158.3331 3:51.314952 4:0.94602457 5:6439 6:89.199069 7:0.50701826 8:352.046 9:0.63360933 10:3.085516 
0.28337958112597589 1:6294 2:158.49161 3:51.344232 4:0.94607231 5:6466 6:89.519661 7:0.47444595 8:350.154 9:0.64508719 10:3.0868434 
0.27400861529972775 1:5289 2:139.73197 3:48.916117 4:0.93672315 5:5429 6:82.061952 7:0.50409836 8:313.642 9:0.67563945 10:2.856563 
0.28477875080521775 1:5741 2:145.1999 3:51.953719 4:0.93379509 5:5937 6:85.496598 7:0.54927287 8:329.327 9:0.66518544 10:2.7947932 
0.2885240465248709 1:6255 2:148.83741 3:54.726803 4:0.92994636 5:6365 6:89.241881 7:0.55823293 8:335.53 9:0.69819135 10:2.7196438 
0.28882741280413216 1:6577 2:152.66834 3:55.989064 4:0.93032483 5:6757 6:91.51009 7:0.71195064 8:349.051 9:0.67835953 10:2.7267529 
0.28199622311796135 1:6706 2:152.09536 3:57.740539 4:0.92513684 5:6888 6:92.403162 7:0.55827506 8:347.82 9:0.69656927 10:2.6341174 
0.28865963599833755 1:4179 2:118.5823 3:52.066166 4:0.89845188 5:5019 6:72.944281 7:0.41894737 8:448.305 9:0.26129739 10:2.2775308 
0.28854229141793164 1:6390 2:164.56276 3:49.86897 4:0.95297808 5:6532 6:90.199782 7:0.66300062 8:360.677 9:0.61726809 10:3.2999029 
0.24820641237160984 1:5950 2:153.17094 3:50.569108 4:0.94392912 5:6107 6:87.03893 7:0.46824585 8:340.695 9:0.64416231 10:3.0289429 
0.28893053898019289 1:4960 2:136.98023 3:46.956779 4:0.93940852 5:5077 6:79.468661 7:0.48484848 8:303.676 9:0.67588156 10:2.9171555 
0.28833913301053304 1:5791 2:144.81104 3:52.177136 4:0.9328319 5:5954 6:85.868098 7:0.76408497 8:328.879 9:0.67280799 10:2.7753734 
0.28877112629148982 1:6605 2:168.23087 3:50.873493 4:0.95318021 5:6859 6:91.704674 7:0.51633834 8:377.708 9:0.58179545 10:3.3068472 
0.28865076437199633 1:5351 2:135.99233 3:51.217338 4:0.92636812 5:5472 6:82.541534 7:0.54176369 8:311.729 9:0.691975 10:2.6552011 
0.27338589992666235 1:5579 2:145.68181 3:49.571733 4:0.94032633 5:5715 6:84.281691 7:0.48136324 8:325.054 9:0.6635218 10:2.9388081 
0.28656837886414271 1:5287 2:143.5183 3:47.855426 4:0.94276963 5:5415 6:82.046435 7:0.46639026 8:321.046 9:0.64459161 10:2.9989974 
0.28895643070146154 1:7020 2:154.839 3:58.416302 4:0.92610281 5:7236 6:94.541745 7:0.59693878 8:360.961 9:0.67705884 10:2.6506128 
0.28565197396708242 1:5926 2:143.13807 3:53.709182 4:0.92693319 5:6084 6:86.863212 7:0.66241896 8:328.301 9:0.69091894 10:2.6650577 
0.28867065972034722 1:3852 2:92.20829 3:55.277012 4:0.80038985 5:4023 6:70.032269 7:0.65398981 8:245.517 9:0.80303228 10:1.6681128 
0.26070891565025406 1:5953 2:151.10163 3:51.149461 4:0.94096268 5:6150 6:87.06087 7:0.48955592 8:343.836 9:0.63276588 10:2.9541197 
0.28228584396287476 1:5980 2:160.73042 3:48.201237 4:0.95397419 5:6120 6:87.25808 7:0.47855314 8:348.176 9:0.61988822 10:3.3345704 
0.2886742744830938 1:4254 2:142.34306 3:40.14546 4:0.95940467 5:4462 6:73.595931 7:0.41353164 8:312.765 9:0.54647595 10:3.5456827 
0.28524326503935254 1:5250 2:137.88505 3:49.36008 4:0.93372928 5:5398 6:81.758838 7:0.49734748 8:311.997 9:0.67774814 10:2.7934527 
0.28885215994605629 1:5533 2:130.83002 3:54.52957 4:0.90899956 5:5682 6:83.933512 7:0.65494792 8:307.965 9:0.73310775 10:2.3992491 
0.26731067889398519 1:5269 2:138.51611 3:49.120624 4:0.93501039 5:5412 6:81.906649 7:0.70215885 8:316.144 9:0.66247299 10:2.8199175 
0.19434452335187549 1:5991 2:150.87925 3:51.705575 4:0.93944669 5:6173 6:87.338297 7:0.50633874 8:340.625 9:0.64886768 10:2.9180461 
0.28897321227490436 1:5009 2:132.40003 3:49.226887 4:0.92831118 5:5215 6:79.860233 7:0.50821834 8:311.152 9:0.6501532 10:2.6895878 
0.28612566360453812 1:6007 2:158.09785 3:49.791131 4:0.94911202 5:6205 6:87.454845 7:0.66302428 8:349.265 9:0.61881006 10:3.1752212 
0.28897803727598903 1:6630 2:168.45174 3:50.999621 4:0.95306839 5:6874 6:91.878061 7:0.60432048 8:366.467 9:0.62037408 10:3.3029998 
0.28831016994571401 1:4715 2:137.44614 3:44.242867 4:0.94677626 5:4836 6:77.481123 7:0.65897973 8:305.483 9:0.63491775 10:3.1066282 
0.25208636981218352 1:5430 2:141.77124 3:49.758073 4:0.93638506 5:5541 6:83.148606 7:0.47934322 8:316.538 9:0.68101705 10:2.8492108 
0.28107109944405773 1:6433 2:151.00752 3:56.052797 4:0.9285561 5:6637 6:90.502762 7:0.58080534 8:346.86 9:0.67191599 10:2.6940229 
0.28816937530046205 1:6055 2:145.91447 3:54.060905 4:0.92883357 5:6228 6:87.803562 7:0.49171675 8:336.394 9:0.67239973 10:2.6990755 
0.28905284405509757 1:6522 2:170.43899 3:49.983142 4:0.95603236 5:6736 6:91.126661 7:0.4322927 8:372.552 9:0.59049586 10:3.4099295 
0.28869421687960306 1:5324 2:140.82612 3:48.950807 4:0.93764385 5:5484 6:82.333027 7:0.60226244 8:319.056 9:0.65722501 10:2.8768907 
0.17672600624161131 1:5716 2:151.56742 3:49.06455 4:0.94615485 5:5872 6:85.310241 7:0.71521522 8:336.959 9:0.63262735 10:3.0891431 
0.28298678724635695 1:5733 2:147.61171 3:50.566129 4:0.93949531 5:5892 6:85.437008 7:0.75 8:330.955 9:0.65773948 10:2.9191815 
0.28893129701821674 1:4941 2:139.58493 3:46.204597 4:0.94362576 5:5100 6:79.316307 7:0.55342742 8:306.881 9:0.65930249 10:3.0210181 
0.27796995371835714 1:5419 2:138.6635 3:50.722999 4:0.93069379 5:5587 6:83.064343 7:0.50777736 8:315.196 9:0.68543712 10:2.7337402 
0.20472594723848753 1:5665 2:151.06871 3:48.982566 4:0.94597475 5:5826 6:84.928806 7:0.45774079 8:339.903 9:0.61616891 10:3.0841323 
0.26303901103198046 1:6396 2:153.93508 3:54.217317 4:0.93592138 5:6620 6:90.242119 7:0.57286162 8:348.158 9:0.66307944 10:2.8392235 
0.28879732618211607 1:5906 2:146.02235 3:52.213062 4:0.93388673 5:6044 6:86.716508 7:0.51214013 8:328.644 9:0.68715054 10:2.7966632 
0.28005927531573854 1:5748 2:152.22354 3:48.867041 4:0.94707188 5:5887 6:85.548705 7:0.4589588 8:337.28 9:0.63495865 10:3.1150554 
0.28565042597531609 1:6731 2:154.46783 3:57.099232 4:0.92917056 5:6924 6:92.575242 7:0.49463551 8:354.309 9:0.67379081 10:2.7052523 
0.28945273378121905 1:6029 2:155.28429 3:50.099347 4:0.94652522 5:6131 6:87.614846 7:0.46845377 8:340.696 9:0.65271122 10:3.0995273 
0.28851468178001405 1:5410 2:150.28159 3:47.213203 4:0.94936843 5:5591 6:82.995337 7:0.45317474 8:329.728 9:0.62531014 10:3.1830417 
0.28550469129858613 1:5969 2:146.37894 3:52.719742 4:0.9328908 5:6119 6:87.177789 7:0.58953086 8:330.724 9:0.68577243 10:2.7765489 
0.18471108297737496 1:6365 2:159.41208 3:51.528985 4:0.94631568 5:6501 6:90.023162 7:0.46773957 8:350.495 9:0.65109539 10:3.093639 
0.26733564303613466 1:5885 2:150.95385 3:50.547342 4:0.9422704 5:6024 6:86.562201 7:0.82284676 8:339.796 9:0.64050099 10:2.9863856 
0.28871186712345842 1:5697 2:160.78822 3:45.783946 4:0.95860273 5:5880 6:85.168337 7:0.42834586 8:349.296 9:0.58677129 10:3.5118907 
0.23886025036176953 1:6006 2:149.9271 3:51.915192 4:0.93813506 5:6189 6:87.447565 7:0.48318584 8:342.969 9:0.64163118 10:2.8879235 
0.284659703777006 1:5463 2:137.58181 3:51.516259 4:0.92725078 5:5600 6:83.400885 7:0.61375126 8:313.473 9:0.69861963 10:2.6706484 
0.15200771629369916 1:5868 2:147.73364 3:51.412852 4:0.93749065 5:6007 6:86.437085 7:0.56271577 8:330.526 9:0.67497659 10:2.8734769 
0.28886508228517682 1:6855 2:158.34547 3:56.029 4:0.93530588 5:7011 6:93.424071 7:0.58957599 8:359.778 9:0.66550009 10:2.8261342 
0.28897232425931696 1:4722 2:133.37079 3:46.057385 4:0.93848008 5:4837 6:77.538617 7:0.80088195 8:300.314 9:0.65793757 10:2.8957525 
0.24813985976433078 1:4355 2:104.81044 3:53.847246 4:0.85793489 5:4432 6:74.464476 7:0.57727996 8:257.1 9:0.82793048 10:1.9464401 
0.28798107569568554 1:5896 2:150.99543 3:50.6046 4:0.94216836 5:6016 6:86.643063 7:0.61111111 8:335.976 9:0.65637318 10:2.9838282 
0.19692748456394621 1:6048 2:141.4124 3:55.657205 4:0.91929003 5:6227 6:87.752793 7:0.76056338 8:332.932 9:0.68566277 10:2.5407744 
0.28890777429861542 1:7420 2:164.68867 3:58.046585 4:0.93582593 5:7556 6:97.197929 7:0.76337449 8:369.436 9:0.68318031 10:2.8371811 
0.25782755720311867 1:6075 2:147.29927 3:53.347535 4:0.93211165 5:6211 6:87.948452 7:0.72511339 8:331.699 9:0.69385356 10:2.7611261 
0.28887880180035785 1:6440 2:163.09508 3:51.153752 4:0.94954073 5:6614 6:90.551989 7:0.47086349 8:358.713 9:0.62892882 10:3.1883308 
0.28271198476097947 1:5944 2:148.08909 3:52.143802 4:0.93595824 5:6120 6:86.995034 7:0.81424658 8:334.288 9:0.66841639 10:2.8400133 
0.19216053924937643 1:6621 2:157.51135 3:55.042067 4:0.93695566 5:6824 6:91.81568 7:0.51238198 8:354.446 9:0.66226727 10:2.861654 
0.16644225017123884 1:6526 2:151.86682 3:55.957681 4:0.92964143 5:6747 6:91.154601 7:0.78988138 8:348.512 9:0.67518294 10:2.7139584 
0.28471917321663009 1:5983 2:154.26008 3:50.573245 4:0.94473187 5:6201 6:87.279964 7:0.52593179 8:345.057 9:0.63146194 10:3.050231 
0.24055491759286438 1:5897 2:147.57956 3:51.631772 4:0.93680304 5:6047 6:86.65041 7:0.49847844 8:333.778 9:0.66515916 10:2.8583089 
0.2764826518333886 1:5419 2:138.51909 3:50.107513 4:0.93228009 5:5542 6:83.064343 7:0.52186055 8:315.188 9:0.68547192 10:2.7644374 
0.1658435168478741 1:6499 2:152.66399 3:55.121075 4:0.93254204 5:6663 6:90.965839 7:0.7917885 8:345.899 9:0.68258665 10:2.7696119 
0.28663203699768613 1:5809 2:145.22826 3:52.017969 4:0.93365226 5:5927 6:86.001445 7:0.49095673 8:326.95 9:0.68288655 10:2.7918865 
0.26855577180129786 1:6216 2:150.69312 3:53.153946 4:0.93572524 5:6379 6:88.963234 7:0.76883117 8:340.383 9:0.67419441 10:2.8350317 
0.17670943226249994 1:7034 2:157.71277 3:57.617223 4:0.93087803 5:7203 6:94.635971 7:0.49123542 8:358.881 9:0.68629573 10:2.7372504 
0.28867003523498841 1:3735 2:102.37099 3:46.943265 4:0.88866333 5:3821 6:68.960494 7:0.65480365 8:242.407 9:0.79874869 10:2.1807386 
0.28798289512603553 1:6761 2:162.38236 3:54.066819 4:0.94294098 5:6888 6:92.781316 7:0.46627586 8:358.916 9:0.65953092 10:3.0033645 
0.24445325100885434 1:6639 2:165.41171 3:52.109653 4:0.94908171 5:6784 6:91.940401 7:0.70657727 8:365.143 9:0.62572942 10:3.1743007 
0.24313296579132013 1:5665 2:154.24485 3:47.932593 4:0.95048955 5:5828 6:84.928806 7:0.4531275 8:339.047 9:0.61928415 10:3.2179533 
0.28869935910876632 1:4957 2:135.27108 3:47.419562 4:0.93654323 5:5035 6:79.444625 7:0.4831384 8:302.975 9:0.67860209 10:2.8526429 
0.28886338003590295 1:5438 2:151.7538 3:46.55298 4:0.95178481 5:5598 6:83.209835 7:0.48553571 8:334.497 9:0.6107516 10:3.2598084 
0.24792482871333016 1:5800 2:146.7647 3:50.911345 4:0.93790547 5:5949 6:85.934797 7:0.51119337 8:330.869 9:0.66577227 10:2.8827504 
0.2886082244025594 1:6354 2:159.6591 3:51.594601 4:0.94634613 5:6559 6:89.945339 7:0.61984197 8:358.893 9:0.6199078 10:3.0944925 
0.28869825824745166 1:6984 2:159.63148 3:57.331167 4:0.933281 5:7287 6:94.299019 7:0.48781169 8:373.626 9:0.62869487 10:2.7843752 
0.25810601486106932 1:6375 2:152.30658 3:54.303471 4:0.93427985 5:6539 6:90.093852 7:0.52117397 8:343.231 9:0.68001273 10:2.8047301 
0.28869960316548993 1:5497 2:129.76106 3:55.037068 4:0.90559587 5:5686 6:83.660013 7:0.64602186 8:307.543 9:0.73033802 10:2.357703 
0.074839034500593482 1:6125 2:153.5729 3:51.63531 4:0.94178108 5:6269 6:88.309638 7:0.49149414 8:342.082 9:0.6577419 10:2.9741837 
0.23338484534180337 1:6648 2:162.50563 3:53.203972 4:0.94488663 5:6810 6:92.002698 7:0.63898501 8:356.973 9:0.6555867 10:3.0543891 
0.28870831425899102 1:3749 2:116.675 3:41.802255 4:0.93361439 5:3886 6:69.089616 7:0.46751465 8:267.354 9:0.65910094 10:2.7911172 
0.28923827410788872 1:6473 2:165.07056 3:50.88731 4:0.95129693 5:6675 6:90.783697 7:0.48389026 8:365.535 9:0.60877602 10:3.2438453 
0.26416740718168674 1:5477 2:149.7739 3:47.247347 4:0.9489396 5:5611 6:83.507682 7:0.48077598 8:330.164 9:0.63138342 10:3.169996 
0.28870994452980359 1:6659 2:142.34725 3:60.865929 4:0.90397389 5:6882 6:92.078782 7:0.55812589 8:353.032 9:0.67141453 10:2.3387017 
0.27512356233970653 1:6486 2:159.79243 3:52.476324 4:0.94453768 5:6674 6:90.874813 7:0.66420891 8:356.452 9:0.64148233 10:3.0450387 
0.28789577178813797 1:6174 2:147.50852 3:54.022303 4:0.93052367 5:6299 6:88.662173 7:0.72978723 8:333.858 9:0.69607 10:2.7305115 
0.27855496077746866 1:6453 2:153.69406 3:54.383909 4:0.93530399 5:6594 6:90.643338 7:0.50264839 8:343.406 9:0.68763151 10:2.8260944 
0.24484692144059181 1:6223 2:161.7956 3:50.136656 4:0.95077681 5:6356 6:89.013312 7:0.82576964 8:351.034 9:0.63461641 10:3.2270919 
0.28627309522664957 1:5322 2:141.94984 3:49.410019 4:0.93746452 5:5527 6:82.317561 7:0.57127523 8:323.232 9:0.6401121 10:2.8728959 
0.27303497747014394 1:5395 2:147.38977 3:47.838177 4:0.94586196 5:5513 6:82.880199 7:0.45946176 8:326.513 9:0.63591689 10:3.0810072 
0.2853538823636167 1:6241 2:150.78898 3:53.882389 4:0.93397575 5:6416 6:89.141954 7:0.5100523 8:340.196 9:0.67765031 10:2.7984836 
0.28895509156967414 1:6206 2:168.20434 3:47.93064 4:0.95854094 5:6348 6:88.891645 7:0.50121144 8:360.059 9:0.60155355 10:3.509328 
0.28255105563294081 1:6344 2:152.40739 3:53.743065 4:0.93576371 5:6486 6:89.874533 7:0.54727398 8:343.023 9:0.67752692 10:2.8358523 
0.26300260377648432 1:5240 2:135.45508 3:50.203304 4:0.92878181 5:5392 6:81.680935 7:0.48667224 8:314.915 9:0.66397917 10:2.6981307 
0.28869649484546489 1:6491 2:161.45624 3:52.592423 4:0.94546009 5:6721 6:90.909834 7:0.77026225 8:360.066 9:0.62915441 10:3.0699524 
0.28895601137717608 1:6825 2:168.33446 3:52.664244 4:0.94980097 5:6978 6:93.219418 7:0.81599713 8:367.657 9:0.63449301 10:3.196371 
0.28289053845549744 1:6317 2:155.47585 3:52.685134 4:0.94083545 5:6478 6:89.683076 7:0.50150842 8:344.316 9:0.66958595 10:2.9510384 
0.28741480989732848 1:5620 2:142.98476 3:51.11525 4:0.93391796 5:5755 6:84.590817 7:0.50209953 8:321.532 9:0.68312122 10:2.7973015 
0.26875364715480549 1:6360 2:159.55892 3:51.79291 4:0.94585121 5:6532 6:89.987796 7:0.44962884 8:356.121 9:0.63019044 10:3.0807098 
0.28664665410177226 1:6566 2:158.33505 3:53.798989 4:0.94050516 5:6728 6:91.433532 7:0.83061354 8:351.845 9:0.666512 10:2.9430861 
0.28901141893521831 1:6045 2:141.21107 3:55.488343 4:0.91956149 5:6168 6:87.731027 7:0.65849673 8:323.339 9:0.72659096 10:2.544878 
0.28871213334297041 1:6846 2:162.04923 3:54.774606 4:0.94114175 5:7136 6:93.362722 7:0.46147624 8:365.514 9:0.6439301 10:2.9584737 
0.28883594071227259 1:7194 2:164.97075 3:56.404218 4:0.93973475 5:7440 6:95.706245 7:0.60276498 8:372.456 9:0.65167393 10:2.9247945 
0.28903157661768569 1:5166 2:116.48121 3:57.405443 4:0.87012557 5:5285 6:81.10213 7:0.62376238 8:286.844 9:0.78899223 10:2.0290969 
0.28841524051995643 1:6712 2:155.0612 3:55.943232 4:0.93265032 5:6867 6:92.444491 7:0.80711881 8:353.086 9:0.67655143 10:2.7717598 
0.28870533733829318 1:4589 2:134.81109 3:44.757049 4:0.94328 5:4745 6:76.43884 7:0.49745257 8:300.821 9:0.63725261 10:3.0120639 
0.2378440076677282 1:5535 2:139.7631 3:51.309313 4:0.93017504 5:5653 6:83.94868 7:0.55723346 8:315.607 9:0.69828745 10:2.7239323 
0.27280605795536356 1:5414 2:144.9472 3:48.329464 4:0.94277554 5:5540 6:83.026013 7:0.47143852 8:321.65 9:0.65759879 10:2.9991476 
0.28825437849393554 1:5380 2:150.96056 3:45.726527 4:0.95302114 5:5492 6:82.7649 7:0.55716653 8:327.962 9:0.62855761 10:3.3013783 
0.28871126289085547 1:4893 2:136.18512 3:47.362434 4:0.93757624 5:5125 6:78.930103 7:0.56829268 8:305.823 9:0.65742284 10:2.8753827 
0.28834587170547676 1:5771 2:157.53632 3:47.68784 4:0.95308267 5:5947 6:85.719691 7:0.63071038 8:342.45 9:0.61839589 10:3.3034903 
0.26985245789586276 1:6124 2:160.77646 3:49.414136 4:0.95159756 5:6266 6:88.302429 7:0.66536289 8:352.375 9:0.61977616 10:3.2536531 
0.28888798669769439 1:5860 2:149.95144 3:50.822022 4:0.94081405 5:5959 6:86.378144 7:0.82488739 8:334.247 9:0.65913207 10:2.950521 
0.28871189188270674 1:3466 2:91.053308 3:49.753422 4:0.83751077 5:3539 6:66.430778 7:0.8495098 8:228.007 9:0.83780329 10:1.8300913 
0.28711477686322623 1:6346 2:151.9227 3:54.311386 4:0.93391561 5:6525 6:89.888699 7:0.71950113 8:343.443 9:0.6760839 10:2.7972533 
0.26741491434410108 1:6210 2:162.81707 3:49.951768 4:0.95177502 5:6391 6:88.920288 7:0.4363713 8:362.133 9:0.59506617 10:3.2594857 
0.28862518670767157 1:6095 2:156.78809 3:50.237625 4:0.94727648 5:6229 6:88.093104 7:0.51586966 8:344.371 9:0.64584817 10:3.1209296 
0.28862591590924491 1:5661 2:146.01821 3:50.466398 4:0.93837561 5:5864 6:84.898817 7:0.48835404 8:343.232 9:0.60384778 10:2.8933749 
0.28880665121817739 1:6842 2:150.20884 3:59.484201 4:0.91824621 5:7094 6:93.335443 7:0.71749161 8:351.499 9:0.69589665 10:2.5251889 
0.28878194721069206 1:6003 2:135.94174 3:57.01859 4:0.90778583 5:6112 6:87.425723 7:0.62046512 8:316.558 9:0.75278615 10:2.3841652 
0.28881557326590884 1:6402 2:170.1409 3:49.259431 4:0.95717154 5:6611 6:90.284437 7:0.42386123 8:369.8 9:0.58829034 10:3.4539761 
0.28940519217151239 1:4564 2:125.27328 3:46.786569 4:0.92763982 5:4664 6:76.230344 7:0.79373913 8:286.214 9:0.70012205 10:2.6775479 
0.2885700008577794 1:5805 2:144.56428 3:51.622543 4:0.93406976 5:5936 6:85.97183 7:0.59679243 8:326.912 9:0.68257498 10:2.8004099 
0.27370147488622826 1:6564 2:158.05414 3:53.905903 4:0.94004163 5:6739 6:91.419606 7:0.63091119 8:356.072 9:0.65058312 10:2.9320378 
0.27737501696878519 1:6456 2:161.74981 3:52.415041 4:0.94603992 5:6707 6:90.664406 7:0.69255525 8:358.238 9:0.63216447 10:3.0859426 
0.28871604790792893 1:3393 2:84.05848 3:52.951486 4:0.77664682 5:3477 6:65.727481 7:0.68851461 8:224.485 9:0.84609489 10:1.5874622 
0.28871097028901027 1:5289 2:143.73509 3:47.788305 4:0.94311211 5:5463 6:82.061952 7:0.77211679 8:317.342 9:0.65997627 10:3.0077461 
0.28793809170364693 1:6473 2:157.61733 3:53.243402 4:0.9412173 5:6614 6:90.783697 7:0.48162202 8:348.468 9:0.66986867 10:2.9603166 
0.27029834666007668 1:6321 2:162.86971 3:50.292724 4:0.95112987 5:6492 6:89.711466 7:0.73619846 8:359.271 9:0.61539127 10:3.2384348 
0.28919302274395209 1:7030 2:158.64276 3:57.655683 4:0.93162115 5:7211 6:94.609059 7:0.56375301 8:364.732 9:0.66407549 10:2.7515546 
0.27963975436368516 1:5966 2:151.81615 3:50.859646 4:0.94221524 5:6130 6:87.155878 7:0.67641723 8:338.647 9:0.65373035 10:2.9850022 
0.28893026933000349 1:6258 2:152.57802 3:53.222047 4:0.93719027 5:6434 6:89.26328 7:0.48921201 8:342.168 9:0.67168653 10:2.8668198 
0.28106572323977475 1:6310 2:153.00782 3:54.047723 4:0.93553461 5:6533 6:89.633373 7:0.72048413 8:347.272 9:0.65750595 10:2.8309763 
0.28911764227156889 1:6477 2:156.92222 3:53.947451 4:0.93904851 5:6687 6:90.811742 7:0.67637845 8:350.812 9:0.66135536 10:2.9087976 
0.28688320572391501 1:6544 2:159.1265 3:53.622392 4:0.94151193 5:6708 6:91.280226 7:0.6991453 8:355.559 9:0.65047379 10:2.9675384 
0.28909747980271561 1:6697 2:169.302 3:51.67344 4:0.9522836 5:6874 6:92.341135 7:0.43657106 8:370.726 9:0.61232793 10:3.2763833 
0.28845362910375827 1:5115 2:145.68666 3:45.876347 4:0.94912572 5:5264 6:80.700807 7:0.47965116 8:319.098 9:0.63125864 10:3.1756377 
0.28593093138273873 1:6416 2:167.6596 3:49.788339 4:0.95488965 5:6546 6:90.383101 7:0.86399138 8:356.558 9:0.63418191 10:3.3674471 
0.22289837164409032 1:5633 2:145.06296 3:50.923938 4:0.93635779 5:5816 6:84.688596 7:0.50204991 8:327.187 9:0.66123759 10:2.8486202 
0.28859666477627466 1:5815 2:145.2175 3:51.807864 4:0.9341959 5:5970 6:86.045848 7:0.67608418 8:327.01 9:0.68334106 10:2.8030012 
0.23981798407508043 1:6658 2:160.28989 3:53.806592 4:0.94197501 5:6789 6:92.071868 7:0.46860923 8:354.945 9:0.66409702 10:2.979001 
0.28488278236494702 1:6758 2:159.43588 3:55.218336 4:0.93811065 5:6911 6:92.760729 7:0.81736817 8:356.072 9:0.6698112 10:2.8873721 
0.28423833489665662 1:7003 2:165.22895 3:54.787171 4:0.94342592 5:7195 6:94.427202 7:0.79561463 8:367.194 9:0.65268381 10:3.0158328 
0.28533757592399767 1:5682 2:148.2949 3:49.463475 4:0.9427331 5:5818 6:85.056141 7:0.50052854 8:329.321 9:0.65837335 10:2.9980688 
0.23112481903070614 1:6952 2:160.56068 3:56.341522 4:0.93641112 5:7139 6:94.082737 7:0.4702381 8:362.76 9:0.66386663 10:2.8497754 
0.28739990837399337 1:6294 2:162.45109 3:50.445957 4:0.95056354 5:6463 6:89.519661 7:0.44094157 8:358.906 9:0.61400961 10:3.2202996 
0.27852947879821399 1:5653 2:149.09801 3:49.453532 4:0.94339029 5:5788 6:84.838807 7:0.58098664 8:330.327 9:0.65102955 10:3.0149112 
0.28846599883144164 1:6348 2:162.83243 3:50.371501 4:0.95094967 5:6529 6:89.902862 7:0.45800866 8:352.522 9:0.64191028 10:3.23263 
0.28277256794203603 1:4877 2:132.3309 3:48.049716 4:0.93174909 5:5001 6:78.800947 7:0.58702455 8:298.818 9:0.68635549 10:2.7540412 
0.1840481074006097 1:6469 2:158.97926 3:52.487982 4:0.94392633 5:6636 6:90.755642 7:0.51768566 8:352.501 9:0.65422375 10:3.0288697 
0.22555327732366012 1:6156 2:156.82328 3:51.705042 4:0.94408485 5:6425 6:88.532834 7:0.45762712 8:350.695 9:0.62899809 10:3.0330364 
0.28891068272598769 1:6840 2:157.21402 3:56.685578 4:0.93273481 5:7027 6:93.321801 7:0.54737516 8:354.808 9:0.68277743 10:2.7734394 
0.28166053318966222 1:6521 2:157.19763 3:53.308894 4:0.94074305 5:6676 6:91.119674 7:0.55907064 8:348.787 9:0.67360218 10:2.9488068 
0.28477718503372607 1:5764 2:145.87445 3:51.418303 4:0.93581811 5:5882 6:85.667688 7:0.48363819 8:329.407 9:0.667526 10:2.837014 
0.28869944715106766 1:3957 2:102.3207 3:51.077112 4:0.86649458 5:4109 6:70.980341 7:0.60366133 8:253.068 9:0.77642846 10:2.0032594 
0.28865826274158468 1:6888 2:157.46458 3:56.532282 4:0.93333146 5:7130 6:93.648673 7:0.61226667 8:377.584 9:0.60712181 10:2.7853923 
0.28887026582723135 1:5604 2:154.29321 3:47.493466 4:0.95144685 5:5811 6:84.470317 7:0.44824828 8:341.288 9:0.60459695 10:3.2487249 
0.25311507534762478 1:6416 2:153.48745 3:54.08434 4:0.93586086 5:6564 6:90.383101 7:0.66694387 8:345.709 9:0.67461011 10:2.8379279 
0.28869127123615901 1:4769 2:126.15296 3:48.942589 4:0.92167526 5:4879 6:77.923548 7:0.78180328 8:288.198 9:0.72153144 10:2.5775703 
0.28068664368093588 1:5636 2:149.15852 3:49.09816 4:0.94427149 5:5815 6:84.711145 7:0.76680272 8:332.046 9:0.64236866 10:3.0379656 
0.28761545412372169 1:6789 2:171.4707 3:51.655287 4:0.95354568 5:6999 6:92.97324 7:0.53385232 8:375.879 9:0.60383676 10:3.3195189 
0.28584516160255713 1:5476 2:140.13089 3:50.768748 4:0.9320634 5:5613 6:83.500058 7:0.70124216 8:316.491 9:0.68699025 10:2.7601801 
0.28869420968750448 1:6279 2:160.58374 3:51.237564 4:0.94773092 5:6506 6:89.412925 7:0.78981132 8:359.503 9:0.61051355 10:3.1341017 
0.28254840515197044 1:6099 2:150.85884 3:52.798573 4:0.93675471 5:6247 6:88.122006 7:0.75801641 8:338.514 9:0.6688292 10:2.8572522 
0.16428193076342973 1:5824 2:145.27224 3:51.960425 4:0.93384567 5:5962 6:86.11241 7:0.70008414 8:327.043 9:0.68426057 10:2.7958248 
0.28865736467868847 1:6595 2:156.88927 3:54.766066 4:0.93709492 5:6714 6:91.635227 7:0.48592691 8:352.084 9:0.66854722 10:2.8647167 
0.28930909137974303 1:6214 2:150.85611 3:54.3465 4:0.93285429 5:6485 6:88.948921 7:0.6077856 8:344.163 9:0.65925397 10:2.7758201 
0.2888619692734426 1:6260 2:150.19313 3:54.243268 4:0.93250511 5:6488 6:89.277542 7:0.69555556 8:355.362 9:0.62293427 10:2.7688805 
0.24032307462019109 1:6379 2:152.45881 3:54.428561 4:0.93410247 5:6545 6:90.122112 7:0.73813932 8:346.181 9:0.66889201 10:2.8010811 
0.26546701513723148 1:6362 2:149.67095 3:55.273752 4:0.92930952 5:6523 6:90.001944 7:0.70127866 8:338.572 9:0.69743133 10:2.7078125 
0.28045351431773485 1:6655 2:171.686 3:50.126354 4:0.95642891 5:6815 6:92.051123 7:0.61313801 8:370.967 9:0.60769739 10:3.4250646 
0.21931820282187273 1:6401 2:163.99801 3:51.434578 4:0.94954551 5:6619 6:90.277385 7:0.5169601 8:361.266 9:0.6163161 10:3.1884778 
0.28902013635044821 1:4105 2:101.84228 3:52.147372 4:0.85896129 5:4241 6:72.295562 7:0.83843954 8:254.662 9:0.79541675 10:1.9529704 
0.27164577025559999 1:6516 2:160.36945 3:52.944327 4:0.94393207 5:6664 6:91.084735 7:0.8145 8:356.708 9:0.64352473 10:3.0290204 
0.28769942069138088 1:6424 2:150.37965 3:55.817515 4:0.928562 5:6631 6:90.439432 7:0.61134374 8:344.444 9:0.68042169 10:2.6941301 
0.18092672017206923 1:5932 2:147.75172 3:52.194316 4:0.93552635 5:6056 6:86.907174 7:0.48543372 8:332.764 9:0.67319105 10:2.8308009 
0.28905389511154811 1:6889 2:158.06057 3:56.72302 4:0.93338798 5:7143 6:93.655471 7:0.51464216 8:359.829 9:0.66861132 10:2.7865331 
0.26294035507552749 1:6116 2:145.18031 3:54.656324 4:0.92642799 5:6314 6:88.244734 7:0.4996732 8:340.627 9:0.66239829 10:2.6562399 
0.2756099539444834 1:6690 2:167.96775 3:51.625096 4:0.95159614 5:6849 6:92.292863 7:0.76967326 8:367.873 9:0.62121245 10:3.2536066 
0.2886619105390818 1:6815 2:168.92607 3:52.360605 4:0.95074906 5:6995 6:93.1511 7:0.44024548 8:376.837 9:0.60307128 10:3.2262054 
0.2784343888971878 1:5542 2:143.80033 3:49.721514 4:0.93832014 5:5665 6:84.001747 7:0.6129175 8:323.753 9:0.66442931 10:2.8921149 
0.28880279359335714 1:5621 2:159.32572 3:45.848524 4:0.95770075 5:5767 6:84.598342 7:0.46149425 8:342.958 9:0.60053949 10:3.4750458 
0.21881152052114727 1:6247 2:151.65397 3:53.332461 4:0.93612326 5:6400 6:89.184794 7:0.58219944 8:340.723 9:0.67620514 10:2.8435583 
0.26434595890407653 1:6055 2:155.4917 3:50.512838 4:0.94576255 5:6228 6:87.803562 7:0.66392544 8:346.809 9:0.63262055 10:3.078261 
0.27838270617537958 1:4299 2:117.16569 3:47.184281 4:0.91532581 5:4408 6:73.984166 7:0.74351435 8:270.997 9:0.73561122 10:2.483151 
0.21061355730362677 1:6291 2:154.93597 3:52.98193 4:0.93971445 5:6459 6:89.498324 7:0.47659091 8:347.154 9:0.65597185 10:2.9243172 
0.28604382045383014 1:5897 2:147.18614 3:51.644032 4:0.93642207 5:6021 6:86.65041 7:0.4953797 8:330.811 9:0.67714411 10:2.8500126 
0.20699420140708363 1:5383 2:140.42661 3:49.940172 4:0.93462613 5:5526 6:82.787973 7:0.49585483 8:314.701 9:0.6830272 10:2.8118967 
0.26118192594171868 1:6307 2:164.98589 3:50.194544 4:0.95259689 5:6484 6:89.612063 7:0.43080601 8:360.612 9:0.60947002 10:3.2869288 
0.24271618918306423 1:6462 2:158.40989 3:53.211298 4:0.94189447 5:6646 6:90.706526 7:0.79171772 8:351.854 9:0.65592145 10:2.9769974 
0.28745028702478181 1:4883 2:135.59434 3:46.407676 4:0.93960755 5:5006 6:78.849405 7:0.79813665 8:301.968 9:0.67293752 10:2.9218084 
0.2501345525206442 1:5490 2:151.96818 3:46.375444 4:0.95229933 5:5613 6:83.606729 7:0.49593496 8:331.263 9:0.6286897 10:3.2769105 
0.25133962263547605 1:6314 2:151.18745 3:54.299906 4:0.93327747 5:6441 6:89.661778 7:0.48824621 8:341.993 9:0.67839089 10:2.7843041 
0.24502873834696764 1:5971 2:154.14403 3:50.806873 4:0.9441184 5:6113 6:87.192393 7:0.45649847 8:339.928 9:0.6493563 10:3.0339209 
0.27853785419273602 1:7267 2:174.64576 3:54.112189 4:0.95078881 5:7440 6:96.190601 7:0.79118127 8:381.212 9:0.62839381 10:3.2274754 
0.26684747717514801 1:5486 2:153.35901 3:45.776933 4:0.95441113 5:5662 6:83.576265 7:0.43727084 8:342.836 9:0.58653351 10:3.3501374 
0.11323017847489833 1:6520 2:157.23218 3:53.70658 4:0.93985453 5:6652 6:91.112688 7:0.70319241 8:349.414 9:0.67108396 10:2.9276149 
0.25293402660622899 1:5630 2:144.44789 3:50.291332 4:0.93743422 5:5777 6:84.666042 7:0.49911348 8:322.945 9:0.6783614 10:2.8722224 
0.27702351524183133 1:5193 2:152.81989 3:44.054405 4:0.95754717 5:5335 6:81.313793 7:0.41560624 8:327.191 9:0.60957267 10:3.4688901 
0.20471339674378566 1:5597 2:154.69404 3:46.364459 4:0.9540281 5:5757 6:84.417544 7:0.61269841 8:342.782 9:0.59858958 10:3.3364789 
0.23749017793675997 1:5872 2:149.33932 3:50.6423 4:0.94074711 5:6041 6:86.46654 7:0.77273325 8:336.554 9:0.65145796 10:2.9489048 
0.2511745385145574 1:6749 2:167.42484 3:52.175166 4:0.95020242 5:6902 6:92.698941 7:0.55465155 8:367.005 9:0.62965888 10:3.2088989 
0.19102356576791935 1:5787 2:149.80925 3:49.779335 4:0.9431791 5:5976 6:85.838437 7:0.56260937 8:337.779 9:0.63737945 10:3.0094666 
0.28414600463927547 1:6777 2:157.3951 3:56.457928 4:0.93345215 5:7019 6:92.891035 7:0.48727351 8:358.27 9:0.6634779 10:2.7878299 
0.2521788503943454 1:6482 2:154.45804 3:53.986635 4:0.93692779 5:6626 6:90.846787 7:0.66041773 8:349.018 9:0.66868755 10:2.8610422 
0.2113980314093338 1:6826 2:161.98608 3:54.78198 4:0.94107806 5:6974 6:93.226247 7:0.46635239 8:361.662 9:0.65579845 10:2.9569227 
0.27854502594356867 1:4306 2:125.75657 3:44.839185 4:0.93427418 5:4452 6:74.044375 7:0.49267735 8:282.522 9:0.6779214 10:2.8046132 
0.27704077833131052 1:6680 2:164.37416 3:52.737143 4:0.94713478 5:6807 6:92.223859 7:0.45569275 8:360.487 9:0.64596221 10:3.1168576 
0.28274814704030093 1:5144 2:130.25941 3:50.973752 4:0.92025258 5:5313 6:80.929254 7:0.62313749 8:305.186 9:0.69403538 10:2.5554213 
0.21620027624818461 1:6112 2:154.06219 3:51.378761 4:0.94275235 5:6295 6:88.215872 7:0.49967299 8:345.05 9:0.64510313 10:2.998558 
0.27335781748927801 1:5975 2:150.51174 3:51.402034 4:0.93987629 5:6127 6:87.221593 7:0.47693167 8:332.541 9:0.67898062 10:2.9281282 
0.25296274348409387 1:5226 2:137.36291 3:48.885863 4:0.93452847 5:5353 6:81.571747 7:0.78421369 8:310.643 9:0.68054387 10:2.8098698 
0.2587472331541763 1:5959 2:151.5641 3:50.762836 4:0.94224425 5:6071 6:87.104733 7:0.78418213 8:337.579 9:0.65710142 10:2.9857295 
0.24945850203612019 1:6050 2:160.17897 3:48.880153 4:0.95230122 5:6231 6:87.767302 7:0.77030812 8:349.107 9:0.62380396 10:3.2769735 
0.25000012017356593 1:5933 2:154.2612 3:49.946827 4:0.9461321 5:6051 6:86.914499 7:0.48488068 8:340.652 9:0.64248401 10:3.0885086 
0.2503379068129048 1:7152 2:165.66921 3:55.909466 4:0.94133395 5:7327 6:95.42646 7:0.77933965 8:368.063 9:0.66342685 10:2.9631691 
0.24945708053993743 1:5792 2:150.34784 3:50.140228 4:0.94275193 5:5956 6:85.875511 7:0.48278736 8:333.778 9:0.65331556 10:2.9985473 
0.23625894383570015 1:5990 2:147.70816 3:52.600068 4:0.93444478 5:6163 6:87.331008 7:0.48897959 8:334.567 9:0.67246623 10:2.8081363 
0.24999997058976464 1:5529 2:141.32907 3:51.083952 4:0.93238996 5:5712 6:83.903167 7:0.61583872 8:326.565 9:0.65150414 10:2.7666041 
0.28096035355754156 1:5944 2:146.75197 3:52.508976 4:0.93379532 5:6102 6:86.995034 7:0.61108255 8:331.799 9:0.6784823 10:2.7947978 
0.28564258038714041 1:4945 2:145.34642 3:43.706261 4:0.95371749 5:5079 6:79.348406 7:0.47484156 8:317.891 9:0.61492152 10:3.3255285 
0.25417630535018476 1:6217 2:157.65994 3:51.035908 4:0.94615676 5:6408 6:88.97039 7:0.51397156 8:350.293 9:0.63668968 10:3.0891963 
0.25299686341309824 1:6183 2:150.68026 3:53.027925 4:0.93602877 5:6311 6:88.726772 7:0.48154206 8:338.935 9:0.67635744 10:2.8415267 
0.27867671752177886 1:3789 2:133.45702 3:36.550527 4:0.96176533 5:3893 6:69.457214 7:0.52211658 8:282.666 9:0.59591912 10:3.6513022 
0.25016423629702805 1:6364 2:158.94641 3:51.997942 4:0.94497542 5:6548 6:90.01609 7:0.67991453 8:354.153 9:0.6376145 10:3.0567828 
0.28897244047759413 1:5322 2:149.60995 3:46.792847 4:0.94983034 5:5525 6:82.317561 7:0.47239482 8:331.96 9:0.60689453 10:3.1972824 
0.25331090928296085 1:5887 2:157.68037 3:48.947962 4:0.9505978 5:6114 6:86.576909 7:0.50653932 8:352.64 9:0.5948956 10:3.2213877 
0.27392071758053937 1:6379 2:163.12812 3:50.633632 4:0.95060872 5:6508 6:90.122112 7:0.46024531 8:356.334 9:0.63131766 10:3.2217346 
0.25508618471038907 1:6775 2:150.58483 3:58.368211 4:0.92182338 5:6970 6:92.877327 7:0.61906067 8:350.375 9:0.69351034 10:2.5799116 
0.24967434527878157 1:6188 2:157.26011 3:51.487887 4:0.94488379 5:6393 6:88.76264 7:0.75389864 8:346.982 9:0.64587173 10:3.0543128 
0.21978267278061822 1:6212 2:164.88721 3:48.802401 4:0.95519586 5:6386 6:88.934605 7:0.54510355 8:358.636 9:0.60692293 10:3.3786701 
0.24959506481124702 1:5417 2:148.11249 3:47.156697 4:0.94796171 5:5588 6:83.049013 7:0.4568224 8:329.406 9:0.62734391 10:3.140858 
0.27150176796431291 1:5270 2:140.90828 3:48.515646 4:0.93885728 5:5423 6:81.914421 7:0.50435448 8:316.874 9:0.6595493 10:2.9043884 
0.24467395707534512 1:5939 2:147.24153 3:52.71793 4:0.93370736 5:6098 6:86.958436 7:0.4900165 8:330.745 9:0.68223911 10:2.7930066 
0.15644174053622936 1:6363 2:162.56695 3:50.744067 4:0.95003527 5:6527 6:90.009017 7:0.71102917 8:356.865 9:0.62786153 10:3.2036643 
0.27877832688557569 1:4107 2:106.29231 3:50.496475 4:0.87994706 5:4184 6:72.313172 7:0.53658218 8:256.199 9:0.78628449 10:2.1049452 
0.28508361351743383 1:5567 2:149.61875 3:47.841719 4:0.94749941 5:5722 6:84.191 7:0.80681159 8:336.422 9:0.61810507 10:3.1273699 
0.28881490780526031 1:6275 2:141.03414 3:57.385306 4:0.9134774 5:6467 6:89.38444 7:0.6302732 8:332.61 9:0.71277587 10:2.4576699 
0.25001252662737949 1:6399 2:150.01531 3:55.708288 4:0.92849269 5:6551 6:90.263281 7:0.50894775 8:339.684 9:0.69690213 10:2.6928724 
0.24999997679991234 1:6894 2:162.07662 3:55.342043 4:0.93989774 5:7103 6:93.689452 7:0.67390029 8:369.312 9:0.63517633 10:2.9286346 
